3507 24
3042 -0.14944 0.094612 -0.0754848 0.0888911 0.0645813 0.0969619 -0.0113439 0.018084 -0.0493289 0.0464839 0.0282644 -0.0736015 0.0307288 -0.00486041 -0.0529316 0.0619999 0.0760305 -0.0482662 -0.00785392 -0.0543027 -0.000965884 0.0433504 0.0388787 -0.0629415
43 -1.28474 0.816658 -0.594908 0.807008 0.586625 0.739969 -0.0504117 0.182511 -0.28141 0.450067 0.13956 -0.673816 0.291088 -0.173395 -0.456159 0.451487 0.570488 -0.603065 -0.155584 -0.354627 0.163196 0.34661 0.194168 -0.443991
2815 -0.356487 0.221649 -0.154865 0.214349 0.156183 0.197403 -0.00662758 0.0610054 -0.0653343 0.118549 0.0580834 -0.18114 0.0790598 -0.0411993 -0.14229 0.124663 0.164178 -0.164373 -0.0303183 -0.0957392 0.0421341 0.0957207 0.0483285 -0.117778
2843 -0.154519 0.112556 -0.0851941 0.0861495 0.0839203 0.0793391 -0.00173389 0.00699359 -0.0171711 0.0709942 0.0174735 -0.0670223 0.0331407 -0.00949354 -0.0601822 0.0757358 0.0584833 -0.0896391 -0.0302507 -0.0601072 0.0231468 0.0245247 0.00411514 -0.0466982
2828 -1.34146 0.859456 -0.602512 0.83523 0.577075 0.743764 -0.106118 0.170973 -0.295291 0.395845 0.122273 -0.664496 0.306778 -0.212348 -0.488875 0.489458 0.607795 -0.615546 -0.204391 -0.367537 0.196705 0.371444 0.18714 -0.477669
2905 -0.229954 0.144202 -0.102469 0.124733 0.0852894 0.126066 -0.00902125 0.015869 -0.0406539 0.0608107 0.00943509 -0.135536 0.0328037 -0.0448603 -0.08157 0.0650579 0.121838 -0.112529 -0.0459369 -0.0768747 0.0233922 0.0429546 0.0265556 -0.0940893
221 -0.366561 0.219659 -0.169763 0.244734 0.177355 0.228771 -0.00273098 0.0420493 -0.0812452 0.138483 0.0212797 -0.204656 0.0743241 -0.0485434 -0.122566 0.145509 0.14804 -0.188057 -0.03403 -0.0952712 0.0533456 0.0871945 0.0345043 -0.115734
543 -0.981061 0.604319 -0.458392 0.59728 0.444501 0.559235 -0.0333742 0.121401 -0.226271 0.311359 0.126453 -0.507216 0.201919 -0.154155 -0.366752 0.361542 0.455573 -0.474935 -0.129676 -0.287513 0.128298 0.256502 0.152537 -0.355093
483 -0.469833 0.296688 -0.199006 0.304198 0.22751 0.253373 -0.0106871 0.0529036 -0.0810519 0.145576 0.0452556 -0.24011 0.108898 -0.0561752 -0.171891 0.18696 0.227487 -0.239263 -0.0452755 -0.147541 0.0435184 0.135284 0.0801333 -0.169919
2755 -0.245912 0.14886 -0.126921 0.159276 0.0949957 0.128296 -8.38586e-05 0.0180224 -0.064762 0.106002 0.0313149 -0.15588 0.0545336 -0.027833 -0.10987 0.0929138 0.117721 -0.118629 -0.0200419 -0.0709975 0.0300022 0.0631463 0.0552272 -0.0703274
672 -0.455243 0.293187 -0.179991 0.267388 0.190318 0.245569 -0.0245982 0.0692367 -0.0793624 0.127421 0.0385747 -0.218171 0.0785279 -0.0730934 -0.156415 0.158395 0.207579 -0.189319 -0.0633176 -0.11345 0.0342443 0.0991532 0.0423424 -0.130614
2713 -0.186482 0.118935 -0.0886434 0.128635 0.0688701 0.116609 0.00234819 0.0275355 -0.0337677 0.0658156 0.00138359 -0.110675 0.0510697 -0.0282775 -0.0701866 0.0561548 0.0835707 -0.091237 -0.044002 -0.0377275 0.00925397 0.0646084 0.0405749 -0.0731293
550 -1.23799 0.78869 -0.531231 0.77 0.532042 0.66995 -0.0504632 0.176675 -0.242693 0.386989 0.124693 -0.626107 0.259509 -0.176671 -0.443883 0.428146 0.529145 -0.591105 -0.155704 -0.321764 0.163091 0.311 0.175407 -0.438712
2039 -0.261384 0.18287 -0.129459 0.165172 0.118916 0.166787 -0.0335982 0.051327 -0.0449625 0.0714286 0.0332433 -0.151673 0.0618416 -0.0581233 -0.119025 0.0909672 0.116437 -0.130247 -0.0426156 -0.0948306 0.0314102 0.0916428 0.0595213 -0.107003
3043 -0.155595 0.0870867 -0.0611268 0.0945869 0.0720626 0.0846377 0.00967085 0.00547364 -0.022314 0.0702399 0.0367752 -0.0820802 0.044904 -0.0218856 -0.068219 0.0525768 0.0884683 -0.0642935 -0.0234465 -0.0325236 0.00537523 0.0485713 0.0412127 -0.0527051
31 -0.454247 0.289905 -0.193236 0.295354 0.194275 0.237524 -0.032951 0.0782434 -0.0992963 0.133693 0.0403992 -0.228743 0.10332 -0.0763934 -0.143319 0.172884 0.211649 -0.229266 -0.0761931 -0.12611 0.036382 0.11918 0.0775192 -0.159971
191 -0.420946 0.269467 -0.201172 0.24208 0.181419 0.234466 -0.0171478 0.0784191 -0.0884315 0.125398 0.0451365 -0.208477 0.109935 -0.057457 -0.146238 0.175797 0.202963 -0.206552 -0.0525082 -0.112829 0.0327992 0.101817 0.0494347 -0.152212
60 -0.658979 0.437404 -0.283689 0.394233 0.306447 0.367079 -0.0311465 0.113428 -0.116342 0.217189 0.0577765 -0.356608 0.172914 -0.106401 -0.230055 0.265179 0.303276 -0.32069 -0.0831647 -0.171351 0.084276 0.195544 0.111862 -0.236054
345 -0.330438 0.22035 -0.143951 0.202658 0.131821 0.179598 -0.0354801 0.0333728 -0.0670543 0.101489 0.0465276 -0.190633 0.0994991 -0.0634557 -0.124591 0.136369 0.153278 -0.169572 -0.0465135 -0.109672 0.0534722 0.101602 0.0485879 -0.12444
1533 -0.186757 0.109871 -0.0948652 0.111692 0.0894823 0.0961824 -0.00795059 0.0253828 -0.0225464 0.0825139 0.0427781 -0.121855 0.0623119 -0.0417737 -0.0751091 0.060151 0.10018 -0.111236 -0.0224808 -0.0608029 0.0334111 0.0360889 0.021094 -0.0527578
1384 -0.523961 0.303903 -0.208576 0.309126 0.205436 0.287436 -0.0468112 0.0552926 -0.0844471 0.166962 0.0465551 -0.269118 0.111052 -0.0698965 -0.180766 0.180235 0.242938 -0.237272 -0.0703145 -0.139815 0.0514743 0.117621 0.0793942 -0.183036
160 -0.417946 0.264091 -0.192421 0.276607 0.186723 0.24837 -0.017562 0.0496063 -0.0958002 0.125905 0.0363346 -0.228276 0.0770247 -0.0423959 -0.132669 0.146914 0.199268 -0.184265 -0.0760395 -0.115985 0.0482832 0.102485 0.0432248 -0.133008
2147 -0.348353 0.213401 -0.178625 0.217574 0.17069 0.184814 -0.0267138 0.0499988 -0.0726926 0.139509 0.059332 -0.189097 0.0993109 -0.0568712 -0.125266 0.151905 0.173647 -0.161114 -0.0356137 -0.081335 0.0295706 0.0774836 0.057692 -0.145014
2176 -0.317314 0.225418 -0.138184 0.182729 0.149701 0.19199 -0.00398616 0.0511607 -0.070401 0.122451 0.0390174 -0.177987 0.0596188 -0.0348945 -0.114633 0.118283 0.129031 -0.14799 -0.0345785 -0.0717547 0.0313224 0.0734058 0.051179 -0.0984928
1860 -0.428482 0.260605 -0.202785 0.232735 0.189462 0.246817 -0.0220916 0.0568641 -0.091797 0.116738 0.0664925 -0.201443 0.101836 -0.0805528 -0.159575 0.154055 0.179601 -0.179666 -0.0324273 -0.106524 0.0302748 0.0880821 0.0434458 -0.126422
1861 -0.410465 0.25589 -0.166525 0.248538 0.174631 0.234263 -0.0343244 0.0561395 -0.10284 0.131373 0.0619234 -0.204401 0.0803745 -0.0762342 -0.16016 0.142121 0.184478 -0.201673 -0.0316188 -0.110296 0.055478 0.114767 0.0773295 -0.140871
2138 -0.275304 0.149294 -0.0967868 0.175236 0.130044 0.142897 -0.0242767 0.0340844 -0.0396619 0.0895711 0.0404003 -0.140544 0.0801778 -0.0225765 -0.0839945 0.081519 0.119581 -0.113857 -0.0151025 -0.086633 0.0187661 0.0492109 0.0448408 -0.0950398
196 -0.757902 0.448461 -0.330085 0.470969 0.333297 0.398949 -0.0375702 0.114591 -0.16228 0.224036 0.0999358 -0.389917 0.163878 -0.109634 -0.246581 0.264176 0.340656 -0.342507 -0.0947994 -0.195256 0.0957654 0.209025 0.0852829 -0.242373
1895 -0.625926 0.378575 -0.284179 0.369969 0.274729 0.359136 -0.0256169 0.0842661 -0.107496 0.19899 0.0656394 -0.324732 0.121885 -0.0865062 -0.22799 0.226022 0.270069 -0.274461 -0.0590338 -0.17581 0.0805206 0.156798 0.0676322 -0.220138
894 -0.245188 0.171864 -0.133437 0.148828 0.125881 0.133634 -0.00121061 0.0403375 -0.0564209 0.0808351 0.0331639 -0.128465 0.0754821 -0.0211082 -0.0873427 0.109651 0.0944722 -0.117181 -0.0355478 -0.0854601 0.0380392 0.0778129 0.0480157 -0.0884911
2413 -0.198773 0.128976 -0.113484 0.126304 0.0869254 0.0977276 -0.0147499 0.0410035 -0.0410222 0.0459447 0.00801413 -0.107035 0.0461341 -0.0529877 -0.0765474 0.0568904 0.102896 -0.0828577 -0.0442994 -0.03952 0.0407053 0.0654263 0.0482688 -0.0556115
116 -1.51215 0.970272 -0.708397 0.946921 0.652397 0.912238 -0.0993201 0.153564 -0.286922 0.430836 0.240868 -0.778565 0.29644 -0.19543 -0.627079 0.558917 0.642603 -0.764991 -0.239012 -0.450271 0.275475 0.396603 0.237466 -0.543191
1842 -0.302803 0.2047 -0.132361 0.177294 0.121751 0.16092 -0.0178956 0.05935 -0.073098 0.0788912 0.0156082 -0.137976 0.077657 -0.050144 -0.131367 0.121198 0.137152 -0.147427 -0.060974 -0.098811 0.057263 0.0988429 0.0434558 -0.115268
2874 -0.216977 0.15101 -0.109818 0.146364 0.10241 0.130295 -0.0337952 0.0151364 -0.0633556 0.0646446 0.0392428 -0.128833 0.0402149 -0.0128221 -0.0699262 0.0784925 0.110365 -0.116324 -0.0231673 -0.0496061 0.0472551 0.0525554 0.0431411 -0.0906454
2392 -0.394936 0.243866 -0.173779 0.25799 0.194725 0.219774 -0.0188206 0.053697 -0.0743731 0.124228 0.0500408 -0.191822 0.0847353 -0.061408 -0.13697 0.13916 0.183456 -0.178382 -0.0536028 -0.128688 0.0416893 0.0904377 0.0566083 -0.137435
3370 -0.209872 0.139349 -0.107169 0.11313 0.0925261 0.102998 -0.021328 0.0178218 -0.0427155 0.0846074 0.034719 -0.0991139 0.0360052 -0.0480752 -0.0735013 0.0678608 0.0763197 -0.115857 -0.0202312 -0.0424751 0.0309388 0.0758752 0.0360257 -0.0669092
434 -1.01099 0.65548 -0.471671 0.611246 0.437128 0.571713 -0.0376933 0.128691 -0.18903 0.316373 0.122396 -0.517115 0.233674 -0.144867 -0.368325 0.377555 0.417279 -0.492347 -0.109561 -0.293029 0.126043 0.251929 0.130822 -0.337562
3166 -0.247462 0.173448 -0.10099 0.142859 0.117426 0.122049 -0.00426278 0.03013 -0.06971 0.0845388 0.0405577 -0.130031 0.0562707 -0.041633 -0.0756523 0.0829147 0.0928279 -0.10219 -0.012883 -0.0802152 0.0301852 0.0831507 0.0443023 -0.0955104
3445 -0.148954 0.0998861 -0.0430925 0.0876223 0.0734853 0.0524827 -0.0127552 -0.00121802 -0.0174192 0.0303242 0.0168692 -0.0564278 0.0468257 -0.000538078 -0.045686 0.0401587 0.046019 -0.0613819 -0.00304835 -0.026697 -0.00553596 0.0240059 0.0163811 -0.0453072
1491 -1.31423 0.830493 -0.558034 0.826294 0.584049 0.719378 -0.0849468 0.212382 -0.25452 0.443566 0.175145 -0.664122 0.312145 -0.193194 -0.483971 0.496201 0.547113 -0.609035 -0.150562 -0.385976 0.136044 0.363578 0.194038 -0.441811
1628 -0.261215 0.156514 -0.104744 0.156851 0.0885442 0.139437 -0.00512071 0.0519431 -0.0555325 0.0791707 0.0340319 -0.13392 0.0543819 -0.0322462 -0.0839723 0.0793768 0.114963 -0.134811 -0.0274371 -0.0686198 0.0243277 0.0821273 0.0332475 -0.0995688
2156 -0.201493 0.135716 -0.0915111 0.107286 0.0923174 0.0997609 0.00189462 0.0132325 -0.0556259 0.0509304 0.0288863 -0.107313 0.0256482 -0.0453206 -0.0768478 0.0907334 0.100599 -0.0857853 -0.0297913 -0.0533821 0.020343 0.032829 0.00676786 -0.0773957
39 -1.16216 0.726491 -0.522087 0.697364 0.516766 0.673512 -0.0854771 0.184936 -0.247019 0.377518 0.149075 -0.608535 0.250285 -0.165184 -0.404063 0.445084 0.512318 -0.540581 -0.1508 -0.309231 0.130252 0.297995 0.153753 -0.384103
1439 -0.691737 0.440376 -0.319333 0.410238 0.29199 0.387534 -0.0467553 0.0970497 -0.157152 0.201229 0.0842418 -0.360831 0.151286 -0.109005 -0.248459 0.254327 0.285645 -0.312896 -0.0773998 -0.193264 0.0996 0.171525 0.0824727 -0.218363
1689 -0.358497 0.250204 -0.177866 0.24301 0.163587 0.189484 -0.0260432 0.044054 -0.0572663 0.101538 0.0291816 -0.171301 0.0981654 -0.0435343 -0.128363 0.118898 0.143261 -0.165647 -0.0464064 -0.106462 0.0656763 0.0762621 0.0581064 -0.112281
1017 -0.947314 0.594206 -0.431504 0.592718 0.415622 0.539053 -0.0449723 0.133674 -0.190995 0.331503 0.11623 -0.474777 0.217033 -0.143176 -0.336144 0.346798 0.42402 -0.444862 -0.122317 -0.249006 0.135448 0.255384 0.126313 -0.350104
1456 -0.222321 0.1243 -0.108528 0.149398 0.0984921 0.1363 0.000788802 0.0504844 -0.0520429 0.073503 0.0328231 -0.121627 0.0475736 -0.0287032 -0.0714912 0.0785749 0.0776852 -0.107078 -0.0294006 -0.0668799 0.0462362 0.0767089 0.0205242 -0.0835657
1433 -0.268224 0.170739 -0.109771 0.170471 0.120101 0.16648 0.00118761 0.0259247 -0.0431508 0.0746865 0.0128739 -0.14829 0.0521336 -0.0445873 -0.111169 0.0922497 0.143167 -0.123416 -0.0414199 -0.0901397 0.0187759 0.0844437 0.0341927 -0.0868694
353 -1.12458 0.708836 -0.506585 0.693823 0.490344 0.652249 -0.046565 0.1791 -0.238827 0.354437 0.132009 -0.574111 0.253236 -0.158803 -0.428214 0.426309 0.513828 -0.512742 -0.13539 -0.306837 0.159318 0.310034 0.162126 -0.388732
1142 -0.314503 0.200573 -0.11723 0.209823 0.141556 0.185353 -0.0343838 0.0281435 -0.0634134 0.112303 0.0214186 -0.177771 0.0676703 -0.0275567 -0.124299 0.106449 0.127899 -0.12513 -0.0532131 -0.0722375 0.0473048 0.0733076 0.0312056 -0.124177
3259 -0.225764 0.122406 -0.0792082 0.126712 0.0788906 0.112983 -0.0230739 0.0508132 -0.060222 0.0556357 0.0322894 -0.109528 0.0360004 -0.0524921 -0.0729122 0.0862244 0.0911195 -0.106428 -0.0320562 -0.0451504 0.0137961 0.070895 0.00998582 -0.0735508
398 -0.56011 0.368303 -0.261253 0.347165 0.227694 0.301534 -0.00957092 0.0784541 -0.127434 0.200276 0.0585772 -0.287704 0.121171 -0.0779596 -0.193313 0.201913 0.234499 -0.280813 -0.0791095 -0.163943 0.0798181 0.146363 0.0922282 -0.186774
1023 -0.344621 0.215251 -0.163343 0.225054 0.163098 0.205556 -0.0371233 0.0692752 -0.083143 0.0988841 0.0612493 -0.198112 0.068795 -0.0696496 -0.141608 0.116795 0.137039 -0.178738 -0.0461782 -0.101935 0.0589976 0.0765668 0.0362959 -0.104391
2197 -0.201513 0.151159 -0.1088 0.133744 0.114823 0.136892 0.00977372 0.0482255 -0.0259676 0.0635784 0.00922732 -0.0916638 0.0583764 -0.0456839 -0.0953475 0.0749564 0.0747429 -0.125727 -0.0142324 -0.0682471 0.0367415 0.0618054 0.0236589 -0.0647032
343 -1.23738 0.811131 -0.520929 0.787284 0.519839 0.695804 -0.0953333 0.172016 -0.266516 0.421807 0.170949 -0.650489 0.281372 -0.176524 -0.426037 0.463441 0.512342 -0.583843 -0.179907 -0.369947 0.127376 0.327784 0.186201 -0.437517
2653 -0.192605 0.147967 -0.0929776 0.137406 0.106957 0.104727 0.00286954 0.0335673 -0.0537362 0.0596786 0.0368178 -0.0961512 0.0311141 -0.0316417 -0.0652587 0.0676097 0.0969568 -0.107318 -0.0347841 -0.0643274 0.0306657 0.0550689 0.0361834 -0.0698172
2137 -0.248941 0.145125 -0.131765 0.154082 0.100115 0.15971 -0.0268884 0.0317936 -0.0364218 0.0910931 0.0418593 -0.132629 0.0642755 -0.0552311 -0.0880984 0.106042 0.124731 -0.103827 -0.0481284 -0.0557263 0.027801 0.0452698 0.0382988 -0.0783735
2776 -0.550529 0.37362 -0.242818 0.352111 0.253299 0.296914 -0.0456757 0.0611651 -0.103633 0.16278 0.0705604 -0.301742 0.109965 -0.0902129 -0.184481 0.211922 0.256603 -0.257148 -0.0839166 -0.146275 0.0728648 0.131641 0.0809722 -0.196657
2811 -0.241162 0.158654 -0.119378 0.157395 0.0947715 0.138821 -0.0122635 0.0183085 -0.0680697 0.0877971 0.0378641 -0.119132 0.0454097 -0.0281458 -0.0817556 0.0889383 0.104955 -0.116714 -0.030622 -0.0646613 0.0238313 0.062498 0.0231175 -0.102505
1125 -0.198461 0.107012 -0.0933681 0.122243 0.0777167 0.102206 -0.00138279 0.0226319 -0.039883 0.059919 0.0157237 -0.121296 0.0253182 -0.0241835 -0.0703165 0.0675763 0.0863686 -0.0835529 -0.0346492 -0.0597194 0.0330681 0.0411676 0.0222582 -0.0814582
1099 -1.59149 1.00528 -0.672554 0.956039 0.671218 0.891588 -0.0697552 0.238836 -0.334893 0.508714 0.171416 -0.802886 0.372577 -0.202427 -0.564746 0.5595 0.713163 -0.76244 -0.19848 -0.458594 0.173532 0.382815 0.20892 -0.531798
1102 -0.159524 0.123086 -0.0876172 0.122432 0.064824 0.0853249 -0.0151356 0.00615286 -0.0439213 0.0614057 0.0330763 -0.107112 0.0593858 -0.0022527 -0.0759125 0.0624935 0.0962123 -0.0800504 -0.0370225 -0.0494079 0.0283219 0.0559261 0.0326899 -0.0446968
3025 -0.295651 0.201377 -0.126069 0.174127 0.120109 0.150168 -0.00208597 0.0483649 -0.04169 0.0836935 0.0316706 -0.148379 0.0669881 -0.0589233 -0.0911036 0.101636 0.136004 -0.149558 -0.0206215 -0.0991304 0.0258069 0.084957 0.0327838 -0.113635
955 -0.433927 0.26312 -0.184253 0.258358 0.200736 0.245022 -0.0289998 0.0659371 -0.0710157 0.130719 0.0328009 -0.239337 0.110101 -0.0715645 -0.163796 0.169004 0.212223 -0.192724 -0.0472431 -0.12573 0.0516878 0.118725 0.0575676 -0.151206
487 -0.275182 0.174523 -0.108742 0.183937 0.110489 0.177805 -0.0133044 0.0461481 -0.0518317 0.0987811 0.0120745 -0.135358 0.0855588 -0.0581168 -0.120131 0.119672 0.120826 -0.13855 -0.0387627 -0.0812258 0.0365958 0.0778267 0.0521578 -0.0825202
139 -0.253547 0.139808 -0.107749 0.169128 0.0880428 0.146962 -0.0019757 0.0341941 -0.0599941 0.0755981 0.0397647 -0.143523 0.0629981 -0.043838 -0.0866467 0.113049 0.108309 -0.105848 -0.0182465 -0.0561371 0.0219735 0.0799095 0.0218636 -0.0744185
1337 -0.470087 0.293452 -0.197776 0.272375 0.220563 0.257912 -0.0216554 0.0858889 -0.109965 0.142689 0.071649 -0.254628 0.105864 -0.0843711 -0.159885 0.190226 0.220202 -0.198689 -0.058702 -0.125732 0.0462298 0.112965 0.0449773 -0.166111
137 -0.857596 0.553589 -0.380342 0.522948 0.373276 0.486174 -0.0597481 0.116452 -0.172011 0.272463 0.106587 -0.425917 0.173097 -0.113386 -0.328663 0.334385 0.366165 -0.428841 -0.125949 -0.237445 0.127889 0.227138 0.0974822 -0.299788
168 -0.300098 0.200104 -0.121802 0.199806 0.142919 0.170412 -0.0057079 0.0273096 -0.0659737 0.0833517 0.0275324 -0.1422 0.0652138 -0.0422903 -0.102319 0.0937679 0.131488 -0.14233 -0.0318471 -0.095419 0.0413517 0.0775978 0.0507263 -0.0883852
1820 -0.366141 0.231692 -0.172791 0.233626 0.170612 0.19597 -0.000958103 0.0557333 -0.0600511 0.123651 0.0534867 -0.190514 0.0610504 -0.0563938 -0.127108 0.143788 0.141591 -0.149579 -0.0634365 -0.0977286 0.0587103 0.113051 0.042029 -0.124076
431 -0.49385 0.292344 -0.200908 0.306614 0.221939 0.281578 -0.00546767 0.0732489 -0.113278 0.157268 0.0549254 -0.225712 0.109742 -0.0808465 -0.180012 0.197824 0.190026 -0.223165 -0.0438539 -0.136895 0.0647848 0.115654 0.08301 -0.157144
1952 -0.444114 0.268006 -0.183216 0.262639 0.191947 0.228261 -0.00598576 0.0589489 -0.101338 0.145476 0.0586436 -0.205253 0.0798543 -0.0451516 -0.159535 0.140691 0.205559 -0.189442 -0.0562909 -0.122654 0.0466939 0.108501 0.0507665 -0.147825
311 -0.614404 0.388742 -0.267798 0.403287 0.288994 0.335154 -0.0324032 0.0784972 -0.117383 0.221468 0.0826143 -0.308026 0.162176 -0.0891017 -0.208456 0.213945 0.287245 -0.292529 -0.0704673 -0.173639 0.0909726 0.186191 0.101836 -0.237297
606 -0.488945 0.312069 -0.215853 0.315453 0.212424 0.275544 -0.0230075 0.0502835 -0.105872 0.139096 0.058168 -0.263392 0.125379 -0.0574668 -0.167906 0.171724 0.213605 -0.229942 -0.0465768 -0.119326 0.0503384 0.123748 0.0738006 -0.151733
340 -0.548856 0.357987 -0.256587 0.363554 0.241836 0.329205 -0.0414035 0.0816428 -0.131889 0.186304 0.0526251 -0.273815 0.114178 -0.0987544 -0.205395 0.207528 0.229822 -0.264932 -0.0881477 -0.156283 0.0502977 0.150721 0.057529 -0.184076
1828 -0.470296 0.279011 -0.216639 0.275848 0.194647 0.232456 -0.0125346 0.0617821 -0.110484 0.158955 0.0694257 -0.236738 0.0995149 -0.044556 -0.144886 0.17988 0.185211 -0.210569 -0.0432287 -0.119928 0.0596934 0.117073 0.0721202 -0.146757
2938 -0.356541 0.207615 -0.146708 0.206148 0.158706 0.170837 -0.0284601 0.043707 -0.0619685 0.116389 0.0432234 -0.17355 0.0950321 -0.0525591 -0.119661 0.146053 0.163198 -0.169626 -0.0235053 -0.111314 0.0424133 0.0886894 0.0393329 -0.124893
2380 -0.201927 0.14957 -0.0806573 0.132132 0.105094 0.131819 -0.026918 0.0402561 -0.0432816 0.0559479 0.00369701 -0.101806 0.0347963 -0.0337396 -0.0958751 0.0722627 0.0877197 -0.0933192 -0.0466887 -0.0435509 0.0177193 0.052418 0.0327558 -0.0610302
1442 -0.282946 0.151251 -0.131271 0.155431 0.130578 0.14306 -0.023117 0.0412014 -0.0346325 0.0777873 0.0300362 -0.150672 0.0831597 -0.0491339 -0.0983891 0.0951825 0.0991182 -0.132959 -0.0418318 -0.0758613 0.0260988 0.0864783 0.0468104 -0.0909873
1669 -0.321896 0.216601 -0.14672 0.187754 0.128265 0.166449 -0.00656844 0.0423255 -0.0645638 0.0887251 0.0561347 -0.183233 0.0644246 -0.0619766 -0.131753 0.127202 0.130079 -0.140957 -0.0309852 -0.102831 0.0483079 0.0958729 0.0273449 -0.124534
1373 -0.970214 0.619518 -0.440539 0.583406 0.411791 0.516255 -0.0387339 0.115599 -0.207783 0.312275 0.102716 -0.486269 0.206694 -0.12546 -0.338745 0.3536 0.406499 -0.427594 -0.145937 -0.282896 0.137446 0.244315 0.117893 -0.307533
469 -0.534477 0.322351 -0.229349 0.310596 0.22824 0.312997 -0.0162405 0.0780082 -0.129928 0.160928 0.060256 -0.257927 0.119348 -0.091181 -0.18605 0.204421 0.229288 -0.24534 -0.0657668 -0.126731 0.0743833 0.142514 0.0545011 -0.167167
2931 -0.148978 0.0749409 -0.0643522 0.0825374 0.0477917 0.0853303 -0.0135021 0.00811352 -0.0421158 0.0497625 0.0146531 -0.0487526 0.0417362 -0.000124683 -0.0412408 0.0524324 0.047921 -0.0780501 -0.017338 -0.0427958 -0.00383995 0.0456234 -0.000824686 -0.0631849
1617 -0.792943 0.53235 -0.376949 0.521819 0.358645 0.445553 -0.034421 0.117368 -0.187658 0.282272 0.07095 -0.397681 0.187983 -0.104884 -0.288669 0.321613 0.375382 -0.395199 -0.125417 -0.223376 0.0993927 0.225931 0.10968 -0.287966
2932 -0.238976 0.152468 -0.114288 0.137288 0.100082 0.148732 -0.00752625 0.0416845 -0.0538992 0.0620651 0.0113557 -0.127641 0.0737821 -0.0180478 -0.0997115 0.0901731 0.106209 -0.119199 -0.0197662 -0.0623445 0.0417045 0.0719785 0.0457238 -0.0929925
3338 -0.164631 0.0856951 -0.0541347 0.0877788 0.0644692 0.0913224 -0.0122278 0.0185823 -0.0244917 0.0322324 0.0125414 -0.0806118 0.0280522 -0.0351233 -0.0621968 0.0473577 0.089447 -0.0861702 -0.0276516 -0.0528945 0.0235572 0.0458044 0.0330322 -0.0349485
1693 -0.21023 0.131649 -0.10807 0.12836 0.0944484 0.111931 -0.0126413 0.0450642 -0.0268284 0.0752744 0.042079 -0.111837 0.0301464 -0.0236966 -0.0561916 0.0657836 0.103669 -0.117694 -0.0173994 -0.0416301 0.0454597 0.037633 0.0179619 -0.0634706
3226 -0.218777 0.106674 -0.0846498 0.116311 0.10019 0.114056 -0.018214 0.0318557 -0.0294432 0.0548859 0.0415402 -0.0918896 0.0331501 -0.028986 -0.0628412 0.0805512 0.0743165 -0.112696 -0.0184026 -0.050172 0.0320246 0.0721285 0.0318814 -0.0551408
128 -0.499114 0.311418 -0.245603 0.31991 0.224892 0.28352 -0.0191011 0.063247 -0.0918832 0.146675 0.0719494 -0.275369 0.107601 -0.0887701 -0.188323 0.172634 0.236405 -0.24063 -0.063638 -0.149697 0.0509152 0.14214 0.0602752 -0.195079
1802 -0.205493 0.143424 -0.0781875 0.15115 0.101178 0.11564 -0.0234201 0.0334974 -0.0424951 0.0652969 0.0129306 -0.0857968 0.0681414 -0.0449166 -0.0754731 0.0704166 0.0978099 -0.0980996 -0.0281365 -0.0559944 0.0159334 0.0526634 0.0213941 -0.0898451
284 -1.33098 0.859851 -0.583518 0.849346 0.591548 0.768149 -0.0829115 0.202428 -0.248994 0.430605 0.127246 -0.667573 0.280107 -0.21904 -0.496349 0.514582 0.561232 -0.65392 -0.182141 -0.351025 0.148843 0.35217 0.210917 -0.486199
1634 -0.386385 0.230816 -0.148403 0.22318 0.143017 0.216436 -0.00320374 0.0627745 -0.0645136 0.117357 0.0275494 -0.194678 0.0941005 -0.0707642 -0.148823 0.123964 0.155877 -0.1816 -0.0321347 -0.084504 0.0490281 0.0788571 0.0332464 -0.149035
2914 -0.286998 0.16964 -0.1279 0.1592 0.106796 0.157102 -0.0279701 0.0268731 -0.0628611 0.0873972 0.0421832 -0.127786 0.0639662 -0.0565159 -0.107746 0.10651 0.102082 -0.112928 -0.0227988 -0.0569898 0.030937 0.0732576 0.0419457 -0.0996431
278 -1.2527 0.816917 -0.569855 0.781801 0.540206 0.733872 -0.0584436 0.177175 -0.244326 0.425517 0.125741 -0.664821 0.278759 -0.194773 -0.424301 0.49061 0.531552 -0.582472 -0.157732 -0.341213 0.159311 0.332181 0.172485 -0.417391
1744 -0.313724 0.200735 -0.148839 0.20072 0.11809 0.172831 -0.0111746 0.0632104 -0.0573648 0.116707 0.0285642 -0.136753 0.0794523 -0.0602486 -0.0858973 0.12858 0.113226 -0.14215 -0.0381932 -0.0908773 0.0252493 0.0936571 0.0492696 -0.116824
3169 -0.209977 0.141836 -0.0868088 0.118175 0.0801789 0.107417 -0.0289097 0.0399009 -0.0415037 0.080154 0.0323059 -0.0999877 0.067329 -0.0389732 -0.0647062 0.0868974 0.0850745 -0.111687 -0.00717508 -0.0707917 0.0103673 0.05949 0.010349 -0.061054
2153 -0.358499 0.216528 -0.151526 0.203501 0.174134 0.185566 -0.0117973 0.0456315 -0.0623051 0.0943672 0.0341699 -0.183559 0.0747472 -0.0484642 -0.138538 0.137444 0.168338 -0.15893 -0.0471802 -0.113502 0.0425191 0.095069 0.0619315 -0.117737
297 -0.268403 0.161355 -0.0900113 0.14574 0.121695 0.12951 -0.00658989 0.0159237 -0.0547512 0.0797451 0.0191318 -0.12507 0.0649641 -0.0323667 -0.0814686 0.085055 0.105452 -0.121403 -0.0297704 -0.0728981 0.0314264 0.0673659 0.0535033 -0.0710723
380 -0.519522 0.334494 -0.236109 0.327008 0.211613 0.272798 -0.0412972 0.0595033 -0.126112 0.178481 0.0526184 -0.256381 0.116624 -0.0624185 -0.185081 0.201487 0.233778 -0.253147 -0.0805398 -0.144745 0.0515144 0.118306 0.0861634 -0.173664
512 -0.179471 0.118543 -0.101347 0.111089 0.0858803 0.0949571 -0.0277625 0.0433443 -0.0267823 0.0558544 0.04351 -0.115328 0.0502534 -0.031395 -0.0836494 0.0947027 0.103838 -0.0876731 -0.0177811 -0.0411513 0.00526429 0.0465254 0.0376609 -0.0823123
2786 -0.357582 0.220405 -0.136804 0.218458 0.166295 0.18822 0.00227212 0.0598801 -0.0580458 0.113396 0.0366226 -0.181998 0.092337 -0.0538193 -0.112462 0.126798 0.157299 -0.157227 -0.0332104 -0.0920462 0.05546 0.0833774 0.0332734 -0.107254
1242 -0.387326 0.239322 -0.193971 0.241529 0.167218 0.210441 -0.0164586 0.0513426 -0.0732276 0.119273 0.0253103 -0.205234 0.083173 -0.0697391 -0.156773 0.130891 0.181257 -0.198228 -0.0643275 -0.0936487 0.0509411 0.0956121 0.0550278 -0.155239
91 -0.601961 0.391753 -0.282983 0.371976 0.265319 0.318511 -0.0337318 0.0847402 -0.126463 0.19564 0.045801 -0.283068 0.130238 -0.0963897 -0.207836 0.234348 0.273479 -0.285325 -0.0833833 -0.183156 0.0738951 0.149259 0.0911762 -0.188039
111 -0.610032 0.370655 -0.280951 0.357173 0.269247 0.323472 -0.0466292 0.0733897 -0.119697 0.191156 0.0776258 -0.307443 0.12659 -0.0957574 -0.209493 0.238886 0.276675 -0.276505 -0.0890696 -0.167969 0.0558857 0.153073 0.0884493 -0.196427
2270 -0.204381 0.130905 -0.0862651 0.153812 0.111756 0.127222 -0.0183714 0.0297969 -0.0283793 0.0678692 0.0246499 -0.108346 0.0547827 -0.0203635 -0.0909538 0.0937262 0.0856919 -0.098126 -0.0344252 -0.0634331 0.0196025 0.0683558 0.0128427 -0.0854335
2364 -0.187953 0.127282 -0.0785419 0.099212 0.0851914 0.0939721 -0.00361993 0.0310414 -0.0294674 0.0532125 0.0142914 -0.101687 0.0465882 -0.0423614 -0.0910043 0.0803036 0.0621957 -0.0758996 -0.00642315 -0.0525133 0.0273934 0.0655234 0.00622796 -0.0429914
3019 -0.239136 0.168858 -0.122802 0.164456 0.109235 0.116751 -0.0182242 0.0495364 -0.0466545 0.0894673 0.0468545 -0.128386 0.0520218 -0.0149565 -0.102951 0.0919623 0.106916 -0.130346 -0.021708 -0.071105 0.0305232 0.0805111 0.0531523 -0.0651128
1279 -0.296453 0.188621 -0.139201 0.175689 0.107673 0.140062 -0.0100229 0.0194604 -0.0675705 0.0963426 0.0508458 -0.153444 0.045174 -0.0325455 -0.0906797 0.10456 0.111251 -0.131957 -0.0504761 -0.0608789 0.054703 0.0729715 0.0214268 -0.0811419
499 -0.374422 0.235203 -0.156201 0.244989 0.177829 0.234356 -0.0371538 0.0407993 -0.0914212 0.143557 0.0273693 -0.195652 0.0855715 -0.0649226 -0.149194 0.15338 0.179378 -0.195364 -0.0631533 -0.113611 0.0371558 0.0889616 0.0319918 -0.130813
991 -0.462994 0.277896 -0.207095 0.296339 0.184067 0.264362 -0.033841 0.0799979 -0.0990201 0.130785 0.0451874 -0.233535 0.115293 -0.0654286 -0.168972 0.14801 0.19422 -0.204481 -0.0595617 -0.134307 0.0432749 0.130531 0.0469504 -0.176696
2739 -0.289517 0.199928 -0.10957 0.192418 0.127327 0.182188 -0.0271949 0.0409039 -0.065925 0.0855 0.0254453 -0.151533 0.0841127 -0.0489043 -0.0927481 0.0915538 0.117513 -0.156269 -0.0422212 -0.0933111 0.0448098 0.0787037 0.051168 -0.106662
1428 -0.427221 0.248376 -0.169171 0.278777 0.176342 0.216154 -0.0137995 0.0479799 -0.0736168 0.125094 0.0514542 -0.206858 0.101683 -0.0766094 -0.164343 0.166279 0.166369 -0.216111 -0.0373597 -0.0985694 0.0455502 0.121445 0.076975 -0.152104
1225 -0.324013 0.227307 -0.148691 0.208396 0.16008 0.16969 -0.0229977 0.026682 -0.0695692 0.11534 0.0409639 -0.178032 0.0717674 -0.0578269 -0.109685 0.111553 0.161275 -0.174162 -0.0604003 -0.108241 0.0246253 0.0721578 0.0374993 -0.131952
25 -0.408824 0.28154 -0.172703 0.246952 0.179088 0.238349 -0.0171327 0.0739255 -0.102671 0.124901 0.033135 -0.206951 0.108008 -0.0671938 -0.135882 0.151384 0.199452 -0.180092 -0.0409483 -0.100805 0.039642 0.107839 0.0705263 -0.153412
1049 -0.379001 0.260677 -0.179779 0.242839 0.170103 0.195955 -0.0404097 0.0659961 -0.0881554 0.130451 0.027824 -0.185639 0.0869341 -0.0614618 -0.134639 0.126118 0.171343 -0.194105 -0.067808 -0.120493 0.0343083 0.106269 0.0601501 -0.123966
844 -0.526087 0.339358 -0.241171 0.330314 0.225069 0.290374 -0.0231867 0.0848147 -0.130582 0.159412 0.0800142 -0.291863 0.124166 -0.0619994 -0.201858 0.195729 0.219251 -0.256455 -0.0626723 -0.162122 0.0665836 0.142747 0.0778106 -0.184848
2939 -0.379548 0.247905 -0.154439 0.224573 0.142649 0.218712 -0.0376492 0.0445494 -0.0901728 0.135909 0.0339957 -0.206859 0.0735871 -0.0624691 -0.109739 0.154396 0.176754 -0.176979 -0.0290665 -0.113135 0.045657 0.107658 0.0437777 -0.121579
2940 -0.428697 0.243679 -0.169028 0.238083 0.171332 0.239703 -0.0193667 0.0526039 -0.065422 0.123591 0.0609577 -0.190312 0.0723816 -0.050017 -0.134872 0.170635 0.199979 -0.207929 -0.0375881 -0.114645 0.0552665 0.110122 0.0510822 -0.148105
3071 -0.163984 0.0739524 -0.0556806 0.106848 0.0663427 0.0612721 -0.0216148 0.0318647 -0.0109833 0.0488746 0.0198208 -0.0897633 0.037544 -0.0301575 -0.0699291 0.0636086 0.0489667 -0.0721781 -0.0139289 -0.0577293 0.02235 0.0566628 0.0257062 -0.0441086
2144 -0.250955 0.17433 -0.0986914 0.132396 0.0910877 0.125643 -0.0127391 0.0353474 -0.0307498 0.0941576 0.0260835 -0.132351 0.0763893 -0.0492875 -0.0981191 0.0744983 0.126996 -0.132922 -0.00970841 -0.0806706 0.0163574 0.0553025 0.0292947 -0.088805
2890 -0.340562 0.210355 -0.144744 0.213888 0.140288 0.199362 -0.0116175 0.0357156 -0.0863132 0.0855553 0.024028 -0.145879 0.0865767 -0.0422628 -0.129727 0.105314 0.151812 -0.147151 -0.0332137 -0.103871 0.05225 0.0855007 0.0497833 -0.101838
1979 -0.230822 0.118484 -0.105094 0.1252 0.102482 0.110672 -0.0285377 0.0444368 -0.0346752 0.0566103 0.00370409 -0.0909973 0.0350695 -0.0387245 -0.0679522 0.0851221 0.101835 -0.104301 -0.0348762 -0.0679506 0.0366965 0.0685443 0.0501993 -0.079443
683 -0.733523 0.495686 -0.344105 0.465763 0.334441 0.399868 -0.0610058 0.122846 -0.157582 0.263408 0.106957 -0.371644 0.167355 -0.12353 -0.27726 0.25575 0.316898 -0.366616 -0.114164 -0.223017 0.0801716 0.211829 0.107597 -0.256157
36 -0.696431 0.439468 -0.318151 0.424198 0.308639 0.412782 -0.0230121 0.116321 -0.154714 0.219304 0.0936461 -0.346611 0.159526 -0.101133 -0.234103 0.264913 0.310765 -0.348103 -0.0857529 -0.211019 0.103534 0.18549 0.084509 -0.228151
327 -0.201084 0.113224 -0.0676524 0.119337 0.0925015 0.0950232 -0.0036276 0.0296635 -0.0237871 0.0634757 0.0120666 -0.0794621 0.0600821 -0.00902304 -0.071855 0.084121 0.095233 -0.0987167 -0.0334654 -0.0558157 0.0381975 0.0390248 0.00703531 -0.0425299
130 -0.603653 0.402937 -0.251977 0.362873 0.255532 0.349966 -0.0387654 0.0698822 -0.136521 0.215848 0.0583758 -0.322861 0.152557 -0.0938069 -0.203585 0.231957 0.270063 -0.281811 -0.0579387 -0.163161 0.0689233 0.177678 0.0855478 -0.217271
1432 -0.600119 0.384646 -0.293836 0.398689 0.254506 0.368634 -0.0182439 0.072069 -0.126169 0.207549 0.0679563 -0.318136 0.152202 -0.105243 -0.218609 0.239643 0.259067 -0.279838 -0.0847292 -0.180664 0.0677438 0.151487 0.0786891 -0.204484
2798 -0.177652 0.140334 -0.0904737 0.117187 0.0977118 0.115255 -0.00778834 0.00960602 -0.0381816 0.0626481 0.0267634 -0.0990115 0.0383524 -0.0100623 -0.0584575 0.0635011 0.0909175 -0.102441 -0.0171563 -0.0344833 0.00850987 0.046004 0.00552761 -0.0489038
482 -0.490714 0.325611 -0.226128 0.301821 0.238981 0.27756 -0.0192329 0.0780295 -0.107644 0.175593 0.0492298 -0.276723 0.13209 -0.0692777 -0.175004 0.173008 0.223947 -0.229084 -0.0498781 -0.156384 0.0752777 0.114505 0.072981 -0.192026
478 -0.503086 0.34076 -0.224189 0.303337 0.231198 0.278746 -0.0375336 0.0922097 -0.12047 0.164479 0.0733446 -0.255308 0.116323 -0.0687695 -0.185478 0.181749 0.215979 -0.252075 -0.0778034 -0.147296 0.0519732 0.124595 0.079528 -0.196796
2411 -0.257881 0.17506 -0.110134 0.182088 0.129132 0.157783 0.00765146 0.0323482 -0.0641284 0.0743446 0.015637 -0.116705 0.0672821 -0.0388426 -0.113522 0.106759 0.11679 -0.13665 -0.0541753 -0.053933 0.0219907 0.0585291 0.0462447 -0.071083
729 -0.283032 0.170255 -0.134211 0.158258 0.131404 0.16082 -0.0289763 0.0299545 -0.0492225 0.08789 0.022459 -0.146749 0.0630322 -0.0277015 -0.0827036 0.091836 0.132709 -0.134806 -0.0530083 -0.0618688 0.0555473 0.0839038 0.0475755 -0.0800933
3507 -0.224477 0.13362 -0.11613 0.142496 0.116355 0.1502 -0.0125197 0.0494634 -0.0426383 0.0795208 0.0333597 -0.109237 0.0515683 -0.0131937 -0.0788139 0.0731699 0.103392 -0.0963093 -0.0124509 -0.0442949 0.0402628 0.0714312 0.0103189 -0.0684109
2505 -0.566761 0.378741 -0.268431 0.368816 0.227002 0.318003 -0.026774 0.0642748 -0.118501 0.195537 0.0742902 -0.288054 0.126005 -0.0664177 -0.201867 0.223882 0.252253 -0.288299 -0.0887197 -0.165341 0.0785297 0.135537 0.0715469 -0.196317
1654 -0.306198 0.199573 -0.133614 0.169823 0.134203 0.160606 -0.00567546 0.0613052 -0.0671216 0.083984 0.045718 -0.170015 0.064845 -0.0594252 -0.115177 0.124857 0.129576 -0.160207 -0.0233792 -0.066486 0.0281108 0.0784106 0.0418173 -0.109464
2463 -0.231969 0.166175 -0.0950722 0.133273 0.0920111 0.143563 -0.0104437 0.0188974 -0.0489622 0.0933657 0.0292859 -0.134167 0.0547852 -0.0169727 -0.0962217 0.0843644 0.112291 -0.0977354 -0.0507048 -0.0779708 0.0196814 0.0652599 0.0509529 -0.0778284
1231 -0.392763 0.243758 -0.191882 0.240728 0.168488 0.2203 -0.0082717 0.0719387 -0.0937088 0.146095 0.025972 -0.178641 0.106165 -0.0655416 -0.139524 0.153327 0.183387 -0.166537 -0.0564386 -0.113575 0.0610596 0.116163 0.035301 -0.142297
99 -0.356981 0.232188 -0.156672 0.213639 0.139513 0.216388 -0.0132139 0.0469614 -0.0602829 0.129224 0.0553889 -0.172308 0.0906368 -0.0599652 -0.134275 0.13198 0.173957 -0.174752 -0.0487508 -0.0876904 0.0262111 0.0848401 0.0556148 -0.112223
109 -0.758058 0.482793 -0.330006 0.467026 0.334481 0.436198 -0.0443025 0.117389 -0.139226 0.238518 0.0883983 -0.395913 0.180012 -0.107455 -0.298178 0.293458 0.331869 -0.376104 -0.0852071 -0.196182 0.118919 0.193077 0.118989 -0.262728
3217 -0.204942 0.110133 -0.0996229 0.108636 0.0890801 0.0836175 -0.0233111 0.0227962 -0.035897 0.0790684 0.0171012 -0.0732248 0.0590621 -0.0232517 -0.0515066 0.0697186 0.0960992 -0.0834342 -0.0410982 -0.0468906 0.0398541 0.0441271 0.0161338 -0.0814356
1168 -0.240005 0.180382 -0.0990332 0.175772 0.0918708 0.141777 0.00754854 0.0397683 -0.0493696 0.0667902 0.0379546 -0.116709 0.0507702 -0.0463605 -0.107417 0.0852462 0.11887 -0.123175 -0.0519907 -0.0609838 0.0301672 0.064671 0.0266108 -0.100671
1736 -0.343629 0.216175 -0.169808 0.210937 0.1354 0.196814 -0.0125905 0.0331938 -0.0540998 0.10774 0.0527778 -0.155588 0.0722891 -0.0349414 -0.116518 0.125855 0.170675 -0.182704 -0.0656749 -0.0930667 0.0356282 0.0766195 0.0321587 -0.12027
1735 -0.382429 0.245322 -0.171047 0.241806 0.14339 0.221298 -0.0298453 0.0465343 -0.075336 0.106694 0.054348 -0.176571 0.0880019 -0.0467412 -0.113477 0.148728 0.143372 -0.164059 -0.0378476 -0.0915011 0.0304861 0.0772554 0.0293507 -0.117689
994 -0.3597 0.23647 -0.181135 0.213061 0.145987 0.205247 -0.00300036 0.0566443 -0.0890927 0.107975 0.0259092 -0.166935 0.0972444 -0.0657028 -0.121123 0.137938 0.153481 -0.169369 -0.0432626 -0.0863048 0.0565189 0.0954772 0.0450938 -0.106001
3261 -0.467408 0.305851 -0.217178 0.279285 0.21105 0.239443 -0.0296535 0.0493605 -0.0960689 0.165682 0.0342867 -0.220262 0.0993714 -0.0516136 -0.156474 0.150714 0.218383 -0.231912 -0.0697173 -0.147587 0.0517862 0.100642 0.0556162 -0.17833
1936 -0.226251 0.127165 -0.106913 0.138399 0.114473 0.135359 0.00527558 0.0372542 -0.0280064 0.079025 0.0467597 -0.119644 0.0357431 -0.0286542 -0.0793287 0.102087 0.0939795 -0.0897663 -0.0365951 -0.0590136 0.0316547 0.0529532 0.0344653 -0.0608498
1697 -0.251234 0.15931 -0.114324 0.162914 0.0990756 0.142154 0.0068489 0.0319336 -0.0417239 0.0706006 0.0475055 -0.112218 0.071532 -0.0541485 -0.0629165 0.0972141 0.0932162 -0.128005 -0.0502666 -0.0830464 0.0407989 0.0616723 0.0506717 -0.0989234
1061 -0.339333 0.219733 -0.154755 0.220287 0.153836 0.169779 -0.0330439 0.0386253 -0.0724259 0.091099 0.0561302 -0.153872 0.066572 -0.0378511 -0.131467 0.118982 0.158374 -0.152999 -0.0385316 -0.0726161 0.0552236 0.102227 0.0272535 -0.115868
1756 -0.177227 0.127812 -0.0811438 0.110906 0.0631569 0.120384 -0.0113825 0.0208231 -0.0255829 0.0600376 0.00688282 -0.0919224 0.04314 -0.0475628 -0.073264 0.0884873 0.0920389 -0.0973188 -0.0115009 -0.0638807 0.0410722 0.0381732 0.0160413 -0.0715951
733 -0.236956 0.12621 -0.104698 0.129674 0.0895181 0.11378 -0.011816 0.0185191 -0.0580178 0.080543 0.0378355 -0.116622 0.0690351 -0.0214694 -0.0780405 0.0897373 0.0939951 -0.117251 -0.0306902 -0.0611779 0.0337673 0.0708648 0.0202003 -0.0604243
13 -0.426063 0.281774 -0.179283 0.248677 0.188374 0.234806 -0.0278922 0.0744248 -0.10866 0.142649 0.050065 -0.210392 0.107032 -0.0478638 -0.146247 0.149604 0.169895 -0.214631 -0.0441119 -0.132246 0.0571308 0.130963 0.0792839 -0.143843
2898 -0.167725 0.123206 -0.0859305 0.109758 0.0648968 0.0897674 0.00811816 0.00525429 -0.0355548 0.0641627 0.00873267 -0.0781206 0.0254227 -0.040161 -0.0611238 0.044967 0.0865756 -0.091123 -0.0144252 -0.0457798 0.0205405 0.0253385 0.0457555 -0.0784093
845 -0.483002 0.28958 -0.220863 0.299661 0.188591 0.247963 -0.0211529 0.0642696 -0.092108 0.138351 0.0630011 -0.21791 0.11038 -0.0662938 -0.171735 0.180291 0.199119 -0.227061 -0.0654847 -0.116707 0.065676 0.121081 0.0447837 -0.153603
1521 -0.226937 0.12666 -0.0839309 0.125168 0.10263 0.123919 -0.00897021 0.0417944 -0.0303428 0.0728343 0.0059119 -0.119293 0.0292869 -0.0467248 -0.0770663 0.0718712 0.101178 -0.111693 -0.0178698 -0.0524966 0.0401554 0.0672835 0.0103968 -0.0965435
270 -0.5241 0.353674 -0.234647 0.349082 0.237861 0.284801 -0.0355217 0.073464 -0.105711 0.183333 0.0559121 -0.261921 0.115213 -0.0612207 -0.209687 0.217047 0.245395 -0.272012 -0.0867322 -0.142564 0.061408 0.123574 0.0839461 -0.187037
2761 -0.150379 0.102624 -0.0592955 0.105825 0.0718224 0.0842023 0.00344771 0.00929926 -0.0291275 0.0324975 0.0351776 -0.099649 0.0544937 -0.0345428 -0.0380106 0.042483 0.0523453 -0.086197 -0.012479 -0.0444821 0.00286959 0.0600502 0.0210231 -0.0417724
1455 -0.719247 0.476717 -0.321971 0.434154 0.300501 0.410968 -0.0350227 0.114942 -0.141775 0.24669 0.0977088 -0.351749 0.14694 -0.0880722 -0.261947 0.251408 0.301268 -0.329485 -0.0928137 -0.223253 0.0792782 0.174914 0.102176 -0.235319
2021 -0.350806 0.21058 -0.144095 0.2033 0.14337 0.204293 -0.00290278 0.0695743 -0.0893004 0.102804 0.0328607 -0.191854 0.0961881 -0.051671 -0.136501 0.120524 0.150618 -0.158794 -0.0552212 -0.104123 0.0548031 0.0866777 0.0398336 -0.107926
3497 -0.377698 0.237388 -0.183123 0.222726 0.138495 0.222591 -0.00179891 0.0730825 -0.0879729 0.128913 0.039508 -0.166167 0.0864194 -0.0483434 -0.142875 0.12929 0.150741 -0.165854 -0.0462066 -0.123369 0.0288623 0.116043 0.0422382 -0.118363
2502 -0.396656 0.237675 -0.165658 0.234935 0.151522 0.215543 0.00205909 0.0351554 -0.0731719 0.126267 0.0354464 -0.172602 0.0615293 -0.0721814 -0.160914 0.129505 0.160649 -0.174669 -0.0484982 -0.104977 0.0441511 0.0945943 0.0679818 -0.146788
2731 -0.113149 0.0568808 -0.0636627 0.0768222 0.0539608 0.0725977 -0.0225595 0.0373082 -0.0300455 0.0329251 0.0167518 -0.0420765 0.017252 -0.00212411 -0.0583082 0.0388786 0.0422488 -0.0651319 -0.0279783 -0.0305394 0.0168007 0.0204728 -0.00398166 -0.04964
2728 -0.207065 0.128408 -0.0819184 0.118132 0.0910991 0.118673 0.00647121 0.0412854 -0.0586272 0.0539036 0.00537406 -0.112531 0.0298709 -0.00993463 -0.0850335 0.0611934 0.108435 -0.0776707 -0.0364165 -0.0696649 0.027143 0.0498157 0.0316755 -0.0759862
3141 -0.320778 0.203334 -0.148165 0.218193 0.143497 0.18205 -0.017866 0.0336353 -0.066631 0.124552 0.0225779 -0.179404 0.0657925 -0.0279186 -0.130805 0.102074 0.149889 -0.134909 -0.0525679 -0.098088 0.0544146 0.0741615 0.0312626 -0.119265
2517 -0.346316 0.230103 -0.144782 0.225617 0.170902 0.196655 -0.0370171 0.0362476 -0.0843565 0.115068 0.0464827 -0.186311 0.0692097 -0.0416862 -0.122959 0.110117 0.159716 -0.172775 -0.0383195 -0.112793 0.0281709 0.114846 0.0328311 -0.122459
2516 -0.910231 0.554593 -0.405608 0.538825 0.377146 0.520673 -0.0365528 0.143103 -0.19567 0.289255 0.111278 -0.445389 0.183069 -0.12915 -0.306693 0.337276 0.380683 -0.418055 -0.0945152 -0.252826 0.107834 0.216979 0.105669 -0.319015
1312 -0.249226 0.16984 -0.137835 0.16769 0.133233 0.140554 -0.0131151 0.0475297 -0.0409228 0.077567 0.0263757 -0.138451 0.0541092 -0.0583591 -0.103391 0.109954 0.0953153 -0.1095 -0.0282966 -0.056127 0.0229779 0.0534529 0.0183937 -0.0716179
298 -0.896615 0.576384 -0.401338 0.561363 0.402361 0.518865 -0.0310212 0.114913 -0.178965 0.278206 0.116071 -0.450654 0.209176 -0.156663 -0.312727 0.313609 0.397851 -0.413473 -0.13022 -0.26733 0.138375 0.217683 0.113236 -0.317521
1310 -0.257207 0.159869 -0.102792 0.143527 0.122755 0.130319 -0.00928209 0.0190058 -0.0509523 0.103036 0.0123673 -0.137208 0.0529945 -0.0454349 -0.100725 0.0934992 0.107484 -0.142417 -0.0334729 -0.066811 0.0281053 0.0549891 0.0377817 -0.0927102
658 -0.519337 0.338219 -0.252815 0.345519 0.241196 0.278461 -0.0262263 0.0853921 -0.114064 0.160731 0.0721144 -0.275346 0.110587 -0.079347 -0.182475 0.189191 0.216313 -0.243518 -0.0489951 -0.166898 0.0762312 0.157996 0.0881718 -0.174697
666 -0.403749 0.242867 -0.173835 0.248981 0.168929 0.21674 -0.0147544 0.0459191 -0.0669355 0.131762 0.0575805 -0.203782 0.106117 -0.0584735 -0.11625 0.159442 0.172414 -0.176744 -0.0505284 -0.105416 0.0455454 0.102873 0.0561927 -0.154597
2496 -0.246067 0.136969 -0.110642 0.168991 0.127238 0.119186 0.00608774 0.0416004 -0.0456476 0.0896282 0.0190399 -0.110274 0.0332695 -0.0453813 -0.093208 0.101844 0.116123 -0.109505 -0.0253182 -0.078934 0.0513015 0.07478 0.0383532 -0.0774136
359 -0.445677 0.283118 -0.211964 0.283134 0.189167 0.262216 -0.0141618 0.0616485 -0.0849552 0.165856 0.0620445 -0.232571 0.119686 -0.0713429 -0.149761 0.170468 0.187722 -0.1932 -0.0653543 -0.115431 0.0532519 0.119103 0.0418423 -0.155095
938 -0.230987 0.151733 -0.087767 0.120801 0.108471 0.123769 -0.0322235 0.0329474 -0.0475403 0.0848082 0.00610876 -0.124094 0.03986 -0.0438254 -0.0743006 0.0599026 0.111753 -0.0973236 -0.0156895 -0.0587739 0.0209441 0.0689169 0.0117776 -0.0808066
923 -0.652487 0.397427 -0.290715 0.403876 0.286443 0.366732 -0.0122229 0.0988001 -0.143502 0.209803 0.0593057 -0.319127 0.144712 -0.0962787 -0.228182 0.244854 0.280203 -0.297145 -0.0917464 -0.187417 0.0859337 0.169807 0.0853787 -0.212481
1436 -0.239401 0.146438 -0.100096 0.123162 0.085067 0.133686 -0.0227734 0.0241208 -0.0427683 0.0572732 0.00434292 -0.112867 0.0478499 -0.0146838 -0.0936839 0.0677983 0.0880007 -0.11482 -0.0324283 -0.0436152 0.0108141 0.0772003 0.0162749 -0.0764825
2468 -0.192285 0.134132 -0.114888 0.115257 0.0740534 0.122769 -0.027279 0.0313065 -0.0292601 0.0466538 0.0306378 -0.1035 0.0362543 -0.0218442 -0.070748 0.0778936 0.0742069 -0.11581 -0.0227658 -0.0544174 0.0337069 0.0647893 0.0460983 -0.062098
2307 -0.123104 0.104271 -0.067413 0.0753947 0.0492725 0.10204 -0.00704396 -8.6801e-06 -0.041872 0.0523151 0.0293184 -0.0833997 0.00954961 -0.0209714 -0.0667341 0.0381251 0.0689357 -0.0680061 -0.0255217 -0.0371647 0.0396919 0.0284228 0.0302593 -0.0548928
640 -0.391422 0.245093 -0.175492 0.242533 0.16903 0.215005 -0.0107507 0.0732792 -0.0945481 0.136678 0.03617 -0.212551 0.0750062 -0.0519429 -0.151256 0.1452 0.191099 -0.193413 -0.0606493 -0.0984844 0.0476159 0.12041 0.0347821 -0.155735
641 -0.210811 0.126344 -0.110054 0.138649 0.085435 0.0996396 -0.0257082 0.0423425 -0.0279121 0.0641482 0.0281794 -0.119048 0.0478522 -0.0168334 -0.0627093 0.0919281 0.0937478 -0.106097 -0.0466986 -0.0700044 0.0360572 0.0510147 0.0323147 -0.0747937
1920 -0.409256 0.240117 -0.166548 0.254807 0.194555 0.226292 -0.0227378 0.0795349 -0.0910213 0.140757 0.0569927 -0.206523 0.0842969 -0.0758368 -0.14652 0.14823 0.169507 -0.183096 -0.0538917 -0.129533 0.0665413 0.10979 0.0604006 -0.125711
2482 -0.39162 0.265813 -0.16681 0.269065 0.186539 0.237046 -0.0373728 0.0623808 -0.0961705 0.134384 0.0521956 -0.188062 0.0893148 -0.0744035 -0.165495 0.170284 0.161784 -0.205072 -0.0425522 -0.13024 0.0584214 0.109848 0.043725 -0.147172
266 -0.545076 0.353406 -0.254815 0.32003 0.24685 0.310498 -0.0469506 0.0572108 -0.111761 0.184518 0.0700574 -0.270278 0.139713 -0.0935068 -0.207431 0.212663 0.226144 -0.271489 -0.0643566 -0.163024 0.0588951 0.150832 0.0738752 -0.190406
2079 -0.432793 0.264008 -0.194471 0.249742 0.182678 0.232333 -0.0301294 0.0634024 -0.108732 0.152907 0.0512677 -0.240879 0.0875065 -0.0755738 -0.132785 0.175932 0.172568 -0.218742 -0.057933 -0.117889 0.0357887 0.10428 0.0498922 -0.167896
3111 -0.285842 0.192445 -0.128656 0.185277 0.115809 0.160389 -0.0311504 0.0503541 -0.0745414 0.10144 0.0217089 -0.13675 0.0490113 -0.060735 -0.100633 0.119528 0.130317 -0.134074 -0.0255504 -0.0970805 0.0446708 0.0744875 0.0512652 -0.0931543
1265 -0.606584 0.368053 -0.262444 0.389196 0.25553 0.33145 -0.0519273 0.0800745 -0.12663 0.199606 0.0506735 -0.310792 0.129606 -0.0679041 -0.196182 0.241589 0.265276 -0.26586 -0.0926301 -0.175968 0.060415 0.175633 0.10361 -0.227261
3329 -0.189538 0.138602 -0.0767899 0.139497 0.0720518 0.11515 -0.0202077 0.0146 -0.0277848 0.0648861 0.013097 -0.106623 0.038302 -0.0261138 -0.0573458 0.0897408 0.106853 -0.093022 -0.0318447 -0.0711669 0.0189313 0.0313033 0.0394104 -0.0591916
984 -0.483516 0.306917 -0.226598 0.314789 0.193719 0.289442 -0.0193976 0.0553863 -0.0824044 0.15936 0.064198 -0.239521 0.0971402 -0.0613379 -0.189854 0.183068 0.20452 -0.215903 -0.0824893 -0.116768 0.0446186 0.116944 0.0486024 -0.157979
2304 -0.245538 0.166623 -0.108744 0.146705 0.119112 0.119011 -0.0110998 0.0288029 -0.0339455 0.0659129 0.0223707 -0.103419 0.0542762 -0.0224142 -0.0741701 0.0769158 0.0882994 -0.125951 -0.0280493 -0.0544389 0.0302882 0.046935 0.0335274 -0.0661119
76 -0.480599 0.290319 -0.220654 0.279892 0.209297 0.249944 -0.0200033 0.0850601 -0.088443 0.175381 0.0632803 -0.242265 0.128255 -0.0728045 -0.156919 0.161784 0.198923 -0.236248 -0.0743197 -0.121889 0.0439365 0.114007 0.0577626 -0.154591
627 -0.649094 0.416998 -0.30239 0.391213 0.265072 0.370127 -0.0413094 0.078927 -0.144219 0.221954 0.0836593 -0.330924 0.161842 -0.0933335 -0.226625 0.220797 0.273347 -0.315034 -0.0858099 -0.193148 0.100096 0.153126 0.0947917 -0.231915
1924 -0.136604 0.0773451 -0.0513441 0.0937033 0.0600742 0.0748269 -0.0223894 0.0312793 -0.0146976 0.0614897 0.0021294 -0.0951136 0.0426073 -0.0268786 -0.0427281 0.0679143 0.0723122 -0.0653306 -0.0385489 -0.0602561 0.00346056 0.0346282 0.0264171 -0.0710439
37 -1.09405 0.708376 -0.489324 0.705662 0.489334 0.611963 -0.0694331 0.177299 -0.225042 0.378512 0.103275 -0.552418 0.23824 -0.140928 -0.399278 0.399279 0.491511 -0.527602 -0.126571 -0.292159 0.123681 0.293556 0.138717 -0.404605
1933 -0.112587 0.102401 -0.0749205 0.0994462 0.06639 0.0686382 -0.003434 -0.000854938 -0.012921 0.0346764 0.00264897 -0.0535809 0.0138144 -0.029101 -0.0426752 0.0680475 0.0634358 -0.0759061 -0.030897 -0.0288852 0.00191323 0.0382774 0.0263236 -0.0431038
1539 -0.28001 0.198958 -0.144583 0.164448 0.133653 0.152429 -0.0152416 0.0510217 -0.0630744 0.0783286 0.0210732 -0.13783 0.0532175 -0.0589113 -0.0894608 0.101231 0.115048 -0.141642 -0.0212212 -0.0636316 0.0503888 0.0704044 0.0355321 -0.0888356
1097 -0.870652 0.580217 -0.375888 0.556557 0.389594 0.480348 -0.0366796 0.139296 -0.196314 0.300152 0.0830087 -0.454336 0.18285 -0.137486 -0.303117 0.317416 0.372958 -0.406463 -0.112926 -0.233377 0.0989197 0.234962 0.122755 -0.300767
3319 -0.162484 0.120074 -0.0853863 0.130137 0.071003 0.104867 0.00306744 0.0445516 -0.0517464 0.0401357 0.0268144 -0.10192 0.0313222 -0.0441391 -0.0445715 0.0850141 0.0817382 -0.0905169 -0.0123361 -0.0682383 0.00248807 0.0562118 0.023272 -0.0518751
2041 -0.230417 0.162124 -0.0836133 0.132553 0.122259 0.113187 -0.00511289 0.0348051 -0.0522842 0.0711195 0.0209144 -0.112986 0.0356836 -0.0300812 -0.101557 0.0956729 0.12316 -0.105825 -0.0333649 -0.079038 0.0376639 0.0586257 0.0399304 -0.0951903
659 -0.853255 0.547966 -0.394596 0.512695 0.361977 0.484072 -0.0499973 0.145064 -0.196687 0.281682 0.102855 -0.436628 0.215141 -0.115542 -0.317841 0.331696 0.36858 -0.417459 -0.108477 -0.230787 0.103481 0.22859 0.126912 -0.289791
1391 -0.247706 0.175945 -0.103066 0.166037 0.113909 0.124464 0.00679872 0.028119 -0.0500975 0.0846591 0.0226157 -0.148729 0.0633641 -0.0427342 -0.104685 0.0865725 0.112255 -0.123786 -0.0221906 -0.0635668 0.044125 0.0663209 0.046396 -0.092146
1554 -0.222344 0.125615 -0.0994165 0.122284 0.0899761 0.135181 -0.0149373 0.047484 -0.0622455 0.0754134 0.0109 -0.117454 0.0379941 -0.0258689 -0.0958643 0.0909612 0.10614 -0.113744 -0.040836 -0.0739013 0.0276238 0.0536795 0.0506615 -0.0565693
75 -0.242285 0.171283 -0.120342 0.155816 0.103167 0.138829 -0.00598584 0.0382344 -0.0458875 0.0683435 0.0438771 -0.117259 0.0544493 -0.0468418 -0.103244 0.104048 0.133303 -0.110277 -0.0108968 -0.065619 0.0181621 0.0787184 0.0452672 -0.105689
1651 -0.376091 0.248181 -0.163568 0.218136 0.136527 0.196195 -0.0325603 0.0658903 -0.0884279 0.133082 0.0323894 -0.185249 0.0998639 -0.0695403 -0.127652 0.125328 0.143357 -0.180282 -0.0397649 -0.114837 0.0420307 0.100566 0.0676122 -0.137374
2780 -0.323546 0.222803 -0.161903 0.189701 0.123138 0.179924 -0.0245434 0.0550955 -0.0719675 0.113736 0.0247716 -0.182425 0.0758888 -0.0574867 -0.110868 0.108804 0.148717 -0.168137 -0.0571267 -0.0975227 0.0524851 0.0984794 0.0649175 -0.0946711
1726 -0.232585 0.150247 -0.103595 0.146434 0.0922317 0.132701 -0.0234241 0.0451597 -0.0386819 0.0869639 0.0134182 -0.117074 0.0413342 -0.0348887 -0.0935531 0.0837421 0.10627 -0.112289 -0.0437375 -0.0480282 0.0329988 0.0630066 0.0346216 -0.0940333
1966 -0.236131 0.15399 -0.0972471 0.14854 0.0894154 0.105216 -0.0277767 0.0405349 -0.0315708 0.087078 0.044347 -0.099246 0.062445 -0.0222911 -0.0723819 0.0718125 0.0813366 -0.112402 -0.0148463 -0.0677838 0.0277857 0.0517161 0.011161 -0.0695596
344 -0.457699 0.315592 -0.201906 0.289767 0.213148 0.248174 -0.0378494 0.0492208 -0.108453 0.1537 0.0352943 -0.25426 0.110743 -0.0776541 -0.148521 0.189956 0.216303 -0.229493 -0.0443212 -0.130884 0.0697721 0.14104 0.0611851 -0.150979
136 -0.419604 0.279301 -0.173002 0.244171 0.199164 0.243582 -0.025521 0.0425518 -0.1011 0.143901 0.0655609 -0.196461 0.108165 -0.0585633 -0.151583 0.144688 0.183068 -0.205437 -0.0367342 -0.120223 0.0703477 0.126735 0.0423956 -0.149864
2294 -0.232428 0.155071 -0.0966366 0.127362 0.078879 0.140629 0.0010049 0.0525065 -0.0448814 0.0541857 0.0172571 -0.133694 0.0395343 -0.0379696 -0.063829 0.0616849 0.107117 -0.104016 -0.0428926 -0.0731367 0.0173195 0.0512171 0.0384631 -0.0553218
383 -0.604061 0.416465 -0.265141 0.399656 0.286981 0.35302 -0.0468453 0.103385 -0.135287 0.218882 0.0779921 -0.308275 0.167604 -0.0750414 -0.232131 0.221097 0.274031 -0.305419 -0.0649088 -0.174535 0.0563505 0.150779 0.0907485 -0.227382
950 -0.235502 0.14329 -0.131407 0.154871 0.104876 0.162334 -0.0117769 0.0234555 -0.074016 0.0828855 0.0112176 -0.134896 0.0620987 -0.0461591 -0.108658 0.0949047 0.0922807 -0.112896 -0.0189337 -0.0832087 0.0237757 0.0680854 0.0367945 -0.0729667
1879 -0.347289 0.233884 -0.154883 0.234958 0.160103 0.200622 -0.0211247 0.0562153 -0.0973545 0.12973 0.0380273 -0.175605 0.0920657 -0.0616416 -0.131681 0.130543 0.151818 -0.1853 -0.0665621 -0.114446 0.0262314 0.111446 0.0402553 -0.105282
2697 -0.164541 0.101394 -0.0821714 0.0964857 0.0709511 0.0917971 -0.0252101 0.0155491 -0.0488645 0.0719307 0.0176632 -0.0768398 0.0250119 -0.0335128 -0.0821451 0.0559523 0.0652449 -0.0928449 -0.0321479 -0.0553552 0.0199586 0.0401522 0.0292813 -0.0434437
41 -0.74791 0.490376 -0.335251 0.470646 0.321924 0.409408 -0.0413495 0.0858389 -0.148964 0.263822 0.0853852 -0.383411 0.151132 -0.11633 -0.28408 0.276653 0.342268 -0.366398 -0.102569 -0.194808 0.0890046 0.178401 0.106444 -0.267144
151 -0.618623 0.38796 -0.285428 0.370973 0.248248 0.353271 -0.032248 0.0727239 -0.145586 0.184498 0.0642613 -0.301655 0.116608 -0.091674 -0.226164 0.231729 0.272802 -0.271976 -0.0842776 -0.167178 0.0652488 0.167138 0.0865346 -0.233479
1781 -0.270591 0.15714 -0.130607 0.178617 0.12652 0.15683 -0.0277026 0.0479164 -0.0630446 0.0763952 0.0422235 -0.141678 0.0514809 -0.0281228 -0.10009 0.0856484 0.115468 -0.123306 -0.0150772 -0.0650998 0.015465 0.0795136 0.034512 -0.0724932
2469 -0.20943 0.120317 -0.0948026 0.148469 0.114473 0.114618 -0.0130484 0.0303305 -0.0608395 0.0590214 0.0254193 -0.0950139 0.0343741 -0.0452839 -0.0826483 0.0792918 0.0786112 -0.128755 -0.04538 -0.0461635 0.0315695 0.0526686 0.0329809 -0.091799
48 -0.343701 0.199238 -0.131446 0.218246 0.140719 0.193175 -0.00599316 0.0478996 -0.0678055 0.0871923 0.0310091 -0.171712 0.0706942 -0.0288796 -0.0934256 0.121085 0.129973 -0.150722 -0.0575561 -0.08967 0.0581725 0.0667396 0.0353126 -0.131399
74 -0.450047 0.272723 -0.206387 0.265778 0.199508 0.255122 -0.0116973 0.0662189 -0.095307 0.141694 0.0651571 -0.230505 0.119925 -0.0475307 -0.169542 0.183468 0.211877 -0.21628 -0.0769123 -0.128846 0.0552181 0.114218 0.0735865 -0.167444
32 -0.374491 0.229177 -0.191421 0.246603 0.153539 0.200005 -0.010765 0.0547934 -0.085661 0.144819 0.057973 -0.215083 0.0796693 -0.0551699 -0.153884 0.160118 0.148549 -0.184566 -0.0349622 -0.111786 0.0661662 0.0988522 0.058982 -0.121451
1394 -0.438335 0.284464 -0.195477 0.271412 0.2162 0.247507 -0.0178629 0.068082 -0.105992 0.156969 0.0431391 -0.220766 0.0903024 -0.0658304 -0.150335 0.148906 0.208254 -0.225787 -0.0698565 -0.141411 0.0504025 0.119175 0.0597037 -0.147915
2109 -0.54809 0.336946 -0.21894 0.315456 0.229426 0.318217 -0.0206442 0.0667354 -0.104932 0.183036 0.0608255 -0.286633 0.13314 -0.0764477 -0.193255 0.200071 0.231893 -0.234171 -0.071926 -0.148289 0.0658561 0.149581 0.0774092 -0.184759
157 -0.447276 0.302648 -0.220782 0.273729 0.178506 0.276546 -0.0105212 0.0553977 -0.107991 0.128943 0.0691025 -0.213517 0.0859256 -0.0656945 -0.145782 0.186171 0.217527 -0.211674 -0.0733282 -0.146943 0.0674126 0.131661 0.0484906 -0.144638
355 -0.536296 0.321164 -0.251555 0.336258 0.211714 0.303129 -0.0288558 0.0912126 -0.090768 0.188405 0.0487815 -0.269006 0.125397 -0.0696977 -0.191255 0.177847 0.23328 -0.231798 -0.0619835 -0.153975 0.070306 0.143564 0.0893296 -0.187005
106 -0.684861 0.438497 -0.303948 0.418881 0.306674 0.363921 -0.0322926 0.11194 -0.115041 0.217342 0.0726424 -0.344719 0.172259 -0.0779164 -0.254033 0.231703 0.287357 -0.332468 -0.075815 -0.173786 0.0933435 0.163555 0.113888 -0.219557
2262 -0.182553 0.139468 -0.112441 0.148824 0.110026 0.110637 0.00911051 0.0398604 -0.0380099 0.0511742 0.0428561 -0.0864447 0.0464813 -0.0269963 -0.0717084 0.0903965 0.0874541 -0.107598 -0.00926242 -0.0489343 0.0381605 0.0738694 0.026666 -0.0768973
2445 -0.192741 0.123639 -0.102403 0.123587 0.116192 0.134497 -0.0078498 0.0451969 -0.0613138 0.0565355 0.035843 -0.10953 0.033711 -0.0234545 -0.0922531 0.090999 0.0811259 -0.0993366 -0.0456398 -0.0426114 0.0357424 0.0574986 0.0151643 -0.0799995
1959 -0.279352 0.196343 -0.120657 0.17224 0.149367 0.161937 -0.0219468 0.0395005 -0.0634964 0.104415 0.0348441 -0.168435 0.0474122 -0.0511966 -0.109957 0.123578 0.142406 -0.130132 -0.0247266 -0.0805952 0.0565334 0.0797778 0.0485774 -0.116095
1074 -0.387402 0.233668 -0.180179 0.207476 0.160661 0.195526 -0.0403493 0.0496559 -0.0977863 0.134732 0.0387109 -0.175504 0.0628698 -0.0331662 -0.114102 0.142602 0.179956 -0.177939 -0.0659987 -0.117521 0.0333184 0.115356 0.0716182 -0.126326
536 -0.425797 0.248205 -0.169311 0.270692 0.200317 0.235971 -0.0288564 0.0583715 -0.0788669 0.122749 0.0622519 -0.230945 0.09987 -0.0428498 -0.142318 0.153926 0.198714 -0.179198 -0.0360644 -0.101546 0.0702796 0.0987815 0.0572468 -0.126336
38 -0.436426 0.288324 -0.216515 0.291345 0.187234 0.252666 -0.0120164 0.0791754 -0.114966 0.127996 0.0631558 -0.242586 0.0897968 -0.0741443 -0.158128 0.161389 0.202057 -0.231332 -0.0559293 -0.124627 0.0617158 0.130589 0.0750932 -0.167859
77 -0.399508 0.24655 -0.174032 0.239458 0.160975 0.216955 -0.0228224 0.0679804 -0.104904 0.114959 0.0656435 -0.195868 0.0729544 -0.0624318 -0.147516 0.156378 0.183654 -0.174211 -0.0467227 -0.12113 0.0386215 0.101878 0.0587433 -0.130045
18 -0.308236 0.219715 -0.135838 0.209193 0.115124 0.177881 -0.0191746 0.0629978 -0.0765152 0.107027 0.0507008 -0.139996 0.0738497 -0.0282342 -0.121578 0.097101 0.139532 -0.15523 -0.0457301 -0.0688781 0.0358634 0.0821361 0.0355776 -0.0903997
577 -0.677848 0.430987 -0.291597 0.427043 0.301138 0.38968 -0.0562862 0.103213 -0.12044 0.219478 0.0620791 -0.327027 0.140191 -0.103218 -0.213936 0.26314 0.273366 -0.310354 -0.10431 -0.171959 0.101754 0.183742 0.0886711 -0.236208
318 -0.295737 0.19005 -0.14898 0.173097 0.147061 0.181118 -0.0285267 0.0364043 -0.0435545 0.0848612 0.0454895 -0.171706 0.0706317 -0.0384538 -0.0936808 0.0967141 0.119247 -0.141332 -0.0201099 -0.0757863 0.0402376 0.0941368 0.0462835 -0.105999
3089 -0.276254 0.168665 -0.106005 0.17825 0.134806 0.165002 -0.0147074 0.0403015 -0.0399388 0.0807421 0.036112 -0.135809 0.0694284 -0.0467739 -0.0990687 0.111991 0.128322 -0.106602 -0.0328401 -0.0552411 0.0513035 0.0890539 0.0199612 -0.0871157
2390 -0.715298 0.443403 -0.335492 0.434225 0.316408 0.399597 -0.0560936 0.104223 -0.151357 0.216308 0.0607784 -0.369946 0.1729 -0.103966 -0.24907 0.241251 0.299117 -0.349309 -0.0859285 -0.195076 0.0862367 0.184242 0.089652 -0.255472
247 -0.230459 0.138266 -0.0879953 0.162939 0.104865 0.141889 -0.0136395 0.0260601 -0.0603463 0.0952856 0.0142941 -0.124524 0.046646 -0.0238679 -0.0824197 0.066295 0.11536 -0.129692 -0.0280418 -0.0626516 0.0406271 0.0506013 0.0222746 -0.07243
1993 -0.374832 0.245091 -0.165451 0.233109 0.134889 0.216036 -0.0119085 0.0620607 -0.0781464 0.120403 0.0348863 -0.171344 0.0770007 -0.0374471 -0.112372 0.133118 0.163452 -0.147626 -0.0516775 -0.100635 0.0272412 0.0894182 0.0294177 -0.122225
1991 -0.540148 0.317312 -0.221963 0.327232 0.223761 0.293929 -0.0158223 0.0675983 -0.109391 0.173883 0.0478462 -0.244456 0.112185 -0.0690568 -0.168379 0.200092 0.24169 -0.232213 -0.0541592 -0.154698 0.0596197 0.114009 0.0615705 -0.1781
3290 -0.172545 0.111685 -0.0686697 0.101139 0.0935723 0.0831954 -0.0250507 0.0322664 -0.0464671 0.0452978 0.00587025 -0.0754937 0.0525545 -0.0428711 -0.0476154 0.0713221 0.097377 -0.0758368 -0.0266151 -0.0657573 0.0014622 0.0484301 0.0223598 -0.072539
285 -0.833168 0.508771 -0.380565 0.488752 0.34373 0.482066 -0.0555456 0.13694 -0.173394 0.269061 0.104103 -0.434382 0.188924 -0.132831 -0.29283 0.293518 0.378904 -0.399815 -0.11183 -0.248273 0.116585 0.229812 0.132964 -0.277555
1363 -0.530184 0.364288 -0.256286 0.349141 0.236185 0.302127 -0.00840691 0.0657981 -0.113502 0.162795 0.0794979 -0.26912 0.111191 -0.0648864 -0.211326 0.204506 0.251766 -0.244793 -0.0648035 -0.136251 0.0524774 0.122156 0.0736918 -0.168475
2687 -0.333487 0.201385 -0.133739 0.178462 0.156196 0.171337 -0.0262981 0.0643142 -0.0611933 0.106891 0.0493041 -0.151637 0.0884446 -0.0593239 -0.091527 0.120388 0.1402 -0.129198 -0.0510634 -0.102427 0.05091 0.096564 0.0521289 -0.103822
758 -0.24613 0.149096 -0.115523 0.153421 0.102487 0.141546 -0.0289139 0.0303251 -0.0555356 0.0760192 0.0489854 -0.132037 0.072694 -0.0482432 -0.0785228 0.112458 0.108642 -0.11604 -0.0457218 -0.0807696 0.0171953 0.0810804 0.0227842 -0.0980161
390 -0.565365 0.354975 -0.242131 0.352266 0.24821 0.293385 -0.0210117 0.0643522 -0.0940573 0.165959 0.0704491 -0.278265 0.146631 -0.0649096 -0.204717 0.205383 0.238365 -0.279948 -0.0559888 -0.18016 0.0507457 0.14653 0.0711554 -0.204193
476 -0.266841 0.194654 -0.106865 0.179498 0.131241 0.166023 -0.0242265 0.0555142 -0.0567105 0.0871687 0.0510419 -0.136631 0.0732411 -0.0485982 -0.105186 0.115298 0.141399 -0.127774 -0.034981 -0.0688898 0.0391983 0.0651861 0.0566921 -0.118195
3006 -0.207594 0.135598 -0.110402 0.128336 0.105989 0.110903 -0.0229324 0.0298276 -0.0491122 0.0864243 0.0294744 -0.121689 0.0654097 -0.0231824 -0.057384 0.065087 0.110083 -0.0914654 -0.0122269 -0.0508625 0.0257412 0.0485081 0.0207127 -0.0738792
182 -0.522424 0.325369 -0.219054 0.321249 0.237704 0.269778 -0.0292633 0.0545809 -0.0906941 0.161606 0.0572772 -0.273075 0.106138 -0.0674471 -0.170769 0.192973 0.224328 -0.255562 -0.0526151 -0.12568 0.0759899 0.122793 0.0874224 -0.164342
386 -0.812463 0.519617 -0.347514 0.482633 0.346152 0.474034 -0.0358118 0.131643 -0.179955 0.246706 0.107544 -0.394953 0.165749 -0.118783 -0.297767 0.315586 0.363147 -0.405912 -0.0952156 -0.244695 0.12593 0.216226 0.127737 -0.29545
656 -0.296157 0.171055 -0.126668 0.177485 0.140098 0.162724 -0.0326874 0.0409533 -0.0738639 0.0795762 0.0511438 -0.133626 0.0477786 -0.0545002 -0.109386 0.113614 0.111532 -0.148883 -0.0324572 -0.0902351 0.0499998 0.0827672 0.0352159 -0.0819641
3193 -0.232165 0.139992 -0.132279 0.173376 0.104856 0.159627 -0.024976 0.0486817 -0.0737294 0.100398 0.0347575 -0.132053 0.0678498 -0.0479383 -0.0904313 0.113901 0.12941 -0.112199 -0.0327056 -0.0721227 0.0410514 0.0504963 0.0515516 -0.0949466
2804 -0.361127 0.25286 -0.18401 0.236813 0.157339 0.221146 -0.023801 0.0515747 -0.0641019 0.139445 0.0222291 -0.211684 0.0942843 -0.0470857 -0.144487 0.143596 0.167285 -0.173899 -0.0600329 -0.106993 0.0275558 0.101655 0.0499115 -0.127676
574 -0.55432 0.352652 -0.258771 0.330472 0.237128 0.319559 -0.0152878 0.088781 -0.125969 0.166819 0.0587185 -0.279786 0.140773 -0.101237 -0.193457 0.197795 0.230146 -0.250327 -0.0528248 -0.156736 0.0716686 0.129582 0.0930666 -0.205467
2803 -0.216507 0.155748 -0.0926122 0.132316 0.0811833 0.11393 -0.000447708 0.0291477 -0.0436006 0.0664546 0.0356344 -0.101011 0.0396953 -0.0501719 -0.0770921 0.0736733 0.113566 -0.108053 -0.0364089 -0.0715322 0.030846 0.0642523 0.0496464 -0.063659
3286 -0.59239 0.38374 -0.252228 0.358701 0.235941 0.34328 -0.0494667 0.103626 -0.115285 0.189125 0.0866318 -0.299869 0.153292 -0.0641763 -0.217117 0.200486 0.254427 -0.256023 -0.082075 -0.147211 0.0679828 0.147832 0.0968797 -0.181988
1590 -0.379929 0.22946 -0.153187 0.218015 0.174349 0.213351 -0.00448661 0.0473534 -0.0777951 0.105891 0.057191 -0.211864 0.0934272 -0.0711399 -0.151982 0.158062 0.178417 -0.193701 -0.0556894 -0.0900549 0.0285815 0.0802213 0.0451026 -0.120508
35 -0.388539 0.246271 -0.186869 0.268352 0.15234 0.222298 -0.0325667 0.0425275 -0.0894451 0.142359 0.0504735 -0.215624 0.103782 -0.0554406 -0.127164 0.142311 0.183226 -0.167793 -0.0706333 -0.13103 0.0446291 0.120346 0.0483657 -0.138547
2460 -0.240892 0.138894 -0.0874545 0.152405 0.0887991 0.120215 -0.0262435 0.0278591 -0.0396655 0.0512556 0.0145152 -0.12663 0.0532829 -0.0155569 -0.0871568 0.0628183 0.0770651 -0.106038 -0.0283049 -0.0536707 0.0395292 0.0624774 0.0174873 -0.0707415
384 -0.339275 0.225616 -0.131029 0.202047 0.124803 0.176385 -0.0259394 0.0336191 -0.0481244 0.10282 0.0380299 -0.160141 0.0624033 -0.0573314 -0.110762 0.121187 0.131938 -0.146121 -0.0568336 -0.0824116 0.0272345 0.0723296 0.0381886 -0.120902
2450 -0.186851 0.136954 -0.0973528 0.124747 0.0807526 0.10018 0.00813988 0.0192321 -0.0517412 0.0716237 0.00626468 -0.0903574 0.0280253 -0.0145377 -0.0574428 0.0728604 0.0690818 -0.0967629 -0.0384252 -0.0555119 0.0242699 0.070641 0.0308426 -0.0531454
2498 -0.199802 0.121413 -0.100266 0.120906 0.0814523 0.115849 -0.0287251 0.00717301 -0.0616337 0.0721668 0.0157527 -0.0873571 0.0402432 -0.0146651 -0.0982828 0.0803387 0.0822421 -0.110297 -0.0439453 -0.0736143 0.0244373 0.0607178 0.0373715 -0.0811261
2927 -0.376102 0.247135 -0.15715 0.222807 0.15431 0.21516 -0.0346852 0.0606217 -0.0569938 0.1128 0.0500909 -0.19612 0.0667216 -0.0568767 -0.139389 0.12137 0.163334 -0.1831 -0.0678815 -0.113032 0.0450528 0.10431 0.0506272 -0.113374
2059 -0.193763 0.141762 -0.105414 0.0996701 0.0984126 0.107118 0.00104683 0.0228493 -0.055839 0.0633043 0.0122416 -0.113741 0.0521166 -0.0227581 -0.0753894 0.0845361 0.0738866 -0.0761647 -0.00606902 -0.065946 0.037464 0.0536006 0.0250925 -0.0863361
1500 -0.861508 0.543122 -0.369328 0.529019 0.354436 0.483741 -0.0565242 0.13131 -0.178881 0.291341 0.0766734 -0.45364 0.211684 -0.140895 -0.280521 0.309407 0.370529 -0.388683 -0.104169 -0.227733 0.105794 0.211086 0.13561 -0.298409
2348 -0.210659 0.140238 -0.090657 0.12818 0.108348 0.100084 -0.0167869 0.0382319 -0.0273924 0.0680522 0.0392767 -0.0924346 0.0248377 -0.0284799 -0.0630272 0.08668 0.0838607 -0.104928 -0.0271904 -0.044248 0.0418133 0.042205 0.0390228 -0.0610697
1110 -0.182013 0.130941 -0.110196 0.132294 0.0784352 0.0949073 -1.71441e-05 0.0112826 -0.0384159 0.0560176 0.0318792 -0.0974451 0.05127 -0.0250133 -0.0905635 0.0879662 0.0847762 -0.0774483 -0.00815965 -0.0747959 0.0113483 0.0346083 0.0305178 -0.0852357
578 -0.252096 0.1599 -0.0995313 0.155146 0.128624 0.157357 -0.0227263 0.042436 -0.0598821 0.0928244 0.0176731 -0.139165 0.0642936 -0.0337909 -0.0922117 0.0906422 0.135557 -0.129373 -0.0115384 -0.0788587 0.0527394 0.0862043 0.0265957 -0.0970293
1898 -0.385201 0.238931 -0.187504 0.225826 0.150174 0.202486 -0.0200233 0.0724529 -0.0902888 0.142225 0.0391237 -0.185548 0.103363 -0.0482204 -0.135076 0.131623 0.176952 -0.179165 -0.0383386 -0.117004 0.0351706 0.117356 0.0464178 -0.136464
1582 -0.190687 0.147801 -0.105187 0.106512 0.0934969 0.130656 -0.0316429 0.0159517 -0.0301936 0.0670191 0.0258026 -0.112346 0.0650976 -0.0472147 -0.0794085 0.0928902 0.076487 -0.110981 -0.0148403 -0.0485013 0.0201486 0.041656 0.0367093 -0.081124
1610 -0.528471 0.315524 -0.218009 0.319133 0.238582 0.28036 -0.0160475 0.0869371 -0.108346 0.159544 0.0486847 -0.273617 0.116542 -0.0787303 -0.170049 0.184736 0.235056 -0.233993 -0.071297 -0.123187 0.0768144 0.123219 0.0769902 -0.196704
161 -0.314335 0.19516 -0.164668 0.216588 0.149853 0.174909 0.00180499 0.0593498 -0.0842643 0.117256 0.0189414 -0.16225 0.083611 -0.0490464 -0.100732 0.105291 0.163587 -0.145255 -0.0338138 -0.112194 0.0443714 0.0836657 0.034917 -0.115253
207 -0.420363 0.261045 -0.18005 0.288809 0.199865 0.261462 -0.0285561 0.0692621 -0.0728386 0.153133 0.0484244 -0.207472 0.113322 -0.0568891 -0.169093 0.155007 0.177613 -0.206122 -0.0525074 -0.102358 0.0670595 0.104938 0.0428721 -0.158004
210 -0.392658 0.250846 -0.159014 0.257012 0.163097 0.226724 -0.00188523 0.0408513 -0.0825684 0.119799 0.0555283 -0.204452 0.110939 -0.059717 -0.138086 0.156615 0.196492 -0.193358 -0.0577903 -0.109845 0.0682595 0.103952 0.0514427 -0.142616
1647 -0.225077 0.148726 -0.111344 0.131166 0.0907982 0.113938 -0.0276171 0.0253894 -0.0281232 0.0830116 0.0421085 -0.133637 0.0433331 -0.0253015 -0.092633 0.0952547 0.10391 -0.11682 -0.0323368 -0.075772 0.00880653 0.0707007 0.0110526 -0.0776989
3263 -0.384333 0.253036 -0.18331 0.238683 0.156966 0.225778 -0.0141478 0.0387883 -0.068202 0.142007 0.0612414 -0.193842 0.0901634 -0.0448783 -0.131302 0.146053 0.182017 -0.171231 -0.0370517 -0.110412 0.0297514 0.103411 0.0636274 -0.122084
1551 -0.420544 0.243576 -0.168221 0.242541 0.173824 0.221891 -0.025173 0.054014 -0.0850414 0.111907 0.0429077 -0.196458 0.0729301 -0.0468075 -0.141451 0.142506 0.158323 -0.169317 -0.0607342 -0.0934941 0.0424282 0.114461 0.0462781 -0.126901
761 -0.207421 0.159855 -0.115222 0.141831 0.0914715 0.120308 -0.0200717 0.0234698 -0.035858 0.0852812 0.0283538 -0.0955818 0.0602504 -0.0531297 -0.068821 0.0812397 0.0820614 -0.0939123 -0.0320361 -0.0686802 0.0198219 0.0600835 0.0342866 -0.09734
748 -1.28459 0.818487 -0.590858 0.785957 0.534317 0.71852 -0.0919582 0.187593 -0.282646 0.411428 0.134603 -0.671616 0.307124 -0.211928 -0.468756 0.47963 0.586495 -0.613833 -0.144327 -0.3403 0.181194 0.352205 0.16929 -0.466203
488 -0.385098 0.260374 -0.168155 0.240187 0.174061 0.222748 -0.00729171 0.0789891 -0.0761064 0.109896 0.0478599 -0.189275 0.0980479 -0.0675986 -0.141097 0.140439 0.189482 -0.169112 -0.059659 -0.100899 0.0533891 0.0887119 0.0583193 -0.122581
944 -0.30773 0.202218 -0.14304 0.196048 0.139966 0.146628 -0.0331779 0.0600094 -0.070401 0.0987755 0.0450037 -0.143039 0.0559224 -0.0364146 -0.125184 0.0937372 0.124039 -0.140297 -0.0307117 -0.0908329 0.0502899 0.0607635 0.0359633 -0.112713
333 -0.351058 0.236083 -0.162353 0.212263 0.15494 0.195717 -0.034163 0.0669898 -0.0890453 0.125943 0.0249963 -0.164251 0.091097 -0.0495284 -0.129338 0.149732 0.147494 -0.178859 -0.0370087 -0.119762 0.0327912 0.0788089 0.0505617 -0.129822
342 -0.75146 0.499438 -0.35489 0.459416 0.316546 0.441831 -0.0592922 0.131671 -0.162093 0.239785 0.0878152 -0.386174 0.194372 -0.103987 -0.292427 0.291512 0.356463 -0.358536 -0.0799321 -0.235504 0.095864 0.19325 0.0852958 -0.266112
334 -0.450145 0.303006 -0.209275 0.255771 0.185186 0.250938 -0.0397576 0.0475841 -0.0882296 0.14494 0.0347509 -0.224764 0.10122 -0.0556054 -0.14832 0.156275 0.214111 -0.218967 -0.0519336 -0.140577 0.0507448 0.126627 0.0415443 -0.139914
1674 -0.191313 0.125741 -0.0870305 0.109544 0.0815912 0.096438 -0.0104552 0.0105257 -0.0346126 0.0481277 0.035071 -0.0911677 0.0243501 -0.0207079 -0.0687201 0.0578058 0.101121 -0.0886282 -0.0370683 -0.0374404 0.00202001 0.0477457 0.0455444 -0.0527426
1025 -0.622181 0.411819 -0.256993 0.400091 0.244957 0.349266 -0.0209777 0.0787331 -0.145769 0.218385 0.0669628 -0.334105 0.123303 -0.101966 -0.219397 0.222244 0.275855 -0.27094 -0.0860361 -0.167137 0.0722482 0.150127 0.0926673 -0.216833
272 -0.530095 0.336046 -0.245769 0.343813 0.230962 0.315462 -0.0180806 0.0696157 -0.111553 0.180004 0.0809361 -0.284836 0.127103 -0.0747716 -0.18997 0.210953 0.250137 -0.249197 -0.0817826 -0.145304 0.0832513 0.130422 0.0925303 -0.201368
449 -0.41803 0.261866 -0.199114 0.283931 0.175165 0.226763 -0.042756 0.0475882 -0.0692702 0.133232 0.0356635 -0.222242 0.0994697 -0.0673165 -0.141995 0.163256 0.183149 -0.18316 -0.055612 -0.100726 0.0562458 0.0923856 0.0534637 -0.133834
549 -0.410934 0.289835 -0.196435 0.266264 0.189982 0.238592 -0.0165383 0.0809968 -0.0675953 0.125254 0.0534726 -0.228948 0.0936556 -0.0474754 -0.153234 0.146222 0.184777 -0.199521 -0.0564358 -0.126741 0.0385884 0.105694 0.0670318 -0.139233
206 -0.606453 0.398617 -0.249659 0.362592 0.264379 0.336804 -0.0276429 0.0729115 -0.133833 0.206644 0.0527974 -0.28478 0.143431 -0.0673226 -0.229396 0.210973 0.281231 -0.281536 -0.0705174 -0.163625 0.0884772 0.158581 0.0972418 -0.196337
555 -0.398937 0.248627 -0.151361 0.234516 0.15646 0.205432 -0.0360135 0.066096 -0.0583476 0.105589 0.045603 -0.197178 0.082054 -0.0733779 -0.134518 0.13212 0.162827 -0.198027 -0.0268744 -0.107264 0.0611862 0.0999355 0.0452301 -0.127709
2136 -0.417583 0.243517 -0.163423 0.251734 0.186157 0.212477 -0.00642591 0.0471318 -0.0747541 0.144114 0.0531544 -0.20015 0.0734053 -0.0551036 -0.154875 0.167944 0.178444 -0.211749 -0.0365337 -0.129802 0.0657459 0.0964486 0.0568765 -0.125129
1012 -0.321205 0.185329 -0.117721 0.197721 0.138298 0.170656 -0.0106434 0.0348441 -0.0549393 0.0973097 0.0176235 -0.162862 0.0893668 -0.0308746 -0.0980901 0.132665 0.130796 -0.127362 -0.0231679 -0.0979335 0.0265891 0.0978401 0.051442 -0.121889
739 -0.255859 0.146698 -0.134384 0.178454 0.108192 0.128582 -0.0198006 0.0408968 -0.0713182 0.0840924 0.0147605 -0.138131 0.0580755 -0.048564 -0.0929116 0.0897188 0.115129 -0.132066 -0.0198549 -0.0608622 0.0386491 0.0486278 0.0346752 -0.0857026
289 -0.529441 0.332324 -0.226806 0.33614 0.213135 0.278832 -0.0217252 0.0731597 -0.10713 0.178373 0.0551964 -0.269437 0.111899 -0.0855514 -0.177367 0.213493 0.251573 -0.241231 -0.0817544 -0.132816 0.0654055 0.150754 0.075061 -0.166401
2017 -0.507721 0.299248 -0.205884 0.330555 0.221334 0.26484 -0.0213977 0.0834263 -0.0963882 0.150225 0.0663175 -0.26361 0.109871 -0.0809015 -0.177486 0.18474 0.202167 -0.254651 -0.0599998 -0.138998 0.054931 0.11688 0.0599304 -0.182253
1091 -0.332074 0.210442 -0.126824 0.219203 0.147651 0.179538 -0.0294119 0.0301229 -0.0492771 0.108917 0.0366623 -0.151698 0.0605485 -0.0583008 -0.107954 0.117736 0.157788 -0.137646 -0.0270948 -0.0852423 0.0453363 0.0660302 0.0445265 -0.120197
372 -0.665867 0.411515 -0.305288 0.413101 0.275114 0.375656 -0.0287406 0.106461 -0.130107 0.214086 0.0636094 -0.316258 0.127854 -0.08237 -0.244271 0.242569 0.278891 -0.289042 -0.0892966 -0.182739 0.0911703 0.161068 0.0892095 -0.216152
1489 -0.400322 0.232652 -0.17637 0.255835 0.152272 0.199479 -0.0241743 0.0445935 -0.0903078 0.126067 0.0517194 -0.208126 0.0865986 -0.0742754 -0.13997 0.157548 0.155855 -0.185759 -0.0396735 -0.09401 0.0664114 0.0934614 0.0493726 -0.116984
751 -0.204911 0.112057 -0.0715408 0.138859 0.101446 0.123425 -0.0225295 0.0323964 -0.0546963 0.0821249 0.0265687 -0.0955018 0.0624123 -0.0472405 -0.0586287 0.0571334 0.0698894 -0.111508 -0.0421339 -0.0729984 0.0131336 0.0602503 0.0201427 -0.0534252
635 -0.453198 0.276874 -0.193411 0.275989 0.181755 0.241613 -0.00405474 0.0501522 -0.0754656 0.126497 0.062269 -0.218363 0.0780436 -0.0593474 -0.139351 0.178496 0.183517 -0.197544 -0.067375 -0.126605 0.0494828 0.103726 0.0655556 -0.157881
183 -0.475032 0.314948 -0.211222 0.281511 0.213058 0.251445 -0.0407021 0.0553441 -0.103229 0.155396 0.0556674 -0.230259 0.123161 -0.0568776 -0.155862 0.160729 0.190814 -0.23388 -0.0609888 -0.126968 0.0664323 0.125048 0.0654058 -0.18098
1367 -0.609687 0.361375 -0.273945 0.362374 0.245936 0.318454 -0.0172134 0.0974977 -0.138338 0.210204 0.0704422 -0.316245 0.118676 -0.0677074 -0.21939 0.218503 0.254238 -0.301196 -0.0766912 -0.165361 0.0905273 0.174686 0.061772 -0.213773
138 -0.430082 0.267765 -0.165611 0.239867 0.190616 0.21939 -0.0259173 0.0790965 -0.105745 0.137617 0.0303666 -0.228076 0.102891 -0.0435119 -0.13862 0.172366 0.186812 -0.213249 -0.0609349 -0.0987246 0.061267 0.12025 0.0637124 -0.125587
3340 -0.425139 0.261533 -0.19141 0.250756 0.185788 0.224013 -0.0345001 0.0582339 -0.100943 0.131708 0.0272636 -0.228505 0.0889588 -0.0786309 -0.167753 0.146633 0.171007 -0.204405 -0.0356638 -0.116712 0.0682059 0.0950886 0.0425296 -0.158614
3341 -0.399932 0.261364 -0.188706 0.245614 0.157489 0.229786 -0.0398476 0.0534189 -0.0955833 0.115348 0.0370101 -0.210626 0.0905236 -0.0704973 -0.122331 0.16332 0.185414 -0.177624 -0.039511 -0.0981876 0.0620553 0.119625 0.0376938 -0.11919
419 -0.406396 0.267005 -0.197592 0.227327 0.183077 0.239854 -0.0178065 0.046015 -0.0663458 0.1296 0.056995 -0.190031 0.100718 -0.0563593 -0.155426 0.135367 0.171438 -0.188073 -0.0430421 -0.0964952 0.0475577 0.111893 0.0652203 -0.124653
23 -1.03723 0.649457 -0.468589 0.655543 0.444755 0.600552 -0.0691279 0.139484 -0.215045 0.323889 0.112055 -0.518296 0.248154 -0.152455 -0.392883 0.361422 0.461625 -0.47286 -0.122307 -0.294101 0.124613 0.251365 0.123358 -0.340404
1309 -0.258614 0.17739 -0.126029 0.139749 0.10194 0.139231 0.00310312 0.0428619 -0.0296817 0.073981 0.0367176 -0.114917 0.0695104 -0.0230672 -0.0927072 0.107171 0.109802 -0.123824 -0.0504948 -0.0776638 0.0166462 0.0744435 0.0544678 -0.107933
731 -0.426961 0.276921 -0.173477 0.264808 0.186096 0.222649 -0.0209747 0.053624 -0.109755 0.124801 0.0689193 -0.220501 0.090632 -0.0457893 -0.145684 0.169305 0.194472 -0.207869 -0.0546461 -0.124697 0.0682685 0.133419 0.0751974 -0.154498
158 -0.458537 0.303931 -0.195883 0.295421 0.207422 0.259494 -0.0232286 0.0511795 -0.0780658 0.149633 0.0592764 -0.234337 0.0902457 -0.075868 -0.16232 0.188639 0.18164 -0.200975 -0.0472723 -0.137484 0.0597178 0.10432 0.0821061 -0.179276
1029 -0.580891 0.379502 -0.255989 0.37909 0.242683 0.352994 -0.0384399 0.0955144 -0.117182 0.214795 0.0638896 -0.28701 0.136461 -0.0939515 -0.210376 0.1987 0.281228 -0.285679 -0.0866996 -0.183658 0.0597964 0.165095 0.0915525 -0.209623
314 -0.243194 0.17764 -0.124018 0.161441 0.131553 0.142067 -0.0157595 0.0354884 -0.0669116 0.0862286 0.0358784 -0.1136 0.0454146 -0.0195131 -0.0773864 0.0984675 0.119915 -0.138287 -0.0224432 -0.0560311 0.020443 0.0617392 0.0478475 -0.103834
385 -0.386423 0.263892 -0.182848 0.239856 0.182117 0.239313 -0.0238987 0.0793285 -0.0611557 0.115621 0.0490907 -0.19175 0.0945898 -0.0765784 -0.152332 0.126589 0.173111 -0.194518 -0.0532221 -0.122519 0.0280701 0.101455 0.0386962 -0.145147
2478 -0.139458 0.0966663 -0.0618943 0.098978 0.0722831 0.0804895 -0.0150804 0.0154924 -0.0422746 0.0532009 0.0147422 -0.0669136 0.0360001 -0.011839 -0.0393333 0.0462545 0.0669927 -0.0625483 -0.0110416 -0.0198186 0.0153594 0.0521833 0.0255388 -0.0589655
2471 -0.12828 0.078835 -0.0526075 0.104208 0.047394 0.0845222 0.0135671 0.0328601 -0.0444462 0.0444359 0.0221448 -0.0628795 0.0173509 -0.0403381 -0.038922 0.0378206 0.069849 -0.0644408 -0.0314485 -0.042699 0.0283372 0.0446914 0.0098226 -0.0395341
523 -0.282502 0.198303 -0.118812 0.182314 0.121119 0.160245 -0.034902 0.0594726 -0.0500305 0.0829296 0.0145877 -0.173116 0.0691039 -0.0496488 -0.12664 0.130654 0.145718 -0.125768 -0.0358763 -0.104885 0.0397032 0.0915091 0.0447314 -0.105191
237 -0.233075 0.145544 -0.116612 0.123133 0.109074 0.105794 -0.0215138 0.0418246 -0.0642767 0.0926717 0.0235019 -0.122977 0.0511997 -0.0407643 -0.07968 0.0847373 0.0885085 -0.0999511 -0.034563 -0.0753989 0.0335013 0.0671464 0.0159932 -0.081471
141 -0.603522 0.385447 -0.267219 0.393755 0.256613 0.34331 -0.0517144 0.0919868 -0.136977 0.188824 0.050132 -0.296494 0.118215 -0.0787686 -0.234048 0.247202 0.270447 -0.271077 -0.0713443 -0.188903 0.0940167 0.157235 0.0854714 -0.208265
1567 -0.251914 0.161898 -0.086736 0.129629 0.122172 0.125702 -0.0251844 0.0233773 -0.0410048 0.0879787 0.0244971 -0.12228 0.0727293 -0.032786 -0.0742943 0.0758508 0.116636 -0.108334 -0.0424125 -0.0693479 0.0337225 0.0556782 0.0336805 -0.0632368
199 -0.454183 0.313341 -0.202279 0.287797 0.218196 0.239701 -0.00881594 0.0734823 -0.0922437 0.170458 0.0514418 -0.243475 0.122998 -0.0703347 -0.145411 0.180502 0.184489 -0.216464 -0.0514918 -0.122078 0.0381505 0.117618 0.0784364 -0.180367
1252 -0.344749 0.191857 -0.153733 0.214121 0.151593 0.167398 -0.0368494 0.026317 -0.0684214 0.0898142 0.0209334 -0.171344 0.0669548 -0.0375212 -0.126165 0.104877 0.124976 -0.135888 -0.0623877 -0.0740979 0.0548398 0.0971869 0.0339949 -0.100004
1250 -0.402334 0.259012 -0.157066 0.236417 0.175759 0.209824 -0.0238935 0.0592472 -0.0657798 0.111176 0.0406163 -0.219347 0.0881547 -0.0375207 -0.149165 0.168554 0.185461 -0.172707 -0.0681593 -0.126587 0.0497582 0.0980872 0.0576771 -0.119456
1251 -0.343785 0.213246 -0.176269 0.230415 0.169753 0.207043 -0.0227925 0.0491292 -0.0516502 0.117709 0.0194322 -0.169302 0.0818052 -0.0703962 -0.121162 0.129704 0.165525 -0.179842 -0.0409795 -0.086582 0.031061 0.103034 0.028881 -0.138378
2580 -0.259348 0.148013 -0.094371 0.15889 0.120155 0.144198 -0.00409104 0.0338904 -0.0326016 0.100878 0.017805 -0.133035 0.0582418 -0.0196391 -0.0789491 0.0820548 0.0960108 -0.0985236 -0.0122415 -0.058297 0.0101154 0.0837236 0.024507 -0.091117
2579 -0.500875 0.315128 -0.200303 0.290814 0.200478 0.263572 -0.0441218 0.0763641 -0.0989577 0.175303 0.0491226 -0.230766 0.116543 -0.0798609 -0.168036 0.193042 0.231573 -0.232592 -0.0569657 -0.132847 0.07758 0.111667 0.0706072 -0.158792
2581 -0.659837 0.438509 -0.311729 0.4103 0.287285 0.384878 -0.0341471 0.0924485 -0.129544 0.237208 0.0766239 -0.338089 0.155679 -0.0989688 -0.245681 0.247546 0.279282 -0.315619 -0.10043 -0.195279 0.0816873 0.180666 0.089229 -0.229122
1305 -0.373179 0.242298 -0.1716 0.218217 0.176885 0.200234 -0.0354588 0.0410304 -0.0802697 0.118884 0.0614954 -0.185991 0.0842051 -0.0701855 -0.131468 0.132365 0.179008 -0.178674 -0.0462876 -0.0903494 0.046807 0.0988993 0.0293429 -0.119108
1304 -0.367467 0.237848 -0.145848 0.227975 0.158135 0.212004 -0.00269148 0.0721723 -0.0640982 0.119018 0.0317906 -0.176327 0.101612 -0.0414201 -0.133745 0.156406 0.175461 -0.183954 -0.0477303 -0.106259 0.0581505 0.0880127 0.0629854 -0.127305
1755 -0.213355 0.143515 -0.0857399 0.138927 0.079901 0.102094 0.00846194 0.04241 -0.0457929 0.0520549 0.0205267 -0.110654 0.0592682 -0.0466453 -0.0655844 0.0862995 0.0853683 -0.0986881 -0.0119222 -0.0563542 0.0241105 0.0540126 0.0301809 -0.0825478
2999 -0.290848 0.181258 -0.123122 0.175418 0.130913 0.158599 -0.0319101 0.0488375 -0.0696483 0.102542 0.0408 -0.13776 0.0704724 -0.0348127 -0.11865 0.112632 0.118638 -0.140939 -0.0225393 -0.0848901 0.0177099 0.0673493 0.0369309 -0.0996204
2091 -0.479894 0.311623 -0.208798 0.293381 0.215023 0.301829 -0.0397288 0.0847909 -0.125592 0.17681 0.0696917 -0.252396 0.115553 -0.070262 -0.183213 0.166969 0.207941 -0.242874 -0.0445072 -0.130049 0.0548111 0.124436 0.0827438 -0.167774
1949 -0.501041 0.329206 -0.233067 0.28945 0.231091 0.288232 -0.00952245 0.0730756 -0.111162 0.176314 0.0553627 -0.227921 0.10513 -0.0693101 -0.176067 0.186432 0.210659 -0.244493 -0.0534797 -0.133001 0.044827 0.120551 0.0724399 -0.151054
548 -0.309383 0.193334 -0.13393 0.188196 0.124613 0.181631 -0.0116656 0.0405363 -0.0505508 0.100209 0.0175344 -0.147763 0.0771115 -0.0608217 -0.101853 0.124973 0.15533 -0.129972 -0.0393942 -0.0776791 0.0346036 0.0821977 0.0430915 -0.0950992
330 -0.392734 0.251492 -0.182826 0.244418 0.173928 0.229109 -0.0375188 0.0731641 -0.0962195 0.130369 0.059408 -0.204879 0.105728 -0.0440084 -0.157116 0.157452 0.179343 -0.181234 -0.0334135 -0.119089 0.0472806 0.105491 0.0408773 -0.125877
2046 -0.428263 0.255545 -0.192809 0.265865 0.201117 0.248816 -0.0171091 0.080092 -0.0913234 0.157215 0.0414542 -0.207464 0.0914207 -0.0741744 -0.141929 0.164167 0.192932 -0.191245 -0.0361665 -0.128754 0.0697625 0.100074 0.0552748 -0.163533
2960 -0.494229 0.317955 -0.196478 0.31678 0.188113 0.256608 -0.0152382 0.0833032 -0.101416 0.167051 0.0403114 -0.250925 0.110198 -0.0833505 -0.163422 0.164186 0.201395 -0.226388 -0.0703837 -0.112855 0.0392439 0.133882 0.0482688 -0.17517
1238 -0.349989 0.216704 -0.156788 0.213993 0.17447 0.206307 -0.0310494 0.0308302 -0.0567787 0.119458 0.0218135 -0.197758 0.0633807 -0.0507079 -0.13003 0.138075 0.163282 -0.176053 -0.0384547 -0.0995666 0.063255 0.0760941 0.0391629 -0.122286
2044 -0.223537 0.127413 -0.101635 0.147996 0.0752895 0.128241 -0.00892905 0.0227898 -0.0358501 0.0544624 0.0063547 -0.116733 0.0516767 -0.03738 -0.0863553 0.0965657 0.105922 -0.106071 -0.00966715 -0.0696465 0.0133436 0.0658076 0.0429049 -0.0555168
2045 -0.231677 0.125137 -0.0983731 0.15277 0.0819365 0.113438 -0.0209634 0.0206271 -0.033252 0.0933894 0.0419601 -0.11549 0.0688953 -0.0151522 -0.0922687 0.0958936 0.110323 -0.0866822 -0.0415879 -0.0443264 0.0112692 0.056675 0.0316961 -0.0589635
2492 -0.157371 0.107624 -0.0780589 0.0894652 0.0777238 0.106415 0.0117075 0.0203925 -0.0257005 0.0533391 0.00929103 -0.071751 0.0392092 -0.0221312 -0.0778471 0.0689003 0.0543988 -0.100481 -0.00343235 -0.0610624 0.00568429 0.0369597 0.0146236 -0.059088
146 -0.344172 0.227366 -0.16573 0.228189 0.15551 0.198653 0.00167463 0.0351253 -0.0633192 0.120179 0.0328733 -0.18828 0.0630712 -0.064474 -0.14592 0.13818 0.17668 -0.17435 -0.0287113 -0.0919262 0.0494281 0.0835213 0.0635589 -0.143513
847 -0.503111 0.327571 -0.202553 0.318158 0.212419 0.284472 -0.0166082 0.0844859 -0.0957235 0.169003 0.0668735 -0.242818 0.102734 -0.0496605 -0.159391 0.197273 0.220904 -0.236927 -0.0776546 -0.125915 0.0483727 0.13844 0.0657042 -0.16428
2532 -0.39113 0.263067 -0.195319 0.271286 0.159772 0.232841 -0.0199446 0.0451707 -0.0894516 0.143116 0.0266189 -0.205656 0.0909545 -0.0457452 -0.135442 0.168451 0.1968 -0.190901 -0.0580665 -0.126672 0.0480655 0.120093 0.043547 -0.142682
2531 -0.644685 0.393067 -0.269024 0.380449 0.293299 0.363373 -0.0441112 0.104716 -0.130456 0.219551 0.0874641 -0.308785 0.128518 -0.102716 -0.232909 0.225155 0.291507 -0.278697 -0.098333 -0.184615 0.0647835 0.147999 0.0662949 -0.213563
561 -0.439456 0.28335 -0.198931 0.297784 0.179896 0.258343 -0.0123185 0.0778403 -0.0930931 0.128274 0.0509997 -0.250151 0.096004 -0.0888257 -0.17587 0.162874 0.216194 -0.233362 -0.0507236 -0.12996 0.0781843 0.118344 0.0707327 -0.1514
1357 -0.331149 0.214576 -0.134047 0.213394 0.132574 0.176222 -0.0281981 0.0673524 -0.0790608 0.112957 0.03697 -0.148226 0.0724382 -0.0453103 -0.10824 0.102984 0.13529 -0.136139 -0.0542947 -0.109555 0.0398583 0.103074 0.0443681 -0.109859
3237 -0.27872 0.174506 -0.146399 0.182816 0.124407 0.183286 -0.0128117 0.0409159 -0.0511631 0.0747122 0.0324943 -0.13324 0.0737799 -0.0271059 -0.124173 0.0915072 0.150649 -0.127248 -0.039287 -0.0997063 0.0372525 0.0570462 0.0248651 -0.109638
1841 -0.480214 0.28046 -0.190985 0.291414 0.182755 0.26296 -0.0292199 0.0502446 -0.102879 0.132828 0.0531346 -0.233439 0.112512 -0.0788313 -0.143959 0.155294 0.188316 -0.196917 -0.0489138 -0.129273 0.0692636 0.119427 0.0723637 -0.175156
1646 -0.31668 0.200434 -0.166459 0.222407 0.143837 0.194344 -0.00961605 0.0341405 -0.0625235 0.0963919 0.054488 -0.151165 0.079455 -0.0282022 -0.102786 0.140027 0.133975 -0.165065 -0.0411619 -0.108184 0.0387296 0.105416 0.0646999 -0.0983424
1839 -0.365031 0.215854 -0.152865 0.243743 0.165971 0.196353 -0.0357349 0.0504866 -0.0792837 0.126772 0.0496262 -0.193793 0.0700999 -0.0606537 -0.127178 0.13133 0.15892 -0.190894 -0.0669072 -0.119222 0.0467374 0.103472 0.0478347 -0.116766
2225 -0.183931 0.129411 -0.100806 0.108571 0.0988605 0.109353 -0.0247354 0.0417158 -0.0251938 0.0566366 0.0403264 -0.0873024 0.040092 -0.0378238 -0.0991023 0.0791016 0.101682 -0.099995 -0.0488164 -0.0625556 0.0244469 0.0667304 0.0323996 -0.0576215
2416 -0.201853 0.151884 -0.116215 0.110631 0.105332 0.0998766 -0.0246421 0.0350378 -0.0621911 0.062307 0.00731065 -0.103548 0.0620138 -0.0179417 -0.100047 0.0566066 0.0981005 -0.109277 -0.01613 -0.0623334 0.0342418 0.0758608 0.0118996 -0.064906
349 -0.591981 0.358985 -0.264429 0.365371 0.24857 0.331961 -0.0258072 0.0888548 -0.10829 0.196011 0.0782336 -0.302883 0.142109 -0.100224 -0.21397 0.226744 0.26298 -0.284621 -0.0942511 -0.176234 0.0619497 0.164928 0.0618881 -0.199764
2894 -0.333061 0.203029 -0.15521 0.207516 0.112578 0.180243 -0.00293023 0.0560389 -0.0536488 0.115113 0.0351324 -0.170099 0.0765484 -0.0486989 -0.124435 0.110307 0.162127 -0.1535 -0.0340443 -0.103863 0.0517736 0.0948132 0.0535685 -0.109523
2459 -0.306936 0.19356 -0.123428 0.191483 0.133401 0.163537 -0.0157617 0.0494934 -0.0426156 0.0864854 0.01908 -0.17322 0.0752364 -0.0424721 -0.118301 0.120112 0.141544 -0.156698 -0.053496 -0.0845639 0.0618027 0.0763167 0.053887 -0.113361
3159 -0.225509 0.138416 -0.101077 0.136439 0.106625 0.120394 -0.000323798 0.0292144 -0.0254558 0.0708835 0.0110245 -0.119278 0.0545018 -0.045127 -0.054656 0.0956221 0.0958862 -0.0956245 -0.0356565 -0.0416784 0.0345856 0.0611353 0.0442039 -0.0694895
2133 -0.317496 0.225271 -0.161648 0.211488 0.15179 0.195324 -0.0311161 0.0675281 -0.0786658 0.0973245 0.0451047 -0.167217 0.0789674 -0.0279528 -0.134367 0.11442 0.155156 -0.167204 -0.0377251 -0.0887805 0.0481459 0.0835953 0.0646085 -0.108256
2212 -0.164618 0.106863 -0.0602185 0.0919363 0.0788249 0.116644 0.00638962 0.0291121 -0.0190593 0.0344543 0.00223016 -0.105691 0.0198137 -0.0350537 -0.0494183 0.0444733 0.067568 -0.0807782 -0.0388382 -0.0670156 0.0423503 0.0397903 0.0159915 -0.0508951
2160 -0.404011 0.253403 -0.161949 0.257876 0.154583 0.232792 -0.000316106 0.0728296 -0.0684313 0.139098 0.0609785 -0.202032 0.0961663 -0.0587919 -0.134452 0.129843 0.15687 -0.208558 -0.0491785 -0.117878 0.0633025 0.106124 0.04469 -0.153666
2645 -0.198186 0.126627 -0.100388 0.136378 0.0702131 0.125199 -0.019016 0.0435849 -0.0378997 0.0846316 0.0285746 -0.10918 0.0537389 -0.0158596 -0.0558989 0.0807057 0.0991588 -0.08961 -0.0162174 -0.0587418 0.0325736 0.0408768 0.0169703 -0.0828826
1490 -0.185324 0.143625 -0.078402 0.118612 0.0683452 0.116017 -0.0198958 0.0304718 -0.0432141 0.0535239 0.0193004 -0.1116 0.0272177 -0.0289531 -0.0879513 0.0570434 0.0799877 -0.0839085 -0.0403886 -0.0390579 0.0218818 0.063789 0.0351181 -0.0620686
2255 -0.252688 0.166825 -0.12739 0.169892 0.110283 0.143909 -0.00155532 0.0238144 -0.0636635 0.070996 0.0181848 -0.120808 0.0756577 -0.0330698 -0.10166 0.094424 0.117682 -0.116238 -0.0502023 -0.0730413 0.0217467 0.0551309 0.055341 -0.087452
2208 -0.200301 0.151482 -0.0997937 0.159998 0.0810177 0.110709 0.00164074 0.0301751 -0.0344977 0.0722635 0.0423747 -0.114916 0.0490095 -0.0424599 -0.0873109 0.101643 0.0851028 -0.114449 -0.02675 -0.05166 0.0163632 0.0588253 0.012742 -0.0840654
152 -0.332251 0.213048 -0.124347 0.206906 0.130115 0.1705 -0.036391 0.0658619 -0.0624846 0.101869 0.0168347 -0.147224 0.0933399 -0.0585992 -0.115778 0.124889 0.156386 -0.16518 -0.0270908 -0.107385 0.0330262 0.0784892 0.0486262 -0.0997974
2808 -0.561229 0.33532 -0.251247 0.341144 0.232278 0.304618 -0.0233194 0.0767279 -0.126654 0.169369 0.0394748 -0.283544 0.131642 -0.0639466 -0.171994 0.199713 0.240175 -0.274104 -0.0496649 -0.147208 0.0540585 0.148414 0.0773592 -0.173067
2810 -0.319283 0.198554 -0.147041 0.197436 0.159299 0.187315 0.00317412 0.0374896 -0.086962 0.104069 0.0433678 -0.165446 0.0559729 -0.0512468 -0.12012 0.143338 0.154193 -0.150682 -0.0317599 -0.0939362 0.052612 0.0984538 0.0608117 -0.100046
2684 -0.312836 0.188607 -0.156833 0.212611 0.126788 0.168225 -0.00933967 0.0505975 -0.0721144 0.104647 0.0511484 -0.17849 0.0707817 -0.0276088 -0.102914 0.126383 0.143349 -0.163842 -0.0387922 -0.0876033 0.0196612 0.085068 0.0474486 -0.125684
911 -0.320135 0.183254 -0.155859 0.206923 0.123142 0.176078 -0.00464064 0.0412616 -0.0699759 0.109116 0.0299919 -0.153592 0.087031 -0.0528343 -0.110745 0.0976334 0.132769 -0.129281 -0.0577326 -0.0801641 0.0388561 0.0935877 0.0404573 -0.121864
3188 -0.296439 0.165132 -0.124757 0.16786 0.12014 0.152109 -0.00329992 0.0235345 -0.06843 0.0777254 0.0231236 -0.138861 0.0700094 -0.0266399 -0.0803854 0.125931 0.129548 -0.136098 -0.0565959 -0.0635907 0.0389607 0.0927949 0.0346927 -0.0848347
2142 -0.315196 0.197271 -0.153319 0.203747 0.142526 0.153202 -0.0324542 0.0474014 -0.0586297 0.0839662 0.0541422 -0.136726 0.0667729 -0.0280092 -0.097281 0.109927 0.146556 -0.136814 -0.0432062 -0.0904392 0.0432391 0.0827456 0.0215369 -0.0855255
1804 -0.329154 0.181275 -0.124129 0.197001 0.129138 0.172021 -0.00201211 0.0502073 -0.0640894 0.103126 0.0377884 -0.143492 0.0630412 -0.0514928 -0.092263 0.115244 0.129824 -0.147831 -0.0585085 -0.0882503 0.0184338 0.0811973 0.0389758 -0.0895949
526 -0.610577 0.398234 -0.279989 0.362238 0.279377 0.350299 -0.024528 0.0961347 -0.124048 0.176606 0.0589736 -0.327528 0.132563 -0.0855415 -0.195434 0.224345 0.262352 -0.270502 -0.0882363 -0.152781 0.0583656 0.141264 0.0973717 -0.227758
1632 -0.341277 0.207476 -0.170008 0.21953 0.144858 0.17796 -0.00945177 0.0314817 -0.0886217 0.130511 0.0497743 -0.166203 0.0655019 -0.0397364 -0.141628 0.112961 0.139629 -0.185336 -0.0674811 -0.103088 0.0646038 0.0866588 0.0605832 -0.113583
637 -0.323549 0.22586 -0.156466 0.200176 0.140018 0.206638 -0.0192281 0.0306331 -0.0851239 0.109204 0.0477232 -0.186756 0.0697939 -0.0362982 -0.114348 0.124775 0.139512 -0.150437 -0.0535334 -0.0956718 0.0402462 0.0810567 0.0276844 -0.0971733
397 -0.420174 0.259851 -0.207426 0.260087 0.200874 0.228148 -0.0391132 0.0698686 -0.0886862 0.156835 0.0308596 -0.212465 0.11383 -0.0655018 -0.152615 0.162897 0.209994 -0.206698 -0.03519 -0.102662 0.0395204 0.107147 0.0740786 -0.164294
1901 -0.393849 0.25138 -0.186466 0.254661 0.174775 0.234852 -0.0232044 0.0635944 -0.0853196 0.117441 0.0517243 -0.197689 0.106614 -0.04406 -0.123431 0.160358 0.168967 -0.170284 -0.047204 -0.122788 0.0287183 0.0899523 0.0510524 -0.144652
1494 -0.368027 0.22589 -0.148176 0.23471 0.182559 0.221869 -0.0223221 0.0523762 -0.0804203 0.117482 0.0558376 -0.180415 0.0709122 -0.0515512 -0.141971 0.153863 0.174375 -0.180971 -0.0548811 -0.10786 0.0272219 0.0936852 0.0416756 -0.111195
1495 -0.374091 0.252408 -0.175978 0.24772 0.167566 0.224895 -0.0307189 0.0654226 -0.100459 0.136184 0.0305937 -0.180163 0.0974862 -0.0660913 -0.154657 0.16149 0.185524 -0.185036 -0.0553161 -0.120565 0.0410515 0.110688 0.0683373 -0.125362
3066 -0.148215 0.0871087 -0.0760208 0.0777071 0.0756849 0.0792206 -0.0282605 0.0347873 -0.0319941 0.0355668 0.00070148 -0.0690092 0.0111491 -0.00665724 -0.0502167 0.0324311 0.0723163 -0.0500439 -0.00871074 -0.0329964 0.0188886 0.0539405 0.0159369 -0.0401851
1980 -0.317243 0.233 -0.155017 0.213972 0.142355 0.175733 -0.0146743 0.0352072 -0.0881734 0.0851793 0.0426749 -0.183375 0.0790681 -0.0503249 -0.146922 0.120413 0.142084 -0.170636 -0.0437385 -0.0803925 0.0658762 0.102268 0.0496331 -0.0966368
313 -0.33161 0.186356 -0.152745 0.198483 0.141027 0.177707 -0.0230759 0.0384553 -0.0586501 0.0902954 0.0421988 -0.175768 0.0574131 -0.0313386 -0.101694 0.13111 0.153211 -0.1364 -0.0604503 -0.07424 0.0524152 0.0933324 0.0252182 -0.119735
703 -0.473741 0.283477 -0.198983 0.300964 0.198267 0.273032 -0.044129 0.0508589 -0.103384 0.156605 0.0552407 -0.249906 0.102508 -0.0584551 -0.151701 0.162815 0.224523 -0.243122 -0.0560864 -0.124123 0.0561299 0.137736 0.0788135 -0.170969
219 -0.474511 0.300595 -0.230216 0.313643 0.193149 0.27603 -0.0283872 0.0782102 -0.106763 0.139739 0.0374592 -0.261968 0.0978256 -0.0597711 -0.188845 0.168533 0.192674 -0.227526 -0.0677892 -0.156724 0.0686708 0.125549 0.0537343 -0.182022
3495 -0.240973 0.161001 -0.128441 0.164008 0.0912438 0.121379 -0.0171414 0.0194672 -0.0484027 0.0696195 0.0359868 -0.135118 0.0667582 -0.0367352 -0.0980254 0.0954976 0.101513 -0.116779 -0.0503007 -0.08869 0.0198257 0.0658814 0.0262515 -0.0943368
1817 -0.469862 0.303029 -0.206447 0.315229 0.223296 0.271869 -0.0250281 0.0709529 -0.113644 0.179303 0.0542158 -0.230033 0.131298 -0.0521309 -0.186837 0.160584 0.211587 -0.211265 -0.0444625 -0.133387 0.0600533 0.132952 0.0459639 -0.15875
1911 -0.344391 0.21228 -0.1417 0.186623 0.156478 0.170974 -0.0314795 0.0595368 -0.055533 0.115347 0.040306 -0.15155 0.0856448 -0.0428435 -0.0986599 0.113968 0.16506 -0.147961 -0.0478099 -0.111762 0.0449828 0.102971 0.0544918 -0.131649
1161 -0.177814 0.11122 -0.081598 0.11977 0.0484802 0.102449 0.00354299 0.0189477 -0.0359097 0.0641489 0.0130533 -0.0957937 0.0484095 -0.0037466 -0.0403674 0.0553348 0.0856499 -0.0658543 -0.00802118 -0.0391272 0.01221 0.0345522 0.0122451 -0.0426115
2379 -0.388009 0.24844 -0.175102 0.246524 0.160424 0.239337 -0.0143851 0.0508411 -0.0667577 0.135212 0.051746 -0.217013 0.0701033 -0.0682698 -0.149486 0.132164 0.174823 -0.191448 -0.0716888 -0.121357 0.0312246 0.123072 0.0534067 -0.134354
2574 -0.328134 0.209208 -0.144409 0.185475 0.145147 0.192184 -0.0230621 0.0465269 -0.0772356 0.123054 0.0168196 -0.161083 0.0794842 -0.057643 -0.118639 0.118695 0.163958 -0.165274 -0.0364153 -0.0855593 0.0198579 0.10555 0.0646897 -0.123748
2570 -0.697685 0.454389 -0.31485 0.436171 0.306111 0.388119 -0.0247072 0.0954036 -0.156142 0.223295 0.0837145 -0.370429 0.168356 -0.0938761 -0.255621 0.2605 0.288009 -0.352534 -0.100971 -0.194844 0.0628412 0.170013 0.0821852 -0.251848
1154 -0.348154 0.21066 -0.16208 0.194712 0.12405 0.203526 -0.0279253 0.0594141 -0.0494434 0.0996668 0.0166902 -0.174998 0.0873938 -0.0285386 -0.104971 0.117624 0.161657 -0.154182 -0.0216005 -0.0945612 0.0469402 0.0942365 0.0522171 -0.105117
541 -0.648073 0.397202 -0.271697 0.414206 0.276329 0.345651 -0.0328946 0.0977861 -0.12421 0.197065 0.0523464 -0.32927 0.16205 -0.0903933 -0.241672 0.214467 0.290213 -0.314746 -0.0678366 -0.185702 0.0882247 0.14554 0.0759862 -0.241081
2576 -0.420132 0.275273 -0.174993 0.252027 0.200456 0.232342 -0.0321849 0.0700375 -0.0749698 0.14235 0.0678439 -0.22665 0.111968 -0.0659592 -0.144672 0.161778 0.194621 -0.217798 -0.0571442 -0.112159 0.0421293 0.12219 0.0462035 -0.128985
971 -0.356507 0.228103 -0.159521 0.226536 0.151775 0.182007 -0.000829436 0.0377948 -0.0791422 0.119999 0.0262357 -0.163172 0.0704197 -0.0629096 -0.106514 0.13489 0.143729 -0.175503 -0.0337573 -0.0813993 0.0491447 0.0801756 0.0382718 -0.117185
1867 -0.542746 0.340537 -0.235296 0.336445 0.245289 0.310396 -0.0289045 0.0727411 -0.131871 0.158588 0.0703029 -0.274313 0.139659 -0.0673138 -0.20371 0.18333 0.227956 -0.273213 -0.0546079 -0.158069 0.0888186 0.155202 0.07009 -0.180115
357 -0.544966 0.321903 -0.225623 0.305739 0.23181 0.315019 -0.0345413 0.0754202 -0.0874526 0.183099 0.0778777 -0.277437 0.125063 -0.076738 -0.197511 0.182564 0.254224 -0.264482 -0.0604177 -0.142427 0.0624588 0.148275 0.058557 -0.198937
2353 -0.233558 0.157376 -0.111074 0.140834 0.114722 0.129632 -0.0155189 0.0436413 -0.054489 0.0801826 0.0348476 -0.115117 0.0665979 -0.0469291 -0.0752902 0.0611033 0.115895 -0.120243 -0.0125614 -0.0507381 0.0399931 0.065772 0.0150497 -0.0838771
135 -0.429729 0.287656 -0.1995 0.285257 0.177625 0.265298 -0.0395279 0.0418091 -0.0737584 0.120187 0.0525823 -0.225774 0.0825784 -0.0651883 -0.146754 0.150117 0.193041 -0.219617 -0.0657214 -0.104638 0.0642616 0.134504 0.0640875 -0.163137
699 -0.463274 0.289267 -0.183876 0.260776 0.204742 0.270562 -0.0109604 0.0690474 -0.0787306 0.166486 0.0466642 -0.228287 0.0853754 -0.0716807 -0.166351 0.185423 0.209453 -0.196253 -0.0451549 -0.144438 0.0502935 0.136058 0.0494339 -0.152055
835 -0.373162 0.238601 -0.146435 0.245116 0.168411 0.218858 -0.00453246 0.052775 -0.0610359 0.109955 0.0575292 -0.202741 0.0724878 -0.0346832 -0.11595 0.125006 0.176775 -0.185318 -0.0346328 -0.117224 0.0607186 0.110113 0.0385904 -0.121633
676 -0.47357 0.321059 -0.220673 0.315204 0.218876 0.273527 -0.00833177 0.0555645 -0.0976942 0.143191 0.0543177 -0.226537 0.0909243 -0.0644228 -0.155271 0.191873 0.193648 -0.233435 -0.0589362 -0.148417 0.0585366 0.115463 0.0532754 -0.160835
2033 -0.18795 0.114126 -0.0774996 0.134855 0.0729393 0.133968 -0.00546523 0.0256083 -0.0515651 0.0623616 0.0437894 -0.0939079 0.0651999 -0.0437674 -0.0753892 0.0725158 0.100106 -0.1016 -0.0240641 -0.072942 0.0137774 0.0386414 0.0244187 -0.0797668
913 -0.54632 0.351286 -0.264092 0.331514 0.248165 0.299865 -0.0206907 0.0810715 -0.113418 0.182651 0.059965 -0.283627 0.122523 -0.0784816 -0.193539 0.195684 0.258247 -0.278216 -0.0907434 -0.150978 0.0464212 0.145712 0.0652297 -0.179114
2074 -0.172731 0.0819775 -0.0745184 0.11567 0.066728 0.07254 -0.0152872 0.0333448 -0.0281013 0.0670784 0.0220323 -0.0914649 0.0465318 -0.0126853 -0.0397566 0.0644647 0.0510864 -0.0873197 -0.0247514 -0.0448976 0.0285369 0.0377073 0.0218776 -0.0398285
1586 -0.271844 0.199384 -0.131524 0.195115 0.117327 0.162226 -0.0139929 0.0409517 -0.0438211 0.0756843 0.0170196 -0.147096 0.078289 -0.0489254 -0.0964235 0.110458 0.124261 -0.1326 -0.0290942 -0.0704828 0.0541718 0.0856111 0.056481 -0.117856
3383 -0.2263 0.153223 -0.0847254 0.137545 0.0813695 0.132396 0.00275738 0.0450122 -0.0398406 0.0648287 0.0215051 -0.125456 0.0573588 -0.0506026 -0.064041 0.0664936 0.0939407 -0.110005 -0.0397814 -0.0475414 0.00799321 0.0670284 0.0242416 -0.0715881
1733 -1.32686 0.813718 -0.593897 0.818334 0.546499 0.759356 -0.0917092 0.168403 -0.281846 0.436906 0.134894 -0.689934 0.275963 -0.206673 -0.448409 0.484461 0.557531 -0.638142 -0.171342 -0.360388 0.182485 0.367455 0.180764 -0.476433
3399 -0.276115 0.17295 -0.108144 0.177194 0.125469 0.125275 -0.00904705 0.0247408 -0.0662485 0.0681817 0.04302 -0.122874 0.0663744 -0.0396407 -0.08799 0.0769183 0.12405 -0.132985 -0.0222932 -0.055744 0.0168899 0.0551442 0.0409393 -0.0877866
3380 -0.204422 0.144075 -0.0787719 0.108457 0.0665333 0.106035 0.00420673 0.0478395 -0.021182 0.0802479 0.00558327 -0.118713 0.059644 -0.031818 -0.080502 0.0894161 0.0837644 -0.0947473 -0.0309146 -0.0479794 0.0425544 0.0457228 0.0142355 -0.056326
246 -0.794046 0.502293 -0.379862 0.508353 0.34651 0.444722 -0.0609185 0.104128 -0.186575 0.277004 0.0902417 -0.4163 0.186628 -0.119995 -0.292055 0.286425 0.358484 -0.406718 -0.0882446 -0.217472 0.130856 0.233345 0.111584 -0.262278
730 -0.253001 0.152208 -0.0902209 0.171945 0.118978 0.122583 -0.00334099 0.0444603 -0.0685355 0.0738452 0.0220699 -0.106157 0.0692503 -0.0295042 -0.075091 0.0729454 0.107733 -0.0992015 -0.0368334 -0.0699887 0.0385345 0.0527193 0.0169896 -0.0964079
1127 -0.229773 0.131765 -0.0790731 0.119892 0.0969268 0.138677 -0.0268038 0.0297501 -0.0562546 0.0583042 0.014302 -0.128691 0.0287813 -0.0259405 -0.0739867 0.0971915 0.0821979 -0.12038 -0.0352985 -0.0763055 0.0403063 0.0415139 0.016696 -0.0780317
651 -0.351011 0.22026 -0.159342 0.224475 0.13731 0.203411 -0.0415486 0.0434259 -0.0593513 0.125002 0.0460148 -0.163133 0.0622581 -0.0349348 -0.125251 0.113565 0.141172 -0.163811 -0.0537584 -0.0824543 0.0593157 0.104364 0.034129 -0.143574
64 -0.218264 0.155096 -0.0859511 0.161553 0.0999156 0.125626 -0.0123952 0.0164691 -0.0340496 0.0769421 0.0346159 -0.131573 0.0663106 -0.0397569 -0.0752167 0.0762638 0.124821 -0.093703 -0.0300797 -0.0499755 0.0234074 0.052067 0.0138164 -0.0737625
1597 -0.604277 0.389894 -0.268776 0.37268 0.251718 0.340234 -0.0392 0.0823546 -0.107276 0.201788 0.0552176 -0.315851 0.140117 -0.0974446 -0.219109 0.206198 0.270946 -0.301516 -0.0741774 -0.178147 0.0977308 0.176603 0.0835467 -0.207364
