540 24
138 -0.0120192 0.00842963 -0.0123 -0.0173745 -0.000174372 -0.00589653 -0.00672621 -0.0229367 0.0110268 -0.0264869 -0.0240413 -0.0236345 -0.0139713 -0.00658095 -0.0136295 0.0327616 0.0078402 0.00034672 0.0075496 0.011864 -0.0163957 -0.00170448 -0.0180991 -0.0127304
142 0.000605578 0.0120977 -0.0268816 -0.0133297 0.00477616 0.0233196 0.00540577 -0.0140445 0.0130461 0.0117181 -0.0202415 -0.013488 -0.00102492 -0.0167354 0.00563171 -0.00411595 -0.00838716 0.00687854 0.016562 -0.00230115 -0.0100665 0.00187353 -0.0284709 0.0125285
255 -0.0109468 -0.00442621 -0.0202207 -0.00513 0.000166122 0.00934078 -0.0117556 -0.00494457 0.000773856 -0.00666303 -0.00692075 -0.016015 0.00955051 0.0144356 -0.00372489 0.030697 -0.015267 -0.00409892 -0.00804742 0.00850215 -0.00220554 -0.00538126 -0.0341645 -0.0114541
385 0.00992379 0.00385075 -0.00604938 -0.0138764 -0.0161435 -0.00566814 -0.0267561 -0.00115542 -0.0111536 0.00511298 -0.027331 0.00704858 -0.00654229 0.00315681 -0.00439225 0.0320087 -0.00289948 -0.00791293 0.00643336 0.00921558 0.00648793 0.00994734 -0.0213571 0.00158096
140 -0.0124471 0.0292424 -0.0299533 0.00086374 0.0204673 0.0296117 -0.0102559 -0.0164551 -0.00576385 -0.0147857 -0.0416833 -0.0105288 0.00475926 -0.0197373 0.00159319 0.0296265 0.00948102 0.00479594 0.00367045 0.0319203 -0.024281 -0.0311898 -0.0370892 0.00738277
430 -0.0274236 0.0134452 0.00569651 0.0106086 -0.0192443 0.0109229 0.00464417 0.000599077 0.00924865 -0.0290778 -0.0250379 -0.00457282 -0.00229924 -0.019417 0.0162166 0.0315963 -0.0148838 -0.00348355 -0.0184971 0.00584008 -0.0209392 0.000536538 -0.012825 -0.0053863
272 -0.00297547 -0.000723221 -0.0116801 0.00737831 0.0064128 0.02259 -0.0325572 -0.0206566 0.00600552 0.00358046 -0.00435915 -0.0192467 0.0163111 0.00894144 -0.00567412 0.0479838 -0.023653 -0.00256574 0.0185915 0.0116893 -0.0259167 -0.0233334 -0.0168465 -0.00416901
304 -0.0374557 0.0468765 -0.0227704 0.00738545 0.0220243 0.0282388 -0.0308162 -0.0517802 0.0153513 -0.0324036 -0.0420357 -0.0204264 0.0155722 -0.00327901 -0.0107557 0.0397657 0.000151525 -0.0178673 -0.0127574 0.0110102 -0.0260081 -0.0215106 -0.0214165 0.00445619
502 -0.0292449 0.0101808 -0.0106704 0.00174233 -0.000414523 0.021175 -0.0225358 -0.0296897 -0.00795068 -0.0268284 -0.0341457 0.00147908 0.00289142 -0.0248517 -0.00314892 0.00877665 0.0100824 -0.0303839 -0.0164075 0.0280544 -0.0221769 -0.000901722 -0.0317636 -0.0156213
187 -0.0265516 0.0299315 -0.00396635 0.0163556 0.0164452 0.0148573 -0.00966024 -0.00700232 0.00909214 -0.0107581 -0.0313213 -0.00620285 -0.0162809 -0.00442446 0.00369734 -0.00267746 0.00612811 0.0100052 0.00864881 0.0221144 -0.00917124 -0.0211071 -0.0321121 0.0115927
384 -0.00384985 -0.00551712 0.00138972 0.0176128 -0.00265406 0.0157052 -0.00367975 -0.0290827 0.0108699 -0.000384139 -0.0282102 -0.015761 -0.0179853 0.000424641 0.0141935 0.00787171 -0.0155195 0.00185202 0.0202372 0.0174899 -0.0155518 -0.0180715 -0.00856789 0.00499014
213 -0.0210256 0.016186 -0.0102614 0.020169 -0.00158541 0.016297 -0.0249853 -0.0317459 -0.00945942 0.00317111 0.00212577 -0.0144262 -0.000127228 -0.00653383 0.0131407 0.00801011 -0.0259551 -0.00428196 0.0112321 0.0132601 -0.00388633 0.00311747 -0.0223388 -0.000227454
131 -0.0117174 0.0266856 -0.00537227 -0.0166097 0.00172395 0.00935726 -0.00484487 0.0032572 0.0162354 -0.000777669 0.00564237 0.0141468 0.0013997 -0.00414597 0.00893437 -0.003526 -0.00748105 -0.0118834 0.013012 0.0223397 -0.0198836 0.00876654 0.00258363 -0.0189431
521 -0.00139701 0.0243933 -0.00631447 -0.00975359 0.00638319 0.0123929 -0.0330493 -0.01106 -0.0194483 -0.00548944 -0.0218101 -0.018151 0.0130528 0.00189305 0.0137007 0.00649755 -0.016951 -0.0186642 0.00209297 0.0251098 -0.0132908 -0.0198869 -0.0369036 0.0101059
112 -0.019491 0.00628731 -0.0232588 0.00900065 0.00444348 -0.00247816 -0.0344702 -0.013203 0.0115049 -0.012775 -0.0110373 -0.00483912 0.00207967 -0.00309941 -0.0167657 0.0423967 0.0100289 -0.028674 -0.0146648 0.0180013 -0.0194523 -0.014817 -0.0121081 -0.0164872
169 -0.000458878 0.00915353 -0.0244497 0.0121236 0.0207116 0.0267248 -0.00866203 -0.0213414 -0.00881379 -0.0250232 -0.0297609 -0.0192494 0.00806785 -0.0247886 0.00286861 0.0131314 -0.020724 -0.0214347 -0.0130846 0.0156293 -0.0215244 -0.0214408 -0.00684647 -0.0101488
139 0.00347583 -0.00531185 -0.0192758 0.0181274 -0.00900162 0.0315439 -0.0362606 -0.0185861 -0.00750717 -0.023748 -0.00448676 -0.0198864 -0.0119736 -0.0146617 -0.00789266 0.0387438 -0.025794 0.00521647 -0.00649927 0.0143544 -0.0269589 -0.0236631 -0.00874202 0.0165377
530 -0.0116084 0.034876 -0.0241365 -0.0028167 -0.0002298 0.0221395 -0.0393403 -0.0244054 0.0171733 -0.0292728 -0.0234314 -0.0172642 -0.00768891 9.80489e-05 0.00341156 0.0128917 -0.00172474 -0.00545023 -0.0177086 0.00340296 0.00270312 -0.031941 -0.0138282 -0.00469528
7 -0.0043374 0.0249263 0.00250214 0.0197579 0.0185135 -0.00688818 -0.0360178 -0.0343153 -0.00517067 0.00115944 -0.01407 0.000299146 -0.0114515 -0.00553954 -0.0206832 0.0230991 0.00766355 -0.0116859 0.000786426 0.0243896 -0.00487767 -0.0154706 -0.0362641 -0.0134898
150 -0.0121585 0.00491738 -0.0198308 0.0123277 -0.0062659 0.0201206 -0.0102624 -0.031298 -0.00697846 -0.00909172 -0.0299416 -0.00402616 0.0156075 0.00155793 0.0051607 0.0360817 -0.0225933 -0.0152407 -0.0101451 0.0312695 -0.0140118 -0.0167107 0.000227603 -0.00135831
507 0.00385525 0.0220459 -0.0106214 -0.0144429 0.0204563 0.00263561 -0.0239776 -0.0373771 -0.00803301 -0.0269589 0.00105862 -0.0120477 -0.00870158 -0.00278167 -0.0145871 0.0267873 -0.0174689 -0.0194425 -0.0085778 0.0230086 -0.0118311 0.00147539 -0.00991826 0.0124635
483 -0.0157901 0.0201469 -0.0236033 -0.0126174 0.00940166 0.0137816 -0.00938895 -0.0263766 0.0236196 -0.0292798 -0.033262 -0.018982 -0.0151724 -0.0270536 0.00925637 0.0283506 -0.0173164 0.00423446 0.0198871 0.00855477 -0.0201606 -0.00492844 -0.0228664 -0.0151817
209 -0.0233804 0.0180122 -0.0222842 0.0155109 -0.00886757 -0.00308547 -0.0356187 -0.0132576 0.00104651 -0.029747 -0.0236815 0.00852104 -0.000129356 0.00310507 0.0147019 0.0305408 -0.00324411 -0.0216745 0.019453 0.0134792 -0.0111799 -0.0107057 -0.00365319 -0.010901
331 -0.0219975 -0.00173575 -0.00509734 0.021629 -0.0125541 -0.00507766 0.000459641 -0.00841497 0.016483 -0.00572441 -0.000942168 -0.00913377 -0.0157728 -0.012573 0.0161006 0.0394074 -0.0245567 -0.00348118 -0.0097536 0.00809653 -0.00520138 -0.0194321 -0.016457 0.00155899
192 -0.015563 0.0289702 -0.0311226 0.0178124 -0.0175852 -0.00767336 -0.00880616 -0.00141405 -0.0141684 -0.0265504 -0.0119943 0.00179234 0.0110614 0.00256654 0.012115 0.00418794 -0.0206806 -0.0178298 -0.00114069 -0.000968594 -0.00212857 0.00483165 -0.0348825 -0.0179778
98 0.00290026 0.0091257 -0.0122 0.013123 0.00790667 0.00887814 0.00188791 -0.00965406 -0.00974772 -0.0284691 -0.0188281 0.0137469 -0.000339584 -0.0142929 0.000395138 0.0251296 -0.0124601 0.00134516 0.00665778 0.00838784 0.0016793 -0.0125683 -0.0347122 0.0194887
52 -0.0298355 0.0284076 -0.0186243 -0.0119121 -0.00523381 -0.00188767 -0.0304847 -0.0204706 -0.0127672 0.00246708 -0.0115374 -0.0163972 -0.0114507 0.00895161 -0.01918 0.0464193 0.0111214 -0.0267199 -0.000955118 0.0317939 -0.031472 -0.0321404 -0.0316316 -0.00820671
317 0.00529264 0.0347453 -0.00191823 -0.0166093 0.00259773 0.0199357 -0.0338392 -0.0351358 0.0112326 -0.0302632 -0.0176875 -0.00958008 0.0119746 -0.0174542 0.0113769 0.003076 -0.0151253 -0.01635 0.00206417 0.031024 -0.0175961 0.00759076 -0.00336949 -0.00184417
246 -0.00274494 0.0249861 -0.0212068 0.0121216 0.0214945 0.0236272 -0.00748056 -0.0210851 0.015886 -0.00703568 -0.013045 -0.0182506 0.0099816 -0.0252245 0.00964597 0.0427143 -0.0169122 0.000619544 0.00343964 0.0146579 -0.0311271 -0.0171383 -0.0245614 0.00119765
38 -0.0204803 -0.00139636 -0.0217976 -0.00198518 -0.0170178 0.0137611 -0.0239558 -0.0159753 -0.00463146 0.00151632 -0.0088354 -0.0137839 -0.0070629 -0.00107507 -0.00654987 0.0195642 0.01165 -0.0154761 -0.0191149 0.0116333 -0.00151197 0.00974348 -0.0282553 -0.0139847
164 0.0042904 0.0302275 -0.0287479 -0.00926035 -0.00273615 -0.00198345 -0.0240329 -0.0047011 0.0153858 -0.0173148 -0.0222426 0.00539362 -0.0107536 0.00330232 0.0169374 0.0099439 -0.00497238 -0.00728075 0.00578219 0.0104031 -0.0226915 0.0066874 -0.00136026 -0.0130365
13 -0.0082322 0.0299953 -0.0105803 0.0125466 0.0103737 0.0301277 -0.0153346 -0.000414809 0.00676663 0.00187899 -0.0310166 0.00336391 -6.55532e-05 -0.0240491 0.0132053 0.00352982 0.0107108 -0.0298383 0.0179023 0.000496402 0.0103933 -0.0258127 -0.0301436 -0.0057404
440 -0.0269327 -0.00469927 -0.0218102 0.00169688 -0.0180057 0.0253043 -0.00220975 0.00125487 0.00538551 -0.0197613 -0.022337 -0.0239104 0.0181666 -0.0025363 -0.00581132 0.00276361 -0.0169096 -0.0200424 0.0158052 0.0140946 -0.0195294 -0.0119552 -0.00654909 -0.0118396
152 -0.0206214 0.0330761 -0.018195 0.0149401 -0.00611216 0.00897339 -0.0201101 -0.035343 0.00672705 -0.034136 -0.00671947 -0.0297108 -0.0132244 0.00297328 0.0115997 0.0385521 0.00459226 -0.0212419 -0.000683927 0.0115505 -0.0160878 -0.0226729 -0.0216719 -0.0149447
5 -0.0108815 -0.00479186 -0.0265436 0.0140952 0.018263 0.0287215 -0.0360801 -0.0163738 -0.00648915 -0.0245316 -0.0262601 0.00670383 -0.00386861 -0.0170803 -0.0242751 0.0206371 -0.0256339 -0.00314348 -0.0139995 0.0226812 -0.0111363 -0.00514214 -0.0301767 0.0133642
166 -0.0273723 0.0125559 -0.0306155 -0.00160801 0.00848453 0.0135539 -0.0347731 -0.0302939 -0.00348382 0.00489651 -0.0288958 0.00398814 0.00386582 -0.00664451 -0.00188899 0.0277979 -0.0189029 0.00446496 -0.0190562 0.0223774 0.00415024 -0.00564478 -0.00334473 -0.0114819
439 0.00126496 0.0103599 -0.0314556 -0.00409279 0.00589242 0.000620048 -0.00561745 -0.016483 -0.00201953 -0.0214639 -0.0287119 0.00950731 -0.000406923 0.00221957 -0.0108188 0.0103413 -0.0245077 0.00698671 0.014773 0.0171197 -0.0220198 -0.0101611 -0.0199334 0.00176765
301 -0.00219326 0.0208139 -0.0215218 0.0203717 0.0183658 0.00298672 -0.0320369 -0.00333108 -0.00789043 -0.000136299 -0.0131949 0.00659622 0.0120415 0.000379119 0.0120841 0.0193771 0.00100942 -0.0299482 0.0205082 0.022627 0.00142512 -0.0195062 -0.00291595 -0.014537
484 -0.00356413 0.0208919 0.00471535 -0.017941 -0.0145759 -0.0102185 0.00573544 0.000836026 0.00986625 0.00813568 0.000540431 0.0117867 0.012315 -0.00782979 -0.017514 0.0158873 -0.0140025 -0.00466806 0.00879772 0.0068649 -0.0122599 0.00286036 0.00146753 -0.00217615
441 -0.0213232 -0.00335995 -0.00735735 -0.00632272 -0.0077942 -0.00468718 -0.00845039 -0.0326806 -0.0188245 -0.0230225 -0.00464756 -0.0228569 0.00109132 0.00450619 -0.00914859 0.0241482 0.0125248 -0.00889715 -0.000364085 0.0240879 -0.0158768 -0.018007 -0.00335203 -0.00868448
100 -0.00224487 0.0307704 0.00014556 0.015539 0.0139954 0.00227414 -0.019166 -0.0290522 0.00162733 -0.00566711 -0.000567621 -0.00498562 0.00878439 -0.0195515 0.00414781 0.0191827 -0.00929866 -0.0224563 -0.0123337 0.0190283 -0.027154 -0.0122713 -0.0317345 -0.0163567
350 -0.0166976 -0.00684811 0.0029054 0.0074765 0.00551445 0.0110906 -0.0121717 0.000353743 0.015368 -0.00625917 0.00789912 0.010944 0.00402533 -0.000385078 0.0147161 0.00150937 0.0154878 -0.01968 0.00356796 0.0297767 0.00132627 0.00909172 -0.0351513 -0.0015629
49 0.00798101 0.00465463 -0.0270978 -0.0103415 -0.00771048 -0.000394884 -0.0172784 -0.00735881 0.00725485 -0.0174631 -0.0106541 -0.0147476 -0.01347 -0.0125935 0.00518745 0.0153828 -0.0179778 0.00679144 0.013533 0.0172032 -0.018915 -0.0247043 -0.026753 0.0151964
37 0.00497579 -5.07962e-05 0.00973268 -0.000341239 -0.0188774 0.017021 -0.0100857 -0.0345095 0.00566124 -0.0108777 -0.0129532 -0.0224863 -0.00946969 -0.0120402 -0.0128646 0.0307714 0.0132249 -0.00897271 0.00708584 0.0268745 0.00983043 -0.00324891 -0.0125956 0.013652
259 0.00100401 0.0134266 -0.00534396 0.00647244 -0.00720566 0.0191257 -0.0321275 -0.0219505 -0.00799737 0.00395654 -0.0203058 0.00219888 0.0140918 -0.0179549 0.0162859 0.00720244 -0.0151235 -0.020119 -0.0101926 0.0236338 -0.0020792 0.00310622 -0.0274721 -0.0131668
402 0.00747159 0.0278748 -0.0193384 -0.0127963 -0.00713975 -0.00372849 -0.00255714 -0.0286071 -0.0163508 -0.0144402 0.00496209 0.000499404 -0.00559962 0.00100402 0.00279393 0.00593635 0.0113367 0.00475425 0.00638632 -0.00477589 0.011539 -0.0273258 -0.0290143 -0.00217083
538 -0.0162811 0.00926097 -0.0259777 -0.0126333 -0.00504907 0.0250858 -0.0219275 -0.0116814 0.0203264 -0.00486983 -0.0328581 0.0118365 -0.00411322 -0.0076731 -4.86985e-05 0.0288997 0.0115358 -0.0243695 -0.0152553 0.0321362 0.00900555 0.00596208 -0.0189991 -0.0209141
27 0.00489092 0.00321044 -0.0131395 -0.0128611 -0.00429808 0.0172413 -0.000383245 -0.0283053 0.00374701 -0.0266232 0.00259094 -0.020805 0.0142585 -0.00406646 -0.00305714 0.0259922 0.0083876 -0.00915893 -0.00291007 0.00689771 -0.00736706 -0.00658171 -0.000504237 -0.0102789
85 -0.0233888 0.023806 -0.00717501 0.0105873 -0.0101704 0.0304342 -0.0214069 -0.00914504 -0.0168862 -0.0109639 -0.0384366 0.00741898 0.00992196 -0.00320297 0.0097698 0.0491662 0.00748902 -0.00368216 0.00888119 0.0289257 -0.00639306 -0.00994244 -0.0397485 -0.011692
465 0.00876344 0.0147413 -0.0183572 -0.00156795 0.00574573 0.0298871 -0.00434754 -0.0299142 -0.00490071 -0.0263056 -0.033897 -0.0174775 0.010592 0.00261398 0.00530877 0.00726632 -0.0166693 -0.0253026 0.0198438 -0.00021252 -0.0262964 -0.0176732 -0.0137854 0.014463
39 0.00818235 0.00734467 -3.10525e-05 0.0117176 -0.00848089 0.0283932 -0.0355105 -0.0202833 0.0208794 -0.0273071 -0.00787144 -0.00887126 -0.016768 0.00828812 -0.0194409 0.00919064 -0.0236537 -0.0235865 0.00399109 -0.00141689 -0.00804958 -0.0316226 -0.0306701 0.0190446
278 -0.000575109 0.0215547 -0.0201326 0.0178637 -0.00172301 0.0193022 -0.012812 -0.0250092 -0.00350872 0.00312924 -0.0166099 -0.0178696 -0.00304873 0.000112824 0.00494767 0.0144437 0.00543461 -0.0252296 -0.00507096 0.0354767 -0.00919186 -0.0256795 -0.0108695 -0.0147383
168 -0.00623196 0.0336206 -0.0350741 0.0200333 0.014444 -0.00502411 -0.00352739 -0.0384028 -0.00721093 0.00516511 -0.0315126 -0.00249449 0.0222259 -0.0151363 -0.0191079 0.0294621 -0.0145663 -0.012139 0.0178332 0.0271193 -0.0205583 -0.0342773 -0.0472332 0.00731858
458 0.00608341 0.00621374 -0.00747465 0.00448987 -0.00273165 -0.00125211 -0.0111881 -0.0344014 0.0151946 -0.00799765 0.00250139 0.0129339 0.000833789 -0.0270273 0.00134746 0.0187938 0.0126878 0.00270957 -0.00836613 0.00261105 -0.0323869 -0.0151184 -0.000685444 -0.00445932
277 -0.0173633 0.0198595 -0.0170897 -0.00484602 -0.00818488 -0.00238034 -0.00918745 -0.00368668 0.0196625 0.0051991 -0.0347918 -0.00124569 -0.00743648 -0.0204211 0.00655637 0.0369554 0.00736552 0.00887819 -0.00536147 0.00712125 -0.00516493 -0.00762589 -0.0093916 -0.00479083
214 -0.0270786 0.0281556 -0.0105761 -0.00195323 0.015002 0.0162853 -0.0276495 -0.0306683 -0.00495322 -0.0272787 0.00235098 -0.0242215 0.00913414 -0.0137702 -0.0115177 0.0164122 -0.0151833 -0.0214789 0.00925569 -0.00432103 0.00202244 0.00303308 -0.00924943 -0.0111717
438 -0.0100723 0.033475 -0.0079666 -0.00699665 0.00337357 0.0162956 -0.0102978 -0.0494022 -0.00944469 -0.0289642 -0.00922185 0.00335593 -0.0062577 -0.0271085 -0.0100898 0.0469497 -0.00981515 -0.0353644 0.0101609 0.0262825 -0.0347714 -0.0048878 -0.0443079 0.000660199
248 -0.0255434 0.0319569 -0.0318808 -0.00885639 -0.00826602 0.0051913 -0.0118081 -0.023078 -0.0178629 0.0127895 0.00107456 0.0148068 -0.0185621 0.00533019 0.000935984 0.0148023 -0.00745262 -0.00541372 -0.015029 0.0235477 -0.0232388 -0.024157 -0.0207754 -0.0203339
418 -0.0183389 0.00992637 -0.0178634 -0.00464351 -0.00138222 -0.00115546 -0.0132733 -0.00298109 0.0228769 -0.0149394 -0.0315765 -0.0263678 -0.0107776 -0.0189852 0.0065116 0.0126628 -0.0209616 0.00414077 0.018299 0.02781 -0.00756491 -0.00854645 -0.0350067 0.00850892
468 -9.63866e-06 0.0231028 -0.0153126 -0.0097876 0.0135478 0.0162031 -0.0100932 -0.0121917 0.0190184 -0.0134766 -0.0353383 -0.014391 -0.0124756 -0.0193514 -0.00563535 0.0228342 -0.0149446 -0.0284439 -0.0184924 0.0129996 -0.00818377 -0.028094 -0.0373626 -0.0163673
250 0.00955669 0.00132593 -0.0286424 0.00956813 0.00273986 0.0127909 -0.0300346 -0.0355465 -0.0182381 -0.0142765 -0.0326198 0.0129444 -0.0189494 -0.0240741 -0.0167872 0.00934638 -0.0188656 -0.00965387 0.0182658 0.024839 -0.0105458 -0.0120372 -0.0287259 -0.00993614
527 -0.00626499 0.0141456 -0.0253278 -0.011013 -0.000486889 0.0133918 -0.0216691 -0.025346 -0.00652665 0.00289112 -0.0149619 -0.00286992 -0.0120131 -0.0238378 -0.00524101 0.0191471 0.0138202 -0.0155358 0.0138333 0.0226944 -0.0275471 -0.0060519 -0.0309214 0.0192235
156 -0.0150139 0.0148478 0.0083768 0.00810296 -0.0188829 0.0232891 -0.00475064 -0.0171848 0.00708372 -0.0186176 -0.0202949 -0.0170119 0.0108454 -0.00046144 -0.0186816 0.00366092 -0.0189732 0.00520132 -0.0193636 0.009382 -0.0275695 -0.0089155 -0.00301916 -0.0217652
32 -0.0158436 0.0298957 -0.0114626 0.0126545 -0.00654733 0.0110106 -0.0356736 -0.0338878 -0.00358085 -0.0104518 -0.0283403 -0.0126805 0.0152181 -0.0234475 -0.00754438 0.0441032 0.00573246 -0.0222235 0.0183761 0.0371478 -0.00825034 -0.0327919 -0.0373539 -0.00943738
510 -0.00320217 0.0260448 -0.00830362 -0.0153538 0.0125815 0.0125558 -0.0322264 -0.0135584 -0.00345753 -0.0203127 -0.0325777 0.00131155 0.0204536 0.00644128 -0.0146657 0.0405 -0.00875624 0.00659054 0.00974355 0.0276277 -0.017088 -0.0202513 -0.0357384 -0.0161703
74 -0.0264759 0.0233243 -0.0346816 -0.0138758 -0.00659923 0.0177579 -0.0147689 -0.0349242 0.0145883 -0.00124007 -0.00170249 -0.0108274 0.0224332 -0.00973917 0.00678362 0.0216957 -0.0188796 -0.0322105 -0.00990195 0.0340281 0.000475129 0.00245808 -0.0244895 -0.00874784
266 0.00486497 0.0083336 -0.00252978 -0.0169602 -0.00651385 0.0252396 -0.0177032 -0.0144794 0.0125293 -0.0206585 0.00548715 -0.0215255 0.0155777 -0.000608487 -0.0192098 0.00568899 0.00202499 -0.0129601 0.00847085 0.00216806 -0.00145807 -0.00225016 -0.00491231 -0.0146195
104 -0.0176664 0.0274156 -0.0202004 0.00794994 -0.00528885 0.00070485 -0.0276532 -0.0065444 0.0172563 -0.0145887 -0.0207634 -0.0142941 0.0108578 -0.0219924 -0.0163682 0.0357563 -0.00261601 -0.0174663 0.00873421 0.00978691 -0.0166549 0.00320238 -0.0382637 0.0128653
435 -0.0218284 0.0186997 -0.0299051 0.0135218 -0.00115092 0.033333 -0.0412561 -0.0348172 0.000934314 -0.012357 -0.0395058 -0.0170337 -0.00859125 -0.0178471 -0.00854022 0.0433153 -0.00563673 -0.0171652 0.0148726 0.0219782 -0.0245989 -0.0266992 -0.018315 -0.00576328
287 -0.0133161 0.00279063 -0.0409502 -0.0102118 0.0104186 0.0176913 -0.01324 -0.0404118 0.00750823 -0.0119811 -0.0416645 -0.0124187 0.0159001 0.000436093 -0.0225232 0.0521046 0.0103632 -0.0118412 0.0103077 0.0339368 -0.00768438 -0.0286732 -0.0101992 -0.000613744
60 -0.00541052 0.0185077 0.00131579 -0.00149175 0.0113713 0.023735 0.000157699 -0.0382555 0.00411924 0.00894449 -0.0181707 -0.00219316 0.0143082 0.0128905 -0.0207664 0.0205335 -0.0120605 -0.00945681 -0.00870021 0.0205541 -0.00668851 0.00166911 -0.0196815 0.00898345
262 -0.0270271 0.0202813 -0.0132016 0.0164618 0.0207658 0.00799461 -0.0255501 -0.0305191 0.00738877 0.000479175 -0.0133586 0.000384853 0.00879238 0.00605507 0.0134903 0.0137605 0.00737342 -0.0134984 0.00516338 0.00860043 -0.0030752 -0.0313909 -0.0278992 -0.0213418
355 -0.012309 0.0314976 -0.00370335 -0.00935854 0.0210823 0.0281508 -0.0192208 -0.0199094 0.0199798 -0.00043244 -0.0340411 -0.00623922 0.00377763 -0.0265597 -0.0121649 -0.00216436 -0.0159189 -0.00414027 -0.0098397 0.0127804 0.00149 -0.0122986 -0.0359446 -0.0047054
442 -0.0150388 0.0362283 0.000161248 0.0204876 -0.0117923 0.0188683 -0.0205887 -0.00736865 -0.00428679 -0.0115928 -0.0103944 -0.0214107 0.0131208 -0.0178186 0.0128948 0.0283989 -0.0140588 -0.0223913 0.0119717 0.0228537 -0.0329338 -0.0179336 -0.0163385 -0.00725024
23 -0.0238787 0.0192735 -0.0392828 0.0224719 -0.00175672 0.0118516 -0.0235127 -0.0383503 0.0127383 -0.0182186 -0.0194169 -0.0270389 -0.00453199 -0.0118111 -0.00285678 0.0475341 -0.0258073 -0.0166905 -0.0127753 0.0287099 -0.0178521 -0.00527016 -0.0270687 0.00998349
270 -0.0290516 0.0300285 -0.00690361 -0.00569673 0.0148353 0.00734253 -0.0109483 -0.0319031 0.0127453 -0.0207487 -0.0130499 0.0126741 -0.0144428 -0.0124348 0.0136269 -5.7258e-05 0.00399269 -0.028613 0.00298674 0.030591 0.00350077 0.00250662 -0.0154296 0.014829
369 -0.0252958 0.00335925 -0.027859 -0.00962221 -0.0125647 0.00899756 -0.0301896 -0.00124732 -0.0178194 -0.0191719 -0.0044955 -0.0169557 -0.00669046 0.00410908 0.00227308 -0.00100348 -0.012292 -0.0218679 -0.0156411 0.0276912 0.00884657 -0.0186526 0.00236838 0.00496719
537 -0.01548 0.0357362 -0.0215657 -0.0151697 0.0204394 0.00990138 -0.0236503 -0.00638579 0.00416463 0.0022092 -0.0369323 -0.0150807 0.000690289 -0.0256274 -0.0183653 0.010275 0.00640994 -0.0213065 -0.0194225 0.0342805 0.00652758 -0.00532694 0.000395391 8.19681e-05
25 -0.000884625 -0.00605247 0.00590114 -0.00886239 0.0197327 0.00480974 -0.0293611 -0.00828058 -0.0145991 -0.0143877 -0.0210352 0.0146587 0.0054615 0.00492884 0.0133047 0.00051404 -0.0047684 -0.00839411 0.0115072 0.00737943 -0.015905 -0.0206987 -0.0178404 -0.00796208
268 -0.00682145 0.0242381 -0.00831645 0.00157237 0.0112284 -0.00942631 0.00492677 -0.027439 -0.0153285 0.0104487 0.0034722 -0.00682207 0.0107575 0.00996744 0.00795401 0.000487114 0.0144982 -0.0149549 -0.015404 0.0269722 -8.10005e-05 0.00704403 0.00377251 -0.0195249
66 -0.0290069 -0.00334424 -0.00489881 0.0132735 -0.00893682 0.018904 -0.0275671 -0.00216404 0.00489052 0.00287395 -0.0260925 0.00839068 -0.0140981 -0.0164166 -0.0100608 0.037357 -0.0234364 0.000247813 -3.16221e-05 0.0282691 0.00384105 0.00791558 -0.0167073 -0.0165318
511 -0.0218722 0.0115381 0.00152754 -0.00523203 -0.0187664 0.00373393 -0.0289813 -0.0273391 -0.00267682 -0.0141245 -0.0364613 -0.0156765 0.00698592 -0.0199453 0.00160366 0.0353914 -0.00475379 -0.00410029 -0.00509933 -0.00465811 -0.00205408 -0.0173385 -0.0164799 -0.00570619
185 0.0113058 0.0243343 -0.0128481 0.00148599 -0.00180112 4.64899e-05 0.00146664 0.00338338 -0.0161078 -0.0267453 -0.0343423 -0.0216511 -0.00393839 -0.00456617 -0.00440694 0.00537491 -0.00232633 -0.0155876 -0.0125221 0.013422 -0.00992043 -0.00204784 -0.0174378 -0.0110943
147 -0.0228844 0.0266219 -0.00569679 -0.0185753 -0.00650387 0.00716095 -0.0254277 -0.0052372 0.0219042 0.00450153 0.00749194 -0.0258061 0.0182219 0.00489871 0.016905 0.00226126 0.00881846 0.000430701 0.0136942 0.0051178 -0.0288329 -0.0187143 0.00237863 0.0073962
2 -0.00987756 0.00846501 -0.00968191 0.0133702 0.0182945 0.0101302 -0.00980699 -0.0132523 0.00741266 0.00140683 0.000757949 -0.001733 0.0201338 -0.00554296 -0.0164794 0.0235197 -0.00766672 -0.0250098 0.010486 0.0141736 -0.019583 -0.0272213 -0.0179738 0.0167929
491 -0.0176087 0.00402982 -0.0320428 -0.0113505 0.0184034 0.0247543 -0.0171013 -0.00892033 0.0169068 -0.0179615 -0.0303702 -0.0152058 0.0228967 -0.00115719 0.0125007 0.0219651 -0.0137073 0.00246913 -0.00109526 0.00423423 -0.0285914 -0.0106825 -0.0268686 0.0158728
401 0.0122614 0.0147595 0.000667078 -0.00145584 0.012028 0.017518 -0.0072728 -0.00459283 0.0146335 0.00653419 0.00712907 -0.005622 -0.00265848 0.0155508 0.0156231 0.0121485 0.00144762 -0.00905951 -0.000323077 0.0178291 -0.0227561 -0.0236155 -0.004932 0.00542308
79 0.00457477 -0.000891698 -0.0131753 0.0125782 -0.0189588 0.0226336 -0.00798313 -0.0131994 0.0192798 -0.0225773 -0.0111101 -0.0268782 0.00795995 -0.0251644 -0.00262509 0.0354539 0.00876694 -0.0222831 0.0077465 -0.0034961 -0.0202272 -0.00575837 -0.0127325 0.0051173
102 -0.0143578 0.0240842 -0.00459079 0.00166333 -0.0190497 0.00837002 -0.02729 -0.0330789 0.00444608 -0.0100981 -0.00260647 -0.00449275 0.00595817 -0.0175639 -0.00512804 0.0290519 -0.0225265 -0.0308216 0.0162438 0.0241223 0.00715243 -0.0110525 -0.0207338 0.0102259
228 -0.0128902 0.0131109 0.00738752 -0.00969678 -0.00236581 0.012703 -0.0112704 -0.0101947 -0.00572662 0.00099312 -0.0274332 -0.00635167 0.0147311 -0.013609 -0.0197063 0.0180535 -0.0174716 0.000752384 -0.00660398 0.0101107 -0.0192432 0.00678963 -0.00910873 -0.0211553
498 -0.0206911 -0.00254595 -0.024693 0.00624022 0.00622614 0.00316259 0.00215339 -0.0288534 0.0197076 -0.00768362 -0.0316108 -0.0197327 0.0168526 -0.0131856 -0.00606425 0.0153705 -0.0116647 0.00424561 0.00698663 0.0144931 -0.0077232 0.00687751 0.0011992 0.00361773
197 -0.0283783 0.0146286 -0.0100378 -0.000452397 -0.00200767 0.0361108 -0.00905246 -0.00764788 0.000935075 -0.0318539 -0.0108037 0.00476976 0.00420307 -0.0192424 -0.0159718 0.0452962 0.00628658 -0.0241301 -0.0167869 0.00932167 -0.0171397 -0.0117134 -0.0275173 0.0135637
87 0.00857003 0.0254603 -0.0140235 0.0140019 0.0171242 0.00462014 -0.0214841 -0.0312739 -0.0160433 -0.00769491 0.0023558 -0.0115317 -0.015994 -0.0143234 0.0104172 0.018617 0.00319527 0.00902738 0.00544863 0.00357391 -0.0213057 -0.00182557 -0.0279647 -0.0137135
274 -0.0233815 0.0355621 -0.00264618 -0.0140777 0.00913555 0.0215261 -0.0333681 -0.0399576 0.018613 -0.0330305 -0.0284116 -0.0242051 0.0213593 0.00568487 0.00419018 0.0350263 -0.0204929 0.00776975 0.00302847 0.0118281 -0.0167189 -0.0271197 -0.0283691 0.00323397
462 -0.0238834 0.027634 0.00286158 -0.00718086 -0.0192592 -0.00934939 -0.0300821 -0.0235086 0.00566622 -0.0167871 -0.0135629 -0.0218619 0.0129986 -0.0152365 -0.00605935 0.0382348 -0.0086789 -0.00116095 -0.0169753 -0.00419879 -0.0180528 -0.00225234 -0.0314466 -0.0186411
449 -0.0042768 0.0127537 0.00142202 0.0200855 0.0101755 -0.00597097 -0.011801 -0.011658 0.0187563 -0.0243333 -0.0191574 -0.0106589 0.0104128 -0.000440446 0.0180234 0.0101853 -0.0244559 -0.0117736 0.00629249 0.00271482 0.00692463 -0.0253088 -0.0175085 -0.0179489
249 -0.0214734 0.0210568 -0.036928 -0.0174895 0.0056028 0.0140362 -0.0353138 -0.0254812 0.00424704 -0.0146627 -0.00478855 0.0083712 -0.0021828 -0.0249428 0.00282605 0.0208935 -0.013699 -0.0289617 0.0163487 0.0340462 -0.00986227 -0.0157566 -0.0232629 -0.00460573
422 -0.0106491 0.015654 -0.000571073 -0.0020369 0.000501034 0.0124192 -0.00963607 -0.0204259 0.0176473 0.0122367 -0.0240465 0.0107174 -0.00830213 -0.00987472 0.010368 0.00373262 -0.00543498 0.0132958 -0.0176204 -0.00154467 0.00580982 -0.0145288 -0.0296668 0.0119132
494 0.00606594 0.0355917 0.00179072 0.018719 0.00950109 0.0166187 -0.0181235 -0.0449558 0.0173637 -0.0138956 -0.0274679 0.00353825 0.0045473 0.00395613 -0.021537 0.0251948 -0.0233894 0.00226498 0.0170512 0.0346831 -0.0024155 -0.0121148 -0.0447555 0.0122009
69 -0.0190211 0.035699 -0.0308836 0.0151974 0.000327907 0.0221711 -0.0347223 -0.00197808 0.0205901 -0.0209394 -0.031011 -0.00819838 0.00224638 0.0123939 -0.0132638 0.0123871 -0.00140522 -0.0181634 -0.0135407 0.0161318 -0.00599416 -0.0174871 -0.0246553 0.00414455
34 -0.0221152 0.00886549 -0.0309427 0.00907989 0.0208545 -0.00817984 0.00330521 -0.0274962 -0.000576291 -0.0154352 -0.00653926 0.00962031 0.0187898 -0.0245785 0.00678327 -0.00354775 -0.0256736 0.00703427 0.0173921 -0.00181336 -0.00441166 -0.00511733 -0.0319477 -0.0182319
84 -0.0162907 0.0225359 0.00770952 0.0187898 0.00628285 0.00128286 0.00408971 0.0101202 -0.0105938 0.00393597 -0.00486792 0.00428141 0.0204264 0.0084924 0.0174112 0.00773396 0.00661142 0.00920011 0.0193039 0.0118014 -0.018747 -0.00844617 -0.0170979 -0.0190951
132 -0.0123041 0.0271508 -0.035396 -0.0162185 0.00465471 0.0222726 -0.0173877 -0.0106179 -0.00569239 -0.00346049 -0.0155286 -0.0180886 -0.017289 -0.00744049 0.0164056 0.0285751 -0.00286212 0.00697468 0.0205913 0.00624433 -0.00754697 -0.00240058 -0.017797 -0.0128591
14 0.00914719 0.0215025 -0.0316591 -0.000947763 0.0198789 0.0322425 -0.00462419 -0.0107598 0.0189491 -0.00161768 -0.0301422 0.0100851 -0.0026347 -0.0174542 0.0152999 0.0243863 -0.00107183 -0.0294829 -0.00669839 0.0155502 -0.00687372 -0.0321569 -0.0363173 -0.0082257
124 -0.0296552 0.00400853 -0.0182748 0.0111121 -0.00740482 -0.00188479 -0.00839587 -0.029947 0.0054858 -0.00447133 -0.0237977 0.00103127 -0.00519824 -0.0074659 -0.0111985 0.0119598 -0.0203269 -0.0239451 0.00412176 0.0215198 0.00748812 -0.0258856 -0.0208015 -0.0032958
225 -0.0074617 0.0279277 -0.00149081 0.000112384 0.00821602 -0.00700131 -0.004096 -0.00294232 -0.0114554 0.0108909 -0.0101326 -0.0127493 -0.00449227 -0.00451359 6.63142e-05 0.012292 -0.00863038 -0.0227137 0.0167031 0.0295257 -0.026337 -0.0228143 -0.0165473 0.00439887
515 0.00909097 0.0280931 -0.0283197 -0.00116004 0.019035 0.0181925 -0.0176091 -0.00257609 0.00900853 -0.0290165 -0.0336857 0.0097512 -0.0157216 -0.020732 -0.000942792 0.0173221 -0.0121506 -0.00918125 0.00289235 0.0161726 -0.0343245 -0.00811508 -0.0258301 -0.0139415
67 -0.00478207 0.014029 -0.0281267 0.00990357 0.00795983 0.0214817 -0.0312304 -0.0207638 0.00108337 -0.0110503 -0.0281243 -0.0179689 0.0170646 -0.0174052 -0.02072 0.0328277 -0.00305699 -0.0277885 -0.0106242 0.00247491 0.000596316 -0.0035401 -0.0216278 -0.0170971
1 -0.0156826 0.0151188 -0.0219704 0.0011344 -0.012875 0.013155 -0.015437 -0.0268111 0.00214484 -0.0127718 0.000886837 -0.00292831 0.0179409 -0.00982284 0.0118551 0.0234911 -0.00655886 0.00175729 -0.00126066 0.0279611 -0.0289665 -0.0123568 -0.00391023 -0.00336859
56 -0.0273429 0.0101285 -0.0305062 -0.00168377 0.010101 0.0227978 -0.0179609 -0.0020018 0.00874754 -0.0218884 -0.00588765 0.000646456 -0.0173118 -0.009126 -0.00101259 0.00568685 -0.0186597 0.00211208 1.97057e-06 0.0291029 -0.00973887 0.00443048 -0.0235823 -0.00456728
295 -0.0171822 0.0188314 -0.0283108 0.00109633 0.0220478 -0.00978303 -0.0200407 -0.0066223 -0.00902168 -0.0256835 -0.0323666 -0.00707452 -0.0113769 -0.0137615 -0.0141928 0.0202493 -0.0157784 -0.0167933 0.0215178 0.0192603 0.0042873 -0.0247716 -0.0011841 -0.00955213
65 0.00456296 0.0318191 -0.00192439 -0.0181665 0.000190945 0.0137665 -0.0205961 -0.0383637 0.00440843 0.000341129 -0.00312184 0.00806169 -0.0130919 -0.019441 -0.0238936 0.0293684 7.80653e-05 0.0037368 0.005999 0.0331405 -0.0152754 0.00388092 -0.0255113 0.00782447
457 -0.0239107 -0.00758435 -0.0293821 0.0204157 0.0134438 0.00686727 -0.00562394 -0.0245205 0.00197961 -0.000642705 0.000539155 -0.0235907 0.0190194 0.00762941 -0.0028146 0.00149665 0.0150081 -0.0225797 0.0199767 0.00131252 -0.00281211 -0.00360762 -0.00885655 -0.017882
534 -0.00586278 0.0358814 -0.0363632 0.015768 -0.0138313 0.0339367 -0.0270744 -0.0213413 -0.0116364 -0.0226327 -0.0331156 0.00258122 -0.00607457 -0.0243539 -0.0151996 0.0474652 0.00743754 -0.00560262 0.0187124 0.019001 -0.0372455 -0.0339631 -0.0403261 0.0124342
258 -0.026359 0.0343145 -0.0209337 0.0202862 0.0132681 -0.00535941 -0.0310067 -0.036243 0.0153446 -0.0210696 -0.0231277 -0.0273269 0.0113685 -0.013788 0.0161258 0.00585213 0.00155297 0.00594039 0.00829982 -0.000153465 -0.00108076 -0.0281112 -0.00204131 0.0105704
108 0.00972967 0.0208733 -0.031157 0.000453884 0.0214863 0.00647936 -0.0196818 -0.0301871 -0.0125148 -0.00969745 -0.0195046 -0.0159193 0.0171973 -0.007399 0.0151007 0.00352491 -0.0180933 0.00545684 0.0108869 0.0262105 -0.0208064 -0.0204048 -0.0172947 -0.0175214
382 -0.0206066 0.000122264 -0.0141881 -0.0195863 0.00154002 -0.00213354 -0.00870612 -0.0276948 -0.015958 0.010447 -0.0134568 0.0061064 0.00135332 -0.0248167 0.00599056 0.0238982 -0.0208062 -0.0273763 -0.00417421 0.00701317 0.00630564 -0.0280615 -0.020759 -0.0209551
48 0.00771382 0.0114435 -0.00696492 0.000765923 0.0177755 0.0251324 -0.00589525 -0.0206267 0.000368224 -0.0250334 -0.0253779 -0.011918 -0.0177902 0.00893534 0.00175594 0.0311123 0.0118453 0.00152535 -0.0118469 0.0217081 -0.0140423 -0.000370349 -0.0142089 -0.0124667
20 -0.0050305 0.0373485 0.000193122 0.00323258 -0.0147931 0.00511338 -0.0384396 -0.002374 -0.00485366 -0.0148351 -0.0311053 -0.0214935 -0.010189 -0.0218673 -0.024265 0.0153321 -0.0019389 -0.00435277 -0.00652268 0.0332262 -0.0267112 -0.000431531 -0.0202119 0.00866193
146 -0.00941712 0.00161729 -0.00938436 0.0211962 -0.0173732 0.0256378 -0.0365204 -0.0114205 -0.00736471 -0.0267163 -0.00473444 -0.027687 -0.00252603 -0.0102272 -0.0221876 0.0473947 -0.00817077 -0.0168121 0.00347927 0.00308565 -0.0180867 0.00142583 -0.0288728 -0.0146843
354 -0.0261712 0.00496044 -0.0231234 -0.0157974 -0.0153384 0.0167844 -0.00473072 -0.00682724 0.0162219 0.000644398 -0.00803632 -0.00914998 0.0120325 -0.00288824 -0.00701686 0.0272159 0.00765933 0.00715975 0.0112778 0.000168722 -0.0136016 0.00343704 -0.00350626 0.000641473
481 -0.0121629 0.0146191 -0.032579 0.017516 -0.0180303 0.0156536 -0.0411275 -0.0391021 0.0139935 -0.0225509 -0.0382484 -0.00918021 -0.0189275 0.000469578 0.0127608 0.0270897 -0.0126258 -0.000505217 -0.0176546 0.0158514 0.00550916 -0.0218152 -0.0346942 0.017797
371 -0.00793804 0.00783829 -0.00929937 -0.00750389 0.00222203 0.0259625 -0.0330957 -0.00642174 0.0115244 -0.0240773 -0.0217466 -0.0268234 0.00127027 -0.024371 0.00988479 0.0409005 -0.00227377 0.00161751 0.021252 0.00270603 -0.00128947 -0.0184295 -0.00732569 -0.011681
88 0.0150148 0.0247269 0.00619392 -0.0143676 0.0127839 0.0134883 -0.00286747 -0.0081772 -0.00606257 0.00580045 0.00979554 0.00384849 -0.000983337 -0.00416815 0.00517398 0.0136723 0.0140991 -0.00442267 -0.0148573 0.0019985 -0.0162231 -0.0149744 -0.0158098 -0.00833451
353 -0.0105814 0.00690798 -0.0257888 0.00492038 0.0221719 0.00931333 -0.0261917 -0.0222393 -0.00342227 -0.0217178 -0.00427036 0.00392055 0.0166108 -0.0205211 0.00723565 0.0275776 0.000414126 0.00357571 0.0155568 -0.000162764 -0.0150507 -0.000179781 -0.0319368 -0.010071
492 -0.0220356 0.000765814 0.000992641 0.0130812 -0.0188625 0.0211218 0.00130825 -0.0113565 0.0167468 0.00298895 -0.0227374 -0.00601264 0.010927 -0.0209525 0.00639589 0.0229731 0.00149559 -0.00267301 0.0198747 0.00138177 -0.0173788 0.00736381 -0.0348589 0.00842144
333 -0.0153131 0.0328683 0.000971685 -0.0138292 -0.00869434 0.00995802 -0.0240367 -0.00313846 -0.0100339 -0.0299185 -0.00865031 -0.00129921 -0.00808745 0.000184293 -0.0218904 0.0076618 -0.0163785 -0.0195131 0.00674902 0.00962306 -0.0245857 -0.018115 -0.00586746 0.00824358
395 -0.0201532 0.000325027 0.014143 0.000824324 0.0117368 0.0167703 -0.017561 0.00836095 0.0118577 -0.0224723 -0.0210453 0.0116458 0.0121616 -0.0103663 -0.0168059 0.0209549 -0.0177696 0.0040574 0.00665257 0.00134948 0.011306 0.00109694 -0.00561676 0.0145834
289 -0.00771309 0.039361 -0.00405527 0.00329367 -0.0102245 0.00594109 -0.0149553 -0.0282189 0.00150778 -0.0341065 -0.0203562 -0.0228076 -0.00755444 0.00610041 0.0108278 0.0354635 -0.0256859 -0.0184005 -0.010524 0.0324967 -0.00653592 -0.0276746 -0.0114267 -0.00133823
473 -0.0271909 0.0214255 0.00203226 0.0151891 -0.00160455 0.0284753 -0.0260878 -0.0354731 0.00614445 0.00748207 -0.0327749 -0.0271061 0.00700465 -0.00875946 0.00915078 0.0354609 -0.00269103 0.00382865 -0.0091766 0.00966485 0.00545787 -0.0259912 -0.0125138 -0.0156004
285 -0.0223979 0.0117322 0.00142162 0.0147361 0.0195054 -0.00527102 0.00114944 -0.0166743 -0.014634 -0.0149162 -0.027715 -0.0162251 -0.00403308 0.00911923 0.018855 -0.00107625 -0.018257 0.0131327 -0.00012703 0.0128186 -0.027622 -0.0262807 -0.0195856 0.00576646
235 0.00324524 0.0337485 -0.0211049 0.0120925 -0.00380144 0.0178576 -0.0293975 -0.0175054 0.00757846 -0.0225888 -0.0315534 0.00906628 0.0216878 -0.025667 0.0127914 0.00378971 0.00519956 -0.00120961 0.00135855 0.0318908 -0.0283348 0.00275931 -0.0222435 -0.00761281
288 -0.016116 0.0267378 -0.0252545 0.00736332 -0.00124064 0.00753534 0.0105352 0.00332447 0.00454583 -0.00304287 -0.0219337 0.0112074 0.00864378 -0.0217833 -0.00946583 0.0284603 -0.0164336 0.0046334 -0.0131525 -0.0116786 -0.0222794 -0.00789086 -0.00896683 0.0144391
414 -0.0266612 0.0252047 -0.0217593 -0.0176006 0.00105681 -0.00172754 -0.0129614 -0.0135083 0.00600509 -0.000701394 0.00664517 0.00324512 -0.0169712 -0.0241802 0.00478966 0.00590006 0.0116443 -0.0114511 -0.00313745 0.0111356 -0.0134184 -0.0157644 -0.0347686 0.0159441
176 0.00332505 -0.00492849 -0.0128619 0.0210911 0.00610486 -0.00328152 -0.00310475 0.000470518 0.0198245 -0.00105204 -0.0297071 0.00186936 -0.0139012 -0.00966636 -0.0115764 0.0230568 0.00837121 -0.0181856 -0.0179799 0.015122 -0.0240423 0.00948839 -0.00681206 -0.0054968
220 -0.0093594 0.0304349 -0.0228854 0.0198923 -0.00684098 0.00560252 -0.0370929 -0.0398064 0.0122272 -0.0230115 -0.0193689 -0.00708525 -0.0165349 0.00110234 0.0155109 0.0379231 0.00265631 -0.023659 -0.00607496 0.0316633 -0.00818525 -0.0131646 -0.0358906 0.00678633
204 0.013132 0.0265822 -0.0209649 -0.0037091 -0.00507266 -0.000687924 0.00797312 -0.00944057 0.0131583 -0.00505555 -0.0304436 -0.0190745 0.0125617 -0.0147921 -0.00721462 0.0184832 -0.00446872 -0.00170603 -0.00522119 0.0109942 -0.0178478 0.00865606 -0.0182204 0.0133756
535 -0.00387001 0.0212113 -0.0167074 -0.0024003 0.00234522 -0.0109756 -0.0187635 -0.0182543 0.00417688 -0.0040232 -0.00428622 -0.0190786 -0.0147161 -0.0182818 0.0100643 0.0271735 -0.00767961 0.00857796 -0.0183454 0.0107281 -0.0177058 -0.00337658 -0.018618 0.0176883
99 -0.00785893 0.000396586 -0.0175269 0.0191554 0.0187915 -0.0017983 -0.0356538 -0.00585083 -0.0137836 -0.022529 -0.0345124 0.0108178 -0.00545246 0.0131737 -0.0149113 0.0365397 0.00283685 -0.00148336 -0.00913 0.00467785 -0.0208311 0.000603778 -0.0163326 -0.0220658
330 -0.00388904 0.00086236 -0.032388 0.0223167 -0.0151947 -0.00371957 -0.0046477 -0.00377631 0.000557685 -0.0238839 -0.0157673 -0.0173013 0.0029727 0.011173 0.0122556 0.0342292 -0.00821936 -0.00392085 -0.0151222 0.0269975 0.00541214 0.00116482 -0.0176521 0.0179751
195 -0.00669633 0.0119233 -0.00803659 -0.00203246 -0.00464133 -0.00248034 -0.00977271 -0.00983806 0.019275 -0.00498762 -0.0222803 -0.0159249 -0.00906324 0.00713322 0.0120802 0.026443 -0.00663712 -0.0258651 0.0161917 0.0206671 0.00920865 -0.00503685 -0.0124013 0.0179278
506 -0.0110902 0.022717 -0.0310956 0.00944933 0.0176557 0.0100476 -0.0287725 -0.0163516 0.0170021 -0.0294821 -0.009498 0.00735182 0.00636581 -0.0146059 0.0117127 0.0322641 -0.0220554 -0.00347032 -0.0148054 0.0177845 -0.0153499 -0.0229862 -0.0335157 0.0160589
459 0.00594463 0.0118195 -0.0175194 -0.00296199 -0.0011856 0.014784 -0.0237974 -0.0193105 0.00698737 -0.00550822 -0.0300115 0.00268671 -0.013315 -0.0136116 0.00502682 0.0230792 0.0040718 -0.0136819 -0.0161022 0.00595271 -0.00588038 0.00906519 -0.0308748 -0.0202688
148 -0.0125974 0.0239234 -0.0141171 0.0100218 0.0166765 -0.00218826 -0.0159783 -0.0257435 -0.00379821 0.0103534 -0.00577253 0.0118929 -0.0097924 -0.0021883 0.00579583 0.00940837 0.0134135 -0.0294371 0.0189523 0.0311782 0.00642272 -0.0278826 -0.00196626 0.0052109
190 -0.0169558 0.0204712 -0.0110019 -0.0173306 -0.00642834 0.0190082 -0.0153068 -0.00679852 0.0114587 0.0018234 -0.0302466 0.00614831 -0.0130853 -0.00268158 0.00414264 0.0123526 0.0132455 0.00330473 -0.0185326 0.0158086 -0.0234585 -0.0270736 -0.00951937 0.0161922
536 0.00121888 0.00728883 -0.00298349 -0.00525205 -0.00803441 0.0248496 -0.000397844 -0.0240407 -0.00302444 -0.0206956 -0.0178881 -0.0231683 0.00983193 -0.00630076 0.000987003 0.00571159 -0.0127634 -0.0129636 -0.018018 0.00510424 -0.0168384 0.00323937 -0.0235107 0.0128033
501 0.00569386 -0.00124658 -0.0182209 -0.00496204 -0.0172609 0.0155861 -0.0288844 -0.0341138 0.000605168 -0.00426651 -0.0308808 -0.0242123 0.0115712 0.00898472 -0.0158049 0.0335558 0.00953232 -0.0106501 0.0164067 0.00210458 -0.031698 -0.00147674 -0.0359324 -0.00920428
267 0.00864667 0.00287782 -0.0192846 -0.00808082 0.00741074 0.0144284 -0.0205032 -0.0148086 -0.00754979 -0.0326476 -0.0250685 -0.0281138 0.00140432 -0.0204079 -0.014779 0.0403433 0.0139236 -0.0177453 -0.0143441 0.0351392 -0.00184199 -0.0212312 -0.016164 -0.0171567
265 -0.00320908 0.0144186 -0.00160794 0.00212275 0.0142313 0.0277199 -0.0428457 -0.0396296 0.00475083 -0.0279378 -0.00836892 -0.00465504 -0.00590523 -0.0105637 0.00633378 0.041929 -0.0153662 -0.00945893 -0.00795781 0.0272471 -0.0311615 -0.019151 -0.0460923 0.0124071
365 0.000588078 0.0230195 -0.0212733 0.0057645 -0.0197576 -0.00907798 -0.0320907 -0.0206868 -0.00796874 0.00811353 -0.00387334 0.0120154 -0.00603285 -0.0218302 0.00284777 0.0298338 -0.00200168 0.00987988 0.0120765 -0.00227021 0.0034336 -0.0208053 -0.0200878 -0.00533904
153 -0.0110476 0.0277891 -0.00141195 0.0196942 -0.0110206 -0.00576448 -0.0227502 -0.0295433 0.0195169 -0.011197 -0.0249016 -0.00514279 0.00247764 -0.0126566 -0.0169797 0.00909368 -0.0169635 -0.0136114 0.00982651 0.0219669 -0.0110895 -0.0156009 -0.011781 -0.00973804
379 0.00242197 0.0117362 -0.0313871 0.0171571 0.0185609 0.0169979 -0.0199338 -0.0432876 -0.00124801 -0.00160623 -0.0223524 0.00781383 -0.00222176 -0.0259896 -0.0043075 0.0200205 0.00737002 0.00345597 0.00256564 0.0102238 -0.0277141 -0.0217023 -0.0267775 -0.00551697
522 -0.0179475 0.0285657 -0.0197028 0.00893949 0.0137847 0.0143551 -0.0308644 -0.028563 0.0170214 -0.00245836 -0.0173169 0.000938973 -0.0101917 -0.0115262 -0.0235202 0.0239356 -0.0051846 -0.017388 0.000396975 0.00851019 -0.0321969 -0.0143586 -0.0182208 0.0143551
341 -0.0275094 0.024358 -0.00497903 0.00695095 0.00978693 0.0118252 -0.0165911 -0.00858844 0.0180869 -0.00170532 -0.024362 0.00725423 0.0106181 0.00960753 0.010742 0.0189012 -0.00449113 0.00760946 0.0132199 -0.000336444 -0.0208377 0.00320322 -0.00721946 -0.01553
499 -0.019228 0.0235094 -0.0267555 -0.0166221 0.0127068 0.0231961 -0.0183047 -0.0155433 0.0175763 -0.00714974 -0.0186007 -0.00780654 0.0038261 0.00420749 -0.00598416 0.00565817 -0.0080962 0.00568941 0.0193483 0.00246273 -0.000438833 -0.00785563 -0.0193764 -0.018141
403 -0.0272141 0.00989431 -0.029131 0.00304363 -0.00715138 -0.0041434 -0.0149135 -0.0319418 -0.00763053 -0.0127744 -0.0035887 -0.00417162 0.00994154 -0.00812591 -0.0168316 0.0121094 -0.0200286 -0.000384999 -0.00314544 0.0178554 -0.0294695 -0.00343417 -0.031309 -0.0206277
174 -0.00590107 -0.00814005 -0.0119226 0.00536695 -0.000967451 0.0144503 -0.00530895 -0.00524114 0.0110002 -0.0186704 -0.0139537 0.011985 -0.00502122 0.00356631 -0.0224031 0.0220679 0.0162163 -0.0101307 0.0212323 0.0184866 -0.0203344 -0.00589827 -0.0306653 -0.0186501
165 -0.00517185 -0.00479919 -0.00509237 -0.00368468 -0.0171519 0.0155062 -0.00257609 -0.00287123 -0.00113166 0.0115808 -0.0109759 -0.00204978 0.00248828 0.0107709 0.00240516 -0.00880153 -0.0193788 -0.00333732 0.0148936 0.0157645 0.0150075 -0.0202288 -0.0186674 -0.0162074
133 0.0026088 0.00223865 -0.00818855 -0.0135987 0.0217208 0.0207952 -0.00484257 -0.00149435 0.0029168 -0.0288848 -0.0214517 -0.0178017 0.0176344 -0.0257206 0.013462 0.0335525 -0.0150623 -0.00914268 -0.0143039 0.0194953 -0.0223881 0.00749939 -0.0186779 -0.021703
396 0.00995375 0.0237606 -0.0359032 0.0119661 0.0212409 0.00399487 -0.0166327 -0.0347222 -0.013922 -0.0294795 -0.0219813 -0.0122212 0.0114751 0.00626823 -0.0241714 0.0288897 0.0108394 -0.0117661 -0.0193297 0.0328665 -0.00946505 -0.0126454 -0.0283141 -0.0135305
307 0.014054 -0.00947542 -0.0153065 0.0186019 0.0217536 0.0122604 -0.0320611 -0.0226497 -0.0145317 -0.0195962 -0.0293101 -0.00163786 -0.0083259 -0.0201785 0.0123058 0.0236517 -0.00876468 -0.0153047 0.0201919 0.000281502 -0.00140027 -0.0278919 -0.00129274 0.018049
154 -0.0252367 -0.00146124 -0.00865623 0.0168462 -0.00482588 0.0245294 -0.00430297 -0.0195185 -0.00401527 -0.027679 -0.0324608 -0.000102627 -0.0189861 0.000579489 0.00886266 0.0202451 0.00427568 -0.00755063 -0.00197913 0.0017115 -0.00880569 0.00144602 -0.0322279 -0.0214239
303 -0.0224926 0.0233519 -0.00802598 0.0133817 0.010958 0.0253783 -0.0380811 -0.00901194 -0.012698 -0.0190103 -0.00600582 0.0060684 -0.00901054 0.00787698 -0.00932579 0.00851744 -0.0115363 -0.0208295 -0.00794701 0.0167585 -0.022374 -0.0102896 -0.0025317 -0.00146016
411 -0.0251246 0.0269437 -0.0241264 -0.010824 0.0160299 0.00523059 -0.0260837 -0.011395 0.0223659 0.00089147 -0.0210683 -0.0169135 0.0083883 0.00650258 0.0110487 0.0206172 0.0073755 -0.0164514 -0.0042946 0.0274201 -0.0201325 0.00514413 -0.0420739 -0.00427277
332 0.00975562 0.0185706 -0.0278363 -0.0159082 -0.0114951 0.0288819 -0.024578 -0.0219509 0.00291967 -0.0243466 -0.0400914 -0.0102953 0.021845 -0.0138258 -0.00413324 0.042063 -0.00288764 -0.0224688 -0.00822817 0.0367123 0.00730075 0.00195824 -0.00844205 0.0034101
137 -0.00530837 0.00960563 -0.0226942 0.00498128 -0.0164116 0.0279545 -0.0167183 -0.00726821 -0.000318038 -0.0156536 -0.0203983 -0.00469773 -0.00365744 0.00864378 -0.0141029 0.0106714 -0.00361086 -0.0199282 -0.00471592 -0.000383475 -0.0211135 0.00624297 -0.00377362 0.0132715
223 -0.0235031 0.0251746 -0.0258012 0.00555142 -0.0168788 0.0216235 -0.0146918 -0.00325949 0.00165358 0.00641505 -0.0203136 -0.0245098 -0.0132327 0.00372539 -0.0106338 0.031511 0.0028958 -0.0285214 -0.00390619 0.00560024 -0.0171542 -0.000881615 -0.017905 -0.00710929
320 -0.0214005 0.0133392 -0.0236327 0.00526616 0.00977126 0.00900484 -0.0348915 -0.029889 0.0141391 0.00272488 -0.0172316 -0.00863568 0.00662312 -0.0120954 -0.0119018 0.0315399 -0.0157495 -0.00620636 0.00292223 0.0247467 -0.00149585 -0.00324444 -0.0226614 -0.0130697
172 -0.0269186 0.0350725 0.000718747 0.00769918 -0.00514888 0.0346393 -0.01269 -0.0271738 -0.0156272 0.0028251 -0.0231841 -0.00640285 0.0126848 -0.00292653 0.0087595 0.0105483 0.00638335 -0.0100359 -0.00728215 0.0135061 -0.0140926 -0.0323296 -0.0280211 -0.00255213
292 0.00983138 -0.00978348 -0.00533676 0.000596557 0.00482269 0.0116769 -0.0323222 -0.0299382 0.014836 -0.00104568 -0.0138125 -0.0242867 0.0102714 -0.0174028 0.0114769 -0.00468633 -0.0223606 0.00697882 -0.0043337 -0.00557241 -0.0149694 0.0114014 -0.0152495 0.00155414
35 -0.0165662 0.022314 -0.00385066 -0.0134979 -0.000337497 0.0170451 -0.0197863 -0.0113899 0.003266 -0.00577274 0.00235196 0.0116654 -0.00557797 -0.00805943 -0.00612532 0.0339655 -0.0130737 -0.0250417 -0.00406829 0.00894117 0.00161273 0.012128 -0.0245344 -0.000501674
426 -0.0226444 0.0353978 -0.00318067 0.01326 0.0219782 0.00805641 -0.0120732 -0.00188611 -0.0055697 0.00171382 -0.0307499 -0.0132937 -0.0169086 0.00757976 0.00989643 0.0307965 0.00254466 -0.00390076 0.0205334 0.0355916 -0.015407 0.000757461 -0.0245882 -0.00737535
237 0.00415851 0.0227557 -0.0105902 -0.00787155 0.0162761 0.010676 -0.00750328 -0.0354396 0.00477306 -0.0084156 -0.0345712 -0.00730584 0.000497593 -0.0251234 -0.0175702 0.0311551 -0.00791763 -0.0211249 -0.019915 0.0285146 -0.0241501 -0.0282094 -0.0342249 -0.00158729
61 -0.00530428 0.0266532 -0.00262693 -0.00784446 -0.00584823 0.030708 -0.00578568 -0.0315687 -0.00711528 -0.0238868 -0.0304865 -0.0116844 0.00589156 -0.0016261 -0.0227354 0.00680373 -0.000756296 -0.022114 -0.0124894 0.00389984 -0.0310381 -0.016596 -0.0318379 0.0162167
33 -0.0272943 -0.00435717 -0.0201399 0.0108908 0.00164558 -0.00812282 -0.0156643 -0.0146457 0.0128798 -0.003006 -0.000980598 -0.0143806 -6.94843e-05 0.00357366 0.00357915 0.0158686 -0.0107682 0.00695719 0.021269 -0.00221399 0.000528412 -0.00797133 -0.0325455 -0.0159401
410 -0.0140772 -0.0007628 -0.014488 0.00788185 0.000834423 -0.0010677 -0.0234002 -0.0042582 -0.0132423 0.0022083 -0.0158092 -0.0235432 -0.00535783 -0.0188761 0.00875403 0.0312661 -0.0152778 -0.0232268 0.00913292 -0.000187586 -0.0170855 -0.0151826 -0.00209457 0.0167335
412 -0.0146386 0.00415597 -0.0174446 0.00227937 -0.0182294 0.00585714 -0.0126622 -0.0225591 -0.00549825 -0.0236815 -0.0390952 -0.02137 0.0103497 -0.0182958 -0.0172427 0.0442049 0.00107856 -0.00331021 -0.00864115 0.0145733 -0.0264623 -0.0262017 -0.0276355 -0.00351839
253 -0.01364 0.0133246 -0.0220407 0.000834882 0.0188616 0.0307914 -0.021174 -0.00935845 0.00153755 -0.000357046 -0.0114249 -0.00719256 -0.00270414 -0.0223683 -0.0126532 0.0278964 -0.0218775 -0.0197605 -0.0160115 0.0142819 0.00928653 -0.0272183 -0.0304958 -0.00521514
42 0.00556374 0.0380388 -0.0239826 -0.0154332 -0.0138452 0.0242146 -0.0156511 -0.0275491 0.0216174 -0.0171397 -0.0234177 -0.00393927 -0.00144212 -0.0302429 0.012881 0.0196586 -0.00623172 -0.0301124 -0.0142469 0.0252624 -0.0340919 -0.0249774 -0.00401538 -0.00226443
106 -0.0242827 0.0155258 -0.00701038 0.0056128 0.0204496 0.0265912 -0.0388593 -0.0375337 -0.0134115 -0.0154361 0.000590642 -0.0166516 0.0187337 0.00487301 0.00318219 0.0370221 -0.00634059 0.00272407 -0.0147615 0.00468821 -0.00331476 -0.0298338 -0.0418607 0.0114399
421 -0.0148725 -0.00651924 -0.0248205 0.0169244 -0.00644967 0.0161931 -0.0170202 -0.0249804 0.00987016 -0.0236847 -0.0265485 -0.0120352 0.0125616 0.00361696 -0.0185266 0.00728593 -0.00265647 0.00126629 -0.00222581 0.0173968 0.0113321 -0.00727892 -0.0100675 0.000614444
81 -0.0267135 0.0315311 -0.00595587 -0.00580514 0.0145651 0.034776 -0.0331415 -0.0117192 -0.00130934 -0.0278428 -0.0249815 -0.0100094 -0.0188753 0.0115046 -0.0133038 0.0222653 -0.0150729 -0.00305699 0.0095913 0.0272537 0.00184528 -0.0244643 -0.0455046 -0.0185868
493 -0.0244996 0.00375351 -0.0171508 -0.0103651 -0.00474456 0.0166499 -0.0136799 -0.0275583 -0.019631 -0.00665174 -0.0330711 -0.0197698 -0.00798505 -0.0130688 -0.0152681 -0.00305007 0.00849992 -0.0214076 0.0150007 0.00672127 -0.0231832 -0.0209732 -0.0338114 -0.00688373
467 -0.0263405 0.000404723 -0.0173339 -0.0183632 -0.0145609 0.000267117 -0.013033 -0.00899627 -0.00368727 -0.0271566 -0.031578 -0.0284239 0.0169491 0.00624264 0.00425081 0.0196379 0.00804207 0.0027964 -0.0162288 -0.00267371 -0.0151797 0.00500927 -0.0248132 -0.0230137
388 -0.0204063 0.0129001 -0.00447138 0.00385418 0.0156134 0.0188116 -0.0319052 0.00408826 -0.0188526 -0.000646697 -0.0144384 0.00672322 -0.00645694 -0.0167485 -0.0214541 0.00890804 -0.0176087 -0.00691351 -0.019116 0.0195989 -0.0157033 0.00350881 -0.032351 -0.00114631
41 0.00908291 0.0140021 -0.018198 0.0151325 0.0195817 0.0149589 -0.00948982 -0.00269353 -0.00813586 -0.0203128 0.000899876 0.0106674 -0.0137414 -0.0222493 -0.00616169 0.0456125 0.00939362 0.00620159 -0.0153573 0.021624 -0.011372 -0.0259833 -0.00829311 0.0182506
46 0.00672716 0.0206514 -0.0227935 0.000702641 0.010664 0.0273258 0.00351237 -0.0240918 -0.0103207 0.0118384 -0.0125661 -0.0203855 -0.0199871 0.00756059 -0.0164495 0.00229935 -0.0124478 -0.0286511 -0.00752438 -0.000635886 -0.0151227 -0.00936979 -0.0348442 -0.0156068
232 -0.00517652 0.00587229 -0.000811119 -0.0130015 0.0203966 0.0271931 -0.0139338 -0.0106382 0.0189822 -0.017711 0.00214644 0.00359743 0.0164266 -0.0181496 -0.0138903 0.0248254 0.0135831 -0.0222991 0.00747265 -0.00108095 -0.0247401 -0.0244194 -0.0370331 0.0189624
15 -0.0262318 0.0073984 -0.0100532 0.00578586 -0.0201519 -0.00471978 -0.023372 -0.027867 0.0196321 -0.00440149 -0.0113021 -0.013725 0.0172292 0.000684833 0.0150006 0.0334753 -0.0208978 -0.0277101 -0.0108956 0.0297394 -0.0178688 -0.0229094 -0.0379168 0.00340052
263 0.00516155 0.0186691 0.00484631 -0.00249509 -0.00761137 0.0262074 -0.0268103 -0.00894334 0.00422066 -0.00592699 0.00366375 0.00212732 0.00963621 -0.015592 0.00613552 0.01279 0.0114683 -0.00973248 0.0200969 0.0253295 -0.00836687 -0.0284526 -0.0315758 -0.000202848
487 0.00624397 -0.00137126 -0.012169 0.0124606 0.0154091 0.0135725 -0.0094852 -0.00892388 -0.0113964 -0.00247772 -0.00146311 0.0128472 0.0167377 -0.00319422 0.00106877 0.00484612 0.0137824 -0.00627982 0.0128891 0.0182129 -0.0137132 0.00402416 -0.0241281 -0.00513459
86 0.0120474 -0.00454696 -0.0259081 -0.0181347 0.0105828 0.0253539 0.00710158 -0.00431159 -0.019397 -0.0150396 -0.0056426 0.0102794 -0.0170779 -0.00822208 0.00353598 0.000884309 -0.0046292 -0.0120384 -0.00905601 -0.00476913 -0.00699227 -0.00684441 0.00560171 -0.00748068
519 -0.00288534 0.0164997 0.00860992 -0.00399947 -0.00479261 -0.00696507 -0.0229128 0.00436097 0.0134479 -0.00751778 -0.021982 0.0111658 -0.000887137 -0.0172868 0.0127654 0.0300907 -0.0009054 -0.00689907 0.0137785 0.0339416 -0.0193565 -0.0159771 -0.00032463 0.0151551
378 -0.0221616 0.0343167 -0.019295 0.0141501 -0.00347884 0.000389754 -0.00303745 -0.0384012 0.0230247 -0.00265982 -0.0135267 0.00182951 0.00531944 -0.00956958 -0.0176046 0.034957 -0.0134512 -0.00205363 -0.0119498 0.00987443 -0.00487358 -0.0275808 -0.0241926 -0.0143513
497 -0.0242881 0.0269135 -0.020465 -0.0142811 -0.0127191 0.0261981 -0.033616 -0.0280047 -0.00796054 0.00314351 -0.0129547 -0.0057367 0.0182071 -0.0170525 -0.0117012 0.031122 0.00912953 -0.0178516 0.00710993 -0.00331112 -0.00185175 -0.0302246 -0.0303004 -0.00744969
162 -0.00697414 0.00254248 -0.0308602 0.00591997 -0.000942242 0.0275997 -0.00496662 -0.00401605 0.00385662 0.0115842 -0.00694533 -0.0186522 0.0111847 0.00411852 -0.0189393 0.0193088 0.00227626 -0.0209631 0.0101396 0.0206829 -0.0308066 -0.0238028 -0.0170783 0.000170059
324 -0.0114818 0.0353921 -0.0017184 -0.0117268 -0.0045079 -0.00329128 -0.0092737 -0.00438702 -0.0111729 -0.00367627 -0.0354046 0.00123429 -0.00810417 0.0126237 -0.00398845 0.0421947 -0.025424 0.000901391 0.0163288 -0.000704808 1.40753e-05 0.00139332 -0.00955501 -0.0110353
28 -0.0065342 0.0338055 -3.87483e-05 0.00847859 -0.0103935 0.0123931 -0.0378668 -0.0312134 -0.0134154 0.00431815 -0.0212441 0.00850561 0.0199732 -0.0202783 -0.00560666 0.00741401 -0.0126939 -0.00635017 0.00639184 0.0255399 0.00475506 0.00663902 -0.0312223 -0.00258379
455 -0.00839967 0.0293854 -0.00377683 -0.00870592 0.00791627 -0.00331891 -0.0113662 -0.0145601 -0.00388715 -0.0079148 -0.00539645 0.00719053 0.0182691 -0.026016 -0.0244215 0.0232252 -0.0222815 -0.0122599 -0.0103998 0.0217469 -0.00926191 -0.0288831 -0.0275588 -0.00497988
433 -0.0269426 0.0121781 -0.00063336 -0.0128618 0.0128266 0.00711262 -0.019151 -0.020163 0.0111638 -0.0184734 -0.0313197 -0.0079047 -0.00697875 -0.000712429 -0.0163578 0.0255899 -0.0192334 -0.00884494 0.0101016 -0.0104267 -0.00933438 -0.00742436 -0.0294441 -0.00333662
43 0.00997139 0.00501786 -0.00511284 0.0139824 -0.00977779 0.00883565 -0.0143056 -0.00779782 -0.00493318 -0.0229392 -0.00988749 -0.0223617 -0.00693815 -0.0075141 0.0152099 0.0335215 -0.0242753 -0.011676 0.00129202 0.0307079 0.0115561 -0.012006 -0.00242929 -0.0101541
280 0.0105929 0.0163602 -0.0307518 -0.00291063 0.010577 0.0298855 -0.00528261 -0.00985996 0.00724455 -0.0246292 -0.0312046 0.00117744 -0.00285905 -0.0262928 -0.0223423 0.0359022 0.0134295 -0.0236587 0.0013826 0.00950039 -0.00403733 -0.00281747 -0.0289325 0.0112767
398 0.00924435 0.0329895 -0.0303645 -0.00908977 0.00762881 0.00113764 -0.0121643 -0.0415475 0.0132869 -0.0303072 -0.026207 -0.0270166 -0.00731933 0.00272332 0.0149419 0.0288831 -0.0281196 -0.0121072 0.00295082 0.0119403 -0.0186158 -0.014285 -0.0177618 -0.00158337
128 -0.00300664 0.0288141 -0.0379637 0.014328 0.000892426 0.0197527 -0.0282801 -0.0361478 0.0215655 0.000487868 -0.039504 -0.00358661 0.0114522 -0.0265951 0.00376878 0.0234337 -0.0280758 0.00282871 -0.0180181 0.0265992 -0.00845071 -0.00112272 -0.0287432 0.0166881
64 -0.0123275 0.0178584 -0.0247884 0.00849273 -0.0198863 0.0171681 -0.00856708 0.00692211 0.0154948 -0.00864669 0.00841349 -0.0166334 0.0114103 -0.0163424 0.0101693 0.0328081 -0.0160266 -0.0246426 -0.000723986 0.016257 -0.00819648 -0.0107627 -0.0324379 0.00140264
47 -0.0185923 0.0234681 -0.0265418 -0.0073176 0.00138558 0.00785746 -0.00729147 -0.0359892 0.0180001 0.00579087 -0.0326268 -0.0121006 0.0093771 -0.0157279 -0.0158068 0.046498 -0.00545237 -0.0354379 -0.0173393 0.022904 0.00271878 -0.00777229 -0.0380904 0.0112242
252 0.00593222 0.00302657 -0.0143899 -0.0167882 0.02007 -0.00691415 -0.00218827 -0.0278742 -0.0101104 0.00308141 -0.00219568 -0.000280227 -0.00563968 0.0120082 -0.0233443 0.0235626 -0.0237003 -0.0260189 0.00600069 0.0158349 -0.0133539 0.00234552 -0.00919135 0.0145479
182 0.0117916 0.00604459 -0.00803552 -0.00526967 0.00051021 0.0229464 -0.00850626 -0.00880884 -0.000289455 -0.0119451 -0.00447523 -0.0121606 -0.0133711 -0.0217084 0.0149355 0.0280032 -0.0201268 0.0017342 -0.0064423 0.00903698 0.00456197 -0.0175406 -0.0164304 0.00390555
297 -0.00547082 0.015315 -0.0307783 0.0129331 -0.0107316 0.0234012 -0.0255856 -0.0355884 -0.00394958 -0.0130925 0.00108227 -0.00370407 -0.0195822 0.00702033 -0.011525 0.0150009 0.0108514 -0.0134221 -0.00484729 0.0185921 0.00164275 -0.016436 -0.030866 0.0115815
200 0.00110156 0.0210554 -0.00443944 0.0116265 0.00502435 0.0176074 -0.0282003 -0.0315788 0.0158643 -0.00840243 0.00188047 -0.0186158 -0.0104412 0.00848573 0.006483 0.0367859 -0.0119832 -0.0241391 -0.00798808 0.0194624 -0.0319584 -0.0222605 -0.0176793 0.0174657
514 -0.00618115 0.0259786 0.00415538 -0.00520319 -0.00736376 0.00800943 -0.0178819 -0.0184802 -0.00517387 -0.0268652 -0.0197594 0.00378499 0.0201645 -0.0172099 -0.0061639 0.0112996 0.00347537 -0.0298356 0.018728 0.0230089 -0.0293389 -0.0277672 -0.0284332 -0.00798192
6 -0.0178137 -0.000421283 0.00230671 0.0146173 -0.015521 0.0172552 0.000170386 -0.0191928 -0.0121723 0.00950599 -0.0222974 -0.00753865 0.00312973 0.00705065 0.0171826 0.0171867 -0.0227606 -0.0132061 -0.00135118 0.0270675 -0.00605244 -0.0313737 -0.0147577 -0.0191139
70 -0.0191817 0.00199829 -0.00647459 0.0205183 -0.000767961 0.00897746 -0.00686713 -0.0245789 0.0169109 0.00936596 -0.00884461 -0.00999909 0.0199265 -0.017539 0.00467502 0.0393924 0.0143491 -0.0174439 -0.0154304 0.0289689 -0.00752601 0.00253216 0.00144162 0.000890881
528 0.00611457 0.024481 -0.0068626 -0.0160391 0.00557881 -0.00132745 -0.000761948 -0.00421506 -0.00220421 0.0093446 -0.00422327 -0.0107003 0.00566081 -0.0226603 0.00333629 0.0354175 -0.0151104 -0.020961 0.00119699 0.00573007 0.00974194 -0.0248015 -0.00737155 0.0150596
405 -0.00450752 0.031521 -0.00900975 -0.00198254 0.00855068 0.0170531 -0.00851062 -0.0184442 -0.0103023 -0.0295969 -0.0229658 -0.0132604 0.0142148 0.0017926 0.00816554 0.0137735 -0.0215228 0.00954751 0.012156 0.0251789 -0.0130085 -0.0317946 -0.00231844 -0.0194299
125 -0.0204268 0.000721856 -0.0113341 0.0212148 0.0108764 0.0246429 -0.0328995 -0.0331921 -0.0093697 -0.000193774 -0.0205543 -0.0224662 0.0214112 -0.00869962 -0.0244758 0.0203746 -0.0178882 -0.00724629 0.00035079 0.00629679 0.00453065 -0.033914 -0.0415911 -0.0224579
227 -0.023122 0.0317976 -0.00139478 -0.00270611 -0.00986853 0.00376021 -0.0341827 -0.007592 -0.0127182 0.00859439 -0.0156482 0.000710112 -0.0134656 0.00266294 0.00439785 0.033234 -0.000819952 -0.0104981 -0.00760719 0.0304966 0.00366673 -0.0013131 -0.00361954 -0.0210305
251 -0.0285026 0.00294785 -0.0285683 0.00336701 -0.000772046 0.019744 -0.0335705 -0.01995 -0.00327266 -0.00181448 -0.0269354 0.0111532 -0.0183759 -0.0215811 -0.0159235 0.0429227 0.00689552 0.00931846 -0.00149622 0.0359279 -7.09313e-05 -0.0125984 -0.0336923 0.0118116
357 -0.00244498 0.00455515 -0.017466 0.0210245 -0.00494451 0.0257587 -0.0106929 -0.0315247 0.0194966 -0.00405003 -0.0339169 -0.00750602 0.0201876 -0.0176862 -0.00277247 -0.0003913 0.00493098 0.00588135 0.0166319 0.0251783 0.000206319 -0.0244729 -0.0308805 -0.00834325
245 -0.00954129 0.0358123 -0.0113955 -0.00797251 -0.00253979 -0.00389556 -0.0273771 -0.00578483 0.0101182 -0.000857306 -0.0358983 -0.0127613 0.0185804 0.0116289 -0.0139029 0.0177582 -0.0259455 -0.0320261 -0.000797415 0.0302125 -0.0114005 -0.0131439 -0.031877 -0.0169717
480 -0.0268899 0.0200718 -0.00978699 0.0132298 9.67606e-05 0.0151042 -0.0273571 -0.0400227 0.0169116 0.00453336 -0.00685207 -0.0125071 0.00816159 -0.0141877 -0.00436967 0.0145576 0.00701157 0.00578562 -0.0046605 0.00196624 0.00172537 -0.0125079 -0.0256693 0.0132655
486 -0.0192512 0.0343423 -0.0345841 -0.0169193 -0.00372564 0.0326394 -0.0121638 -0.00570253 -0.0154127 -0.0141322 -0.00736443 -0.0244367 0.00543359 0.00280821 -0.00284687 0.0333236 -0.0242946 -0.0322428 -0.0193456 0.0182934 -0.0188941 0.000561947 -0.0132628 0.0151438
44 0.00265235 -0.0024615 -0.00358291 -0.0132354 -0.0143193 0.0156143 -0.0193319 -0.00551723 -0.00457635 -0.0254747 -0.0245219 0.00819116 0.000217593 -0.00637216 -0.00501856 0.0282589 0.00325919 -0.0114065 -0.00453161 0.00525187 -0.0236957 0.0089348 -0.0320036 0.00314655
186 -0.0223732 -0.00389767 -0.00550836 0.00493058 -0.0147389 0.0162363 -0.0280158 -0.014373 -0.016691 -0.0118827 -0.019567 -0.0220539 0.0208458 -0.015197 0.0156562 0.0193016 -0.0200721 -0.0291086 -0.00297367 -0.00139095 -0.00992742 -0.0125037 -0.0179163 0.0147451
380 -0.00439971 0.00177641 -0.0213078 -0.0178238 -0.00336218 0.0307985 -0.00178032 -0.0320838 0.0219397 -0.00633918 -0.0166282 -0.0192528 -0.00867033 0.000101917 -0.0097261 0.0118143 -0.00854963 -0.0167085 -0.0124665 0.0243599 -0.00663946 -0.0031244 -0.00109061 -0.000198757
94 -0.0213288 0.00932229 -0.0260959 -0.00911133 0.00679103 -0.00450988 -0.0142029 -0.031355 -0.00172537 0.00669477 -0.015345 0.00616187 0.0145689 -0.0184755 0.000657666 0.0223805 0.00123169 -0.0228241 0.00542849 0.0166075 -0.0132779 -0.0231229 -0.0361258 -0.0163173
82 -0.00892917 0.00395147 -0.0304151 -0.00408561 0.010919 0.0134142 -0.0333262 -0.00893689 0.0182372 -0.00298315 -0.0106889 -0.00191924 -0.0181197 -0.0229328 -0.0220862 0.0141906 -0.0234813 0.0078429 0.011221 0.00244838 -0.00716653 -0.0199293 -0.0292915 -0.00686365
207 -0.00303119 0.0379039 -0.023144 0.021235 -0.014297 -0.00292628 -0.0342849 -0.00942349 0.00287623 0.00434837 -0.00967989 -0.0190385 0.012785 -0.00981703 -0.00969048 0.0261104 -0.0233916 -0.0123863 -0.0152886 0.00957787 -0.0292846 -0.00116233 -0.0232531 -0.0104962
316 -0.0327938 0.0321713 -0.00779738 -0.00870325 -0.0131411 0.00769667 -0.0362939 -0.00359631 -0.0139076 -0.0268862 -0.0191199 0.00792945 -0.00233677 -0.0268002 -0.0239229 0.0409172 0.00753448 -0.000605995 0.00755852 0.0152074 -0.0356678 -0.0230821 -0.021872 -0.011225
203 -0.0239006 0.00902951 -0.0170731 -0.00193494 0.0102182 0.033383 -0.0171979 -0.0107323 0.0171938 -0.000177331 -0.0317287 -0.000452094 0.0180079 -0.00120711 -0.00841408 0.0288618 -0.0237064 -0.0318939 -0.00259151 0.0143091 0.00576596 0.00592991 -0.0150356 0.0151508
40 -0.0139561 0.0275527 -0.0256405 -0.000427714 -0.0154903 0.0220711 -0.0134706 -0.0201882 -0.00486703 -0.0223261 -0.0258503 -0.0178427 0.0146194 0.00631554 -0.0113514 0.0377969 0.0117821 -0.0247031 -0.00767969 0.00317636 -0.0231149 0.00554758 -0.000417539 -0.011041
110 -0.0193473 0.0290064 -0.0162822 -0.00865889 0.013473 0.0147398 -0.0180131 -0.0347292 0.00687134 -0.0122912 -0.00241098 -0.0208861 0.011341 -0.000400461 -0.0157496 0.0439268 -0.00616056 -0.0021351 0.0108884 0.0354429 0.00620442 -0.0223576 -0.00198143 0.00547314
299 -0.0170046 0.00701384 -0.0137759 -0.00698886 -0.00962184 0.0184992 -0.00387259 -0.0154131 0.0122798 -0.0292946 -0.0111034 -0.00405453 -0.000887199 0.0068681 0.00109768 0.0402327 -0.0106651 -0.0301317 -0.00549685 -0.00530267 -0.0308052 -0.000258695 -0.025483 -0.0023261
29 0.00979932 0.0180961 0.00357178 0.011733 0.0165544 0.031264 -0.00177105 -0.0178421 0.0149827 -0.0194021 -0.0279909 -0.0227287 -0.0182868 -0.0202051 -0.00190358 0.0367759 -0.0253677 0.00257269 -0.00827212 0.00979197 0.000625075 -0.0089237 -0.0122813 -0.0102619
464 -0.00725249 -0.00138288 0.00599277 -0.0164713 0.00891298 -0.00824932 -0.0194323 -0.0116054 0.0127036 0.00170798 -0.0319339 -0.0142724 0.0177997 -0.0041027 -0.0229503 0.0384926 -0.000771152 -0.0141807 0.0192479 0.0173202 -0.0243692 -0.0115177 -0.000221335 -0.0136477
532 -0.0213093 8.55634e-05 -0.00125323 -0.00406263 0.0200791 -0.00917224 -0.0298035 -0.000623484 0.00164401 -0.0227392 0.00512551 0.0118102 -0.0107542 -0.000537288 -0.0210092 0.0137336 -0.0202214 -0.00884126 0.0118127 -0.00834481 -0.0205473 -0.0176134 -0.0153835 -0.00415857
206 -0.0256837 0.0212094 -0.00715057 0.0210999 0.0101489 0.012266 -0.0351622 -0.0252597 0.00350883 -0.014921 0.00484945 0.0110151 0.0207494 -0.000936081 -0.000313581 -0.00176796 -0.0199071 -0.00636877 -0.0116603 0.0063946 0.00271953 0.000989306 -0.0113776 0.0187867
325 -0.00175527 0.00955647 -0.0337251 0.00923044 0.014979 0.0216428 -0.019463 0.00128893 0.00266801 -0.0122375 -0.0282576 -0.00649481 -0.000954552 -0.026992 -0.00453599 0.0196808 -0.0201256 -0.017433 -0.0108546 0.00373266 -0.0188591 -0.017661 -0.0291876 0.0060986
22 0.00152428 0.000380948 -0.0163007 -0.0047492 -0.0105862 0.0312168 0.00132439 -0.00138004 0.0188588 -0.00802293 -0.0346598 -0.0274569 -0.0190161 -0.00181395 0.0130183 0.0267474 -0.0274305 -0.00211917 0.0195198 -0.00465978 -0.0152543 -0.00504821 -0.038163 0.0101426
391 -0.00335086 -0.00240679 -0.0103814 0.00228382 0.0018128 0.00923963 -0.0210866 -0.00584912 0.0169304 -0.0154706 -0.00825955 0.00235769 -0.00876583 -0.0227378 -0.0168822 0.0357435 -0.0124786 -0.00617513 0.0136087 0.0310017 0.00357149 -0.0040187 -0.00441558 -0.0198463
471 -0.0024392 0.0160194 0.00341735 -0.00669893 0.00528704 -0.000876022 -0.0374992 -0.0295424 -0.0053368 -0.00947108 -0.0159073 -0.000166731 -0.0109003 0.0120557 0.0124159 0.00419677 -0.0194092 -0.01419 -0.0116699 0.0287846 -0.0109681 0.00467787 -0.0244875 -0.00872788
306 -0.0137232 -0.00100495 -0.0346264 -0.000276847 -0.0165761 0.0105868 -0.0295176 -0.0263316 -0.00474265 -0.00147428 -0.00800614 -0.0154664 0.00544368 0.00881543 0.0154204 0.0200436 -0.000717551 -0.0144165 -0.00246135 0.0325308 -0.00625482 -0.0332243 -0.0210421 -0.0114621
346 -0.0130743 -0.000802693 -0.0140338 0.0178278 -0.000208129 0.0181699 -0.0280779 -0.0374536 0.0101929 -0.0224983 -0.0175212 -0.00930291 -0.00435937 -0.0118562 0.00530727 0.027631 -0.0207109 -0.0241837 -0.00202887 0.0251907 -0.00409249 -0.0214717 -0.0209615 0.000101955
334 -0.0259049 0.0184842 -0.0068486 0.0160958 0.0150889 0.0204733 -0.00522593 -0.0385663 -0.00727156 -0.0124976 -0.0338887 -0.024365 0.0116902 -0.0227559 -0.000872154 0.0105037 0.00927338 -0.00614291 0.0123766 0.0393868 -0.0345278 -0.0108425 -0.00905198 0.00291318
448 -0.0183346 0.0298811 -0.03598 -0.00719285 0.00975028 0.0128632 -0.0185216 -0.0316366 0.00269178 -0.0238755 -0.0114021 -0.0223358 -0.0134961 0.000937433 -0.00357308 0.0328554 -0.028208 -0.00525103 -0.00314407 0.0372168 -0.0121662 -0.0129179 -0.0256143 -0.00764552
158 -0.0257994 -0.00215051 -0.0282381 0.0199134 -0.0183586 -0.00717842 -0.0214381 -0.00433578 0.0188874 -0.0312526 -0.0310448 -0.0174099 0.0015222 0.00323631 0.00983398 0.0374537 0.0139589 -0.00914579 0.0113585 0.00744007 -0.00510423 -0.0145148 -0.0166991 0.00435618
118 -0.026365 0.0206078 -0.0190723 0.00355124 -0.0157437 0.00337885 -0.038886 -0.0255373 0.00142721 -0.0138501 -0.0132605 -0.00250893 0.00633708 -0.0102068 0.0147879 0.026483 -0.00721165 -0.0349759 0.000346998 0.00479995 -0.00579084 -0.0256285 -0.0403056 0.00596809
151 -0.0271245 0.0341239 -0.0142608 0.00648074 -0.0114553 0.017789 -0.0197217 -0.0163624 -0.0105749 -0.0261449 -0.00482737 -0.00186569 -0.0178927 -0.0213107 -0.0163022 0.0433987 -0.0115666 -0.0334982 -0.00807643 0.0337693 -0.0242987 0.0041539 -0.00211466 0.0186744
16 -0.0266752 0.0108917 -0.00705776 0.0160136 0.00678279 0.0014985 -0.0137159 -0.0322721 -0.0116819 -0.0141904 -0.0283276 -0.0264723 -0.011808 -0.00415752 0.00410045 0.0389906 0.00512025 0.00200969 0.00129896 0.00984233 -0.0312562 0.00717877 -0.0296081 -0.00512984
279 0.00475383 0.0174662 -0.0111886 -0.00661285 -0.017481 -0.00471005 -0.0231705 -0.0155248 -0.00155722 0.00507594 -0.0246206 -0.0225645 0.0146822 -0.00270643 -0.00624192 0.00750648 -0.00671012 -0.0143493 -0.0109773 0.0165453 0.00884539 -0.0028528 -0.0257316 0.0104028
236 -0.00933325 0.00447752 -0.0133271 -0.0125543 0.00774444 0.00188187 -0.00835705 -0.0346342 -0.0054953 -0.0213035 -0.0187289 0.00796612 0.00951454 -0.0126222 -0.02077 0.0153602 0.00642642 -0.0252028 0.0185743 0.0170564 -0.0323262 -0.0178155 -0.0359846 -0.0151439
524 -0.023361 0.0149015 -0.0172002 0.0225769 0.0204647 0.00524583 -0.0254282 -0.0190725 0.0124928 -0.0205006 -0.0394709 0.00189411 0.0120212 -0.0266805 -0.0161156 0.00682207 0.00767884 -0.0074181 0.0200839 0.0219024 -0.0261524 0.00351857 -0.024874 -0.00510428
445 -0.00808654 0.00179539 -0.00577904 -0.0131678 -0.00135445 -0.00873619 -0.00876427 -0.00368023 -0.00246914 -0.0280003 -0.0201568 -0.0106282 0.0150814 -0.0211388 -0.00505198 0.0088628 -0.0176816 -0.0244394 -0.0169396 0.0365168 -0.00527034 -0.00867993 -0.0345512 -0.0232198
428 0.000738465 0.00731034 0.00985459 0.0149305 0.0217986 0.0289979 -0.0252272 -0.0227975 0.0173815 0.0024247 -0.0138555 -0.0135574 0.00575724 -0.0191524 -0.00106787 0.0145906 -0.0160355 -0.00100873 0.000791983 0.00575237 -0.0123989 -0.0168861 0.00360898 -0.000693257
191 -0.0287401 0.0274852 -0.00457379 0.00958615 0.0148766 -0.0063578 -0.0276184 -0.0328753 -0.00736104 0.00574261 -0.0144334 0.00804042 -0.00718045 -0.0225299 -0.0114948 0.0328017 -0.0191913 -0.0230268 -0.0017973 0.0351365 -0.0132482 0.00186064 -0.0102086 0.0134606
233 -0.00611866 0.0108403 -0.00197604 -0.016196 0.0181735 0.0226979 -0.00634175 -0.00831096 -0.00799216 0.00690145 -0.0208925 -0.013869 -0.00570068 -0.0126749 0.0170847 0.00591134 -0.0042271 -0.0161965 -0.0104295 0.0249477 -0.0142782 -0.00115364 -0.022238 0.0144075
434 -0.00825672 0.0318761 -0.0224355 0.018544 -0.0103239 0.024557 -0.0134737 -0.0321866 -0.0161563 0.00318929 -0.0364981 -0.0221065 0.000378583 -0.00421774 0.0087367 0.00866889 -0.00820708 -0.0308587 0.0202436 0.0196135 -0.0305885 0.00712747 -0.0240233 -0.0164945
286 -0.0216289 0.0371415 -0.00248419 0.0157553 -0.00409608 0.0225823 -0.0369234 -0.0298244 -0.0123815 -0.0078082 -0.0312385 -0.0030002 -0.0183996 -0.01998 0.00486012 0.0361982 -0.0142761 -0.0210068 -0.00916093 0.0197078 -0.0234001 -0.0124178 -0.0223588 0.00488517
509 -0.0206268 0.0319114 -0.011772 0.00890993 0.0182648 0.0267832 -0.00693195 -0.0236525 -0.000826179 -0.00544417 0.000638588 -0.0185094 0.0152655 -0.0147902 0.012424 0.0138777 -0.00992368 -0.0160407 -0.00857461 0.0153857 0.000220525 0.0130105 -0.00665071 -0.0152903
281 -0.0129408 -0.00793855 -0.0282295 -0.015799 0.0177417 0.0134636 -0.0261366 0.00640971 -0.0126685 0.00387299 -0.00881773 -0.0132828 0.0148174 0.00234728 -0.00920706 -0.00132201 -0.00450662 -0.0185621 -0.00494534 0.0128558 0.0128561 -0.0133054 0.00768936 -0.00795413
423 -0.00829219 0.0252763 -0.0155836 0.0192842 -0.0124023 0.00196205 -0.0262276 -0.0189616 -0.012208 -0.0101178 -0.0161914 7.90924e-05 -0.000188642 0.00667657 0.00336032 -0.00618002 -0.0232563 0.00894038 -0.0125588 0.0257187 -0.000618652 -0.0246377 -0.0136007 0.00351997
372 -0.00581146 0.001591 -0.00353165 -0.00439579 -0.000460415 -0.0019994 -0.0241191 0.00430668 -0.0183474 -0.00673537 -0.00702393 0.000760025 -0.0107028 0.0067401 0.0106664 0.0125927 -0.0196307 -0.0176222 -0.0177928 0.0117513 0.00335917 -0.000105628 0.00771032 -0.00776859
404 0.00304823 0.0110965 -0.0276392 0.00592053 0.0148173 0.0107979 -0.00895007 -0.00261274 0.00201777 -0.0037152 -0.0100789 0.00639184 0.00676493 -0.00531266 -0.0212527 0.0231378 0.0162683 -0.0244417 0.0160134 -0.00427802 -0.0280604 -0.0144266 0.000786255 -0.0129909
298 -0.0202017 0.00344481 -0.00131382 0.00547958 0.00369595 0.0107441 -0.0131962 -0.00240817 -0.00693528 -0.0317791 -0.0150389 -0.0137862 0.00240636 0.00531857 -0.0139325 0.0255226 -0.0138895 -0.015872 0.0208794 0.00536187 -0.0196598 -0.0187294 -0.0177961 -0.0106691
517 0.00107361 -0.00863453 -0.00315521 0.0198322 -0.0157412 -0.00707343 -0.0220752 0.00795277 0.0198736 -0.0165095 -0.0100394 0.0101517 0.0115853 -0.018696 -0.00971634 0.00402887 0.00225232 -0.0225619 0.0120421 0.0121255 0.0126549 0.0046336 -0.0145255 -0.0156412
62 -0.0200203 0.00823188 0.00489683 -0.00892395 -0.0169916 0.0297417 -0.00289883 -0.0254247 -0.00667667 0.00606104 -0.0157043 -0.00158478 -0.0105609 -0.0177428 -0.0163755 0.0217911 -0.0116341 0.0102872 0.0130348 0.00680339 -0.0303258 -0.0231602 -0.000323084 -0.0173284
375 0.0072064 0.00973371 -0.0351178 0.00471325 -0.0180506 0.0101437 -0.0218306 -0.0296433 0.0185076 -0.0156007 -0.0209265 -0.0269175 0.0161686 -0.00478583 0.00370405 0.0457663 -0.00736642 9.94681e-05 -0.00621185 -0.00130938 -0.02808 -0.00223768 -0.00836987 0.0121928
96 0.00180575 0.0140277 0.0029731 0.0116317 0.00404563 -0.00680774 0.00240902 -0.00803938 0.0165798 0.00191727 -0.0351487 -0.0256015 0.00598064 -0.0081881 -0.0101084 0.0393266 -0.0208856 0.0103235 0.0154911 0.00988134 -0.0177878 -0.0241918 -0.0134968 0.0175989
489 -0.0282188 0.0241688 -0.0334227 0.0158276 -0.0196207 0.0119453 -0.0207119 -0.0092692 0.0157153 -0.0208989 -0.00453186 -0.0175535 0.019726 0.00872692 -0.010081 0.0131926 -0.0235485 -0.000481386 0.014807 0.0193842 -0.020132 0.00891746 -0.0167673 0.0185613
80 0.00799424 0.0420762 -0.0134353 -0.00526953 0.00385037 0.0198544 -0.0215216 -0.0117214 0.00607839 -0.0300718 -0.0367734 -0.0107344 0.0171704 -0.0137289 -0.00463677 0.016818 -0.0220223 -0.0116653 0.00833687 0.0304105 0.00305026 -0.0156428 -0.0471781 0.0174825
36 -0.0163215 0.00686294 -0.0150658 -0.0149322 0.00386841 0.0136108 -0.0174882 -0.0330136 0.00624181 -0.00802356 -0.0333634 -0.0143797 -0.0194896 0.00450239 -0.010053 0.0390493 0.00943244 -0.0145577 -0.00827003 0.025354 -0.023179 -0.00520799 -0.0110954 -0.0028864
175 -0.00817709 0.0311004 -0.0257143 -0.00257832 -0.0182864 0.0287247 -0.00657076 -0.0151527 -0.0160434 -0.0193041 -0.0114296 -0.0279247 -0.0105457 -0.0101344 -0.0045206 0.0130283 0.010343 -0.00757605 -0.0142497 0.0373751 -0.0260578 -0.0011595 -0.0171935 -0.0191133
107 -0.0177415 0.0238248 -0.00438111 -0.0156188 -0.0030412 -0.0109699 -0.00290325 0.00410556 -0.00672197 -0.0267739 -0.0287516 0.014761 -0.00102239 0.00350394 -0.0168969 0.0326954 0.00771427 -0.0187756 0.00643962 0.0223535 -0.0111728 -0.0170158 -0.0263909 -0.0192641
387 -0.0146481 0.0238555 -0.0216161 -0.0138323 -0.0158932 -0.010088 -0.00411941 -0.0143528 -0.0155408 -0.0175693 0.00310961 -0.0116594 0.0205402 -0.00304892 -0.0171185 0.00214073 -0.0180455 -0.0147208 0.00511917 -0.00108666 0.00339568 -0.0234151 -0.0145374 -0.0166852
525 -0.0164862 0.0136162 -0.0166425 0.0208176 0.0208158 -0.00259435 -0.0356065 -0.0244571 0.0165137 0.00406118 -0.015344 -0.00451065 -0.0103443 -0.0204867 0.0145138 0.0374362 -0.0115288 -0.0153382 -0.00445516 0.0149294 0.0107274 -0.0292087 -0.0174281 -0.0126245
284 0.0011931 0.000349274 -0.0191989 -0.0184989 -0.004713 -0.00768588 -0.0003481 -0.028326 -0.0165914 -0.0193173 -0.019357 0.000305527 0.0051333 -0.00574725 0.0125928 0.0065692 -0.00847386 -0.00804857 -0.0163626 0.0175287 -0.0187304 -0.0142788 -0.00812265 0.00240724
308 -0.000120612 0.0333044 -0.0322796 0.00515002 0.0145864 0.0127308 -0.00472145 -0.0454791 -0.0184178 0.00626112 -0.0253601 -0.0200373 0.016582 -0.0160625 -0.00235359 0.0439532 0.00950655 -0.0128901 0.0219177 0.0311573 -0.0102286 -0.0131456 -0.018961 -0.0170221
539 -0.010382 0.0222156 -0.010962 0.00321859 -0.00403488 -0.0128485 -0.0176487 0.00457214 -0.0185064 0.00473469 -0.00872935 -0.0162182 -0.0061363 0.0173526 -0.00584609 0.0226012 0.0154647 -0.00605428 -0.0011698 0.0220502 -0.00173365 -0.0033175 0.00482216 -0.0113862
54 -0.0206662 0.00699566 -0.0271971 0.0021108 0.00765199 0.0053127 -0.0269856 -0.0222589 0.00382307 -0.0315765 -0.00795259 -0.00117246 -0.0147249 -0.016159 -0.0225139 0.0171365 -0.00776366 -0.00249847 0.00531365 0.0264674 -0.0115103 -0.0187092 -0.00101915 -0.00943786
122 0.0137421 -0.00289496 -0.0239308 0.000715224 0.014411 -0.00988846 -0.0267141 -0.0194323 -0.0104868 -0.00665291 -0.00568586 0.00173404 -0.0169241 0.00962225 0.00321771 0.0132464 -0.0121086 0.00104432 -0.00402075 -0.00137624 -0.0223065 0.00426355 0.0089167 0.0187391
202 -0.0101965 -0.00496063 -0.0310319 -0.00156836 0.00603987 0.00145515 -0.028988 -0.0275154 0.0041121 -0.0227654 -0.0198006 -0.00473407 -0.0179247 -0.0258824 -0.013125 0.0239396 0.00573294 -0.0130628 0.0207154 0.0227393 -0.015676 -0.0125992 -0.0297721 -0.0113079
159 -0.0164165 -0.00752281 -0.0255738 -0.016534 0.0207575 -0.00695652 -0.00933235 -0.00397941 -0.0179269 -0.0164234 -0.0331797 -0.00207159 0.0149687 -0.000837584 -0.0107892 0.00621816 -0.0203335 -0.0028932 -0.0164182 -0.00732529 -0.00965881 -0.0128079 -0.000392902 -0.0033188
208 0.000574986 0.0311735 -0.0268557 -0.0184991 0.00740235 -0.00747627 -0.0297623 -0.0111183 0.0205372 -0.0112921 -0.0304536 -0.0225597 0.0131623 -0.0221234 -0.0151381 0.0252469 -0.0111366 -0.0138436 -0.00654071 0.0307973 -0.0278026 0.0102325 -0.0295068 0.0192249
322 -0.000944376 0.00899221 -0.0315748 -0.00711008 0.0176276 0.0113867 -0.0191842 -0.0394357 0.0198703 -0.00974023 -0.0137669 0.00131304 0.00947873 -0.00553317 -0.00126601 0.0192969 0.00404096 -0.0327572 0.00931047 -0.000253534 -0.00579986 -0.0309958 -0.0362776 0.00258613
68 -0.0100683 0.012596 -0.00663994 0.0211792 -0.0116367 0.0240568 -0.0134401 -0.0347061 0.00107937 -0.00505569 -0.020676 -0.00535183 0.0215457 -0.0130836 -0.00258101 0.0297142 -0.0046721 -0.00500611 0.000765431 0.000645441 -0.00535596 -0.00874779 -0.0267482 0.0117303
495 -9.8074e-05 -0.00236531 -0.0297589 -0.0167989 -0.0151463 0.0200623 -0.0301357 -0.0290024 0.00669201 -0.0262558 -0.00395624 -0.00259232 -0.0102959 0.00640173 0.0108355 0.00591363 -0.0211616 0.00577316 0.00146268 0.0294248 -0.015129 -0.00175067 -0.0198187 -0.016246
216 -0.0188768 0.00549541 0.00128746 0.0153834 -0.015404 0.00859591 0.00304598 -0.0271101 -0.0171976 0.0139713 -0.0024893 -0.0189342 0.00287679 -0.00137704 0.00756098 0.00780614 -0.0150772 0.000798349 0.00912982 0.0100724 0.00829527 -0.00641671 -0.024021 0.0149838
31 0.00175894 0.00101047 -0.026544 0.0148926 0.0102448 0.0279787 -0.0333861 -0.0187921 0.00930626 0.00319521 -0.0168521 -0.0285671 0.0206455 0.00260711 0.0136657 0.0282867 0.0097059 -0.00706632 0.0186225 0.00513198 -0.00682649 -0.0175191 -0.0235424 0.00398422
10 -0.0265154 0.0319765 -0.0109769 0.00197731 0.0106169 0.030658 -0.0381744 -0.0328884 0.0134087 -0.0335896 -0.0390071 -0.0158684 -0.00742613 -0.0199002 -0.00227934 0.0379454 -0.0270281 -0.00873804 0.0110177 0.0181455 0.00382256 -0.0258362 -0.0421919 0.0068752
160 -0.0279192 0.00810379 -0.0285775 -0.00574785 0.0173647 0.0177008 0.00225574 -0.0357449 0.00583474 -0.0100387 -0.024829 0.0134911 0.0076669 -0.0101689 -0.00977167 0.0323493 -0.00392942 -0.0209016 0.00926631 0.0149312 -0.00789113 0.00462184 -0.0132174 0.00850788
93 -0.0182786 0.0215449 -0.00636305 0.0199638 -0.00147318 0.0105616 0.00128082 -0.00758732 -0.0103548 0.0107281 -0.0142008 0.00104429 -0.00425813 -0.0152092 0.0146292 0.0317489 0.000366287 0.00866134 -0.0124982 0.0123353 -0.00665917 0.0123087 -0.000286497 0.0161521
123 0.00279122 0.00327922 -0.0286805 0.00204041 -0.0154613 -0.00134465 -0.0205191 -0.0193039 0.0154148 -0.0180817 -0.0267542 -0.00775257 0.02045 -0.0256332 -0.0187164 0.0134937 -0.00375231 -0.00417588 -0.00617659 -0.00312774 -0.0120668 0.00567725 -0.0366798 -0.0135411
425 -0.0267852 0.0383865 -0.0303397 0.021714 -0.00996206 -0.00528139 -0.0283871 -0.0352506 -0.00915429 -0.0329379 -0.0192285 0.00731542 0.0178956 0.00774136 -0.00775705 0.0379754 0.0109296 -0.0294927 -0.00814479 0.0197145 -0.00101145 -0.0163675 -0.0320383 0.00807146
447 -0.00108927 0.00557701 -0.030726 0.0227066 -0.0106911 0.000976854 -0.0245964 -0.0214732 5.86024e-05 -0.00509022 -0.033024 -0.0249075 -0.000560276 -0.0190177 0.0135779 0.0139399 0.0044965 -0.0285503 0.00689373 0.00543841 -0.00825489 -0.0244561 -0.0135448 0.0117181
241 -0.00215719 0.00866401 0.00818424 0.0042996 -0.0174587 0.0165139 -0.0298634 0.00379416 -0.018956 0.0102736 -0.00279503 -0.0237952 -0.00796954 -0.00543023 0.0121714 0.00320077 -0.00302961 0.00327691 0.0168301 0.0184007 0.00476987 -0.0197127 -0.0353904 0.0177296
180 0.0064625 0.0274856 -0.0107504 0.00987722 -0.00232828 0.0021982 -0.0135318 -0.0231758 -0.000169297 0.00714148 -0.0192395 -0.00602307 0.0108039 0.00225783 -0.0194364 0.0395076 0.0102835 -0.0288576 0.0180436 0.0298672 0.00888318 -0.026163 -0.00318552 0.0103014
321 0.00625056 0.0293975 -0.0147872 0.0153266 0.0120621 0.0248023 -0.0203655 -0.0211756 -0.00929017 -0.00219828 -0.036383 -0.0131416 0.0151891 0.00959389 -0.00246716 0.0296262 0.000673384 0.00219644 0.0208412 3.9568e-05 -0.00220246 -0.032872 -0.0224407 -0.017726
349 -0.0109606 0.0151587 0.00404803 -0.00148322 -0.015287 0.0297876 -0.0205437 -0.0193858 0.0135407 -0.0106197 -0.0248418 -0.0251314 0.000147743 0.0150749 -0.020623 0.00493035 -0.0143776 -0.0272894 0.0168062 0.00124536 -0.0180467 0.0104356 -0.0235485 -0.0184129
409 0.00678398 0.0125212 0.00709419 -0.0163342 0.00671472 0.00142661 0.00279623 0.00158099 0.000693646 -0.00784335 -0.0108578 -0.0183657 0.00151471 0.0119751 0.00215207 0.0256167 0.00843134 -0.0136615 -0.00725318 0.000302907 -0.0231309 -0.0118496 -0.0323208 0.00962527
222 -0.025937 0.001765 0.00104162 0.0199437 0.00663545 0.0107607 -0.00372915 -0.0236267 -0.00540316 -0.0204887 -0.00623076 0.000129694 0.014172 0.000459824 -0.0220559 0.0319015 -0.00150237 -0.0205871 -0.00134404 0.00675922 -0.00181597 -0.0206553 -0.0315842 0.0195906
336 -0.00964841 0.0282743 -0.00489797 -0.0170556 0.0106993 0.022294 -0.00358035 0.00233806 -0.0162705 0.00450144 -0.0344042 0.0128151 -0.0162857 -0.0214859 -0.00865275 0.0295468 -0.00260426 -0.0278951 0.00901715 0.0183501 -0.0170142 0.00839925 -0.0319102 -0.0208902
76 -0.0212833 0.00525559 -0.034555 -0.00186101 -0.00156987 0.023856 -0.0116494 -0.0308923 -0.0144193 -0.0218866 -0.00649467 -0.00297069 -0.00992703 -0.0289811 -0.00390435 0.0295872 -0.00606451 -0.0345241 0.0163706 0.0193948 0.00343925 0.00247274 -0.0238385 0.0138124
453 -0.0246391 0.00640561 -0.0250855 -0.00133184 -0.0173126 0.00970787 -0.023185 -0.0266729 -0.0121507 -0.0297607 -0.0385569 -0.00175582 -0.0144607 -0.0244839 -0.0236871 0.0278271 -0.0183616 -0.0334757 -0.00450057 0.0134276 -0.00967523 -0.032181 -0.0452342 0.0142297
217 -0.00995488 0.0349176 -0.0037259 -0.0111708 0.00705539 0.0335214 -0.033005 -0.00616225 0.00526732 0.00187417 -0.0104439 -0.0123734 0.00581288 -0.0102723 0.0116421 0.0328772 -0.0137492 -0.0180085 -0.0130173 0.00625573 -0.0268261 -0.0169839 -0.00951805 -0.0210447
366 -0.0159572 0.0349005 -0.0065651 0.0213176 0.0113298 0.0182111 -0.00350357 -0.0211518 -0.0169327 -0.00904284 -0.0234991 -0.0130517 0.0210097 0.00279156 0.00346939 0.0211929 -0.0105863 -0.0253321 0.0168621 -0.0030226 -0.0289034 -0.00745958 -0.016089 -0.0154501
103 -0.0200495 0.0123198 -0.0198023 0.0148306 -0.0175889 0.0198472 -0.0259227 -0.0178614 -0.0146154 0.00244477 -0.00605282 -0.00874462 0.00345846 0.00205488 0.0156418 0.0189102 0.00512551 -0.0198804 0.00843653 -0.0076779 -0.0118283 -0.00826607 0.00142201 -0.00896402
342 -0.00939343 0.0144181 -0.0239895 0.00415124 0.016631 -0.00775817 -0.0273455 -0.0196019 0.0190713 -0.0278977 -0.0198776 -0.0108629 0.0124839 -0.00756298 0.0161699 0.030278 0.0115291 -0.0323858 -0.00583278 0.0110789 0.00496668 -0.0185359 -0.0125676 -0.0126317
212 -0.00463612 0.0100286 -0.0203518 0.00539755 0.00744351 0.00234051 -0.0362441 -0.0264881 -0.0113556 0.00282627 -0.0183455 -0.0168366 -0.00918776 0.00858587 0.00167905 0.0393449 -0.0262654 -0.00872098 0.00287825 0.0111818 -0.0267799 -0.00834217 -0.0185671 -0.0162154
75 -0.00336872 0.0297935 -0.000691532 0.0225703 0.015613 0.0163754 -0.0354889 -0.0210477 -0.00985585 -0.0295024 -0.00768638 -0.0103364 -0.0101911 0.0045025 -0.00869163 0.0393541 -0.0015615 -0.00214287 0.00313407 -0.00275556 -0.0341065 -0.0182732 -0.0234165 -0.0139535
296 -0.0213911 0.0220113 -0.0216646 -0.0183299 -0.0105809 0.0172324 -0.0301576 -0.00550974 0.00543202 -0.00768239 -0.00553225 0.00418069 -0.0089513 -0.0195504 -0.00192898 0.0322752 -0.0138551 -0.0161794 0.0125228 -0.0100026 -0.0220133 -0.0224534 -0.0161982 0.00404969
326 -0.0250944 -0.0046196 -0.00642626 0.001189 -0.000179588 0.00598625 0.000218946 -0.023426 0.0012566 -0.0217939 -0.0304183 -0.00644056 -0.0134579 -0.0116177 0.000849107 0.00070068 -0.021214 0.00666513 -0.00979608 0.0324472 -0.00936864 -0.016656 -0.0313907 -0.0210111
416 -0.0178917 0.0167658 -0.00169041 0.00869366 0.00157934 0.015065 -0.0334674 -0.0138788 0.0221195 -0.00532333 -0.0123133 -0.00675902 -0.0158449 -0.00237163 -0.00607921 0.0304382 -0.00909073 0.00356594 0.022417 0.0234591 -0.0144016 -0.0206026 -0.039318 -0.0187461
275 -0.00029062 -0.00169873 0.00159325 -0.00703069 0.00560058 0.00281659 -0.00238212 -0.0235059 -0.012358 -0.0212833 -0.0178815 -0.0221371 0.00392798 -0.0212779 0.00430651 0.0374494 0.00680976 0.00304405 -0.00112582 0.0115113 -0.0080643 -0.00810862 0.000690569 0.0113602
226 0.00909978 0.0322361 -0.0197858 -0.0116497 -0.0198344 0.0261586 -0.0350992 -0.0123172 -0.00611403 -0.0029381 -0.0184754 -0.00379961 0.00447087 -0.00908525 -0.0129692 0.0305466 -0.00150507 -0.00321098 -0.0174705 0.0331383 -0.0028608 0.00690697 -0.0362462 -0.0210832
221 0.000173337 0.00808033 -0.0171065 -0.0132081 -0.0151114 0.0190815 -0.0356294 -0.0379485 0.011419 -0.0228614 -0.021188 -0.0153528 -0.00110139 -0.0188926 0.0053148 0.0187552 -0.00411995 -0.0300034 0.00358321 0.000607256 -0.0297173 0.00154754 -0.00402907 -0.00137087
359 -0.013072 0.0310172 -0.00110862 -0.0149826 0.014447 0.018415 -0.0107477 -0.0278847 0.00797053 0.00586986 -0.00501041 -0.0216924 -0.0135114 -0.00759992 -0.0126039 0.0108489 -0.0178789 -0.0168796 0.0179169 0.0137489 -0.00746684 -0.00921066 -0.0109982 -0.00530383
436 -0.000569877 0.00718653 -0.0190322 0.00258927 -0.00336675 0.0292298 -0.0280367 -0.0284673 0.000344203 0.00487832 -0.0109732 -0.0188056 0.00699268 -0.00157816 -0.0170465 0.0506906 -0.0284994 -0.0193485 0.0193009 0.0108655 -0.0319508 -0.00840998 -0.0233139 0.00537978
205 -0.00492504 0.00884402 -0.0140829 0.000394423 -0.0114071 0.00888878 -0.0214844 -0.0399775 0.00439744 -0.0306891 -0.0154445 -0.00393648 0.00627087 0.00330555 -0.0147942 0.010329 0.00682538 -0.00631727 -0.0160252 0.0125928 -0.0341572 -0.0314033 -0.0425744 0.0114303
291 0.00596628 0.0320345 -0.0140514 0.0214848 0.0170742 -0.00874234 -0.00905223 -0.00276708 -0.00857574 -0.024428 0.00169597 -0.0122095 -0.0193522 -0.00965341 -0.0118134 0.0330085 -0.00288099 -0.00284657 -0.0119187 0.0036173 -0.0177908 -0.0276125 -0.0289965 -0.0152864
113 -0.00420136 0.0182571 -0.0237863 0.0179256 0.0119302 0.0297145 -0.0360669 -0.0370458 0.0165871 -0.00333784 -0.0301534 -0.0232231 -0.0158691 -9.86036e-05 0.00894354 0.00891421 0.00712049 -0.0282057 0.000648058 0.0264214 -0.00656818 -0.00622969 -0.0223112 0.00291467
311 -0.0218266 0.0328819 -0.0206421 -0.00757034 0.0123306 0.00845437 -0.0321455 -0.0297966 0.0122475 -0.0199856 -0.0182787 0.00314099 0.00698344 -0.0241388 -0.0166016 0.0359025 -0.0237159 -0.015279 0.00689196 0.0164404 -0.0328492 -0.0158663 -0.0244892 0.00659187
90 -0.0193043 0.0159837 -0.0242344 -0.0111649 -0.00241161 0.00977434 -0.0313712 -0.0144453 -0.000604896 -0.0194956 -0.00750472 0.0152935 0.00713991 0.00438267 -0.0198749 0.0360554 -0.0137164 0.00422364 -0.0087065 0.0308152 0.010311 0.00417308 -0.0244742 -0.00676497
136 -0.0247161 0.0183114 -0.0187072 0.015727 -0.0186738 0.00703719 -0.0254559 -0.0243269 0.0141331 -0.015719 -0.0131322 0.0135485 0.0052621 -0.00783244 0.0129695 0.0146395 0.0101481 -0.0161994 -0.0133754 0.0112964 -0.0256266 -0.00946494 -0.0178617 0.0124273
109 -0.0262072 0.0257787 -0.027439 0.0162786 0.00775867 0.0287029 -0.0379909 -0.0323925 -0.00478071 -0.0103895 -0.026779 -0.0145089 -0.012318 -0.0206172 0.0140251 0.0362376 -0.000566341 -0.0268545 -0.0122475 0.00318568 -0.00537409 -0.0333786 -0.00348953 0.00895104
72 -0.0229295 0.0356981 -0.0186652 -0.0126564 -0.0188801 0.0177773 -0.0222732 -0.0230471 0.0143181 -0.000179039 -0.0155036 -0.000909737 0.0207601 0.00246178 -0.00125677 0.0353408 0.0125962 -0.0202911 -0.018251 -0.000947839 -0.0298007 0.00574016 -0.031919 0.0155186
260 -0.0175862 0.00527026 0.00150135 0.00986281 -0.0132719 0.0150739 -0.000481431 -0.0201415 0.00269635 -0.0190876 -0.0282846 0.00909154 0.0022007 0.011055 -0.00183951 0.0198257 -0.0222927 -0.0256692 0.00844175 0.0144686 -0.0322543 -1.38705e-05 -0.0289465 -0.00963044
518 0.00862918 0.0094362 -0.0072229 -0.00273571 -0.0154894 0.0240597 -0.0185355 -0.0286855 -0.0126794 -0.00556697 -0.0350532 -0.0193972 0.0155388 -0.021062 0.00218804 0.0390142 -0.000439638 -0.0310204 0.00505995 -0.00164961 0.000495778 -0.0185717 -0.00914885 -0.00814036
407 -0.0234724 0.0346081 -0.0292275 0.0117272 -0.00419517 0.0076471 -0.0144674 -0.000530012 0.0189882 0.00931861 -0.0288475 -0.011884 0.0119239 -0.0204519 -0.00012435 0.0281064 -0.00455083 -0.00575826 0.00957017 0.0240447 -0.0235477 0.0090023 -0.0263514 0.00991188
261 0.0056794 0.0357493 -0.0109498 -0.0124673 -0.0149 0.0056893 -0.0215776 -0.00923128 -0.0160627 -0.0132536 -0.0246092 -0.0228222 0.013791 -0.00543735 -0.000675248 0.0347187 0.0105636 -0.0100904 -0.0169143 0.00883756 -0.00502829 -0.00685649 -0.0240249 0.017242
129 -0.0219078 -0.00188195 0.0045882 -0.00208873 0.0181237 0.0103812 -0.0401652 -0.0404079 0.0023028 -0.00334616 -0.0141812 -0.0143673 -0.00645472 -0.00859264 0.0132957 0.00979596 -0.00468478 -0.00339024 -0.00390302 0.0308749 -0.0251021 0.00574667 -0.0180495 0.0182467
3 -0.000664101 -0.0095317 -0.0105878 -0.0076806 0.00950119 -0.00304262 -0.0060237 -0.0301105 0.0147647 -0.0216362 -0.0209527 0.00099046 -0.0116442 0.00946394 0.00731084 0.0197134 -0.00999528 -0.00102925 -0.015725 -0.00861086 -0.0118604 0.00652396 -0.00194195 -0.00227036
271 -0.0179582 0.0156523 0.00151307 -0.00735481 -0.0139942 0.0157606 -0.0128374 -0.0340801 0.0114726 -0.0183825 -0.0249218 -0.00455527 -0.0180335 -0.00462851 0.0124943 0.0272648 0.00907074 -0.0137578 0.0121563 -0.00382056 -0.0285232 -0.00343471 -0.0211824 -0.0191587
239 -0.0145336 0.00779432 0.00981097 -0.0172554 0.00660367 -0.0089251 0.00539335 -0.0202242 -0.00150914 -0.00305348 -0.0342997 0.00402431 -0.0176895 -0.022106 -0.00799547 0.014479 -0.0257453 0.00794746 0.0182005 0.0223337 -0.0248573 -0.00761379 -0.00725535 -0.00328403
97 -0.0113427 0.0270038 -0.00815244 -0.00525255 0.00495478 0.00851795 -0.0245987 -0.014454 0.00973754 -0.0269321 -0.000624614 -0.0236511 0.0116332 -0.0123767 -0.0128756 0.0274698 0.0158027 -0.000876339 -0.00072407 0.0224401 -0.00752846 -0.00752398 0.00387735 -0.00902538
318 -0.0123103 -0.0045185 0.00110843 0.0103993 0.00345782 -0.00835959 -0.00596746 -0.030258 0.0101904 -0.0244772 0.000686131 0.0116954 0.0143142 -0.00232578 2.68375e-05 0.0395463 -0.00337671 -0.0308891 -0.00959303 0.0355827 -0.0205149 -0.0179099 -0.0125213 0.0187139
406 0.011373 0.00927261 -0.0115031 0.0192319 0.00548282 -0.00821891 -0.0314554 -0.0051116 -0.00288914 0.00806676 -9.51421e-05 -0.0129319 0.00160508 0.00725408 0.0101501 0.0314358 -0.0096318 0.00777661 0.0177348 -0.00448202 -0.0265615 -0.00241859 -0.0211203 0.0195105
215 0.0119925 0.00278937 -0.0101253 0.0138987 0.00876587 0.0242661 -0.0234314 -0.0058248 -0.00493688 -0.025157 -0.00282136 0.0126 -0.0178985 -0.0212793 0.00190866 0.0251911 0.00880366 0.0092447 0.00492981 0.0305611 -0.0111239 -0.00660026 -0.00695859 -0.0112504
230 -0.0174951 0.0275418 -0.0370093 -0.00280958 0.0156336 -0.0017065 -0.0430907 -0.0355198 0.0139827 -0.00385823 -0.023641 -0.00880075 -0.0116675 -0.0154688 0.00120492 0.037955 -0.00431785 -0.0383808 -0.00481962 0.0261187 -0.0293321 -0.0266837 -0.013482 -0.012725
163 -0.0033721 0.0278281 -0.0139798 0.00694602 -0.00777654 -0.00484895 -0.0261065 -0.00172358 0.0206436 -0.0289636 -0.0174545 0.00250199 0.00443785 -0.0104201 0.00741143 0.0244288 0.00740389 -0.0246793 -0.00414906 0.0163084 -0.0254903 0.00402727 -0.0222462 0.00867658
254 -0.0261567 0.0328753 -0.0107463 -0.00994909 0.00899159 0.000265609 -0.0325833 -0.0405172 -0.0143109 -0.00446166 -0.0267106 -0.00971722 -0.00721825 -0.0128058 -0.0127167 0.044961 -0.00918478 -0.0137723 -0.0167665 0.014514 -0.00952142 0.00666389 -0.0121953 -0.00245753
360 -0.0175528 0.0259525 -0.024464 -0.00149578 0.0060795 0.0229396 -0.0174303 -0.039188 -0.00420233 -0.026561 -0.00205209 -0.0289601 0.000217671 -0.0224712 0.00273406 0.0430187 0.0108554 -0.0128456 0.00416438 -0.000647309 -0.0266847 -0.0280781 -0.0367864 0.0109416
78 -0.0256087 0.0235325 -0.0278734 -0.0141189 -0.0148547 -0.00277633 -0.0173836 0.00712329 -0.0139847 0.000925594 -0.0252543 0.0155363 -0.00316381 0.0115399 -0.00446907 0.00989306 0.0127886 -0.0256166 0.00826575 -8.27517e-05 -0.00435832 0.00171534 -0.0159726 -0.0138425
310 -0.0215379 -0.00124847 -0.00490042 0.0218641 -0.00377675 0.00436972 -0.0130587 -0.0138245 0.00213631 0.00626772 -0.00578031 -0.0106491 -0.0138455 -0.0137509 0.00975747 0.0412677 0.0116118 -0.0206874 -0.0123533 0.0209718 0.00617773 -0.0107927 -0.00946393 -0.00366517
149 0.0119295 0.0282493 -0.0305738 0.00298253 0.00635984 0.0147284 -0.0292836 -0.00817856 0.000802512 -0.0125754 -0.0282838 -0.019897 -0.0159897 0.000943421 -0.0103609 0.0067247 0.013201 -0.00787033 0.00620592 0.0200691 -0.0144896 -0.0112768 -0.0222356 0.0127097
293 0.000104411 0.0345064 -0.0018264 0.00715787 0.0100904 -0.0082605 -0.0200842 -0.00925129 0.0201138 -0.0288439 -0.0302241 -0.00652462 -0.00569744 -0.0187221 -0.0104251 0.0150514 0.0140088 0.00245194 0.0116255 0.0176904 0.00146774 -0.00879433 -0.00323773 0.0162795
432 -0.00569984 0.0321526 -0.0115355 -0.0128377 -0.0132117 -0.00498386 -0.00448042 -0.0233433 0.00957146 -0.00506321 -0.0219863 0.0110446 0.0149598 -0.0147175 0.0151808 0.020711 0.00815482 -0.029192 0.00496252 0.0248661 -0.0207997 -0.0329428 -0.0305487 0.0023198
520 0.00460158 0.0124088 0.00786846 -0.014847 0.00472205 -0.00480991 -0.0134339 -0.0291788 0.00749843 -0.0241312 -0.0168136 -0.0100488 0.00713602 -0.00793943 -0.0175935 0.0192513 -0.0061816 -0.00993546 -0.0106874 -0.00630859 -0.000857902 -0.00155388 -0.00775081 -0.0122857
115 -0.0260198 0.0230354 -0.0375941 0.00213751 -0.0162135 0.015307 -0.0104205 -0.0114835 0.00142245 -0.00411438 -0.0135311 -0.00961701 0.0194094 0.00245968 -0.00798898 0.00660097 -0.00919249 -0.0301384 -0.00643482 0.00186575 -0.0272778 -0.0228523 -0.0193358 -0.0207121
91 -0.00579659 -0.00343652 -0.00827 -0.00986802 0.0214442 0.0088561 -0.0300745 -0.0107018 -0.00900412 0.00407651 -0.0169246 0.00188828 -0.00609947 -0.0239824 -0.00588966 0.00447684 -0.0136748 0.0138764 -0.0111392 -0.00908699 -0.0242096 -0.00737581 0.00797256 -0.00274617
167 -0.0275661 0.0242119 -0.0115049 -0.00871599 0.00792891 0.00271091 -0.0371864 -0.0114379 -0.0151853 -0.0228833 -0.00363884 0.0117942 -0.00512163 -0.00811996 -0.022372 0.0203435 0.00759007 -0.0316693 0.0144546 0.026653 4.74582e-05 -0.0264188 -0.0397073 -0.0214614
444 0.0121068 0.0219486 -0.013268 -0.00954027 0.000829794 0.00662934 0.00530285 0.000678506 -0.0184683 -0.015573 -0.0222623 0.00737337 -0.00943949 0.0132028 0.00279077 0.0305825 -0.0186136 0.00593028 -0.00316337 0.0240979 -0.0289683 -0.0173245 -0.0141363 -0.0145179
155 0.00242122 0.0319234 -0.0166386 -0.0185758 0.000412016 -0.00452504 -0.0332596 -0.0277595 -0.0167148 0.00319477 -0.032739 -0.0221005 0.0018284 -0.0268786 -0.0124352 0.0388872 0.00355375 0.0107964 0.00123379 0.0335815 -0.0179601 -0.0220035 -0.0248512 0.000794506
358 0.00636317 0.0354425 0.000328081 -0.000133345 0.014189 0.0146246 -0.0217198 -0.0156579 0.0223693 -0.00596405 -0.0131792 -0.0256479 -0.00612317 0.0037172 -0.0224097 0.0190779 0.00742847 -0.000888024 0.0203518 0.0266366 -0.0281442 -0.0196892 -0.0430123 -0.020436
461 -0.0179482 0.00727456 -0.00743546 0.00844715 -0.01799 0.0238013 -0.0112558 -0.0277677 -0.00159238 -0.0161172 -0.00334309 -0.0259371 0.0206811 -0.00406845 -0.0151887 -0.00304469 -0.0181386 0.00433624 0.0176465 0.0274592 -0.0165936 -0.022898 -0.033179 -0.000735088
19 0.00583899 0.01933 -0.0343448 0.0059368 0.0207224 0.0269529 -0.0354841 -0.0246394 0.0125874 0.00310696 -0.0322283 0.00874074 0.0174876 -0.00410327 0.00241319 0.0299724 -0.017704 0.000646318 0.0106585 0.0117991 0.00686043 -0.0185719 -0.00270755 0.00398795
477 -0.00748282 0.0238877 -0.0279985 0.0122579 0.0112056 0.00644141 -0.0265707 -0.0226363 0.0143488 0.00539092 -0.0203102 -8.94557e-05 0.00248993 -0.00350119 -0.00725384 0.00970682 -0.0032231 -0.0312051 0.00733908 0.00912055 -0.00234585 -8.48695e-05 -0.0216504 -0.00498018
516 -0.0123558 0.0183294 -0.0257091 0.00951582 0.0215459 0.00231528 -0.0317488 -0.0171433 0.00202166 -0.0168976 -0.00898484 -0.00426997 0.0169413 -0.0206765 0.00165103 0.0379577 -0.0223881 -0.0129352 0.00397357 0.0136778 -0.0112457 -0.0270313 -0.0219427 0.0155299
26 -0.0166559 0.0170462 -0.00178493 -0.00767502 -0.0079882 0.00441796 -0.00841226 -0.0279635 0.0178383 0.000482094 0.00313449 -0.00923691 0.0139707 -0.00789001 -0.00653863 0.0319971 -0.0109574 -0.0203182 0.0206732 -0.00341255 7.98891e-05 -0.0285266 -0.00913802 0.012719
417 -0.0172853 -0.00337523 -0.000634129 0.00271888 -0.00116131 0.0201089 -0.0253541 -0.0296311 0.0195677 -0.00990338 -0.0330041 -0.0250194 0.0187326 0.00809236 -0.0178742 0.00708753 -0.00387185 0.0119239 0.00384296 0.031176 0.0105859 -0.0284667 -0.0213268 0.018332
394 -0.00390347 0.0166397 0.00846252 -0.0177232 -0.00545948 -0.00295184 -0.0296349 -0.00602687 -0.0180594 -0.0109188 -0.00467359 -0.0154392 -0.00519586 0.00205562 -0.0146213 0.00210265 -0.0148064 0.00933861 -0.0184993 0.0281565 0.0086355 0.00885589 -0.0308988 -0.0120818
523 0.00600146 0.0233631 -0.0122492 0.0198087 -0.00186572 -0.0084601 -0.0151714 -0.0110821 -0.00197469 -0.00849225 -0.00450091 0.00487749 0.0114959 0.00338568 -0.0238266 0.00168738 0.0117782 -0.0234553 0.0168912 -0.00588543 -0.00233191 -0.0243099 -0.0316625 0.0162581
127 0.00615527 0.00248919 -0.00425262 0.00642679 -0.015602 0.0334193 -0.0359198 -0.040714 -0.00388072 -0.00425129 -0.00287638 -0.0217274 -0.0159992 0.00284456 0.0158444 0.024961 -0.0180453 -0.0348394 -0.0118374 0.0197149 -0.0351638 -0.0275849 -0.0406836 0.0153697
327 -0.027262 0.0140906 -0.021642 0.0118042 -0.0107011 -0.0029441 0.00344123 -0.0119119 0.0119206 -0.0296354 -0.0308207 -0.00247766 0.0012895 0.00282545 -0.0016776 0.0119127 -0.0226599 -0.0290293 0.0171002 0.0120354 -0.0150586 -0.029651 -0.014029 -0.019197
351 -0.0175804 0.0232262 -0.00367136 -0.0104012 0.0217627 0.000984506 -0.0122854 -0.0474092 -0.00328395 0.00435649 -0.00714511 -0.0180414 -0.00467908 0.00276765 -0.0248451 0.03889 0.00948692 -0.00197701 0.0169907 0.0276365 -0.0133742 -0.0239349 -0.0458689 0.0106028
229 -0.00698834 0.0236203 -0.0272803 -0.0121672 0.010141 -0.00486779 -0.00156632 -0.0147004 0.018952 -0.0217302 -0.0110066 0.00368115 -0.00941507 -0.0166388 -0.00406514 0.012848 -0.0169138 0.00846201 0.0151166 -0.000228196 -0.0211822 -0.0231666 0.00564927 -0.0140433
485 -0.0280573 0.0195149 -0.0126271 -0.0138641 0.00106984 0.0301398 -0.0145374 -0.0200341 -0.0178845 -0.00332623 -0.0366104 0.00356491 0.000420678 -0.00498061 0.00051275 0.0397375 -0.0210652 -0.021266 -0.0077319 0.00104381 -0.0189311 -0.0291133 -0.0339744 -0.00532947
134 0.00986876 0.0105571 0.00925369 0.00175697 -0.000495627 0.0147266 -0.034114 -0.0327344 0.0159164 -0.00713778 -0.00105386 0.00977385 -0.00984322 -0.0102467 0.000592354 0.0202451 -0.00836428 -0.015436 0.0208185 0.0244882 -0.0111738 -0.0302873 -0.0239018 0.00919553
450 -0.0210259 0.0170977 -0.0311789 0.0122749 -0.00222136 0.02406 -0.00679478 -0.0129489 0.0154909 0.00616958 -0.0271034 0.00584706 -0.00416176 -0.0178723 -0.0186515 0.0354529 -0.0124994 -0.0120703 0.000946734 0.0195464 -0.0307964 -0.0181288 -0.0293735 0.0084612
319 -0.0193689 0.0166865 -0.0205565 0.0144589 -0.0114855 0.0137158 -0.0169292 -0.0202966 0.0193132 0.0087179 6.10176e-06 -0.00317423 -0.0105042 -0.00987331 -0.0220676 0.0348829 0.0123701 0.00187424 0.017861 0.0274903 -0.0167302 -0.0150869 -0.0264914 -0.0221911
114 -0.00466535 -0.00132376 0.00167459 -0.017757 0.0138248 0.0282191 -0.02497 -0.0174273 6.2388e-05 -0.000457149 -0.0271845 -0.013869 0.00103835 -0.0129364 0.00335037 0.0125996 1.28299e-05 -0.00421964 -0.0101526 0.00280937 -0.0122073 -0.00560305 -0.0398321 0.00808916
218 -0.024188 0.0253587 0.00710329 0.00798104 -0.00305652 0.02119 0.000251446 -0.0131307 -0.0107882 -0.015556 -0.0206237 -0.0110533 0.0102697 -0.0190136 -0.00144451 0.0203586 -0.00164168 0.00991168 0.0215668 0.0265385 -0.00184741 -0.0142181 -0.0224334 -0.0129158
446 -0.0196974 0.00774072 -0.0189615 -0.0146564 0.0105919 0.0138439 -0.00122286 -0.0257138 0.018239 -0.00961223 0.00694175 0.0086704 -0.0186706 0.00807188 -0.01579 0.0307647 0.0153715 -0.00673769 -0.0169345 0.0204628 -0.0248352 -0.0117415 -0.00689474 0.013366
386 -0.00635931 0.024759 -0.0179673 0.0204316 0.00130341 0.0110386 -0.031425 -0.0383978 0.00407686 -0.0324996 -0.00468002 0.00914981 0.0138041 -0.00171013 -0.0123847 0.0142355 -0.0136255 -0.00672112 0.0223693 -0.00105081 0.00280885 -0.015495 -0.0137378 -0.0101905
496 -0.00125853 0.022302 -0.0306809 0.00905829 -0.00106562 -0.00572965 -0.0136619 -0.0391814 0.00297419 -0.00671761 -0.0233741 0.000131671 -0.00377337 -0.0179259 -0.0221988 0.00881148 0.00640965 -0.0306288 0.00636003 0.0374765 -0.0154885 -0.01979 -0.00376199 -0.00800879
231 -0.0139798 0.0204006 -0.0334444 0.0152537 -0.0181746 0.0149184 -0.022762 -0.0115256 0.0138476 -0.00991659 -0.0358318 0.000748788 -0.0106434 0.0100758 -0.0182755 0.0263624 -0.0193012 -0.00538409 -0.0113329 0.0182139 -0.0200541 -0.0140394 -0.0240926 -0.0101299
