540 128
126 -0.00261119 0.00187323 3.16958e-05 -0.0042728 -0.00162428 0.00280805 0.00288246 0.00156845 -0.00547293 -0.0031199 0.00219568 0.00081214 -0.00268476 -0.00174157 -0.00241993 0.00243348 0.00870975 0.00319053 0.00411315 -0.00272949 -0.00105041 0.000839281 0.0017436 0.00134754 0.00456697 -0.00448374 -0.00280012 0.00332416 0.00110003 -0.00197687 0.00539556 0.00307955 -0.00559535 0.000476911 0.00602686 -0.00234409 0.00176605 -0.00316265 -0.00433282 0.00212433 0.000355097 -0.00024458 0.000665862 -0.00207979 -0.0032791 -0.00280481 -0.00174169 0.000850714 0.00591759 0.00209554 -0.0012533 0.00625779 -0.00844488 -0.00265902 0.000772689 0.00184796 -0.00419993 -0.00818031 -0.00180357 0.000993496 0.00248733 -0.000472123 0.00324502 0.000363306 0.00278537 -0.00130562 0.00526235 0.00191656 0.000906048 -0.00394513 -0.00569291 -0.00281183 0.00110419 -0.00625419 -0.00166855 -0.00265784 0.000493928 -0.0016602 -0.00201323 -0.00362713 -0.00552315 -0.000414181 0.000909796 -0.00159281 -0.0049283 -0.000250587 -0.0015823 -0.00364347 -0.00100838 0.0051451 -0.00446459 0.00158282 -0.000589109 -0.00347083 0.00265023 0.00555282 -0.000437647 0.00557694 0.004989 0.00060188 0.00597228 -0.00140703 -0.00100628 0.00382156 -0.00317705 0.00124787 -0.000716166 -0.00478079 -4.92343e-05 -0.00206402 -0.00194552 0.00256348 -0.0042289 0.000472076 0.00149508 -0.00761247 -0.00304825 -0.00257704 -0.00523273 -0.000730108 -0.00345816 -0.00284563 0.00396945 0.0037417 0.00226775 0.00231513 0.00162034 0.000924755
41 -0.0063894 0.00320513 -0.00170392 -0.00372946 -0.00372331 0.00531395 -0.00217185 -0.00189 -0.00481876 -0.00699487 0.000585157 0.00167954 -0.000248197 0.000503024 -0.000896532 0.00669342 0.00603068 0.00264197 -0.00175635 -0.00178495 0.00117063 0.00421049 0.000712179 0.00266496 0.00210065 -0.00125682 -0.000719397 -0.000225512 0.00348187 -0.00478394 0.00369647 -0.000246882 -0.00624142 0.00272148 0.00202189 -0.00171386 0.0040973 0.00041308 -0.0025588 0.00227306 0.00500143 0.00286059 0.00603211 0.0020744 -0.00255571 -0.00310971 -0.00197613 0.00875806 0.00617685 0.00137092 -0.00687015 0.00352683 -0.0109004 0.00108422 0.00732045 0.00299312 -0.00222773 -0.00503959 -0.00299005 0.00252266 0.00358027 0.0011268 -0.00158993 0.00286351 -0.00120524 0.00252341 0.00740886 0.00228282 0.000391705 -0.000620715 0.000722013 -0.00716079 0.00301522 -0.00180036 0.00175209 -0.000554891 0.00223839 -0.00409068 -0.00325527 -0.00334108 -0.00360801 -0.00782053 0.00414822 0.00231009 -0.000146571 -0.0057912 -0.000928975 -0.00417952 -0.00374076 0.00674784 -0.00341128 -0.00275066 -0.00138953 -0.00444094 0.00528135 0.00182963 0.00352483 0.000534261 0.00222279 0.00440305 0.00733464 0.00252124 -0.0040494 -0.000247736 0.00354415 0.00359527 0.00139496 -0.00379213 0.00250417 0.00322095 -0.00219336 0.000437044 -0.000996528 0.00373745 -0.00205507 -0.00774252 -0.00252671 0.0017787 -0.00387934 -0.00228086 0.00125061 -5.84253e-05 -0.00239762 0.00138419 0.002418 -0.00106822 0.00320116 -0.00136371
479 -0.000460364 -0.0020919 0.00215991 0.00120305 -0.00111552 0.000103066 0.00349113 0.00129526 -0.000961556 -0.00156883 0.0037165 -0.00293589 -0.000577029 0.00317691 -0.00416704 0.00521072 0.00474789 -0.00139211 0.00166397 -0.00242931 -0.0031358 0.00132672 -0.00291423 0.00395101 0.00213013 0.00188391 -0.00190182 -0.00285697 0.000928848 -0.00274072 0.00435596 -0.00215776 0.000689064 -0.000328382 0.00212601 0.00302444 -0.00149059 -0.000139834 -0.0043804 -0.00135651 -0.00142554 0.00346117 0.00328812 -0.00376157 -0.00237959 -0.00119352 0.00271311 0.00113342 0.00410179 0.00307601 -0.00380474 0.00231633 -0.00813482 0.0020239 0.000615046 0.00194229 0.00285858 -0.00119859 -0.000755333 -0.00351296 -0.00117732 0.00118178 0.0026528 -0.00120368 -0.000263681 0.00350405 -4.00824e-05 0.00337467 -0.00248381 -0.00270781 -0.00292207 -0.00394245 0.0020537 -0.00204106 0.00163283 0.000271036 0.00255419 0.00357546 -0.00119475 -0.0049724 0.00240994 -0.00485488 -0.00211235 0.00190988 4.42039e-05 -0.003122 0.000915543 -0.00416726 -0.00461669 -0.00066969 3.0808e-05 -0.00342905 -0.00118346 -3.88834e-05 0.00259041 0.00448202 0.000653429 0.0024893 0.00510454 -0.0017949 0.00181255 0.00267301 -0.00035023 0.00186327 0.00134169 0.00485308 0.0031636 -0.00436897 -0.00270489 0.00337227 -0.0049123 0.00300654 -0.0042831 0.000626792 0.00346205 -0.00578885 -0.00189672 0.00063427 -0.00312141 -0.00427735 -0.00384422 0.0016397 -0.00259549 0.00219956 -0.00270636 0.00434241 0.00135392 -0.000638114
109 0.001438 -0.00172016 -0.00290481 0.00189257 -0.00261958 0.00450348 0.0029473 -0.000555176 0.000276626 -0.00387863 0.00444578 0.00118185 0.00242782 -0.0015675 -0.000268816 -0.00128339 0.00293543 0.00327386 -0.00179443 0.000600039 -0.00347036 0.00608989 -0.000635448 0.00352419 0.00432735 -0.00265377 -0.000589338 0.00362768 0.00393824 -0.00461747 0.00178219 0.00277451 -0.00130101 0.00644738 0.00444387 -0.000378785 0.000362851 -0.00427535 -0.00235123 0.00118289 0.000493194 -0.00140916 0.00564129 -0.00309492 0.000567827 0.00106903 -0.00358847 0.00262329 -0.00161802 -3.61697e-05 0.00151781 0.00684393 -0.00528193 0.0020288 0.000285487 0.00367259 -0.00393435 -0.00376891 0.0017997 0.000126215 -0.00119842 0.00226096 0.000189361 0.00396487 -0.00218295 -0.0027815 4.94274e-05 0.00284512 0.00494637 -0.00366817 -0.000440141 -0.00359288 0.00250815 -0.002932 -0.00189667 0.00275186 0.00199901 -0.00174534 -0.00203541 -0.00303559 0.00182464 -0.0039901 -0.000513389 -5.22928e-05 -0.00050595 -0.00080898 0.00053005 -0.00478614 -0.00343568 0.00253556 -0.00111391 -0.00167355 -0.00024805 0.000733989 0.00478142 0.00276146 0.0029114 -0.00211674 0.00169961 -0.00271704 0.00517818 0.00345112 0.000281704 -0.00285989 0.00360025 0.00367509 0.00448722 -0.00325925 -0.000326013 0.00370079 -0.00276263 0.0012553 0.000295078 0.00264921 0.00313101 -0.00471819 -0.00134045 0.0015229 -0.00631867 -0.00337757 -0.00467385 0.000488248 -0.00209172 0.00536607 0.00353186 0.000298481 0.00394131 -0.00256613
74 -0.00097192 0.00542065 -0.00437912 0.000471623 -0.00128325 0.00255931 0.00194741 0.00335424 0.000929654 -0.00406904 0.00200775 0.00326159 0.00404314 -0.00329089 -0.000984644 -0.00127699 0.00782293 -0.00040229 -0.00140952 0.00411052 -0.00233433 0.00549467 -0.00161095 0.00219558 -0.0015648 0.00193197 0.0022045 0.00209349 0.00337532 -0.0056204 0.000232257 0.00227553 -0.000553761 -8.72005e-05 -0.000930784 -0.000699182 -0.000349049 -0.000971311 -0.00121463 -0.0037952 0.00231746 0.00058782 0.000960732 0.000967507 -0.00308384 -0.00595407 0.000696762 0.00449169 0.00492592 0.0030148 -0.00458228 0.00296148 -0.00503837 0.000754664 0.00132849 0.000787182 -0.00427905 -0.0054299 -0.0048804 -0.00122168 -0.000875336 0.00251237 0.000661531 0.00128759 0.00247265 0.00290098 0.0064066 0.00464482 0.000896894 -0.00625632 0.000590767 -0.00384302 -0.0014338 -0.00567653 0.000759986 -0.00190605 0.00199928 -0.00233487 -0.00267397 -0.00210097 -0.00479535 -0.0025901 -0.00115341 -0.00243925 -0.00483595 -0.000986977 2.6109e-05 -0.00384554 0.00157144 0.001348 -0.00444608 -0.00340713 -0.00166045 0.0013616 0.000524011 -0.00122233 -0.00237439 -0.000297246 0.00161235 0.00454388 0.00182416 0.00251272 -0.000936171 0.00152829 -0.00213458 0.00261159 -0.00226805 -0.00189626 0.00057564 0.00330042 -0.000175401 0.00465047 -0.00124565 0.00173399 0.00179882 -0.00523682 -0.00324555 0.00366042 -0.000742746 -0.00318461 -0.00133334 0.00068994 5.52747e-05 0.00245093 0.00163817 0.0034851 0.00282272 -0.000247453
355 0.00110816 0.00191186 0.000345316 -0.0036734 0.00142348 0.00514749 -0.0011677 -0.00267252 -0.000807347 -0.00218227 0.00280936 0.00257997 0.000489609 0.00282163 -0.000484608 0.00205743 0.00300684 0.00104453 0.00523677 -0.00334354 -0.0027766 0.0034494 0.00152328 0.00326301 0.00397972 0.00171995 -0.000117574 -0.00189022 0.00406563 -0.00497061 -7.4612e-06 0.00371283 0.000448181 0.00557029 0.00226677 -0.000525123 0.00109894 -0.00584034 -0.000610454 -0.00113449 0.00609219 0.00324676 0.00691697 0.000313066 0.00255554 -0.00610493 0.0028249 0.00317564 0.00344658 -0.000251726 -0.00393892 0.00262713 -0.00633003 -0.00217745 0.00021143 -0.00096248 0.00237442 -0.00812088 -0.00123967 0.000214362 0.00519903 0.00369663 -0.00206329 -0.00177274 -0.0007682 -0.00208678 0.00270479 0.000374951 0.00418549 -0.00384889 -0.00119524 -0.00674651 0.00152212 -0.00662656 0.00255848 -0.00486179 0.00238581 -0.00280564 -0.00115901 0.000673572 -0.00414834 -0.00358239 -0.000154557 0.0033017 -0.00595543 0.000375482 -0.00160273 -0.00243737 -0.00296218 0.00159885 -0.0052363 -0.00164744 0.00287805 -0.00219516 0.00524591 -0.00105733 -0.00282342 -0.000169502 0.00435006 0.00322548 0.00734591 0.00572684 -0.00489075 0.00373352 -0.00221219 0.00337042 0.00491154 -0.00427743 0.00289167 0.000969802 -0.00181168 0.00119424 -0.00435379 0.00109797 0.00376621 -0.00387471 0.00106695 -0.00410708 -0.0016289 -0.00752673 -0.00236966 0.000909803 -0.00111061 0.00316439 0.0017645 0.000534626 0.000796671 0.000663356
62 -0.00441901 0.0054397 -3.50953e-05 -0.00293166 0.00129523 0.00544036 0.00126842 -0.000662598 -0.0033342 -0.00658747 -3.44713e-05 -0.000158745 0.00259466 -0.00109077 -0.000243823 0.00343648 0.00566042 -0.000689466 -0.00223873 0.00196339 -0.0023356 0.000639398 -0.00129831 0.00253625 0.0034258 -0.002912 -0.000610195 0.000205421 0.00282824 -0.00416431 0.00185171 0.00503678 0.000800815 0.00395433 0.00299258 0.00159041 -0.00319966 0.000582696 -0.00662031 -0.00210426 0.00156371 0.0033031 0.00332514 -0.00232673 -0.00084366 -0.00303677 0.000820198 0.00614288 0.00105636 -0.000556816 -0.00411099 0.00440153 -0.00292162 -0.00345284 0.00548797 0.00238297 -0.00408097 -0.0077029 -0.000866658 -0.00428572 0.00628263 0.00488893 -0.00259317 0.0033078 -0.00257526 -0.00320838 0.00199553 0.000116838 -0.000293159 -0.00130021 -0.00304147 -0.00382274 0.00420038 -0.00570963 -0.0001592 0.00193116 0.000504875 -0.00225536 -0.00233993 -0.00151607 -0.0023663 -0.00534908 0.00420996 -0.000464579 -0.00457491 -0.00247541 0.00405479 -0.00252387 -0.00400906 0.00248092 -6.12098e-05 0.00061904 0.00190568 0.00214243 -0.00112928 0.00483346 -0.000338675 0.00141239 0.00261783 -0.00127512 0.00212582 0.00135402 -0.000759879 -0.00172433 0.000920167 0.00686065 -0.000747121 -0.00135718 -0.00260024 0.00193191 -0.00122894 -0.000264871 -0.00428141 0.000515678 -0.00135037 -0.00666914 -0.00153733 -0.00142274 -0.00702885 -0.00562747 -0.00446676 -0.00131047 -0.000830826 0.00547782 -0.00164929 0.00411359 0.00220893 -0.000866209
92 -0.000584398 0.0050049 -0.000234045 -0.00161037 -0.00318425 0.00572107 0.00041936 0.0037823 -0.00108625 -0.0073997 0.00225019 -0.00161974 -0.00144435 0.00150837 -0.00671187 0.000822483 0.00778205 -0.00269876 -0.00199379 -0.000340194 -0.00299951 0.000635554 0.00418113 -0.00267316 0.00410786 0.000389184 0.00118138 0.00162357 0.00375255 -0.0052143 0.00296623 0.00246016 -0.00074479 0.00367956 0.0044326 -0.00240272 0.00243187 0.00141633 -0.00826676 -0.00398159 0.000916736 -0.00260549 0.00553498 -0.00354552 -0.00318986 -0.000571997 0.000377163 0.00274104 1.11757e-05 -0.00137631 -0.00627141 0.00539216 -0.00350065 0.00319582 0.001443 0.00266498 0.00212558 -0.00844427 -0.00437319 -0.00443284 -0.000157604 0.00364573 0.00223393 -0.00315686 0.00183263 -0.00159165 0.00691754 0.0038081 0.00419336 -0.00611914 -0.00626703 -0.00143593 0.0013704 -0.00625704 -0.0036904 -0.0043873 -0.0020739 -0.000773753 0.000627244 -0.00223807 -0.00290365 -0.00671037 0.00202224 -0.00366742 -0.00215353 -0.00464439 -0.000946579 0.0010267 -0.00425892 0.00423752 -6.38279e-05 -0.00270416 0.000999164 -0.00306205 0.00286298 0.00622719 0.00412393 0.00284296 0.00523383 0.00320802 0.00131463 0.00530779 -0.000289496 0.00408427 0.00119696 0.00464224 0.00179333 -0.00026595 -0.00259382 0.00129893 0.000512214 0.00298081 -0.00343787 0.000622681 -0.000733526 -0.00581118 0.00176273 -0.00257745 -0.00539702 -0.0044499 -4.65348e-05 0.000215469 0.00142712 -0.000263001 0.00482101 -0.00160601 -0.000550482 -0.00377256
31 -0.00576742 0.00365045 -0.000257338 -0.00428504 -0.00287459 0.00689455 0.00325274 -0.00225603 0.0014706 -0.00153947 0.00543453 0.00191875 0.00301214 -0.00223651 -0.00495409 0.00435187 0.00316711 0.00286002 -0.00244047 0.00419894 0.0026465 0.00716101 0.00492373 0.00263035 0.00359573 0.00100803 0.000716299 0.00438859 0.000712406 -0.00154284 0.00579035 0.00216101 0.000596637 0.00493453 0.00695805 -0.000499264 0.00130466 0.000209675 -0.00235875 -0.00149581 -0.00149254 0.00360511 0.00662755 -0.000532032 -0.000652743 -0.00478246 0.000472781 0.00567065 0.00405788 -0.0015177 -0.00653249 0.0065887 -0.00996532 -0.00111986 0.00809385 0.00103594 -0.00237978 -0.00627239 0.000266823 0.00184223 -8.96896e-05 0.00279771 0.00247437 -0.00309876 -0.000751328 -0.00391691 0.0078118 0.00290935 0.00330274 -0.00119451 -0.00424532 -0.0028317 0.00280716 -0.00867306 -0.0034752 0.00220051 -0.00471805 -0.00404713 -0.0020979 -0.00437694 -0.0013913 -0.00314047 0.00432496 0.00331401 -0.00341625 -0.000232444 -1.73876e-05 -0.00217428 -0.00415515 0.000609022 -0.00544755 -0.00233913 -0.0014351 2.47583e-05 -0.000419498 0.00020248 0.000557864 -0.000305826 0.00282755 -0.00179885 0.00540892 0.00585215 -0.00363359 -0.000877888 -0.00171363 0.000414944 -0.000203174 -0.00153657 -0.00137847 -0.000695138 -0.00202153 0.000513629 -0.00403133 0.00281449 0.00460141 -0.00170104 -0.00145786 -0.00184593 -0.00250983 -0.0017569 0.00271715 -6.58907e-05 0.00286587 0.000819632 0.000794967 -0.00169532 0.00187295 -0.00184294
377 -0.00361997 0.00318803 -0.00497564 -0.00242807 0.00300143 0.0024779 0.000187188 0.00128838 -0.000851673 -0.000789743 0.00625899 0.000481855 -0.00265394 -0.00373591 -0.00438489 0.00115895 0.00672198 0.00254322 0.00292503 0.00109357 0.00014996 0.00178845 -0.00120534 0.00460181 0.000836164 -0.00579583 -0.00464128 0.000270066 0.00104574 -0.00688368 0.000730707 -0.000319696 -0.00464939 0.00114306 0.00519003 -0.00155759 0.00345926 -0.00318611 -0.00483293 -0.000126521 -0.000188403 0.00164991 0.00397435 -0.00435555 0.000482964 -0.00618545 0.00152902 0.00320289 0.00507404 0.00254166 -0.00574318 0.0013305 -0.00352747 -0.00153393 0.00617259 0.00243441 -0.00038363 -0.00433612 -0.00071386 -0.00260143 0.00408918 0.000936824 0.00403776 -0.0013954 -0.00348373 0.00237118 0.00611385 -0.000850289 0.00515952 -0.00289471 -0.00418584 -0.000915077 0.00159274 -0.000844142 -0.00439104 -0.00352446 -0.0012274 -0.00283161 0.000593553 -0.00514157 -0.00350533 6.37905e-05 -0.00100811 0.00183464 -0.00135996 -0.00424847 0.0010843 -0.0049458 -0.00350779 0.00417446 -0.00341021 0.00159063 0.000631156 -0.00155777 0.00533269 0.000655661 -0.00105583 -0.00103457 0.000347891 0.00199123 0.00112075 -0.00047198 -0.00501946 -0.00273899 -0.00199171 0.00179052 0.00353153 -0.000395005 -0.00189274 -0.00287917 -0.00221594 -0.000644391 0.00130456 0.00450594 0.00154697 -0.00599522 0.00158635 -0.00205476 -0.00753333 -0.00637597 -0.00236108 0.00294961 -0.00103314 0.00506087 0.000457578 0.00341686 0.0011229 0.00365904
17 -0.00165527 0.000610688 -0.00333522 -0.000120988 -0.00387844 0.00582842 0.00300443 -0.00146298 -0.000249762 -0.00671363 0.000139785 -0.000347305 -0.00217165 -0.00142184 -0.00729518 0.00471449 0.00809645 -0.000760949 -0.00123286 0.00473221 0.00257658 0.00439631 -5.42885e-06 -0.00128397 -0.00077701 -0.00448366 -0.00457088 -0.00291532 -0.000915507 -0.00675678 0.0064096 0.00369562 -0.00152128 0.00350904 0.00303921 -0.00282698 -0.00244379 -0.00167797 -0.00330929 -0.00224166 0.0054416 -0.00194424 0.00367835 -0.00420379 0.000391004 -0.000842642 2.22603e-05 0.00667685 0.00600864 0.00258684 -0.000699873 0.00710247 -0.00603066 0.000951872 0.00799732 0.00181136 -0.00328394 -0.00923995 -0.00452394 0.00280752 0.00552298 0.00320989 0.00239839 0.000862192 -0.000993729 -0.00143033 0.00147236 -0.00258752 0.00357432 -0.00420589 -9.06779e-05 -0.00493657 0.00290274 -0.00645251 0.000400098 -0.00479614 0.00237635 0.000636717 -0.00304153 -0.00233296 -0.00206671 -0.00633876 0.00259314 0.000547952 -0.000480858 -0.00273921 0.00345439 -0.0058517 0.00197205 0.00543088 -0.00388818 0.000361387 0.0027858 -0.005775 0.00180659 0.00347613 0.00313295 -0.000789717 0.00293074 0.000850326 0.00564777 0.00449944 -0.00612415 -0.00302241 -0.000274119 0.00669674 -0.00195044 -0.00658065 0.00289603 -0.00337381 -0.00617111 0.00219229 -0.0045141 0.000293034 0.00326163 -0.00794366 0.00228256 0.000222161 -0.00878195 -0.00545237 -0.00385656 -0.00249469 -0.000810163 0.00503667 -0.000545273 0.0022776 0.0028804 -0.00324968
365 -0.00240363 -0.0022915 -0.00122391 0.00287995 0.00337347 0.00619247 0.00139759 0.00266251 -0.00329868 -0.000451351 0.00185881 -0.00114515 -0.00336019 0.00220745 -0.0016506 0.00386981 0.000968402 0.00312203 0.00401814 0.00098044 0.00278338 0.00228103 -0.000639248 -0.00236815 0.0036066 0.00062661 0.000302209 0.000925402 0.000404825 -0.00637841 0.000536181 0.00112117 0.00156417 0.00490343 0.00420897 -0.00238024 0.00200279 -0.002128 -0.000933934 0.0021732 -0.000117461 0.00179705 -0.00143551 -0.00328499 -0.0027818 0.000518679 0.00134141 0.00454762 -0.000778806 0.00198887 -0.00380326 0.00528776 -0.0043925 0.00105105 0.00302401 -0.000342076 -0.00139392 -0.00177544 -0.00283827 -0.000956135 0.00121804 0.00557173 0.00164731 -0.00127368 0.00262715 0.00311231 0.00439628 0.00142879 0.00441889 -0.000165701 -0.00520586 -0.000761078 0.00159508 -0.00580665 -0.00289895 -0.00392667 -0.000323217 0.00154586 -0.0046277 -0.0016551 -0.00406182 -0.00396845 -0.000811209 0.00061837 0.00105624 -7.95583e-05 0.00462364 -0.00357538 -0.00185734 0.000109514 0.00121292 0.00206279 -0.00226739 -0.000439317 0.00197409 0.00362944 -0.0030882 0.00198613 -0.000219947 0.00343551 0.00245646 0.000417223 0.000927582 0.00344768 0.000442418 0.00259513 0.00148172 0.000355127 0.00321148 -0.00233613 -0.00514487 0.000367451 4.89009e-06 -0.00226986 -0.00274307 -0.0040476 -0.00230331 -0.00300533 -0.00642599 -0.0017803 0.00167376 -0.000882672 0.00221522 -0.000864929 -0.0017566 -0.00136191 0.00349001 -0.00243253
464 -0.00165313 0.00395458 0.00211887 -0.000307759 0.00276873 0.00566458 -0.000433798 -0.000813561 0.00114759 -0.00201658 0.00414247 0.0017939 -0.0021196 0.00240982 -0.0025077 0.00348601 0.00214024 -0.00129546 0.00456636 -0.00217227 0.000395035 0.00478427 0.0012668 0.0034064 -0.00148167 0.00210496 0.000413107 -0.00249256 -0.000412695 0.0010604 0.00442952 -0.00183079 -0.00445346 0.00140462 0.00111952 0.00293218 0.00345768 -0.00338571 -0.00533364 -0.0015191 0.00181039 0.00168789 0.00387764 -0.00257317 -0.000924911 -0.00497362 0.000118165 0.00677216 1.92203e-06 0.000470089 0.00129674 0.0007949 -0.00783914 0.00246523 0.0053635 -0.000141832 -0.00269025 -0.00623721 -0.000569116 0.000884394 0.00394005 0.00362999 0.00173016 -0.00340125 -0.00247103 -0.00260704 0.00332449 0.00365816 0.00266914 -0.00334364 0.000361048 -0.00318454 -0.00150316 -0.00598324 0.0014814 -0.00226046 -0.00317206 -0.00195421 0.00102329 -0.00035461 -0.00223503 -0.00286313 0.00375134 0.00379102 0.000612985 -0.00490951 0.000694953 0.000419122 -0.000160905 0.00219383 -0.00131246 -0.00325836 -0.00119424 0.000193997 -0.000803458 0.00366796 -0.00331336 -0.00126932 0.00205689 -0.00315145 0.00603644 0.00429193 -1.8848e-05 0.00308987 0.00410731 0.00571318 -0.000684449 -0.00481062 -0.00181915 -0.000931639 -0.000479489 0.000376483 -0.000228232 -0.00207697 0.0039998 -0.00422252 0.000773958 -0.000761727 -0.00567681 -0.000211993 -0.00235354 -0.000400481 0.00102595 0.00519685 0.00342736 0.00322777 0.00237551 5.95631e-05
285 -0.00130125 -0.00150277 -0.00157575 0.00252269 0.00113423 0.00357633 0.000761744 -0.000881705 -0.00256288 -0.004528 0.00304278 -0.00105718 4.04922e-05 0.00325176 -0.00394424 0.00279808 0.00731539 -0.000404892 -0.00294284 0.00129324 -0.00198051 0.0008799 0.00277033 0.000249467 0.0044185 -0.00143254 0.000734312 -0.00225786 -0.00332208 -0.00026271 0.0010407 0.00421898 -0.00131207 0.00262056 0.00419759 0.00134819 0.00293792 0.00187478 -0.00129555 0.00175597 0.000908773 0.000774599 -0.00125623 0.00179863 -0.000990397 -0.00237798 -0.000123145 0.00107366 0.00107695 0.0046848 0.000990017 -0.00084456 -0.00553022 -0.00201745 0.00262689 -0.00244381 -0.00242074 -0.00413553 -0.000125363 0.00360532 0.00346536 0.00272706 -0.000490658 -0.0009049 -0.0028311 0.00317446 0.00498622 -0.000357646 0.00339742 -0.00439603 0.000345062 -0.00296713 0.000150638 -0.00182335 -0.00390059 0.00188687 -0.00399486 0.00106481 -0.00292647 0.00235167 0.000649441 -0.00138112 0.00133717 0.0026277 -0.00503996 -0.00343554 0.00376034 -0.00265475 -0.0038341 0.00326372 0.00173126 0.00235201 -0.0018717 0.00117571 0.000378175 0.00380702 0.00153165 0.00462556 -0.000283358 -0.00305014 0.0041323 0.00191186 -0.000848383 -0.00151024 -0.00155324 0.00647109 3.19536e-05 -0.00506624 -0.00166974 -0.000305862 -0.00500078 0.00454386 -0.00292861 0.00158906 -0.000818949 -0.0032926 -0.00373903 0.00297724 -0.000804018 -0.00400631 0.0020129 0.00275168 -0.00219245 0.000631391 0.00118646 0.00163611 0.00181071 0.00138839
291 -0.00369911 0.00526892 -0.00171076 0.000568989 -0.00102921 0.00358459 -0.00275952 0.000857625 -9.62896e-05 -0.00753889 0.00453065 0.00244026 -0.00292387 0.00012837 -0.00398644 0.000494307 0.00759737 0.00332074 0.00231913 -0.000791344 0.00356949 0.00408003 -0.000417066 -0.00244443 0.00349882 -0.00297831 0.00114211 -0.000844119 0.00333849 -0.0010239 0.00078426 0.00473297 -0.00624607 0.00596665 -0.000231256 0.00283756 0.0005459 -0.00581454 -0.00467881 -0.00254541 0.00333769 -0.0025828 0.00465865 -0.000809021 0.00246843 -0.00296447 -0.000236809 0.00656419 -0.0011387 0.000940383 0.000721728 0.0075359 -0.00595435 -0.00305237 0.000137799 0.00291306 -0.00108198 -0.00474167 -0.000826954 0.00176595 0.000755498 0.00336005 -0.000859461 0.00187464 -0.000467632 -0.00235859 0.00300219 0.00498428 0.00229905 0.000500972 0.000590308 -0.00660323 -0.00263681 -0.00700837 0.00333654 0.00249391 -0.00479672 -0.00201339 -0.00163852 -0.00476079 0.000860966 -0.00723756 -0.00213825 -0.00372615 -0.0022595 -0.0024745 0.00347254 -0.00182796 0.000373888 0.00497341 -0.00465814 0.00232206 0.0037695 -0.00422276 0.005848 0.00614366 -0.00155815 0.00300305 0.00671899 0.00184415 0.00633132 0.00156517 -0.00485758 -0.0031264 -0.000542628 0.00174658 0.00318426 -0.00700095 0.00221953 -0.000304527 -0.00275046 0.00632813 -0.00471141 0.00468243 -0.00201065 -0.00825295 0.000659887 0.00254741 -0.00188599 -0.000968218 -0.000169822 -1.12151e-05 0.00138056 -0.00126458 0.00474007 -0.00116397 -0.00138462 0.000701858
247 -0.00501053 -9.47016e-05 0.00108797 0.000198332 -0.000282801 0.00800544 0.00318202 -0.00110015 0.000516285 -0.00358596 0.00133115 -0.000965271 0.000593916 0.000830438 -0.000785669 0.0054004 0.0126399 0.00305711 0.00202897 0.00441897 -0.00182269 0.00839975 0.00396907 0.000166039 0.00291404 -0.00183501 -0.00530784 0.000545679 0.00398476 -0.00379233 0.00298653 -0.00191249 1.01247e-05 0.00440861 0.00524575 -0.0019751 0.000969156 -0.00331062 -0.00335623 -0.000299407 0.00684113 -0.00255985 0.00619613 0.000730959 -0.00342654 -0.00718522 0.00204173 0.00415863 0.00469675 0.00260908 -0.000419238 0.00569522 -0.00954754 0.00384896 0.00514767 0.000632936 -0.00174555 -0.0117079 -0.00565727 0.000133771 0.00626357 0.00162316 1.28129e-05 0.00338281 -0.00392929 -0.000931121 0.00911749 0.000984568 0.000377448 -0.00218187 -0.00549983 -0.00683269 0.000744767 -0.00597309 -0.00274333 -0.00220741 -0.00445229 -0.00246981 -0.00478545 -0.00336717 -0.00627506 -0.00585121 0.00160172 6.92644e-05 -0.000184223 -0.00865555 0.00227423 -0.00461534 -9.75948e-05 0.00383376 -0.00687325 -0.00479683 0.000932305 -0.00043306 0.00452428 0.00217747 0.00375588 0.00231516 0.00406896 0.00315268 0.00743644 0.00533196 -0.00614178 0.00383554 -0.00279303 0.00425952 0.0016464 -0.00494297 0.00257083 -0.00363091 -0.00173376 0.00630741 -0.00618609 0.00353193 0.00426946 -0.00634009 0.00294252 -0.00026527 -0.010216 -0.00780569 -0.00295138 -0.00298996 0.00341868 0.00256577 -0.0012393 0.00395201 0.00363772 0.000829843
158 -0.00147243 -0.00170556 0.000888153 -0.00156224 -0.00372451 0.00186741 0.0019055 -0.001524 -0.00359834 -0.000642144 -0.000393523 -0.000959942 -0.00155822 -0.00369683 -0.00145177 0.000380942 0.00182166 -0.00331355 -0.00164872 0.000101006 -0.000336698 0.0012364 0.00415165 0.000936677 0.00375723 0.0007112 0.00249844 -0.0033573 -0.00256001 0.000426496 0.00428887 -0.00285811 0.000697921 0.0039865 0.00400756 0.00136791 3.21892e-05 -0.00233696 -0.00652156 0.000445023 0.0022266 -0.00154444 0.00363566 -0.00278365 0.0016736 -0.00574392 -0.00193973 0.00329063 0.000280764 0.00468037 0.000934115 0.00169411 -0.00552297 0.00156247 -0.000325683 -0.000282592 0.00117027 -0.00509472 -0.000174975 -0.00268626 0.00509519 -0.00165024 -0.00121018 -0.000873274 0.000191596 0.00260611 -0.000429862 0.00356177 -0.00109099 0.00100508 -0.00556556 -0.000594602 0.00414824 -0.00585368 0.000119452 0.00277028 -0.000725581 -0.0037071 0.000621962 6.28018e-05 -0.000473456 -0.00253514 0.00418407 0.00142877 -0.00017901 -0.00591302 0.000322038 -0.00176969 -0.00501857 -0.00120386 -0.00132326 0.00257146 0.00401657 0.000127897 0.00326631 -0.000168107 -0.000250512 -0.000388684 0.0055775 0.00251001 0.00599985 -0.00174797 0.000884742 0.00115103 -0.000932385 0.00515772 0.0014993 -5.85463e-05 0.00151273 -0.000690885 0.000210626 0.00220203 0.000323504 -0.000163562 -0.00023656 -0.00279547 -0.00115946 -0.00157993 -0.00458317 -0.00641829 0.00168671 0.00197479 -0.00281156 0.0052279 0.00338433 0.00358635 0.00115514 -0.00329561
374 -0.000304166 0.00169122 -0.0033321 0.00103469 -0.00271912 0.00484273 0.000736978 -0.0021118 -0.00147835 -0.0060048 -0.000802244 0.00210932 0.00350287 0.00234046 -0.000619137 0.00313864 0.00809742 -0.000437947 0.00205863 -0.00310629 -0.0011695 0.00690653 0.00502904 0.000855119 -0.000424166 -0.00266717 -0.00394074 0.000782686 0.00294456 -0.00508217 0.00496476 0.00106667 -0.00312074 0.00176409 0.00502669 -0.000132268 -0.00181215 -0.0031817 -0.00109393 0.000250066 0.00273563 0.00441796 0.00608449 -0.00367115 -0.000897696 -0.00104462 -0.00256767 0.00200321 0.00422979 0.00523402 -0.00508776 0.00139926 -0.0080504 -0.000663355 0.00387826 0.00184316 -0.00554659 -0.00291717 0.000912478 0.00180708 0.00437605 0.00390307 -0.00124639 0.000140792 -0.00250724 -0.00409941 0.00652189 0.00154974 0.00467184 -0.00274183 -0.00602865 -0.00588456 0.00264013 -0.0035828 0.0028323 0.000911322 -0.0032812 -0.00294538 0.00187868 -0.00393286 -0.00382494 -0.00462842 0.00113919 0.00161734 -0.0057269 -0.00252686 -0.00149004 -0.00245818 -0.00361569 0.00449264 -0.00643836 0.00042792 0.00296066 -0.00590388 0.00330233 -1.00421e-05 -0.000805152 0.00271551 0.007947 0.00347849 0.00646796 0.0038863 -0.0024221 0.00225186 0.00182235 0.00283791 0.0020068 -0.00118283 0.00342086 -0.00181464 -0.00562391 0.0054255 -0.000384039 0.00316304 -0.000396378 -0.00646562 0.00113696 0.000860346 -0.00461099 -0.00499695 -0.0011329 0.00266061 -0.00049781 0.00294313 0.00200726 0.00552228 -0.000889389 -0.000533891
444 -0.00205502 0.00206192 0.00283312 -0.0013777 0.00221299 0.00669972 -0.00294943 0.000958225 -0.0033512 -0.00153727 0.000942031 -0.00144257 -0.00178216 -0.000692679 -0.00408133 -0.000796847 0.00227516 -0.00177648 0.00481411 0.00241562 0.00390268 0.00331625 0.00270445 -0.000567729 -0.00148305 -0.00410591 -0.00280324 7.62568e-05 0.00162521 -0.00434529 0.00657621 0.00392859 -0.00160523 0.000221746 0.00026959 -0.00166367 -0.00208144 -0.00466428 -0.00227974 0.000964645 0.00186811 -0.00285406 0.00564003 -0.0014982 -0.00197583 0.00151163 -0.00376134 0.000473614 0.000575326 0.00310155 -0.0027545 0.00529265 -0.00684794 0.00192576 0.00315847 -0.00243466 -0.00473243 -0.00224191 0.000551267 -0.000505377 0.000834303 0.000667433 0.00169214 -0.00315069 -0.00153603 -0.00179599 0.00338829 -0.00161541 0.00221788 0.000418052 0.00131449 0.000592872 -0.00184579 -0.00505675 -4.3995e-05 0.000973795 -0.00265169 0.00291309 -0.000997159 -0.00526104 -0.00422763 -3.65457e-05 0.000740672 0.00313003 -0.00328635 4.0112e-05 0.00118371 -0.00244466 0.000903841 -0.00157888 -0.0041511 0.00258246 0.000248494 -0.00346595 -0.00188236 0.00575318 0.00136831 -0.000240746 0.00068594 0.00414519 0.00583315 -0.000730108 0.000887818 -0.00168836 0.00239146 -0.000483256 0.00352076 -0.00427446 -0.00281541 -0.00200099 -0.00580695 -0.000577409 0.000882396 0.00173486 -0.00179757 -0.00177606 -0.00284073 -0.00160636 -0.000630161 -0.00209474 7.72202e-05 -0.00174353 0.00266275 0.00436759 0.00012661 -0.00140289 0.0014063 0.00357367
104 -0.00483486 0.00354838 -0.00466366 -0.00239692 -0.00166925 0.0027051 0.00361962 -0.00154557 -0.00422334 -0.0015884 0.00567431 -0.00228374 -0.0016024 0.00134224 -0.000566299 0.00124671 0.00646714 -0.000604957 -0.00129116 0.000557911 -0.00321872 0.00557715 0.00443435 -0.00237721 0.00483536 -0.00422982 0.00277106 0.000675203 0.00167433 -0.00610762 0.00674768 0.00360294 5.57948e-05 0.0062954 0.000453216 0.00343362 0.000619908 -0.00430624 -0.00434133 0.0015442 0.00347233 -0.00106449 0.00445904 -0.0038613 0.00272583 -0.00532537 0.00197582 0.00734443 -0.000909387 0.00129907 -0.00393309 0.00260279 -0.00315451 0.00261253 0.00706708 -0.00146862 0.000692273 -0.00795421 8.86291e-05 -0.00254432 0.00360263 0.00665618 -0.00143255 0.0017666 -8.74721e-05 0.000610502 0.0062265 -0.00250536 0.00505026 -0.00439461 -0.000877206 0.000127406 -0.000133002 -0.000658051 0.0019315 -0.00394375 0.000855388 0.00174406 -0.00148773 -0.00414698 -0.00486772 -0.000841821 -0.00153525 -0.00242732 0.0007165 -0.00586339 0.00489422 -0.0026941 -0.00522452 0.00291416 -0.00583474 0.000671999 0.00302821 -0.00471164 0.00126377 0.0049475 -0.00305802 0.00565351 0.00554597 0.00302722 0.0013996 -0.00135788 0.00028122 0.00194879 0.00365558 0.00421304 -0.000661827 -0.000337084 -0.00183798 0.00369712 -0.00154867 0.00518815 -0.000259935 0.00103235 -0.00107387 -0.0075589 0.000495252 0.00163251 -0.00654691 -0.0017496 0.000537287 0.00168642 -0.00258831 0.00304063 0.00241867 1.41756e-05 0.00574201 0.00394707
346 -0.00500418 0.000643749 -0.00439276 0.00209927 -0.00402166 0.00243304 0.00103398 -0.00135232 -0.00309258 -0.00473709 0.00558829 0.0019488 -0.000151613 -0.00346951 -0.00342252 0.00157923 0.00839659 -0.000535245 -0.000256558 -0.000652285 -0.00281153 0.00451821 -0.00213934 0.00191276 -0.00266854 -0.00168733 0.00178644 0.00277765 -0.00117518 1.56517e-05 -0.000246049 -0.0014387 -0.0032784 0.00216746 0.00616594 0.000791585 0.003871 -0.00352017 -0.000331724 0.000922237 0.00294268 0.00362881 0.00504145 -0.00192668 -0.0032693 -0.00111338 -0.00117302 0.00705549 -0.000562972 -0.000430529 -0.00140335 0.00229238 -0.00248673 -0.00193109 0.00459025 0.00399263 0.00076789 -0.00438596 0.000900568 -0.00345335 0.00451575 0.00480366 0.00409012 -0.00222203 0.00247578 -0.000794668 0.00488504 -0.00143521 0.0040607 -0.000852854 -0.00410968 -0.00104745 0.00338288 -0.00628456 0.00158367 0.00121924 0.000298705 -0.00166168 0.00230839 -0.00192842 -0.00526471 0.000756951 0.00215136 0.000737665 -0.00212967 0.000663806 0.00477121 -0.00380718 0.000500173 0.00118834 -0.00138688 0.00151339 0.00369763 -0.000860529 0.00464138 0.0054011 0.000359607 0.00276203 0.00580243 0.00394166 0.00234044 -0.00175885 -0.00120462 -0.0034884 0.00246196 0.00357598 0.00373456 -0.00262899 -0.00215241 -0.00106181 -0.00166135 0.00240354 -0.00222397 0.00128291 0.00256885 -0.0045641 0.000877318 0.00156058 -0.00101624 -0.00462993 0.00285927 0.00227773 0.00325734 0.00210079 0.0038891 0.00277239 0.00258888 0.000210765
2 0.000782228 0.00295547 0.00161232 0.00117909 -0.0027708 0.00649084 0.00117764 -0.00236398 -0.00397306 -0.00157351 0.00389141 -0.00051693 -0.000697087 0.00164361 -0.00552004 -0.000615923 0.00454919 0.00131496 -0.00146725 0.000831074 0.00328633 0.000256205 0.00186878 -0.00146702 0.00167305 -0.000759355 -0.00178121 0.000640985 0.00211094 -0.0029685 0.00356984 0.000776396 -0.00189795 0.0038375 0.00191932 0.00370046 0.0033082 -0.00599571 -0.00687324 -0.00149742 0.00598869 -0.00127701 0.00132627 0.000368297 -0.00379847 -0.0012081 0.00140934 0.00187507 0.00144641 0.00199627 -0.00447833 0.0063111 -0.00940901 0.00284973 0.007085 0.00149175 -0.00118158 -0.00316038 0.000578695 0.00331093 -0.000411407 -0.000617963 -0.0017103 0.00166715 0.00328904 -0.00213086 0.00348995 0.003959 -0.000116573 -0.0016054 -0.00437634 -0.00133249 -0.000867207 -0.00595504 -0.00408558 -0.00470924 -0.00446402 -0.00353128 0.000545196 0.000357537 0.00164521 -0.00599747 -0.00323398 -0.00324883 9.28192e-06 -0.00430185 0.0039298 -0.00163399 0.00185889 0.00276832 -0.00116109 -0.00212534 -0.00152272 0.000647879 0.00190097 0.00574143 0.00328816 0.00377336 0.00764482 -0.00240903 0.00162529 -0.00139034 -0.000362166 -0.00119282 0.00174569 0.00578366 0.000268467 -0.000365513 -0.00249931 -0.00299407 -0.00608395 0.00211959 -0.000357579 0.00431893 -0.00178399 -0.0079868 0.00139757 0.00108905 -0.0039707 -0.00575102 -0.00369341 -0.00180472 -0.00178076 0.00596598 -0.000934178 -0.000582272 0.000966081 -0.00364996
422 -0.000686954 0.000376213 0.000962495 -0.000243411 -0.00283133 0.00638028 0.00299582 -0.00257686 -0.000385709 -0.00358611 0.00269164 0.000967931 0.00324686 -0.00147837 -0.00601989 -0.000314795 0.00704499 0.000769327 0.00287702 -0.00226105 0.00079266 0.00437011 0.00408214 -0.000258188 -0.00301889 -0.00333075 0.000759273 0.00199975 0.000340423 -0.0054585 0.00234676 0.000755576 -0.00106195 0.00165386 0.000611664 -0.00130295 0.00281747 0.00211575 -0.00404911 0.00323183 0.00206591 0.00236756 0.00180706 -0.000107491 0.00323328 0.00155068 0.000994681 0.00338343 0.0044899 0.00421202 -0.00194957 0.00549314 -0.00763561 -0.00269175 0.0021124 0.00110824 0.000286778 -0.00577098 0.00211578 0.000320905 0.00560733 0.000148456 0.00270873 0.00103568 -0.00292678 -0.00399795 0.00617611 -0.000278865 -0.00214448 -0.0035205 -0.00111769 -0.00459659 -0.00260171 -0.00377106 0.00182754 -0.000178359 0.0030487 3.24539e-05 -0.00323205 0.00191306 -0.000438628 -0.00357152 0.00358791 0.00169259 -0.00316027 -0.00321936 0.000855197 -0.00530913 0.00156995 0.00217896 0.00161707 -0.000913901 -0.000417759 -6.59845e-05 0.00292149 0.00236297 0.00411661 0.00234324 0.00198302 0.00127828 0.00231658 0.00443111 -0.00390002 0.00200225 0.00242943 0.0063635 0.000725723 -0.00565065 0.00171892 0.00138716 -0.00288028 0.0013858 -0.0031089 0.00329422 0.00442014 -0.000764249 -0.00237497 -0.00250133 -0.00314469 -0.00419995 -0.000725616 -0.000720855 -0.00345762 -0.0012124 -0.00030023 0.00363476 -0.00139865 0.00167404
372 -0.00511724 0.00150282 0.000416479 0.000647498 -0.00383617 0.00683204 0.00248281 0.00398125 -0.000512653 -0.00544857 0.0026038 0.00274447 0.00124354 -0.00102074 -0.00129994 8.79256e-06 0.00418031 -0.000396009 0.00240078 -0.000399367 -0.00288281 0.00169658 -0.000506282 0.00328934 8.98641e-06 -0.00146269 -0.00455999 0.00287428 -0.00146027 -0.00726391 0.00705503 -0.00254645 -0.00105247 4.81312e-05 0.00296379 -0.000598038 -0.00286224 -0.00608874 -0.00787858 0.00128984 0.00427585 0.000179257 0.00247886 -0.00228466 -0.0039194 0.000449975 0.00187416 0.00289878 0.00244149 -0.00174967 -0.000117291 0.00679279 -0.00708522 -0.00316327 0.00412719 -0.00281024 -0.00123349 -0.00540099 -0.00236656 -0.00293237 0.00477756 0.000771811 -0.00252869 -0.000314535 -0.00210022 -0.000990732 0.00306001 -0.00104111 9.29661e-05 -0.00143694 -0.000362272 -0.0019444 -0.00189652 -0.00710046 0.000887051 -0.0040693 0.00115282 0.000174849 0.00182246 0.0003582 -0.000827031 -0.00267642 -0.00144524 0.00172888 -0.000848816 -0.00316273 0.00359391 -0.00587187 0.0019285 0.0047909 -0.00169278 -0.000734873 -0.00109759 -0.000910101 -0.000228211 0.0041113 -0.000102017 0.00447141 0.00356034 0.000557921 0.0062419 0.00175179 0.000953833 0.00389693 0.000569778 0.00761328 0.0044863 -0.000701125 0.00262932 0.001882 -0.00227405 0.00512442 -0.00330985 0.000908843 0.000958501 -0.00807976 -0.00045404 -0.000913668 -0.00253703 -0.00701614 -0.00207275 0.00277427 4.84703e-05 0.000149879 -0.00059379 -0.000919322 0.00518769 -0.00360522
521 -0.00513814 -0.00108218 -0.00200824 -0.00267282 0.00375697 0.00132545 0.00193329 0.000799523 -6.36359e-05 -0.00128142 0.00327997 -0.00165544 0.00361034 0.000735552 -0.00259285 0.000324077 0.00759271 0.00234192 -0.0014675 0.00197676 0.000792641 0.00367558 -0.00161388 0.00019788 0.00158534 0.00026193 0.00182095 -0.00183311 0.00105736 -0.00184703 0.00225864 0.000491905 -0.00521869 0.00356738 0.00260962 -0.00181379 -0.00180918 -0.00149648 -0.00752715 0.000519437 -0.000382648 -0.00225549 0.00296982 -0.00230039 -0.00198918 -0.000193157 -0.000546542 0.00315957 -0.000962217 0.00422148 -0.00373271 0.00399214 -0.00949294 3.12605e-05 0.00786451 0.00187097 -0.00439031 -0.00871294 -0.000521291 -0.00377671 0.00406587 0.00226887 -0.0020476 -0.00311791 -0.00416447 -0.00424902 0.00431419 0.00284983 -0.00060435 -0.0044277 0.000822062 -0.0066761 0.00080032 -0.00555942 0.00183656 -0.00332705 0.00013479 -0.00186276 -0.00114959 -0.00323496 -0.00282753 -0.0062072 -0.00188907 0.00041465 0.000916488 -0.00675141 -0.000501303 -0.00421418 -0.00222494 0.00385003 0.000771448 0.000502122 -0.00255753 0.000190947 0.00128447 0.00316785 0.0032436 0.000362017 0.00686059 0.00172263 0.00512395 0.0048484 -0.00148391 0.000336764 -0.000973729 0.00279755 0.00467716 -0.00109845 0.00316866 0.0028463 -0.00402996 0.000118584 -0.00281578 -0.000885608 -0.000105138 -0.00356671 -0.00207652 0.00178091 -0.00815422 -0.00704082 0.000478496 -0.00146286 0.00109353 0.00601491 0.00335012 0.00434592 0.00267754 0.00314933
233 0.00203243 0.000229784 -0.00028775 0.00317284 0.00392724 0.00642944 -0.00117195 -0.000842385 0.000223948 0.000547258 0.00542498 0.00392203 -0.000676533 0.00096585 0.00075042 0.00547002 0.00580732 0.00120012 0.00420417 0.00264528 0.00352346 0.0010688 -0.000636413 -0.000206535 -0.00200398 0.000664547 0.00284659 0.000919757 0.000184802 -0.00194295 0.00358826 -0.00128491 0.00131809 0.00440787 -0.000930961 -0.00095194 0.00324476 -0.00494831 -0.00138397 0.000718586 -0.00100615 0.000757531 0.00313306 -0.00257469 -0.00310557 0.00151441 -0.00375205 0.00389998 0.00304764 -0.00234607 -0.00407669 -0.000999621 -0.0058641 -0.00145234 0.00305157 0.0033247 -0.0022761 -0.000381703 -0.00465619 -0.00135978 0.00324001 0.000210296 0.00126995 0.00345558 0.00253965 -0.00287466 -0.000493018 -0.00221335 0.00299224 -0.00011774 0.00114084 -0.00245025 0.00104326 -0.00279727 0.00252811 -0.00431224 0.00264263 0.00123366 -0.00433566 -0.00369279 -0.00314658 -0.00106162 0.00205052 -0.00188462 -0.00199857 -0.00248658 -0.000481452 0.00126623 -0.00409852 0.00522446 -0.00252697 -0.00442559 0.00401133 -1.54485e-05 -0.00152323 0.00309601 -0.00167887 0.00398818 0.00516515 0.00104714 0.0041397 0.00196045 -0.00439392 -0.000179052 0.00214446 0.00525469 0.00370526 -0.00087516 -0.00278167 0.00319051 -0.00534982 0.00230922 0.00193373 0.0022091 -0.00254439 -0.00604198 0.00182941 -0.000514081 -0.00522691 -0.00375359 -0.00174525 -0.0016864 -0.00273981 0.000472384 -0.00233741 -0.00183701 -0.00200287 -0.00120794
308 -0.00332705 -3.93738e-05 0.00139 -0.00015312 0.000440422 -0.0002652 -0.00346288 -0.00126012 0.00135706 -0.00384634 0.0023635 0.00408273 -0.00301867 5.66056e-05 -0.000342404 0.00213206 0.00644755 0.00391763 0.00085991 0.00353525 -0.000867381 0.00021218 0.00377611 -0.000963756 0.00285066 -0.0040581 -0.00447449 0.000961477 0.00362918 -0.00523312 0.000508975 0.00389718 -0.00533075 0.00542626 0.00290246 -0.000511653 0.00303598 -0.00214584 -0.00335167 0.00299186 0.00437488 0.000981404 0.00385419 -0.00414757 -0.000935519 -0.000529149 -0.000282195 0.00681505 0.00432095 0.00485129 -0.00382178 0.00375621 -0.00753991 0.000826168 0.00643844 0.000741713 -0.0046177 -0.00368132 -0.00463846 0.000208775 0.006648 0.0034488 0.00410607 -0.00305494 -0.000251354 -0.00388342 0.0072089 -0.00120821 0.0015246 -0.00536892 -0.00354961 -0.00106694 -0.00251554 -0.00476366 0.00260033 0.00182976 0.00120491 -0.00344947 0.000516212 -0.00505677 0.00193623 -0.000583262 -0.000182273 -0.00336935 0.001801 -0.00478943 -0.000329993 -0.0027355 -0.00476143 0.00278322 -0.0052265 -0.00171415 0.00344022 -0.00522241 0.000154058 0.00313257 -0.000597668 0.00519491 0.00691945 0.00350346 0.00214141 0.00344183 -0.00370278 0.00357011 -0.00198312 0.00640852 -0.000500648 -0.00133962 -0.000817597 0.00233125 -0.0017813 0.00574909 -0.00254557 0.0025654 0.00211464 -0.00721808 0.00132031 -0.00323352 -0.00690117 -0.00575741 0.00282462 -0.00371676 0.00392888 0.00213594 0.00220078 -0.000546094 0.0027678 0.00176532
418 -0.00261687 0.00210458 0.00185677 -0.00137348 -0.00347188 0.00730204 -0.00014951 0.00232166 -0.00374575 0.000114669 0.000512947 0.00169944 0.000483966 -0.00132041 -0.00636714 0.00281398 0.00227872 0.00130434 0.00327106 0.00433331 -0.00290207 0.00699875 -0.000785057 0.00290498 0.00333465 4.51776e-06 -0.00275109 0.00098167 0.0028692 -0.000510192 0.00423748 0.00305289 -1.30999e-06 0.00467106 0.00311969 0.00335745 -0.00207219 -0.00460612 -0.00140873 0.000505939 0.00429445 0.000602389 0.00669068 -0.000490981 -0.00105968 -0.00167233 -0.0024285 0.00117554 0.00276305 -0.00249775 -0.00308951 0.00743199 -0.00670952 0.00382728 0.00457739 0.00101312 -0.00163687 -0.00674907 -0.00528463 0.00133887 0.00450814 0.00418154 -0.00249457 -0.00219298 -0.00177858 -0.000903566 0.00539536 0.00086638 0.000762832 -0.00259219 -0.0018095 -0.00219882 -0.00301412 -0.00609586 -0.00159083 -0.00430605 -0.00218921 0.00281085 -0.00127514 -0.00302323 -0.00510097 -0.00422811 0.00437673 0.00136367 -0.000423185 -0.000845703 0.00352595 -0.0059503 -0.000266886 0.00342963 -0.00520642 0.00278552 0.000992332 -0.00349948 0.00282119 0.0013742 9.67457e-06 0.00472273 0.00581395 -0.000166531 0.00580308 0.00570877 -0.00400885 -0.000917735 0.00184765 0.00527177 0.00246847 0.000373948 0.00435716 -0.00184817 0.000909439 0.00147712 -0.00264222 0.00135278 0.0013666 -0.00738619 0.000478909 -0.000673395 -0.0074489 0.000153495 0.0018971 0.000668817 0.00327287 0.00383165 0.00174943 -0.00141561 -0.000969299 0.000632409
99 -0.00195908 -0.000332323 -0.00392356 0.000728198 0.00249644 0.00722321 0.00208313 -0.000972192 0.000854097 -0.00761063 0.000397016 0.00136466 0.00274302 0.00106061 0.000145481 -0.000453007 0.00541518 -0.00117037 -0.00110267 0.00442381 0.000832764 0.00383129 0.00112071 -0.00153675 0.00446662 -0.000954679 -0.00201748 0.00324491 0.00135856 -0.00178313 0.00174755 -0.000350341 -0.00265772 0.00311087 0.00372387 -0.00317198 0.00395098 -0.00156713 -0.00406334 -0.000608627 0.00341628 0.00402075 0.00621462 -0.00152077 -0.00225408 -0.000669797 0.00135833 0.00516176 0.00414876 0.00185143 0.000512321 0.00683932 -0.00795307 0.000494176 0.00386179 0.000355879 0.00190724 -0.00809729 -0.00497495 -0.000551146 0.00225597 -0.000127789 -0.00230021 0.00238104 0.00300842 -0.00157679 0.00118388 -0.000379466 0.00166937 -0.00477238 0.000197385 -0.00562392 0.00290737 -0.00163909 0.00269751 0.00247892 -0.00212952 -0.00187652 -4.33608e-05 -0.00296207 0.001149 -0.00597097 -0.00227188 -0.00388243 -9.95303e-05 -0.00113254 0.00533816 -0.00185675 -0.00396056 0.00544213 0.000973574 0.00164143 0.0043624 -0.0059192 0.00432073 0.00400377 0.0030077 0.00517293 0.00646412 0.00108465 0.00748505 0.00229718 -0.000325493 -0.00146004 0.00285237 0.00514663 0.00084075 -0.000506201 0.00455023 0.00141524 -0.00524783 0.00547258 -0.00574345 0.000972771 0.000646234 -0.00814416 0.000107334 0.00271264 -0.00135765 -0.00556132 -0.00122469 0.00276363 -0.000145074 7.35561e-05 0.00387843 0.000219133 0.00246593 -0.00260188
316 -0.00259795 0.00395563 -0.00152934 -0.00364523 -0.00221336 0.00596463 -0.00323705 0.0029076 -0.00454616 -0.00155058 0.00413476 0.000789379 0.00160931 -0.00184115 -0.00354491 0.00583737 0.00352355 0.00119981 0.000913872 0.00227029 -0.00267186 0.00661733 0.00416553 0.000782345 0.00149715 -0.00402045 -0.000964881 0.000251069 0.00432882 -0.00492117 0.00634874 0.00234227 -0.00197143 0.0062388 0.00425353 -0.00346436 0.00169655 -0.00552163 -0.00447985 -0.00337319 0.00523241 -0.00173386 0.00278491 0.00133215 -0.000672381 -0.000143506 -0.000823359 0.00599557 -0.000849063 -0.00245957 -0.00538188 0.000661068 -0.00615213 0.00053949 0.00723356 0.00195337 -0.00458988 -0.00166371 -0.00270988 -0.00422109 0.0060448 8.94782e-05 0.00309036 -0.00227848 -0.00111135 0.000132451 0.00787293 2.59459e-05 0.00289361 -0.00123371 -0.00476586 -0.000408161 0.00377008 -0.00732998 -0.00416271 -0.000649035 0.00178418 -0.00191553 -0.00276381 0.00157344 0.00144209 9.82598e-05 -0.00159132 0.000539614 -0.00258922 -0.00580715 0.00335663 -0.00221802 -0.00492429 0.00540047 -0.00481231 -0.000846918 0.00399355 0.001966 0.00253746 0.00111441 -0.00180496 0.00574575 0.00682386 0.00360726 0.00278858 -0.000700704 -0.00340526 0.000963091 -0.00190536 0.00753288 0.00268403 -0.00605669 0.00075024 0.00121632 -0.00328894 0.00030078 -0.00231834 -0.000702542 0.000271046 -0.0040134 0.00178609 0.000587046 -0.00660979 -0.00222905 0.00238159 0.000340705 0.00197404 -0.000648229 0.00130844 0.00257274 0.00431938 -0.00336346
53 -0.00623533 0.00375938 -0.00338786 -0.00217797 -0.00256066 0.00501091 -0.000211736 0.00293638 0.000989326 -0.00388992 0.00718157 -0.000548662 0.000817446 -0.00277991 -0.00147828 0.00236696 0.0106796 -0.00285106 -0.000833334 0.00406802 0.00236629 0.0048266 0.00444301 0.00114803 0.00172795 -0.00306376 0.00207438 -0.000731558 0.0047161 -0.00694375 0.00874523 0.00204748 -0.000237223 0.00416487 0.00673586 -0.00252908 0.00173194 -0.0049223 -0.00332901 0.00135491 0.00437215 0.0016625 0.00406051 0.00146242 -0.001344 -0.0073638 0.00160688 0.00568171 -5.82883e-05 0.00100527 -0.00640798 0.00245418 -0.0118887 -0.00220689 0.00527433 0.00208447 -0.000945537 -0.00598984 -0.00327623 -1.47108e-05 0.00491725 0.00645956 0.00339823 0.00284582 -0.000736265 -0.00225349 0.00919686 0.00357077 0.00554393 -0.000327015 -0.00329915 -0.00322036 0.00445977 -0.00723057 -0.0038673 -0.00442448 -0.00202718 -0.00326153 -0.0012913 -0.00531435 -0.00330744 -0.0048922 -0.0020795 -0.00237699 -0.00456584 -0.00729086 0.00163957 -0.00185719 -0.00442378 0.00271311 -0.0011198 -0.00402694 0.000645152 -0.000742133 0.00540078 0.00495356 -0.000879467 0.00329234 0.00807863 0.00545687 0.00787142 0.00557729 -0.0016682 0.00364019 -0.00295474 0.00614947 0.00391864 -0.00647961 -0.00227719 -0.00355143 -0.000993498 0.00714404 -0.000429643 0.00513722 0.00232893 -0.00940891 0.000174111 -0.000215307 -0.00755634 -0.00529461 0.000555028 0.0022679 -0.00282666 0.000232759 -0.000917455 -0.00155426 0.00315459 -0.000724954
70 -0.000556839 -0.00111754 -0.00481219 -0.000222235 -0.00168389 0.00491163 0.00220374 0.00174635 0.00180176 -0.00203679 0.00509057 0.00106342 0.00146488 -0.000862485 -0.00406595 0.0031898 0.00640058 0.00338819 0.000518608 -0.00223965 0.00322982 0.00678404 0.00402062 0.00332425 0.0025128 -0.00254822 0.00195214 0.00113219 -0.000574198 -0.00511164 0.00507147 -0.000132356 0.00165333 0.00546927 -0.000445906 0.00069209 0.00198229 -0.000351992 -0.00264128 -0.00215109 -0.00122602 -0.00260941 0.00594732 0.00338562 0.00368973 -0.00356699 0.000803996 0.00240104 0.00428143 0.000680113 -0.00423066 0.00640123 -0.00846642 -0.0033249 0.00532461 0.00272447 0.000840805 -0.00450258 -0.000156854 0.00256254 0.000327995 0.000696129 -0.0014547 -0.00262747 -0.00408174 0.00224514 0.0039803 -0.00123298 0.000426848 -0.00291362 -0.00032284 -0.00619336 0.00223282 -0.00742476 -0.000772057 0.000259683 9.95012e-06 0.000181242 -0.00473713 0.00111861 -0.0015717 0.000396138 0.000958791 -0.00317244 -0.0048826 -0.00505727 0.000764839 0.00125854 -0.00408408 0.00444181 -0.00536194 -0.00427485 -0.00285229 0.000669924 0.00136546 0.00519 0.00261318 -0.000232052 0.00375249 0.00448831 0.00273953 0.00193612 -0.00127248 0.00423839 -0.0023254 0.00568079 0.00356329 -0.0040581 -0.0030708 -0.00288787 -0.00361312 0.00293664 -0.00546819 0.00107862 0.00418091 -0.00269931 -0.00358346 -0.00284935 -0.00612181 -0.00244836 -0.000695597 0.000216768 -0.00224938 0.000775739 -0.00204449 0.000501692 0.00210414 0.00102814
68 -0.00567865 -0.00120989 -0.00532967 0.00228818 -0.00186499 0.00195116 0.00284853 0.00292949 -0.00461236 -0.00636081 -0.00032806 0.00255832 0.000552185 0.00320126 -0.00280648 0.00188113 0.00766959 0.00131627 0.00206803 0.0007209 0.00231984 0.00477054 0.00227094 0.000879823 0.00447896 -0.000389307 0.000970365 -0.000234876 -9.81082e-05 -0.00544134 0.00538304 0.00420769 -0.00109826 0.00119165 0.00107842 0.00201599 3.77989e-05 -0.00453504 -0.00418621 -0.00402174 0.00535071 0.000205723 0.0068453 0.00316834 -0.00291227 -0.00257152 -0.000499382 0.00113908 0.00102013 -0.000601734 -0.00417809 0.00712194 -0.010736 -0.000938047 0.00548482 -0.000120655 -0.00215577 -0.00542698 0.00171755 0.00192896 0.00614842 0.00561485 0.00191565 -0.00216023 -0.00103597 -0.00300511 0.00710812 -0.000135159 0.000144843 6.86816e-05 -0.00656943 -0.000512891 -0.000181854 -0.00875088 0.00167173 -0.00331662 0.000644071 -0.00214036 -0.00391583 -0.00484063 0.00126197 -0.000161858 -0.00265245 -0.00238055 -0.000854811 -0.00557193 0.00445872 -0.00329304 -0.00459588 -0.000697429 -0.00483444 0.00151865 0.0035442 -0.00325084 0.000384181 0.00398549 0.00235061 0.00315499 0.00611036 0.00302069 0.00748841 0.00328217 -0.00463747 0.00404963 -0.00263845 0.00670624 -0.00200199 -0.00352368 -4.74832e-05 0.00102429 -0.00594591 0.00460654 -0.00275525 0.00365614 0.0051681 -0.00151608 0.000160296 0.0027738 -0.00189752 -0.00472387 -0.00151976 -0.00373939 -0.000766784 -0.0010606 0.00410305 0.00389775 -0.000149377 -0.000688179
264 -0.00491317 -5.53591e-05 0.00163954 -0.0021275 0.00351673 0.00576004 0.00350387 -0.0017344 -0.000884756 -0.00583155 0.00654913 -0.00309985 0.00227833 -0.00294837 -0.00621361 0.000647636 0.0119482 -0.00307957 -0.00184435 -0.00144253 -0.00372251 0.00294411 0.00137588 0.00364408 0.00334648 -0.000124044 -0.00115133 0.000817699 0.00143913 -0.00824026 0.00568258 0.000179096 -0.00485592 0.00497062 0.00474304 -0.00148125 0.00128683 -0.001186 -0.00306387 0.0011719 -0.000427969 0.00267682 0.0069378 -0.00277076 -0.0023919 -0.0044401 0.00149314 0.00864178 0.00268333 0.000257986 -0.00641988 0.00710987 -0.0136366 -0.00214635 0.00950548 -0.00160074 -0.00219965 -0.0055593 -6.00297e-05 -0.00285996 0.00753745 0.000690134 0.00240785 0.000594755 -0.0028897 -0.00380397 0.00458861 0.00580655 0.00484318 -0.00767327 -0.00595386 -0.00459864 -0.00261208 -0.0105376 0.000840765 -0.000683224 -0.004054 -0.00361952 -0.00360823 -0.00144539 -0.000951716 -0.0038827 -0.000431162 -0.00157807 -0.00324702 -0.00833561 0.00330508 -0.00100203 0.00066665 0.00175593 -0.00170168 0.00175374 0.00122197 0.000910505 0.00511436 0.00497047 0.00221887 0.00305089 0.00417969 0.00249763 0.00491276 0.0025547 -0.00661962 -0.00177699 -0.00131668 0.00453314 -0.00106956 -0.0043412 -0.000419692 0.000408258 -0.00508689 0.00230908 -0.00508542 0.00452344 0.00440232 -0.00616331 0.00213748 -0.00108692 -0.00520752 -0.0070837 0.000138363 -0.00309131 0.00258244 0.00533377 -0.000658724 0.00224113 0.00103751 0.00323276
216 -0.00185996 0.00391229 -0.00408833 -0.00226438 -0.00210618 0.00600672 -0.00228961 0.000382235 0.000217693 -0.00210787 0.0050282 -0.000957536 0.00420495 -0.00305947 0.00165003 0.00532776 0.0063481 -0.0033338 0.00413023 -0.00162814 -0.00278325 -0.00101343 -0.00171672 -0.00092037 -0.000882197 0.000259235 -0.00026266 0.00337353 0.00259408 -0.000438312 0.00317651 0.00142493 -0.00490187 0.00513287 0.0022889 0.00334491 -0.00160706 -0.00230783 -0.000187807 -0.00217912 -0.00205513 0.00256456 0.00353994 -0.00155089 -0.00138979 -0.000803547 -0.00376844 0.00580242 -0.0020276 0.000510569 -0.00537919 0.00267203 -0.0015767 0.000182962 0.00117462 -0.00196606 0.00289564 -0.0014093 -0.00140173 0.00100113 -0.000660271 0.00506414 0.00250517 -0.000509714 0.00233795 -0.000432329 0.000167905 -0.00104245 -0.00154303 -0.00109636 -0.000215189 -0.00400772 0.00136913 -0.0066626 -0.00377227 0.00127712 0.000294176 0.000664377 0.00227495 -0.00165456 -0.00152657 -0.00225143 0.000158542 0.002655 -0.0028341 -0.00463891 0.00464543 0.00210841 -0.00252132 0.00387325 0.000942294 -0.000923339 0.00168362 -0.00377692 -0.00107867 7.62246e-05 0.000946029 -0.000377503 0.00500439 -0.000560735 0.00230543 0.001802 -0.00426064 -0.0030701 0.00308156 0.00624386 0.0035462 -5.76718e-05 -0.00309039 0.00158176 -0.000923431 0.00313583 -0.00456848 0.00515296 -0.000754921 -0.00269697 -0.00268719 -0.00215855 -0.00223851 -0.00498215 -0.00325091 -0.00355648 -0.00145774 0.00399408 0.00392049 -0.00225903 0.00341147 -0.000813032
253 -0.0056845 0.00206171 -0.00167777 -0.00433603 -0.00275447 0.00285247 -0.00307551 0.00279643 -0.00375315 -0.00225748 0.00366886 -0.00337162 -0.00265661 -0.00331791 -0.00567452 0.0020367 0.00629568 -0.00109934 0.000141981 0.00399914 -0.00253614 0.00829648 0.00344812 -0.00117799 0.00218875 -0.00354361 -0.00208932 0.00153487 -0.000626317 -0.00290826 0.00865287 -0.00199995 -0.00629923 0.00442136 0.00172964 0.000445227 -0.00231194 0.000414173 -0.00574492 -0.00166766 0.00130045 -0.00198515 0.00468268 0.000644431 -0.00144879 -0.00284812 -0.00269637 0.00839431 0.00471563 0.000783657 -0.00488318 0.00589882 -0.00485444 0.00250622 0.00166857 0.00409196 -0.000711522 -0.00811256 -0.00313613 0.00210871 0.00629758 0.00189346 -0.00164194 0.00302268 0.00102946 -0.000340135 0.00798767 0.00270735 0.0059668 -0.00438291 -0.00052784 -0.00482493 -0.00162109 -0.00269772 -0.000207726 0.00195069 -0.00111123 0.00245798 -0.00332226 -0.00485446 -0.00552094 -0.00481987 -8.47921e-05 -0.00143608 0.000920564 -0.00554983 0.000546752 -0.00633617 -0.00297654 0.0066924 -0.00536927 -0.00504439 0.0053032 0.00139501 -0.000601553 0.00620298 0.00326691 0.00193328 0.0084038 -0.000990326 0.00545291 0.0042499 -0.00277405 0.00384305 -0.000937706 0.00576145 -0.000728168 -0.00160195 0.00319478 0.00328771 -0.00327424 -0.000183654 0.000416885 0.00070745 0.00294814 -0.0051109 0.000530307 -0.00354356 -0.00654593 -0.00210331 0.00242071 0.00269054 0.00333202 0.00385257 -0.00114295 -0.00147647 0.000713217 0.00392315
165 -0.0028235 -0.00208765 -0.00112471 -0.00371453 -0.00301202 0.00127926 -0.00178434 -0.00183058 -0.00443531 0.000973333 -0.00125244 0.00390614 0.000637233 0.0026227 -0.00235447 0.00212871 0.00442425 -0.00172315 0.00357874 -0.000274094 7.54955e-05 0.0058618 -0.00160903 -0.000553962 0.0020871 -0.00197833 -0.00122533 0.00358811 -0.00172085 -0.00275878 -0.000919816 0.00385828 -0.00356393 -0.000215371 0.00296838 -0.00306718 -0.00318632 0.000822811 -0.00485951 -0.0012877 0.00462054 -0.00232669 0.00552029 0.00305091 0.00239124 -0.0046778 -0.00061767 0.00669921 -0.000670761 0.00287175 -0.00339279 0.00145809 -0.00723656 0.000480067 0.000165244 0.000128221 0.00204466 -0.0074488 -0.000745035 0.00157407 0.00357178 0.00058034 -0.000496708 -0.0023729 0.00074957 -0.00306428 -0.000928965 0.00450246 0.00355689 0.000633575 -0.00552547 0.00157238 0.00112461 -0.00216179 0.000838565 0.000468472 -0.000941252 -0.00113682 -0.000685993 -0.00420191 -0.00506023 -0.00366677 -0.00271914 -0.00091202 -0.00277641 -0.00127583 -0.00081188 -0.00438876 0.00174549 0.000957119 -0.00435802 0.00181848 0.00172775 -0.000286211 -0.000362994 -0.000709206 -0.000907144 0.00528372 0.00423643 -0.00277669 0.00481753 0.00458687 0.000169858 -0.00367492 -0.00177143 0.00416646 0.0025805 -0.00562096 0.00250181 0.00152741 -0.00475141 0.00107136 -0.00443362 0.00232435 0.00188042 -0.00263214 0.00106718 0.00296087 -0.00461954 0.00027345 0.00171773 -4.33929e-05 0.00224536 -0.000413312 0.00108015 0.00443411 0.004361 0.0010589
334 -0.00444464 -0.000998802 -0.00231865 0.000800182 0.00289961 -0.000293797 -0.00321456 -0.00170494 0.000148751 -0.00257804 -0.000363153 -0.000582641 0.00173485 0.00194068 -0.00227611 -0.00163896 0.00302901 0.00275108 0.00174515 0.00287886 -0.000709344 0.00121646 -0.00202317 0.0047034 0.00273383 -0.00465054 -0.00127165 0.002201 2.96107e-05 -0.000531931 0.00364757 -0.00104207 -0.00551945 0.00599403 0.0038348 -0.00292263 -0.000721926 0.00204855 -0.0020148 0.00283213 -0.00207406 -0.000116454 0.00190352 0.00185924 0.00326763 0.000775229 0.00174242 0.00674247 0.000289085 0.00412019 0.000664149 0.00439102 -0.00601037 0.00219551 -0.00102577 0.00037604 -0.00449271 -0.00476187 -0.00128995 0.00334748 -0.000357779 0.00139737 0.00266903 0.00303953 0.00114601 -0.00314694 0.00654665 0.00449613 0.00477521 -0.00502407 -0.00103815 0.0014598 0.0029699 -0.00285441 -0.000558672 0.0004832 -0.00128225 -0.00146701 -0.00383741 -0.00424094 -0.00232708 -0.00434339 0.000690836 -0.00353504 -0.00473376 0.000860369 0.00417516 -0.000166367 0.000465491 0.00301192 0.000764382 -0.000603947 -0.00263415 -0.000358793 0.00237454 0.00300287 -0.00309527 0.00518246 0.00201016 0.00217087 0.00492421 -0.000312118 0.00121091 -0.00143056 0.000129293 0.00682547 -0.000100573 -0.00481439 0.000107441 -0.000132994 -0.00267649 0.00177338 -0.0019933 0.00299077 0.00324941 -0.00544267 -0.000223157 -0.000479272 -0.000901007 -0.0061549 -0.00142134 5.26488e-05 0.00215321 -0.00026524 0.00126559 0.00486903 0.00263843 0.00194274
318 -0.00215674 0.00489412 0.00140015 -0.00235504 -0.00297827 0.00177821 -0.0029208 0.00360057 -0.00244122 -0.00143449 -0.00146047 -0.00313722 -0.00329292 0.00348641 -0.00501999 0.00334624 0.00301023 -0.000169577 -0.00145027 0.00343282 0.00213659 0.00282729 -0.00271488 0.00451219 -0.00263526 -0.00224723 -0.00330358 0.000511907 -0.00198726 -0.000112244 0.00157166 0.00165912 -0.00390454 0.00509043 0.00406419 -0.00227656 0.00154884 0.000344743 -0.00402192 -0.00295253 0.00473356 -0.00185141 0.00531251 -0.00146293 0.000516076 -0.00135529 0.00242499 0.00328003 0.0013206 0.00410268 0.000808685 0.00257901 -0.00756286 -0.000128626 0.00343009 -0.00122906 -0.00265622 -0.00387737 -0.002935 -0.00105639 0.00221733 0.00276636 0.000818793 -0.00288613 -0.000395553 0.0030908 0.00426556 0.000237861 -0.00111633 -0.00504251 -0.00250299 -0.00578807 0.00357962 -0.00300433 0.000810135 0.00170509 -0.00353622 -0.00440437 -0.00235135 -0.00443232 -0.00138084 -0.00097985 0.00284918 -0.00183067 -0.00537617 -0.0054114 0.0023443 0.00108442 -0.0016552 0.00599452 -0.0018512 -0.00345283 0.000853926 -0.00279435 0.000674843 0.00326113 0.00118868 -0.000551219 -0.000173101 -0.00101513 -0.000851325 -0.00134664 -0.00439339 0.00163254 -0.00200708 0.00110243 -0.00284055 -0.00504401 0.000968561 0.00346842 -0.00544355 -0.000377389 -0.000876241 0.00459605 0.000291968 -0.00697126 0.00147057 -0.00209608 -0.00617937 0.000105748 -0.00176158 0.000210861 -0.00257142 0.00188374 0.00385228 0.00316901 0.00469609 0.00112117
251 0.000881378 0.00525822 -0.000299939 -0.00201813 -0.0029196 -0.000179228 0.00309119 -0.00346564 -0.00343992 -0.00283441 -0.00117393 -0.00241328 0.00181863 0.00232436 -0.00450699 0.00514648 0.00759185 0.0030119 0.00269092 -0.00115575 0.00347824 0.00189933 -0.000848008 0.000171033 0.00330694 -0.00329237 0.000365825 -0.000660969 0.000416551 -0.00349345 0.00201785 0.00277008 0.0012599 0.00484948 0.00523572 -0.00344304 -0.000336188 -0.00193787 -0.00624257 -0.0018393 0.00266186 0.00126093 0.00247826 -0.000678854 0.00122695 -0.00449496 -0.00317745 0.00675546 0.00231772 0.00445621 -0.00589684 0.000977149 -0.00502419 -0.00277836 0.00654323 0.00231876 -0.00300455 -0.00315242 -0.00332113 0.0035265 0.00167864 0.00142136 -0.00168657 0.00290638 -0.00436472 0.000121149 0.00299905 -0.000553488 -0.000858174 -0.00369376 -0.00070912 -0.00537553 0.0012953 -0.00575498 0.000746968 -0.000208164 -7.47126e-05 0.00216187 -0.00185381 0.000808249 -0.00515581 -0.00351489 0.00245592 -0.000878704 0.00192222 -0.000632298 0.00291605 -0.00332572 -0.00473495 0.00462931 -0.00310655 -0.000827691 -0.00120179 -0.00252585 0.00223987 0.000912662 0.00204741 0.00538732 0.00119695 0.00460725 0.00504985 -0.000465909 0.000371522 -0.00108685 0.00364746 0.0027041 0.00420686 -0.000280159 0.00426076 -0.00191973 0.000861841 0.0030937 -0.00541381 0.00049244 -0.00235713 -0.000854653 0.00202324 0.00123833 -0.00427155 -0.00505393 -0.00092228 -0.00348765 -0.00293311 0.000305862 -0.000907 0.00346575 0.00289424 -0.00349402
523 -0.00273391 -0.000912658 -0.00312822 -0.00154151 0.00214601 0.00632148 -0.00173423 -0.00157217 -0.00021327 -0.00277651 0.00371709 -0.002415 0.00284945 -0.00248302 -0.00506084 0.00317304 0.00526102 0.0028318 0.00179001 0.0030903 0.00276548 0.00310518 -0.002015 0.00370224 0.00313273 -0.00406656 -0.00236555 0.00399006 0.0024765 -0.00453114 0.00178017 -0.00118792 -0.00574189 0.00387667 0.000784865 0.0013516 0.00325745 -0.0018208 -0.00316348 0.000578718 -3.80144e-05 -0.00123514 0.00522501 0.00100363 0.00232534 -0.000615746 -0.00115372 0.00432557 0.0046881 0.00140532 -0.00564288 0.00355707 -0.0113617 0.00378014 0.00626741 0.00351197 0.00201249 -0.00979773 -0.00140038 0.000853722 0.00716188 -0.000169563 0.00440681 0.00245452 -0.00119935 0.00218644 0.00456166 0.00235739 0.00442352 9.81081e-06 -0.00125182 -0.0016115 0.00241499 -0.00436145 -0.00299408 -0.00502217 -0.00310589 0.00146583 -0.00454744 -0.00499176 -0.000472807 -0.00763162 0.00168899 0.00188926 -0.00223426 -0.00670853 0.00282428 -0.0043819 -0.00534534 0.00484392 -0.0036913 0.000211072 0.00353096 -0.00481531 0.00167937 0.00672138 -0.00280393 0.00187634 0.00465132 0.00147336 0.00742391 0.00602372 -0.00558211 0.00281499 0.00415646 0.0068519 0.000814284 -0.00524642 -0.0023411 -0.00148572 -0.00696915 0.00501532 -0.00576813 -9.10168e-05 0.00507457 -0.00923743 -0.00191331 -0.00203707 -0.00850018 -0.00670293 -0.00242806 -0.000298474 0.000893212 0.00260913 0.00322204 0.00519827 0.00111177 -0.00185861
288 -0.00388085 -0.000824205 0.00280015 -0.00192751 0.000687121 0.00459046 0.00331462 -0.00112342 -0.00196107 -0.000905451 -0.000405161 0.00421025 -0.000372246 6.6841e-05 -0.000202252 0.00327068 0.00787882 -0.00169513 -0.00170354 0.0029166 0.00329829 -0.000685586 0.000829617 0.00146687 -0.00123388 -0.00532969 0.00038782 0.00142143 0.00207594 -0.00196515 -0.000383423 -0.00256964 -0.00478709 0.00043969 0.00284248 -0.000125018 0.00280389 0.00134015 -0.00196551 0.000789053 0.000656888 -0.000892503 0.00609075 -0.00288245 0.00290516 -0.00530335 -0.00237071 0.00438572 -0.00136378 0.00386853 -0.000812675 -0.000520313 -0.00800146 0.000614095 -0.000665173 0.000201351 -0.00482738 -0.000968475 -0.00103706 -0.00422454 0.00471422 0.00618193 -0.00166051 0.000855771 -0.00429398 -0.000723374 0.00356875 5.61761e-05 -0.00167242 -0.000777526 -0.00557902 -0.000739343 -0.00035536 -0.00460299 -0.00299258 0.00149612 -0.000556081 -0.00363382 -0.00180977 -0.00447755 -0.00487273 -0.00549274 0.00378319 0.00366725 -0.000591463 -0.000120791 0.00165616 0.00184105 -0.00431397 0.00378349 -0.00314227 -0.00272326 0.00356362 -0.00491126 0.00375254 0.00423144 -0.00176907 0.00261986 0.000478972 0.00155438 0.00215924 0.005293 -0.00578428 -0.000184262 -0.00237768 0.00680289 0.0018729 -0.00387918 0.003341 -0.00142272 -0.0015896 0.0041113 -0.00137176 0.0014461 0.00355697 -0.00228109 0.0023094 0.00239328 -0.00524818 -0.00401856 -0.00378313 -0.00344953 0.000917546 0.00230399 0.00245302 -0.00147458 -0.00147283 -0.00132508
1 -0.00485197 -0.00247927 -0.00490639 -0.00420059 -0.00325912 0.00290854 0.0014812 -0.00131382 -0.00254635 -0.00567487 0.00445257 -0.000122824 -0.00158259 -5.81013e-07 3.6974e-05 0.00499264 0.00320263 0.000997417 0.00341313 -0.0026365 0.00215905 0.00649022 0.000453836 0.00440115 0.000556327 -0.0048925 -5.09965e-05 0.00412404 0.00403976 -0.00604758 0.00149949 -0.00036677 -0.00544944 0.00670012 0.00323468 0.00018248 0.00358784 -0.00400139 -0.00478576 -0.00127742 3.00177e-05 0.00338654 0.00641718 -0.0010778 -0.00310227 -0.00191601 -0.000735472 0.00751877 0.000604687 0.00352174 -0.00214359 0.000567992 -0.00455051 -0.002052 0.00577324 -0.00227601 -0.00228285 -0.00580689 0.00140788 -0.00151144 0.000836877 0.00288818 -0.000361401 0.00303686 0.00100329 -0.00217433 0.00512766 -0.00128765 0.0016295 -0.00448368 -0.00184183 0.00135203 0.00258518 -0.00349327 -0.0026039 -0.00333177 -0.00358276 0.00141496 -0.000165015 -0.000795353 -0.00405499 0.00134501 -0.00324435 0.00285606 -0.000658291 0.000879746 -0.000791659 -0.00425837 -0.00283663 0.00579265 -0.00162314 0.0021647 0.00454564 0.000141992 0.00102446 -0.00103838 0.00309291 0.00413006 0.00629271 -0.00206028 0.0042549 0.00151424 -0.00156482 0.00195296 0.000413004 0.00412845 -0.00201288 -0.00479575 -0.00292529 -0.00129735 -0.00541774 0.000341903 -0.00118862 0.0049844 -0.000219239 -0.00555254 0.000347727 -0.00391025 -0.00608818 -0.000600205 -0.00455737 -0.000622513 0.00273375 0.00230694 0.00154002 0.00133886 0.00561258 0.00400928
416 0.00163572 0.00239038 -0.000164615 -0.00224302 -0.0024458 0.00462803 0.00266844 0.0035425 -0.00342259 6.40771e-05 -0.000214225 0.00178047 0.00032465 0.00014732 -0.00509139 0.00476278 0.00351861 0.00214691 0.00202855 -0.00296884 -0.00175059 0.00111296 -0.00146566 -0.00160747 0.00430843 0.00196748 -0.00229204 0.00377106 -0.00253767 -0.00275243 -0.000737528 -0.00119747 -0.00405186 0.00116016 0.00127723 0.00300174 0.00169553 -0.00109944 -0.00192269 -0.000328285 0.00459743 0.0014683 0.0028352 -0.00405646 -0.00130794 0.00141517 0.000551855 0.00234052 0.00340247 0.00451588 -0.00408298 0.00180178 -0.00112638 -0.00372568 0.00284103 -0.00299378 -0.00110005 -0.00293145 -0.00221277 0.00321955 0.00248267 0.00498608 -0.00249185 -1.60788e-05 -0.000794623 -0.00139835 0.00349319 0.00408083 -0.00228402 -0.00411781 -0.00119433 -0.00112572 0.00226078 -0.00577001 0.00272526 0.00126009 -0.000722479 0.00216728 -0.00087028 -0.00473241 0.000706109 -0.00294766 -0.00148037 0.00381798 0.00201345 -0.00300199 0.00499372 0.000705308 0.000621617 0.00329011 -0.00466132 -0.000124843 0.0023147 0.00121538 -0.000977024 0.00492816 0.000796003 -0.000382966 0.00235839 0.00196051 0.00390942 -0.00134318 -0.00014212 0.000289089 -0.000579505 0.0025111 -2.84077e-05 -0.00475269 0.00227386 -7.76437e-05 -0.00306708 0.00388319 -0.00180736 0.000606007 0.000439168 -0.00365032 0.000681716 0.00185541 -0.00667291 -0.000939167 -0.00313813 0.00173939 0.00320084 0.00532445 0.00378011 0.000394379 0.00507643 0.00132784
45 -0.00523663 0.00452682 0.00214132 0.00278201 0.000293592 0.00599877 0.00178654 0.00247263 -0.000917783 -0.005034 6.01844e-05 0.00397854 6.11138e-05 0.000222791 0.000209936 -0.00118754 0.00539675 0.00221818 0.000788519 -0.00128153 -0.00254752 -0.000162205 0.00275736 7.84138e-05 0.00105734 0.00149218 -0.00361178 -0.00271387 0.00209245 -0.00142337 1.4196e-05 0.00450912 -0.00562316 0.00615586 0.00585937 -0.00243838 -0.00318249 -0.00257222 -0.00606873 -0.00032182 -0.000503764 -0.000862318 0.0011354 -0.00311125 0.00206301 -0.00250129 -0.00305463 0.00713119 0.00517064 -0.00180105 -0.000689172 0.00210618 -0.00318228 -0.000971997 0.0022846 0.0031106 -0.00489122 -0.00660528 -0.00373564 0.00272019 0.00292374 0.00124194 0.00302367 -0.0025242 -0.000904989 -2.78569e-05 0.00160698 0.00183035 0.00497872 -0.00112695 -0.0041026 -0.000460303 -0.00244524 -0.00637885 -0.00271373 -0.00311462 -0.00461355 -0.00213974 -0.00454162 -0.00569535 -0.000698101 -1.95449e-05 -0.000448183 0.00302433 -1.19226e-05 -0.00525278 -0.00179857 -0.00226901 -0.00401263 0.00568006 -0.000234749 -0.00296788 -0.00191165 -0.00132073 0.00409977 0.00287874 -0.00267854 0.00178931 0.00497388 -0.00140762 0.00651533 0.00545087 -0.00379792 0.00137937 0.00246597 0.00377897 0.00284745 -0.00582868 -0.0011586 -0.000783376 -0.000296377 0.000671442 -0.00448116 0.00540181 0.00433073 -0.00473608 0.00226553 -0.00368763 -0.0068777 -0.00265024 0.000114216 -0.00380897 0.000154763 0.00431822 0.00198388 0.00503581 0.00324926 0.00128066
486 0.000798366 -0.000488415 -0.00202048 0.00074856 0.000460443 0.00615116 -0.00225927 0.00212004 -0.00166354 -0.00537972 0.00173744 0.000847749 0.00118055 -0.00206503 -0.00058371 -0.000305404 0.00535117 0.00108263 0.000131438 0.00439953 0.00343873 0.0060232 -2.38976e-05 0.00326517 -0.00121953 -0.000649903 0.0021664 0.00341679 0.00289975 -0.000118459 0.00496765 -6.72266e-06 -0.00281533 0.0019794 0.00352815 0.00396741 -0.0013439 0.00168083 -0.00692458 0.00117774 -4.07243e-05 5.81834e-06 -0.000689557 -0.00176469 -0.00404434 -0.00402254 0.000465102 0.00263345 0.00523779 2.61371e-05 0.000125257 0.000556381 -0.00273566 0.000892165 0.00670692 -0.000578362 0.00111582 -0.00675594 -0.00292601 1.57052e-06 0.00346923 -0.000572797 0.00432573 0.0039898 0.00218658 -0.00208587 0.000174059 -0.000149206 0.00528917 -0.00403351 0.000180196 -0.0036799 0.00352778 -0.00692828 -0.00106111 -0.00389691 0.00194758 0.00268881 -0.00212225 -0.000454278 0.000177947 -0.00501968 -0.00217437 0.00374637 -0.0022136 -0.00241075 0.004048 -0.00449734 -0.00440101 0.00384678 -0.00516909 -0.00120306 0.00461407 -0.000116309 -0.00124255 0.00588018 0.00426898 0.00182198 0.00489539 0.00460838 0.00474009 0.00465128 -0.00230969 0.00154054 0.00448761 0.00601308 -0.00295765 0.00041356 0.00268756 0.00384922 -0.000758544 0.00240524 1.64214e-06 0.00263626 0.00366886 -0.00751901 0.00313476 -0.00379785 -0.0028451 -0.00584757 0.000683576 -0.000423244 0.0014231 0.00569532 0.0018217 0.000619057 0.00312402 -0.00274329
162 -0.00265883 0.00239551 0.000674696 -0.00430345 0.00278305 0.00670312 -0.00057201 0.00407489 0.000102882 -0.00179371 0.00509794 0.00161941 0.00404149 0.0020267 -0.0038606 0.00548843 0.00207345 -0.00156557 0.00302829 0.00332516 0.000809611 0.00214006 0.0012385 0.000652256 -0.00108852 -0.0014466 -0.000934722 0.000972404 -0.00328217 -0.00385463 -0.000495091 0.00354934 -0.00137421 0.00624428 0.000436703 -0.00364213 0.00206145 -0.0044686 -0.00359443 0.00273132 0.00143386 -0.00130559 0.000232936 -0.000483544 -0.00144425 -0.00224402 7.8229e-06 0.00470484 -0.00123409 -0.00176879 -0.00401787 -0.000338687 -0.00536686 -0.00326959 -0.000232239 0.00326119 0.00153778 -0.000845664 -0.00117409 0.00155199 0.00580052 0.000834514 -0.00211173 0.000637702 -2.79999e-06 -0.00134634 0.00495833 0.00302811 -0.00172973 -0.00388846 -0.000481815 -0.000100624 -0.0022608 -0.000475793 0.00175042 0.00212703 0.00311999 0.00141528 -5.5855e-05 -0.002703 0.00214135 -0.00354542 0.00320088 -0.000202646 -0.00315853 -0.00550529 -0.00174121 -0.00164658 -0.000352709 0.00250575 -0.00244282 0.00114636 0.00367574 -0.00139129 -0.0009992 0.00236606 0.0014872 0.00236266 0.00140833 0.00328627 0.00310798 -0.00128162 -0.00372725 0.00085329 -0.000513555 0.00413979 0.00408281 -0.00254957 0.00129269 -0.00218043 -0.00188375 -0.00152262 -0.00363465 -0.000329206 -0.00184605 -0.000255244 0.00244459 0.00338908 -0.00640299 -0.00461782 0.00140736 -0.00231077 -0.0020927 0.00463119 0.00441521 -0.00171822 0.00241083 -0.00106931
391 -0.00207445 0.000518829 0.000381636 0.0013406 -3.69736e-05 0.00685658 0.00387462 0.00328699 -0.00405314 -0.00409875 0.00323826 -0.000793534 -0.00219205 0.00296011 0.000262918 0.00545416 0.00896158 -0.00375156 0.00262906 -0.00321382 0.00364729 -5.27766e-05 0.00505526 -0.000945341 0.00438068 -0.00433209 0.00276755 0.00229134 0.000474159 -0.0011483 0.00169591 0.00486663 -0.00568787 0.002039 0.00412507 0.00334175 -0.00132055 -0.00514674 -0.00612857 0.00231479 0.00043434 0.000753231 0.00662138 -0.00331715 -0.0016067 -0.00566086 -0.00285531 0.00659278 0.00409548 0.00137213 -0.00565566 0.00722961 -0.00488125 0.00397603 0.00175576 0.00190129 0.000682859 -0.00898944 -0.00281623 0.00204846 0.0035326 -4.05826e-05 -0.00131496 0.00359937 0.00218994 -0.00059979 0.00577425 0.00323781 0.00365097 -0.00601411 0.000764006 0.00093822 0.00133037 -0.0015336 0.00129261 -0.00341921 0.00182444 -0.00283818 -0.00216651 -0.0048352 -0.00559086 0.000719345 0.00196436 0.00122628 -0.00374959 0.000355822 -0.000671927 -0.00305427 -0.00127648 -0.000871406 0.00119699 -0.00200391 0.00226869 -0.00378401 0.00400679 0.000556312 -0.00225508 0.00457224 0.00452536 0.00306519 0.00536655 0.00161968 0.000205227 0.00198228 0.000942827 0.000888756 -0.00268023 -0.00512567 0.00138958 0.000980701 -0.00548608 0.00283837 -0.00506125 0.0046347 0.00495611 -0.00310697 0.00332376 0.0020254 -0.00510855 -0.00747205 -0.00306393 0.00213579 0.00268629 0.00373439 -0.000910771 0.00332116 0.00386048 -0.00172344
258 8.56154e-05 -0.000820273 0.0018996 -0.00367382 -0.00365356 0.00167132 -0.00110354 -0.00164029 -0.00475996 -0.00349094 0.00183816 0.00206036 -0.00049845 -0.00140533 -0.00447148 0.00194014 0.00806836 0.000819253 -0.00265996 0.00426078 -0.00114291 -0.0003661 3.07551e-05 0.00221126 0.00242547 0.00016015 0.00294023 -0.00110826 -0.00203364 -5.88531e-05 0.00341296 0.00476395 -0.00374547 0.0054317 0.0032329 0.00287255 -0.00222255 -0.00338319 -0.00718231 0.000943112 0.00554375 0.00338251 0.00481904 0.000406171 -0.00178694 -0.00364918 0.000786435 0.00418816 0.000495173 0.0014298 -0.00410324 0.0033916 -0.00776498 0.00287634 0.00634732 0.00196285 0.00234529 -0.00731408 0.00196948 -0.0025298 0.00059863 0.00294677 -0.00313684 -0.00234516 0.000277982 -0.00456244 0.00527823 0.004816 0.00116167 -0.00353947 0.0016905 -0.00605138 -0.00142483 -0.000824292 6.59807e-05 -0.00151199 -0.0014337 0.00175114 0.000683509 -0.000520435 -0.00220436 -0.00634527 -0.00184152 -0.000691803 -0.00446113 -0.000177419 0.00218002 0.001383 0.00225788 0.00542368 -0.00370954 -0.00299197 0.00118883 0.00234462 0.00450313 0.001433 0.0032459 0.00266948 0.0001773 0.0044002 -0.000702531 0.00167147 -0.00306937 0.00139628 -0.000233931 0.00440109 0.00445459 -0.00255679 0.00280762 -0.00271242 -0.00473882 0.00244514 -0.00167008 0.00167168 -0.0008722 -0.00603069 0.00177919 0.00195902 -0.000424767 -0.000927639 -0.00131667 -0.00141924 0.00371796 0.00019265 -0.00244512 -0.00154205 0.00498124 0.00106182
452 -0.00309862 0.00519046 -0.00439057 -0.0023083 6.90143e-07 0.00353666 -0.00181064 0.00250746 -0.0063113 -0.00573806 0.00598749 -0.00224452 -0.0012792 0.000915919 -0.00581901 0.000388248 0.00443548 0.00293448 0.00138249 0.00291669 -0.00388613 0.00779325 -0.000498522 -0.000248108 -0.000715897 -0.00348863 -0.00308801 -0.000941159 0.00274801 -0.00277229 0.00770974 0.00459117 -0.00649932 0.00213097 0.000650328 0.0028686 -0.000759024 -0.00557023 -0.00329288 -0.000491494 0.00453147 0.00232919 0.00532084 -0.00377253 -0.000630308 -0.000289557 -0.000555436 0.00717563 -4.11997e-05 0.00415713 -0.00367545 0.00769478 -0.00995201 0.00263118 0.00108212 -0.00204049 -0.00102835 -0.0064339 -0.0038124 -0.0040024 0.00569229 0.00652543 0.00294529 -0.00242263 -0.00105414 0.00150308 0.00665922 -0.000433508 -0.00134887 -0.00169772 -0.00226832 -0.00722318 -0.00304652 -0.00544936 -0.00133222 0.00154488 -0.00304607 0.00262575 -0.0042909 -0.00132494 -0.00401276 -0.00571688 0.00143966 -0.0010981 -0.00299576 -0.00397932 0.00156634 -0.00154498 -0.00499723 0.00300945 -0.00637211 -0.00110236 0.00114825 -0.00446374 0.00670688 0.00571488 -0.00278425 0.003242 0.00489388 0.00300675 0.00108794 0.00495383 -0.00277361 0.000346705 -0.00171434 0.00440642 -0.00127247 -0.00125516 -0.00128444 0.00297277 -0.00637123 0.00512613 -0.00148979 -0.000965479 -0.000718494 -0.00949396 0.00115795 0.00114 -0.00715544 -0.00130385 -0.0023639 -0.00271717 0.00320507 0.000982834 -0.000682606 0.0049495 0.00153111 0.00240325
113 -0.00503037 0.00200772 -0.00267642 -0.000903627 -0.00224753 0.00565312 0.00303879 -0.00151831 -0.00384915 -0.00651431 0.000764585 0.00190006 -0.00125266 -0.00371057 -0.00428809 0.00416168 0.0094814 0.00103473 0.00184942 -0.000289759 0.00206563 0.00867159 0.000858483 0.00519362 -0.000985684 -0.00602367 -0.00202814 0.00351319 0.00225536 -0.00727316 0.00205234 -0.00169409 -0.00384924 0.00760583 0.000202782 -0.00183148 -0.00142088 0.000597313 -0.00939026 -0.00180253 -0.000589223 0.000114046 0.00227857 0.00317255 0.00335449 -0.00300282 -0.000217348 0.00907835 0.00607974 0.00213951 -0.00321135 0.00883373 -0.0046299 -0.000888593 0.00889275 0.00373923 0.000998132 -0.00919338 -0.00103802 -0.00379182 0.00762844 0.00462026 0.00177898 -0.00257723 -0.00049577 0.00190346 0.00643358 0.00356003 0.00110617 -0.00631686 -0.00518643 -0.00135008 0.00412635 -0.00321992 -0.00159811 -0.00431151 0.000652214 0.00280639 9.66415e-05 -0.000856798 0.000230893 -0.00121671 0.00164724 0.00237893 -0.00497817 -0.00789374 0.00594877 9.80253e-05 -0.000470754 0.0066615 -0.00469991 -0.00468228 0.00390343 0.000316759 0.00569245 0.00364129 0.00320812 0.000127496 0.00831877 -0.00206082 0.00235888 -0.000880672 -0.00324892 0.00327136 0.00228324 0.00578304 -0.00162364 -0.00111746 -0.00100345 0.00352564 -0.000213635 0.00588069 -0.00600249 0.0031895 0.00340832 -0.00783824 -0.00264554 0.0029146 -0.00387829 -0.00799845 -0.00176932 -0.000736992 0.00164761 0.00682106 0.00349165 -0.00096204 0.00191121 0.00260283
178 -0.000149068 0.00283549 -0.000242701 -0.00274911 -0.000685844 0.00576758 -0.00163293 -0.000896173 0.0010661 -0.00179867 -0.000485758 -0.000304142 -0.000808781 -0.000277154 -0.00429616 -0.00122271 0.00617363 -0.000881307 -0.00258021 -0.00200255 -0.000549231 0.000574402 0.00344443 -0.0003204 -0.00275156 0.000797863 -0.00166989 -0.00114686 0.00086594 -0.00295738 0.00272649 0.000975991 0.00122073 0.00695959 0.00311254 0.000534233 -0.0016231 0.000131053 -0.00325678 -0.000639128 0.00191454 -0.0027396 0.00237397 -0.00179697 0.00193814 -0.0019316 -0.00391145 0.00750271 0.00304531 0.00173868 -0.00156062 0.00663085 -0.00691541 5.48464e-05 0.00261684 -0.00115185 0.001324 -0.00268034 -0.00370053 -0.00100868 0.0049535 0.000987541 -0.00318264 0.00180894 0.00274345 -0.0039289 0.00497129 0.00433845 0.00266927 -0.000439315 -0.00321901 -0.00655498 -0.00022967 -0.00317699 0.00295335 -0.00460564 -0.000282087 -0.000223283 -0.00266299 0.00157126 -0.00255932 -0.00366529 0.00398615 0.00189449 -0.00179268 -0.00526795 0.00435971 -0.00138433 0.00185704 -0.000143601 -0.00311302 -0.00283833 0.00265389 -0.000631765 0.000660494 0.00414819 -0.00277206 -0.00162049 0.00758645 0.00248306 -0.000314956 0.00415558 -0.00161382 -0.00215086 -0.00299457 0.00135854 0.000256653 -0.000885757 0.00243556 0.000911816 -0.00488594 0.0020529 0.0012023 0.00148931 0.00434609 -0.00279869 -0.00258855 -0.000286364 -0.00645503 -0.00250471 -0.00025547 0.00359136 0.00247725 0.00336741 -0.00135005 0.00150401 0.00329065 0.0024195
283 -0.00322129 -0.00200438 -0.002615 -0.00129087 -0.00201013 0.00203324 0.00119438 0.00359514 -0.0047955 -0.00558207 0.00256082 0.00273052 0.00156216 -0.0033892 0.000394344 0.000305599 0.000325694 -8.50677e-05 0.000485317 -0.00229463 -0.00359048 0.00536102 0.00306636 -0.000186104 -0.00303689 -0.00453257 -0.000358313 0.000642086 0.0033984 -0.00198451 0.00588808 0.00204117 -0.00278169 0.000143471 0.00152453 -0.00163624 -0.00133673 -0.00485358 -0.00627976 0.0010865 0.00174804 -0.00170088 0.00227813 0.00198331 0.00327146 -0.00534823 -0.00204404 0.00277316 0.00302391 0.00210653 0.000570761 -0.000762032 -0.00766194 -0.0031309 -0.000217376 -0.00137394 -0.000412259 -0.00112644 -0.000445643 -6.19867e-05 0.00265321 0.00253477 0.00177577 0.00383884 0.00292393 -0.0042438 0.00475592 0.00419293 -0.00218565 -0.00053078 0.0016501 0.000883962 -0.0018309 -0.00459445 -0.00311181 0.000603669 -0.00359468 -0.00230749 -0.00512732 -0.000211646 -0.00507751 0.000291064 0.00345383 -0.00190699 0.00160031 -0.000556998 0.000902833 -0.00168042 0.000117752 0.000297448 0.00198243 -0.000137887 0.0032577 -0.000635914 -0.000141794 0.00230167 0.00308476 0.00319541 0.00415481 -0.00147615 0.00538914 0.0015486 -0.000935702 -0.003132 6.40084e-05 0.0062184 0.00392523 -0.00257878 -0.00278289 0.00123933 -0.00169671 0.00512996 -0.000987695 0.00455593 -0.000420335 -0.00651084 0.00289273 0.00280593 -0.000472946 -0.00312123 -0.00311709 -0.000673851 -0.00340184 0.00337897 -0.00174799 0.00258084 -0.00076877 0.00172123
84 -0.00170144 0.00319449 0.00130106 0.00269735 0.00158904 0.00482779 0.000152981 0.00330704 -0.00111797 -0.00332536 -0.00119799 0.00243819 -0.00114288 -0.00195715 -0.00238021 0.00346986 0.00109294 0.00377814 -0.00130698 -0.00143618 -0.000789155 0.00138177 0.00439103 0.000714754 0.00106485 -0.00244646 -0.00213597 -0.000374978 -0.00260118 0.000919425 0.00295603 0.00371306 -0.00142196 0.00392862 -0.00162675 0.000970361 0.00340421 0.000602377 -0.000935097 -0.000200346 0.00490584 -0.00143137 0.00379155 0.000186407 -0.00103454 0.000315381 0.00109015 0.000904805 0.00307479 -0.0025649 -0.00120887 0.00606164 -0.00705382 -0.00184682 0.00385916 0.001786 -0.00246644 -0.00551303 0.000177676 0.000113494 0.00397785 0.00270794 0.000193236 -0.00035827 -0.00174802 0.00225397 -0.000449948 0.000872123 0.00103071 0.00160342 0.00138587 -0.00129745 -0.00228015 -0.000934539 -0.0041768 -0.00194278 0.0031247 0.00111158 -0.000103787 -0.00366679 0.000333587 0.000755557 0.00126904 -0.00388233 0.00108903 -0.00419957 0.000854389 -0.00241283 -0.00194924 0.00337277 -0.00454075 -9.52207e-05 -0.00216122 -0.001992 -0.000618562 0.00153598 0.00171454 -0.00227594 0.00266383 -0.00106776 -0.000733907 0.000778513 -0.00571696 -0.00298946 -0.00267277 0.00460413 0.00243743 -0.00224502 0.000314145 0.00359347 -0.00443868 -0.00108111 0.00165271 0.00496264 0.00445017 -0.00172912 0.00361701 0.00327372 -0.00438062 -0.00178587 -0.00145945 0.00148386 -0.000306773 0.000888504 0.000857672 -0.000838029 0.00206648 -0.00177262
207 -0.00109484 0.00477233 -0.00284575 -0.00233083 -0.00325533 0.00805243 0.00146835 0.00480175 -0.00389727 -0.00883773 0.00726992 0.00272837 0.00446276 0.000913453 -0.00192798 0.00140391 0.00808826 5.28092e-05 0.00388526 0.00282647 -0.00303693 0.00728251 0.00326231 0.00455085 -0.00202061 -0.00497163 -0.00351134 0.00463629 -0.00261713 -0.00607115 0.00509046 0.00216301 -0.00395119 0.00899837 0.00531013 0.000542798 0.00304223 -0.000542493 -0.00571039 0.00312823 0.0011932 -0.00188357 0.00494522 -0.00246269 -0.00325567 -0.0011232 0.00212515 0.0043507 0.00234472 0.00486614 -0.00263312 0.0095915 -0.00690414 -0.00229968 0.00162694 -0.00211625 -0.00424295 -0.00930432 -0.000708372 -0.00315102 0.00826072 0.00344294 0.000324316 0.00139047 -0.00445919 0.000930656 0.00712035 0.00501857 0.000887455 -0.00400551 -0.00664078 -0.00163727 0.00114914 -0.00761412 0.00251621 -0.000632254 3.88965e-05 -0.00408451 -0.00114386 -0.00385209 0.000588485 -0.00410762 0.00402816 -0.000701501 -0.0065209 -0.0033688 0.00196317 -0.00119194 -0.00434704 0.00785175 -0.00239195 -0.00387808 0.000395628 -0.00394642 0.00351191 0.00513106 -0.00118935 0.00391777 0.00732365 -0.00053728 0.00506261 0.00375431 -0.00484962 0.00202843 0.00364099 0.00777768 0.0027622 -0.00222974 -0.00155315 0.000951849 -0.00470334 -0.000266486 -0.00676525 -3.2491e-05 0.00169031 -0.00749961 0.000750208 0.00170749 -0.00919272 -0.0038984 -0.00360552 0.00333685 -0.0021135 0.00580462 0.00130552 0.00289053 -0.000649233 0.00339385
142 -0.00515476 0.00171918 -0.00033243 -0.00445703 -0.0010413 0.000394394 0.00351146 -0.00125175 -0.000639762 -0.00702703 0.00208402 0.00114544 -0.00194285 -0.00394907 2.06185e-05 0.00607421 0.00634011 0.00114445 -0.000145468 0.00436402 0.00327592 -3.69573e-06 -0.00232433 0.000439634 0.00149007 -0.00355347 -0.00398588 0.00315747 0.00182832 -0.00721524 0.00481742 0.00374957 -0.000749218 0.00571685 0.00402999 -0.00337334 0.00160232 -0.00324997 -0.0050937 -0.00210232 0.00482999 0.00254264 0.00512708 -0.00123804 0.000477581 -0.001884 0.000688793 0.000467924 0.00168506 -0.00244779 -0.00565851 7.04287e-06 -0.0100073 0.00194701 0.00517825 -0.00302714 0.000449472 -0.00389645 -0.00127513 -0.000420973 0.00669349 0.00395352 -0.00246477 -0.000765575 0.00285938 0.00220895 0.00442799 0.000713877 0.00041766 -0.00376822 -0.00417081 -0.00579915 -0.000920948 -0.00524423 0.00247332 0.00221828 -0.00431815 -0.00387315 -0.00398961 0.000294198 -0.00423713 -0.00381509 0.003729 0.00233476 0.00151832 -0.00307529 -0.000268123 -0.00248498 -0.00309121 0.000751231 -0.00332478 -0.00180914 0.00155866 -0.00102054 0.00272378 0.0043771 0.000935115 -0.000273655 0.0051705 -0.000455486 0.00365981 0.00401692 -0.00550972 0.00100469 -0.000972896 0.00454753 0.00167399 -0.00115195 0.00453131 -0.000460559 -4.54722e-05 0.00544346 0.00113225 -0.000333005 -0.00166922 -0.00593586 0.00119663 0.00100084 -0.00301168 -0.00502376 -0.00169374 -0.000784515 0.00394111 -0.000840602 8.7161e-06 0.00434239 0.00202837 0.000997014
520 -0.000230425 0.00269245 0.000957769 -0.00165699 -0.00280028 0.00123093 0.00264183 0.00281128 0.00187376 -0.00307708 0.00492324 0.00184612 0.00147144 -0.00257066 -0.000331827 0.00535821 0.00247728 -0.00250907 0.000291789 -0.00122108 0.00307677 0.00157653 -0.00256494 0.000687789 0.00229366 -0.00547611 0.00232975 0.00346809 0.00191319 -0.000736717 0.000393123 -0.000141328 -0.00142279 0.0020244 0.00272322 -0.00299226 0.00176401 -0.00144677 -0.00351445 -0.00195268 -0.00106824 0.00350265 -0.00103375 0.000703369 -0.00288883 -0.00236073 0.0023784 0.000404917 0.000253647 0.00331148 -0.00141282 0.0038925 -0.00467876 0.0036323 0.00605278 -0.000635527 0.000911943 -0.00543079 -0.00256185 -0.00269523 0.00684788 0.00167 -0.00035604 -0.00362653 0.000514773 -0.0020283 0.00562436 0.00238523 0.0044818 -0.00106513 -0.00491877 -0.00366109 0.00268367 -0.00269282 -0.00127846 -0.00434142 -0.00416298 -0.00266725 0.00151742 -0.00443521 -0.000451742 -0.00576442 0.00213812 0.00102643 -0.00197253 -0.00503681 -0.00195502 -0.00064066 -0.000578361 0.00472654 -0.0028162 0.00261107 -0.000436176 -0.003367 0.00443451 0.00546655 -0.00281961 0.001822 0.00690473 0.00201227 0.00655072 0.00203068 -0.00510064 -0.000810392 0.00172346 0.00331414 0.00205359 -0.00655948 0.000597585 0.00271885 -0.0036066 0.000738674 -0.000539149 0.000881953 -0.00104568 -0.000285782 -0.00266006 0.000772847 -0.00718379 -0.000597526 -0.00227698 -0.000593124 -0.00294425 0.00259088 0.00192411 0.000133475 0.000575785 0.00290651
376 0.00172498 0.00345844 -0.00486188 0.00251179 -0.00194353 0.000591584 0.00198851 -0.000603104 -0.0048691 -0.00158789 0.00415444 0.000740828 -0.00188157 -0.00382799 0.000767831 0.00463442 0.00459051 -0.000877859 0.0044165 -0.00106808 -0.00297014 0.00730718 0.00460751 -0.0027709 -0.000247983 -0.00282074 0.00279645 -0.00293359 -0.00243675 -0.00603394 0.0040071 0.000526975 -0.00318061 0.00485468 0.00567325 -0.00168571 -0.00160395 -0.00403112 -0.0065909 -0.00155571 0.00366581 0.00358021 0.0040442 0.00161999 -0.000979609 -0.00403304 -0.00295307 0.00822782 0.0039405 -0.000693571 -0.00209406 0.00200445 -0.00499669 -0.00314786 0.00730221 -0.00101589 0.00154088 -0.00411677 -0.000715834 -0.000438007 0.00695734 0.00628582 0.00160431 0.00165076 0.00197135 0.00231175 0.00257091 0.00125156 0.00541276 -0.00439302 0.00111496 -0.00100987 0.00298616 -0.000316077 0.000860218 -0.00477821 -0.000904737 -0.00379887 -0.00319737 -0.0038732 0.00172846 -0.00552404 -0.000933082 -0.00316195 -0.000247234 -0.00528855 0.00426927 -0.00588738 0.000523629 0.000169883 -0.00128885 0.00182045 0.00461298 -0.000402064 0.0057574 0.000152608 0.00433929 0.00524344 0.00148057 -0.0021593 0.00339979 -0.00175829 -0.00456809 0.000884861 0.00152364 0.000962718 -0.00104398 0.000251489 -0.000486952 0.00148336 0.000110398 0.00359279 0.000536175 0.00123505 0.00447951 -0.00772569 -0.00376333 0.00118692 -0.00334928 -0.00618726 -0.00379813 -0.000509652 0.00040109 0.00401435 0.00136508 -0.00113773 0.00333218 -0.00131147
478 0.00119946 0.000467227 -0.00458809 0.00227228 0.00249885 0.00296045 0.00373462 0.0030981 -0.00194809 -0.00750415 -0.00047399 0.000895246 -0.000143649 -0.00350869 -0.00644653 -5.36571e-05 0.00998328 -0.000562543 -0.00189859 0.00341735 -0.00392408 0.00498683 0.000243596 0.00296306 0.00213592 -0.0012042 0.00253245 -0.00185391 0.00187021 -0.00612019 0.00796206 0.00136841 -0.00209429 0.00183372 0.00507815 0.000159367 -0.00155748 -0.00469271 -0.00586429 -0.0033684 0.00264215 0.00376461 0.0059317 0.0023594 0.00337148 -0.00264624 -0.00167548 0.00880603 0.00276514 -0.00181106 -0.00225057 0.00269702 -0.00723432 0.00263967 0.00343583 -0.00217263 0.000165239 -0.00508225 -0.00456915 -0.00371143 0.00191506 0.00591978 0.00251866 -0.00301752 4.06398e-05 0.00193148 0.00815845 -0.00204745 0.0026378 -0.00600587 0.00101494 -0.00468572 0.00167824 -0.00764726 0.00315454 -0.00268641 0.00132048 -0.00259229 0.0017201 -0.000798692 -0.00455472 -0.0024033 0.00101051 0.00202851 -0.00480436 -0.000244802 0.00289219 -0.00557983 -0.00496723 0.00149635 -0.00152505 -0.002983 0.0009306 -0.00295505 0.00370799 0.00493884 0.00462155 -0.000412234 0.00218927 -0.000965872 0.00424875 0.000961918 -0.00529312 0.00389457 0.0020477 0.00135529 0.00453996 -0.000325059 0.00316355 -0.00131961 -0.00344271 0.00112793 -0.00214969 0.00369799 0.00142024 -0.00695868 -0.00215153 0.000429953 -0.00753403 -0.00590779 -0.00109105 0.000431261 0.00250581 -0.00113872 0.00468193 0.00354777 0.0051782 0.00296586
534 -0.00158468 0.00465123 0.00188208 -0.00148331 0.00134105 0.00268493 0.00236398 0.00126659 -0.00293897 -0.000932791 0.00581926 0.00246132 -0.000708159 -0.00270129 -0.00518116 -0.00111264 0.00959274 -0.00249319 0.002582 -0.000331697 0.00286677 0.00274414 -0.000491989 0.00189343 -0.00232312 -0.00282038 0.00166787 -0.00183345 -0.00125985 -0.00179852 0.00747733 0.00483062 0.000987138 0.00449294 0.0058256 6.84564e-05 0.00266992 -0.00160839 -0.00181458 -0.00383791 4.60675e-05 -0.00175466 0.00672227 0.0012219 0.00350651 -0.0011618 -0.00309641 0.00834838 0.00278272 -0.0023747 -0.00602908 0.00788489 -0.00845544 -0.00361594 0.00435028 -1.84888e-05 6.07525e-05 -0.00663733 -0.000601375 0.00230382 0.00209422 0.00394089 0.00279043 0.000899079 -0.000351912 -0.000277474 0.00144706 0.000529448 0.00297315 -0.000703624 -0.00271059 -0.000325549 0.00369759 -0.00728024 0.00130612 0.000525937 0.00211713 0.00224686 -0.00253108 -0.000244445 -0.00246555 -0.00513734 -0.00053656 -0.0032383 -0.00631776 -0.00599321 0.00478565 6.00263e-05 -0.00457401 0.00116607 0.000924802 -0.00406482 -0.000103309 -0.0021413 6.53326e-05 0.00602315 -0.00147356 0.00573567 0.00774607 0.00141765 0.00657856 0.00361417 -0.00471781 0.00260224 -0.000651728 0.00486779 0.00225534 -0.00711154 0.000708547 0.00347099 -0.00330314 0.00225962 -0.00337884 0.00456432 0.00228411 -0.00461123 -0.00183848 0.00287506 -0.00854205 -0.00237552 -0.00465113 -0.00167871 -0.00103326 7.51464e-05 -0.00012916 0.00546402 0.00459796 -0.000254221
39 -0.00387333 0.00261476 -0.000473136 -0.00295248 0.0031592 0.00726672 -0.00107849 0.00368127 -9.75404e-05 -0.00434376 0.00153046 -0.000656293 -0.00240684 -0.00119088 -0.00628883 0.000647908 0.00855508 -0.000284781 -0.00249843 0.00147164 -0.00112546 0.00699602 0.00148156 -0.00103242 0.00444552 -0.00432718 0.00146621 0.00139944 0.00156438 -0.00646035 0.00475851 -0.000763723 -0.00317507 0.000739874 0.00368084 -5.27457e-05 0.0037793 -0.00379627 -0.0045015 0.000356379 0.00233523 0.00256437 0.00369691 -0.0017883 -0.00103029 0.000767106 0.00214482 0.00237904 0.00497529 0.00289008 -0.00160027 0.00196422 -0.00627319 0.00245578 0.000617492 0.00339244 -0.00259295 -0.0066745 0.00155006 0.00188929 0.00647529 0.00543446 -0.00191278 0.00400936 -0.00360154 -0.00242946 0.00595437 -0.00213401 0.0031639 -0.000886274 -0.00196548 -0.00101926 -0.00158394 -0.00538377 0.00306777 0.00242896 0.00228814 0.00140702 -0.00511468 -0.00391207 -0.00481895 -0.00214889 -0.00195794 0.00244602 0.000489812 -0.00641622 0.00474592 0.000175539 -0.00239094 0.00216741 -0.00261027 -0.00439171 0.000118892 0.000417826 -0.000555899 0.00309239 -0.00207693 0.00474156 0.00175048 0.004007 0.00165435 -0.00208395 0.000395293 0.00386069 -0.00326711 0.00525833 0.00462289 -0.00649359 -0.00136899 0.00142969 -0.00572871 0.00156025 -0.000549358 0.00561628 -0.00211925 -0.00652615 0.00239007 -0.0015873 -0.0017755 -0.0074745 -0.00482449 0.000384292 0.000615466 -0.000345328 0.00101867 0.00399804 0.00381232 -0.000152452
22 -2.54857e-06 0.00276668 -0.00478627 -0.00236227 0.00334894 0.00339369 -0.0019966 0.00137657 -0.00402176 -0.00243298 0.00590991 0.00184978 0.00249769 0.00322237 -0.00211281 0.00517346 0.00469063 -0.00165203 0.00425022 -0.00182643 -0.00147993 0.00500258 0.00374871 -0.00231824 0.00321322 -0.00286222 -0.00465234 0.00084575 -0.00235661 -0.00252091 -8.03085e-05 -0.000723598 -0.00126137 0.0069122 -0.00013252 0.00289082 0.0023133 -0.00187327 -0.00653225 -0.00360011 0.00469693 0.00257062 0.00609404 0.00230957 -0.00418079 -0.000851792 -0.00199011 0.00562571 0.00246717 0.00383728 -0.00454805 0.00202719 -0.00462178 0.000700105 0.00673072 0.000300831 0.000669222 -0.00478191 -0.00119231 -0.00144378 0.00278783 0.00447267 0.00201758 0.00264099 -0.0027211 0.00222986 0.00222076 0.00055511 -0.000146867 -0.00370645 -0.00538885 -0.00590807 -0.0021913 -0.00292576 0.00148337 0.00102396 0.00070822 0.00316093 -2.5518e-05 -0.00339701 -0.00344374 -0.000906288 0.00236538 -0.00135764 -0.00486588 -0.00131549 0.00295674 -0.00592428 -9.56385e-05 0.00476422 -0.00281885 -0.0012465 0.00248097 -0.00113111 -0.00170128 -0.000189591 0.000816661 0.000659994 0.00464803 0.00419854 0.0012398 0.00332189 0.000869875 -0.00318068 0.00381273 0.00492806 -0.00163928 -0.00227996 0.00438009 -0.00235436 -0.00237869 -0.000116379 -0.00483858 -0.00176784 0.00448941 -0.00414861 0.00164104 0.00159311 -0.00431809 -0.0010772 -0.000524137 0.000697785 0.000494098 0.00210203 -0.002841 -0.00186867 -0.000540848 -0.00169564
226 -0.00157393 -0.000764338 6.69133e-05 -0.00155817 0.00343486 0.00560591 -0.00147836 0.0021474 -0.000954281 -0.00467721 0.00138345 0.00100745 0.000646386 0.00303576 -0.00655868 -0.000614394 0.00171294 0.00109763 -0.000189853 -0.000931445 -0.0028319 0.00753632 -0.0028068 0.0015143 -0.00225665 -0.00494754 -0.00359689 -0.00177135 0.00395507 -0.0056301 0.00256993 0.0017045 -0.00546352 0.00691889 0.00368079 0.00355053 -0.00128311 0.0012998 -0.00637844 -0.00319235 0.000989117 0.0026214 0.00332268 0.00279072 0.00177453 -0.00105321 -0.00176997 0.0065948 0.00286989 -0.00127956 -0.00537995 0.00407336 -0.0078018 0.00263011 0.00705419 0.00116208 -0.00183962 -0.00185714 -0.0014058 0.00324858 0.00366878 0.00289627 0.0013215 0.00236165 -0.0019678 -0.00167771 0.00202076 0.00395854 0.00180626 -0.00136287 -0.00103252 -0.00262806 -0.0028493 -0.00145059 0.00217044 -0.00318892 -0.0021891 0.00208454 -0.00029079 -6.27852e-05 -0.00552626 -0.00511222 -0.000938779 0.00250917 -0.00408014 -0.00298597 0.00244975 -0.00515967 0.000150243 0.00462491 -0.00541229 -0.000131057 0.00125253 -0.000412616 0.00254246 0.00309994 0.00222745 0.00198604 0.00220984 -0.00275112 0.00325453 -0.000852141 -0.00558612 0.00361757 0.00235956 0.00229386 -0.000501975 -0.000412199 -0.00114581 -0.00169576 0.000659054 0.00459663 -0.00186283 0.000550798 -5.23415e-05 -0.00403597 -0.000369261 -0.000686971 -0.00742262 -0.00242665 -0.00103796 0.00311722 0.000656563 0.00577678 0.00221371 -0.00231833 0.00203093 -0.00347353
127 0.000447409 -0.00203924 -0.00119891 -0.00285412 0.00339048 0.00697764 -0.00211244 0.00219644 -0.00387814 -0.00571095 0.00162326 -0.00285864 -0.00135165 -0.002425 -0.00340242 0.00244779 0.00854014 0.0016069 0.000861998 -0.00177204 0.00367845 0.00226232 6.42826e-05 0.00166655 0.0018726 -0.00455548 -0.00164683 -0.000750266 -0.00214514 -0.00439011 0.00346212 -0.000378104 -0.0048951 0.000968973 0.00650373 0.000310989 -2.4181e-05 -0.00531199 -0.00558087 0.000593931 -0.000529896 0.00189383 0.00662892 -1.16787e-05 -0.00129267 -0.00343094 0.00316444 0.00352022 0.000820619 0.0029427 -0.0016654 0.00785397 -0.0094159 -0.00182731 0.00550447 -0.000210499 -0.002136 -0.00485876 -0.00035358 -0.00169928 0.00270454 0.00432134 0.000968356 -0.00204603 0.00156613 1.51966e-05 0.00503078 -0.000639634 0.00486087 -0.00672353 -0.00392708 -0.00179278 0.00438281 -0.000410504 -0.00290401 0.000191033 -0.00391405 -0.00264285 -0.00289785 -0.00192123 0.00158857 -0.000715316 -0.00155567 0.00272547 -0.00526051 -0.0022872 -0.000980912 -0.000248912 0.000419074 0.00298815 -0.000301709 -0.0047957 0.00232411 -0.00504989 0.00313239 0.00229634 -0.00233663 0.00240318 0.00200416 0.00319084 0.0047651 -0.00180449 -0.00598747 -0.000672653 0.000286564 0.00520634 0.000773929 0.00014197 0.000519487 0.000879796 -0.00356294 0.00362757 -0.000378547 0.00320804 0.000370028 -0.00323385 0.00255493 -0.00138769 -0.00398248 -0.000100202 -0.0047148 0.00222777 0.000499733 0.00227536 0.00512864 0.00225129 0.00481222 -0.00238592
103 -0.00211909 0.000540984 -0.000971526 -0.00102754 0.00362845 0.003708 -0.00123679 0.00384811 -0.00438732 -0.000260219 -0.00153513 -0.00322955 0.00299938 0.000425786 -0.0013986 -0.00150206 0.00739986 -0.00174837 0.00103326 -0.00144019 -0.000358222 0.0060595 -0.00276027 -0.00238343 -0.00125008 0.0010269 0.00284997 -0.0032281 0.00342079 -0.00567458 0.00563427 0.00419713 -0.00413771 0.00583236 -0.000260135 0.000153362 0.00343892 0.00011559 -0.00506672 -0.00095817 0.0051474 -0.00181886 0.00379783 0.000217014 -0.0006988 -0.00044671 0.000765703 0.00751008 0.000834193 0.00175451 -0.000369059 0.00420349 -0.00910325 0.00134747 -0.000402538 -0.000312601 0.0012501 -0.00427786 -0.00407413 0.00224345 -0.000731747 0.00353471 0.000879801 0.00196108 0.000251369 -0.00240052 -2.88484e-05 0.000565663 -0.000417891 0.000206517 -0.00574752 0.000328803 0.00118253 -0.0039243 0.00322225 0.00288071 0.000900538 -0.00140412 -0.00486421 -0.00502759 0.000340541 -0.000359728 -0.00239433 -0.00160679 -0.00541681 0.000565535 -0.00125862 -0.00231787 -0.00167889 -0.000693851 0.000474142 0.00105518 0.00281202 -0.00269187 0.00254418 0.00173281 -0.00217732 0.00167506 0.00287227 0.00432578 7.24295e-05 0.00430633 0.000819247 0.00216765 -0.00198447 0.00203018 -0.000743748 -0.0020761 0.000295395 0.00376932 -0.000950623 0.00474542 -9.11752e-05 0.00410361 0.000795369 -0.00681711 2.07992e-05 0.00021374 -0.00293579 -0.00602021 -0.00234401 0.00284928 -0.000748299 0.00383184 -0.00141304 0.00492245 -0.00155121 0.00364619
119 -0.00125437 1.88986e-05 -0.00204658 0.00173992 0.00129693 0.00211377 0.00224791 -0.00139888 -0.000400483 -0.00472285 0.0039113 -0.00219309 0.00379651 0.00258407 3.65607e-05 0.00553134 0.00916438 -0.00151454 0.00467865 -0.00174639 0.00322413 0.00723344 0.00315385 8.48231e-05 0.00400265 -0.000756849 -0.000106821 0.00283979 -0.00191117 -0.00419082 0.00408171 -0.00221745 0.000572608 0.00319928 0.000901677 -0.000351534 0.00302709 0.00118468 -0.00349116 -0.00263653 0.00467674 0.00146037 0.00332589 -0.0033646 0.000844543 -0.0014553 0.00229001 0.00632567 0.00017726 -0.00192839 -0.00493178 0.00708608 -0.00537649 0.00246308 0.00485244 0.00136522 0.000203775 -0.00942491 -0.00492624 -0.00433991 0.00722681 0.0065069 -0.00176667 -0.000154834 -0.00372043 -0.00140634 0.00680222 0.00179053 0.00158828 -0.00370814 0.000505696 -0.00281899 0.00124149 -0.00332293 6.12389e-05 0.000916715 -0.000151012 -0.000781066 -0.0018558 -0.00167908 -0.00530925 -0.0046007 0.000231733 0.00367813 -0.00619626 -0.00519312 0.000731637 -0.000500662 -0.000487105 0.00303786 -0.00126025 0.00172371 0.00257522 -0.00291558 0.0023157 0.00314068 0.000127808 0.00084475 0.00604085 0.00283993 0.000458918 0.00186856 0.000387416 0.00288002 0.00163823 0.00543978 -0.000322078 -0.00480208 -0.00176896 0.00329903 -0.00514609 0.000489352 -0.005971 0.00589282 0.00515427 -0.00765598 -0.00347245 -0.0022377 -0.00668278 -0.00624141 -0.00501492 -0.00026247 -0.00336518 0.00576202 -5.16455e-05 0.0022903 0.006027 0.00220441
342 -0.000291335 0.00438252 0.0013446 0.00163578 -0.00262237 0.00555948 -0.00308095 -0.00205093 -0.00448142 -0.00143205 -0.001408 0.00253575 0.000866331 -0.000466012 -0.000479421 0.00137639 0.00564498 -0.00242232 -0.000584659 -0.00281169 -0.00352152 -8.87659e-05 0.00254495 0.0042274 -0.000941666 0.000251079 0.0022072 -8.99732e-05 -0.000474779 -0.00250028 0.00123645 0.003943 -0.00202527 0.00247891 0.000946226 0.0041337 0.0043217 -0.00305526 -0.00146268 0.00304419 0.00363986 9.92914e-05 0.00191719 -0.00326032 -0.000447197 -0.00305136 -0.00279915 0.00433129 -7.12831e-05 -2.26478e-05 0.000279541 0.00397997 -0.00285443 -0.00219227 0.0026389 0.00294319 -0.00368775 -0.00584802 -0.00217878 -0.00390811 -0.000480286 0.00470184 0.00325245 -0.000374001 -0.00235657 -0.00304802 0.00523718 0.00238728 -0.00132983 0.000695045 -0.00551518 -0.0046473 0.000207841 -0.00140279 -0.00194255 0.000137958 -0.00393161 -0.000272403 -0.00426324 0.000715748 -0.00317673 -0.00521656 0.00235174 -0.00195472 -0.00025836 -0.00292539 0.00337193 -0.00343751 -0.000951957 0.000149859 -0.00391784 -0.00457632 0.00422908 0.00135845 0.000400105 0.00442568 -0.00142522 0.00419781 -0.000230389 0.00188457 0.00414881 0.0047024 -0.0059162 -0.00280037 -0.00165452 0.00127972 -0.00252574 -0.00230079 0.00370564 -0.00313684 -0.00235405 0.00475119 7.14694e-05 0.00351497 -0.00139362 -0.00192558 0.00141598 0.00200089 -0.00563027 -0.0051295 -0.00239725 0.00252273 0.00284791 0.00281077 0.00187058 0.00189249 0.00554686 0.00252126
