661 128
228 0.00133601 0.000797801 0.00156477 0.00263315 -0.00492721 -0.00116563 -0.003359 0.000598972 0.000489689 -0.00207532 -0.00281588 0.00286665 0.00233239 -0.00186934 -0.00476161 -0.00292128 -0.00132824 0.000744903 0.00124835 -0.00310295 -0.00169047 0.00221486 0.000701092 0.00291649 -0.00364417 -0.000912112 0.0041098 2.79086e-05 -0.000868011 -0.000967853 -0.00129226 0.00223001 0.00233298 0.00423961 0.00685901 -0.000684309 -0.00211811 -0.00134275 -0.000789672 0.00322358 0.00489301 0.00292585 0.00162503 -0.00332078 0.00224916 0.00080444 0.000679808 -0.00219976 7.53728e-05 -0.00179083 -0.000570222 -0.00176402 -0.00302864 0.00201811 -0.000421203 0.00316499 0.00400649 -0.00151756 -0.00210602 0.00183193 -0.00534829 -0.00190236 0.00140228 -0.00222693 -0.0016873 0.00201615 0.00412329 -0.0011314 -0.00182081 -0.00208219 -0.0033511 -0.00254903 -0.00213314 -0.000117231 0.00493462 -0.000999214 0.00175114 -0.00440631 -0.000268712 0.00330043 0.00154511 -0.00257755 -0.00439648 0.00202665 0.000674739 -0.00347377 0.00335581 -0.00277878 -0.00170971 -0.00304285 0.00266768 0.00232601 0.00346135 -0.00312771 -0.00508991 -0.00201898 0.00191169 0.00347302 -0.00269228 0.00440019 -0.00299162 0.000352079 -0.00357547 0.00123008 0.00410461 -0.00126003 -0.00383799 0.00390497 0.00150951 -0.00606771 -0.00299815 0.00133253 -0.000857599 -0.00306859 0.000641767 -0.000908548 0.00514776 0.00239184 0.00173265 -0.00452228 0.00323652 -0.0023844 -0.00258333 -0.00212511 0.0030439 0.000395758 -1.15403e-05 0.00257441
269 0.00377498 0.00439718 0.00172132 -0.00159718 -0.00704857 0.000147073 0.00148363 -0.000593384 0.00024104 -0.00187758 0.000166195 0.0022837 -0.00520638 0.000408834 -0.00490045 0.000446414 0.000970932 0.000948246 0.000961637 6.74929e-06 -0.00410073 0.00193019 -0.00148623 2.42973e-05 -0.00364915 -0.000863125 0.00602948 -0.00225025 0.00196488 -0.00128598 -0.00221642 -0.0019281 0.00149036 -0.00311064 0.0065188 -0.000746175 -0.00333639 -0.00378759 0.00250507 -0.000849723 -0.00142448 0.00174495 -0.00196157 0.00114482 0.000811863 -0.00244726 0.00295385 0.00183713 0.00102326 -0.00517846 -0.000630683 0.00607097 -0.0014448 0.00487491 0.00138406 -0.000375614 0.00640125 -0.00229012 -0.00339149 0.0010566 -0.00537027 -0.00355717 -0.00331843 0.00211139 0.000792488 -0.00242769 0.00222737 0.000587821 0.00164321 0.00136117 -0.00330418 -0.000159429 -0.00230929 -0.00287114 0.00278294 -0.0052137 0.0017076 0.00208916 0.00163649 0.00595328 0.000976339 -0.00414883 -0.00569459 0.00442316 -2.25553e-05 -0.00565584 -0.00319218 -0.0033501 -0.00133657 -0.00444858 0.00159288 0.00258163 0.00422622 0.0019613 -0.000897351 -0.00203367 -0.00202584 0.00189724 0.00446026 -0.0029488 2.48094e-05 0.00253679 -0.000215902 0.00392033 -0.0016843 0.00156746 -0.00300439 0.00241477 0.00804596 2.34596e-05 -0.00335894 -0.00152708 0.00201692 -2.3842e-05 0.000255545 0.00299242 0.00444287 0.00304242 0.0042279 -0.000545339 -0.00200672 -0.00178583 -0.00208991 -0.00612597 -0.00259838 4.87042e-05 0.00346528 -0.00503874
385 0.000938168 -0.00253388 0.000365124 0.00529722 -0.00200997 0.00218578 -0.00429548 -0.000663869 -0.000887887 -0.00595983 0.00469728 0.00220688 -0.00436415 -0.00100957 8.31196e-06 -0.0031582 -0.00179131 0.0033764 0.000132918 -0.00193587 -0.00301705 0.00507486 0.00257615 0.00232305 -0.00387932 -0.00174725 0.00397988 0.00108414 0.00246892 -0.00341164 -0.00025208 0.00185173 -0.00292304 0.0011651 0.00506907 0.00220982 0.00312522 0.0011789 -0.00130526 0.0064996 0.00247877 -0.00282287 0.00237144 -0.00306303 -0.00209117 0.00508974 0.0030703 0.00369103 0.00529543 -0.00123781 -0.00129176 0.000434119 -0.000781849 0.00491587 0.00293718 0.00184199 0.00750692 -0.00325285 -0.0072656 0.00306696 0.000377126 -0.00311906 -0.000646813 0.001258 -0.00298841 -0.00115666 0.00202638 -0.00550459 -0.00176226 0.00161404 -0.00517537 -0.00190897 -0.00127889 -0.00429673 0.00556408 -0.00469042 0.000642014 -0.00493699 -0.00279727 0.00259313 -0.00426063 -0.00299474 -0.00124699 0.00478741 0.00136925 -0.000568276 -0.00103053 -0.00361642 0.00333683 0.00105072 0.003203 -0.00199398 0.00426144 -0.00233394 -0.000979876 -0.00304515 -0.00120029 -0.00118607 0.000385581 -0.00251557 -0.00310994 0.0043977 0.000340344 0.00192883 0.00272428 -0.00212267 -0.00364218 -0.000376596 0.00559907 -0.00393315 0.000869512 -0.000975276 -0.00277906 -0.000226651 -0.0026661 -0.00168474 0.00341531 0.000891879 0.00366688 0.000805007 0.0024466 -0.00046081 -0.00320977 -0.0038463 0.000389242 -0.00318367 -0.000706008 0.00016087
300 0.00251891 0.00403269 -0.000665213 -0.00167592 -0.00328602 -0.00404091 -0.00273389 -0.00180741 0.000214675 -0.00217961 -0.00275795 -0.00287965 0.00108611 0.0031109 -0.001031 0.00244727 -0.0041907 0.00228675 0.00103695 -0.00367943 0.000720593 0.00536373 -0.000257867 0.00331101 -0.00580909 0.0037152 0.00102425 0.00328722 -0.0014965 0.000150816 -0.00443948 -0.00354251 -0.00351126 0.0027006 0.00875521 0.00272009 -0.000876602 -0.00376161 -0.00404121 0.00149483 0.00516034 -0.000204755 0.00377306 0.000581488 -0.000822644 0.00309768 0.00440703 -0.00307134 0.0057399 -0.00280738 -0.00401828 0.00650002 -0.000641271 0.00403413 -0.00318145 0.000906281 0.00781232 -0.00407418 -0.0057704 7.56524e-05 -0.00455883 -0.00340728 -0.00647663 0.00280434 -0.00170495 -0.000514958 0.000474472 -0.00159211 -0.00267546 0.00291811 0.000692066 -0.00151915 -0.00423252 -0.0030926 0.0023202 -0.00512366 -0.00109621 -0.00312329 -0.00220159 0.00315639 -0.001769 -0.00465116 -0.000614303 0.00495556 0.00604378 -0.00508753 -0.00243224 -0.00265354 0.0030795 -0.00410255 -0.00323086 0.000484596 0.0026433 0.000348619 -0.00250841 -0.00561663 -0.00348148 0.00130903 -0.00136607 0.00226222 0.00159198 0.00604446 -0.000618672 0.00291762 0.00367484 -0.00450769 -0.00536415 0.00125667 0.00985404 -0.00374597 -0.00437477 0.00403845 9.82576e-05 -0.000372026 -0.00485203 0.000288927 0.00870355 -0.00324993 0.00567377 -0.00463405 0.00298665 0.00190071 -0.00237939 -0.00523963 0.00144919 -0.00604574 0.00341102 -0.00242283
656 0.00807546 0.00370685 -0.00234919 0.00406001 -0.00210692 0.00186462 9.70972e-05 -0.0047089 -0.0017911 -0.0003044 0.00212493 0.00392652 0.000778546 0.000724958 -0.00570684 -0.00253031 -0.00526681 0.00311089 0.00456836 -0.0053244 -0.00307512 0.00364895 -0.00396671 0.00379406 -0.00680474 0.00175399 0.00677151 0.00269618 -0.00257797 -0.00129343 -0.00668833 -0.000497032 0.00230692 0.000653278 0.00811451 -0.00115217 -0.00341245 -0.00263458 0.0022521 0.00466832 0.00189076 0.00409738 -0.00315141 -0.00197781 0.00465114 -0.00208799 0.0102232 -0.00130633 0.00279021 -0.000942677 -0.00429034 0.00550153 -0.0034438 0.00364321 0.00100985 0.0038144 0.00539326 -0.00226257 -0.00415998 0.00283405 -0.006963 -0.00160399 -0.00485229 0.00593025 0.00294533 -0.00138612 0.00161981 -0.00664612 0.000380139 0.00237064 -0.00250858 -0.000650886 0.000728574 -0.0062467 0.00373774 -0.00739051 -0.00418599 -0.00182586 -0.000337052 0.00278963 -0.00435298 -0.00153511 -0.00344193 0.00556278 0.00651635 -0.00317485 -0.000111994 -0.000435756 0.000434579 -0.000673159 0.00147468 -0.00293966 0.00562444 -0.000456015 0.000952843 -0.00566818 -0.00248628 -0.00145098 0.00499812 -0.000965121 0.00170652 0.00044257 0.000422593 -8.50062e-06 0.00328766 -0.00128283 -0.00321138 0.00685897 0.00665911 -0.00350316 -0.000324828 0.00417854 -0.00028185 0.00291224 -0.000748614 -0.00206816 0.0127932 0.00112098 0.00550155 -0.00231235 0.000163231 0.00341657 0.00177628 -0.00937962 0.00187174 -0.000246677 -0.00131606 0.000522498
621 0.00479862 0.00250652 0.00155387 0.00123521 -0.00468684 0.000795771 -0.00139239 0.00293866 0.00211476 -0.000466286 -0.00175562 0.000923642 -0.00322996 0.000538921 -0.00446743 -0.00211771 -0.00322506 -0.00174043 0.00266068 -0.00363002 -0.000966057 0.00425498 -0.00260665 0.00412067 0.00188079 0.00494504 0.00111795 0.00288742 0.00230328 -0.00325309 -0.000659233 -0.000171169 0.000262953 -2.80878e-05 0.0040394 -0.00301274 0.000394341 0.00195319 -0.000958899 0.00386097 -0.00210757 -0.00290809 -0.00326565 0.00102658 0.00151591 0.00169981 0.00497534 0.00359557 0.0037406 -0.000176875 0.000256676 0.00340043 0.00178158 -0.00178723 0.000757996 0.00276823 0.00599359 0.00113664 -0.00401343 0.00478331 -0.00485352 -0.00577703 -0.00452411 0.00230074 0.00159069 -0.00291093 -0.00132819 -0.00053751 0.000677652 0.00249927 -0.00110904 -0.00452778 -0.00381709 -0.00359327 0.00405561 -0.000546692 -0.00395484 0.00132159 0.00222334 0.00548393 -0.000782297 -0.00160036 -0.00279091 -0.00107666 -0.000606892 0.000932982 -0.00205349 -0.00128572 -0.00265587 0.00137052 -0.00118195 0.0018246 0.00267897 0.00135038 0.00204891 0.000314914 -0.000932819 -0.00327835 0.000741176 0.000277428 0.000240233 0.00197317 -0.00392202 0.00211436 0.00187246 -0.000426638 -0.00382757 0.000191501 -0.000239683 -0.00514595 0.000890401 0.00220208 -0.00254493 -0.0014315 -0.00199619 0.00230385 0.00272524 0.00036618 -0.00185899 -0.00460934 -0.00265 0.00289649 -0.000901221 -0.00349029 0.000675558 -0.000739233 0.00199241 -0.00296398
51 0.00549835 -0.00232441 8.12665e-05 0.00305201 -0.00135433 0.00274179 -0.00182123 0.000956059 -0.0037683 -0.00552749 0.000622579 -0.00157797 -0.00388895 -0.00064741 -0.00460698 0.00300066 -0.000683957 0.0013207 0.000279096 -0.00128944 0.000147667 0.00543518 0.00135448 -0.00162492 0.00146461 0.00267524 9.89775e-05 -0.000814637 -0.00183925 -0.00134287 -0.000822352 -4.28561e-05 0.00110029 -0.000737033 0.00705164 -0.0011205 0.00133982 -0.00158174 0.0022367 0.00284232 -0.00198376 0.000758736 -0.000236648 -0.000838843 0.00164557 4.55127e-05 0.00687057 0.00221069 0.00504708 -0.00327605 -0.00257748 0.00131346 0.00170553 -0.00230719 0.00271597 0.00209863 8.50177e-05 -0.00418549 -0.00321076 -0.000430159 -0.00518406 -0.00203597 -0.00469406 -0.000568462 0.0023648 0.00228025 -0.00222512 0.00163632 0.00209614 0.00289469 -0.00409635 0.000901488 0.00169483 -0.00415789 -0.000794508 -0.00620441 -0.00287918 0.00234867 0.00411435 0.000280826 0.00169306 -0.00265512 0.000164334 0.0041128 0.00181333 -0.00307274 0.0027016 -0.00258575 0.00339239 -0.0035868 -0.00235872 -0.00374897 0.00636519 -0.00149355 -0.000393767 0.0010601 -0.000901253 -0.00302734 -0.00205935 0.00106784 -0.000739153 0.00185739 -0.000324776 0.00219618 -0.00181648 -0.000716172 -0.00354213 -0.00144477 0.00180465 -0.00062138 0.00172083 0.000456017 -0.00221357 0.002512 -0.00195436 -0.00337887 0.00978399 0.00394319 0.00346648 -0.00463391 0.00100483 -0.000604509 -0.00316345 -0.000978809 0.00013461 -0.00170915 -0.000940574 -0.00472664
428 0.00167605 0.00368734 0.00131021 0.00253406 -0.00398565 -0.000328089 -0.00131443 -0.000562332 0.00238563 0.000149744 0.00227827 -0.00287132 0.00106661 0.00316499 -0.00447433 -0.0028835 -0.00326048 0.00435618 0.00080485 -0.0048909 0.00267381 0.00342543 0.00014467 -0.000372125 -0.00397428 -0.000871297 0.00370317 0.00306513 0.00169277 -0.00263041 -0.00360405 0.00136641 -0.00299195 -0.00224002 0.000409995 0.0014442 0.00217984 0.000123829 -0.00161178 0.000372964 -0.00086797 -0.00198144 0.000532875 0.000610312 0.000329765 0.00315856 0.00623214 -0.00353118 0.0036977 -0.00186205 -0.00222117 -0.00141602 0.000309766 0.000523023 9.34975e-05 -0.00384414 0.00344872 -0.00336651 -0.00345201 -0.000433061 -0.00299656 -0.00558601 0.00010511 0.000266964 -0.00016654 -0.00141465 0.00096918 0.000623031 -0.00230254 0.0054994 -0.00488508 -0.000793309 -0.000128888 -0.00616405 0.00286916 -0.00145363 -0.00498141 -0.00151787 -0.00213397 0.00687425 0.00120431 -0.00306495 -0.000934351 0.00483796 0.00341405 -0.00085091 -0.00257055 -0.00590165 -0.00107728 -0.00343358 -0.00137497 0.000504479 0.00309872 0.00355666 -0.00307726 -0.0040069 -0.00036891 -0.00331196 0.00213017 0.0025785 0.00179993 0.00378927 -0.00129543 -0.00189645 6.38494e-06 -0.00416138 -0.00254532 0.00265771 0.00590799 -0.00314718 -0.00116856 -0.00107177 0.00359465 0.000222002 4.08225e-05 -0.00208441 0.00567584 0.00210687 0.00222264 0.000537308 0.00146585 0.00545542 -0.00473975 -0.00115118 0.00452256 -0.00133946 -0.00341115 -0.00209089
414 -0.000211026 -0.00226201 -0.00377371 0.00302113 0.000664967 0.00146115 -0.00478461 -0.00353719 0.000709426 -0.00142101 -0.00265698 0.000206953 -0.00225064 0.00285168 0.00144568 0.00193444 0.000999084 -0.00281699 -0.00119817 -0.00297269 -0.00296797 0.00115139 0.000962953 0.00277312 -0.00576759 -0.00163611 0.000164208 -0.00235119 -0.00122535 0.00112358 -0.00438044 0.0026292 -0.00229423 0.000312975 0.0070647 0.000183554 0.00145507 0.00159751 -0.000534588 -0.00101576 -0.000700582 0.0025387 0.000795284 -2.50935e-05 -0.00132984 0.000923783 0.00636461 -0.00140933 0.00287503 0.00148569 0.000554308 0.00353744 0.00112516 -0.00225131 0.00172959 0.00226248 0.00518971 -0.00251011 -0.00187378 0.00559 -0.000974407 -0.00531019 -0.00515236 0.00525453 0.00142913 0.00160897 0.000423129 -9.45069e-05 0.00265246 -0.00224654 0.001846 -0.00139125 -0.000532347 -0.00152776 0.00523564 -0.00298059 0.00103793 0.000311105 -0.00115498 0.0053287 0.000730306 -0.00176865 0.00172023 -0.000225502 0.00453311 -0.000284078 0.00103706 -0.00558796 0.00315544 0.00111931 0.00244153 -0.00259678 0.00398586 -0.00111859 -0.00304241 -0.00347516 -0.00270542 0.00240636 -0.00164316 -0.00100928 0.00294108 -0.00157921 0.000527047 0.00217887 0.00505586 -0.00255555 -0.00113553 0.00205577 0.00782649 -0.00576101 0.00287633 0.00355982 0.00167702 -0.00176027 -0.00213371 0.00156193 0.00803339 -0.00361631 0.000872487 -0.000702261 0.00266256 0.00508964 -0.00438554 -0.00636609 -0.00287915 -0.00216556 0.00397041 -0.00176553
631 0.00598745 -0.00261812 0.000522628 -0.00030778 -0.00282147 -0.00111273 9.5178e-05 -0.000698197 -0.00122153 -0.00219473 -0.00171221 -0.00213393 -0.00287921 0.000229472 -0.00586524 0.00320132 -0.00474642 0.00367129 -0.000188012 -0.00418132 0.000685562 0.00566616 0.00155607 0.00442055 -0.002979 0.00526576 0.00183252 -0.000970542 -0.0024123 0.00278135 -0.00102632 -0.00405137 0.00319058 0.000679999 0.00828184 0.000408449 0.00171677 -0.0050816 0.000904246 0.0020668 0.00345842 -0.00201328 0.00352472 0.00204449 -0.000377449 -0.000131875 0.00091051 0.000960408 0.00214257 0.00105404 -0.000775022 0.00418971 -0.00271525 0.00406585 0.00298605 0.0039644 0.00241117 -0.00178498 -0.00494965 0.000151403 -0.00463958 -0.00329437 -0.00205301 0.00499161 0.00290545 -0.00201882 -0.000633428 -0.00257368 -0.000408456 0.00349576 -0.00283878 -0.000354457 -0.00534601 0.000658707 0.00247087 -0.00351104 -0.00121031 -0.00376717 -0.00217241 0.0012249 -0.00367091 -0.00513552 0.00154879 -0.00245257 0.00152295 -0.00220468 -0.00204284 1.44281e-05 -0.00265014 0.00127117 -0.00304984 -0.00412866 0.00496042 0.00449937 0.00085519 -0.00496936 -0.0040879 0.00317206 -0.000639008 0.00303721 0.00163985 0.00578332 0.00290645 0.000705114 0.00420279 -0.00117547 -0.00242281 0.000236139 0.00322553 -0.000916965 -0.000280796 0.00274412 -0.000631877 0.00239187 -0.00136366 0.00200934 0.00762167 -0.000567058 0.00477376 -0.00237818 0.00132608 -0.000738486 -0.00025737 -0.00655405 -0.000981308 -0.00454514 0.00332791 0.00254504
322 0.00616312 -0.00278687 -0.00264446 0.00427448 -0.00200296 -0.00269041 -0.00342197 -0.00468783 0.00241683 -0.00565481 0.00329661 0.00227887 -0.000610748 -0.000634744 -0.0014631 0.00105448 -0.00412224 0.00433398 0.00426041 -0.00505598 0.00121983 0.0028541 0.00105751 0.0025752 -0.00480776 0.00165326 0.00607789 -0.00316132 -0.00161616 0.00222451 -0.000132172 0.00266109 0.00283695 -0.00155817 0.0040736 -0.000236324 0.00145267 -0.00423749 0.00106488 0.00300715 0.000415889 -8.85035e-05 -0.00120169 0.00103672 3.35104e-05 0.00118273 0.00441243 -0.00237693 0.00726836 -0.00165987 -0.00164745 -0.000595473 -0.000652861 0.00397975 -0.0032086 0.00307827 0.00579849 0.000945137 -0.00635669 -0.000198782 -0.00330922 -0.00358302 -0.00135202 0.00366921 0.00141345 -0.00197425 -0.00199656 -0.00145256 0.00218441 0.00442371 -0.0042663 0.00170235 -0.00423061 -0.00205147 -0.000981912 -0.00652803 -0.00470643 0.000274175 0.00204927 0.00759596 0.00254833 -0.0049783 0.00167413 0.00316206 -0.000915504 -0.00216044 -0.00402473 -0.000278221 0.00334045 0.0009285 0.00113023 0.00286017 0.00581831 -0.00120872 0.00142409 0.00131646 -0.00202154 -0.00128216 0.00458102 0.00284616 0.00203571 -0.000435102 -0.00356325 -0.00240434 0.00437404 -0.00241627 0.0022201 -0.000293409 0.00794722 -0.000716548 0.00147715 -0.00147051 -0.00291409 -0.00182081 -0.00263752 -0.00124874 0.0098052 0.00162586 0.00527552 -0.00379777 -0.00109938 -0.00128248 -0.00409912 -0.00508801 0.00439163 -0.00491055 -0.000498159 0.00194789
411 0.00304534 0.00331263 0.00174539 0.00233288 -0.0025141 -0.000371432 -0.00387364 -0.000994712 -0.00344546 -0.0030174 0.00193555 0.00211644 -0.00457257 0.00564452 -0.00578505 0.00172618 -0.000739602 0.00132042 -0.00207405 -0.00627534 -0.00346554 0.00573097 0.00183787 0.000795559 0.000835396 0.00338808 0.00562856 0.00110973 0.00011846 -0.00176211 -0.000543648 0.00230604 -0.000979276 -0.00122256 0.00735225 -0.0016281 0.00244585 0.00102002 -0.000147239 0.00027697 0.00376854 0.00369627 -0.00148194 -0.00451017 0.00565807 0.00275584 0.00869656 -0.00099363 0.0048281 -0.000237801 0.00201342 0.00515516 0.00144341 0.00181732 0.00206929 0.00242436 0.00711397 -0.00400937 -0.00574927 0.00300513 -0.000873969 -0.00773556 -0.00600059 0.00546283 0.000937904 -0.0020214 0.00562435 -0.00309253 -0.00386464 0.00287653 0.000384299 -0.000445258 -0.0019919 -0.00102836 -0.000443937 -0.00755719 -0.00553445 -0.000493154 0.000280621 0.00536467 -0.00104115 -0.00285579 -0.00122974 0.00110955 0.000412839 0.000614056 0.00201951 -0.0029273 -0.000976715 -0.00155001 -0.0014157 0.000320804 0.00353271 -0.000235649 -0.0050012 -0.00597257 -0.00190753 -0.00168835 0.00229911 0.00324484 -0.00292265 0.000824731 0.000113169 -0.00293613 0.00325524 -0.00336195 -0.00338988 0.00277201 0.00365411 -0.00851584 -0.00111207 -0.000609138 -0.00341617 0.00157891 -0.00319676 0.00233531 0.0101759 0.00175826 0.00492955 -0.00741089 0.00149546 -0.000257035 -0.0011564 -0.00550399 0.00529208 -0.0023222 -0.00126474 -0.000110866
25 0.00313718 0.00148532 0.00272305 -0.0015853 -0.00496419 -0.00145092 0.000972215 -0.00249775 -0.00175399 -0.000651232 0.000492528 0.00277667 -0.00260134 0.00467649 0.00060659 -0.00268186 -0.00257978 -0.000329945 -8.27983e-05 0.000435657 0.00213318 0.000926113 0.00254859 -0.00146468 -0.00502706 0.000920489 0.00223329 0.00205881 -0.00135673 -0.00391203 0.000975866 -0.000930643 -0.00398101 -0.00140982 0.00480577 -0.00226639 -0.00333023 -0.000231219 0.000643428 0.00486423 0.0029941 -0.000850253 0.00386359 -0.000764196 -0.00179288 0.000999506 0.00583314 0.0039959 0.00289538 -0.00268055 -0.00151883 0.00409078 -0.00130416 -0.000204913 0.000169627 0.00207205 0.00711837 -0.00379709 -0.00477658 0.00139941 -0.00129147 -0.00550632 -0.000500584 0.00445138 -0.000565594 -0.00181235 0.00395628 -0.00447311 -0.000240049 0.00272533 6.30813e-05 -0.00388202 0.00197594 -0.0060665 0.000469166 -0.00266155 -0.000558591 -0.00108795 0.00242574 0.00183943 -0.000244641 0.00114249 -0.00331804 -0.000578482 0.0049574 0.00182888 7.1303e-06 -0.00383724 0.0019127 0.0020642 0.00289256 -0.0022935 0.00127385 -0.00237305 -0.00203229 -0.0018135 7.14607e-05 0.00277264 0.000775483 -0.00313863 -0.00189725 0.00400159 -0.00306724 -0.000593504 0.00130741 -0.00177272 -0.000899407 0.000665387 0.00821088 -0.00696669 -0.00111815 0.00044371 0.00203368 0.000694699 0.000914702 0.00345795 0.00482878 -0.0022864 0.00466709 -0.00438133 -0.00261069 -0.0018999 0.000601439 -0.0044308 -0.00190901 -0.00477553 0.000605573 -0.00237234
394 0.00474928 0.00295193 0.00266026 -0.000715284 -0.00578569 0.00213609 0.00101499 0.0021515 -0.00357566 -0.00186625 -0.000190004 0.00476324 -0.00505671 0.00546565 -0.00640186 0.00152984 0.00222299 0.00277331 0.00105644 0.00125793 0.00117405 -0.000462374 -0.00250248 0.00165278 -0.00173925 0.0055563 0.00409941 0.00449482 -0.00125678 0.00290956 -0.000117526 0.000536433 -0.000450059 0.0022691 0.00676561 3.69346e-05 -0.00374325 -0.00417346 -0.00300682 0.00118943 0.00514574 0.00506788 0.0021554 -0.00227059 0.00526782 -0.00209324 0.00380296 -0.000757017 0.00604485 -0.00604644 0.0029215 0.00169419 0.00249028 0.00205362 0.00219987 0.00101727 0.00286332 0.000234621 -0.0073025 0.00622352 -0.00608788 -0.00450137 -0.00602524 0.0014782 0.000372207 0.00199673 -0.00100557 -0.00541521 -0.00193668 0.00495594 0.000876437 0.000519347 -0.0036778 4.18728e-05 0.00317302 -0.00759875 0.00149581 -0.00436315 0.00371224 0.00482742 -0.00249206 -0.000573623 0.00109792 0.00142088 -0.00122398 -0.0029091 -0.000207671 -0.00168768 0.000702747 0.00254804 -0.00131889 0.00112095 0.00107938 0.0027513 -0.00223349 -0.00259699 -0.00228388 -0.00359235 0.00248947 0.00154861 -0.000888156 0.000173773 0.000119427 -7.0671e-05 -0.000709739 0.00128847 -0.00300569 0.00600094 0.0070685 -0.00223248 -0.000946459 -9.00501e-05 0.00319501 -0.00011629 -0.00479302 0.00131381 0.00766564 -0.00332023 0.00172774 -0.00386148 -5.45177e-05 0.000150217 -0.00330074 -0.00835595 0.000776686 -0.00198645 0.000532984 -0.00381782
221 0.00716025 0.00263347 -0.00240261 0.00268062 -0.00709727 0.00209829 -0.00579212 -0.00425348 0.00105601 -0.00190157 0.000803485 -0.000554915 -0.00110305 0.00663113 -0.00697363 0.00106979 0.00125829 0.000650064 0.00171697 -0.00561319 -0.00376355 0.00464733 0.000692945 0.000745556 -0.00105377 0.000968914 0.00727132 -0.00150338 -0.0015895 -0.00413684 -0.00521693 0.00197849 5.02062e-05 0.0021018 0.00967571 0.00210176 0.000533549 -0.000761511 -0.00267999 0.00788664 0.000378299 0.00404845 -0.00136684 -0.000862497 0.00487632 0.000130888 0.00435097 0.00146946 0.00147524 -0.00151077 -0.00377747 0.00518141 0.000539493 0.00203463 0.00344183 -0.00141216 0.00229444 -0.00309591 -0.00259955 0.00626577 -0.00348662 -0.00174116 -0.00558813 0.00176643 0.00106067 -0.000894645 -0.000140132 -0.00207653 -0.00263539 0.00258614 -0.00532397 -0.00262681 -0.00308019 -0.00671752 -0.000127027 -0.0103799 -0.00676123 -0.00429122 -0.00018589 0.00210799 -0.00275522 -0.00368322 -0.00401205 0.00545135 0.00576922 -0.00348931 0.000368443 -0.00449667 -0.00100341 -0.0025588 -0.00270357 0.00143448 0.00352767 0.00278993 -3.36121e-06 -0.00424823 -0.00334162 -0.000494965 0.000285421 -0.0010431 0.00257344 0.00491104 -0.00209546 -0.00272806 0.00486833 0.000912269 0.00175475 0.00183136 0.00442735 -0.0052892 0.000608308 0.00266071 -0.000106194 3.95344e-05 -0.000280797 -0.00127286 0.0132498 0.00433644 -3.59958e-05 -0.00389078 0.00247838 0.00466583 -0.00164259 -0.00245126 0.00317856 -0.00354035 0.00225371 -0.00404212
417 0.00526236 -0.00245945 -0.00378895 0.000990059 -0.000342113 -0.000834342 0.000264966 -0.000839832 0.000101802 -0.00318512 0.000244053 -0.0020591 -0.000439036 0.00151089 0.00149703 0.00286163 -0.00352178 0.00130887 0.00158213 -0.00348162 -0.00318244 -3.32155e-05 -0.003001 -0.000159648 -0.000841134 0.00552015 0.00502901 -0.00202917 -0.00379698 0.00125124 -0.00408159 -0.0039796 -0.00403048 -0.000218259 0.00507726 0.00262166 -0.00279005 0.000453477 -0.00231211 0.00433329 0.00095524 -0.000339322 0.00417099 -0.000137505 0.00335424 -0.00218427 0.00601055 0.00179698 0.00578337 -0.00366139 0.000862483 -0.000745021 -0.00223498 0.00508889 0.00130104 0.00143722 0.00136437 -0.00393219 -0.00479746 0.00403998 -0.00540656 -0.00619193 -0.00603031 -0.00135619 0.00392006 -0.0022102 0.00249275 -0.00356825 0.00170971 -0.00121073 -0.00471492 0.000344651 -0.00503383 -0.000261093 0.00385669 -0.000740599 -0.00482845 -0.00440708 -0.00173025 0.005505 -7.09528e-05 -0.00188684 -0.00137938 -9.59546e-05 0.00473781 -0.00374749 0.000664337 -0.00288612 -0.00243842 -0.00266335 0.00373589 -0.00447934 0.00538011 0.00223822 -0.0043552 0.00151777 -0.00482458 0.0022806 -0.000615851 0.00173462 -0.000676775 0.0021651 0.00245619 0.0038162 0.00509667 -0.000954432 -0.00188458 0.00479718 0.00581488 -0.00478543 0.000880237 0.00126398 -0.00363238 2.75178e-05 0.000320065 -0.0016076 0.00352286 -0.000888884 0.0052456 -0.00162652 0.00386994 0.00358915 -0.00301526 -0.00689568 -8.73809e-05 0.000611192 0.00137452 -0.000338299
252 0.0074924 0.0024394 0.00145266 0.000311397 -0.00737855 -0.00285942 -0.000912961 -0.00204019 0.00259666 -0.00257625 0.00335535 -0.00062278 0.000299252 0.00649651 -0.00300163 -0.00435499 -0.00393624 0.00115279 -0.00121603 -0.000507888 -0.00209515 0.00036597 -0.000271227 0.000984861 -0.00697714 0.00136378 0.00312984 0.00167755 -0.000526499 -0.00256603 -0.000672018 0.00312656 -0.00260736 0.00321994 0.00677564 -0.000260889 -0.000156816 0.000819531 0.00236521 0.00268479 -0.000246671 0.0012694 -0.000411875 -0.00137847 0.00273202 0.00354107 0.00716763 3.69591e-05 0.00599272 0.000622217 -0.00411849 0.00695284 0.00206265 -0.000168662 -0.00094838 0.000416574 0.00709566 -0.000769622 -0.00838856 0.00290423 -0.00768736 -0.00367699 -0.00663933 0.00298461 0.00184657 -0.00175935 0.00395509 -0.00587702 -0.00335168 -0.000399139 -0.0043544 -0.001838 -0.00124798 -0.00107692 0.00518763 -0.00597054 -0.000958536 -0.000323637 0.00244169 0.00736316 4.06816e-05 -0.00374955 -0.00505335 0.00150067 -0.000152725 -0.00556757 -0.00361509 -0.00714813 0.00073548 -0.00255269 -0.00175456 0.000744549 0.00493657 0.00426253 -0.00281011 -0.00463163 -0.00421412 0.00249324 0.00534681 0.00428522 0.000174684 0.0063751 0.00216035 0.00139175 0.00491555 -0.00358553 0.00157411 0.00631633 0.00770465 -0.00609984 -0.00355181 -0.000313918 -0.0033938 0.00352654 -0.0034838 -0.00343073 0.00648907 -6.53653e-05 0.0040854 -0.00360277 -0.00269581 0.00534616 -0.00235339 -0.00292846 0.00287401 -0.00508958 0.0037534 0.00144325
238 0.00157638 0.00137423 0.00259714 -4.15165e-05 -0.00401168 -0.000379209 -0.000734985 -0.00204982 -0.00329127 -0.0014719 -0.000900972 0.00285526 -0.00413171 0.00368693 -0.00142031 -0.00128634 0.00204271 0.00297571 0.00543269 -0.00456915 -0.0022868 -0.000110264 -0.000340253 0.00176697 -0.00695251 -0.0013193 0.00530054 0.00185382 0.00104139 -0.00115274 -0.00177992 0.000734347 0.000142354 0.00334848 0.00501425 -0.00199303 -0.00194244 0.000574898 -0.00382822 0.00400713 0.00263282 -0.00106901 -0.00295198 -0.00520337 -0.000194761 -0.000919263 0.00436621 0.00137791 0.00788381 -0.0050964 0.00310798 0.00253158 -0.00387143 0.00471722 -0.00126663 0.00318501 0.00246996 0.0017402 -0.00658531 0.000744578 -0.00753179 -0.00221094 -0.00276665 0.00146515 0.000957986 0.003174 0.00118564 -0.00547755 -0.00187729 0.00118221 -0.00162712 -6.9199e-05 6.13296e-05 0.000393372 0.00310831 -0.00734635 -0.00613744 -0.00337823 0.00257575 0.00690157 0.000848026 -0.00473053 -0.00279937 0.000928864 -8.10738e-05 -0.00325353 -0.00433073 -0.0043406 -0.000287716 0.00116272 0.00184047 -0.00282008 0.00675663 -0.00124256 -0.00566893 -0.00409497 -0.000533494 0.00123949 0.000512758 0.00443602 -0.00056666 0.0036418 -0.00215794 -0.00308842 0.0058219 -0.00210675 -0.00140787 0.00135851 0.00389807 -0.00190197 -0.00225317 0.00244434 -0.0021355 0.00134238 -0.000232385 0.00256425 0.00846604 0.00367874 0.000729742 -0.00658125 -0.00282822 0.00250114 0.000393741 -0.00688828 0.00132645 -0.00407632 -0.00308906 -0.00543585
407 0.00934389 0.00537474 -0.00363742 0.00396466 -0.00803489 -0.00301008 -0.00306006 -0.00329188 -0.00121232 -0.00556875 0.00306437 -0.00135731 -0.00506866 0.00883926 -0.00494565 -0.00462147 -0.000280996 0.000121022 0.000801371 -0.00497435 -0.00271079 0.0031527 -0.00571874 0.000233817 -0.00359405 -3.36772e-05 0.00857568 3.15941e-05 -0.00115726 -0.00176749 -0.00789753 0.00191505 -0.00200885 -0.00294745 0.00998723 0.00256388 0.000149204 -0.00337889 -0.00140304 0.00946271 0.0076921 0.00447328 -0.00287654 -0.00381073 0.00366001 6.97567e-05 0.00697188 0.00172325 0.00978465 -0.00657242 0.000146407 0.00372244 0.00125298 0.00362175 -0.00114998 -0.00271704 0.00804966 -0.00397368 -0.010017 0.00722599 -0.0033231 -0.00781297 -0.00484144 0.00112297 0.00258772 -0.00385293 0.000220778 -0.00580296 -0.000449521 0.00495965 -0.00573026 -0.00301738 -0.00402198 -0.00624436 0.000884023 -0.0110681 -0.000407045 -0.00110862 0.004462 0.0105999 -0.0016141 -0.0075248 -0.00287925 0.00469118 0.00471316 -0.00547165 0.000288795 -0.00904521 0.00515939 -0.0061721 0.00376185 0.00172097 0.00976964 0.000134073 -0.00493965 -0.000476291 -0.00947845 0.000315063 4.8772e-05 -8.67598e-05 -0.00501673 0.00317107 -0.0044923 -0.000751699 0.00510756 -0.00571162 -0.00324449 0.00113913 0.0135109 -0.00969469 -0.00103405 0.00467907 -4.66603e-05 0.00174328 -0.00664381 -0.00273398 0.0128059 0.00231809 0.00257056 -0.00286257 -0.00245794 0.00350973 -0.00125399 -0.00985231 7.98683e-07 -0.00438173 0.00461924 -0.00542184
485 0.000325988 -0.00220678 0.000707576 0.00365157 -0.00393389 0.000277516 0.00218308 -0.00462048 -0.00169938 -0.00143375 0.00201208 -0.00320173 0.0017631 -0.000942937 -0.00528726 -0.00213326 -0.00469356 -0.00279892 0.00114806 -0.00527644 0.00257174 0.00335047 -0.00110407 0.00232551 -0.00518162 0.000619195 0.00396912 0.0017702 -0.000859771 -0.00323955 0.00113611 0.00287603 -0.00237188 0.00184585 9.35067e-05 -0.0017013 -0.000977915 0.00179873 0.00239261 0.000170337 0.00397791 -4.64583e-05 0.00124516 -0.00460211 -0.000982094 -0.00171796 0.00372197 0.002217 0.00105254 -0.00428353 0.00159185 0.00222963 0.00168936 0.000692074 -0.000631708 -0.00169937 0.00703362 -0.000504953 -0.00213392 -0.000455784 -0.00633276 -0.00422203 -0.0011307 0.00164122 -0.00318146 -0.000873218 -0.00108379 -0.00384417 -0.00313403 0.00286857 -0.00448484 0.00229994 -0.00313416 -0.0031297 0.00556862 -0.0018731 0.00195257 0.00239628 0.00332937 0.00347889 -0.00224295 0.000312935 0.00186611 -0.000481972 0.00400936 0.00133 -0.00208517 -0.004161 -0.000442037 -0.00317319 0.00115793 0.00209889 0.00260679 -0.00185641 0.00187081 0.00117391 -0.00573083 0.00229159 0.00411389 0.00326791 0.00212336 0.00195463 -0.00271718 0.00287761 0.00330399 0.000658993 0.00232465 0.00574902 0.00754752 -0.00638808 -0.00214042 0.00209796 -0.000279945 0.00383863 -0.00352228 0.00302656 0.00312198 0.00295089 -0.000257293 -0.0019633 0.00327329 -0.000782169 -0.00293229 -0.00273694 -0.00243297 -0.00165624 0.000825006 -7.47969e-05
69 -0.00167282 0.000700531 -0.000541178 -0.00173218 -0.0041357 0.00197274 -0.00296535 0.000539459 -0.00204146 -0.005256 -0.0032075 -0.0011897 -0.000896261 0.000498431 0.000674986 -0.00263978 -0.00302286 -0.000787214 0.002127 -0.00493051 -0.00176432 0.00339557 -0.00148257 0.000103606 -0.000729213 -0.0024992 0.00447523 0.00202356 -0.00142549 0.000444534 -0.00497236 0.000734446 -0.0036869 0.00347215 0.00462434 -0.000317343 0.00246795 0.00182332 -0.00137683 0.00176699 0.0025863 -0.00278776 0.00372685 -0.00367486 -0.000996281 0.000202273 -0.000419243 0.00394686 0.00429296 0.00166715 -4.30861e-05 0.00485928 0.00318589 -0.00241628 -0.00280487 -0.000835933 0.00612193 -0.00415409 -0.0058504 0.00301089 -0.00557986 0.000371256 -0.00497831 0.00403217 -0.000657994 0.00181573 0.00122966 0.00176022 -0.0026058 -0.00224799 0.000109589 -0.00398543 -0.00181217 7.51731e-05 0.00409715 -0.00560301 0.00105407 0.00212951 0.00437471 0.000346023 -0.00405052 -0.000220201 -0.000498839 -0.0020137 -6.00013e-05 0.00161843 -0.000873403 -0.00229127 0.00237948 0.00209827 -0.00142769 0.00122983 0.0032786 -0.00240016 -0.00340939 -0.000738591 0.000861269 0.00123958 0.000940992 -0.00136052 0.00319595 0.0017507 0.000196765 -0.00150521 0.0040427 -0.00131405 -0.0036852 0.00159907 0.0020745 -0.00196024 -0.00342282 0.00319456 -0.00347902 0.000158281 -0.000584853 -0.00275912 0.00531977 -0.00242198 0.0011608 0.00184849 0.00140946 0.00174026 -0.00326865 -0.000169425 0.00384134 -0.00377863 0.00367729 -0.00164975
378 0.00273705 0.00309808 -0.00311528 0.00465905 -0.00532211 -0.00122277 -0.00207283 -0.00287158 -0.00108713 -0.00550695 -0.000571433 0.00440804 0.000596745 0.00607508 0.00179746 -0.00183245 -0.00444378 0.00253729 0.0040857 0.000626083 -0.00320294 0.00604178 -0.00177951 0.00452676 -0.00350932 0.00510135 0.00477319 0.00199866 0.00278545 -0.000769567 0.00105245 -0.00382099 -0.00191301 -0.000570403 0.00426545 -0.00038846 0.00108855 -0.00533968 -0.0043987 0.00133294 -0.00107461 -0.00145216 -0.000197292 -0.00293006 0.00366529 0.00477332 0.00694192 0.00103476 0.00383915 0.00190994 -0.00307449 0.00396727 -0.00404032 -0.00236617 0.00401281 -0.00150009 0.00476076 -0.00400867 -0.00429819 -0.00148431 -0.00339432 -0.00233442 -0.00203547 0.00367063 -0.00338965 0.00237588 0.000284816 -0.0007888 -0.000505257 0.00181978 -0.00152741 0.00178941 -0.00499979 -0.00305011 7.94786e-06 -0.00757802 -0.00532234 -0.000579216 -0.000729972 0.00371469 0.00246669 -0.00204855 0.000565681 -0.0016685 -0.00117472 0.0019594 -0.00208603 -0.000524728 0.0034162 0.00212361 -0.00213058 -0.00111819 0.00102605 0.00410503 0.00200182 -0.00150652 -0.00327958 -0.000415619 0.00285689 0.00201119 -0.00104054 -0.000131201 -0.00423052 -0.000155856 0.00275525 -0.00113601 -0.00156855 0.000633507 0.00784966 -0.00216744 0.00131906 0.00232102 -0.00213113 -0.00121906 -0.00448821 -0.00311318 0.00845858 -0.00257736 -0.000992281 -0.00420654 -0.00312962 0.00506573 0.000174481 -0.00332809 0.00348564 -0.00530303 -0.00321805 0.000245343
22 0.00679725 -0.00267458 0.00139113 -0.000763108 -0.00506297 -0.00243675 -0.00665335 -0.00195126 -0.00341632 -0.0037087 0.00209319 -0.00232822 -0.00277548 0.0027681 -0.00481026 -0.000901435 0.000535299 0.00547382 0.00298185 -0.000489069 0.000227189 0.00276227 0.00110094 0.0017704 -0.00462095 0.0033372 0.00617869 0.00120717 -0.00130148 0.000406886 -0.00604422 -0.00237893 -0.00248915 -0.00200294 0.0101675 -0.00378898 -0.000714655 -0.0056806 -0.00127504 0.00256743 0.00254318 0.00518455 0.00214334 -0.0020167 0.0034935 0.00255556 0.00974902 -0.00159263 0.00255984 -0.00184201 0.000645195 0.000882342 0.00314283 -0.000288056 0.00322353 -0.00110516 0.00369067 -0.00446381 -0.00356591 0.00372355 -0.00860632 -0.00490422 -0.0038845 0.00463834 8.41842e-06 -0.00325991 0.00104302 -0.00651618 0.000189578 6.46699e-05 -0.00110243 -0.00267491 0.000730535 -0.00111095 0.00559183 -0.00430808 -0.00582736 0.0018326 0.00188761 0.00486305 0.00143513 -0.00418657 0.000615937 0.00553382 0.0010785 -0.00458904 -0.00255193 -0.00670707 0.00226653 -0.0030183 -0.000161946 0.000106567 0.00782724 0.00326361 -0.00225449 -0.00324007 -0.00431458 -0.000902232 0.00435012 0.00320539 -0.00441099 0.00416025 -0.00274894 -0.00351853 0.000760618 -0.00122516 -0.00489672 -0.000292228 0.00586674 -0.00272398 -0.00149669 -0.000783642 -0.000822042 -0.00177324 0.000893449 0.000603092 0.0110071 -0.00295458 0.00570365 -0.00690931 0.00208167 0.00303277 0.00178864 -0.00794317 0.00428934 -0.00202841 0.00254449 -0.00463046
261 0.0026588 -0.00248672 0.000353515 0.0023647 -0.00545805 -0.00217807 -0.00161274 0.00116975 -0.00234201 -0.00455624 0.00447241 -0.000245126 -0.00333887 0.00141092 0.00188286 0.00276777 -0.00332689 0.00414013 0.00412539 0.00158603 -0.00373893 0.0021951 -0.000717636 0.00337287 0.00105466 0.00204569 -0.000571202 0.001608 -0.000821545 0.00181456 -0.00456491 0.00276625 0.000581288 0.00421115 0.0026313 0.0013331 -0.000120944 -0.000263359 -0.00321992 0.0037211 0.0053843 0.00181327 0.00411442 -0.00391095 -0.000713952 0.0021282 0.0021923 -0.000122911 0.00510258 8.54045e-05 -0.00268392 -0.000959983 0.00114463 0.00163033 -1.4437e-05 0.00359413 0.00609793 0.00356536 -0.00232723 0.000789375 -0.00662028 -0.00465172 -0.00191629 0.00296417 0.00336148 0.00245374 0.00423088 -0.000500886 -0.00297099 0.00215155 -0.00456373 -0.00437573 0.000658224 0.000767775 0.00102443 -0.00214621 -0.00334703 -0.00447566 0.00352024 0.00542162 -0.00159515 -0.00155976 -0.00356716 0.00340772 0.000696318 -0.00252644 -0.0037079 0.00164353 0.00384221 -0.000588477 -0.00146326 0.00164005 -0.00102667 0.00441447 -0.000320622 -0.00399174 -0.00197172 0.00289982 0.000693005 0.000742111 9.67045e-05 -0.000516762 -0.00198162 -0.00126797 -0.000632634 -0.00397847 0.00107848 0.0050739 0.00713543 -0.00278813 -0.000419094 0.00368464 -0.00321111 0.000188648 0.000299295 -0.00354245 0.00824302 -0.000881081 -0.00180112 -0.00323389 -0.00132222 0.00471102 0.00203796 -0.00655396 0.00240084 -0.000450308 0.00106135 -0.00278861
112 0.00505349 0.000796214 -0.00224422 0.00249105 -0.00552692 -0.000690767 -0.00223036 -0.0011822 -0.00379514 0.000226873 0.00260422 0.000347774 -0.000948618 0.00136247 -0.00399236 -0.0012726 -0.00304308 -0.00253537 -0.000873643 -0.0032734 0.00285239 -0.000462907 -0.00448998 0.0058142 -0.00305975 -0.000550823 0.00193251 0.00116996 0.00233561 -0.00178862 0.00110754 -0.00209739 0.000675423 0.00146228 0.00304577 0.00184308 0.0015613 -0.00400097 0.00267503 0.00180155 0.00490339 -0.00145933 0.000579977 0.000337449 0.00165378 0.00445925 0.00318152 0.00174668 0.00232382 0.00105816 0.00191747 -0.00052867 -0.00367821 0.00381965 0.0038185 -0.00151522 0.00268831 0.00181002 -0.00782997 0.00307623 -0.000501241 -0.00313327 -0.00480791 0.00586497 0.00344529 -0.00270123 -0.00231036 0.00119494 -0.00356429 0.00542157 -0.00259568 -0.0029231 -0.0044342 -0.00477043 2.27597e-06 -0.00465561 -0.00543634 0.00208559 0.000913861 0.00246749 -0.0013438 -5.62813e-05 0.00160082 0.00403175 0.00507972 -0.000958768 -0.00268527 -0.00568586 1.89143e-05 0.00173613 0.00104921 -0.00281177 0.00236351 -0.00111614 -0.00466311 -0.00138913 -0.00327179 0.00225663 -0.00186713 0.00159005 0.00232867 0.00298533 0.000585197 0.000759848 -0.00137722 0.000796627 -0.00283054 0.00561074 0.00714954 -0.00310198 0.000242555 -0.00238915 0.00128758 0.00223532 -0.00239954 0.000761202 0.00735867 0.00375565 0.00209056 -0.00236743 0.004113 0.000775616 -0.0035311 -0.00276282 -0.00133527 7.9099e-05 0.00305984 0.0012833
389 0.00270183 0.00362745 0.00109381 -0.000951715 -0.00373397 0.000292007 0.00091865 -0.00202457 -0.000900507 -0.00200934 0.00177362 -0.000713992 -0.00133285 0.0049019 0.000378798 0.000128274 -0.00165109 -0.00222535 -0.00132763 -0.000542929 -0.0036705 -0.000344293 -0.00302032 0.0037948 -0.0043281 0.00107883 0.000407233 0.002753 0.000895018 -0.00448513 0.00181995 -0.00226929 -0.000461006 0.00291691 0.00538154 -0.000679402 -0.000367626 -0.00284416 -0.00133791 0.00492344 0.000182176 0.00285173 0.000800247 -0.00270864 0.00405768 -0.0018469 -3.36322e-05 -0.00222225 0.000655429 -0.00357497 -0.00107909 0.00247777 0.00115399 0.00045366 -0.000549709 -0.00159601 0.00424834 0.00105031 -0.000151563 -0.0011618 -0.00402459 0.000540428 -0.0044488 -0.00162192 0.00205504 -0.000507469 0.00162851 -0.00342428 -0.00343296 0.004098 -0.000948525 -0.00222523 -0.00244923 -0.001869 0.00194 -0.00563525 -0.00505536 -0.00163785 0.00122217 0.00675992 -0.000566957 -0.00102223 0.000762458 0.00318542 0.00357013 -0.00421792 -0.000406508 6.79745e-05 0.00133386 -2.58824e-05 0.00409601 -0.00418421 1.97544e-05 0.0034984 0.0019966 -0.00296477 -0.00442793 -0.000737726 0.00181675 0.00404273 0.00300645 0.00499689 -0.000803067 0.00372257 0.00194492 -0.00375055 -0.000761392 0.00545595 0.00490687 -0.00447395 -0.00213128 -0.000146958 -0.00294121 0.00137363 -0.00451231 0.000437599 0.00577353 -0.000683737 0.00272688 -0.00271473 -0.000272107 0.00253651 0.00112696 -0.00369669 0.000518672 -0.00349693 -0.00169285 -0.00406147
554 0.00126204 -0.00181468 -0.00116025 0.00279809 0.000338272 0.000690069 -0.00375022 -0.00395979 -0.00111966 0.000337115 0.00409627 0.0035376 0.000333887 0.00313452 0.000578663 -0.0015064 -0.00341285 -0.000213308 0.00419204 -0.00130684 -0.00402883 0.00207503 -0.00357774 0.00125589 -0.00511427 0.00415978 -4.95369e-06 0.00276087 0.00102679 0.000189275 -0.00369759 -0.00306359 0.00058927 -0.00168975 0.0027656 -0.000704247 -0.0045894 -0.00138759 -0.000253717 0.00663814 -0.0007885 -0.000819627 -0.00203652 0.00101369 0.00265803 -0.00272261 0.000692454 -0.000233494 0.000427761 -0.00378028 0.00119427 0.0015883 -0.00416529 0.00333253 0.00294555 0.00282782 0.00552914 0.00107418 -0.00475455 -0.000703967 -0.0053215 -0.00398185 -0.0047731 0.00107788 0.00135245 0.00241321 -0.00261403 -0.00540908 6.95557e-05 0.00128595 -0.00237068 0.00112426 -0.00290234 -0.000723992 0.00298782 -0.00375349 0.000437268 -0.00332956 0.00458121 0.00410375 -0.00431921 -0.00215502 -0.00324787 -0.000809762 0.00386967 -0.00471884 0.00145154 -0.006045 -0.00143837 -0.00359342 -0.00277351 0.000488837 0.006029 -0.000793488 -0.00102793 -0.00446868 -0.00170623 -0.00144868 0.000745861 0.00164261 -0.00184783 0.00474565 5.55804e-05 -0.00223981 0.00274928 0.00164489 -0.000800979 0.00552759 0.00536662 -0.00527407 -0.0041874 -0.00221799 -0.000381259 0.00340696 -0.000717956 -0.00187439 0.00916177 0.0013798 0.00492208 -0.00602127 0.00316941 0.00342292 -0.00482355 -0.0069393 0.000853649 -0.00127957 0.00313114 0.000783289
516 0.00387386 -0.00260284 0.00260817 0.00383778 -0.00581472 0.00330899 -0.0035362 -0.00300425 0.00208565 -0.00240122 -0.000595194 0.00424633 -0.00545068 0.0060508 -0.000981084 0.00172657 -0.000533526 -0.00194786 0.00184171 -0.00300169 -0.00342304 0.00562681 -0.00410397 0.00181572 9.81335e-05 0.0021262 0.00320176 -0.000614085 -0.000910263 0.00125087 -0.00115633 -0.00276379 -0.00388799 -0.00159396 0.00371482 0.00135917 0.00140278 -0.00500222 -0.00321805 0.00553158 0.00167983 -0.000729952 -0.00132369 -0.000308447 0.00194558 0.00154942 0.00727784 0.00357879 0.00170412 0.000227201 0.00191234 0.0031072 1.49283e-06 -0.00229586 0.000966665 0.00286594 0.0060198 0.00217768 -0.00243163 0.00585736 -0.00250628 -0.00281687 -0.000284215 0.00178514 -0.00359822 0.00231471 0.00485784 -0.00499599 -0.00472683 0.00263991 0.000786 0.000741056 -0.00303893 -0.00424748 0.00115093 -0.00243321 0.00101185 0.00196691 0.00378614 0.00521568 0.00191082 -0.00409091 -0.0030757 0.00260164 0.00472085 -0.00280948 0.00148854 -0.00105527 0.00248425 -0.00144007 0.00206288 -0.000972327 0.0053469 0.00248943 -0.00346749 0.000508787 -0.00109799 -0.00297106 0.00145209 -0.00256215 -0.00118252 0.000714567 -0.00205776 0.000718729 -0.00106134 -0.0042574 0.000818089 0.00171386 0.00307649 -0.00743364 0.00155108 0.00180482 0.00200732 0.00439904 -4.70535e-05 -0.000360974 0.010697 0.00180805 -0.00155084 -0.00298876 0.00442937 0.0039385 -0.0021557 -0.00755101 0.00115237 -0.00279405 0.000192608 -0.0020272
470 -2.69079e-05 -0.00140793 0.0031285 0.00434014 -0.00292816 -0.00120749 0.000294775 -0.00253951 -0.00249767 -0.0032332 -6.13248e-05 -0.000589953 -0.0037637 -0.00144119 0.00119645 0.00144061 -0.0030072 -0.00129197 -0.000846373 -0.00458975 -0.00327198 -0.0004319 -0.00209274 -0.000382253 -0.00533364 -0.00242997 0.00620909 -0.00292626 0.00236125 -0.00148233 -0.00470042 -0.00430076 0.00376229 -0.00089159 1.16992e-05 -0.00231517 -0.00336442 -0.00428334 0.00253053 7.65511e-05 0.00419983 0.00318802 0.000521774 -0.00398291 0.00239966 0.00479969 0.00149976 0.00320866 0.00642396 0.000401383 -0.000968248 0.00302461 0.0030302 -0.000843124 0.00379512 -0.000792841 0.00420822 0.00189393 -0.00156686 -0.000361191 0.000796326 0.000492634 -0.00251954 0.00123149 0.00356774 0.00140611 -0.00123658 -0.000238747 -0.000711223 0.00228314 -0.00272973 -0.00476231 -0.00467219 0.00176409 0.00117292 -0.00607436 -0.00364564 -0.00339051 -0.000924351 0.00464655 0.00222661 -0.00136768 -0.00514281 0.00417459 0.00166871 -0.00167532 -0.00388899 -0.00170288 -0.00292037 -0.0032712 0.00164452 0.000365122 -0.000883493 0.00362527 0.00189991 -0.00135399 -0.00533045 -0.00339335 0.00100757 0.00235882 1.41465e-05 -0.00177481 -0.000828493 0.00346034 0.00298331 -0.00218262 -0.000894314 0.00384137 0.00576614 3.13587e-05 -0.00449038 0.00285311 -0.00334846 0.00402021 0.000907236 0.00307093 0.00772563 -0.00044192 0.00253293 -0.000953956 -0.000637369 -0.000879031 0.00186756 -0.0060234 0.00166072 -0.00467627 0.00376446 -0.0017195
547 0.00531989 0.00208665 0.00105157 -0.000660052 -0.0050612 0.0018865 0.000924569 -0.00455926 0.000620849 -0.00561846 0.00401506 0.000785127 -0.00557377 -0.00112608 -0.00321636 0.00163001 -0.000690022 -0.000669746 0.00015185 -0.00504183 -0.00174956 -0.000534824 -0.000802133 0.00424606 -0.00459665 0.00173957 0.00306653 0.0037649 0.00327576 0.000116882 -0.00519308 0.00290081 -0.00180321 -0.00209101 0.00774966 0.000473068 0.0005734 -0.00500879 -0.00186724 0.000844753 -0.00192537 0.00248816 0.000949932 -0.00035395 0.00410964 -0.00225058 0.00365872 0.00269172 0.00266183 0.00187537 -0.00126137 0.00503622 -0.00117552 0.00213903 -0.00143563 -2.43716e-06 0.0056407 0.00219718 -0.00656761 0.000825196 -0.00265961 -0.00456516 -0.00380112 0.00137584 -0.00279746 -0.00319305 -0.0001181 -0.00276424 0.00277989 0.000274032 0.000782958 0.0014505 -0.00474471 -0.00334569 0.00271438 -0.000656284 0.00124057 -0.00208856 -0.000903895 0.00308423 -0.000441816 -0.00101371 -0.00465376 0.0019285 -0.00201148 0.000663623 -0.001764 -0.00282687 -0.000890275 0.0013581 -0.00244092 -0.00233337 0.00580102 0.000507716 -0.00397448 -0.00432916 -0.00469839 0.000648981 0.00234482 -0.00100002 -2.6878e-05 -0.000525857 -0.000993277 0.00139066 0.00301139 -0.00487006 0.000735307 0.00228936 0.00119888 -0.00233631 -0.00410143 -0.00210029 -0.00293544 0.0031691 -0.00546881 -0.000376927 0.00421889 -0.000194281 0.000893734 0.000661591 0.00360495 0.00118426 -0.00461239 -0.0070409 0.0027566 -0.00280971 0.00230192 0.00250354
449 0.00361636 0.00336234 -0.00155974 0.00555986 -0.0041752 -0.000359824 -0.00260249 0.000787258 0.00246046 -0.00455016 -0.00131644 0.00310843 -0.00112166 0.00301849 0.00025573 -0.00162295 -0.00128735 0.00191977 -0.00090503 -0.00439317 0.00247632 0.00443967 -2.60766e-05 0.000458454 -0.0061734 0.00411247 0.00471995 0.0031701 0.00117336 0.00234954 -0.00383391 -0.00144525 0.00329542 -0.0021665 0.00770781 -0.000212136 -0.000903543 -0.00186778 0.00144263 0.00346126 -0.00086284 0.00449612 0.00459629 0.000648605 -0.00131233 0.00100234 0.00938288 0.00350101 0.00199153 0.000457902 0.000150844 0.00464123 0.00232327 0.00205587 -0.00119438 -0.000277825 0.00282477 -0.00058724 -0.00630898 0.00314821 -0.00648431 -0.00209161 0.000665674 0.00116481 -0.00100552 -0.00169215 0.00401693 -0.00540594 -0.00240754 -0.000322134 0.000488558 -0.00312219 0.00051699 0.000184873 0.00375385 -0.00915325 -0.00354896 0.000831391 -0.00143629 0.00548758 -0.00153389 -0.000543382 -0.00521058 0.00430142 0.00581992 -0.00144025 -0.000900215 -0.00620076 -0.00208357 0.000942909 0.00140473 0.00206806 0.00234281 -0.000144672 0.00074114 -0.00252871 -0.00274021 -0.00135769 0.00554112 0.00470909 -0.00109376 -0.00070069 -0.00172584 0.00349914 0.00257571 -0.00539674 0.00124499 0.000364477 0.00650875 -0.00725584 -0.00404353 0.00180866 -0.00385449 -4.49813e-05 0.000468979 -0.00345405 0.00789993 0.000623614 0.000853606 -0.00171558 0.00260887 0.00506788 -0.00343729 -0.00709376 0.00279563 -0.00324965 -0.00252042 -0.0052549
474 -0.000848937 0.000177914 0.00118273 0.00250929 -0.00470552 0.00331351 -0.00417156 0.00231969 0.00268341 -0.00524707 -0.00267767 -0.0031989 -0.00434785 0.00149154 0.0013975 -0.00267558 -0.00143109 0.00276726 0.00461816 -0.000483949 0.00202442 -8.10914e-05 0.00295298 0.00173557 -0.00181507 0.00251765 0.000348991 -0.00295587 -0.00200376 -0.00433932 -0.00260661 0.00335422 0.00290145 -0.00341526 5.66218e-05 -0.00329339 -0.0041229 -0.00386869 -0.00175369 0.00359315 0.00268055 0.00166666 -0.00283041 -0.000637749 -0.0017633 0.001951 -0.000564078 0.00423272 0.004112 0.00121823 0.00278972 0.00411076 0.00110688 0.00448885 -0.0029235 -0.00197308 0.000555285 2.57898e-05 -0.0060065 0.00142136 -0.000701932 -0.00221677 0.000449646 0.00326181 0.00199767 -0.00109714 0.000801975 0.00142612 -0.00392614 0.00337796 0.00200656 0.00300566 0.000165689 0.00229517 -0.00186096 -0.00559203 -0.00113478 -0.00384939 0.00347887 0.00177126 -0.000935977 0.00134403 -0.00105837 -0.00228281 -0.00201628 -0.00458008 -0.0023504 -0.000408748 0.00351428 0.0016905 0.000280584 -0.00343666 -0.000369786 -0.00200176 0.00241045 0.00294158 -0.00196987 -0.000447602 -0.00254498 -0.000743188 -0.00353218 0.0018018 -0.000520544 0.00111753 0.00131687 -0.000114926 -0.00399223 0.00430064 0.000805869 -0.00346138 0.0023434 -0.00107835 0.000354563 -0.0024976 0.00159792 -0.000708464 0.00353122 0.00363866 0.000499653 -0.00333164 0.00104476 0.00344766 -0.00454347 -0.00409351 0.00233531 -0.00196867 -0.00182026 -0.00293796
569 0.00377718 0.00179557 0.00192395 0.00331637 -0.000338037 -0.00342397 -0.00318999 -0.00272129 -0.00334607 -0.00373348 -0.00280991 -0.00122159 -0.0022514 0.000774522 -0.000202579 -0.00331793 -0.00025543 -0.00239499 -0.00133848 -0.00150104 0.00123904 0.00543221 -0.00475908 0.00169627 -0.000238151 0.00436427 0.00188583 -0.00134584 -0.000119766 -0.00103539 -0.00142847 -8.16493e-05 0.00308661 -0.00270782 0.0049927 -0.00193437 0.000655529 -0.00517463 0.00176184 0.00326946 0.000759517 0.00403021 -0.00282824 -0.00155164 0.00287594 0.00126258 0.00115634 -0.00180019 0.00625013 -0.00473427 -0.00170077 0.00230612 -7.12185e-06 0.00271759 0.00359611 0.00325703 0.00524816 0.00262972 -0.00685076 0.000931725 -0.000327574 4.14502e-05 -0.000336851 0.00409075 0.000675084 0.00283336 0.000844537 0.00102768 0.00257203 0.00143664 -0.00110792 -0.00108308 -0.00130967 -0.00090615 0.000720229 -0.00667828 -0.00178184 -0.00446422 0.000428046 0.00645626 -0.00499456 0.0004259 -0.000104703 -0.000159861 0.00453695 -0.00529079 0.00261799 0.000460593 0.00304897 0.00218771 0.00298119 -0.004534 0.00153455 -0.000140649 -0.00101852 -0.00060634 -0.00586127 -0.00364225 0.00458233 0.00320164 -0.00278358 -0.000312034 -0.0025503 -0.0019979 0.00352163 -0.000503979 -0.00104617 0.00441528 0.0060644 -0.00556191 0.00264194 -0.00290995 0.00182827 -0.0023907 -0.0014442 0.000496937 0.0105269 -0.0022863 0.00215135 -0.00288017 0.0039074 4.0631e-05 -0.00219369 -0.00309052 0.000939453 -0.00595238 0.000895802 -0.00192394
169 0.00327277 0.00488737 -0.00407206 0.00405229 -0.000529407 0.00198506 0.000660442 -0.00541869 -0.00206032 -0.00293118 0.00277333 0.00204245 -0.000749222 0.00561499 -0.00636953 -0.00113652 2.48331e-05 0.00476361 -0.000770704 -9.41153e-05 0.00276674 -0.000414949 0.00207742 0.00485889 -0.00244344 0.00451386 0.00220371 0.00289239 0.00164647 0.000753805 -0.00563498 0.00257089 0.000480553 0.00148399 0.00412318 0.00290346 -0.00135663 -0.00201263 0.00115331 0.0046606 0.00452361 0.00541041 0.0029763 0.00107168 0.00269341 0.0012475 0.0080517 -0.000720041 0.00116947 -0.00498911 0.00292573 0.00195369 0.000167631 0.0024329 0.0016699 -0.00158561 0.00336867 -0.00102441 -0.00875452 -0.000233664 -0.00352384 -0.00409602 -0.00468066 0.00149631 0.00353994 0.000355311 0.00416188 -0.00256612 -0.00237568 0.0018271 -0.000863636 -0.00110337 -0.00176852 -0.00716741 0.00331114 -0.00817296 -0.00466852 -0.0010986 0.00339495 0.00707341 -0.00541348 0.000312981 -0.00583368 -0.000415686 0.00483294 -0.000161223 0.00206875 -0.00237997 -0.000215678 -0.00367524 -0.000386658 0.00209555 0.00224204 -0.00176814 -0.00257594 -0.00274184 -0.00688699 0.00321176 -5.17752e-05 0.00432958 -0.0039655 0.00360026 -0.00468417 0.00171388 0.00617742 -0.00184856 -0.0019649 -0.000398787 0.00982052 -0.00369293 0.00188473 0.000551076 -0.00411084 0.00400173 -0.00375039 -0.00247024 0.00865983 0.000864239 0.00558345 -0.00340248 0.00129367 0.00063275 6.85264e-05 -0.00425518 0.00314699 -0.00102454 0.00413346 -0.00201416
335 0.00154229 0.00274524 0.00139389 0.00132028 -0.00548498 0.00144842 0.00132211 -0.00253525 -0.000262786 -0.00335785 0.00379815 0.000670224 0.000561745 0.000265914 8.32625e-05 -0.00129829 -0.00350251 -0.00129193 0.00214402 -0.00483661 0.00318776 -0.000810197 0.00107379 0.000922833 0.000426902 0.00104516 0.00341093 -0.00324542 -0.00197094 -0.000762473 -0.00466846 0.00251694 0.00339479 -0.00156995 0.00631874 0.000302812 0.0024771 -9.59811e-06 0.00224905 0.0046891 0.00266968 -0.00199617 -0.003182 0.00290578 0.00331534 -0.00265231 0.00193668 -0.00335676 0.00416072 -0.000349298 -0.00193125 -0.00140162 -0.000846241 -0.000744828 0.00210914 -0.00264513 0.00423315 -0.000972144 0.000277342 0.00407406 -0.00401517 -0.00507187 -0.00171256 0.00134481 0.00236979 -0.00277256 -0.000308588 -0.00426611 -0.00309422 0.00300828 -0.00417469 0.00223373 0.00103429 -0.00406555 -0.000600411 -0.000734637 -0.0013976 -0.00156256 0.0024301 -0.0013491 0.00022703 -0.00111594 -0.00171688 0.00312547 -0.00125414 -0.00282412 -0.000524677 0.00176802 -0.00315227 -0.000692368 -0.00326521 -0.00260852 -0.00161302 0.000934654 0.00229868 0.00258087 -0.00207221 -0.0029756 0.000657479 -0.00201541 0.000683332 -0.0019321 -0.00275726 -0.00252518 -0.00275391 -0.00164162 -0.00452611 -0.00169741 0.000839746 0.00120625 -0.00106297 -0.00137923 -0.00341535 0.00387258 0.00106162 -0.000858535 0.000748558 0.00102954 -0.000356182 0.00151837 -0.00122875 0.00304633 -0.0011435 -0.00601758 0.000576621 -0.000240483 0.000373159 0.00254519
559 0.000115919 0.0018489 -0.00390847 0.00432027 -0.00119987 0.00134883 -0.00156478 -0.00110488 -0.00369339 -0.0035256 0.00011137 -0.0005756 -0.00353885 0.00179539 0.000210601 -0.00409973 -0.00178618 0.00318047 0.00190795 0.000329452 0.00109722 0.000391082 -1.54225e-05 0.004577 -0.00513559 0.00312593 0.00281149 -0.000403007 0.000663818 -0.00077772 -0.00518399 -0.00323559 -0.00155681 4.20815e-05 0.00455086 -0.00352043 -0.0037639 -0.00509112 0.000276935 -0.00062266 0.00235172 0.00434811 0.00235046 -0.00315754 0.00418829 -0.000754497 0.000714946 0.00246361 0.00645138 -0.0050635 0.0017405 0.00229684 -0.000165971 0.00219811 0.00207154 -0.00244769 0.0063009 -3.39916e-06 -0.000503121 0.00245569 -0.00427168 -0.00029614 -0.000512664 0.00415713 0.000274231 -0.000464224 -0.00273493 -0.00514019 0.000754197 0.00171147 0.000913892 -0.000580383 -0.00304966 -0.00174785 0.00585389 -0.00243347 0.000639843 -0.00346705 -0.000119051 0.00255064 -0.00154883 0.00132686 -0.00132752 3.77474e-05 0.00365988 0.00173022 -0.000131872 -0.00525536 -0.00291018 -0.00311174 -0.00145434 -0.00195576 0.000948308 0.000395904 -0.00140936 -0.00144234 -0.000505954 -0.00366427 -0.00139245 -0.0022859 -0.00225769 0.00486769 -0.00404983 0.00107473 0.00230549 -0.00496185 -0.00422757 0.0015605 0.00695652 -0.00184896 -0.00417059 -0.0020314 -0.00162045 0.00390296 -0.00224507 0.00183157 0.00237722 -0.00237805 -0.000639809 -0.00104452 -0.00223136 0.00533854 0.000259428 -0.00562706 0.00246491 -0.00183503 -0.00157193 0.00233424
404 0.00812296 -0.00151916 -0.00422892 0.0040397 -0.00649823 -0.00186232 -0.00163992 -0.00341226 0.000746561 -0.00574821 -0.00172952 -0.00226064 -0.00218241 0.00153822 -0.00392613 -0.00162471 -0.00153774 0.000201247 0.00543617 -5.22399e-05 -0.00213059 0.00499275 0.00146635 0.00211431 -0.00427471 0.0011576 0.00814672 -0.000881046 0.000892934 -0.00290759 -0.00207767 -0.00433414 0.00127328 0.00231889 0.00519743 -0.00291277 -0.00408821 -0.00656654 -0.00363917 0.0020124 0.00595586 0.000511906 -0.000690195 -0.00151035 0.00537882 0.000161935 0.00716891 0.00316842 0.00968617 -0.0053503 -0.000815154 0.00771011 -0.00380181 0.00349052 0.0025917 -0.00134336 0.00480747 0.00016832 -0.00841188 0.00538204 -0.00981537 -0.00716188 -0.00186619 0.000127738 -0.000767071 -0.00165697 0.00211874 -0.00365982 -0.00182448 0.000197033 -0.000231085 -0.000654848 -0.00221049 -0.00335071 0.00706434 -0.00483789 -0.0036542 -0.00447644 0.00186005 0.00900289 -0.00396346 -0.00128972 -0.00492333 0.0025197 0.00104082 -0.00634756 0.000736905 -0.00466592 0.000861177 -0.00507381 -0.000752648 -0.00352951 0.00466482 0.00529783 -0.00662213 -0.00549703 -0.00596141 -0.00193617 0.00548614 -0.00181723 -0.00414059 0.00211692 0.00140635 -0.00334781 0.00539216 -0.0012941 -0.00109605 0.00532769 0.00711977 -0.00581431 0.000770955 0.00462067 0.000541914 -0.00177898 -0.00389447 -0.00339021 0.00987486 -0.00067442 0.00206376 -0.0090484 -0.00156583 0.00418637 -0.0037488 -0.00704893 0.00381338 -0.0077564 0.00435964 -0.00143452
462 0.00101199 -0.00311281 0.00288073 0.00499664 -0.0048706 0.000504932 -0.00548085 -0.00274001 -0.000550168 -0.00580526 -0.00104727 -0.00064716 -0.00503823 0.00254751 -0.00591351 -0.00322796 0.00161618 -0.0013756 0.00231294 -0.000289791 -0.00163382 0.000498725 0.000519338 -0.00129954 -0.00520445 -0.00214788 0.00627664 0.00033382 0.000797812 -0.00431491 0.00108181 0.00186926 0.000332505 -0.00213696 0.00491399 -0.00343089 -0.00289653 0.000942871 0.00134087 -0.000819436 0.00110379 0.00505074 0.00126099 0.00115632 0.000772519 0.00274217 0.000969958 -0.000517456 0.000787606 -0.000863623 0.000462924 0.00568833 -0.00306134 -0.00138086 -0.0035496 -0.00116875 0.00748457 0.000183956 -0.0072923 0.00285814 -0.00267682 -0.00159785 -0.00137924 0.00186593 0.00106146 0.00177992 -0.002162 -0.000528938 0.000676104 -0.000886811 -0.00420016 -0.00293433 0.000812347 -0.0054978 -0.000410802 -0.00166009 6.43732e-05 0.000658762 -0.00251697 0.000160893 0.000454426 -0.00211081 -0.000179686 0.00454259 -0.00128329 -0.00527014 0.00291896 -0.00490645 -0.000944257 0.00166233 0.000269469 -0.00111718 0.00502431 -0.00080634 -0.000516618 -0.00267778 -0.00134451 0.000764643 0.00050946 0.00400655 0.00151382 0.00260005 0.000701804 -0.00344472 0.0054078 0.000556316 -0.00351506 0.00552158 0.00616171 -0.00697111 -0.00439056 -0.00245888 -0.000704573 0.00083987 -0.00515938 -0.00102842 0.0061695 0.000283807 0.00432968 -0.000630097 0.00415944 0.0053808 -0.00143785 -0.00327387 0.00263359 0.000835381 -0.00309001 -0.00467349
99 0.00291394 0.0027194 -0.00319723 0.00121242 -0.00179198 -0.00278562 -0.00475839 0.000869426 -0.00325007 -0.00171976 0.00357894 0.00335265 -0.00345155 0.00478366 -0.00322502 0.00149297 -0.00313763 -0.00103764 0.00460941 -0.00340158 0.000831391 0.00468413 -0.00195766 0.00438345 -0.000875675 0.00578803 0.00769608 0.00297294 -0.00207372 -0.0031498 -0.0019713 -0.00321721 0.00119002 0.000241461 0.00235359 0.0026015 -0.000628705 -0.00650553 0.00298967 0.00620515 -0.000428767 0.00419653 0.0039892 0.000110422 0.00351628 0.00142199 0.0065698 0.0014734 0.00607478 -0.00536918 -0.000815483 0.00244861 0.0016913 0.00456708 0.000865251 -0.00245539 0.00662616 -0.0019809 -0.00377947 0.00398321 -0.00492441 -0.00425377 -0.00580482 -0.000793581 0.000711314 -0.00367387 0.000713578 -0.00351869 -0.00281148 0.00122447 -0.00169327 -0.00408803 -0.00510714 -0.00572658 0.00669023 -0.00757636 -0.0065448 0.00120341 0.000249969 0.00778274 -0.00418814 -0.00477119 -0.00256024 -0.000778989 0.00488194 0.000320178 -0.0041132 -0.00688814 -0.000956415 -0.00158471 0.0020094 0.00010583 0.00474736 0.00440557 -0.00223994 0.0005859 -0.00193169 -0.000351696 0.00562638 -0.00188542 -0.00355374 0.00126729 0.00208053 -0.00178105 0.00278129 -0.00494434 -0.00363159 0.00597951 0.00547801 -0.00151219 -0.00240706 -0.000350688 -0.00371481 5.43928e-05 0.00164564 -0.00292557 0.012437 0.00417772 0.00478752 -0.00355577 0.00373171 0.00431671 -0.00105876 -0.00828738 0.000579885 -0.00494225 0.00427874 0.000859606
479 0.000927362 -0.00204131 -0.00160154 0.00444592 -0.00276108 0.00163983 -0.00543164 -0.00345768 -0.00308563 -0.00365296 0.000847986 0.00369414 -0.00329238 -0.00110162 -0.00545034 -0.00178802 0.00259674 0.00364265 0.000878223 0.000155348 0.00261517 -1.51587e-05 -0.00377192 0.000903311 0.000659071 -0.00144377 0.00465977 -0.000226509 0.00233193 0.00156709 -0.000571465 -0.0028747 -0.00271522 0.000849463 0.00595538 -0.00154958 -0.002265 -0.00366526 -0.00326117 0.00511204 0.00303878 0.00456399 0.00123292 -0.00483843 0.000898131 0.00205591 0.00600202 -0.000764915 0.0025777 -0.00259045 0.00262431 0.00358879 0.00158527 -0.0022441 -0.00192562 0.00127907 0.00045769 0.00098083 -0.00316803 0.00536381 0.000428286 -0.00212828 -0.00264878 0.00448248 0.000689826 0.00307538 0.00111343 -0.0021155 -0.00346361 -0.000975661 -0.00239006 -0.00367134 -0.00521255 -0.00332304 0.00158009 -0.00642676 0.000203433 -0.00463842 0.00254354 0.0012192 -0.00338201 -0.00209031 0.000350489 0.0037374 -0.00185417 0.000886556 0.00171585 -0.00214507 0.000849244 -0.00261491 3.27083e-05 0.000902267 0.00562622 -0.00248072 -0.00380565 -0.00317952 -0.00571964 0.00402599 0.00041837 0.00203327 -0.00326346 0.00501578 0.000397778 0.00159156 0.00452588 0.00210807 -0.00117833 -0.000866849 0.00311816 -0.00189651 -8.63623e-05 0.002755 -0.00146325 0.00340843 -0.00390833 -0.00257287 0.00944835 -0.000868567 0.000309039 -0.00564153 0.0029712 0.005349 0.00145105 -0.00531744 0.00420154 -0.00412909 0.00159781 -0.00111705
153 0.00285814 0.00397695 0.00249698 0.00106733 -0.00626121 0.000538502 -0.00565426 -0.000476557 0.000868033 0.00069535 0.000377141 -0.00277453 -0.00240423 -3.07419e-05 -0.0042384 0.000410448 0.00034648 -0.00189495 0.00300082 -0.00106423 -0.00229041 0.00428387 0.00233996 0.00568954 -0.00403373 0.00290872 0.00117692 0.00275928 0.000634714 0.00126835 -0.0032489 -0.00378843 0.00114762 -0.00236215 0.00887597 -0.000772759 -0.00210721 -0.00483134 -0.000123118 0.00421567 0.00359916 0.00288865 0.000859071 -0.00384504 0.000375553 0.000912908 0.00347091 0.000263495 0.00796877 -0.000309807 0.000404495 0.00275121 0.00186339 0.00301288 -0.00247803 -0.000305024 0.00324058 0.000180597 -0.0063891 0.000549308 -0.00433287 -0.00210767 -0.00485228 0.00179731 0.00345276 -0.00137385 0.00486471 -0.00492563 -0.00281519 0.000172695 -0.0034192 -0.00454666 -0.00130706 -0.00607265 0.00364332 -0.0038218 -0.00606819 -0.00483893 0.00475644 0.00464502 0.000926827 -0.00561099 -0.000500392 0.00462425 0.00197631 -0.00376669 -0.00285402 -0.00506054 0.00493316 0.00152922 -0.00200928 -0.000582697 0.00116315 0.000722096 -0.00287827 -0.00127317 0.000252203 -0.00236438 -0.00167306 0.00330402 -0.00404576 -0.00016174 -0.000912239 0.00388588 0.00593497 0.00107887 -0.00317054 0.00251104 0.00574562 -0.0010606 -0.00194315 -0.000595261 0.000137 0.000302864 -0.00139758 -0.00319543 0.00904677 -0.00293252 0.00461173 -0.0046534 -0.00162544 -0.000906544 -0.00325144 -0.00619981 -0.00187798 -0.00278225 0.000326879 -0.00174973
523 0.0033851 0.00401859 -4.14098e-05 0.00248261 -0.00726315 0.00204712 -0.000121096 0.00213484 -0.000212035 -0.00348935 -0.00123107 0.00456452 -0.00302203 0.00329058 -0.000564411 -0.00065051 -0.000699108 0.00452635 0.00437085 -0.0041038 0.00229405 0.000846942 -0.00494535 0.00312593 -0.00554802 0.00139698 0.00775491 0.000336623 -0.00255264 0.00171911 -0.000451821 -0.00040863 0.000181579 0.00382627 0.00202858 -0.00191324 -0.00312539 -0.00058361 -0.00111963 0.000565969 0.00221563 0.00461357 -0.000217951 0.00156109 -0.000720889 0.000143719 0.00619209 0.000122272 0.00342764 -0.00191982 -0.00290512 0.00383082 -0.00332091 0.000181251 -0.000707139 0.000215981 0.00613034 -0.000133888 -0.0064122 0.00222951 -0.000152722 -0.0020419 -0.00178244 0.00497723 0.00152967 -0.0024204 0.00272215 0.00109353 0.000310616 0.00489369 0.000988881 -0.00223902 -0.00189925 -0.00621302 0.00128562 -0.00893846 -1.04626e-05 0.00112538 -0.000536956 0.00252193 -0.00441064 -0.00391181 -0.00548287 0.00426808 0.00151028 -0.00377313 -0.00085597 -0.00336122 -0.000187339 -0.00311585 0.000625922 -0.000809179 0.00413157 0.000197731 0.00138702 -0.00216129 -0.00706574 0.000596637 0.00275242 -0.00100689 -0.000636494 0.00558118 0.0021056 0.00185495 0.00201409 0.00204749 -4.34766e-05 0.000231943 0.00529672 -0.00527298 -0.00349185 0.00393152 -0.00127525 0.000949719 -0.00168465 0.00324284 0.01021 0.00292769 0.000986866 -0.00191839 0.00358756 0.00539531 -0.00232972 -0.00360091 0.0040736 -0.00568015 0.000151013 0.000276426
588 0.00562881 -0.00171722 0.00122416 -0.000238596 -0.00599902 -0.0037069 -0.00502718 -0.00381888 0.00295966 -0.00415934 0.00211084 0.00262257 0.00181212 0.00099933 -0.000162495 -0.00203557 -0.00173071 -0.0016182 0.0033445 -0.00337735 0.00222808 0.00382565 -0.00233062 -0.00139122 -0.00379227 0.000400001 0.00630073 -0.00350877 -0.00107616 -0.00294882 -0.00314247 0.00152654 -0.00120405 0.000146948 0.00772859 -0.0036194 0.00101306 -0.00497863 0.00295773 0.00248236 0.00498023 0.000880172 0.00218664 0.000799768 -0.000301588 -5.29473e-05 0.0079006 -0.00158949 0.00134434 0.000705811 -0.0013503 -0.00104382 -0.00198376 0.00439086 0.00398895 -0.00184461 -0.000137514 -0.00291002 -0.0039219 -0.00184529 -0.00546821 -0.00335457 0.000242505 0.00434009 -0.00171334 -6.22682e-05 0.00100248 -0.00369465 -1.83219e-05 -0.00125111 -0.00438793 -0.000431469 0.00161883 -0.00192975 -0.000499882 -0.00705161 0.00179778 -0.00213534 0.00374812 0.00384248 0.00148774 -0.00198605 -0.00219436 -0.000970814 0.00505257 -0.00116309 0.00250734 0.000455014 0.00174389 0.000684418 0.0028636 -0.00113963 0.00437427 0.00398305 0.000322035 -0.00472796 -0.00592419 0.000469291 0.00112814 0.000513743 0.00102911 0.00226226 -0.000128764 -0.00108186 -0.00150359 -0.00466376 -0.00263983 0.00327137 0.00618107 -0.00717306 -0.00101386 -0.00213641 -0.00147815 -0.00306936 0.00174368 0.0023953 0.00943344 -0.000593111 0.00426106 -0.00445859 0.00226309 0.00470958 -0.00119431 -0.00349543 -0.000352432 -0.00262681 -0.00227615 0.0023383
442 0.0031779 0.000283214 -0.000178628 0.0033649 -0.00319384 -0.00365479 -0.000760769 -0.00036262 0.00190571 -0.00358619 0.00278655 -4.45177e-05 -0.000293382 0.00477919 -0.00379455 0.00273918 0.000413257 0.00518492 -0.000144114 -0.00609145 -0.00202608 0.00349941 0.000152559 0.00255565 0.000511987 0.00467789 0.00706128 0.00119448 -0.00102927 -0.00137852 -0.00531684 -0.0042261 -0.00372394 -0.00213604 0.00999287 0.00279514 0.00207018 -0.00367954 -0.00429899 0.0055887 0.0037885 0.00311623 -0.000519167 -0.000108038 0.00379664 -0.00142042 0.00941873 0.00331064 0.00147301 -0.00603768 -0.00245299 0.00351564 -0.00191615 0.00354194 0.0044024 -0.00315865 0.00165149 -0.00209864 -0.00324578 0.00356102 -0.00773304 -0.00482546 -0.00622434 0.000469557 0.000872779 -0.00102504 0.00284061 -0.00539204 -0.00366934 6.29405e-05 -0.000918401 -0.00382429 -0.000947794 -0.000585301 0.00239117 -0.00912467 -0.00124738 0.00135776 0.00362977 0.00352623 -0.00239433 -0.00660718 -0.00580153 0.0024993 0.00270867 -0.00558356 -0.00125229 -0.00512372 0.00445035 -0.000530852 -0.00269361 -0.00395023 0.00149967 0.00324655 -0.00620672 -0.00599833 -0.00765609 -0.00250933 0.00105858 -0.00169359 -0.00237487 0.00247803 0.00158503 -0.00278195 0.00287996 -7.23881e-05 0.00075009 0.0065856 0.00543639 -0.00908547 0.00187291 0.00117405 0.0024189 -0.00216384 -0.00615722 -0.000749672 0.00854511 0.0026529 -3.52729e-05 -0.00453733 0.0027693 0.0058285 -0.00508754 -0.00468238 0.00244193 -0.00645625 -0.00119024 -0.00388325
496 0.00380001 0.00382484 0.00281589 -0.000359082 -0.000886835 -0.00319107 0.000881014 -0.00391069 -0.00246481 -0.00228648 0.0032076 0.000306489 0.0004954 0.00544886 4.50602e-05 -0.000860946 -0.00379797 0.00276132 -0.000898942 -0.000286286 -0.00429958 0.00483711 -0.00448113 -0.0014045 -0.00344273 0.000336403 0.00437917 0.00281227 -0.00273416 0.00101685 0.00109909 0.00313812 -0.00159268 0.00108875 0.00612928 0.00134093 0.00224213 -0.00317398 0.00140241 0.00550214 -9.99963e-06 0.00370341 -0.00187414 -0.00171665 0.00189257 -4.5943e-05 0.00605118 0.00359717 0.000856733 -0.00223839 -0.00193858 0.00624283 0.00262085 -0.00204262 -0.00215115 -0.00275227 0.00741432 -0.00148617 -0.0012919 -0.000155875 -0.000189364 -0.002219 -0.0058823 0.00329934 -0.00168359 -0.000838182 0.00369847 0.000529458 -0.00398556 0.00321339 -0.000397725 -0.00110059 -0.00111115 -0.00557046 8.67793e-05 -0.00699226 -0.0023632 -0.000898525 -0.00174361 0.000700574 0.00196992 -0.00129011 -0.00138405 0.00405907 0.00602352 -0.00486352 -0.00252388 -0.00488628 0.00256144 -0.00309189 0.000993033 0.0011376 0.00213797 0.00196778 -0.00286251 -0.00289261 -0.00254435 -0.00320349 0.00542705 0.000999407 -0.00433235 0.000609048 0.00135836 0.00269111 0.000191614 -0.00395647 -0.00111092 -0.00154629 0.00848639 -0.00367003 -0.00529148 0.00353602 0.00108289 0.00323193 -0.00288087 0.000920766 0.010383 -0.00300248 0.00388137 0.000132271 0.00135466 9.9056e-05 -0.00286265 -0.00168694 -0.00209036 -0.000232681 0.000683314 3.32753e-05
426 0.00471945 0.000215969 -0.00360404 0.0065435 -0.00535372 -0.00369585 -0.00143247 -0.00319032 -0.00349444 -0.00179945 0.000280927 0.00265034 -0.0019521 0.00121569 -0.00771141 -0.0029004 -0.000560051 0.0025448 -0.000137236 -0.000615605 -0.00288811 0.00347021 0.000429994 0.0030003 -0.00432322 0.000927422 0.00388388 0.000686387 -0.00132093 0.00139119 0.000366096 -0.00181976 0.000172462 0.00383887 0.0103219 -0.00388909 0.000114512 -0.00543112 -0.0038075 0.00546275 0.00660157 -0.00150803 -0.00268331 0.000531528 0.00624349 0.00155404 0.00936633 0.00220502 0.00645019 -0.00590846 -0.00256131 0.00215309 -0.000422153 -0.00112007 -0.000302843 0.00278975 0.0103959 -0.00158237 -0.00951222 0.00123048 -0.00887107 -0.00655456 -0.00486336 0.00152768 0.00391591 -0.00354907 0.00271362 -0.00134435 -0.00103272 0.00569493 -0.000990571 -0.00220315 -0.000203426 -0.00488725 0.00174122 -0.00563567 -0.00201304 0.00174256 0.00521672 0.00293562 -0.00118316 -0.00462534 -0.00609099 -0.000716793 -0.000163657 -0.0029148 -0.00192875 -0.00285137 0.00248284 -0.000801354 -0.00139575 0.000655249 0.00177395 -0.0021122 -0.00677441 -0.00087433 -0.00383095 0.00104384 0.00405772 -0.000681179 -0.00559909 0.000910999 -0.000168575 0.000647796 0.00261424 -0.00555557 0.00071396 0.00617073 0.00915093 -0.00568364 0.000217965 8.19752e-05 -0.00355044 0.00450244 -0.00375651 -0.00238318 0.0144993 0.000930312 0.00177301 -0.00472746 -0.000971872 0.00360216 -0.00558181 -0.00413285 -0.00018137 -0.0018301 -0.00245107 -0.00479527
141 0.00243798 0.000879034 -0.00334244 0.00196814 -0.00124155 -0.003651 -0.00386046 -0.00343805 -0.00401759 -0.00528522 -0.00235504 0.000228234 -0.00342704 0.00549716 -0.00456326 -0.00214482 -0.000959614 -0.000591762 0.00388304 -0.00470677 -0.0051452 0.00176585 -0.000440114 0.00235469 -0.0046616 0.00108215 0.00279997 -0.00108653 0.00166723 -0.00328329 -0.00427568 0.00176269 -0.00238042 5.61176e-06 0.00750899 0.00275493 0.000841866 -0.00236012 -0.00359208 0.00587478 0.00570027 -0.000902195 0.00212916 -0.00232047 0.00611631 -9.22396e-06 0.00761839 0.000833333 0.00609281 -0.00400901 -0.00460396 0.0044703 -0.00209364 0.00256605 -0.00344119 -0.00271671 0.00510485 0.00157924 -0.00778708 0.000508601 -0.00949598 -0.00316736 -0.00706662 0.00348476 -0.0019988 0.00238774 0.00202936 -0.00193462 -0.00120356 0.00248931 0.000595544 -0.00454386 -0.00433381 -0.00174942 0.00517022 -0.00528905 -0.00720433 0.00143373 0.0038373 0.0053628 0.000654826 -0.00131546 -0.0031812 -5.59243e-05 0.00368223 -0.000351718 -0.000404456 -0.00588178 0.00105969 -0.00483115 -0.000188181 -0.00423765 0.0021983 -0.000242053 -0.00514987 -0.00616122 -0.00830346 0.00222638 0.00502122 0.00204708 -0.00182398 0.00310713 -0.000493335 0.00282863 0.00488377 0.00103843 0.00150719 0.00634034 0.00622059 -0.00575587 -0.00468854 -0.00095262 -0.00106043 0.00255508 -0.00524638 -0.000626038 0.0135222 0.00401673 0.00192615 -0.00464262 0.00476802 0.00169622 0.000233222 -0.00783285 0.00255634 -0.00765526 0.00353528 -0.00516579
304 0.003214 0.000635805 -0.00303559 0.0038778 -0.00459039 -0.00396286 -0.00495057 -0.000798891 0.000644595 -0.00633378 0.0028636 0.0046555 -0.00255762 0.00586494 0.000533577 -0.0010088 -0.00172924 0.00176084 -0.00117604 -0.00546873 -0.00133234 0.00497403 -0.000495856 0.00401247 0.000325797 0.00562742 0.0047389 0.00417213 -0.002807 0.00198876 0.00117456 -0.00011969 0.00226102 0.00146885 0.00642861 -0.00251526 0.000491384 -0.0018941 -0.00342882 -0.000367497 0.000296237 0.0045661 -0.00223498 3.91565e-05 0.00152768 -0.00171002 0.00813841 0.00191513 0.000938888 -0.0048376 0.000571315 0.000826662 0.00141631 -0.00174853 -0.00213863 0.000978114 0.00691285 0.00178382 -0.00635279 0.00423236 -0.00783189 -0.0029973 -0.00237219 0.00283131 0.00242372 -0.00396236 0.00125646 -0.00360949 0.00124105 -0.00152468 -0.00283558 -0.000341998 -0.00495691 -0.00414887 0.0055863 -0.00541205 -0.00243043 -0.00467362 0.00426081 0.000979355 -0.00096196 -0.00133663 -0.00145744 -0.000203862 0.00164808 -0.0046939 -0.000251137 -0.000610304 -0.00148126 -0.00360916 0.00044393 -0.00252273 1.35169e-05 -0.00193349 -0.005344 -0.00400422 0.000265505 0.00265484 0.00191071 0.000915754 -0.000816652 -0.00133341 -0.000560286 -0.00217617 -0.00124536 -0.00524435 0.00145562 0.00111728 0.0092886 -0.00509919 0.00206068 -0.000557631 0.00239527 0.00162962 0.000280927 -0.00296141 0.00492605 0.00111532 0.00538441 -0.00537837 0.000821223 0.00359267 -0.00452402 -0.00142467 0.00440539 -0.00284359 6.03245e-05 -0.000436692
353 0.00389144 0.00212838 0.00184113 -0.000673741 -0.003942 -0.000308774 -0.00477335 -0.00512923 -0.000323515 -0.000434319 7.46712e-05 -0.000235319 -0.00638314 0.000620814 -0.00348241 0.000912989 -0.0036297 0.00529779 0.00266691 -0.000144113 0.00203324 0.00237035 0.00054228 0.00482897 -0.00544984 -5.89893e-06 0.00466888 0.00198057 -0.00279465 -0.00146026 -0.00186306 0.00314984 0.000846961 -0.00247161 0.00453732 -0.00023767 -0.00413392 -0.00528793 -0.00153291 0.00146967 0.00661972 -0.00178346 0.00326119 -0.00273026 -0.000756255 -0.000345206 0.00662259 0.00213462 0.00361046 -0.00345104 -0.00124309 0.00399141 -0.00369763 -0.00109218 -0.00213663 0.00187915 0.00444766 -0.00426039 -0.00573156 -7.5269e-05 -0.00259237 -0.00281368 -0.00130389 0.00543482 -0.00197947 -0.00201534 0.00561516 0.000677264 -0.00225626 -0.000735129 -0.00495308 8.02576e-05 -0.00316596 -0.00556832 0.00209246 -0.00621421 -0.00720817 -0.00490709 0.000807615 0.0100718 -0.00111796 0.00047732 -0.00140142 -0.00123287 0.0065969 -0.00677572 -0.00411426 -0.00564286 -0.00239443 -0.00193608 0.00459275 -0.00410276 0.00543908 0.00103487 -0.00345675 -0.00394542 -0.00438943 -0.00268561 0.00141962 -0.00188704 -0.00499827 0.0006288 -0.00220005 -0.00169273 0.00606118 -0.00590417 0.000703754 0.00272864 0.00495842 -0.00785805 -0.000515582 0.00297597 0.00342129 0.00375616 -0.00429989 -0.00362692 0.0137485 -0.0020562 0.00545907 -0.00335409 0.00339043 0.00440795 -0.00136044 -0.00543206 0.00381263 -0.0051186 -0.00151322 -0.00295368
423 -0.000694081 0.00222048 -0.00208291 0.00170562 0.000502776 0.000825504 -0.00396736 0.000567419 0.00224902 0.00166343 -0.000250877 -0.0012268 0.00208844 0.00428175 -0.00309671 0.00185717 0.00119107 0.00390846 -0.00180662 -0.00252 0.000703982 0.00555049 -0.00170094 0.000255257 0.00152564 0.00221277 0.00489709 -0.00147978 -0.00371858 0.00105514 0.00145502 -0.00131763 -0.00167169 0.00235773 0.000697152 0.00321999 0.00096678 -0.00114207 0.000134871 0.000240444 0.00441884 0.00421174 0.00392687 -0.00124945 0.00425919 0.00244144 0.00509507 -0.0014249 0.00381178 -0.00259174 -0.00305386 -0.00204495 0.000856741 0.00376238 0.00015999 -0.00112603 -0.000729275 -0.0021765 -0.00113599 -0.00106224 -0.00228408 -0.00157274 0.00134359 0.00431241 -0.00209092 0.00197035 0.00159627 0.00066256 0.0010083 0.00448209 0.00159167 -0.00317946 -0.00288764 -0.00335925 0.00307503 -0.0017285 -0.00335315 0.00149621 0.00273133 0.00416797 -0.00106065 -0.00513306 -0.00310526 0.000836157 -0.000929855 -0.00138646 0.00355025 -0.00186056 0.00402275 0.00228223 0.00388208 0.0027252 0.00602233 0.00383583 0.000899415 -0.00391004 -0.00250288 0.000320894 -0.00169848 0.00290475 -0.00380251 0.00551688 0.000190919 -0.00123509 0.00259978 0.00247859 0.0025501 0.00328858 0.00162939 0.00039865 -0.00252889 0.00213096 0.000269097 -0.00147661 -0.00423918 0.00300608 0.0046481 -0.00333332 0.00403482 -0.00410973 -0.00221154 0.00298728 0.00243705 -0.00680919 -0.00261162 -0.00302442 0.000294327 -0.00331639
268 0.000490561 0.000620824 -0.00384544 0.00435329 -0.00301808 -0.00133665 -0.00465051 -0.00427245 0.0021532 -0.00653805 -0.00209501 -0.00130128 -0.00298209 0.00765394 -0.00211977 -0.00378529 -0.0021921 0.00459499 0.000593024 -0.00247528 -0.000515057 0.00588786 0.000222985 0.00364281 -0.00632598 0.00545784 0.00755701 -0.000489847 -0.00165079 0.00173446 -0.00280895 -0.00184731 -0.00413029 -0.000534827 0.0045601 -0.00327166 0.00227845 -0.000521778 0.00250279 0.000556067 0.00248606 0.000567552 -0.00244629 -0.00267873 0.000743901 0.00149923 0.00301383 -0.000196533 0.00391305 -0.000764233 0.00299752 0.00542686 -0.000738204 0.0014402 0.000457613 0.00168746 0.00162065 0.00293782 -0.00490657 0.00636593 -0.00258997 -0.00701827 -0.0036601 0.00571473 0.000500659 -0.00444284 0.000448691 -0.00593639 -0.00442976 0.00542285 -0.00220552 -0.00529633 0.000707084 -0.00105801 0.00501178 -0.00298606 -0.00548851 -0.00427924 0.000339331 0.00330006 -0.00194657 -0.000184141 -0.000857281 0.00280216 0.00528527 -0.00240026 0.00156397 0.000149306 5.76781e-05 -0.00368041 0.00413867 0.000436139 0.00154902 0.00122872 -0.00419472 -0.00281328 -0.00298467 0.00114641 0.00490734 -0.00212922 -0.00226152 0.00104742 -0.000109606 -0.00118947 0.00367128 -0.00459287 -0.000510631 0.00457997 0.00395839 -0.00793292 0.000128924 0.00447511 -0.00397818 -0.00229881 -0.00343202 0.00220403 0.00984452 -0.00216311 0.00434822 -0.00619727 0.00369799 0.00472867 -0.00208481 -0.00179676 0.00137988 -0.00548431 -0.000408786 -0.00421049
379 0.00718465 0.00488206 -0.000232698 0.0031943 -0.00593818 -0.00121757 -0.00485468 0.00193569 -0.00183621 -0.00385548 0.000359668 0.00424822 -0.00573901 -0.000169891 -0.00636091 0.00127525 0.00152466 0.00107707 -0.000853266 0.000192863 0.00267718 0.00335062 -0.00388705 0.0054395 -0.00610962 0.00584175 0.00638899 0.00258179 0.00356392 -0.00408886 -0.00427127 -0.00156057 -0.00287799 -0.00115483 0.00299161 -0.000884883 -0.0003112 -0.00148643 -0.000249553 0.00743341 0.00594223 0.000545694 0.00461936 -0.00171388 0.00252447 0.00479608 0.00606417 0.00180509 0.00563788 -0.00117553 -0.00161138 0.000354803 0.00118752 -0.00200099 -0.00200653 -0.00102686 0.00594088 -0.00236791 -0.00304282 0.00484658 -0.00669513 -0.00594444 -0.00266638 0.00141138 -0.00282313 -0.00353399 0.000256238 -0.00469332 0.00224632 -0.000763862 -0.00134591 -0.00552359 2.3132e-05 -0.00525444 0.00294231 -0.00726522 -0.0031807 -0.00179533 -0.00101751 0.00369429 -0.00389113 -0.00404538 -0.00381334 -0.00104272 -0.000440401 -0.00267017 0.000958592 -0.00749006 0.000910665 -0.00183172 0.00378746 -0.00168864 0.0052006 0.00501606 -0.000298036 0.00109948 -0.00189249 -0.00178641 0.00287897 -0.00141035 -0.00239404 0.00403233 -0.00253171 -0.000175596 0.00181078 -0.00314493 -0.00283797 0.00284996 0.00416904 -0.0044385 -0.000913645 -0.00173748 0.000274501 0.00041606 -0.00150496 0.00102057 0.00681091 0.00108477 0.00549726 -0.00320177 0.00163825 0.00428538 -0.000222365 -0.00278261 0.00472268 -0.00437261 0.00452526 -0.00377758
78 0.00358047 -0.000217227 0.00177308 0.00143691 -0.00451665 0.00363489 -0.000122099 0.00192128 -0.00166403 -0.000607871 0.00302663 0.000472412 -0.00174681 0.000451725 -0.00194307 -0.0011219 -0.0017787 -4.38483e-05 0.00321826 1.65032e-05 -0.00360338 0.00560569 -0.00302058 0.00229427 -0.000102789 0.00522476 0.00182341 0.00116519 -0.00279284 0.00225529 -0.00476942 -0.00225165 -0.00036614 0.00434816 0.00379421 0.0034984 -0.00102102 -0.00386325 0.00189871 0.00744954 -0.000379076 0.00270849 -0.00250978 -0.00538638 0.00596127 0.00480492 0.00616341 -0.00197218 0.00208078 -0.000828216 0.000620729 0.00603323 -0.00118733 -0.00071008 -0.00176687 0.00328863 0.00779626 -0.00389294 -0.00265249 0.00301172 -0.00626836 -0.00581945 -0.00401182 0.00147032 -0.0004474 0.00174816 0.0038034 -0.00166481 -0.00306561 0.000976884 -0.00340735 -0.00519447 -0.00475856 -0.000371079 0.00208411 -0.00558629 -0.00585067 -0.0047574 0.00147631 0.00203864 0.00125904 -0.00176596 -0.00287514 -0.00126991 -5.19053e-05 -0.00550449 0.00305435 -0.00511213 0.00223767 0.000378926 0.00285001 0.00102396 0.00647776 0.0012393 -0.00429783 -0.00281377 -0.00682642 0.00399914 0.00394535 0.00230672 -0.00155174 0.003488 -0.00324189 -0.00202924 0.00334245 -0.00333119 -0.00315609 0.00513817 0.00786543 -0.00800251 -0.00442959 0.0042735 0.000795916 0.00406929 -0.00462323 -0.000704819 0.0117494 0.0042988 0.000114118 -0.00686696 -0.00279025 0.00111435 -0.00408522 -0.00480967 0.00396813 -0.00130336 0.00278402 -0.00325326
532 0.00232043 0.00310946 -0.00291019 -9.66191e-05 0.00023635 -0.00339672 0.000558254 -0.000197844 0.000410004 -0.00544146 0.0027052 0.00422658 0.00068188 0.00461112 -0.00130381 -0.00215875 -0.000915477 -0.00175848 0.00391074 -0.00196842 -0.000421151 0.0044508 -0.000665136 0.00110592 -0.000413545 0.000726213 0.00319572 0.00269455 -0.000746333 -0.00193509 -0.004517 -0.0037773 -0.000354788 0.00076272 0.00153894 0.000758439 0.00217831 -0.00384907 0.000389781 0.00410347 -0.000309242 -0.000921429 0.00128232 -0.00415603 0.00113099 -0.000578681 0.00427677 0.00147005 -0.00100044 -0.00463043 -0.00392588 0.000905966 -0.00322942 -0.000371548 -0.000562163 0.000533167 0.00383652 -0.00155903 -0.00658916 0.00243039 -0.00362578 -0.00277758 0.00182552 0.00427649 0.00116671 -0.00418395 -0.00164448 -0.00120045 -0.000111625 0.000418356 -0.00314754 0.00145389 -0.00313936 -0.00336988 0.00419179 -0.000222717 -0.00461149 -0.0031118 0.0033113 0.00290793 -0.00228612 -0.00151423 -0.0021661 -0.00187263 -0.001399 -0.00517419 0.00274417 -0.00428827 -0.0018971 -0.00170549 0.00142586 -0.00156502 0.000371573 -0.000160909 -0.00166114 -0.00495114 -0.0031092 0.000433377 -0.00206791 -0.002934 -0.00319021 0.0032137 0.00326608 -0.000194352 -0.00217111 -0.00358593 0.00207556 0.00469565 0.00715945 -0.00473435 0.000762023 0.00275082 -0.00307188 0.00193568 0.00132819 -0.00180509 0.00454411 0.0011214 0.000820233 -0.000536777 -0.00195201 0.00203928 -0.000228556 -0.00240171 -0.00230252 -0.000821042 0.00052972 0.000949464
658 0.00653016 -0.00142121 -0.00297196 0.00544205 0.00054277 -0.0040695 0.000203658 0.000494155 0.00244163 -0.00541369 0.00458994 -0.00142085 -0.00544772 0.00367451 -0.0010948 0.00167169 0.0026933 -0.00162294 0.00120562 0.000324911 0.00289955 0.00452276 0.00108798 0.00247542 -0.00549898 0.00226262 0.00627433 0.00293396 -0.00128409 -0.00358098 -0.00327053 -0.00078535 0.00130655 -0.00192315 0.00475097 0.0021608 -0.00388378 -0.00225156 -0.00228626 0.00677525 0.0025752 0.0041484 0.00176609 0.00231602 0.000643853 0.00306994 0.00482958 0.00289266 0.00727383 -0.00263143 -0.000408927 0.00402081 0.00296154 0.000392308 0.0011635 -0.000783779 0.00159213 7.03215e-05 -0.00048475 0.00151452 -0.00474642 -0.00612137 -0.00212493 -0.000448759 0.0010089 0.00163717 0.00284894 -0.00338434 0.000668644 0.00415285 0.000742729 0.000377005 -0.00580946 -0.0057177 0.00289946 -0.00275512 -0.00240141 -0.00067609 -0.00141083 0.00718073 0.000511956 -0.00349048 -0.00210065 0.000765965 0.00553374 -0.00306553 -0.0025752 -0.000887153 0.00303957 0.00164623 -0.00147325 -0.000258235 0.00686018 0.000408839 0.00130172 -0.0029801 0.000293639 0.00162671 8.34688e-05 0.00452342 -0.00218785 -1.79458e-05 0.00104239 0.00142512 -0.001593 0.00197487 -0.00289576 -6.35302e-05 0.00881908 -0.00504587 0.00145007 -0.00137613 0.00132226 -0.00070254 -0.00425756 0.000248253 0.00619932 0.00275989 0.00174205 -0.00550835 0.00060734 -0.000650688 -0.00223107 -0.0023582 0.000383231 -0.0031598 0.00269091 0.00173147
578 0.00340599 0.00346622 0.00301293 -0.00148012 -0.006721 0.00201427 -0.0019939 -0.00377588 -0.00316995 -0.00535417 0.00196279 -0.0003101 -0.00135108 0.00387139 -0.00322402 -0.00269854 0.00110717 0.00307781 -0.000173317 -0.0032491 0.00298703 0.00281698 0.00253786 0.00117551 -0.00272615 0.00221165 0.00291633 -0.000445725 0.00126954 -0.00344309 0.00174276 0.00106983 0.00316121 0.00188655 0.003593 -0.00366959 -0.000373345 0.000276113 -1.58067e-05 0.0031844 0.00297954 0.00224574 0.00374104 0.000102189 0.000973055 0.00303195 0.00286953 0.00121122 0.0070474 -9.29015e-05 0.000130272 0.000389438 -0.000384626 -0.00214016 -0.000263943 -0.00169488 0.00224769 0.00201004 -0.00226324 0.00130346 -0.00555096 5.29489e-05 0.000581004 0.00233514 0.00110416 -0.00451065 -0.0015624 -0.00115946 0.00189555 0.00309772 0.00193649 -0.00131409 -0.00543515 -0.00605126 -4.60805e-05 -0.0073945 -0.00023798 -0.0052208 0.00137865 0.00393811 -0.00119619 -0.000890675 -0.0048304 -0.000475682 0.000568199 0.00135614 0.00182644 0.000105542 0.000341979 0.00231666 0.00162378 -0.00199113 0.00717472 0.00018059 0.000716503 -0.00157566 -0.00198934 -0.00180284 0.00458939 0.000585194 0.00113259 0.00204397 -0.00228472 -0.00235339 -0.000740082 -0.00267472 -0.00123141 0.00159796 0.00224951 -0.00516445 -0.00213816 5.57678e-05 -0.00266783 0.00441789 -0.00501529 -0.00177394 0.00887709 -0.00301412 0.00489695 -0.00372202 -0.00275886 0.000586712 0.00206775 -0.00795379 0.00281507 -0.004067 -0.00264794 -0.00177872
543 0.00288801 -0.00010457 -0.00135988 0.00369817 -0.00111894 0.00169245 -0.000870678 -0.0025626 -0.00145214 -0.00465833 -0.000669739 0.000871082 0.00213502 0.00452991 -0.00477424 -0.00219809 -0.000378537 -0.00145674 -0.00192734 -0.00456682 -0.000693665 0.0047808 0.00225097 0.00175893 0.00119193 -0.00257122 0.00624676 -0.00312454 0.00295523 0.00165187 -0.00379869 -0.0020275 0.00206409 -0.00146557 0.0016238 -0.0013722 0.00108403 -0.00280187 -0.00339719 0.00142949 -0.00102791 -0.00147555 -0.00132724 0.00253081 0.00401617 -0.000331828 0.00470476 0.00397448 0.00237928 -0.0022201 0.00196131 0.00267868 0.000876892 0.00434361 0.00227736 -8.06181e-05 0.00417546 -0.0042437 -0.00530231 0.00547053 -0.00472474 -0.0044444 -0.00336988 0.00163091 0.00133445 -0.0038839 0.000213267 -0.00535275 0.00307993 0.000722889 0.000328051 -0.00209246 -0.00155686 -0.000510294 0.00219192 -0.002419 0.0014889 0.00248892 0.0044092 0.000189504 -0.00374107 1.44357e-07 -0.000172517 -0.00257786 0.000981863 0.00142644 0.00238154 -0.000430069 -0.000626081 0.000344671 0.00231277 0.00143562 0.00579057 0.00430013 -0.00128176 -0.00104591 0.0013407 -0.000778008 3.30478e-05 0.00319135 0.00203527 0.00165435 0.00302483 -0.00203827 0.00236978 -0.00291875 0.000204329 0.00566036 0.000864706 -0.00483856 -0.00209512 0.00086439 0.000345248 0.000813916 -0.00142424 -0.00185553 0.00650945 -0.00285039 0.00414904 -0.00139293 0.00212944 0.00292779 -0.00223945 -0.0022893 -0.00240792 -0.000651626 0.00275012 -0.00385409
278 0.00643642 3.40853e-05 -0.0038414 -0.000518242 -0.00788779 -4.01588e-05 -0.000530545 0.00180144 -0.000196979 -0.00254673 0.0030401 -0.00237603 0.00044896 0.00338141 -0.0044548 0.00220244 0.00169351 0.00505478 0.00272244 0.00123622 -0.00394221 0.000993662 -0.00257986 -0.000612252 -0.000601516 0.00355141 0.00444232 -1.18788e-05 -0.00320699 -0.00238726 -0.000907714 0.00141021 6.6293e-05 -0.0032614 0.00274954 0.000589445 -0.0039481 -0.00288009 0.00280961 0.00607919 0.000543816 0.00258127 0.0034187 -0.00442731 0.00558634 0.000642576 0.00561139 0.00312376 0.007741 -0.000748198 -0.00353578 0.00186937 -0.00356499 0.000638354 0.00158262 -0.000571874 0.00360675 -0.00341087 -0.00627283 0.00313683 -0.00147733 -0.000658081 -0.00685071 0.00654617 0.00409929 -0.000453051 -0.000235395 -0.000643653 0.000239702 1.23519e-05 -0.00276943 -0.00511833 -0.00607812 -0.006567 0.00354898 -0.00975524 -0.00203574 -0.000873274 0.000459533 0.00717531 -0.00340029 -0.000915781 -0.00179342 0.00140158 0.000629129 -0.00119196 0.00285424 -0.00669006 0.00494296 -0.00217842 0.00348395 0.00175261 0.00320024 0.00463548 -0.00264977 -0.0039853 -0.00206971 -0.000422114 0.00221533 -0.00239642 -0.00267427 0.000473126 -0.00452431 -0.00359867 0.00154189 0.0013419 -0.000246329 0.00557969 0.00367104 -0.00605412 -0.00458943 0.00391296 -0.00233015 0.00328016 -0.00358744 0.00261329 0.00893977 0.00231553 -0.000449538 -0.000400594 0.00199177 0.00546721 -0.00490652 -0.00220853 -0.000129938 -0.00240005 0.00139955 -0.000531639
440 0.00533361 -0.00077378 0.00273231 0.000382144 -0.00245758 -0.00279971 -0.00589826 -0.00505721 0.00218681 -0.00465654 0.00299491 -0.000847085 -0.00363721 0.000461534 -0.00249719 0.000800068 -0.00138123 -0.00122084 0.0044798 0.00117864 -0.000207099 0.00103335 -0.00492138 0.000679426 0.000583301 -0.000400374 0.00690903 -0.00318434 -0.000522893 0.0025551 -0.0062466 -0.00164803 -3.76564e-05 0.00352943 0.00467103 0.000663273 0.000520124 0.000838295 0.00223687 0.00193763 0.00547753 0.00267851 0.00283907 0.000254572 0.00266557 0.00302115 0.00245045 -0.000974112 0.00412826 0.00107643 -0.00304845 -0.000301502 -0.00408969 0.00279192 0.000237923 0.000888899 0.00245147 0.000823823 -0.00189039 0.00423575 -0.00130235 -0.00165436 -0.00238702 0.0020119 -0.00258804 -0.0024445 0.00163353 -0.000308757 -0.00448954 0.00481221 0.00195086 -0.00029818 -0.00109481 -0.000147886 0.00266013 -0.0053474 -0.0061962 -0.00446119 0.00411559 0.00585287 -0.00325042 -0.00395454 -0.00302428 -3.7554e-05 -0.000404278 -0.00591175 0.00300335 -0.000906226 0.00261499 -0.00205222 -0.00103349 -0.00110164 0.00487605 -0.00105181 -0.00204197 -0.00385619 -0.000871687 -0.002017 0.00327962 -0.00200697 0.00023083 -0.000111987 -0.00105871 -0.0018174 0.00101369 0.000512628 -0.00363966 -0.000644947 0.00968033 -0.00500329 -0.00125426 0.00184888 -0.00230684 0.000855577 0.000502567 -0.00373924 0.00790096 0.0014459 0.00365051 -0.00548033 -0.000848267 -0.000195589 -0.000833349 -0.00230393 -0.00087198 -0.00379459 0.00384395 0.000386818
234 0.00527894 -0.00299353 -0.00269576 -0.002 -0.00711297 0.000249763 0.00104797 -0.00501061 0.00123762 -0.00228705 0.00121904 0.000352951 0.00135615 0.00161789 -0.00544149 0.00204838 -0.00100729 0.00248554 -0.000398017 0.0015067 -0.00293705 0.000348732 0.00085141 0.00116971 -0.000550416 0.000798591 0.00627949 -0.00195641 -0.00265299 -0.00459618 -0.00322529 0.00185944 0.00291388 0.00273357 0.0028889 0.000368253 -0.00344104 -0.0033104 -0.00268486 0.000972375 0.000730193 0.00113869 -0.000201176 -0.00200857 0.0032327 0.00440156 0.00845052 0.00140489 0.00441783 -0.0031503 0.000496678 0.00339839 0.00134211 0.0033607 -0.00102358 0.00147328 0.00583143 0.00234676 -0.00389388 0.00312915 -0.00198449 -0.00597808 -0.00317674 0.00573455 0.0014217 -0.00129121 0.00472757 -0.00472646 0.00134621 0.00512248 -0.00111744 -2.58954e-05 -0.00576389 0.000999157 0.00484501 -0.00744219 -0.000350304 0.00244176 -0.00260335 0.00715302 4.97142e-05 -0.000146272 -0.00308602 -0.00205388 0.00281523 -0.00126072 -0.0030962 -0.00131414 -0.000128526 0.00177731 0.00343489 0.00145818 0.00528341 -0.000368672 -0.00558207 -0.000992726 -0.000234675 -0.00172687 0.00494094 0.0012065 -0.00185401 -0.00146992 -0.00107311 -0.00172355 0.00560015 -0.00216163 -0.000435638 -0.00126643 0.00635934 -0.00695737 -0.00210881 0.000879228 -0.00270803 -0.00299011 -0.000660184 -0.00057163 0.00719756 0.00232365 0.00352156 -0.0045158 -0.000731296 0.00578613 -0.00400187 -0.00633469 0.00256154 0.000787988 0.000373066 -0.00384071
115 0.00628282 -0.00179994 -0.00163906 0.00564015 -0.00325226 0.00195861 0.00113388 -7.09489e-05 0.00206128 -0.00490065 0.00455779 -0.00207637 -0.00464617 0.00457395 -0.000122823 0.0024363 0.00079374 -0.0017227 0.00134143 -0.00303953 -0.000744796 0.00406539 -0.00029119 -0.00030234 -0.00425937 0.00189698 0.00249848 0.00359381 -0.000992903 0.00218469 -0.00553886 0.00190854 -0.000536361 0.00201252 0.00205179 -0.00224028 0.00102877 -0.00297772 -0.00453374 0.00605334 -0.000160443 0.0019813 0.00397215 -0.000296853 0.000901761 -0.00180487 0.00450769 -0.00272026 0.00196645 -0.000381943 -0.00325455 0.00426178 -0.00278796 -0.00237962 -0.0022433 0.00132011 0.0011055 0.00277984 -0.000640068 0.00524639 -0.00654821 -0.00407203 -0.000983747 0.00385507 0.00168479 -0.00203737 -0.00087804 0.000465419 -0.000372081 0.00545248 0.00144814 -0.00522775 -0.00316659 -0.00421035 0.00474428 -0.0036636 -0.00147684 -0.00454978 0.00257597 0.00565361 -0.00455382 0.00124058 0.00079779 0.00182253 -0.000705016 -0.00600696 -0.00386531 -0.00411335 -0.00235297 -0.00130477 -0.00101752 -0.00488393 0.00179789 0.000171276 -0.00110035 -0.00511499 -0.00254972 0.000661958 0.00261725 -0.00115976 0.00150874 -0.00167423 -0.00174526 -0.00257891 0.00249524 -0.00562568 0.000575391 0.00455251 0.00693982 -0.00436503 0.00256005 0.00192279 0.00114991 0.0011553 -0.003716 -0.00174031 0.00556367 -0.000438475 0.00460013 -0.000541972 0.000601965 0.00219269 -0.00435944 -0.000584816 0.00296906 -0.00596057 -0.00269325 -1.20071e-05
245 -0.000356317 0.000151512 -0.0046441 -0.00147985 4.20287e-06 -0.00310712 -0.00272304 -0.000945647 -0.00103314 -0.0042522 0.00136316 0.00129259 -0.00301399 0.0015887 -1.41588e-05 0.00217889 -0.00458381 0.00292327 0.00050291 -0.000961232 0.00123998 0.00347944 -0.00193012 0.00447794 -0.00349525 0.00445299 0.00441298 0.00382427 0.00143924 0.00179864 -0.00440474 0.00294066 -0.00403357 0.000428829 0.00293702 3.40562e-05 0.00190196 -0.00487032 -0.00176376 0.00589149 -0.000773961 0.00483035 0.00160836 -0.00027321 0.00222537 0.00312953 0.00558313 -0.000612778 0.000642796 -0.00122084 0.00225201 0.0048245 -9.11713e-05 0.00472115 0.004022 0.0021764 0.00337708 -0.00380123 -0.00733832 0.00136022 -0.00171889 -0.000899129 -0.000425349 0.00238582 -0.00275084 -0.002734 -0.00172774 -0.00221047 0.00155154 -0.00048484 0.00203784 -0.00285365 -0.00298086 -0.00483073 0.00384294 -0.0072823 -0.0042929 -0.00377683 -0.000311277 0.00112767 -0.000537124 0.000727124 -0.00041882 -0.000852982 0.00291336 -0.00111436 0.00297309 -0.00166462 0.00154723 -0.00506563 0.00335165 -0.00300835 0.00500446 0.000750071 -0.0059244 0.00120636 -0.00390882 -0.00196505 0.00153798 9.96185e-05 -0.00268933 0.00398915 -0.00108631 0.000736126 0.000353718 0.000698199 0.00073873 0.00508516 0.00917319 -0.00525332 -0.00117749 -0.00188324 0.00188863 -5.19615e-05 -0.00489112 0.00284747 0.00655293 -0.00100704 0.000731865 -0.000743747 0.000687698 0.0037218 -0.00421121 -0.00738478 0.00459066 -0.00226827 -0.00330655 -0.00521614
487 0.00107445 -0.00310115 -0.00378118 0.00433697 -0.000970732 -0.00102254 -0.00305732 -5.96959e-06 -0.000258794 -0.00325783 0.00408264 -0.00213003 -0.00383905 0.00359332 -0.00472423 0.00300575 0.00180908 0.00186877 0.00402328 0.00129475 -0.00413302 0.0028799 -0.00307321 -0.00254974 -0.00353781 0.000600601 0.00380757 -0.000947324 0.00194808 -0.0017972 -0.0052962 0.000924856 -0.000437198 -0.00147921 0.006926 -0.00137676 0.000587235 -0.00235705 0.00207498 0.00536198 0.00213483 -0.000202198 0.00225125 -0.00113755 -0.00199065 -0.00194918 0.00345428 -0.00236422 0.00203056 -0.000532463 0.000253728 0.000771409 0.00165633 0.00324248 -0.000537981 0.00308085 0.00245146 0.00280468 -0.00513018 0.00367121 -0.00605615 0.000128167 0.00170704 0.00150221 -0.000583142 0.000816655 0.00188873 -0.0010417 -0.00297433 0.00429766 -0.00228771 -0.00385165 -0.00364361 -0.00382801 0.00416297 -0.000288482 0.00135996 0.00307737 0.00422173 0.0013376 -0.00308589 -0.00329962 -0.00253561 0.00343194 0.000659846 -0.00403695 -0.00368536 -0.000446249 0.00393034 -0.000767173 0.00174181 0.000712644 -0.000927843 0.00267953 -0.00162891 -0.00240548 0.000208755 0.00357094 0.00409447 0.00150939 0.00114027 -0.000724923 0.000880118 -0.00199464 -0.00214811 0.00263089 0.000827648 -0.000230262 0.0030282 -0.00317202 0.00161444 0.00318768 -0.00287852 0.00132099 0.00236174 0.00135964 0.00354169 -0.00243906 0.00122722 -0.00171778 0.00111473 0.00239328 0.00188881 -0.00193087 -0.000344514 -0.00365235 0.00434058 -0.00259547
536 0.00598412 0.00281219 -0.00423012 0.00451495 -0.00654749 -0.00385587 -0.00171308 0.00210064 0.00252602 -0.00270539 -0.00128362 0.00214729 -0.00270848 0.000578961 -0.00276722 -0.00189592 0.00190025 0.0012485 0.00356344 -0.00105831 -0.000866672 0.00396864 0.000824737 0.00150742 -0.00548109 0.00521607 0.00176045 0.00399575 -0.00112733 -0.00026198 -0.00377976 -8.40291e-05 -0.00144843 -0.00111881 0.00680409 -0.000102171 -0.00399614 -0.000455277 -0.00200142 0.00307873 0.0053911 -0.00055879 0.000986429 0.000739769 -0.00207723 0.00280009 0.00305728 0.00397348 -0.000196225 -0.00110037 -0.000158399 0.00343538 -0.00229868 0.00401532 0.00205904 0.00061874 0.00608767 -0.00431927 -0.000667785 -0.00102814 -0.00486406 -0.00315299 -0.00254804 0.00226611 0.00282222 -0.00134373 0.00450885 -0.000111043 -0.000243627 0.000462304 0.000542973 0.00203273 -0.00550029 -0.00280445 0.000797454 -0.00786055 -0.00240271 0.00182185 -0.00175557 0.000339522 0.00276722 -0.00509213 -0.00405566 -0.00184597 0.00490598 -0.00222254 0.000828115 -0.00252802 -0.0027932 -0.00281941 -0.000922954 -0.00350499 0.000332637 -0.000385168 -0.00275479 -0.00187328 -0.00318177 -0.0010775 -0.00102289 -0.00226074 0.00160373 0.00399075 0.0025505 0.00333269 -0.00143354 0.000482962 -0.000556988 0.00195226 0.00562914 -0.00449974 -0.00334599 0.00249992 -0.00201109 0.00312989 -0.00394031 0.0022839 0.00241465 0.000830218 -0.000175592 -0.00550892 -0.000499495 6.79155e-05 -0.000984178 -0.00524872 -0.000841695 -0.000911829 -0.00210818 0.00140847
209 0.00338765 0.00455242 -0.00465956 0.00606415 -0.00472978 -0.00154009 -0.006699 -0.00380977 0.00299769 -0.00508027 0.00501509 -0.000644607 -0.00289784 0.000694956 -0.000412056 0.00183227 -0.00296522 0.00322618 -0.00165055 0.000283178 -0.00185074 0.00289039 -0.0020417 0.0011484 -0.00355309 -0.00108766 0.00228632 -0.000789094 -0.0023145 -0.000947416 -0.00346235 0.000269854 0.00272898 -0.00188028 0.008798 0.00133325 -0.00119701 -0.000214654 -0.000982703 0.0078051 -0.000570841 0.00417804 0.00316976 -0.00209195 -0.000375549 0.00323325 0.00944469 0.00383134 0.0085922 -0.00421287 -0.00195771 0.00199483 0.000193946 0.00462519 -0.00195786 0.00292406 0.00585652 0.00140734 -0.00791261 -0.000372375 -0.00369512 -0.00840838 0.000227377 0.00246092 0.0024005 0.00288512 0.000497911 -0.00143212 -0.00245943 -0.000357679 -0.00200987 -0.00542296 -0.00357005 -0.00075445 0.00379177 -0.00959095 -0.00215679 -0.00176714 0.00306005 0.00315992 -0.000410977 -0.00107404 -0.00467911 0.0052359 0.00423247 -0.00432571 0.00267628 -0.00515153 0.00137319 -0.00416781 0.00144006 -0.00434817 0.0033332 0.00431209 -0.00503827 -0.00279856 -0.000725948 -0.00012319 0.00302795 0.004 -0.00324982 0.00651625 -0.00340143 -0.000910183 -0.00119252 -8.02189e-06 -0.005063 0.00131751 0.00848336 -0.00672394 -0.00556754 -0.00293138 0.000813531 -0.00265371 -0.000580362 0.00217464 0.0122999 -0.00153155 0.00299891 -0.00385238 -0.000895049 0.00129189 -0.00119853 -0.00436102 0.00200189 -0.00139752 -0.00295999 0.0008836
632 0.00334633 0.00417945 -0.00246347 0.00443238 -0.00172646 -0.00332609 5.05107e-05 -0.00189795 0.00257473 -0.00334876 -0.00140776 0.00194185 -0.00366555 0.00580686 0.00101807 -0.00257666 0.00255523 0.00497723 -0.000658101 -0.00511608 0.000931685 -0.000567686 -0.00143768 0.000176383 0.000867892 0.00282396 0.00358639 0.00109642 -0.000275295 -0.000778341 0.000845608 -0.00103601 0.00117811 0.00382437 0.00801349 -0.00405241 0.00243 -0.00224585 0.000248598 0.00557687 0.00341596 -0.000268695 0.000929076 -0.00506056 0.00224761 -0.0020526 0.00718134 0.00282313 0.00403281 -0.00209019 0.00254723 0.00225026 -0.00165526 0.002297 -0.00293969 -0.00389277 0.00332003 -0.00304806 -0.0053834 0.00162937 -0.000768573 -0.00417935 -0.00185466 0.00475894 -0.00251016 -0.00374219 0.0023769 -0.00216323 0.00172304 -0.000959666 0.000222191 0.00163614 -0.00580661 -0.000134519 0.00383015 -0.00745594 -0.00152059 -0.00137985 3.45958e-05 0.00489978 0.00199599 -0.00566004 -0.00510892 -0.00218921 0.00256034 -0.00306895 0.000425054 -0.0015509 0.00157532 -0.0014042 0.00284508 -0.00405098 0.00386756 -0.00258786 0.000411006 -0.00175413 -0.00391774 0.000246397 -0.000116081 -0.00282401 -0.00139101 0.000534581 -0.00398875 -0.00186675 -0.000307304 -0.00309128 0.00196739 0.00296861 0.00206521 -0.00816086 -0.00305047 0.00282038 -0.000637655 0.00174715 -0.00478927 0.00136364 0.011118 0.00224695 -0.00138787 -0.00124145 0.00388363 -0.0015336 0.00206141 -0.00763201 5.45479e-05 -0.00139725 0.00247284 -0.00114322
647 -0.000314144 -0.000905702 -0.00383901 0.00302344 -0.00631669 -0.00166614 -0.00275543 -0.00386685 -0.00233172 -0.00527468 -0.00149211 -0.00218993 0.000329273 0.00382977 -0.00406046 0.00326073 -0.00253365 -0.00170978 0.00421578 -0.00429755 -0.00409493 0.00175717 0.000880641 0.00514599 -0.00308079 0.00355556 0.00356873 -0.00226763 -0.0010587 -0.00394537 -0.00161365 0.00142068 -0.000235083 -0.000585201 0.0035608 -0.00161992 0.000223701 -0.00144378 0.00300412 0.00295364 0.000930901 0.000488121 0.00368831 0.00191465 0.00198432 0.00322669 0.00128873 0.000113844 0.00281073 -0.00444653 -0.0004607 0.00485674 -0.00355388 0.00170174 -0.00114798 0.00314568 -9.73192e-05 -0.00226906 -0.005133 0.00224592 -0.00518895 -0.00645941 -0.00510324 0.000280353 0.00352166 0.000161592 0.00318271 -0.00188026 -0.00135315 0.0039447 0.000627983 -0.00364537 -0.0027474 -0.0030088 -0.00148261 -0.000969169 -0.00102924 0.00064976 0.00154962 0.00373576 -0.000433589 0.0014559 -0.00373921 0.00326975 0.00524879 -0.00436092 0.00282706 -0.0024406 -0.00189693 -0.000588932 -0.00258011 0.0013842 -0.000548482 0.0015447 -0.00333266 0.00198166 4.55106e-06 0.00239978 0.00187643 -0.00329268 -0.00410891 0.00501655 -0.00157938 0.00242106 0.00528712 -0.000987653 -0.00481643 -0.000715877 0.00301825 -0.00238985 -0.00367655 -0.000736361 0.00105594 0.000123514 2.64283e-05 -0.000262276 0.00462547 -0.000137829 -0.00205932 -0.00340689 0.00334875 0.00160504 -0.00313958 -0.00240857 -0.000746472 -0.00175259 0.000631924 -0.00195213
