661 24
79 0.0212339 0.00442174 -0.0252645 0.00642532 0.00560783 -0.00701816 0.00494625 0.000574526 0.0310931 -0.0197181 -0.0213531 0.0279439 6.91778e-05 0.000376481 0.0177309 -0.000335548 0.0114263 -0.00688827 -0.00576105 -0.0335206 -0.0173289 -0.030038 -0.0229242 0.0307064
480 0.000482379 0.0213914 -0.000196735 -0.00734272 -0.000725158 3.04881e-05 -0.0144869 -0.0173382 0.031926 -0.0133683 -0.0203045 0.00586984 0.017615 -0.0331929 0.025562 -0.0166358 -0.00314817 -0.00452143 -0.0203352 -0.00221367 -0.0140077 -0.0264792 -0.0125278 0.0219301
618 0.0294505 0.0216356 -0.00801936 -0.00296784 0.0114009 -0.0244142 -0.0152311 0.00486322 0.0269468 -0.0138366 -0.00950884 0.0246738 -0.00696063 0.00200534 0.0331951 -0.0245578 0.0143187 0.00356595 -0.00478622 -0.00703414 0.00784823 -0.00467259 -0.0103625 0.00722792
9 0.0285094 -0.000834074 -0.0119452 0.00129347 0.0101914 -0.00662936 0.00697057 0.00576505 0.00357497 -0.0114825 0.000445178 0.00453968 0.00800057 -0.00153697 -0.00269593 0.0102729 -0.00725387 0.00946336 -0.00558612 -0.0179612 0.00337124 -0.027719 -0.00411919 -0.00496318
382 0.025306 0.0227873 -0.0210139 -0.00448161 0.00101978 0.00030589 -0.0216087 -0.0232368 0.0261951 -0.0155878 -0.0224638 0.0418214 0.0247348 -0.0212166 0.0341061 -0.0189613 -6.65088e-05 0.0019303 -0.0248191 -0.0387703 -0.014906 -0.0419059 -0.0339923 0.00778581
150 0.0147223 0.00788828 -0.0392208 0.0214915 0.0161114 -0.00322334 -0.0151632 -0.00689973 0.0196996 -0.0413813 -0.0184953 0.0436235 0.0110191 -0.0291002 0.0486198 -0.0124642 -0.00689348 0.0260395 -0.0316981 -0.0299962 -0.00717234 -0.0237324 -0.0118583 0.000881228
585 0.00685841 0.0174122 -0.0301699 -0.00611696 -0.0108403 -0.0149075 -0.0232031 -0.00465678 0.0169167 -0.0321569 0.0118831 0.0199007 0.0225071 -0.0231377 0.00123325 -0.012073 -0.01472 -0.00713381 -0.00139861 -0.0284559 -0.0177562 -0.0213835 -0.00658225 0.0143163
270 0.0385996 0.0212893 -0.0415461 0.00220344 -0.000262643 0.00769109 -0.025705 -0.0132221 0.0281446 -0.00558572 -0.0215627 0.0420603 0.0162561 -0.00237317 0.0278197 -0.0100711 0.0163317 0.00909474 -0.0159191 -0.0382375 -0.0159555 -0.01355 -0.0143662 0.0322472
68 0.0394557 0.0225464 -0.0289936 0.00480957 -0.00892049 0.00475335 -0.000338504 -0.0221555 0.00678993 -0.00493009 0.0131566 0.0305861 0.0141659 0.00481577 0.0337248 0.00498513 0.0095544 -0.000626954 -0.0258152 -0.00681619 -0.00639418 -0.018704 -0.0296175 -0.000863849
473 0.0131572 -0.00909918 -0.00746112 -0.000441927 -0.0140918 -0.0132158 -0.0148668 -0.00642705 0.0202408 -0.0104241 -0.0196467 0.0322722 0.00712828 -0.0271067 0.0243631 -0.0121802 -0.0070688 0.00731888 -0.0182914 -0.000199558 -0.0229334 -0.0282742 -0.0172557 0.000980126
176 0.0269726 0.0177498 -0.0321505 0.0244964 0.01524 -0.0202576 0.00599629 -0.0236728 0.0372004 -0.00127915 -0.0132399 0.0102888 -0.00512172 -0.0287635 0.0434945 -0.0298321 -0.00815505 0.0240221 -0.0248085 -0.0422085 -0.00924578 -0.0377776 -0.0340791 -0.00398697
12 0.0266724 0.00404027 -0.0186995 -0.012168 0.00627713 0.0129597 -0.0146574 0.00821101 0.011616 -0.013515 0.0126339 0.0212742 -0.00661153 -0.00893832 0.0276732 0.0055378 -0.00454561 0.0112054 -0.00452556 -0.030234 -0.0183198 -0.00281741 -0.015137 0.00626459
125 0.0323152 -0.00827524 -0.0049285 0.0262154 -0.00545834 0.00514147 -0.0228663 0.00684685 0.0464919 -0.0290076 -0.0231354 0.0308015 0.0118693 -0.0164803 0.0295338 -0.0223898 0.0293582 -0.0159688 -0.0231027 -0.0315631 -0.00664852 -0.030588 -0.0374287 0.0146227
446 0.0439475 0.0240191 -0.0077517 0.0226631 0.0008463 -0.0132186 -0.000994746 0.00354986 0.0514705 -0.0346454 -0.001763 0.0145536 0.00117644 -0.0397906 0.0194152 -0.0271184 0.00955264 0.0210609 -0.000392163 -0.00511182 -0.00958435 -0.0365572 -0.0348578 0.0124509
137 0.0225401 0.0222717 -0.0322769 -0.0100649 0.0042023 -0.000913844 -0.00826325 0.00520228 0.0260354 -0.0178817 -0.00402295 0.00810839 0.0188527 -0.00291435 0.0220453 0.00263764 -0.00439435 0.00576795 -0.00166216 -0.0223693 -0.014101 -0.0301113 -0.00357488 0.016519
482 0.0404126 0.0265396 -0.0102339 -0.00218938 0.00632819 -0.0297055 -0.00584253 -0.0163202 0.0269792 -0.0286069 0.0065593 0.00553031 0.0236319 0.000695511 0.0294145 -0.02807 0.0191386 0.0117432 -0.0244397 -0.0321444 -0.00519666 -0.00418705 -0.0111106 0.00485806
320 0.00662613 0.0170587 -0.033746 0.00776549 -8.86188e-06 -0.0299119 -0.019668 -0.0135325 0.00972645 -0.0229501 0.00909591 0.0390871 0.0282683 -0.0134118 0.0258345 -0.0219308 -0.00642947 -0.0080964 -0.0334859 -0.0275468 -0.0325238 -0.0331332 -0.0271328 -0.00275345
139 0.0402977 -0.0107589 -0.00653872 0.0124306 -0.0147471 -0.00744204 -0.0116997 -0.0104068 0.0446663 -0.00465162 -0.00782318 0.0271775 0.0314325 -0.0162204 0.0364049 -0.0268826 -0.012125 0.00919778 -0.0323285 -0.00337288 -0.010617 -0.00681252 -0.0315789 0.0247102
38 0.0450572 0.0202735 -0.0311116 0.0256422 0.01692 0.00569665 -0.0154748 -0.0102419 0.0137586 -0.0360269 -0.0145418 0.0266518 0.00871108 -0.00974575 0.0397865 -0.00281856 0.0029678 0.00555892 -0.0149432 -0.0154137 -0.0308423 -0.0431553 -0.0127292 0.0166838
580 0.00397728 0.00559994 -0.0114636 0.00273471 -0.00217186 -0.0112308 -0.00782304 0.00604251 0.0441094 -0.0267431 -0.0049444 0.0101345 0.00456762 -0.0088213 0.0280659 -0.0026721 0.0097572 0.0114574 -0.0152181 -0.0257233 0.0017806 -0.0338883 -0.00345598 -0.00217528
300 0.0254147 0.00290509 -0.0306027 -0.00752843 0.00118512 -0.0244928 -0.00143922 -0.0201948 0.0235065 -0.0204718 -0.0049141 -0.00116284 -0.00473743 -0.0145757 0.0222059 0.00447602 0.00134087 4.91873e-05 -0.00214218 -0.0237123 -0.0128036 -0.0142343 -0.0364394 -0.00244454
496 0.0200775 -0.00294407 -0.0220703 0.00496124 -0.0196362 -0.00421612 0.0138425 0.014201 0.0425023 -0.0102053 0.0143144 0.00222151 0.00766895 -0.017885 0.0167827 -0.00997105 0.0110786 0.0156165 -0.00321651 -0.000883879 -0.0206408 -0.00434598 -0.00906322 -0.00490652
166 0.00808528 0.0114525 -0.0167569 0.0219599 0.00768751 -0.0125195 -0.014128 0.00346984 0.0404868 -0.0112886 -0.0127465 0.0283611 -0.00399633 -0.0250037 0.0341384 -0.0262463 0.01538 -0.00316054 -0.0092974 -0.0168285 -0.0242581 -0.0352558 0.00209835 0.0251344
156 0.0188924 0.0184742 -0.0325557 -0.00201543 -0.0194136 0.00533747 -0.00888617 0.006609 0.035396 -0.0131752 -0.0138383 0.0330231 0.0294165 -0.000108268 0.0308422 -0.00635955 0.0189995 0.00607945 -0.0277592 -0.0280544 -0.0312068 -0.0405457 -0.00769304 0.0222942
621 0.0187057 0.0155503 -0.0226861 0.0209688 -0.00254251 0.00893498 -0.0145546 0.0120433 -0.00180771 -0.026968 0.0105528 -0.00607286 -0.0125451 -0.00040354 0.0020008 -0.00954749 -0.0125124 0.0179307 0.00836546 -0.0260745 -0.00907732 -0.0170447 -0.002539 0.00267147
282 0.0456336 4.49912e-05 -0.00718497 0.00873124 0.00668221 -0.0244456 -0.0194609 -0.0153222 0.0247972 -0.0180286 -0.0236717 0.0150608 0.0150299 -0.0359527 0.0268852 0.00172771 0.00140179 0.00158292 -0.000614661 -0.0266359 -0.00504181 -0.0197099 -0.00242223 0.0296596
421 0.0234375 0.0180699 -0.0297789 0.0261945 -0.00662095 -0.0183842 -0.00201307 -0.0209761 0.0184307 -0.0385748 -0.0148685 0.00938645 0.00223555 -0.0419241 0.0285909 -0.0250939 0.0274179 0.0224612 -0.027778 -0.0217323 -0.00525163 -0.0322039 -0.0164452 0.0068792
514 0.0328882 -0.00215581 -0.00401723 0.0153197 0.0182386 0.000378592 0.00460044 -0.0116234 0.00465637 -0.0140536 -0.012851 0.0213227 0.007611 0.00419532 0.0110551 -0.0210367 -0.00494221 -0.0172739 -0.00987737 -0.0314289 -0.000222503 -0.00294665 -0.0344397 0.0157175
34 0.0382191 -0.00333603 -0.0225455 -0.00142299 -0.0142077 -0.0196247 -0.01518 -0.0123033 0.0409142 -0.0245843 -0.0195989 0.0148031 0.0275352 -0.00367534 0.00959275 -0.0210546 -0.00364259 0.00506746 -0.0200867 -0.0112215 -0.0136612 -0.024848 -0.0375616 0.00888836
144 0.0121724 0.0247456 -0.0233012 0.0238437 -0.0117181 -0.0160957 0.00648643 0.0127856 0.0223857 -0.0145864 -0.00452515 -0.00211697 0.0311633 -0.00818591 0.0319172 0.00542393 -0.00527642 -0.00937434 -0.0223765 -0.017755 -0.0202401 -0.00941811 -0.0313237 0.0305529
373 0.0191359 0.00589017 -0.0177822 -0.00871763 -0.016705 -0.0203204 0.000359955 -0.00568205 0.00851098 -0.0033441 0.00476047 0.00522034 0.0217166 0.00446662 -0.000614106 -0.0189136 0.00712141 0.0137914 -0.00545045 0.00272001 -0.0173072 -0.0320774 0.00419439 0.00370162
272 0.0176706 0.0039772 -0.0142738 0.00610725 -0.0121027 0.00734029 -0.00494454 0.0025765 0.0387188 -0.0154637 0.00222833 0.0149327 0.0176287 -0.0112739 0.00932317 -0.0163175 0.0100743 -0.00213965 -0.00498221 -0.031941 -0.00372723 -0.00394347 -0.0235783 0.0265678
438 0.0189749 0.0208991 -0.00314916 0.0239348 0.00518849 -0.00729442 0.0118974 -0.00289486 0.0174974 -0.00442806 -0.0244474 0.0101994 -5.82752e-05 -0.0322529 0.0147104 -0.0177819 -0.0125713 0.0137287 0.00775484 -0.0253909 0.00142347 -0.00900911 -0.0302292 0.00245635
406 0.0415974 0.0209954 -0.0208964 0.00566264 -0.00632857 -0.0296042 0.0071233 -0.0044734 0.0493774 -0.0373258 -0.0242463 0.0386617 0.0300083 -0.0297293 0.0384807 -0.0209546 0.0190188 -0.00195621 -0.0227277 -0.0252233 -0.0280612 -0.0444935 -0.0336332 0.0324209
178 0.0284941 -0.0157305 0.00278528 -0.0100232 0.00916255 0.00423316 0.00167779 0.0150525 0.00641024 -0.0315217 -0.00226973 0.0093051 0.0233006 -0.0193372 0.035951 -0.0137694 -0.0104663 -0.0156185 0.00178603 -0.00324906 -0.0188905 0.00359589 -0.026779 0.00984601
47 0.0115156 0.0232358 -0.0101635 0.00500267 -0.00451271 -0.00743708 0.00496352 0.0101222 0.0229311 -0.026326 -0.00487931 0.0270261 0.027476 -0.00787447 0.0232868 -0.0232373 0.000951071 -0.00924986 -0.0278145 -0.0148513 0.00568425 -0.028649 -0.0256122 0.00528009
505 0.0103682 0.00768901 0.0013432 0.0226814 -0.0163038 -0.00241157 0.00347185 0.00158847 0.00286813 -0.0134793 0.00203135 0.00400828 0.00960098 -0.00518137 0.0129807 -0.0266973 0.00194293 -0.0135582 -0.0254849 -0.0177565 -0.0234714 -0.0306212 -0.0333148 0.0238747
90 0.0154644 0.0193595 -0.0137879 -0.00233614 -0.0183421 -0.00327357 -0.00845072 -0.0259481 0.0269988 -0.036235 -0.0274002 0.0257562 0.00486371 -0.0357964 0.00338765 -0.0303711 0.0219546 -0.0125657 -0.026776 -0.0320983 -0.0201679 -0.00290247 -0.0430824 0.0221498
655 0.00721775 0.0203132 0.00262833 0.0194931 0.016531 0.00958348 0.00748411 -0.000520102 0.025245 0.0120133 0.012764 -0.0103354 -0.00140122 -0.0055325 0.0277777 -0.0232456 0.0153189 -0.0100641 -0.02183 0.00125079 0.0104655 -0.011916 -0.019883 -0.0131362
411 0.0325903 0.00708114 0.00331864 0.00251268 -0.0191682 -0.0215782 -0.0269861 0.0119877 0.0262871 -0.0204199 -0.000752446 0.0383892 0.0171353 -0.0309723 -0.000199148 -0.00405838 -0.0117434 0.0189773 0.0061405 -0.0115021 -0.00379842 -0.00867527 -0.0149374 0.0151978
136 0.0236751 -0.00765691 -0.00636307 0.0266474 -0.00995982 -0.0082016 -0.00398745 0.0137039 0.0172699 -0.0005022 -0.00418319 0.0292322 0.0119052 -0.0350899 0.0357705 0.00789236 0.0256468 0.0198054 0.00478123 -0.0415001 0.000673771 -0.0407308 -0.0167287 -0.00378582
422 0.00896054 0.00262348 0.000647706 -0.0127345 -0.0211091 -0.0183352 -0.00744617 -0.0136874 0.0373257 -0.0021497 -0.0147498 -0.00222204 0.00700613 0.00685485 0.0297971 0.000936766 -0.0126539 0.00980429 -0.0134661 0.00361857 -0.0220613 -0.013762 -0.0161343 0.00448505
601 0.0128413 -0.0108967 -0.00730883 0.003768 -0.00909856 0.00176095 0.0114057 -0.0100184 0.0275912 -0.0335057 -0.0029707 0.0260808 -0.00483863 -0.0104442 0.000285963 0.00630451 0.0135642 0.00856724 -0.0220536 -0.00242055 0.00286787 -0.0350851 -0.0216325 0.0211141
92 0.0358499 0.0146803 -0.0249745 -0.0124692 -0.00480032 -0.0235175 0.00678892 -0.0187637 0.0470153 -0.0140987 0.00808165 -0.000941646 0.00252182 0.00188573 0.0134454 -0.027168 0.00677623 -0.00340538 -0.0241948 -0.025746 -0.000164082 -0.0404268 -0.000855598 0.0184716
530 0.024559 0.0142721 -0.0312554 0.0170575 0.000494405 0.00917921 0.0117745 -0.00408065 0.0357644 -0.0319632 -0.0171 0.0334155 -0.00542204 -0.000963268 0.00366278 -0.0164132 -0.0020225 -0.0145449 -0.0265545 0.000521336 -0.0261823 0.00583748 -0.015574 0.00863372
394 0.0100648 0.0250639 -0.00457904 0.020702 0.00187525 0.00391813 -0.00950876 0.0128041 0.0435295 -0.00381645 -0.0150383 0.0212933 0.0334452 -0.0313991 0.0162282 0.0070214 0.0149692 0.0242238 -0.020091 -0.00587754 0.00585801 -0.0377378 -0.00383126 -0.00172219
99 0.0274796 -0.0052727 -0.026718 -0.0100095 0.0177699 -0.0140674 0.00757715 0.0126941 0.0378309 -0.00694682 -0.0237398 0.0337114 0.021388 -0.0218101 0.00209102 0.0075185 0.00820009 -0.00809549 -0.0304434 -0.0160888 -0.0263054 -0.029768 -0.0354068 -0.00551085
332 0.0174126 -0.00487812 -0.0152493 0.00747355 0.0134243 -0.0304905 -0.00936581 -0.012164 0.0142948 -0.0137437 -0.0205596 0.00873043 -0.00384062 -0.0109885 0.0293467 0.00415632 -0.00853714 0.0119648 -0.0135052 -0.0122629 -0.00794189 -0.0298348 -0.0304055 0.0217922
277 0.0357079 -0.0121174 -0.0417472 -0.0110677 -0.00651674 -0.0127852 -0.0181482 0.00817493 0.0255256 -0.0279659 0.00692942 0.0365549 0.0134377 -0.0129032 0.00827536 -0.0260985 0.00119527 -0.00191316 0.00108119 -0.0391785 -0.00281003 -0.00848155 -0.0435787 0.0312808
171 0.0418896 -0.0068579 -0.02064 0.00275616 0.00472003 0.00402942 -0.00599171 -0.0210584 0.0332147 -0.0274557 0.00424305 0.0125286 0.0307868 -0.00129174 0.0209128 -0.0242834 -0.00704545 0.00762317 -0.0266783 -0.0311126 -0.0277666 -0.035161 -0.0148402 0.0205429
116 0.0318124 0.00801058 -0.0168784 0.016834 0.0128945 -0.0211576 -0.00689547 -0.0140005 0.0432375 -0.03412 -0.00558299 0.0144375 -0.00595834 -0.0294732 0.0308608 -0.0304578 0.029642 0.0229422 -0.035769 -0.0377847 -0.00968914 -0.016432 -0.0335882 0.0266492
96 0.0153694 -0.0151374 -0.00188776 0.0171673 0.0183106 -0.0065773 -0.00569127 -0.0145103 0.0406571 -0.00421499 0.00223242 -0.00189771 0.00630485 -0.00657403 0.0254443 -0.0127381 -0.00964526 0.00100013 -0.0172131 -0.0235993 0.00220843 -0.00737512 -0.00819356 0.00145348
252 0.0181005 0.00257596 -0.0115075 0.0102066 0.00731881 -0.00200982 0.00918166 -0.0132763 0.0108674 -0.0173704 -0.0228985 0.0207891 0.000554421 0.00297858 0.0277774 -0.020297 -0.00623428 -0.00873333 -0.0111025 -0.027055 -0.00369943 -0.00189243 -0.0344411 0.0168758
330 0.0208693 -0.00405572 -0.033186 0.0241228 -0.0206206 0.00686244 -0.0180019 -0.0122643 0.0430422 -0.0316512 0.00749357 0.0304947 0.00717677 -0.00783142 -0.00295439 -0.0130654 0.00785715 0.0101163 0.00622828 -0.0347874 0.00802831 -0.0331696 -0.0313437 0.0320027
475 0.0152186 0.0112603 -0.0134637 -0.00746547 -0.0149849 -0.0169058 -0.00862385 9.69932e-05 0.0385992 -4.49368e-05 0.00259982 0.00589121 -0.00261082 -0.0309032 0.0229031 0.00983353 0.0229268 -0.00193004 0.00044948 -0.0223966 -0.0241398 -0.0184498 0.00287606 -0.00232338
108 0.029188 0.00403926 -0.0402137 0.0272078 0.00177979 -0.00307837 -0.0179084 -0.00252023 0.0415217 -0.0307759 -0.00112772 0.0232215 -0.00131877 -0.00939036 0.0419253 -0.00726441 0.0136038 -0.000743572 -0.00814259 -0.0414352 -0.0382136 -0.00495841 -0.0252797 0.0172368
127 0.023559 -0.00444768 -0.0265589 0.00963226 0.0158211 -0.00681016 0.00712003 -0.0167972 0.0310046 -0.0301334 -0.0231096 0.00853477 0.0170565 -0.0403817 0.00451434 -0.00578728 0.0021464 0.00274058 -2.68396e-05 -0.0112988 -0.00672476 -0.0264398 -0.0118445 0.00983018
639 0.0290813 -0.00532394 -0.0184207 -0.0120977 -0.016542 0.00636429 -0.0174493 0.0106788 0.0368909 -0.0174013 -0.0196625 0.0328974 -0.00855255 -0.00226335 0.0153862 -0.00334524 0.0222353 -0.00304694 -0.0258992 0.00488754 0.0110237 -0.0210464 -0.0128729 -0.00912906
568 0.0390289 -0.00700343 -0.0328914 0.00914483 0.00801888 -0.0236893 -0.00454921 -0.00654114 0.0246789 -0.00632968 0.00236516 0.0205484 0.01561 0.00123552 0.0153636 0.00285621 0.00521042 -0.00762865 -0.00635134 -0.00953207 -0.0167045 -0.0231191 -0.0111505 0.00427953
448 0.0452056 0.0268955 -0.0261413 0.0107253 0.010032 -0.0241799 0.0103778 -0.0242017 0.0449515 -0.025052 -0.0300547 0.0303695 0.0052272 -0.00635647 0.0446822 -0.0155088 0.00643938 0.00368241 -0.0212169 -0.0385114 -0.0366816 -0.0422243 -0.0283875 0.0127609
195 0.0145206 0.0224336 -0.0183393 0.0247405 -0.0189635 -0.0166827 0.00653573 -0.0216718 0.0121049 -0.0238665 0.0116394 0.00448307 0.015247 -0.014084 0.0221101 -0.0207876 0.00385764 0.0142327 -0.0256481 -0.0230748 -0.0146797 -0.031218 -0.00683771 0.033741
214 0.00221178 -0.0125085 -0.0230076 -0.00652524 0.0155769 -0.010226 -0.0258028 -0.0199506 0.0350736 -0.0204601 0.00983992 0.0137937 0.010871 -0.0246036 0.0142035 0.00383285 -0.0132257 0.00585873 0.00463531 -0.00541474 -0.0143822 -0.0282627 -0.0315219 0.0140848
53 0.00971023 0.0118385 0.00943643 -0.00366722 0.00787897 0.0107488 -0.0205526 0.0119 0.00566237 -0.0175999 0.00499087 -0.00313183 -0.0105275 0.00973011 0.0141635 -0.0261724 0.0105777 -0.00814022 0.00307088 0.00537342 -0.00289385 -0.0279137 -0.0215492 0.0181094
353 0.0337125 -0.00977538 -0.0243248 0.0133177 -0.000528583 -0.00497563 -0.00850819 -0.0153975 0.046338 -0.0191542 -0.00890086 0.00528109 0.0266054 -0.0152301 0.0101141 -0.0120289 -0.0021207 -0.00118704 -0.0238036 -0.0145338 0.00117345 -0.00911756 -0.011474 -8.78494e-05
479 0.0288412 0.00710254 -0.00851832 0.013569 -0.00359025 -0.0256053 -0.0111257 -0.00969372 0.0325614 -0.0262445 -0.0178257 0.0261433 -0.000858594 -0.0247141 0.0140496 -0.0231554 0.00615646 0.00627903 -0.0261466 0.00275255 -0.00909872 -0.0247624 -0.0207357 0.00198194
413 0.0236468 0.0081824 -0.0138176 0.0136103 0.0133606 0.00516995 0.011961 0.00323836 0.0202822 -0.0206951 -0.0115667 0.0200986 -0.00189448 -0.00922268 0.0223955 -0.0241665 0.0116309 -0.00576975 0.00339274 -0.0387519 -0.0209192 -0.0194411 -0.0334957 0.0289909
104 0.0351631 0.00369224 -0.0132117 0.00436999 -0.0153093 -0.0141599 -0.0251711 -0.0170446 0.044923 -0.00876935 -0.028542 0.00921319 0.0142536 -0.00886665 0.0244226 -0.0314094 0.00783153 -0.0121246 -0.0358332 -0.0153781 -0.0248163 -0.01795 -0.041714 0.00377254
611 0.0201027 0.0201628 -0.0252864 0.000997328 -0.011637 -0.0263189 -0.00677789 -0.0134972 0.0399153 -0.0298965 -0.00244032 0.0360165 -0.000145693 -0.0307647 0.0186681 -0.0242346 -0.0116556 -0.00234139 -0.00178456 -0.0125843 -0.00270945 -0.0258978 -0.00538449 0.0326608
533 0.0066895 -0.00543434 -0.0033729 0.0132686 -0.0198172 -0.0190521 -0.0220139 -0.00503102 0.0350529 -0.0249817 0.00906537 0.0226641 0.0277402 -0.0211087 0.000460405 0.00451326 -0.0051214 -0.0149302 0.00562331 -0.00858179 -0.0247403 -0.0245597 0.00382784 -0.00202063
276 0.0162195 0.0153879 -0.0121123 0.0135018 0.0146176 0.00403633 0.00487725 -0.0109005 0.0241496 -0.0243896 0.00353762 0.0299772 0.0142352 -0.00163994 0.0321675 0.00761753 0.0202257 0.00884707 -0.00980592 0.000401652 -0.00133788 -0.0139992 -0.0177332 -0.00726539
59 0.0319281 2.98513e-05 -0.0189146 -0.00670608 -0.0132893 -0.0225324 -0.00227029 0.00811924 0.0310559 -0.0169759 0.000989577 0.0148506 -0.0126951 -0.0276018 0.0195063 -0.021093 0.017459 -0.0102842 -0.026235 0.00668823 -0.0123167 0.00444191 -0.0223524 0.0136813
435 0.0329434 0.021956 -0.0341057 0.0190555 -0.01205 -0.00984075 -0.0107315 -0.0026908 0.0484377 0.00150491 -0.00304748 0.0165648 0.0253148 -0.0134071 0.00619389 0.00194955 0.0165337 -0.00651485 -0.0174256 -0.0271783 -0.0211611 -0.000882541 -0.00647533 0.0115162
654 0.0332361 0.00453536 -0.0230628 -0.0129102 0.000673504 0.00659246 0.00267154 -0.0110354 0.0327916 -0.027203 -0.00544355 0.0238192 0.0151245 -0.00799343 0.0233073 -0.0181393 -0.00757263 -0.0105772 0.00784217 -0.0202146 -0.00472184 -0.0285649 -0.0216347 0.0149015
399 0.0390998 0.021451 -0.0142946 0.0190643 0.00653432 0.00620291 -0.00715623 0.00495625 0.0123838 2.50231e-05 -0.0117363 0.0318265 0.00225971 -0.0113172 0.0212232 0.00360936 0.010063 -0.00102195 -0.0275575 -0.0179511 -0.011961 -0.0297918 -0.0116357 -0.00116565
356 0.0329434 -0.00092929 -0.0241187 0.0205234 -0.0172616 0.00498879 -0.0103602 -0.010819 0.0100567 -0.0120902 -0.00980438 0.0251564 0.00493131 -0.0260201 0.0155577 0.0044904 -0.0118732 -0.00631086 -0.0212406 -0.00273474 -0.028985 -0.0133241 -0.00857681 0.0117183
622 0.0198285 0.00540563 -0.00530141 0.00445862 0.0193382 -0.0216541 0.00610568 0.010157 0.0450707 -0.0150105 -0.0137553 0.0159559 0.0295548 -0.0351926 0.00128915 -0.0105912 0.00725678 -0.0118659 -0.0189609 -0.0172248 0.00346359 -0.0201546 -0.0236988 0.0312417
235 0.0384882 0.00523499 -0.0207142 -0.00545104 0.00257656 -0.0108921 -0.0119638 -0.0224118 0.0120415 -0.00856401 -0.0188486 0.0354523 0.0216841 -0.0263375 0.0190872 -0.0246484 0.0208291 -0.0159787 -0.0174118 -0.0275085 0.00458768 -0.0345391 -0.00973364 0.00286853
620 0.0176949 0.0219344 -0.0122976 0.0103864 0.0180512 -0.022746 -0.00211936 0.00278187 0.0151093 -0.0173727 -0.0132866 0.0316225 0.027861 0.00306147 0.0151098 -0.00983075 0.00765531 0.0173211 -0.0258844 -0.0325571 -0.0116644 -0.00701556 0.00172255 0.0251484
563 0.00524286 -0.0150364 -0.0137978 -0.000204488 -0.0210653 -0.00475542 -0.0115474 -0.00264384 0.026777 0.00898797 0.0104032 0.0285511 0.0255068 -0.0279088 -0.0062026 0.0012352 0.0100077 -0.00764653 0.00796761 -0.0216631 -0.017028 0.00243411 -0.0202618 0.0188435
628 0.0326602 0.0188817 0.00178798 0.0190519 -0.0087072 0.0112561 -0.0125844 -0.00683182 0.0137329 -0.0328703 -0.0251253 0.023375 0.0159475 -0.0237458 0.037574 -0.00491108 0.0121386 -0.0130437 0.00642308 -0.000814693 -0.0270027 -0.00682154 -0.00974829 0.024724
583 0.0325015 -0.00853197 -0.0142208 -0.0110922 -0.0139248 -0.018616 -0.00985726 -0.0220131 0.00239117 -0.0105445 0.00452866 0.0364272 0.0254865 -0.000421644 -0.00071068 -0.0117038 0.0243365 0.0198125 0.00660312 -0.0203528 -0.0161445 -0.00535072 -0.013416 0.020827
299 0.0448189 0.00297341 -0.0104359 0.0155731 0.00352092 -0.0194754 0.00708382 -0.00951309 0.0384821 -0.0128698 0.00242499 0.0357286 0.00999877 -0.0309311 0.00287681 -0.0226651 0.00708097 0.01749 -0.000460982 -0.026795 -0.0197955 -0.0104948 -0.00577982 0.000841672
50 0.0158969 2.92431e-05 -0.0373866 0.0237897 0.0140607 0.00621607 -0.0147502 0.00271326 0.0283271 0.0026884 -0.0204629 0.00355312 0.0016005 -0.0187384 0.00235842 0.00994515 9.98102e-06 0.0222716 -0.0163987 -0.014848 -0.023643 -0.0161989 -0.0331595 0.0199228
155 0.00633412 0.0250832 -0.00962031 0.0037829 -0.00640449 -4.90065e-05 0.00135009 0.00236115 0.00660658 -0.0123438 -0.0253943 0.0108759 -0.00220153 0.00404009 0.0199935 -0.008067 0.0179366 0.00941762 -0.0232024 -0.0245261 0.00346287 -0.0273698 -0.0100875 0.0112323
455 0.00246561 0.00432954 -0.0160178 0.00860253 -0.00731161 -0.0204776 -0.0152172 -0.0233158 0.0369976 -0.0269956 0.00972942 0.0332685 0.0265401 0.00224944 0.00359577 0.00448288 -0.00413839 0.00960416 0.00711825 -0.0260569 -0.00791721 0.00395672 -0.00590595 -0.0121401
395 0.0415006 0.0163095 -0.0433782 0.014223 0.0023167 -0.0267838 -0.0212895 -0.00337718 0.0365292 -0.0199657 -0.0172535 0.0443985 0.0113752 -0.0107913 0.0354727 -0.033409 0.0274899 -0.00355957 -0.019499 -0.032336 -0.00881624 -0.0411949 -0.0427595 0.00699096
361 0.00956334 0.00291783 -0.0328353 -0.00294477 -0.00106929 0.00317514 0.00414618 0.0126163 0.0210574 -0.0113867 -0.0111299 0.010828 0.0114207 -0.0108055 0.00126227 -0.0182196 0.0109772 0.0147797 -0.00125607 -0.0114801 0.00119242 -0.00830474 -0.00802707 0.00848635
197 0.0365352 0.0104961 -0.00662905 0.0201305 -0.00622348 -0.0181457 -0.0143979 0.00170374 0.0201076 -0.0093885 -0.0178019 0.0172173 0.0291623 0.0025407 0.0252397 -0.0246856 0.0150133 0.0240339 0.00604631 -0.0174864 -0.0196628 -0.0371593 -0.0397862 -0.00271754
349 0.0366044 0.0205749 -0.0233369 0.0211317 0.0010967 -0.011663 0.00195045 0.00412725 0.0363333 -0.0315473 0.00829996 0.0283562 -0.00230357 -0.0262651 0.0157561 -0.0347613 0.0289451 0.0193419 -0.0282864 -0.0461339 -0.0296812 -0.0248844 -0.0395059 0.0037911
464 0.0112853 -0.00949385 -0.0227114 0.0243805 -0.0111914 0.00576712 -0.0230271 -0.00912337 0.0210534 -0.0133549 -0.0182709 0.0183822 -0.00447113 -0.00122881 0.0169477 -0.0111166 -0.0135551 0.0111293 -0.0107772 -0.0388977 -0.0135765 -0.023771 -0.0172464 0.00856633
490 0.0196265 0.000979885 -0.00686427 0.0168367 -0.00726515 0.00278391 -0.0215416 0.00602561 -0.00589972 0.000151969 -0.0155685 0.0141891 -0.00850707 -0.0065224 0.0130945 -0.0034137 -0.015116 0.00464559 0.00428982 -0.00819441 -0.0262018 -0.00142187 -0.0298284 -0.0113797
248 0.0277557 -0.0012133 -0.0393274 0.032189 -0.00428495 -0.0331057 -0.00316428 -0.0194914 0.0340297 -0.0508073 -0.0356765 0.0286519 0.0355002 -0.040916 0.0516326 -0.0245495 -0.00394488 -0.0108261 -0.0306043 -0.0496063 -0.00681053 -0.0360784 -0.0428884 0.0362812
367 0.0365635 0.0194897 -0.0130097 0.0234161 0.00120848 -0.0278007 -0.0190707 0.009693 0.0235493 -0.0162338 0.0013717 0.0111692 0.0271499 -0.0233169 0.0201824 -0.0257884 -0.000113305 0.0160592 0.00057832 -0.00189867 0.00381813 -0.0284323 -0.0226513 -0.00887175
570 0.00577173 0.016584 0.00532266 -0.00472426 0.0197219 -0.0177031 0.016692 -0.00710045 0.0184386 -0.0156135 -0.0108559 0.0138918 0.00438092 -0.0170992 0.00611255 0.0101893 0.000259986 0.0199076 -0.0248231 -0.0172126 -0.025191 -0.0124605 -0.024542 0.0188589
310 0.0248974 0.0190815 -0.0309044 0.00491216 0.010037 -0.00830758 -0.0200493 -0.0226776 0.027422 -0.0346945 -0.0206958 0.0369423 0.0231895 -0.0301731 0.0237408 -0.011748 0.0257153 -0.0144529 -0.0276055 -0.0278666 0.00420694 -0.0359798 -0.0230354 0.0215507
188 0.0443749 0.0031657 -0.017632 0.0211542 0.00123887 -0.0219202 -0.00433239 -0.0155378 0.0158755 -0.0277881 -0.0250219 0.0307823 0.0285357 -0.0286394 0.0127577 0.00192027 0.0195577 0.00505571 -0.00663486 -0.00759351 -0.0323567 -0.0243221 -0.0148608 0.00606608
177 0.010868 -0.00814283 -0.0197082 0.00686068 -0.0141621 0.00745985 -0.0156485 0.00676555 0.0178323 -0.0141969 0.00494143 0.0324347 0.0269011 -0.00124926 0.0297322 -0.0186441 0.0246798 -0.0115163 -0.0122805 -0.0262679 -0.013542 -0.0378015 -0.0115182 0.0019582
57 0.0446152 -0.0106294 -0.0349221 0.0201881 -0.00319746 -0.0301009 0.00763525 -0.0130972 0.0487274 -0.00871186 -0.0224969 0.0457943 0.0284957 -0.031941 0.0405965 -0.0329759 0.00683103 0.00490674 -0.0119914 -0.045651 -0.0333768 -0.0346555 -0.0223997 0.0231886
517 0.0118816 -0.00195271 -0.0308261 0.0113215 -0.00205194 -0.0122587 0.00452596 -0.0233265 0.0344042 -0.0322699 -0.00208487 0.00819438 0.0239048 -0.0162196 0.0112898 -0.0175445 -0.00767881 0.00582508 -0.0284002 -0.0301359 -0.00485569 0.00272427 -0.00795604 0.0337743
97 0.0356492 0.00724426 -0.00822263 0.0162983 -0.00613673 0.00351123 -0.010513 0.00141643 0.0210071 -0.0027588 -0.00549132 0.0346961 -0.0035802 -0.00201137 0.0248516 -0.026561 0.0096508 0.0247975 0.000466789 -0.019294 -0.0286558 -0.0210814 -0.0225021 0.02276
425 0.0107454 0.0189156 -0.0335119 0.0160875 -0.0102783 0.00687421 -0.0274287 0.00686736 0.0492737 -0.0177628 -0.0163428 0.00548699 0.0282494 -0.0174031 0.0227976 -0.00491453 0.0181845 -0.0121118 -0.0253984 -0.0155118 -0.0348969 -0.0317603 -0.0309827 0.0215631
288 0.0295285 0.0066002 -0.0419598 -0.00253635 -0.0213966 0.00325647 -0.00787156 -0.00357338 0.0186619 -0.0354668 0.00700177 0.0264809 -0.00218136 -0.00289418 0.0461938 -0.00819127 0.00892651 -0.0026646 -0.0362112 -0.0205301 -0.0126156 -0.0275672 -0.0468616 0.0345227
81 0.0231154 0.0129651 -0.0186301 -0.00175724 0.0190852 -0.00824672 -0.000325933 0.013454 0.0171429 -0.0174432 0.00236197 0.00374661 -0.00207915 -0.0248539 -0.00179714 -0.00934116 -0.00387924 0.00775628 -0.000573832 -0.00432571 -0.00979258 0.00666505 -0.0179703 -0.00658516
273 0.0211995 -0.00532648 -0.00837522 -0.00209589 0.0112431 -0.0257123 -0.0241254 -0.0184522 0.0184076 -0.00236298 -0.014898 -0.00262586 0.0209295 -0.016461 0.00937501 -0.0112853 -0.0016809 0.00131515 -0.0110692 0.000187153 -0.0145652 0.00357006 -0.00269878 0.0252027
372 0.0390194 0.008697 -0.0161112 -0.01259 -0.0181728 0.0102287 -0.00498782 -0.0102671 0.00726159 -0.0343211 -0.0214741 0.00966517 0.000786 -0.00853572 0.0170446 -0.0202448 -0.0136638 0.0142095 -0.0307654 -0.00107453 -0.0103756 -0.0338804 -0.0167738 -0.000557393
659 0.0255495 0.00505631 -0.0400217 0.00420449 0.00644573 -0.0199125 -0.0238661 -0.0181657 0.0415356 -0.00492651 -0.0114513 0.00888096 0.0321218 -0.0341598 0.0279992 -0.017282 0.0220484 0.00649557 -0.0171758 -0.00796714 -0.00679292 -0.00750399 -0.0451498 0.0329955
539 0.025122 -0.00572496 -0.0234561 0.0168921 0.00657111 -0.0233051 -0.015981 -0.0109689 0.0461834 -0.0142127 -0.0179015 0.0281704 0.0065206 -0.0379457 0.0335767 -0.00695381 -0.000756754 0.0224754 -0.0217697 -0.0177914 -0.0300578 -0.0266536 -0.0269972 0.0329247
516 0.0240525 0.00828941 -0.0337913 -0.00666715 -0.0156665 -0.0179092 -0.0224918 0.00269238 0.0442217 -0.0122084 -0.000380771 0.0274898 0.00995496 -0.0128526 0.0269739 -0.0159882 0.00226049 -0.0103913 -0.0162411 -0.0239914 -0.0155137 -0.000533864 -0.00881618 0.0110997
115 0.0138469 0.017558 -0.0135791 0.0126203 -0.00838626 0.0116699 0.00719571 -0.000246919 -0.000285753 -0.0254911 0.0158752 0.0289296 -0.0036433 0.00843502 0.0280712 0.00350706 0.0143967 -0.00349967 -0.0285565 -0.0334795 -0.0213945 -0.0172401 -0.013781 -0.00359243
591 0.0350055 0.0231102 0.00215813 0.00735849 -0.0168235 0.00345372 0.00622253 0.00516439 0.0127743 -0.0236655 -0.0203023 0.000686368 -0.000989668 -0.0295518 0.0224943 -0.0292075 0.0234796 0.000195157 -0.0210454 -0.00215397 -0.0307667 -0.00139417 -0.0203107 -0.00537198
426 0.0354605 0.00110155 -0.0378727 0.0097416 0.0195028 -0.0212697 0.000589275 -0.00929007 0.052591 -0.0138313 0.0100736 0.0413871 -0.00167084 -0.00625357 0.0300842 -0.0198705 0.0127236 -0.00193659 -0.0306468 -0.0371458 -0.0120644 -0.0169601 -0.0139193 0.00507261
13 0.0109968 0.0104232 -0.0275166 0.0123189 0.010319 -0.015804 -0.0268135 0.0146123 0.0277132 -0.0231305 -0.016391 0.023684 0.00346205 -0.0371277 0.0238681 -0.0214659 -0.00532731 -0.0165888 0.000121496 -0.0348635 0.00571521 -0.0357126 0.00183372 0.0317968
518 -0.000649186 0.0191629 -0.0105504 0.00472008 -0.0118676 0.00634317 0.00153826 -0.0189371 0.0282842 0.00820331 0.00357594 -0.0003486 0.0219249 0.00440717 0.0186349 0.0103227 -0.0125364 -0.00950591 0.000314665 -0.0124298 -0.0132438 -0.0124954 -0.0133711 0.00566955
191 0.0236402 -0.00949697 -0.017751 0.0197283 -0.0165929 -0.0271893 -0.0234417 0.00110044 0.0281006 -0.0275184 -0.000766328 0.0173102 -0.00177193 -0.0346599 0.0395163 -0.0130438 0.0219967 -0.00536794 -0.0299935 -0.0336826 -0.0203753 -0.0368733 -0.00420665 0.0346963
259 0.0260613 0.0242448 -0.0259501 0.00394682 0.00998228 -0.0273861 -0.00210244 0.00255925 0.0285228 -0.0235252 -0.013361 0.0341971 0.0241364 -0.0349321 0.0158775 -0.00831615 3.09051e-05 0.0131601 -0.0263805 -0.0200025 -0.0217975 -0.0289555 -0.0237458 0.018325
536 0.00658892 -0.00280888 0.000791761 0.0101202 -0.00103039 -0.0167732 -0.010494 -0.013742 0.0253137 0.00945211 0.00934087 -0.00685421 -0.00279248 -0.00326722 -8.55433e-05 0.00794281 -0.0051213 -0.0162763 0.0133501 -0.0261305 -0.0123575 -0.018338 -0.0185782 0.011761
146 0.0170212 0.00032785 -0.0215331 -0.00596138 -0.0189216 -0.0218737 -0.0171791 -0.0190513 0.00968924 -0.00415754 -0.00612014 0.0135202 0.0197073 -0.0102293 0.0159045 0.00132349 0.0210972 -0.0097603 -0.030687 -0.018678 0.00627971 -0.0274357 -0.0315116 0.0105722
219 0.0286665 0.0218096 -0.0281271 0.0241767 -0.00693864 -0.00124055 -0.0209213 -0.0114214 0.0189455 0.002438 -0.0210618 0.0407614 0.0335467 -0.0277855 0.0114978 0.00245527 -0.00532602 0.00949364 -0.019263 -0.00620146 0.00297674 -0.036996 -0.0294221 0.00771283
392 0.0282665 0.0223174 -0.01356 0.0201616 -0.00111213 -0.0242199 -0.00632238 0.0128201 0.0534047 -0.0203363 -0.0256536 0.0193386 0.0252724 -0.00060112 0.042656 -0.0143669 -0.00109293 0.0205126 -0.0188249 -0.0420907 -0.00525855 -0.0293615 -0.0419266 -0.00329933
617 0.0141375 -0.00767539 -0.0158346 -0.0134216 -0.0105142 -0.00567138 0.00445323 0.00889052 0.0366042 0.000936637 -0.0245838 0.0380885 0.00879661 -0.0257852 0.0189764 -0.013539 -0.012924 -0.0038284 0.00475727 0.00055277 -0.00718857 -0.0013415 -0.013896 0.0265666
138 0.0224842 0.000317793 -0.0398115 -0.00695819 0.0181398 -0.0159256 -0.000188019 -0.014081 0.033911 -0.00689667 -0.0124069 0.0325898 -0.00306383 -0.00807592 0.0275087 -0.0239846 0.00056962 -0.0108564 -0.0262032 -0.020118 -0.0336342 -0.00437954 -0.0258187 0.0268114
263 0.0398271 -0.00331716 -0.0127878 0.00232966 0.00422855 -0.00162009 0.00100958 -0.0151305 0.0401499 0.0063461 -0.00115287 0.0160751 0.00970122 -0.0339513 0.00573738 -0.0059997 0.00732031 0.00553996 -0.0245423 -0.0182392 -0.0279821 -0.0164182 -0.0323256 0.0152755
287 0.00890995 -0.00060756 0.00102054 0.000766269 0.0155046 -0.0229295 -0.00330188 0.0122889 0.0354206 -0.0167588 0.00189763 0.0131373 -0.00357788 -0.00513163 0.00347203 0.0108589 0.00300105 -0.0161877 -0.000455806 -0.0289107 0.00333408 -0.00761112 -0.0264028 0.0148228
161 0.0218863 0.00163142 -0.0259588 0.00536717 0.0132431 -0.0269676 0.00713687 -0.00398634 0.019695 -0.000115903 -0.0031003 -0.00196277 0.0186109 -0.00256409 0.00588857 -0.0149286 0.00260758 0.0118528 0.00167532 0.00625294 -0.0110655 -0.00818581 -0.029935 0.0215191
193 0.0364298 -0.00345926 -0.0289577 -0.0145309 0.00889164 0.0014539 0.00661952 -0.0149092 0.0151189 0.0034332 0.00262058 0.0316963 0.000441667 -0.0123705 -0.000406885 0.00709552 0.00716673 -0.005761 0.00136559 -0.0304763 -0.0105011 -0.0264812 -0.0129558 0.00688098
85 -0.004723 0.00976744 -0.0103654 0.00630323 0.00290702 0.0130484 0.0011037 -0.0153351 0.00734881 -0.00227885 0.0129107 -0.00217844 -0.0132668 0.00462488 -0.00266041 0.00408336 0.023763 0.017197 0.0125951 -0.0213452 -0.0161547 -0.0174705 -0.00933281 0.00196447
592 0.0300524 0.0126553 -0.0324737 -0.00457163 0.00805353 -0.0131892 -0.0139429 -0.0140272 0.0408645 -0.00160702 -0.0273294 0.00947366 0.00661398 -0.0326061 0.0139236 -0.0270636 0.0135399 -0.00651086 -0.0245885 -0.0364295 0.0023759 -0.0287743 -0.0244824 0.0367972
407 0.0163997 -0.00118975 -0.0217092 0.0175814 0.00725129 -0.00693299 -0.00330969 -0.00578546 0.0203137 -0.0327389 0.0125119 0.0321389 -0.00878805 -0.0367467 0.0225442 -0.0257259 0.000175413 0.0140431 0.00931031 -0.0377326 -0.0316678 -0.0336278 -0.00138078 0.00917547
221 0.015941 0.00339544 -0.0187715 0.0281198 0.0178667 -0.0292171 0.000793286 -0.0121985 0.0486692 -0.0396179 -0.0243261 0.00845848 0.0321188 -0.0234145 0.0302849 0.00688634 0.01984 0.00862421 -0.0267832 -0.0310237 -0.00535402 -0.0339394 -0.0392081 0.0284759
498 0.0012607 0.0133442 -0.000703437 -0.00574695 -0.00147758 -0.00745171 -0.0128441 -0.0022102 0.0276602 -0.0139671 -0.0239959 0.025942 -0.00982444 -0.0140546 0.0230127 -0.0221367 0.00496783 -0.00394506 -0.0151863 -0.020556 -0.0131807 -0.00598693 -0.0157545 -6.62643e-05
180 0.0347539 0.0167388 -0.0221764 0.00351068 -0.00393327 -0.00132756 -0.0159177 0.013353 0.0355866 -0.0339577 -0.0173338 0.0119962 0.0278579 -0.00169803 0.00491485 -0.0104419 -0.0055012 0.0212932 -0.00243511 -0.0299405 0.00394513 -0.0359999 -0.0197866 0.0249983
458 0.0196899 0.0164523 -0.0188006 0.00435604 -0.00856883 0.00324775 -0.023403 -0.0248339 0.0124741 -0.0245878 -0.00404584 0.0188455 0.0188774 -0.00524296 0.0306005 -0.0153207 0.0239659 0.000827884 -0.0220383 -0.000887788 -0.000653774 -0.00800291 -0.0298679 -0.00333969
339 0.0280143 0.01991 -0.0123806 -0.0128713 0.0134899 -0.00918432 -0.000609429 0.00101564 0.0291284 -0.00968263 -0.00990477 0.0377283 0.0121978 -0.0319238 0.0293864 -0.0121827 -0.0111007 0.0106902 -0.0360374 -0.0364448 -0.00596148 -0.0364664 -0.0237291 0.00130814
454 0.0308849 -0.00814119 0.00662096 -0.0155117 0.0149166 -0.0162816 0.000381032 0.00217038 0.0241706 -0.0283522 0.00986661 0.013705 0.0204751 -0.0209656 0.00987663 0.00743716 -0.00131012 -0.00957379 -0.00157485 -0.016843 0.00279389 -0.00772227 0.0025427 0.0195634
8 0.018326 0.00674225 -0.0158289 0.0182436 0.013504 -0.0318337 0.0108615 0.00790726 0.0515614 -0.0400132 0.00519006 0.0351675 0.0277035 -0.0403459 0.0171158 -0.0247303 -0.00331666 -0.000732853 -0.0213652 -0.0363585 -0.0143614 -0.0365572 -0.0307323 0.029127
232 0.0334689 -0.0154672 -0.0237469 0.0251377 0.0153656 -0.0234712 -0.0258176 -0.00514819 0.0132323 -0.0127018 0.0124261 0.00875137 0.0112077 -0.0257179 0.0329567 -0.0241567 0.0244438 0.0169638 0.0098663 -0.00458425 -0.00600584 0.00313681 0.00116549 0.0272461
565 0.039524 -0.00212896 -0.0179041 0.0164003 0.000197887 -0.00451937 0.00325951 -0.00812584 0.0262992 -0.00244723 0.00395465 0.0279145 -0.00980978 -0.00193266 0.0200769 -0.027959 0.00592132 0.0100602 0.00183524 -0.0297319 -0.00841018 -0.0283806 0.00196365 0.00830334
524 0.00555869 -0.0124054 -0.00104124 0.0139433 0.0164914 0.00994894 -0.00802565 0.0157458 0.00708909 -0.0316714 0.00603017 0.0354888 0.0317298 -0.0282109 0.0307072 -0.0165558 -0.0072719 0.0098003 -0.0175924 -0.0325116 -0.0268271 -0.0146834 -0.0356309 0.0106191
29 0.0411817 0.0168784 -0.0398516 -0.0018476 0.0076636 0.00381723 0.00844716 -0.0198959 0.0489778 -0.00278013 -0.025015 0.0467076 0.0300005 -0.0180211 0.0388152 -0.0145362 0.00294936 -0.00315792 -0.0271403 -0.0238175 -0.00797073 -0.0395761 -0.0135973 0.0207047
405 0.0357659 0.0261137 -0.00187212 0.026256 -0.0106617 -0.0173527 0.00207878 0.00389821 0.0293954 -0.0360559 -0.0202819 0.0243998 0.0109136 -0.0383913 0.0203209 -0.027097 0.014141 0.00158283 -0.0218161 -0.0245142 0.00295967 -0.0282102 -0.0134521 0.00478031
30 0.0150855 0.0016657 -0.00330219 -0.012156 0.000332443 0.00728703 -0.00339907 -0.0179815 0.0229863 -0.0131485 0.011467 0.0252864 0.0277678 -0.0193691 0.0154446 -0.0232565 0.0276552 -0.0173592 0.00142476 -0.0138888 -0.0290447 -0.011572 -0.0147758 -0.0022157
529 0.023178 -0.0115217 -0.000941308 0.0218721 -0.0188194 -0.015969 0.00161939 -0.0164308 0.00991718 -0.00441952 0.00468338 0.0128588 -0.00780162 0.00374926 0.0173002 -0.014236 0.0142001 0.0143911 -0.00512958 -0.0302413 -0.00780533 -0.02972 -0.0329823 -0.00447342
238 0.00969073 -0.0110754 -0.00832865 0.022414 -0.0105654 -0.00974688 -0.0178752 -0.0264743 0.0136599 -0.0115839 0.0110076 0.020368 0.0266241 -0.0146581 0.0307761 -0.00964337 -0.00607016 0.02298 -0.032182 -0.0293531 -0.00511913 -0.0399525 -0.0183288 0.0362644
148 0.0395278 0.00215142 -0.0392071 -0.00221957 -0.00949108 -0.00562706 -0.0107925 0.0122674 0.0369199 -0.0228174 -0.00412921 0.0385172 0.0307097 -0.0178659 0.0422327 -0.0223427 -0.0096918 -0.0140154 -0.0191222 -0.00815636 -0.0374573 -0.0116964 -0.0144914 0.0131933
307 0.0413655 0.0115896 -0.0340934 0.00045828 0.0102866 -0.0117131 -0.01196 -0.0194847 0.0201989 -0.0236069 0.00457131 0.0192284 0.0243559 0.00077014 0.017052 -0.0211701 0.0276432 0.0221985 0.00262255 -0.0211224 -0.00386874 -0.00377176 -0.0248239 0.0216375
80 0.0163921 0.00719481 -0.0325753 0.0196826 0.0131322 -0.0211153 0.0110911 -0.027601 0.0233462 -0.0135029 0.00335116 0.0427198 0.0273437 -0.00822228 0.0361922 0.00416529 0.0153384 0.0132244 -0.0137063 -0.0192739 -0.00388673 -0.00442278 -0.0181437 0.0376665
203 0.0293712 -0.00747185 -0.00951767 -0.00800946 0.0164179 0.000457693 -0.0246504 -0.0020829 0.024215 0.00333103 0.0131604 -0.00140892 0.0137969 -0.0301098 0.0243661 -0.0185036 0.0227056 -0.0141355 -0.0207922 -0.00723068 -0.0239212 -0.0111515 -0.0363912 0.0323211
76 0.0414983 -0.0108815 -0.0250881 0.0245311 0.0138466 1.86973e-05 0.000928135 0.00766976 0.0113907 -0.00942212 0.00839967 0.000460955 -0.00816769 -0.00580346 0.01059 -0.0189179 0.0259273 -0.00664065 -0.0312411 -0.0359042 0.00432244 -0.026448 -0.0120482 0.018725
46 0.0164314 0.00612073 -0.0170323 0.00426232 0.00477707 -0.00759485 -0.0161883 0.0180806 0.00734508 -0.00593104 0.0115661 -0.000940095 0.0121071 -0.0200662 0.0268638 0.00269502 0.00363174 -0.0138986 0.00413288 -0.0103809 0.012113 -0.0192879 -0.0139702 0.00977188
385 0.0404384 -0.0128949 -0.0231589 0.00221518 0.0205967 -0.0139357 -0.0271879 -0.000717444 0.0169276 -0.0228646 -0.0271703 0.0325453 0.0058518 -0.00422381 0.00796361 -0.00110165 -0.0112357 0.0225023 -0.00576726 -0.0381898 -0.00530316 -0.0368937 0.000881498 0.0303172
550 0.0399233 0.0098179 -0.0319986 0.0263292 -0.00388083 -0.0123673 0.00296998 0.00325617 0.0381505 -0.0337132 -0.0108659 0.035904 -0.0046889 -0.0324441 0.0347541 -0.00441939 0.0131985 0.0103435 -0.0305528 -0.0137867 -0.006746 -0.00336714 0.00259936 0.0118498
507 0.0314489 -0.00798076 -0.0247246 -0.00477575 0.0199256 -0.00818216 -0.0124633 0.0123482 0.0448081 -0.0350854 -0.00400757 0.0318606 -0.00618057 -0.013554 0.00573824 -0.0204779 -0.00975876 0.0164187 -0.0192634 -0.0183118 -0.0147526 -0.0311607 -0.00361976 -0.00221349
61 0.0195163 0.000431427 -0.0176325 0.0287012 -0.0137761 -0.0152665 0.00512452 0.0120738 0.0240691 -0.009069 -0.0114902 0.0376537 0.0224731 -0.0441054 0.0265957 0.00676076 0.00828102 0.0208675 -0.0312628 -0.0394541 -0.0092514 -0.0422534 -0.0432129 0.0319267
649 0.010611 0.00735595 -0.034479 -0.0069641 0.0127117 -0.00788692 -0.0250679 -0.024423 0.0421735 -0.0294583 0.00825833 0.011116 -0.00485089 -0.00333321 0.0024078 -0.0031218 0.0125531 0.00857939 -0.025491 -0.015107 -0.00624367 -0.0263476 -0.0395248 0.0106083
593 0.0189617 0.0206773 -2.2343e-05 0.00089795 -0.0167805 -0.0265208 -0.00330589 0.00822448 0.0273365 -0.006024 -0.0156626 0.00106792 -0.00420986 0.00312118 0.00398305 0.000146085 -0.00388743 0.0236878 -0.000659902 -0.0247611 -0.0251647 -0.0203327 -0.0373861 -0.00825793
58 0.0461676 0.00211457 -0.0216363 -0.00762966 -0.0101306 -0.0299716 -0.0124804 0.0123868 0.0180647 -0.0123574 0.00166087 0.0366278 0.0232108 -0.0113809 0.00763454 -0.0248651 0.00528935 -0.000546709 -0.00621242 -0.0241712 -0.0137601 -0.010882 -0.0358181 0.0269063
346 0.0176079 -0.00916142 0.000812621 -0.0123486 0.019517 0.00624471 0.01123 -0.000549321 0.00115458 0.00387352 -0.00318194 -0.00162314 0.0199909 0.00361634 0.0198958 -0.00500273 0.00987949 0.00917397 0.00443483 -0.00813611 -0.0289651 -0.0163451 -0.0119037 0.0227978
200 0.0356511 0.0245271 -0.0176935 0.0177592 -0.0112911 -0.00972021 0.00356336 0.00514771 0.00848688 -0.0299441 -0.0175598 0.00521565 0.0188176 0.00305201 -0.00302637 -0.0271362 0.0194287 -0.0118221 0.00906537 -0.0232235 0.00644779 -0.0157561 0.00183084 0.0301991
170 0.0402058 0.00399161 -0.019582 0.0205824 -0.00517127 -0.00873958 -0.00349047 -0.0110069 0.0161767 -0.0320331 -0.0148683 0.036391 0.0124458 -0.022602 0.0343957 -0.0226891 0.00296077 -0.012289 -0.034347 -0.0198879 -0.00236692 -0.0128351 -0.0305775 0.031115
31 0.0241464 -0.00993176 -0.0443399 0.0220346 0.0134983 -0.0323564 -0.0248703 -0.0199268 0.0269047 -0.0382418 -0.0210285 0.00841042 -0.00301174 -0.0422815 0.0316058 -0.0260471 0.0294172 0.00432358 -0.0364165 -0.0139722 -0.0335603 -0.0061943 -0.0298948 -0.000324129
573 0.0302889 0.00156927 -0.0417677 -0.00948823 -0.0204781 -0.0267447 -0.0103758 -0.000510133 0.0238127 -0.0242363 0.00810703 0.044665 -0.00617105 -0.0283057 0.0296467 -0.0175384 0.00782267 0.000377692 -0.0362813 -0.0205512 -0.0206806 -0.00252942 -0.0158481 0.022371
528 0.03403 -0.000868699 -0.00414348 0.0169451 -0.00708516 0.000214121 0.00465392 0.00353924 0.0497139 -0.0187562 -0.00323917 0.0357721 0.0163764 -0.0216155 0.0277683 0.00206472 0.0164223 0.0104003 0.00107189 -0.028824 -0.0351658 -0.00648944 -0.0284654 0.034828
527 0.0212035 0.0219272 -0.0273528 -0.0110568 -0.0216552 0.00739402 0.0148169 0.00476113 0.0345123 -0.0194953 -0.00850294 0.0301193 0.0263818 -0.0326535 0.0289465 0.00164452 -0.00779988 0.00270221 -0.0216154 -0.0146788 -0.0152975 -0.0199269 -0.0129574 0.0281798
369 0.0326047 0.00478747 -0.014942 -0.00507379 0.00414194 0.00318297 0.00734953 -0.0176734 0.00816666 -0.0215013 0.0111896 0.0104624 0.00126305 -0.0248975 0.0133212 -0.0179824 0.00383488 0.021595 -0.0154029 -0.0321635 -0.0214125 -0.0366267 -0.000450562 0.0135571
433 0.0170319 -0.0148772 -0.0359059 -0.000751863 -0.00559285 -0.0113918 0.0108353 -0.000328836 0.0264146 -0.0302847 -0.0108269 0.0308034 0.0245233 -0.0247234 0.00717897 -0.0189466 -0.00600752 -0.0101041 0.00861293 0.0026463 -0.0269004 -0.0160586 0.00310202 0.00313881
370 0.053362 0.00997074 -0.0192665 0.0152639 0.00642034 -0.0289483 -0.0162936 -0.0127613 0.0355991 -0.0127175 0.00526131 0.0363886 0.0324176 -0.0378278 0.0183114 -0.0157004 -0.000622511 0.0200949 -0.0268577 -0.03659 -0.0206402 -0.0360577 -0.0422066 0.0337745
603 0.00942378 0.0187553 -0.0177403 0.0252348 0.0156978 -0.0133675 -0.0185979 -0.0044192 0.0361647 -0.00368248 -0.0251074 0.0439187 0.0247029 -0.0197101 0.0228753 -0.00114364 0.0250189 -0.0048889 0.00173372 -0.00892771 -0.0261607 -0.0331967 -0.00329166 0.0354477
93 0.0144134 0.0214647 -0.0115195 -0.0115581 -0.0113481 0.000857693 0.00641568 0.00498789 0.0362964 -0.017758 0.00360393 0.0307326 0.0318899 0.000691529 0.0133402 0.00129352 0.00674703 0.0139469 0.00454449 -0.0342904 0.00282344 -0.0209893 -0.0381449 0.01988
269 0.0118335 0.01778 -0.020892 0.0130096 -0.0194955 -0.00184141 0.0069725 -0.00155776 0.0123915 -0.0255562 -0.00772929 0.0164738 0.0164823 -0.028856 0.0175179 -0.0278171 0.0103531 0.0209132 -0.0242707 0.00365864 -0.0192095 -0.0304073 -0.0354978 0.0169521
627 0.019967 0.0137984 0.00449143 0.00885585 0.000513741 0.00824345 0.0111221 -0.00573183 0.00509462 -0.00960484 -0.0256188 0.0292961 0.0251521 -0.00399162 0.0123925 -0.0110837 -0.00952246 0.016601 -0.016095 -0.00824175 0.00477757 -0.0313629 -0.0328659 0.0175549
457 0.0114079 -0.00852475 -0.0173391 0.0126807 0.0156966 -0.0128672 -0.022386 -0.0242712 0.0225402 -0.0169241 -0.0187108 0.0039602 0.0270201 0.00498583 0.0159402 -0.0249912 -0.00367399 0.00444471 -0.0244151 0.00756204 0.00151426 -0.0252695 -0.00865666 0.0132069
5 0.00439485 -0.00448995 -0.0274071 -0.00904188 0.00232322 -0.01719 -0.00337587 -0.0140945 0.0230424 -0.0326091 -0.00899762 -0.00298585 0.0293196 -0.0253037 0.0210622 0.000224423 0.000996575 -0.0147998 -0.023619 -0.0281155 -0.0298198 -0.0295101 -0.0183111 -0.00541709
185 0.0376136 -0.00376267 -0.0486583 0.00882942 -0.0170785 -0.0289142 0.00289234 0.0065683 0.0619671 -0.0120332 -0.00261467 0.0478495 0.000578209 -0.0397853 0.0356356 -0.00513449 0.013255 -0.00699463 -0.0172917 -0.0321273 -0.0201557 -0.0313195 -0.0463354 0.0280936
352 0.0369233 -0.00863049 -0.038161 -0.0118762 -0.00381162 -0.0190519 0.00552548 0.00673555 0.0381492 -0.0275958 -0.028701 0.0261095 0.012657 -0.0311357 0.0428668 -0.0173935 0.0134933 0.0250962 0.00386896 -0.0240778 -0.0334046 -0.00541861 -0.0268206 0.0367003
625 0.0175857 -0.00742581 -0.00602837 -0.00876251 0.0194178 -0.017011 -0.0126586 0.00307571 0.0236679 -0.0308209 -0.00976889 0.0216211 0.0244 -0.0149866 0.0102753 -0.00710612 0.0207403 0.012011 -0.00416699 -0.0278911 -0.0129483 0.00492433 -0.0237764 0.00979605
468 0.0223015 0.000439607 -0.0299369 0.00904371 0.0130433 -0.0211587 -0.00227034 -0.00275003 0.0313487 -0.0206139 -0.0143471 0.0256786 0.0242399 -0.00684685 0.0246596 -0.0150822 0.00669857 0.00400108 0.00549627 -0.0181805 -0.0267993 -0.0194091 -0.034005 0.0334595
67 0.015035 -0.00507735 -0.0168946 -0.00930206 0.00532107 0.0112913 -0.0166421 -0.000512718 0.0386692 -0.00294645 0.00585525 0.0134199 -0.00458589 0.00322811 0.0196836 -0.019091 -0.00110932 -0.0167806 -0.017847 -0.0316553 -0.0199305 -0.0266559 -0.00335518 -0.00426613
337 0.02902 0.0163129 0.00111208 0.0110975 -0.0217568 0.00919062 -0.0169546 -0.0120441 0.0342337 -0.0092583 -0.00682335 0.0136154 0.0212529 -0.0263513 -0.000364539 0.0125563 0.0188956 0.01349 0.00902593 -0.00433148 -0.00109396 0.00539176 -0.019118 0.0209136
251 0.0339029 -0.00266491 -0.0202527 0.00532401 0.0144069 -0.017155 -0.00279945 0.00916238 0.0489315 -0.0412505 -0.000959252 0.0445079 0.00860102 -0.0396707 0.0348106 -0.00925274 0.0214262 0.0243034 -0.00566664 -0.0149249 -0.00375633 -0.0381113 -0.0332884 0.0287121
89 0.0400668 0.00660982 -0.0230065 0.0238981 0.0174519 0.000590219 0.009258 -0.0071806 0.0153375 -0.032606 -0.0182609 0.020304 0.0175588 -0.0239467 0.010819 -0.0230297 0.0243351 0.00414591 -0.019519 -0.0183223 0.00583478 -0.00629894 -0.0230787 0.000561336
327 0.0231548 0.0047923 -0.017999 0.0223856 -0.00167864 -0.0109728 -0.0144273 0.00591167 0.039585 -0.0364889 -0.00266487 0.0136932 0.0258035 -0.0142251 0.0230605 -0.015784 0.0229036 0.01149 0.00400755 -0.0392658 -0.0321711 -0.00943575 -0.0414276 0.0112885
48 0.00971119 0.00171843 -0.0242175 -0.010097 -0.00243804 -0.0253256 -0.00731777 0.00555651 0.0352421 -4.63206e-05 -0.0261055 0.0353967 0.00567985 -0.0208457 0.0199841 -0.0125904 0.0209463 0.0206077 -0.0138589 -0.0318528 -0.019458 0.00146709 -0.00783702 0.0143323
467 0.0340588 0.0242776 -0.0338333 0.00282441 0.0152895 -0.0132876 -0.0233283 0.00558908 0.0054112 -0.0247167 0.00669134 0.0305652 0.00335334 -0.0299591 0.00275917 -0.0116815 0.0238075 0.0148759 -0.02738 -0.0211423 -0.0212828 -0.0175995 -0.0157375 0.0296133
492 0.0375451 -0.00985424 -0.0318998 -0.00553963 -0.0203755 0.0078699 -0.00416369 -0.00302208 0.0371851 -0.0254786 -0.0174004 0.0342695 0.000904481 -0.0123257 0.0255714 -0.0227697 0.0262068 -0.00362173 -0.0257921 -0.0331447 0.00674398 -0.00849398 -0.0155619 0.00669448
391 0.0478761 0.00746556 -0.0132759 0.00626725 -0.00470137 -0.0299143 0.000837196 -0.0100813 0.0290104 -0.0101968 -0.0184526 0.0339402 0.0261235 -0.0444793 0.0205645 0.00233396 0.0284014 0.0170517 -0.0111804 -0.0229685 -0.0381159 -0.0416846 -0.0147532 0.0278573
347 0.035185 0.00688137 -0.00612071 0.0165173 2.12015e-05 -0.0160686 -0.0241015 -0.0159005 0.0428258 -0.020359 -0.00914001 0.0340997 0.0258036 -0.0124228 0.00935706 0.00474182 0.0051245 -0.0156367 0.00647641 -0.0270398 -0.0232142 -0.0214399 -0.0395184 0.0156533
404 0.0113382 0.0273106 -0.040728 0.0118868 -0.00382794 0.00600759 -0.0277793 -0.0086239 0.0328524 -0.0179199 0.00395294 0.00830546 0.026281 -0.0412027 0.0124499 -0.0204497 0.00299258 0.00154624 -0.0207822 -0.0262508 -0.00367117 -0.00911988 -0.0167691 0.00119957
264 0.0333126 0.0139257 -0.0305961 0.00974739 -0.0159408 -0.0216985 -0.0273208 -0.0250267 0.0271555 -0.038614 -0.0249649 0.0281095 0.0119538 -0.0195738 0.0360356 -0.0113395 -0.00138272 0.00125697 -0.0143202 -0.0351617 -0.0183388 -0.0143184 -0.0449641 0.00959913
268 0.0545795 0.0165952 -0.0131503 0.0228906 0.0179737 -0.0163171 -0.00756441 -0.012611 0.0464983 -0.0486327 1.12988e-05 0.0387258 0.0340326 -0.0370348 0.0220033 -0.0323018 0.00224063 0.0163241 -0.0296698 -0.0250217 -0.0294895 -0.048045 -0.0271639 0.01909
163 0.016318 0.0180514 -0.0218843 0.00805398 0.00145833 -0.0119176 0.00222494 0.000669311 0.0334481 -0.0268371 -0.0160148 0.0214584 0.0106405 -0.0420246 0.0344141 -0.0058466 -0.000219575 -0.0041132 -0.0328999 -0.0346408 -0.0293436 -0.0113324 -0.0414647 0.0061011
298 0.0338954 0.0180828 -0.0326221 -0.00430765 -0.00137496 -0.029104 0.00380636 -0.00547886 0.0332973 -0.0131062 -0.0146735 0.0136536 -0.00399166 -0.0106886 0.0227324 -0.0107974 0.0131406 0.0142929 -0.0271235 -0.0256315 0.00833073 -0.0108065 -0.0162338 0.0140282
397 0.027623 0.0145125 -0.0322269 0.0258241 -0.011706 -0.00571159 -0.0230741 -0.000700919 0.0471471 -0.0165829 -0.0267054 0.0183952 -0.00144982 -0.0155091 0.00839789 -0.0190629 -0.000694147 -0.0114316 -0.0314709 0.000176664 0.000112712 -0.0211248 -0.00674043 0.0159089
574 0.0380827 -0.00300488 -0.025666 -0.00621147 -0.0144164 -0.0181635 0.00513715 0.00925678 0.0251589 -0.0187517 -0.0202104 0.0418287 -0.00557903 -0.0203066 0.00873575 -0.00100363 -0.0114178 0.0150668 -0.00981615 -0.0222671 -0.0209472 -0.0166184 -0.0174198 0.0079982
632 0.0451908 0.0156701 -0.00946771 0.000256395 0.0139379 0.00680709 0.0012745 -0.0252077 0.0453007 -0.0309248 -0.0237084 0.00400982 -0.00178896 -0.0128512 0.0331965 -0.0176046 0.0165611 -0.0165173 0.00438152 -0.0208402 0.00208908 -0.0195503 -0.0300049 -0.00297368
558 0.0159843 0.0198793 -0.00670045 0.02287 -0.00862053 0.0136843 -0.0154251 0.00650719 0.0244335 -0.0237984 0.00752235 0.0152941 0.0153922 0.00314943 0.0275839 -0.0234214 -0.000902143 -0.0172014 0.000432588 0.00477774 -0.0222503 -0.0276871 -0.000276183 -0.0028244
210 0.0540402 0.0178527 -0.0322733 0.00888855 -0.0164213 -0.0330673 0.00316433 0.00784285 0.0301867 -0.0388908 -0.0160849 0.0144225 0.0370475 -0.00562276 0.00735949 -0.0326614 -0.00733851 0.0170425 -0.028469 -0.0462268 -0.0202586 -0.029075 -0.0459263 0.0352678
368 0.0509088 0.00455775 -0.0424654 0.0165377 0.000499086 -0.0285574 -0.00226247 0.00758434 0.0238328 -0.0109606 -0.0171325 0.0378549 -0.00213943 -0.0267023 0.00637514 0.000197455 0.0261364 0.0067162 -0.0151302 -0.0178203 -0.0186848 -0.0356757 -0.0336671 0.0210877
71 0.0145357 -0.0121777 -0.0108953 -0.0122348 0.00450031 -0.0175662 -0.00779335 -0.0179868 0.0378717 -0.0218681 -0.000972551 0.0378537 -0.00494419 -0.00172228 0.0334015 -0.013614 0.00891904 0.0116318 -0.0249651 -0.0377744 -0.00108125 -0.0135439 -0.0300342 0.027612
42 -3.51561e-05 -0.00111737 -0.0274993 0.000936598 0.0200695 -0.0137468 -0.000498895 -0.0113243 0.0117126 -0.00113544 -0.0225272 0.0322774 0.0211761 0.00115501 -0.00296684 0.00908978 0.0211292 0.0137985 0.00281651 -0.0157137 -0.00671554 -0.0122393 -0.00131033 0.0207736
3 0.00875634 0.0228401 0.00673261 0.0125993 -0.00449702 0.00930369 -0.0114251 -0.0193959 -0.0024476 0.00359274 -0.0113526 0.0288766 0.0183778 -0.02334 0.00363782 -0.0046376 0.0231433 0.00485048 0.00467085 -0.012122 -0.0186064 -0.00961034 -0.0136385 0.0271138
72 0.0253035 0.00874107 -0.0347867 0.0066118 -0.0109029 -0.0253124 -0.00552048 -0.0197554 0.0385352 -0.0119366 -0.02023 -0.00281539 -0.00337178 -0.0248305 0.00923381 -0.0263842 -0.00945099 0.0137987 -0.00922062 -0.00713031 -0.00979105 -0.0033339 -0.00511937 0.000983623
21 0.00681172 -0.00869229 -0.0241575 -0.0125616 0.0147162 -0.00754253 -0.0223158 0.0068737 0.0130047 -0.000289719 -0.00109975 0.0131852 0.00597963 -0.00176486 0.0139599 -0.00808916 -0.0132802 0.00814429 -0.0283837 -0.0206185 0.00239779 -0.00218841 -0.0238849 -0.0011909
371 0.0406328 0.0115738 -0.00267385 -0.0118155 -0.0179483 0.00434796 -0.00809669 0.0160746 0.0443332 -0.0348776 -0.0116085 0.0366038 0.0228107 -0.027327 0.0183067 0.00660321 0.00741761 0.0176359 -0.00561554 -0.0316172 -0.00449631 -0.00472205 -0.027615 0.0159769
249 0.00652535 -0.00214098 -0.0230592 -0.0137156 -0.0131421 -0.0100058 -0.0217474 0.00728427 0.0330517 -0.0229986 0.00156001 0.0199254 -0.00685326 -0.0196866 0.00150638 0.000113837 0.0212898 0.0156579 -0.0176864 -0.0245167 -0.0300012 -0.00372113 -0.0253029 0.0254347
60 0.0305445 0.00151761 0.000534491 0.0149298 -0.000813632 -0.0173949 -0.0107019 -0.0218223 0.0440834 -0.0335643 -0.0139231 0.0132428 0.0237996 -0.0203518 0.0227799 0.00590019 0.0258884 0.0206024 0.00241753 -0.0176683 0.00885004 -0.0322638 -0.0155393 -0.00890961
590 0.0343204 0.00289133 -0.0344698 0.00832741 -0.00417507 -0.0235385 0.00997125 0.00308673 0.0276716 -0.0198432 -0.0194836 -0.00243954 0.00986066 -0.0138169 0.0280039 -0.0068547 0.00726277 -0.0133523 -0.027003 -0.0335641 0.00819571 0.0053275 -0.0140821 0.00196188
553 0.0162632 -0.00586274 -0.0150863 -0.00456037 0.0124917 -0.0136839 -0.0174219 0.00410015 -0.00347274 -0.0162625 0.0164654 -0.00582448 0.0220254 -0.0289626 0.0274994 -0.0134692 -0.000193208 -0.0179334 -0.00935621 -0.021004 -0.0230414 -0.0181339 -0.00683094 0.0148299
499 0.0349841 -0.00258742 -0.0269439 -0.0115328 0.0180716 0.00342918 0.00187998 -0.00313941 0.038194 -0.0128433 0.0144251 -0.000509558 0.0189787 -0.0196916 0.0126446 -0.0161624 -0.00362331 -0.00781011 -0.000620745 -0.00118768 -0.0127637 -0.0112867 -0.0132037 0.0289775
535 0.0163192 0.0101888 -0.0305927 0.00563718 -0.0185899 -0.01664 -0.0122954 0.00769101 0.00170925 -0.0299389 -0.000573678 0.0187342 0.0282593 -0.0155047 4.9263e-05 -0.00672686 0.0234626 0.0111367 0.00854393 -0.0245237 0.00646541 -0.00443236 0.00733787 -0.00609396
241 0.0132776 0.00759941 -0.0254721 0.0243839 0.0040117 0.000850134 -0.0275194 -0.00173555 0.0410887 -0.038728 -0.0269805 0.0355198 0.00398512 -0.0186719 0.0235961 -0.0318952 0.00794581 0.0240047 -0.0315166 -0.0152406 -0.00345678 -0.00510031 -0.0135321 0.025152
237 0.0256382 0.00646236 -0.028489 -0.00478236 -0.0111594 0.0122932 -0.0195882 -0.0137863 0.0366091 -0.0247544 0.0147036 0.011143 0.0033953 0.00632252 -0.000134066 0.000111537 -0.00443725 -0.00690869 0.000125702 -0.00289163 -0.00221899 -0.0142563 -0.0322535 0.0150453
121 0.0188379 -0.00948575 -0.00653007 -0.00779066 -0.00428732 0.00825994 0.00791032 -0.00960985 0.0133303 -0.00514307 -0.00688756 0.000889828 0.0284419 -0.0112313 -0.000394904 -0.00731457 0.0123401 -0.00499486 -0.0115668 -0.0151952 0.000591001 -0.0138099 -0.00500467 0.0215067
7 0.0158328 0.0164708 -0.0178813 -0.00343969 -0.00747998 0.00381816 0.0134319 -0.00686663 0.00576475 -0.024734 0.0126461 0.0133707 0.0160224 0.000726052 0.000940418 -0.018539 0.0218158 0.0162221 0.00859584 -0.00274793 -0.022048 -0.012927 -0.0328686 -0.0063888
328 0.027707 0.0157347 -0.0266794 0.0185462 -0.0163685 0.0063958 -0.00809998 0.00680047 0.0268247 0.0105475 0.00940596 -0.00837193 0.0107164 -0.0161352 0.0175997 -0.0211951 0.0223815 0.00240473 0.00839108 1.02346e-05 0.00150457 -0.00865789 -0.00921656 0.00619516
202 0.00830548 -0.014566 -0.0133399 0.00379967 0.0134186 -0.00477531 -0.0154909 -0.00343412 0.0379077 0.00181953 0.00622082 0.020618 0.0146168 -0.0117541 0.0028225 -0.0238514 0.0193791 -0.0180685 0.00509758 -0.0225119 -0.0101979 -0.0097333 0.0017327 0.010131
11 0.0374735 0.00564562 -0.0126063 0.0143607 -0.00805154 -0.0174184 0.00409734 -0.0144505 0.0303497 -0.0304194 -0.0150154 0.00627159 0.0311564 -0.0148108 0.0144325 -0.0175013 0.00239471 -0.0146425 -0.0324849 -0.0318473 -0.0235947 -0.0083023 -0.0343232 0.0291269
614 0.0211116 0.00402698 -0.00962212 0.0156858 -0.0195908 0.00984682 -0.0210041 -0.0168885 0.0389428 -0.0280129 -0.0244394 0.000229271 -0.0052824 -0.030734 0.0157521 -0.00773082 -0.0146713 0.0174492 0.00535684 -0.0317375 -0.0259063 -0.00945674 -0.00403339 0.0186523
450 0.0400767 0.0180598 0.0013932 0.0226423 0.00268075 -0.0101671 0.000566508 0.00587431 0.0319368 -0.0159488 0.00286166 0.0340234 -0.00150644 -0.00475476 0.0140969 -0.0178478 0.0228164 0.00149927 0.000884209 -0.0228588 -0.0118458 -0.0148229 -0.0220688 0.0113057
555 0.0123444 0.0100864 -0.0343837 0.022449 -0.011732 0.000251214 0.011061 -0.00224042 0.00970162 -0.0277752 -0.0209625 0.0245695 0.0242675 -0.0272272 0.0314017 -0.0168297 -0.00539206 0.0170125 0.00167025 -0.0184619 -0.01022 -0.0211954 -0.00911946 0.0223959
417 0.0347042 0.0154251 -0.0297438 0.0238016 0.00126841 0.00300957 -0.00957907 -0.00866753 0.0442582 -0.0204157 -0.000249219 0.00995013 0.0286789 0.00406517 -0.000210737 -0.0154166 0.00582173 -0.0163315 -0.00541736 -0.034127 -0.0024915 0.00486167 -0.0276374 -0.00134016
304 0.020287 0.00790152 -0.000778172 0.0177522 -0.0169424 -0.0153769 -0.0185419 0.00462285 0.0197931 -0.0323498 -0.0270595 0.0300804 -0.00364231 -0.00298547 0.00128353 -0.0311779 -0.000942097 0.0183535 -0.019349 -0.0339873 0.000326405 -0.024385 -0.0394589 -0.000790233
581 0.0251631 0.011545 -0.0179946 -0.00721862 -0.0210025 -0.00308411 0.0138669 0.00316657 0.00754226 -0.0140934 -0.012227 0.0116796 0.0140026 -0.027666 0.031953 -0.00418334 -0.00487239 -0.00925562 0.00289899 -0.0143347 0.0112263 -0.0257156 -0.0154399 0.0237221
472 0.00485755 0.000117572 -0.0145905 0.00113214 0.0151588 -0.0227123 -0.0028511 -0.0088226 0.0376836 -0.023506 -0.0133554 0.0296144 0.00373892 -8.54799e-05 0.00754183 -0.000983996 -0.013223 -0.00949022 -0.00728717 -0.0335294 -0.00341177 -0.0224324 -0.0105534 0.028437
500 0.0316951 0.00498723 -0.0300079 0.0240681 0.0133723 -0.00993516 -0.0193464 -0.0204062 0.030489 -0.00274983 -0.024271 0.02571 0.0159329 -0.0131642 0.00396158 -0.0121854 0.0236532 0.00648878 -0.0310441 0.000170439 0.00274934 -0.03241 -0.0213482 -0.00626325
165 0.00640113 0.0120865 -0.0249368 0.0202827 -0.0175431 -0.000753101 -0.0194398 -0.00799459 0.0153624 -0.0167004 -0.0103853 0.0270905 0.0218145 -0.025605 0.000954294 -0.000108736 0.0190619 -0.0075618 -0.0085042 -0.0162606 -0.0293546 -0.0310406 -0.0337467 0.0253447
112 0.0292654 -0.00277073 -0.0402289 0.0121801 -0.0134747 -0.00288344 -0.0217159 -0.012056 0.0390988 -0.0271254 -0.00214768 0.0415154 0.0218816 -0.0177131 0.00846078 -0.00120984 0.0148658 -0.0142181 -0.0102926 -0.0367743 -0.0144857 -0.00942738 -0.00503154 0.0271211
509 0.0367199 0.0246007 -0.022168 0.00113576 -0.016784 -0.000385544 -0.00500796 -0.0124386 0.0345138 -0.000978182 -0.00571715 0.0352485 0.0298903 -0.0038971 0.0353619 0.00735208 0.0123615 0.017267 -0.0250776 -0.0317709 0.00502069 -0.0308843 -0.0141118 0.0314746
489 0.0330202 0.00745627 -0.0367312 0.0127207 -0.0189422 -0.0227588 -0.0215267 -0.020335 0.0338419 -0.023152 -0.00182687 0.0158294 0.0247043 -0.00245493 0.00756903 -0.0104326 0.0279468 0.00531105 -0.0324112 -0.0368653 -0.0329014 -0.014167 -0.0333385 0.00341104
173 0.0283271 0.00675122 -0.0350762 0.0236616 -0.0156595 -0.00184289 -0.00797646 -0.00926715 0.0340201 -0.0237228 -0.0201857 0.0296507 0.0150922 -0.00783592 0.0266581 0.00301472 -0.0106563 -0.0086002 0.00167406 -0.0266399 -0.0208233 -0.0170919 -0.0378345 0.0127073
19 0.00226111 -0.0086112 -0.0157464 -0.0109981 -0.0010429 -0.00455048 -0.0162211 -0.00187325 0.0163126 -0.0137175 0.010956 0.027433 -0.00752707 -0.0192807 0.0122122 0.0128893 -0.00181837 0.00700205 -0.021317 -0.0280751 -0.0110787 -0.0209071 -0.00999599 0.0185242
118 0.0268076 0.0219884 -0.0295755 -0.0127474 0.00359479 -0.0279149 0.0134784 0.0069874 0.0293823 -0.0136698 -0.00286723 0.0224397 0.00329128 -0.00744726 0.0313429 -0.0253568 0.0220768 0.0103226 -0.00866544 -0.015257 -0.0255048 -0.00616001 0.000808465 0.0253572
638 0.0121874 0.00871738 -0.00999309 0.000297721 -0.00253016 -0.0101236 0.00658107 -0.00170135 0.0341258 -0.0130898 -0.0162983 0.00385821 0.0242312 -0.00827871 0.0252088 0.00596817 -0.00652062 0.00155564 -0.010193 -0.00974202 -0.000682943 -0.0190447 0.00667847 -1.23342e-05
336 0.0165645 -0.0103674 -0.0218188 -0.00736709 -0.0143696 -0.0291981 -0.0130354 -0.0201827 0.0636118 -0.011955 -0.0126564 0.0195419 0.00869613 -0.0411847 0.0249162 -0.0315727 0.0113399 -0.00883689 -0.0290704 -0.0198454 -0.0217372 -0.0209781 -0.040795 0.0373537
589 0.00953688 -0.0106438 -0.00181304 -0.0134765 -0.0155664 0.00592326 -0.0199779 0.00602353 0.0438543 -0.0361964 0.00345276 0.00485787 0.00284987 -0.0064907 0.00194356 -0.00878701 0.0114943 0.00703064 -0.00742243 -0.00773433 -0.0240475 -0.000584873 0.00185186 0.00429078
350 -0.00332476 -0.0126254 -0.00546952 -0.00682407 -0.00943256 -0.0198549 0.010907 -0.0142372 0.00777375 -0.00824849 0.0165351 0.00685176 0.0062071 -0.0125689 0.000996617 0.00350324 -0.00100841 0.00314077 -0.0193166 -0.00144533 -0.00884202 -0.0248756 -0.0107852 -0.0119766
186 0.00376321 -0.00869322 -0.022731 -0.00593897 0.0115542 0.00460054 -0.0223671 -0.0212738 0.0344798 -0.0155461 -0.00200454 0.0236518 -0.00267542 -0.0106584 0.0329463 0.0104251 0.0214359 0.00527927 0.00174502 -0.00308871 -0.011404 -0.0219757 -0.0149654 0.00192906
424 0.0438533 -0.0127694 -0.0341718 0.00588708 0.0160826 -0.0136736 -0.015218 0.00701399 0.0198532 -0.0358846 -0.0163152 0.029222 0.0303762 -0.0328607 0.0397201 -0.0286336 0.0177729 0.0167247 -0.00810134 -0.0142635 -0.00832671 -0.0277757 -0.00391817 0.0196711
652 0.0370357 0.00690727 -0.000217074 -0.0106595 0.00695294 -0.0132642 0.00583325 -0.0143615 0.0181937 -0.0341141 -0.0123819 0.0264658 -0.0069296 -0.0310676 0.0309919 -0.0132476 0.0271704 -0.00351842 -0.0331269 -0.0296045 -0.0239843 -0.0207037 -0.0139011 0.0179987
39 0.0315334 -0.00480936 0.000620264 0.0102811 0.00414896 -0.0272382 -0.0238935 -0.0175046 0.0262331 -0.0284761 0.0116811 0.0110645 -0.00696843 -0.0210154 0.00495228 -0.00018937 0.00991941 0.0141772 -0.0287092 -0.0312684 0.00928158 -0.0235636 0.00218158 0.0314734
342 0.0158811 -0.00497131 0.00265758 0.0184577 -0.0121919 0.0122955 -0.0246175 -0.0111518 0.0268386 -0.0257036 -0.0139254 0.0152831 -0.00851597 -0.0199209 0.0239248 -0.0115961 -0.0130959 0.000854002 -0.0216958 -0.00389325 -0.0135031 0.00371719 -0.0242313 0.0025974
25 0.00434282 -0.0147419 0.00598284 0.0204709 0.0103131 0.000734208 -0.0103983 -0.00571487 0.00737585 -0.00155796 -0.0124554 -0.00806415 -0.0107598 -0.0119501 0.023827 0.00677328 -0.000154716 0.00523636 -0.0173458 -0.0259987 -0.0262872 -0.0110416 -0.0172164 0.0260232
485 0.0213405 0.0219273 -0.019507 0.0133914 0.00899777 -0.00149131 -0.0118422 -0.0160596 0.00289404 -0.000538779 -7.01116e-05 0.0142783 -0.00278776 -0.014902 0.0130864 0.000967749 0.0110007 0.0148278 -0.0134205 -0.0224711 0.0121943 -0.00995609 -0.0155824 0.00863131
345 0.0259323 -0.00871707 -0.026759 0.0232749 -0.0121024 -0.0284227 -0.0200823 0.0107042 0.040558 -0.0257524 -0.0171558 0.0084943 0.0162409 -0.0305127 0.0313798 -0.0046566 0.0211079 0.0104868 -0.00876924 -0.0142135 -0.0116261 -0.00742444 -0.00185633 0.000871396
447 0.0196734 -0.00856565 -0.0167068 0.0033246 -0.00585204 -0.0196538 0.00243384 0.00637106 0.0377651 -0.0315205 -0.0187005 0.0361578 0.0122029 -0.0283513 0.0252114 -0.0249507 -0.00777005 0.0207592 -0.0251336 -0.0158925 -0.0327293 -0.0200239 -0.0523198 0.00799221
120 0.0286865 0.00489286 -0.0210992 0.00970388 -0.0120237 -0.0255082 0.000493183 0.000380181 0.0229915 -0.0166544 -0.0210693 0.030976 0.0312221 -0.032347 0.0410651 -0.0189216 0.0289342 0.000534323 -0.00950445 -0.0117637 -0.00635405 -0.0155039 -0.0353601 0.025616
65 0.0437136 0.00476725 -0.0343964 0.0126507 -0.00867864 -0.00855876 -0.00377828 0.0068212 0.0485413 -0.039701 -0.0112005 0.0224682 0.0351764 -0.0140272 0.0256994 0.00831256 -0.00785886 -0.00275034 -0.0246282 -0.0078334 -0.00179878 -0.00403545 -0.0152634 0.0141356
486 0.0421846 0.0169647 -0.0202112 0.0269833 0.00377398 -0.0250476 0.00395238 5.2533e-05 0.0246244 -0.00269608 -0.00848625 0.0165579 -0.00584182 -0.0316603 0.00411164 -0.0303192 0.0135986 -0.00838077 -0.0182152 -0.0114893 -0.0207905 -0.0210728 -0.028922 0.0289357
348 0.017142 -0.00245194 -0.02666 0.0265857 0.0183629 -0.021656 0.00855708 -0.00379571 0.0406086 -0.0115142 -0.00495181 0.00710109 -0.008632 -0.00346099 -0.000160432 -0.0184106 -0.00238681 -0.01651 -0.0114438 -0.0257606 -0.00330548 -0.022425 -0.0178385 0.0237694
201 0.0278754 0.0051444 -0.0267346 -0.00986123 0.0028512 -0.0150837 0.00444307 -0.0109572 0.0400736 -0.00400625 0.00776239 0.0225027 0.025051 -0.00633992 0.0281076 -0.00341064 0.024233 0.0104342 -0.0264051 -0.0303331 -0.000291102 -0.0240101 -0.0300796 0.0321392
381 0.0113462 0.0219907 0.00786958 -0.0146083 0.0136332 -0.0131405 -0.0104071 -0.00382915 0.0197856 -0.0206606 0.00398851 -0.000712437 0.0102332 -0.0224763 0.020295 -0.0177195 0.00725059 -0.0082477 0.000858731 -0.0202835 -0.0174326 -0.0125737 -0.034297 0.0205166
145 0.0473107 0.0250587 -0.0245493 -0.00439568 -0.0127443 -0.00587292 -0.0206285 -0.00116827 0.0442933 -0.00116465 -0.0185313 0.0157544 0.00164465 -0.00123385 0.0373256 -0.0284435 0.0202748 0.0118017 -0.0322748 -0.00173369 -0.00914425 -0.0110999 -0.0394309 0.0323699
315 0.0359708 0.00185314 -0.00993578 0.00898821 -0.0142301 -0.00629827 0.00944338 -0.0228514 0.0243472 -0.0175211 0.00122249 0.0123236 0.0176821 -0.0266659 0.0278915 0.00716382 0.00749855 -0.00103967 -0.0256864 -0.023555 -0.0145929 -0.0358491 -0.0164337 0.00718283
209 0.042236 -0.00901646 -0.00519971 -0.00374889 0.0141705 -0.0209429 -0.00899124 0.00682843 0.0589932 -0.0237527 -0.0062499 0.0316507 0.0181718 -0.0128289 0.0281219 -0.00392165 0.0252903 0.0108587 -0.00198816 -0.0310142 -0.0238374 -0.0444009 -0.0263746 0.0303235
296 0.0102847 0.0167251 -0.0119032 -0.0118043 -0.0208705 -0.00342694 0.0106417 0.0137724 0.0200339 -0.0158215 0.00623756 0.0217084 0.0130719 -0.00392485 0.0381599 0.00658237 -0.00280322 0.00220372 0.00297502 -0.0168752 -0.0229235 -0.0349628 -0.0111973 0.0182802
285 0.0175425 0.0152369 -0.00819698 0.0097804 0.00147187 -0.014783 -0.014488 0.00985428 0.0212567 -0.0108615 -0.0261876 0.0194128 0.028962 -0.000916982 -0.0039126 -0.016592 0.0171117 -0.0119762 -0.0309827 0.00359141 -0.0103675 -0.0334791 -0.0158459 -0.00509329
262 0.0312318 0.0159099 -0.0358452 -0.00458738 0.0096871 -0.00219023 0.0120941 -0.0228596 0.0303961 -0.0262906 -0.0100845 0.0010741 -0.00282797 0.00439461 0.0128796 0.00832585 -0.00297435 0.00670852 -0.00278639 0.00468384 -0.0241799 -0.017718 -0.0195638 0.002048
326 0.0372365 -0.00779128 -0.0203511 -0.00603178 -0.0192923 -0.0276237 -0.0168963 -0.0218863 0.00563367 -0.0127926 -0.0156513 0.0285401 0.00552723 -0.0291728 0.0230356 0.00436854 0.0252242 0.00386101 0.00843133 -0.0278055 -0.00475992 -0.00165309 -0.0272794 0.0204385
317 0.0397057 0.000267814 -0.0357968 -0.00579226 -0.0205305 -0.00458502 -0.0135414 -0.000511923 0.0368499 -0.0282073 -0.0254277 0.00789828 0.0157299 -0.00938132 0.0207469 -0.00559878 0.00852721 0.00405384 -0.0221754 -0.0159986 -0.0287731 -0.0261366 -0.00582474 0.0113636
418 0.0233149 0.0104615 -0.0215638 0.00453203 0.00803389 -0.00126652 -0.0280692 0.00476062 0.0150899 -0.0341595 -0.0152713 0.0376665 -0.00376952 -0.0248676 0.0121488 -0.0181 -0.0056836 -0.0155371 -0.022622 -0.0395901 -0.00200731 -0.0067521 -0.0197348 0.030545
318 0.00508113 0.0093209 -0.0202047 0.0211259 0.00642416 -0.0172625 0.0124017 0.00872305 0.0303594 -0.0225651 0.00327081 0.0249603 0.0284012 -0.00513181 0.00931621 -0.0119414 -0.00589887 -0.00258501 -0.0340635 -0.0120778 -0.00205126 -0.0157764 -0.0131058 0.0213313
466 0.0354266 0.0212468 -0.000128054 0.0268773 0.019188 -0.010253 0.00901949 -0.00915341 0.0331442 0.000834482 0.0114439 0.00120332 0.0194688 -0.0139802 -0.00071851 0.00612159 0.0154474 0.00330999 -0.0152274 -0.0374741 -0.0149163 -0.0358503 -0.00778588 -0.00322557
641 0.0425722 0.019184 -0.0100929 -0.00609623 -0.0115739 -0.00512368 -0.00780085 0.00202552 0.0441538 -0.0312527 0.00104839 0.0327188 0.0296243 -0.0291037 0.0143989 -0.0113577 -0.0083682 -0.0139971 0.000951444 -0.0277392 -0.023157 -0.00111284 -0.00630309 0.0341461
15 0.0359584 0.0175739 -0.0281393 0.0222932 -0.00966909 -0.0241544 -0.0153758 -0.0112524 0.0557081 -0.0275086 -0.00621807 0.0156625 0.0193434 -0.00531085 0.0422315 -0.0138801 0.0195468 -0.00764763 -0.0256686 -0.0433313 -0.034397 -0.0236352 -0.0433506 0.0131304
95 0.0321261 0.00169306 0.00271609 0.0167954 0.00645536 0.000737768 -0.0202901 0.0134216 0.0169121 -0.0185543 -0.0206898 0.00668191 0.0254952 0.000366986 0.025465 -0.00918436 0.00462036 0.0140722 -0.00113193 -0.0322324 -0.0203664 -0.0156362 -0.0361333 0.00823132
302 0.0395718 0.0278207 -0.0459654 0.0027376 0.00536785 -0.0129641 -0.0296616 0.00805728 0.0232604 -0.0341272 -0.0126796 0.0177384 0.0378845 -0.0177209 0.0353893 0.00446117 0.00784147 -0.00332129 -0.00458789 -0.0287882 -0.0289599 -0.0446019 -0.0405521 0.037494
128 0.0465061 0.00202495 -0.023999 0.0230825 0.00872385 0.00414845 -0.0107314 0.00573613 0.0338109 -0.031186 -0.0244846 0.00422751 -0.00179423 -0.022698 0.0368699 -0.0215724 0.0175359 0.0196791 -0.0127839 -0.00704866 -0.0128459 -0.0136683 -0.0309272 0.0087544
525 0.00362189 0.0227508 -0.00565468 0.026151 0.0194814 -0.00395427 -0.0224674 -0.0112575 0.0161133 -0.0085653 -0.0269665 0.0379647 0.0098798 -0.0318174 -0.00322978 0.00330688 0.00757347 0.00682057 -0.0139914 -0.0104441 -0.00338712 -0.032467 -0.00245943 0.0318024
604 0.01284 0.013939 0.00400768 -0.0163346 -0.0156267 -0.0147171 0.00127621 -0.00891327 0.0235317 -0.0043359 -0.0182741 0.00760817 -3.84598e-05 -0.0267014 -0.00502893 -0.0147605 -0.0112649 0.0122954 0.00994801 -0.00809788 -0.0203146 -0.0178688 -0.0130644 0.0158237
631 0.0139282 0.0018489 -0.032342 -0.00851982 -0.0145788 -0.00133809 -0.0141286 0.0144696 0.00426608 -0.0124763 -0.0272404 -0.000213633 0.0167687 0.000750537 0.0139603 -0.000744833 0.00366195 -0.0119945 -0.0131194 -0.0148822 0.00422478 -0.0139506 -0.0338036 -0.00520096
74 0.0179053 -0.00579405 -0.0211632 -0.00604636 -0.0212359 -0.00614438 -0.00732817 0.00684629 0.0270273 -0.0093069 -0.0133083 0.0285991 0.00936557 -0.00632139 0.00341487 0.000617363 -0.00693767 0.0100061 -0.00887984 -0.0355251 -0.0324389 -0.0200783 -0.0337899 0.0203412
52 0.0327709 0.0129851 -0.00124599 -0.00344276 0.0179916 -0.0137525 -0.0260038 -0.00720485 0.0241983 -0.00806573 0.0113213 0.0364695 0.00543507 -0.029941 0.0208786 -0.025516 0.000916898 -0.0124518 -0.0310046 -0.0348515 0.00130629 -0.0185392 0.00385183 0.0227925
266 0.00200297 0.0154875 0.00634441 0.0197649 -0.00637523 -0.0115069 0.00268352 -0.0142122 0.0382761 -0.0260322 -0.00299362 -0.00364564 -0.0070075 -0.019315 8.41947e-05 -0.0234409 -0.0113802 -0.00589114 -0.0090147 0.0038373 -0.0137146 -0.0316248 0.000936147 0.00724446
45 0.0194562 0.00440769 -0.00881767 0.0321263 -0.00122585 0.00284397 -0.0152215 -0.000603712 0.0581296 -0.045092 -0.0246595 0.0159037 0.0196048 -0.0279113 0.0386143 -0.0255453 0.0137781 0.0159962 -0.0394997 -0.0301663 -0.0389023 -0.00959222 -0.00886007 0.0423034
600 0.00338456 0.00410798 0.00319923 -0.0130462 0.000279035 -0.0136835 -0.00657487 -0.019071 0.0211664 -0.00887105 -0.016518 0.0255677 0.0240715 -0.0190222 0.0206914 -0.0252768 0.0184863 -0.00731467 -0.023438 0.00428547 -0.00666514 -0.0197512 -0.0258957 -0.00717235
561 0.0127891 0.0161568 -0.0289134 0.000274079 0.0197073 -0.0111001 -0.00242856 -0.0106762 0.0268951 -0.0135807 -0.00590883 0.0226908 0.0117972 -0.0288223 0.0258053 -0.0148026 0.0158435 0.0133916 -0.0270849 -0.0307914 0.00594524 -0.00811715 -0.0114377 -0.00866423
549 0.0249134 0.0185534 -0.0166686 0.0272654 -0.0193614 -0.01225 -0.00166917 -0.00904347 0.01596 -0.0368509 -0.0085007 0.00426413 0.0324829 -0.0130388 0.0250417 -0.0215277 -0.010781 0.00205878 -0.0156078 -0.0116865 0.00678836 -0.0345824 -0.0188707 -0.00422291
36 0.0425107 -0.00950947 -0.00287707 0.0121105 0.00699423 -0.0292547 0.00396142 0.00151707 0.0195221 -0.00257209 0.00895952 0.0182125 0.0256794 0.00228671 0.00448511 0.00187137 -0.00129477 -0.0162732 -0.00150816 -0.0351437 -0.0212741 -0.0160333 -0.0247715 0.0354496
78 0.0207202 0.0206677 -0.0261068 0.0111095 0.0172417 -0.0181397 -0.0291442 0.0038747 0.0382808 -0.0115363 -0.0306822 0.00820674 0.006657 -0.0409453 0.0447806 -0.00847654 -0.00776152 0.0207158 -0.0244695 -0.0144007 -0.0334583 -0.0203216 -0.0299398 0.0237472
205 0.0176639 0.00600504 -0.00210188 -0.0113005 -0.0145352 -0.0143277 0.0132783 -0.00643418 0.0298601 -0.00417794 -0.0158356 0.0139598 0.0178943 -0.0239129 0.0316656 0.0135901 0.00680226 -0.00296466 -0.026398 -0.00888851 -0.0162698 -0.0289503 -0.0122078 0.021801
297 0.0260592 0.00932447 -0.0111501 -0.00452674 -0.0139424 -0.0022945 -0.0204866 -0.0214876 0.012151 -0.0296757 0.00639703 0.028869 -0.00296419 0.00478278 0.0166743 -0.00230222 0.0263209 0.0171974 -0.00998821 -0.025176 -0.0234392 -0.0300902 -0.0330372 0.0059039
334 0.042075 -0.00795018 -0.0194996 -0.0106179 0.00710507 -0.00386761 0.00287264 -0.0115071 0.0269779 -0.0265835 0.00758255 0.0440372 0.012735 -0.0348811 0.0240595 -0.0205851 0.0188793 0.0222054 -0.0262847 -0.00745293 -0.0148392 -0.0193554 -0.00668871 0.0283923
366 0.0113721 0.0145393 -0.0144281 0.0157735 0.00261611 -0.0171529 -0.00713183 -0.0161128 0.0209087 -0.0176042 -0.0226866 0.039375 0.0349974 -0.0174991 0.00736728 -0.00639216 0.0162162 0.0213688 0.00332515 -0.0170073 -0.013197 -0.0306268 -0.0333855 0.013083
602 0.0374199 0.0182046 -0.00419989 0.0168661 0.0198791 -0.0214816 -0.00234493 0.00467604 0.0310293 -0.00893337 -0.00421882 0.0144955 0.0295332 -0.0324498 0.0274893 -0.0140151 -0.00590614 -0.0177009 -0.0101552 0.00157336 -0.00773427 -0.0214934 -0.0220245 0.012987
123 0.0168252 0.00258782 -0.0388971 0.0148024 -0.00821763 -0.0267477 -0.0102782 -0.0180736 0.0184329 -0.0124259 0.00912134 0.0374911 0.0215138 -0.0414366 0.034772 -0.0343026 0.0126392 0.015892 -0.0120916 -0.0493113 -0.0338388 -0.0109814 -0.0461885 0.0388705
656 0.0134162 -0.000571513 -0.0300222 0.0189882 0.018461 -0.0183426 -0.0225458 -0.00232487 0.0261135 -0.0188671 -0.0159213 0.0277096 -0.00658236 0.00419119 0.0156398 0.00646345 0.0251238 -0.00188632 -0.0116462 -0.0306304 -0.0103487 -0.000430997 0.00393803 0.0158338
37 0.00789938 -0.0108383 -0.035832 -0.00520114 0.00101797 0.00376912 0.00118305 -0.0222483 0.0285865 -0.0146103 -0.00619737 0.0104676 0.0183491 -0.0109021 0.0412525 0.00806049 0.0121872 0.0206265 -0.0244574 -0.0421436 -0.0191085 -0.012219 -0.00638514 -0.00514821
437 0.0341218 0.0163799 -0.0299881 0.00660185 -0.020239 -0.0189051 -0.0239791 -0.0183338 0.022038 0.00349015 -0.0060152 0.0388099 0.0215617 0.00410693 2.72719e-05 -0.00190397 0.0226345 0.00908758 -0.0231117 -0.0210259 -0.0157052 -0.0184326 -0.0285016 0.0188359
526 0.0360667 -0.00136164 -0.0249536 0.00952501 0.00631071 0.00549001 0.00223015 -0.0145062 0.0253637 -0.00578726 -0.00648214 -0.000498921 0.0127439 -0.032404 0.0337699 -0.00673014 0.00780767 -0.00285005 -0.0304273 0.00300787 -0.0171434 -0.0319325 -0.00391075 0.0107909
556 0.0252266 0.0103354 -0.00569095 -0.00595128 0.00966432 0.0106476 -0.0110435 -0.0175036 0.0219251 -0.023047 -0.0145749 0.0344754 -0.00926885 -0.0257063 0.0166593 0.000715035 0.00461832 0.00811053 -0.000428623 -0.0171933 -0.00497355 -0.0283714 -0.0143365 0.0101946
410 0.0342342 -0.00469272 -0.010563 0.000836914 -0.0114145 -0.0202701 0.00068007 -0.00834983 0.0301154 -0.00776833 -0.00903369 0.0356214 0.0142208 -0.0156602 0.0250479 -0.0120157 -0.00477513 0.0032154 -0.0189056 -0.0201465 -0.0319145 -0.0206264 -0.0361568 -0.0023938
403 0.0313699 0.0164741 -0.0284235 0.00538777 -0.0168759 0.00757045 -0.00736266 -0.0213776 0.0497052 -0.0264772 -0.0235838 0.0286246 -0.00243409 -0.0190509 0.0327872 -0.00680147 0.0152334 0.00629086 -0.0150971 -0.029579 -0.00101871 -0.00140829 -0.0221216 0.00722027
27 0.0451175 0.00624488 -0.0364972 0.0254779 -0.0187832 -0.00823522 -0.0138217 -0.00612951 0.0206424 -0.0140264 -0.020114 0.0248122 -0.00154093 -0.0269563 0.043731 -0.0170151 0.0118326 0.000279888 -0.0272629 -0.0442181 0.000586935 -0.0452585 -0.0271719 0.0300843
647 0.00513772 0.0133858 0.00170786 0.00251685 0.0181876 -0.0197459 0.0080822 -0.00720318 0.0272993 -0.020095 -0.0213135 0.00803587 0.0148323 -0.0380894 0.0304145 -0.0129724 -0.00221182 -0.000851085 -0.0163257 -0.0231209 -0.0199043 -0.00975192 -0.00392232 0.0141781
257 0.024577 0.0246337 -0.0150135 0.00434417 0.0201703 -0.0121724 -0.0134507 -0.000552113 0.010164 -0.00229633 0.00147328 0.013466 0.0201577 -0.0280088 0.00300011 0.00341824 0.0234289 -0.00157953 -0.0223852 -0.0178349 -0.0143194 -0.00740557 -0.00979993 0.00899692
469 0.0443031 0.00600027 -0.0178461 0.0183436 0.0104175 -0.00684391 0.0126201 -0.0219906 0.0240465 -0.00340854 -0.0085564 0.00109481 0.0313253 -0.0159363 0.0221194 -0.0219513 0.0196711 -0.0141756 -0.0293076 -0.030735 -0.0215234 -0.00804775 -0.00675938 0.0251297
515 0.0294324 0.00652331 0.00924265 0.0113641 0.00513718 0.00912778 -0.00651678 -0.018702 0.00235159 0.00631766 0.000180974 -0.0104912 -0.00847747 -0.00346924 0.000637443 0.011282 -0.000494491 0.0167969 -0.000254852 -0.0120492 -0.00916693 -0.0179448 -0.0253895 0.00486406
595 0.0150611 -0.00201888 -0.0160163 0.0215304 0.0021301 -0.00843266 -0.00371995 -0.0226953 0.0178793 -0.00327749 -0.0126234 0.0148989 -0.00324555 -0.0075948 0.0306777 -0.010839 0.00929359 0.0064403 -0.0252501 -0.034281 -0.0106717 0.00407712 -0.0214709 0.00571446
552 -0.00346759 -0.0144841 -0.00203048 -0.00288882 0.0035401 -0.00139258 -0.0225058 -0.011318 0.0102767 -0.0268293 0.0037712 0.00286594 0.0140901 -0.0286612 0.0179282 -0.0181068 0.0149927 0.00355946 0.0128459 -0.0099734 0.01072 -0.0189801 0.00476304 0.0120523
642 0.00331848 -0.0032787 -0.0275338 -0.0104616 0.00403344 -0.0207882 0.00756784 0.00618136 0.0100517 -0.00270546 -0.0205405 0.0134712 0.0228769 -0.0169982 0.00237799 0.00945084 0.00322807 -0.00808281 -0.0273581 -0.00452851 -0.00374155 -0.00837145 -0.0341782 0.0102657
547 -0.00178731 -0.00485002 -0.022101 0.0188992 0.0129007 -0.013937 0.00196968 -0.0108486 0.000950793 -0.0132103 -0.0146698 -0.00351123 0.00781408 -0.011583 0.0100462 0.00571834 0.0189032 -0.0134303 -0.0140358 -0.0114616 -0.0128002 -0.027436 -0.0267274 0.000866973
225 0.0361466 0.0135605 -0.0387609 0.0233154 -0.0129744 -0.0289515 0.00306914 -0.0236579 0.0260105 -0.0317902 -0.00362921 0.0271888 0.00590134 -0.0096516 0.0233732 -0.0161528 0.00173162 0.0109717 -0.0277369 -0.0030986 -0.0252846 -0.00867788 -0.0161007 0.0269023
295 0.0225474 0.0196453 -0.0182141 -0.0094416 -0.0154513 0.00476847 -0.0226924 0.0087717 0.0480323 -0.0236101 -0.00424322 0.0362084 0.0215447 -0.0233948 0.0341397 -0.0300647 0.000612036 -0.0112073 -0.0112338 -0.0200988 -0.0223996 -0.0362368 -0.0195836 0.029748
634 0.0201888 -0.00232357 -0.00821258 0.0256283 0.0123676 -0.0242219 -0.024653 0.00127586 0.0152759 -0.0236737 -0.0267188 0.0310503 -0.0101367 -0.0283905 0.0175509 -0.00370068 0.0176553 0.00759097 -0.023761 -0.0352283 -0.0127573 -0.00980716 -0.0229949 -0.0092721
167 0.0282126 -0.00518767 -0.022511 0.00570768 -0.0112621 -0.0191479 -0.0102888 -0.00511174 0.0287135 -0.0247822 0.00717662 0.0305232 0.001903 -0.00293309 0.0206951 -0.0165976 0.0166536 0.00532812 -0.0119325 -0.0204329 -0.00632373 -0.0123708 -0.0248268 0.00478977
233 0.0152262 0.0184229 -0.0324397 0.00567998 -0.007482 -0.0172566 0.00332112 0.0121486 0.0201901 -0.0399322 -0.0244564 0.0321815 0.035024 -0.0141009 0.0171694 -0.034386 0.0223921 -0.0126258 -0.00974932 -0.0228841 -0.0261071 -0.0254719 -0.0381163 0.0332298
292 0.017261 -0.00207502 -0.021326 0.00148549 2.59784e-05 0.00819254 -0.00438882 -0.00667466 0.0186179 -0.0139547 0.00899421 0.0304873 0.0131912 -0.021878 0.00676678 -0.0211382 0.0112813 0.00758786 0.00245553 -0.00998369 -0.00565009 -0.00673548 -0.0309556 -0.00728868
271 0.0252524 0.017009 -0.0339283 0.0245184 0.0191105 -0.0217987 -0.0075045 0.0137027 0.0374075 -0.0285877 -0.0256128 0.0257964 -0.00224249 -0.0147025 0.00816933 -0.0144375 0.0283411 0.00576719 -0.00360465 -0.00636151 0.000420429 -0.0268337 -0.0388997 -0.00257273
130 0.00346927 -0.00349732 0.0039732 0.0232835 -0.0162933 -0.0111907 -0.0155681 0.00805295 0.0404679 -0.0191538 -0.0248491 0.0338477 0.0132874 -0.0248049 -0.00328138 -0.00279573 0.017072 0.00550742 -0.018246 -0.0118355 -0.00718131 -0.0169444 -0.0280351 0.0295136
244 0.00885983 -0.0122076 -0.0307782 0.00259723 0.0017532 -0.018134 -0.0187165 -0.00138765 0.0253274 0.00501063 -0.00337824 0.0332653 0.000901791 -0.0295905 0.0254517 -0.0262851 -0.00583471 -0.0172526 -0.00267143 -0.00965765 -0.0283884 -0.00431535 -0.0136194 0.0164817
432 0.0287735 0.000933181 -0.0244901 -0.00698231 0.00923945 -0.0261324 0.0112436 -0.00682026 -3.39554e-05 0.00914571 0.0156064 0.00581541 -0.0093983 -0.0228795 0.0180711 -0.0149304 -0.0129139 0.0187582 -0.00840792 -0.0106501 -0.0057789 -0.0102148 0.000973924 0.0108382
119 0.01484 0.00498093 -0.0293066 0.00299864 -0.00269365 -0.00595272 -0.000713112 -0.0188943 0.0166157 -0.000315219 -0.0114483 0.032132 0.0260134 -0.0141979 -0.00347386 -0.0232061 0.000627705 0.0172641 0.00840511 -0.0230271 0.00815289 0.00594097 -0.0316559 0.011328
122 0.0302196 -0.0124967 -0.0287432 0.0149954 0.00226151 -0.00277607 -0.018011 -0.0238758 0.0198241 -0.00210335 -0.00446032 0.0214187 0.0252905 -0.0316386 0.0186522 0.00311799 0.0135601 -0.0057481 -0.0272754 -0.00135154 -0.00888127 -0.0181122 0.00502768 -0.00873679
358 0.0404162 0.0102407 -0.00822216 -0.0126938 -0.0169955 -0.0314138 0.0068154 -0.0165371 0.0161105 -0.010876 -0.0185277 0.0243254 0.00238741 -0.0334292 0.00428563 -0.0161371 -0.00779533 0.00015673 -0.0151694 -0.00608015 -0.00693819 -0.000451399 -0.0407174 0.00974851
453 0.038666 0.0052673 -0.0355686 -0.00769547 0.00576545 -0.0273346 -0.0236528 0.00108023 0.0477833 -0.00473689 -0.00322399 0.0288222 0.0239286 -0.00224536 0.0336313 -0.0126957 0.00134276 0.00290792 -0.00268565 -0.0444918 -0.0335626 -0.021044 -0.0200402 0.0137095
400 0.0218718 -0.00244039 -0.0297088 -0.014607 -0.0214929 -0.00625955 0.00311905 0.00700267 0.0120991 -0.0230499 -0.0205312 0.0346622 0.0137163 0.000326606 0.0069147 0.0042965 0.00813956 -0.00710852 -0.0182032 -0.0278506 -0.0113337 0.00165747 0.00115411 -0.00580064
630 0.0368377 -0.0137879 -0.0192346 -0.000993104 -0.00344954 0.00606207 -0.0232825 -0.0037394 0.0181427 -0.0280124 -0.00992826 0.0323553 -0.00637866 -0.019725 -0.00230937 -0.0247934 -0.0111502 6.17159e-05 -0.0034333 -0.0286246 -0.0171165 -0.0060717 -0.0116517 0.0123598
510 -0.000546911 -0.0166537 -0.0341552 -0.00214518 0.00598428 -0.0206985 0.0144764 0.0152849 0.013435 -0.0229732 -0.0123906 0.0190751 -0.00785667 -0.0221575 0.0138118 0.00446701 -0.000866855 -0.0146056 0.00450352 -0.0114589 0.00791288 0.00234486 -0.00505314 0.0315559
643 0.0174582 -0.0135217 -0.0101454 -0.000331364 -0.0012513 0.0139192 0.0146658 0.0163649 0.0355578 -0.0185654 -0.00940246 -0.00680992 -0.0063358 0.00336215 0.0150577 -0.0126005 0.0015733 -0.0126553 -0.0279736 0.00596577 -0.0165294 -0.00200749 -0.0140368 0.00580124
582 0.000779894 0.00655774 -0.0087912 -0.0143167 0.0102322 -0.0164891 0.00277868 -0.00428495 0.0113662 -0.0153174 -0.0197846 -0.00934562 -0.00349006 -0.0225296 0.00430614 0.00231997 0.0229089 -0.00122235 -0.0166368 -0.0180135 0.0105932 0.0100937 0.00794183 0.0140441
365 0.0329738 0.00324286 -0.0194434 0.0268636 0.021078 -0.0221845 -0.0067014 -0.00767465 0.0130157 -0.00651273 -0.0257002 0.0218293 -0.00906113 -0.0337419 0.0293762 0.00225368 0.0225561 0.0123536 -0.0237546 -0.0121738 0.0105464 -0.0357399 -0.0117013 0.0223569
26 0.013404 -0.00800718 -0.0319755 0.0241155 0.0122821 -0.00707207 0.00175969 -0.0219295 0.0335506 -0.00439928 0.00975991 0.0292657 0.00703787 -0.0164113 0.0293019 -0.00773413 0.00187374 -0.0106788 -0.0304575 -0.0417449 -0.0270343 -0.0147744 -0.0317928 0.0124575
523 0.0269174 -0.00849324 -0.0248153 0.0193521 0.00564272 0.00184386 -0.0240143 -0.00406707 0.0218135 -0.00206148 -0.00312742 0.00306519 -0.00271747 -0.0189643 -0.000803771 -0.0209731 0.0177423 1.20506e-05 -0.0153592 -0.0352445 0.00920199 -0.0195919 -0.0139931 0.0306156
23 0.0124063 -0.000802877 -0.0105188 0.00996636 0.0175035 0.00298096 -0.0277408 0.00327123 0.0174092 -0.0284444 -0.0234096 0.0195035 -2.00221e-05 -0.0322996 0.0299646 -0.00954626 0.0112774 -0.0157068 -0.0250023 -0.0384258 -0.0143341 -0.0402193 -0.013247 0.0150959
236 0.0415316 0.0169109 -0.00719829 0.00121098 0.01238 -0.0319045 0.00153503 -0.0184536 0.0474656 -0.0343993 -0.0118902 0.00848772 -0.000265635 -0.00970091 0.011077 -0.03074 0.0018746 0.0212912 -0.00926859 -0.00934608 -0.0199215 -0.0397534 -0.0305205 0.0342144
626 0.0405751 0.011509 -0.00249587 0.0118422 0.0177641 -0.00608188 0.00796961 0.00431797 0.0148766 -0.00510116 -0.00581743 0.00213572 0.0253924 -0.0144266 0.029875 -0.012463 0.00101767 0.00650336 -0.0027532 -0.0281841 -0.00658779 -0.0329321 -0.00641106 0.024951
476 0.0254501 -0.0102464 -0.0110142 0.00995641 -0.00216145 0.0011074 -0.0160207 0.0162432 0.00541375 -0.0148403 -0.0140951 -0.00125115 0.0154377 -0.00601277 0.00863504 0.00872678 0.0233555 0.0103244 -0.00405518 -0.0188868 -0.00594278 0.00246816 0.00265206 0.0117469
436 0.03502 0.0184238 -0.0396596 0.00386913 0.0124767 -0.00309703 0.0063769 0.00469188 0.0490015 -0.0142414 -0.00555039 0.0374013 0.0180379 -0.00921439 0.0160125 -0.0300856 0.00311329 -0.0145289 -0.033159 -0.0132825 -0.00694879 -0.0406189 -0.0419319 0.0335317
206 0.0306649 -0.00408835 -0.000221758 0.0147049 -0.00410633 -0.0197826 0.00404405 0.0130463 0.0294508 -0.0237765 -0.0131531 0.0184244 0.0231117 -0.0291641 0.0129982 0.00353496 0.0183028 0.00195572 -0.0210832 -0.0308994 -0.0220978 -0.0183703 -0.0188612 0.0233215
521 0.0375487 0.017496 -0.0251834 0.0221689 -0.000822115 -0.00272482 -0.0057572 -0.0104756 0.0347131 -0.030476 -0.0189978 0.00353155 -0.011684 -0.00564008 0.00976836 -0.0229368 0.0247273 0.0218948 0.00795468 -0.0312826 0.00797139 -0.0112309 -0.00235514 0.0146754
607 0.016855 0.00983761 -0.0189788 -0.00995817 -0.00954125 0.012452 -0.00699662 -0.0161013 0.000426293 -0.000823348 -0.00653663 0.0161908 0.0280851 0.00404149 0.00808313 -0.00880647 0.00119986 -0.0029895 -0.0199615 -0.0268295 0.00236599 -0.016417 -0.0319099 0.0165089
218 0.0327831 0.0128497 -0.0278032 0.00654297 0.0167059 -0.0106573 -0.0254868 -0.0015452 0.0361127 -0.0311742 0.0138915 0.0101899 0.0175449 0.00171013 -0.00403387 -0.0145682 0.0188322 0.0211011 -0.0104732 -0.0036861 -0.024672 -0.0320372 -0.0125814 0.00261911
182 0.00235989 0.000139011 -0.0117885 0.0191222 -0.00945054 -0.0239786 0.0130213 0.0072136 0.00357412 -0.0224104 0.00343193 0.0268451 -0.000235839 -0.0113374 0.0162433 0.0156032 -0.0112519 0.0182256 -0.0204888 0.0105633 -0.0188155 -0.00589008 0.00446837 -0.000228807
293 0.0396918 0.0243565 -0.0396082 0.01754 0.00159189 -0.013499 -0.00150512 -0.0237439 0.0452796 -0.0122313 -0.0182459 0.0120247 0.0199363 -0.0370646 0.0305205 -0.0246647 0.00735425 -0.00656089 -0.0321221 -0.0153873 -0.0346082 -0.0139299 -0.0170754 0.0346362
588 0.00898262 -0.00499864 -0.00352599 0.0290508 -0.00258284 0.00134178 0.00350805 0.0127908 0.0396683 -0.0211006 0.000361637 0.022654 0.0175349 -0.0284221 0.0371573 0.00453952 -0.0100775 0.00338926 -0.00461535 -0.00512098 0.00569732 -0.0359832 -0.0420668 0.00869614
102 0.017405 0.0153159 -0.0119959 0.0239322 0.00354422 -0.0248602 0.00544046 0.00253464 0.0371683 -0.0171589 -0.0273847 0.0436127 0.000720147 -0.0208929 0.0197977 -0.0324269 0.0115705 -0.00781667 -0.0170867 -0.0129697 -0.0257393 -0.0130967 -0.0206817 0.0236179
488 0.0192365 0.0245569 -0.0100399 0.0152193 0.0197795 -0.0227662 -0.0118747 -0.0179605 0.0228071 0.00489107 0.0126863 0.0160667 0.0104804 -0.00657589 -0.0015943 -0.0251518 0.0103197 0.00809554 -0.00423564 -0.0067425 0.00753064 -0.00777234 -0.0143973 0.0154877
322 0.0276311 0.0231684 -0.0177767 0.00370791 0.00218672 -0.026479 -0.0215951 -0.0166998 0.0410075 -0.0182702 -0.00910117 0.0321387 0.00884832 -0.0380238 0.0180886 0.00307989 0.0110036 0.0188892 -0.037043 -0.0284383 -0.0195087 -0.0261096 -0.0309555 0.00875673
242 0.0080876 0.0216633 -0.00408733 0.00489512 0.0110162 0.0122349 0.00333628 -0.00962843 0.0254252 -0.0195851 0.0150445 0.0167303 0.0217883 0.0036384 0.0261328 -0.0280871 0.0126519 0.0104496 -0.0137136 -0.0116802 -0.00565315 -0.0291604 -0.00584192 0.00275241
324 0.0290241 0.026009 -0.0245788 -0.0090407 0.0172138 0.00500746 -0.0126672 -0.0162611 0.031254 -0.0080656 -0.0222382 0.0358355 0.00577159 -0.0203576 0.00267347 -0.0205252 0.0219908 0.0109407 0.00545498 -0.0213713 0.00329452 -0.0342985 -0.00837712 -0.00432036
283 0.0241576 0.0119748 -0.0102201 0.0241668 -0.0101271 -0.0102018 0.00566171 0.011232 0.0425211 -0.00191793 -0.0110988 0.00109226 0.00227787 -0.0329693 0.0330139 -0.0235145 0.0011521 0.0127651 -0.0130826 -0.0388458 -0.0293852 -0.03082 -0.0281574 0.00615501
559 0.0230125 0.0139703 -0.00424467 0.0131891 0.0192419 -0.0257841 -0.0169999 0.0134923 0.0297894 0.00610029 -0.00126957 0.00708901 -0.00924661 -0.0233907 0.012175 -0.0276922 0.00409544 0.00104191 -0.00752951 0.00224844 -0.027172 -0.02314 -0.016101 0.000773406
503 0.0331133 0.00470615 -0.0228773 0.0219121 -0.00300782 -0.0244252 -0.01372 0.00486126 0.0326568 -0.0254668 0.00221775 -0.00754128 0.00303063 -0.0239478 0.0268304 -0.00921965 -4.29956e-05 -0.00605583 0.0023726 -0.0305241 -0.0217122 -0.0139523 0.00447164 0.00819749
190 0.0377307 0.0188645 -0.0202067 0.0102158 -0.00321103 -0.0350603 -0.00730668 -0.0181313 0.0704454 -0.0327723 -0.007373 0.0555459 0.0381486 -0.0175127 0.0292536 -0.00949928 0.000391128 -0.01104 -0.0117255 -0.0278849 -0.0244962 -0.0237959 -0.0353553 0.00662633
608 0.0201359 0.0113304 -0.0276793 0.00154729 -0.0150187 0.0106641 0.00385123 0.0098267 0.0263452 -0.0302177 -0.00472296 0.0341049 0.0037532 -0.0180064 0.00085582 0.0021591 0.026037 0.0113649 -0.0223746 -0.0287159 0.00783685 -0.00909002 -0.0319419 -0.000432036
228 0.0332125 0.018181 -0.00648269 0.00740816 0.011272 0.0140511 0.0106628 0.0123321 0.0206976 -0.0173267 -0.00942058 0.0143704 0.0184997 -0.0163793 0.0294936 -0.0181072 0.00336561 0.0171739 -0.0238379 -0.0203198 -0.0039034 -0.00797963 -0.0155408 -0.00646175
227 0.0205716 0.0182295 0.00716616 0.0161202 0.00885033 -0.0099898 0.0064484 0.0136442 0.0205433 -0.00802271 -0.0208192 0.0182904 0.00549648 0.00237601 0.0282965 -0.0039768 -0.00281971 0.0230733 -0.017571 -0.0218126 -0.0259214 -0.0169697 -0.0311179 0.00449979
335 0.0189714 0.00589602 -0.00314185 -0.0134398 -0.0205152 -0.0186466 -0.0056068 -0.0100718 0.00903236 -0.00252928 -0.0087908 0.0134789 0.0170258 -0.00898178 0.00203412 -0.00456746 0.00611704 0.0181825 -0.0301048 -0.0182732 -0.0256138 -0.011533 -0.0117852 0.0181482
456 0.0219296 -0.00636697 -0.00360932 0.022653 -0.0212177 -0.0156782 5.70723e-05 0.0108389 0.0234702 -0.0258927 -0.0242499 0.0281424 0.0232989 -0.0175222 -0.000133808 -0.0016881 0.0178253 0.00315371 -0.0309364 -0.0232016 -0.00519384 -0.00870246 -0.0283753 0.00625154
162 0.0352408 0.00471029 -0.0167494 -0.00328698 -0.00772006 0.00200072 0.00373387 -0.02262 0.0498439 -0.00235145 0.0102898 0.0204347 -0.00301199 -0.00712917 0.0353231 -0.0340349 0.0128851 -0.0167231 -0.0212702 -0.0412026 -0.00453048 -0.00885355 -0.00860989 0.0293465
254 0.0230241 0.00861047 -0.000161784 0.00351133 -0.00684249 -0.0195074 -0.00570685 -0.0013285 0.0074434 -0.037279 0.00922592 0.0140365 0.0151809 -0.0259852 0.0276522 0.0066212 -0.00256987 -0.00619915 -0.0240854 -0.0282007 -0.0328468 -0.015701 -0.0373303 0.0143722
606 0.0154449 -0.0085122 0.0040973 0.0167846 0.0118059 -0.0281938 -0.00223034 -0.0111525 0.015441 -0.0114709 0.00202373 0.0228819 -0.005741 -0.0333733 0.00763411 0.00769029 0.000462404 -0.00974077 -0.0224409 -0.0137968 -0.0169379 -0.0186491 -0.0208586 0.0169316
551 0.0294161 0.0122926 -0.0205991 0.0170079 0.0148715 -0.0230342 0.00154185 -0.0190639 0.018741 -0.016785 -0.0139083 0.0284785 -0.00566942 -0.000615166 0.0188993 0.00368695 0.00773819 0.0013546 0.00168077 -0.0311325 -0.0311047 -0.0325003 -0.0311197 -0.00663277
183 0.0250276 0.0231392 -0.0128316 0.0159335 0.00939093 -0.0130536 -0.0128304 -0.0161011 0.0116693 -0.00679978 0.000590837 0.0169764 0.011602 0.00854411 -0.00738137 0.00235393 0.0105244 0.00218272 -0.0123846 -0.0128931 -0.0252661 -0.0162558 -0.0189656 0.0019099
357 0.0130814 0.0129511 -0.0297134 -0.0112072 0.00244689 -0.0251153 -0.00233053 -0.00729841 0.00811364 -0.0204789 -0.00367061 0.0321164 0.00959677 -0.00196348 0.0399765 -0.0141961 0.0171066 0.00737017 -0.0318064 -0.0311081 -0.0141208 0.00148476 -0.0238137 0.0285518
154 0.0175455 0.0226905 -0.0248879 0.000228728 0.0151608 -0.017445 -0.00483071 -0.0222559 0.0239209 -0.00269486 -0.00142719 0.0397021 -0.00320567 -0.0227438 0.00134302 -0.0089029 0.0160424 0.000708209 -0.0324034 -0.00143113 -0.00196186 -0.0273276 -0.00673861 0.0230879
4 0.0193042 0.0195177 0.00953741 0.0189615 0.00422062 0.0103436 -0.0194967 0.0179579 0.00303456 0.00671198 -0.00508656 0.0244357 0.0120502 -0.0201358 0.00147761 -0.0224594 -0.00300504 0.00609815 -0.0280905 -0.00685695 -0.0179058 -0.0195861 -0.0080676 -0.00477932
275 0.0402828 0.000406271 -0.0129877 0.0241853 -0.00776462 -0.0196626 0.00801131 -0.0113505 0.0430343 -0.0259378 0.00389719 0.0140665 0.00982852 -0.0211845 0.0350062 -0.01245 -0.00280015 0.0201133 -0.00109843 -0.0283768 0.00621193 -0.00399728 0.000178145 0.032318
22 0.0365963 6.67195e-07 -0.0146889 0.013953 -0.00775391 0.00502569 -0.00149681 4.71743e-05 0.0343495 0.00340428 -0.0269117 0.0276882 0.0232048 -0.025747 0.00128938 -0.0278297 0.0268352 -0.000577403 -0.0125555 -0.027188 -0.000925398 -0.0343338 -0.0228925 -0.00579706
77 0.0237218 -0.0108179 -0.0217939 -0.00435212 -0.0199368 0.00150173 -0.0121679 0.0017485 0.0266689 0.00256757 0.0149861 0.00275113 -0.0057604 0.0104458 0.027043 -0.00605308 0.0109984 0.0206025 0.0101477 -0.0121449 0.0129334 -0.00312768 0.00756945 0.00770807
291 -0.00455959 0.00367632 -0.0240936 0.0244682 0.00302708 0.0139091 -0.0212392 0.0164789 0.0183046 0.00607575 -0.0127148 -0.00239833 -0.0126754 -0.0101939 0.00812537 0.00813973 0.00618426 0.00379159 0.0105669 -0.00478261 -0.00172254 -0.0156241 -0.0280973 0.00185902
133 0.0119543 0.00519451 -0.0197612 0.0222983 0.00409356 -0.0265642 -0.0236374 -0.0197414 0.0375405 -0.0135955 -0.00488836 -0.00330398 0.00108502 -0.0255702 0.028267 0.00642595 -0.0115169 0.00942303 -0.0122168 0.00269872 -0.0294831 0.000298179 -0.0345886 0.0237057
169 0.0263609 -0.00521877 -0.0197857 0.00939858 -0.0118188 0.00635002 0.00255085 -0.0206413 0.027193 -0.0334228 0.00158061 0.033519 0.0290404 -0.0124217 0.0145603 -0.0255168 -0.00291797 -0.00242026 -0.0198917 -0.0111477 -0.0303951 -0.0191637 -0.0124202 0.0311361
545 0.028816 0.00545689 -0.0120626 -0.0105571 -0.0178559 -0.0028477 0.00609464 -0.0136678 0.0179758 -0.0216765 -0.0213825 0.0117743 -0.000600219 -0.0114109 0.0101327 -0.0282959 -0.00241219 -0.0173588 -0.00395798 -0.00655733 -0.0098848 -0.00593089 -0.00440771 0.00625182
181 0.00179791 -0.0170949 -0.0209859 -0.00278452 -0.00632437 0.00942526 -0.00641354 0.0123893 0.0287098 -0.01602 0.014619 0.00792064 0.00980044 -0.00907004 0.0321825 -0.00388276 0.0180402 0.00404865 -0.0185421 0.00521031 0.00411534 0.000441651 -0.00554321 0.0253426
40 0.0043678 0.00662987 -0.0141366 0.0228416 -0.014468 -0.00268675 -0.00275064 -0.0214275 0.0174863 -0.0290986 -0.00621469 0.0147511 0.0211943 0.00643108 0.0189974 -0.0183155 -0.00541501 -0.00568717 0.00602135 0.00044851 -0.0192658 -0.0230202 -0.0350398 0.0103804
420 0.0421372 0.0160501 0.00162603 0.0117866 -0.0107359 -0.0284084 -0.0269947 -0.0138563 0.0132626 -0.0251045 -0.0191623 0.0137701 0.0315158 -0.0223745 0.0251186 -0.00463427 0.0149454 0.0108921 0.00500098 -0.0314163 -0.0315536 -0.0370214 -0.0207312 0.00344363
175 0.0181857 -0.00757311 -0.0158848 0.00735121 -0.0106827 -0.0201959 -0.00315262 -0.0143136 0.0328818 -0.0369331 -0.00173645 0.0268105 0.0323979 -0.0239242 0.0162572 -0.014885 0.0224873 0.0138035 -0.0343536 -0.0341815 -0.0387245 -0.00819152 -0.0345352 0.0359068
314 0.0262818 0.00435782 -0.00859285 0.0261341 -0.0137387 -0.0122404 0.010973 -0.0209778 0.0377413 4.1723e-05 -0.0102861 0.019849 0.022524 -0.0131247 0.0142462 0.00536219 -0.0104264 -0.014237 -0.00504766 -0.00781943 -0.0157914 -0.0212728 0.00276463 0.0199611
623 0.024068 0.0189527 -0.0239933 0.0142734 -0.00905767 -0.0110025 -0.00709962 -0.0021303 0.0276208 -0.0182696 -0.0169211 0.0186011 0.0263688 -0.00545831 0.0165337 -0.00703041 0.00365311 0.00260081 -0.0134907 -0.0099523 -0.0282888 -0.00908137 -0.0230721 0.0248106
91 0.0191265 0.0012912 -0.00385245 0.0238959 -0.00737804 0.00709826 -0.00501359 -0.0149028 0.0104397 -0.00963431 -0.0220695 0.0110514 0.010092 0.000170532 0.000486808 -0.00772063 -0.0103832 -0.00067916 -0.0208488 -0.0062378 0.00861664 -0.0121647 0.00521478 -0.00416508
443 0.026404 -0.0109286 -0.00688649 0.0101627 0.0169134 -0.00653226 0.00762443 0.00228268 0.0341968 -0.0327357 -0.00966926 0.00230084 0.0204159 -0.0310076 -0.0068297 0.00761407 0.00864255 0.00568743 -0.00674928 -0.0337542 -0.0206332 -0.016585 -0.0208867 0.00745808
101 0.0062478 -0.00327098 -0.0152844 0.0210687 -0.0184822 -0.0246669 0.00166987 -0.00025112 0.0440479 -0.0200245 -0.0162638 -0.00138983 0.0108274 -0.0277692 0.0284831 -0.0118016 0.00177633 -0.0167937 -0.0254463 -0.0187571 -0.0240881 0.00334603 -0.00593999 0.0112732
110 0.0314785 0.0113155 -0.035546 0.008699 -0.01485 -0.00887693 -0.016153 0.00972913 0.0388025 -0.0152147 0.000912027 0.02819 -0.00208183 -0.00330884 0.0402424 -0.0284779 0.0240726 0.0095163 -0.0135276 -0.00632786 -0.00120536 -0.0299565 -0.0301418 0.00900159
408 0.0300196 -0.00893978 -0.0287977 0.0172968 -0.00916237 -0.026531 -0.00609188 0.00438699 0.017043 -0.0211858 -0.0171899 0.0454709 0.0300478 -0.00728018 0.0129618 -0.00751403 -0.0102413 -0.00215824 -0.0268727 -0.0350813 -0.00197716 -0.0260809 -0.0181706 0.00741014
629 0.0382066 0.00285101 -0.00903054 -0.0102964 0.0189999 0.00479998 -0.0225421 -0.0227079 0.0159888 -0.0399616 0.005718 0.0194727 0.0109106 -0.000945013 0.0388648 -0.0231768 0.0221135 -0.00939926 -0.0120877 -0.0293524 -0.00797649 -0.0206606 -0.026584 0.0175389
234 0.0299483 -0.0115981 -0.00745244 0.00647458 0.0112375 -0.0164618 -0.00919635 -0.0220912 0.020326 -0.00853552 -0.0178971 0.00306653 -0.0054653 -0.00698943 0.0372592 -0.00894805 -0.000525369 0.013028 -0.0182097 0.00143541 0.00209111 -0.0136466 -0.00534351 0.0328374
62 0.0169153 0.0221405 -0.0140829 -0.0173359 -0.0148232 -0.00701283 0.0057828 0.0151855 0.0306812 -0.0131707 0.00360916 0.0273285 0.014246 -0.022814 -0.00809226 0.01407 0.00738464 -0.010581 0.00414329 -0.0137771 -5.20402e-05 -0.0156097 -0.0210266 -0.00573217
487 0.0181194 0.00689869 -0.0220623 -0.0107018 0.020405 0.00272356 -0.0216227 -0.0105803 0.0351279 -0.0227763 -0.004413 0.00111286 0.0131456 -0.0133169 0.00483982 0.0115517 0.0237488 -0.011929 0.0041801 -0.0150831 -0.0141081 -0.0243628 0.00146083 0.0111989
