531 24
116 0.126938 0.0813863 -0.103207 0.00939939 0.334254 -0.0431014 -0.0127042 0.200353 -0.0366512 0.0793151 0.242926 0.136238 -0.169709 -0.297864 -0.0988665 0.331447 -0.236463 0.131695 0.114972 -0.0357107 0.189162 -0.312874 0.0493486 -0.119553
524 0.0930743 0.0428075 -0.0485528 0.00930071 0.178033 -0.0331975 -0.0108679 0.102731 -0.030049 0.0504571 0.121017 0.0898386 -0.0920791 -0.14863 -0.0476742 0.179162 -0.111149 0.0693046 0.0565361 -0.0193083 0.0968508 -0.179562 0.0197881 -0.0430699
72 0.0433002 0.0567203 -0.0282311 0.00155238 0.146816 0.00607978 -0.0277037 0.098565 -0.0331216 0.0343778 0.0835398 0.0578926 -0.0830506 -0.126502 -0.0248164 0.133533 -0.107023 0.0444065 0.0519878 -0.029925 0.0938596 -0.12638 0.0119164 -0.055546
58 0.185201 0.141763 -0.112112 0.0485379 0.457511 -0.0379751 -0.0180824 0.270812 -0.0544037 0.107613 0.330601 0.210753 -0.195677 -0.348357 -0.131932 0.425193 -0.321542 0.174026 0.17477 -0.0431239 0.270959 -0.415348 0.0533638 -0.131137
392 0.088534 0.0556304 -0.0324415 0.0152713 0.168458 -0.0245589 -0.0114749 0.11838 -0.0275103 0.0333822 0.15029 0.103962 -0.0736796 -0.16327 -0.0432471 0.167232 -0.133367 0.0689836 0.0600856 -0.00938135 0.12303 -0.166925 0.0242465 -0.0733525
390 0.124597 0.0943336 -0.0939968 0.0273052 0.328483 -0.0262746 -0.00597191 0.193656 -0.054649 0.0633889 0.210409 0.145188 -0.147484 -0.26147 -0.11773 0.264482 -0.214893 0.12233 0.109904 -0.0269126 0.17521 -0.277851 0.062655 -0.0862435
286 0.119063 0.112386 -0.0865965 0.00885232 0.321977 -0.00284617 -0.0399308 0.200464 -0.0656861 0.0683672 0.227913 0.16435 -0.137156 -0.285748 -0.122414 0.295979 -0.234389 0.133161 0.128196 -0.0350089 0.181252 -0.309394 0.0458227 -0.125401
411 0.0766413 0.0594986 -0.0614755 0.0242245 0.172621 -0.0154581 -0.00708393 0.118275 -0.0163479 0.0222028 0.120565 0.0999285 -0.0877938 -0.1702 -0.0795284 0.148455 -0.109654 0.095175 0.069623 -0.0426812 0.120372 -0.162001 0.036082 -0.0641533
393 0.128825 0.121181 -0.0728387 0.0383418 0.363849 -0.0406975 -0.0107263 0.197768 -0.0554929 0.0896114 0.257157 0.181594 -0.189165 -0.285721 -0.135996 0.321872 -0.273293 0.138037 0.124032 -0.0431051 0.234867 -0.353449 0.0479154 -0.122538
496 0.111408 0.0516347 -0.0768743 0.0302402 0.262119 -0.0176681 -0.0341822 0.142574 -0.0281919 0.0474949 0.152859 0.0933299 -0.100335 -0.220971 -0.0798794 0.207223 -0.19076 0.0961732 0.076074 -0.0275493 0.141707 -0.227603 0.0223768 -0.0643545
497 0.0866885 0.0615992 -0.0713983 0.0262192 0.206281 -0.00791076 -0.0225302 0.111953 -0.0127727 0.0262907 0.136284 0.106566 -0.105903 -0.183442 -0.0573879 0.188126 -0.16269 0.0772132 0.0896355 -0.0466574 0.150765 -0.222547 0.0294698 -0.0662185
223 0.0750408 0.0555981 -0.0515731 0.00624751 0.149044 -0.0276154 -0.0145025 0.0963687 -0.0373715 0.0132303 0.119452 0.0854778 -0.0819128 -0.130426 -0.0404838 0.151564 -0.140465 0.0605132 0.0401113 -0.0229457 0.117801 -0.139957 0.0202764 -0.0737189
191 0.143552 0.128501 -0.105872 0.0254539 0.406699 -0.00528321 -0.0117168 0.227224 -0.0682168 0.0850634 0.270932 0.158031 -0.180394 -0.345695 -0.144971 0.374458 -0.292556 0.185251 0.134523 -0.0347188 0.23202 -0.356634 0.0818576 -0.109773
158 0.128204 0.114601 -0.0750211 0.0441164 0.318928 0.00413096 -0.0341342 0.162117 -0.0256751 0.0516901 0.197469 0.152448 -0.1368 -0.232985 -0.115969 0.28645 -0.221897 0.113393 0.0893447 -0.02557 0.194948 -0.292979 0.0516813 -0.105501
338 0.0343996 0.0258062 -0.0050415 -0.0148254 0.0536483 -0.0198097 0.0198468 0.0599325 -0.0270165 0.0142312 0.0733476 0.0405357 -0.0143327 -0.0727544 -0.0420121 0.0502163 -0.0687853 0.0390808 0.0462214 -0.0170591 0.0540459 -0.0885983 0.0281043 -0.0263063
151 0.526785 0.407072 -0.343708 0.0779136 1.20867 -0.140203 -0.0625312 0.684092 -0.201676 0.281809 0.892743 0.548869 -0.55476 -1.0287 -0.45698 1.0688 -0.854392 0.516482 0.435464 -0.140097 0.738808 -1.13291 0.235377 -0.428542
326 0.0301081 0.0316492 -0.00212682 0.00196748 0.0657238 -0.0121965 0.017541 0.0574803 0.0050146 0.0341077 0.0668264 0.0229812 -0.0401031 -0.0703251 -0.0470205 0.0520841 -0.0481612 0.0133275 0.0309005 0.0134734 0.0342367 -0.0795517 0.0249208 -0.0387318
401 0.108111 0.0600592 -0.0726541 0.02699 0.239669 0.0016483 0.00143497 0.132327 -0.0527584 0.0693631 0.155783 0.110923 -0.104708 -0.214855 -0.0800295 0.214151 -0.174359 0.116245 0.0820556 -0.0102954 0.12893 -0.209216 0.0575201 -0.0848389
176 0.0554141 0.060976 -0.0515363 0.00668709 0.200041 0.00920426 -0.00387577 0.112344 -0.0289126 0.0495706 0.136806 0.0820805 -0.096048 -0.155436 -0.0463769 0.174675 -0.156944 0.085458 0.0790505 -0.0113723 0.105316 -0.173675 0.0498202 -0.0496091
349 0.0408404 0.0103066 -0.037431 0.0171072 0.0845234 -0.0113581 0.0189883 0.0447318 -0.00726535 0.00609061 0.0705936 0.06315 -0.0587567 -0.0617805 -0.0538597 0.0776132 -0.0756042 0.0507366 0.0450877 -0.0160566 0.0514305 -0.0764799 0.00764157 -0.0453551
354 0.0539519 0.02458 -0.0396116 -0.00265677 0.0530264 -0.0202697 0.00464134 0.0296563 -0.00201021 0.0302753 0.0406444 0.0279315 -0.0495077 -0.0717604 -0.0207724 0.0699899 -0.0604656 0.0501215 0.0358065 0.00238509 0.0471179 -0.0745818 0.0355657 -0.0263993
488 0.090723 0.0878745 -0.072263 0.0325102 0.250746 -0.0221218 -0.0343169 0.128296 -0.0600984 0.0625751 0.167859 0.0935575 -0.129643 -0.196274 -0.0688675 0.236452 -0.170662 0.0928721 0.0988667 -0.0409099 0.148159 -0.231148 0.0489419 -0.0920138
102 0.100907 0.084124 -0.0489277 0.0174343 0.202079 -0.0122973 -0.0160128 0.124245 -0.0389779 0.0217523 0.132313 0.105305 -0.100313 -0.16767 -0.0765143 0.200616 -0.132292 0.103576 0.0628013 -0.0231858 0.138892 -0.211773 0.0253065 -0.0601661
247 0.0910692 0.0961467 -0.0616427 0.0330399 0.258494 0.00329531 0.0005649 0.158994 -0.0218256 0.0341128 0.18772 0.122399 -0.128327 -0.190269 -0.0585895 0.241715 -0.191646 0.090479 0.0642047 -0.0517171 0.1625 -0.233518 0.036612 -0.0676706
248 0.0822134 0.0941192 -0.0655774 0.0429397 0.247031 0.001606 -0.0285269 0.13997 -0.0227955 0.0549953 0.195225 0.128166 -0.11815 -0.208792 -0.10102 0.231965 -0.191375 0.106456 0.0845081 -0.0314626 0.138362 -0.209548 0.0470265 -0.0772573
453 0.0919168 0.0807475 -0.0311109 0.00493368 0.207925 -0.0286208 0.000172174 0.113823 -0.0251426 0.0197767 0.137558 0.0882722 -0.0877816 -0.163943 -0.0749301 0.200961 -0.147137 0.0653656 0.0477046 -0.0301685 0.108788 -0.162919 0.0185999 -0.0774827
451 0.136077 0.121897 -0.0788836 0.0317119 0.388492 -0.0281541 -0.0283924 0.236646 -0.07006 0.0909574 0.254355 0.146983 -0.171858 -0.322055 -0.107467 0.329554 -0.263921 0.177536 0.151395 -0.0667889 0.240103 -0.326892 0.0495401 -0.137576
454 0.0679286 0.0522836 -0.051978 0.0142911 0.218825 -0.0185664 -0.00102854 0.116741 -0.0448507 0.0377303 0.153419 0.0902739 -0.112718 -0.171163 -0.0795298 0.182664 -0.135223 0.0982647 0.0544399 -0.0168398 0.115367 -0.179764 0.0442641 -0.0798492
59 0.105847 0.058156 -0.0655249 0.0179181 0.2447 0.00382728 -0.0208207 0.141797 -0.0353459 0.0493072 0.166292 0.0931517 -0.112047 -0.180727 -0.0668585 0.209135 -0.158546 0.0857061 0.090444 -0.0358974 0.132315 -0.225359 0.0312176 -0.0705247
433 0.185033 0.152722 -0.110776 0.0484217 0.528535 -0.0520049 -0.0163565 0.312618 -0.0606207 0.112583 0.347734 0.226912 -0.257845 -0.42594 -0.167526 0.478671 -0.378655 0.205265 0.180309 -0.0437306 0.321501 -0.45332 0.0699348 -0.190614
24 0.13221 0.0911418 -0.100699 0.0136718 0.325843 -0.0298507 -0.0203859 0.200741 -0.0323697 0.0774282 0.248311 0.167864 -0.159546 -0.259115 -0.0987121 0.289501 -0.229738 0.118799 0.121292 -0.0232599 0.171798 -0.307827 0.0457954 -0.104247
214 0.163691 0.121887 -0.105224 0.0162717 0.392638 -0.0106098 -0.0423609 0.21559 -0.0606772 0.0993779 0.276256 0.179361 -0.181164 -0.322705 -0.144828 0.375148 -0.302991 0.173003 0.121424 -0.0694741 0.224333 -0.360497 0.0468519 -0.141337
63 0.179237 0.123646 -0.114738 0.0353935 0.429061 -0.0408491 -0.0486688 0.261691 -0.0839053 0.0711864 0.303287 0.22102 -0.203892 -0.388651 -0.146639 0.42348 -0.313125 0.201123 0.139921 -0.0534859 0.276525 -0.410426 0.0733191 -0.146203
14 0.0436112 0.0619919 -0.0160093 0.000699355 0.128389 -0.0277111 -0.0150519 0.0801865 -0.0410194 0.0247546 0.0823426 0.0570663 -0.086968 -0.103755 -0.0468706 0.152487 -0.120653 0.0749448 0.0334588 -0.0304298 0.103668 -0.115291 0.0118102 -0.0520921
259 0.0619742 0.0314118 -0.0448406 0.00959631 0.145639 -0.00487905 -0.031656 0.0731358 -0.0361916 0.0436141 0.0996696 0.0514499 -0.0618647 -0.135268 -0.0619231 0.15873 -0.113929 0.0752655 0.0451382 -0.0132961 0.0764641 -0.14243 0.0139394 -0.0548663
467 0.126305 0.101262 -0.113708 0.0410246 0.377726 -0.0284056 -0.0345331 0.218859 -0.0526281 0.0887304 0.248155 0.180122 -0.17168 -0.314025 -0.107335 0.347226 -0.263399 0.147019 0.1301 -0.0451378 0.205441 -0.355234 0.0694375 -0.140778
412 0.0932941 0.0966218 -0.067065 0.0135345 0.254417 -0.00977881 -0.0125768 0.168966 -0.0236291 0.0692843 0.180181 0.126385 -0.10206 -0.232006 -0.081726 0.258027 -0.18008 0.104517 0.111203 -0.0225313 0.130576 -0.234151 0.057974 -0.0660776
293 0.12045 0.0997658 -0.0673587 0.0410782 0.285855 -0.019771 -0.025847 0.148793 -0.0308501 0.0502662 0.189648 0.143678 -0.130529 -0.251516 -0.076634 0.243138 -0.193887 0.110795 0.0858691 -0.0536002 0.162083 -0.25637 0.0457788 -0.0894321
413 0.0294888 0.0171437 -0.0477318 0.0267827 0.141436 -0.0261064 -0.0265206 0.0620858 -0.0343629 0.00395473 0.075847 0.0712414 -0.0767785 -0.106212 -0.0363242 0.0925941 -0.0855232 0.0577387 0.056748 -0.000162367 0.0859043 -0.109552 0.0311704 -0.041879
56 0.123541 0.0970276 -0.0538242 0.0349338 0.296508 -0.00356378 -0.00784946 0.164802 -0.0640359 0.045043 0.214075 0.139036 -0.139569 -0.235159 -0.0879656 0.263584 -0.222514 0.138989 0.116554 -0.0186715 0.177257 -0.24707 0.0479918 -0.109799
499 0.0365199 0.0218796 -0.0443251 0.002603 0.124815 0.0124926 0.000863536 0.0998589 -0.0175558 0.0451722 0.0879328 0.059924 -0.0621018 -0.105207 -0.0262038 0.122601 -0.0789742 0.0400327 0.0587031 -0.0375256 0.095913 -0.130859 0.0317964 -0.0353182
315 0.24739 0.180201 -0.160758 0.0609931 0.602567 -0.0477792 -0.0506318 0.347873 -0.0968913 0.111196 0.424062 0.255197 -0.293582 -0.491145 -0.217304 0.554611 -0.431008 0.251707 0.188575 -0.0620246 0.339219 -0.554734 0.106674 -0.216026
284 0.0789753 0.0658165 -0.0424931 0.0160046 0.206804 -0.000979997 -0.0291278 0.140893 -0.0341215 0.030295 0.164522 0.10778 -0.0778824 -0.1531 -0.0644131 0.171071 -0.170582 0.0943395 0.0821538 -0.0061312 0.11449 -0.201934 0.0260233 -0.09006
52 0.110352 0.102645 -0.0748395 0.0185129 0.352363 -0.0132318 -0.0162826 0.179154 -0.0380528 0.053625 0.250249 0.169768 -0.170695 -0.278569 -0.100389 0.320882 -0.252171 0.137403 0.127676 -0.0542252 0.203272 -0.30306 0.0632731 -0.118159
137 0.069531 0.0520422 -0.0465693 0.013671 0.220866 -0.0117499 -0.0196582 0.120894 -0.0467063 0.0294926 0.14419 0.084043 -0.0919374 -0.15892 -0.0819188 0.206091 -0.138486 0.0902714 0.0927694 -0.00804545 0.120442 -0.182787 0.0177898 -0.0814274
47 0.15321 0.139725 -0.0899711 0.0451485 0.402907 -0.00846972 -0.0179611 0.218183 -0.0769061 0.0833071 0.2616 0.165393 -0.189401 -0.335117 -0.136385 0.380128 -0.29099 0.179532 0.161707 -0.0568648 0.240532 -0.354158 0.0489962 -0.139596
157 0.122726 0.10105 -0.098218 0.0113199 0.312655 0.00167133 -0.00475111 0.20472 -0.0318957 0.0828027 0.223582 0.157059 -0.142353 -0.281862 -0.129551 0.299551 -0.257974 0.146719 0.125243 -0.051173 0.199301 -0.3151 0.0360966 -0.127439
199 0.0739083 0.0723439 -0.0626007 0.00449231 0.217927 -0.0312847 -0.0368549 0.131731 -0.0346351 0.0410659 0.173696 0.0855547 -0.129619 -0.215538 -0.0879886 0.233596 -0.184502 0.119638 0.0669981 -0.0245607 0.136481 -0.208377 0.053129 -0.0865724
425 0.0984992 0.0707015 -0.0646625 0.0317434 0.240448 -0.0258222 -0.0277166 0.145603 -0.0346409 0.036311 0.166023 0.116548 -0.110063 -0.191434 -0.062621 0.229404 -0.180351 0.0884644 0.092325 -0.0471536 0.16492 -0.205458 0.0555488 -0.0953852
426 0.0511693 0.051857 -0.0565428 0.0193423 0.187734 -0.0172723 -0.00738722 0.121124 -0.00917681 0.0320658 0.141063 0.0998734 -0.0807476 -0.16657 -0.0752148 0.178153 -0.13181 0.058796 0.0560775 -0.0252003 0.125842 -0.179863 0.0395026 -0.0559993
150 0.0240031 0.0104586 -0.0215397 0.0144821 0.0313409 -0.0149344 0.00385656 0.0254464 -0.00769294 -0.00278064 0.0235135 0.0171294 -0.000151959 -0.0239105 -0.0224665 0.0323507 -0.0366855 -0.000475354 -0.000977013 -0.0121404 0.03793 -0.0349282 0.030032 0.000869415
363 0.0172022 0.00117677 -0.0121795 -0.0196555 0.0466392 0.00741236 0.00117504 0.0063043 -0.0272979 -0.00144429 0.0192516 0.0256951 -0.0216154 -0.0517855 -0.0111624 0.0570731 -0.0149298 0.0253304 0.00482473 -0.00348218 0.041782 -0.046048 0.0133366 -0.00994981
456 0.0818511 0.0747367 -0.0306641 -0.00449906 0.192996 -0.000559761 0.00374392 0.117426 -0.0362063 0.0509921 0.116103 0.0807941 -0.0759715 -0.154499 -0.0629848 0.180164 -0.141481 0.0700426 0.0731687 -0.0325448 0.101193 -0.183852 0.044382 -0.0665153
406 0.123567 0.111437 -0.0575047 0.0306422 0.292615 -0.0132269 -0.0270304 0.163935 -0.0411931 0.0611638 0.233235 0.158629 -0.124725 -0.24816 -0.0868296 0.295434 -0.200076 0.111081 0.123128 -0.0373783 0.200044 -0.256781 0.0356165 -0.108951
216 0.019367 0.0320376 -0.0054302 0.0135439 0.121422 0.0111384 -0.0261697 0.0544676 -0.00227957 0.0114401 0.0694521 0.0323304 -0.0585313 -0.106204 -0.0234251 0.101006 -0.0604034 0.0367652 0.0514264 0.00474679 0.0415293 -0.0802713 0.0315888 -0.0423825
22 0.194128 0.171484 -0.132752 0.0445331 0.52012 -0.0404074 -0.0258432 0.304375 -0.0731947 0.0960351 0.369101 0.226212 -0.22758 -0.447043 -0.186305 0.501106 -0.375652 0.220851 0.196026 -0.0830762 0.299131 -0.470691 0.078479 -0.192975
111 0.128811 0.112679 -0.0901805 0.0246644 0.30996 -0.0301747 -0.0248797 0.188534 -0.0571101 0.0778205 0.250707 0.15036 -0.171295 -0.289209 -0.0963013 0.318405 -0.223104 0.140793 0.118346 -0.0633945 0.201069 -0.293525 0.0484029 -0.0969281
177 0.0829151 0.0775089 -0.0480886 0.00215726 0.221478 -0.0151835 -0.0113862 0.122288 -0.0475985 0.0353351 0.138115 0.0953117 -0.118086 -0.191326 -0.0891344 0.221311 -0.166542 0.107283 0.0906927 -0.0411891 0.136183 -0.1948 0.0218657 -0.060617
212 0.13037 0.077236 -0.0607339 0.0245838 0.300727 -0.0346252 -0.0364929 0.195013 -0.053552 0.0810922 0.200219 0.154288 -0.13349 -0.269124 -0.112041 0.300334 -0.205131 0.130985 0.122743 -0.0502899 0.190775 -0.297445 0.038662 -0.101134
12 0.177205 0.125791 -0.0985261 0.0234588 0.40232 -0.0206646 -0.0343946 0.24127 -0.0677264 0.0896012 0.300484 0.189247 -0.188548 -0.323047 -0.13525 0.36603 -0.275105 0.155128 0.13833 -0.040561 0.218567 -0.350338 0.047194 -0.121138
8 0.0764425 0.0574765 -0.0372965 0.0297701 0.150685 -0.0228716 0.0076226 0.0903332 -0.028205 0.0440529 0.112877 0.0609864 -0.0801453 -0.149987 -0.0684688 0.162489 -0.123251 0.0780934 0.0408533 -0.0317877 0.0947394 -0.150297 0.0127146 -0.0403531
490 0.0537341 0.0458555 -0.0540878 0.013791 0.16879 -0.00999082 -0.00847519 0.0866507 -0.0134962 0.0427125 0.122124 0.0681698 -0.0855185 -0.14406 -0.0575117 0.12328 -0.111904 0.0732654 0.0418474 -0.0388222 0.083012 -0.126997 0.0379592 -0.0629642
460 0.12485 0.0779563 -0.0821027 0.0392007 0.327521 -0.0219258 -0.031532 0.188778 -0.0267712 0.0519955 0.235665 0.147502 -0.138308 -0.278436 -0.0847792 0.293374 -0.225879 0.114681 0.129225 -0.0408563 0.164383 -0.27578 0.0317383 -0.103542
459 0.0667539 0.046728 -0.029276 0.0142445 0.193631 0.00624134 -0.007232 0.109971 -0.0210191 0.0238578 0.132414 0.101119 -0.0701898 -0.171484 -0.0576175 0.177985 -0.149827 0.0641302 0.0764519 -0.0310406 0.0970082 -0.18347 0.0154941 -0.0830526
334 0.03448 0.0136834 -0.0245262 0.00728382 0.0470109 -0.0226948 -0.0164576 0.0158561 0.00263455 0.010502 0.0442728 0.0386491 -0.0201485 -0.047636 -0.0279261 0.0495132 -0.0507175 0.0184633 0.0177509 -0.0142259 0.0349802 -0.0576193 0.0201809 -0.0335156
360 0.0306096 0.0356429 -0.0321 -0.0162135 0.0674081 -0.00198936 -0.000623936 0.0524998 -0.0259601 0.0240813 0.0555676 0.0394644 -0.0138731 -0.0443269 -0.0474994 0.0387952 -0.0477099 0.0234586 0.0332989 -0.0239095 0.0218026 -0.0743764 0.0184868 -0.0124951
193 0.0843322 0.0908067 -0.0830726 0.00486741 0.246873 0.00400942 -0.00328937 0.153237 -0.0272451 0.0441411 0.175783 0.114444 -0.102082 -0.233084 -0.0975168 0.255705 -0.168098 0.0933785 0.0808147 -0.0208506 0.161366 -0.242766 0.0334336 -0.0921434
192 0.121543 0.0923851 -0.0546603 0.0442693 0.253226 0.0076492 -0.0357556 0.130469 -0.0153589 0.0475839 0.170104 0.100968 -0.117099 -0.205948 -0.0981819 0.234119 -0.187449 0.115509 0.0749866 -0.0204902 0.162098 -0.251833 0.0572549 -0.108852
145 0.0776149 0.0959696 -0.0678994 0.0293067 0.251885 -0.00206822 -0.0315207 0.159106 -0.0237493 0.0567671 0.189478 0.124299 -0.0978499 -0.196285 -0.0738114 0.225611 -0.165031 0.100896 0.0881458 -0.0415521 0.148791 -0.236029 0.0186166 -0.0695698
20 0.161621 0.13156 -0.106982 0.0413154 0.374171 -0.0422025 -0.0130707 0.209176 -0.0503456 0.0910328 0.252915 0.187784 -0.157026 -0.313071 -0.115784 0.374539 -0.278421 0.169069 0.144304 -0.0602601 0.204092 -0.336203 0.0651051 -0.117477
290 0.0596157 0.0567307 -0.0174509 0.012644 0.123216 -0.00234351 -0.012486 0.0492461 -0.0358604 0.0140782 0.085181 0.0414734 -0.0766622 -0.0892062 -0.0358084 0.12188 -0.106648 0.0443495 0.0264374 -0.0292525 0.0687882 -0.122113 0.032991 -0.0303944
164 0.075666 0.044556 -0.0392481 0.031841 0.173095 -0.0137761 -0.0230715 0.0913213 -0.0140065 0.0272347 0.133465 0.0745271 -0.0775672 -0.155856 -0.0496401 0.177599 -0.110999 0.0881175 0.0400788 -0.0367908 0.11439 -0.175589 0.0141437 -0.0672373
163 0.06826 0.0536978 -0.0694845 0.0189418 0.243342 -0.0171098 -0.006475 0.150627 -0.0223177 0.0351708 0.137803 0.0916102 -0.124748 -0.204294 -0.0538839 0.189943 -0.180696 0.0808464 0.0658653 -0.0440233 0.132553 -0.228871 0.024263 -0.0947337
348 0.0538795 0.0353911 -0.0066578 0.00766957 0.0857292 -0.0164015 0.0106914 0.0485523 -0.0233798 0.0378099 0.0703128 0.0630076 -0.0302067 -0.0637654 -0.0424139 0.0655781 -0.045517 0.023756 0.0468802 -0.0192348 0.0549868 -0.0787181 0.00247038 -0.0196632
341 0.0409471 -0.0024942 -0.0272845 0.00648396 0.036981 -0.0126402 -0.00268153 0.0136544 -0.0208322 0.00344943 0.042968 0.0234641 -0.0336026 -0.0564552 -0.0330685 0.0376163 -0.0482283 0.0210205 0.020944 0.0158161 0.0275875 -0.045331 -0.00560639 0.00393853
129 0.029856 0.0459213 -0.0523087 0.0165221 0.109593 0.00915373 -0.0273833 0.0889132 -0.00987073 0.0162865 0.104171 0.0610999 -0.0541529 -0.122418 -0.0288096 0.11866 -0.106197 0.0675018 0.060635 -0.00596955 0.0651313 -0.125266 -0.00167866 -0.0432631
128 0.129322 0.0941267 -0.0968512 0.0416552 0.305216 -0.00844324 -0.0257513 0.176502 -0.0625161 0.0410017 0.211911 0.149246 -0.149209 -0.247801 -0.102169 0.25978 -0.209879 0.119524 0.101025 -0.057957 0.186211 -0.270226 0.056279 -0.104902
243 0.0593572 0.0495351 -0.0253269 0.0207517 0.132704 -0.0278014 -0.023467 0.0987177 -0.0361479 0.0133808 0.114965 0.067425 -0.0814545 -0.143452 -0.0451168 0.144567 -0.0879939 0.0699256 0.0703617 -0.0356802 0.0866149 -0.119121 0.0187675 -0.0520471
437 0.0450257 0.0591898 -0.0407444 -0.00370463 0.164229 -0.00179356 -0.0253366 0.0633184 -0.0333201 0.0369771 0.122702 0.0707355 -0.0852385 -0.130639 -0.0381654 0.118726 -0.0948618 0.0559984 0.0461744 -0.0274781 0.0907609 -0.119182 0.0129705 -0.0518626
435 0.0399957 0.0299532 -0.0446932 0.00460423 0.151284 -0.000988668 -0.000428844 0.0672925 -0.00997038 0.0367457 0.0905458 0.0744955 -0.0497846 -0.123936 -0.0212115 0.105677 -0.0978902 0.0610684 0.0575832 0.00341075 0.0922954 -0.120539 0.0284535 -0.0484866
517 0.0526993 0.0333163 -0.0126408 -0.000706737 0.100595 -0.00260528 -0.0109914 0.068203 -0.00920401 0.00939737 0.0830535 0.0255403 -0.041138 -0.085254 -0.032419 0.0865342 -0.0600433 0.055422 0.0309299 -0.0114864 0.071508 -0.0806053 0.0233048 -0.013754
510 0.279903 0.196647 -0.181424 0.0383409 0.717013 -0.0409328 -0.0433684 0.402049 -0.100493 0.133446 0.521787 0.315471 -0.345315 -0.600586 -0.215847 0.646786 -0.496087 0.287561 0.235659 -0.116591 0.418203 -0.641056 0.133494 -0.208869
135 0.0897493 0.0515514 -0.0697001 0.0235572 0.22996 -0.0064943 -0.0280592 0.140254 -0.0332278 0.0663706 0.174885 0.105594 -0.111884 -0.196651 -0.062589 0.22392 -0.17705 0.0787152 0.100289 -0.0451139 0.119043 -0.209317 0.0182077 -0.08486
357 0.0389264 0.0062172 -0.0249335 -0.0138919 0.0544151 0.00957312 0.0183129 0.0214233 -0.0107547 0.0140092 0.0665973 0.0503471 -0.0469403 -0.0636138 -0.0109954 0.0354377 -0.0600591 0.0264489 0.0412729 0.0118206 0.0607917 -0.0526015 -0.00281157 -0.00601238
364 0.0497539 0.0201006 -0.0305859 0.00968469 0.0744711 -0.0282788 -0.0138809 0.0398021 -0.00334808 0.022224 0.0789253 0.0426231 -0.0564473 -0.0637449 -0.0228161 0.0813362 -0.0429762 0.0338539 0.0351466 -0.00822547 0.0716517 -0.096826 0.0327928 -0.0319974
272 0.113236 0.0792348 -0.0602372 0.0222748 0.270044 -0.0128439 -0.0171145 0.175104 -0.0453883 0.0501694 0.205959 0.110738 -0.148142 -0.236926 -0.102042 0.275341 -0.221605 0.103783 0.0864741 -0.0558361 0.163697 -0.286787 0.0262956 -0.117772
240 0.0646144 0.0549738 -0.0640163 0.00412189 0.2074 -0.00605591 -0.00374202 0.12003 -0.0200281 0.0422497 0.162405 0.0980757 -0.092364 -0.184698 -0.0701656 0.17449 -0.133907 0.0944838 0.0881806 -0.0353327 0.128726 -0.183424 0.0302502 -0.0802209
187 0.138735 0.0883147 -0.085489 0.0177636 0.308056 -0.0145437 -0.0363782 0.202534 -0.0690229 0.0588052 0.23464 0.137556 -0.133842 -0.249033 -0.112513 0.301976 -0.227589 0.137688 0.105211 -0.0385871 0.195463 -0.321326 0.040628 -0.111924
288 0.0720307 0.068757 -0.0765644 0.0279414 0.249656 -0.00375332 -0.0250394 0.132935 -0.046352 0.0379271 0.175417 0.0917385 -0.100507 -0.198999 -0.0752371 0.237446 -0.178451 0.103239 0.0706168 -0.0481315 0.141391 -0.230755 0.0262173 -0.0921231
289 0.107231 0.0639713 -0.0731159 0.00794331 0.251636 -0.0101219 -0.0230132 0.14222 -0.0424138 0.0455915 0.202699 0.104606 -0.126361 -0.197766 -0.0838566 0.246368 -0.171179 0.104198 0.101721 -0.0468347 0.165985 -0.224397 0.0466422 -0.105901
291 0.0502303 0.0591179 -0.023993 -0.00436519 0.157868 -0.00391248 -0.0275184 0.0924572 -0.0352582 0.029595 0.11134 0.0674011 -0.088999 -0.112629 -0.0431572 0.123469 -0.0947247 0.0545605 0.0334955 -0.0367382 0.0999769 -0.153609 0.032115 -0.0389422
234 0.117704 0.0684715 -0.0554105 0.0252858 0.259405 -0.00202382 -0.00448312 0.143014 -0.0607727 0.0445269 0.198425 0.103766 -0.120875 -0.209325 -0.0901863 0.233451 -0.17778 0.126808 0.0745408 -0.0465124 0.147807 -0.240093 0.0206107 -0.105972
446 0.104312 0.0902117 -0.0551316 0.00834826 0.217646 0.00248158 -0.024595 0.134636 -0.0208303 0.0556781 0.16752 0.11444 -0.1202 -0.207242 -0.0841538 0.210387 -0.163176 0.0969361 0.0856987 -0.0269516 0.140123 -0.205334 0.0251962 -0.0722494
447 0.0985262 0.0764355 -0.0627385 0.0322817 0.216835 -0.0296561 -0.028773 0.131056 -0.032931 0.0531965 0.132284 0.0806222 -0.0884022 -0.182798 -0.0836938 0.170465 -0.147213 0.0893044 0.0605886 -0.0456785 0.110941 -0.194721 0.0432235 -0.0511258
359 0.0428092 0.0473333 -0.0408364 0.00629624 0.0793817 -0.0328651 0.00319204 0.0397534 -0.00222185 0.00213463 0.0469562 0.0467681 -0.0493225 -0.082532 -0.0393615 0.0684113 -0.0724823 0.0134892 0.0423407 0.00571206 0.031824 -0.070453 0.0265484 -0.0340649
418 0.091844 0.0513487 -0.0438861 0.0320559 0.20169 -0.018479 -0.0241786 0.0952059 -0.0368689 0.0464888 0.13741 0.0867035 -0.102932 -0.171907 -0.0775846 0.160482 -0.119034 0.0854302 0.0885193 -0.0401393 0.119819 -0.195588 0.0151017 -0.0476893
16 0.261694 0.189001 -0.18885 0.0637082 0.70217 -0.0401999 -0.0226793 0.38402 -0.10769 0.148797 0.488902 0.283116 -0.331283 -0.557281 -0.205021 0.617306 -0.489828 0.30512 0.254966 -0.104032 0.397678 -0.633175 0.0901544 -0.209575
15 0.0527504 0.0445486 -0.0423796 0.0250574 0.131178 -0.0276681 -0.0123325 0.0727024 -0.0242307 0.0146294 0.121366 0.0640775 -0.0581421 -0.126053 -0.0468959 0.144356 -0.113444 0.050197 0.0406449 -0.00741949 0.108111 -0.151865 0.0470286 -0.0318306
255 0.0547927 0.0690794 -0.0504569 0.0256949 0.144895 0.00378516 0.00171836 0.092673 -0.0125764 0.0252571 0.129304 0.0848119 -0.0680247 -0.151812 -0.047855 0.132785 -0.10028 0.0826578 0.0561228 -0.00168507 0.0743358 -0.125241 0.0278499 -0.0606449
190 0.0351953 0.0448938 -0.0319493 0.0202411 0.125405 -0.0238165 -0.020015 0.0893629 -0.0416194 0.037222 0.0858632 0.0524557 -0.0881306 -0.129035 -0.0316716 0.144859 -0.095003 0.0754643 0.0512528 -0.014033 0.0723453 -0.129772 0.0426475 -0.058164
474 0.10344 0.0939818 -0.0658574 0.0029765 0.237669 -0.0339298 -0.0352873 0.142265 -0.040872 0.0407653 0.176919 0.11497 -0.116717 -0.215404 -0.0605124 0.2331 -0.166792 0.0859025 0.10263 -0.0311713 0.154404 -0.222611 0.0173308 -0.0803576
171 0.0750312 0.0532795 -0.0586453 0.00972372 0.244209 -0.0369073 -0.0054446 0.147686 -0.0387611 0.0411558 0.172593 0.0855283 -0.0928383 -0.188635 -0.0602129 0.227474 -0.15964 0.0986705 0.0949581 -0.0374261 0.1473 -0.197099 0.0282156 -0.09581
172 0.0844026 0.067582 -0.0490894 0.0153441 0.258061 -0.0030277 -0.0243911 0.15935 -0.059607 0.0577357 0.182784 0.0996708 -0.12347 -0.228629 -0.075727 0.216247 -0.175664 0.084896 0.0980194 -0.0196631 0.161125 -0.251441 0.0454372 -0.0763113
458 0.0932449 0.0496501 -0.0580126 0.0185007 0.204891 -0.00262625 -0.0180343 0.100554 -0.016592 0.0323052 0.156742 0.0861298 -0.0897103 -0.170187 -0.0867564 0.194991 -0.143846 0.0871474 0.0812567 -0.013108 0.116464 -0.186968 0.0412003 -0.0924725
457 0.116576 0.0829291 -0.0795696 0.0296279 0.290874 -0.00603218 -0.0336635 0.157299 -0.0494851 0.0772272 0.189698 0.127173 -0.132565 -0.230308 -0.113444 0.275509 -0.204186 0.125311 0.0942095 -0.0322279 0.157693 -0.257534 0.0502964 -0.120716
479 0.0928272 0.07961 -0.0340463 -0.00121369 0.175492 -0.0104524 -0.0156894 0.12567 -0.0421575 0.0303702 0.154613 0.0867599 -0.0790568 -0.164753 -0.0711682 0.192365 -0.151822 0.0636778 0.0744784 -0.0460831 0.117929 -0.19923 0.0141564 -0.0853847
429 0.0475197 0.0557675 -0.0553738 0.00153935 0.12957 0.0157012 -0.00244324 0.102661 -0.0283449 0.0118884 0.114696 0.0769165 -0.0502935 -0.118557 -0.0554371 0.127812 -0.0875171 0.0741736 0.0531144 -0.00309311 0.0712834 -0.150202 0.0381243 -0.0398737
422 0.0692601 0.0425192 -0.0497009 0.0174723 0.15766 -0.000790944 -0.0250177 0.108668 -0.0354284 0.0333514 0.138813 0.0707521 -0.0747239 -0.153028 -0.0462247 0.153144 -0.111811 0.0675886 0.0692346 -0.0148592 0.10829 -0.16718 0.00357916 -0.0425408
444 0.075841 0.0770894 -0.0527923 0.00410281 0.198551 -0.0127661 -0.0241542 0.12482 -0.0385511 0.0412768 0.150828 0.0766605 -0.0934211 -0.15715 -0.0785841 0.195769 -0.142859 0.0763889 0.0535857 -0.0112798 0.107222 -0.183094 0.0115029 -0.0524261
23 0.0330621 0.0508202 -0.0422132 0.0313325 0.119222 0.00285424 0.00176825 0.0668353 -0.0345535 0.0239894 0.106334 0.0615629 -0.0731258 -0.0899792 -0.0445601 0.130768 -0.10639 0.0375485 0.0467446 -0.0316339 0.0787791 -0.115954 0.00763021 -0.0272465
373 0.0973002 0.0724794 -0.0709328 0.0178295 0.247261 -0.0280612 -0.0102281 0.161229 -0.0402934 0.0366669 0.191065 0.113007 -0.0953371 -0.213065 -0.101386 0.236262 -0.193682 0.0846388 0.0878461 -0.0180579 0.150061 -0.244837 0.0238725 -0.0920469
126 0.0715507 0.0465835 -0.0467241 0.0186073 0.132282 -0.0159058 0.00151193 0.0881855 -0.0287979 0.0387556 0.120644 0.0621222 -0.0750475 -0.122842 -0.0641683 0.146056 -0.125552 0.0615917 0.0562713 -0.0317638 0.0891286 -0.137344 0.0264186 -0.0432516
256 0.143409 0.116089 -0.103838 0.0168586 0.431243 -0.0235248 -0.0155533 0.247457 -0.0780585 0.0617622 0.304273 0.212722 -0.20689 -0.345118 -0.144098 0.382613 -0.316656 0.177766 0.163512 -0.0627185 0.241416 -0.383953 0.0722474 -0.124546
276 0.141855 0.0954744 -0.0985023 0.0381056 0.352377 -0.0170733 -0.0312917 0.224776 -0.0512069 0.0571022 0.242175 0.179801 -0.193075 -0.280621 -0.138693 0.348958 -0.284088 0.164959 0.125197 -0.0238396 0.199089 -0.358236 0.0673179 -0.113961
160 0.129136 0.0963402 -0.0982564 0.0269155 0.287815 -0.0114799 -0.0201979 0.185359 -0.037905 0.0532875 0.233825 0.133251 -0.139042 -0.236094 -0.0932602 0.295158 -0.243296 0.116167 0.10848 -0.0296258 0.195004 -0.272381 0.0424888 -0.0950393
518 0.0288282 0.0424447 -0.0247508 -0.00227721 0.0618672 -0.00325647 0.00520163 0.0444591 0.00231154 0.0221562 0.0625421 0.0257134 -0.0474666 -0.071573 -0.0307459 0.0707178 -0.0409257 0.0305862 0.00797741 -0.0281763 0.044332 -0.0589166 -0.00288808 -0.0223936
516 0.0354967 0.0358931 -0.0220256 -0.00285921 0.108598 -0.00603043 -0.019946 0.0679734 -0.0405604 0.0455494 0.0726492 0.0466609 -0.058234 -0.0959246 -0.0375285 0.118479 -0.0744071 0.0527619 0.0269913 -0.0164697 0.0833735 -0.0973311 0.0182555 -0.0208338
491 0.107923 0.0762011 -0.0565981 0.0286532 0.231593 -0.0241997 -0.0242229 0.122159 -0.0460726 0.0575356 0.156785 0.122803 -0.123755 -0.169918 -0.0602473 0.233385 -0.172699 0.101505 0.0629272 -0.0138146 0.138936 -0.204107 0.0494837 -0.0812386
492 0.10629 0.0634258 -0.0708614 0.0132554 0.20331 -0.0108485 -0.0241373 0.110156 -0.0330188 0.043983 0.16911 0.0931599 -0.0824443 -0.167872 -0.0843699 0.182965 -0.16215 0.111949 0.0592034 -0.0299346 0.130604 -0.205159 0.0157441 -0.0824777
515 0.0225762 0.0287358 -0.0168608 0.00431275 0.109933 -0.00343606 -0.0206196 0.0456911 -0.0255518 0.0444639 0.0597089 0.0357893 -0.0432972 -0.0959697 -0.04036 0.125524 -0.0888369 0.0707107 0.025246 -0.0343712 0.0689844 -0.104431 -0.000219495 -0.0278086
156 0.103699 0.0500359 -0.0742137 0.0292514 0.249301 -0.00275991 -0.00496563 0.152874 -0.023222 0.0520139 0.152275 0.1043 -0.100489 -0.190797 -0.0775837 0.22011 -0.18491 0.110033 0.0870676 -0.0469723 0.12593 -0.197681 0.0426825 -0.0741223
345 0.0325969 0.0200504 -0.00167717 -0.014736 0.0537312 -0.0121094 -0.00375436 0.0285353 0.00394752 0.0212829 0.057914 0.0431837 -0.0327337 -0.0632021 -0.0441657 0.0308773 -0.040264 0.0411709 0.00361876 -0.0218074 0.0498857 -0.0360962 0.0337644 -0.0328204
36 0.173334 0.148044 -0.124849 0.0541519 0.466971 -0.0510638 -0.0131328 0.290271 -0.0777503 0.071016 0.338271 0.225992 -0.199692 -0.388153 -0.158013 0.424463 -0.35182 0.203257 0.184917 -0.0516849 0.294359 -0.428564 0.0726442 -0.142193
409 0.0559598 0.049677 -0.0601715 0.0161151 0.165214 -0.0198592 0.00613121 0.111317 -0.0317664 0.0422162 0.122073 0.0797422 -0.083392 -0.144008 -0.0754715 0.153407 -0.129075 0.0828749 0.0836696 -0.00703327 0.121964 -0.14348 0.0363652 -0.0792289
480 0.066557 0.0574503 -0.0399021 0.0265324 0.152196 -0.027743 -0.00792591 0.108349 -0.0217193 0.0400839 0.110879 0.0792442 -0.0778767 -0.149829 -0.0508521 0.152343 -0.117301 0.0533172 0.0423114 -0.02316 0.0974457 -0.131179 0.00683544 -0.0550817
114 0.213789 0.149384 -0.133911 0.0612071 0.50609 -0.0167333 -0.039929 0.30799 -0.0757491 0.0818136 0.330469 0.216772 -0.24862 -0.433729 -0.1709 0.476994 -0.357454 0.194847 0.155677 -0.064733 0.318231 -0.443944 0.0544918 -0.182914
403 0.0686594 0.0758271 -0.0640166 0.0175135 0.198988 -0.0153365 0.00284792 0.11501 -0.0318598 0.0185392 0.140787 0.0713996 -0.0765378 -0.160066 -0.077616 0.18417 -0.149076 0.0919959 0.0794495 -0.00892482 0.104039 -0.171462 0.0130922 -0.0420865
402 0.108733 0.0930127 -0.0728803 0.00709033 0.287722 -0.00579229 0.00312779 0.141399 -0.0648931 0.0402371 0.203028 0.119395 -0.124577 -0.213598 -0.0962019 0.248889 -0.203005 0.0987454 0.111539 -0.0430544 0.181459 -0.275646 0.0619572 -0.0713187
410 0.100109 0.0665566 -0.079524 0.0160931 0.291183 -0.0386902 -0.00655847 0.163921 -0.0231652 0.0460157 0.208463 0.129034 -0.133174 -0.23606 -0.0771618 0.262661 -0.188128 0.114301 0.0982136 -0.0606005 0.190555 -0.285393 0.0402402 -0.0798342
11 0.146513 0.0937627 -0.0900437 0.0215515 0.328147 -0.00815046 -0.00160077 0.191116 -0.0454106 0.051429 0.238429 0.163246 -0.148632 -0.261505 -0.110183 0.304887 -0.208598 0.133933 0.113528 -0.0199259 0.194346 -0.277552 0.0518288 -0.0983297
396 0.0683967 0.063435 -0.0214141 0.0135437 0.126458 -0.0265046 -0.0179232 0.103206 -0.0263432 0.0425055 0.110449 0.0519115 -0.0683189 -0.0985782 -0.0421333 0.13905 -0.110722 0.0489096 0.0504981 -0.00810205 0.0699254 -0.131823 0.0369773 -0.0450843
275 0.0683906 0.0531431 -0.0544136 -0.00528738 0.155909 0.00482004 -0.00881973 0.0831255 -0.028694 0.0263851 0.129147 0.0652237 -0.0791755 -0.133816 -0.0603109 0.134386 -0.125567 0.0835437 0.0512022 -0.002021 0.093869 -0.131857 0.0186246 -0.0666334
277 0.131053 0.101524 -0.089551 0.0377112 0.378421 -0.0185494 -0.0179207 0.207417 -0.0391667 0.0643179 0.250977 0.181347 -0.163743 -0.301312 -0.138457 0.332526 -0.249146 0.169834 0.152112 -0.0579193 0.225836 -0.342276 0.0748297 -0.12364
478 0.0521869 0.0462904 -0.0500881 0.00216615 0.137156 -0.0179501 -0.0125718 0.0648354 -0.0104126 0.0284532 0.115184 0.0809173 -0.0533792 -0.105024 -0.0223195 0.11734 -0.0825354 0.0546393 0.0370722 -0.0141854 0.0732383 -0.119463 0.0243091 -0.0254803
408 0.0755302 0.0619458 -0.0556745 0.0270541 0.140121 -0.0129913 -0.0120757 0.077767 -0.0342361 0.048319 0.127669 0.084212 -0.066354 -0.12734 -0.0480633 0.160485 -0.106406 0.058878 0.0446072 -0.00554359 0.0754368 -0.164969 0.0179756 -0.0585854
105 0.109158 0.0629434 -0.0637346 0.0062152 0.229431 -0.0199832 -0.036549 0.140934 -0.047489 0.0310704 0.142809 0.0995036 -0.0892132 -0.177304 -0.0557085 0.216512 -0.154889 0.0801947 0.068752 -0.0337833 0.139526 -0.190698 0.0401081 -0.0686996
107 0.122881 0.0963377 -0.0745319 0.0448762 0.274972 -0.00733315 -0.0208764 0.175208 -0.022207 0.0701327 0.195575 0.106383 -0.144412 -0.228613 -0.0898707 0.233436 -0.207504 0.109867 0.0829677 -0.049802 0.172001 -0.268442 0.0500997 -0.111424
202 0.0624338 0.0612419 -0.0211681 0.0223169 0.161352 -0.0160879 -0.012554 0.0699906 -0.0311005 0.0351631 0.128095 0.081382 -0.0692037 -0.148588 -0.0713876 0.154264 -0.130185 0.0730882 0.0528322 -0.00699053 0.0940853 -0.148955 0.02654 -0.0659569
513 0.047483 0.0112685 -0.0257665 0.00246396 0.0721783 -0.021644 0.00325447 0.0427126 -0.00567345 0.026784 0.0623108 0.0488439 -0.033692 -0.0654929 -0.0270747 0.0913067 -0.0734083 0.0586116 0.0220091 0.00603173 0.0489207 -0.0938163 0.00624061 -0.0192041
519 0.0639966 0.0547566 -0.0137526 0.0233334 0.0901245 -0.00203336 -0.025405 0.0753286 -0.0245162 0.0235861 0.077123 0.0331614 -0.0369806 -0.0707541 -0.0250503 0.0878604 -0.0726662 0.0554745 0.0393076 -0.0368214 0.0437142 -0.079658 0.0200012 -0.0361657
9 0.0632136 0.0696096 -0.0295362 0.00216125 0.15957 -0.0225903 -0.00719718 0.100423 -0.0240625 0.0439642 0.127318 0.0970501 -0.0596694 -0.155633 -0.0756852 0.159535 -0.128401 0.0749606 0.0668158 -0.0332681 0.0896704 -0.162105 0.0306451 -0.0392162
85 0.0678582 0.0509012 -0.0660449 0.0131822 0.218872 -0.00579927 -0.0170325 0.100063 -0.0170813 0.0455458 0.155788 0.103189 -0.0856774 -0.183484 -0.0532759 0.191392 -0.167525 0.0680614 0.0875375 -0.0198569 0.116893 -0.18072 0.0471801 -0.085868
281 0.10865 0.0839861 -0.0633755 0.0188762 0.290743 -0.00531096 -0.0140542 0.150336 -0.0380919 0.0550184 0.207285 0.121355 -0.131225 -0.24573 -0.0881162 0.254771 -0.178748 0.114144 0.105111 -0.0262489 0.150531 -0.258087 0.0206329 -0.0832378
280 0.101435 0.0471829 -0.0393931 0.0228645 0.226898 0.00339806 -0.0223048 0.113631 -0.0507167 0.0580525 0.128843 0.0783124 -0.105485 -0.180144 -0.0661372 0.173074 -0.157762 0.0727102 0.0765056 -0.010574 0.109791 -0.210598 0.0471111 -0.0758939
244 0.0815383 0.0604267 -0.061747 0.00837107 0.207487 0.00289887 -0.0372516 0.126446 -0.0151679 0.0505128 0.163017 0.0895042 -0.102333 -0.17084 -0.0751856 0.210646 -0.127298 0.102537 0.0588485 -0.0294509 0.128451 -0.193714 0.0151237 -0.0767316
48 0.0731538 0.0763212 -0.0535106 0.00967045 0.217368 0.00742132 -0.0278691 0.142341 -0.0483243 0.0312059 0.175726 0.10052 -0.10061 -0.193188 -0.0515917 0.207258 -0.140386 0.106035 0.0584312 -0.0435335 0.120574 -0.213283 0.0160101 -0.0705142
10 0.263321 0.192464 -0.169791 0.0715901 0.629975 -0.0406761 -0.0491254 0.387879 -0.0981233 0.104488 0.430558 0.310001 -0.311277 -0.539342 -0.214514 0.558575 -0.464239 0.254668 0.20815 -0.071008 0.368379 -0.586375 0.101232 -0.233301
498 0.0500003 0.0313398 -0.0123422 0.0181366 0.119238 -0.0106933 -0.00814492 0.0595143 -0.0140283 0.0232423 0.101535 0.0559411 -0.0383378 -0.109129 -0.0576251 0.130375 -0.110007 0.0720934 0.0597888 -0.0360752 0.0927833 -0.101199 0.0255584 -0.0405884
119 0.0560919 0.0753356 -0.0471797 0.0344901 0.17182 -0.0312277 0.0010271 0.101409 -0.0153133 0.0183641 0.127167 0.0940464 -0.0915147 -0.138592 -0.0587364 0.185558 -0.117422 0.0603286 0.0437797 -0.00519124 0.0989819 -0.174643 0.0483368 -0.0590706
120 0.0779947 0.0794268 -0.0695309 0.0259931 0.213397 -0.00929938 -0.0354164 0.125808 -0.0552657 0.0616077 0.18094 0.0912505 -0.111206 -0.203867 -0.087907 0.196983 -0.169777 0.0783186 0.0712247 -0.0220042 0.130483 -0.218411 0.0521287 -0.0755545
430 0.0515383 0.0578017 -0.0376831 0.0287436 0.18572 -0.0164274 -0.0124239 0.0955447 -0.039895 0.0463732 0.134208 0.0650461 -0.0882477 -0.153179 -0.0685163 0.13317 -0.126505 0.0846513 0.0560047 -0.0131618 0.112913 -0.138022 0.0171966 -0.0367617
254 0.115716 0.0931591 -0.0630469 0.0280272 0.259736 -0.0227319 -0.0124703 0.131416 -0.0533674 0.056111 0.186852 0.133288 -0.12583 -0.187218 -0.0650908 0.231901 -0.160487 0.0890286 0.0881419 -0.00958276 0.148339 -0.238233 0.0508273 -0.0659115
221 0.0501837 0.0571061 -0.0256219 -0.00597811 0.148115 -0.0208877 -0.0283204 0.0785659 -0.03177 0.0109382 0.122046 0.0840591 -0.0875537 -0.121874 -0.0555201 0.148042 -0.108516 0.045989 0.0450108 0.000596849 0.0727803 -0.13383 0.0221898 -0.0598037
217 0.154891 0.12913 -0.104107 0.0369077 0.413924 -0.0202406 -0.00940945 0.263905 -0.0790016 0.0873611 0.298736 0.189623 -0.188832 -0.337953 -0.148002 0.377941 -0.290448 0.19171 0.152902 -0.043424 0.24139 -0.395418 0.0641849 -0.158268
218 0.0842949 0.0805682 -0.0371275 -0.00245089 0.228655 -0.0165615 -0.010709 0.112019 -0.053183 0.041573 0.152453 0.0907332 -0.110961 -0.153155 -0.0845106 0.171737 -0.138732 0.0664556 0.0767847 -0.0102845 0.113254 -0.189851 0.0249338 -0.0674536
86 0.11349 0.112959 -0.0987972 0.0063892 0.293474 -0.0197306 -0.0119366 0.178276 -0.0483871 0.0564245 0.205647 0.141186 -0.156185 -0.262516 -0.112184 0.314059 -0.234208 0.118783 0.107231 -0.0539799 0.188323 -0.315126 0.0455059 -0.0865012
87 0.101862 0.0828374 -0.0405647 0.0250728 0.214999 -0.0143646 -0.00409536 0.145943 -0.0176935 0.0268975 0.178552 0.0916457 -0.123121 -0.202476 -0.0712892 0.229437 -0.181068 0.099388 0.0941018 -0.0293463 0.120531 -0.233516 0.0302234 -0.075192
388 0.0785768 0.040474 -0.0253703 0.0199777 0.184397 -0.0315161 0.0024254 0.107067 -0.0066158 0.0426453 0.11985 0.0988368 -0.0860173 -0.146421 -0.0718036 0.176238 -0.144083 0.0591091 0.0491986 -0.0295357 0.109082 -0.174563 0.029516 -0.0494534
387 0.123687 0.0957998 -0.0701894 0.0261347 0.288948 -0.00717158 -0.0359237 0.178961 -0.0650721 0.0432925 0.218794 0.148683 -0.15973 -0.244397 -0.114152 0.269285 -0.223139 0.124711 0.0938198 -0.044512 0.190395 -0.290899 0.0626355 -0.117533
106 0.0666756 0.079818 -0.0581759 0.0275176 0.209108 0.00226292 -0.0234276 0.115246 -0.0166568 0.049112 0.144705 0.0759414 -0.0883797 -0.173765 -0.053473 0.192113 -0.173435 0.0731024 0.0782101 -0.00830896 0.116303 -0.20441 0.0455576 -0.0792758
260 0.143313 0.109084 -0.108705 0.0089598 0.350257 -0.0251835 -0.0116695 0.21768 -0.0552706 0.0516836 0.248869 0.144181 -0.148722 -0.284471 -0.134459 0.339112 -0.243206 0.130223 0.113454 -0.0298736 0.224395 -0.341855 0.0654733 -0.11507
301 0.107816 0.0662729 -0.0710842 0.0223552 0.26867 -0.0277598 -0.0342853 0.152834 -0.0485395 0.0365165 0.168673 0.0977681 -0.128303 -0.228126 -0.0661457 0.218127 -0.177625 0.125485 0.0900725 -0.0462698 0.162139 -0.25064 0.0573147 -0.0648938
147 0.0339538 0.0404271 -0.0265555 -0.00395312 0.0983219 -0.0272793 0.0146497 0.0459973 -0.00970995 0.0262015 0.0914824 0.0340267 -0.0299475 -0.101873 -0.0203659 0.0811852 -0.0499786 0.0573 0.0251625 -0.0171384 0.0663382 -0.106631 0.00400174 -0.0123091
42 0.103894 0.101976 -0.0669554 0.0401275 0.289949 -0.0219129 -0.0249111 0.155097 -0.0257868 0.0623783 0.213662 0.149817 -0.15238 -0.266546 -0.0761714 0.254297 -0.205927 0.138983 0.112499 -0.0591667 0.163417 -0.280365 0.0268181 -0.0774248
237 0.0661661 0.0568134 -0.0575913 0.00547161 0.183488 0.00468875 -0.00294675 0.0928921 -0.0275491 0.0533773 0.128552 0.0997209 -0.0959403 -0.136016 -0.0504732 0.186212 -0.144406 0.0853014 0.0762361 -0.0234738 0.124096 -0.184786 0.0140092 -0.0597778
148 0.0891939 0.0632498 -0.0666225 0.00647269 0.233202 -0.0259507 -0.0138208 0.115373 -0.0421825 0.0286045 0.135825 0.0938339 -0.106355 -0.164377 -0.0806744 0.203098 -0.144252 0.0863839 0.0930527 -0.010733 0.107375 -0.194206 0.0448258 -0.059923
149 0.0686772 0.0429006 -0.0227928 -0.00417479 0.172897 -0.0162428 -0.0209142 0.102302 -0.0268925 0.0315121 0.11913 0.0798773 -0.0708535 -0.157235 -0.0716282 0.18086 -0.14088 0.0662535 0.0715087 -0.0230006 0.0961832 -0.178663 0.0262784 -0.0674068
168 0.129814 0.0926994 -0.0998415 0.0431044 0.324202 -0.0138203 -0.0282904 0.199763 -0.0708395 0.0649155 0.242135 0.168318 -0.15242 -0.269618 -0.12321 0.319162 -0.224276 0.12309 0.123802 -0.0510795 0.210702 -0.325897 0.0475804 -0.0975269
203 0.0370383 0.0321691 -0.0275518 0.0249072 0.0908698 -0.0177228 -0.0174868 0.0558025 -0.0237715 0.0303383 0.0835343 0.0312746 -0.0590211 -0.0792963 -0.051059 0.112778 -0.0930226 0.0543625 0.0596837 -0.00351674 0.0571354 -0.0860859 0.00530477 -0.0447959
27 0.103472 0.0880143 -0.0723475 0.00545452 0.273287 -0.00667279 -0.000292925 0.170348 -0.0482635 0.0701122 0.197659 0.124739 -0.109883 -0.226322 -0.0734684 0.238573 -0.187875 0.117361 0.0951771 -0.0490934 0.181942 -0.264159 0.0291561 -0.109343
522 0.074507 0.0719023 -0.0650179 0.0242923 0.220303 -0.0287927 -0.0124018 0.104532 -0.0340338 0.0414981 0.164881 0.0816977 -0.113384 -0.19065 -0.0559423 0.207407 -0.13849 0.0677337 0.0567806 -0.0081741 0.126662 -0.211296 0.0517069 -0.0600068
296 0.164627 0.100517 -0.0960213 0.0308093 0.376439 -0.0332006 -0.0348421 0.215247 -0.0803528 0.0931581 0.268612 0.189984 -0.185787 -0.304287 -0.120764 0.358336 -0.274879 0.182543 0.137998 -0.0402543 0.224965 -0.378069 0.0783616 -0.131842
502 0.0871124 0.0800962 -0.0634682 0.0201925 0.230745 0.00350925 0.00147855 0.165487 -0.0390267 0.0339547 0.202256 0.109626 -0.101698 -0.204388 -0.0835152 0.241266 -0.202212 0.0855399 0.100956 -0.0550732 0.168793 -0.255954 0.0372907 -0.0928423
222 0.0300886 0.0342716 -0.0377923 0.00689281 0.133467 -0.00338183 -0.00474232 0.0667515 -0.0323936 0.0327572 0.0735083 0.0476576 -0.0631324 -0.0785418 -0.0221752 0.0905366 -0.0986409 0.0350101 0.0454646 -0.0255771 0.056125 -0.103721 0.0290659 -0.057941
61 0.0917458 0.0717058 -0.063156 0.0272234 0.209564 -0.0253185 -0.017083 0.144258 -0.0507443 0.0411652 0.149541 0.0910679 -0.119015 -0.152869 -0.0583248 0.211203 -0.147948 0.078983 0.0946412 -0.0387404 0.121961 -0.178813 0.0424672 -0.0781285
486 0.0503743 0.0441185 -0.0467457 0.0174604 0.149978 -0.00518607 -0.0279035 0.0745017 -0.0336939 0.0347891 0.086469 0.0468346 -0.0467851 -0.0986938 -0.0266974 0.125362 -0.111441 0.0350865 0.0395577 0.00270623 0.0778256 -0.119601 0.0398742 -0.0291177
219 0.0857114 0.0657629 -0.0523309 0.0376374 0.206681 -0.0139735 -0.0306057 0.109339 -0.0178126 0.0217871 0.147619 0.070631 -0.0802101 -0.186449 -0.0726467 0.189523 -0.149435 0.101096 0.0738168 -0.0317802 0.131193 -0.193609 0.0275149 -0.0884794
473 0.0784859 0.0808721 -0.0586782 0.032797 0.25635 -0.00610572 -0.034294 0.151413 -0.0498473 0.0507967 0.157468 0.119514 -0.120467 -0.216133 -0.0641736 0.2123 -0.198017 0.100804 0.079175 -0.0475414 0.163524 -0.224965 0.053397 -0.0737367
197 0.139033 0.0895796 -0.0912165 0.0142251 0.318661 -0.0315297 -0.0458192 0.181661 -0.0509891 0.0478998 0.242719 0.147482 -0.163279 -0.258542 -0.105795 0.295242 -0.22349 0.131407 0.103422 -0.0397252 0.173814 -0.293244 0.0384577 -0.0963521
215 0.050984 0.0473271 -0.0368991 0.0161522 0.115924 -0.022265 -0.0210087 0.0476975 -0.0164002 0.00963471 0.0791181 0.0723145 -0.058518 -0.109711 -0.0562717 0.119406 -0.0669116 0.0473705 0.0228023 -0.0279301 0.0691327 -0.109357 0.0165828 -0.0238515
4 0.0420939 0.0431001 -0.0240273 0.0329895 0.168674 0.00446952 -0.0300943 0.0702551 -0.0409051 0.0340106 0.118456 0.0524517 -0.0494335 -0.10621 -0.0587121 0.145116 -0.106164 0.0468332 0.0645006 -0.0194688 0.0758217 -0.136574 0.0344521 -0.0707553
5 0.113984 0.0723065 -0.0763282 0.0191621 0.269963 -0.0345535 -0.0376567 0.128501 -0.0179137 0.0395689 0.176631 0.0957011 -0.0972802 -0.204152 -0.0967369 0.224868 -0.163765 0.125754 0.0931496 -0.0278662 0.136014 -0.24568 0.0445747 -0.0969974
495 0.100646 0.0834654 -0.0863177 0.0430505 0.243358 -0.0258036 -0.0105804 0.168703 -0.050658 0.0627748 0.186426 0.120977 -0.121119 -0.211458 -0.0742394 0.253187 -0.194094 0.127111 0.0711779 -0.0550336 0.151797 -0.247745 0.0264433 -0.104373
89 0.0806122 0.0437888 -0.0763435 0.0301114 0.232444 -0.012422 -3.84509e-05 0.133712 -0.0484986 0.0500107 0.168117 0.10198 -0.0837084 -0.188858 -0.0881553 0.182066 -0.152089 0.0834854 0.0771226 -0.0182961 0.128217 -0.191944 0.0485566 -0.0582048
95 0.132127 0.0827449 -0.0832441 0.035314 0.31868 -0.0397091 -0.000352657 0.189991 -0.0379964 0.0468944 0.215621 0.141697 -0.133281 -0.271118 -0.0965986 0.279474 -0.233959 0.145918 0.120928 -0.0415815 0.192812 -0.279536 0.0646047 -0.108836
37 0.11428 0.0970589 -0.0662291 0.0156658 0.271052 -0.00814503 -0.0392416 0.159363 -0.0645703 0.0712382 0.217444 0.146143 -0.130766 -0.250489 -0.0874764 0.285911 -0.221592 0.125921 0.116493 -0.0533375 0.173292 -0.271657 0.0348357 -0.0813908
26 0.0921883 0.103843 -0.0801171 0.0355592 0.288629 -0.0280663 -0.0337243 0.18633 -0.0424553 0.045936 0.22038 0.122305 -0.145509 -0.22175 -0.109089 0.279218 -0.201384 0.103386 0.103715 -0.0587411 0.15458 -0.249408 0.0262584 -0.101028
452 0.0736343 0.0850589 -0.0574346 0.0352903 0.226248 -0.0185968 -0.00252713 0.1225 -0.0481649 0.0337329 0.13024 0.113257 -0.109082 -0.171305 -0.0868353 0.16943 -0.128845 0.087296 0.0794001 -0.0158484 0.130527 -0.167824 0.019757 -0.0633918
60 0.0962082 0.0686167 -0.058268 0.0330446 0.245189 -0.0120396 -0.0309234 0.152562 -0.046664 0.0356868 0.174344 0.0989313 -0.103477 -0.214299 -0.0638475 0.239458 -0.189014 0.0899824 0.0820884 -0.0137658 0.148897 -0.206062 0.0411071 -0.0864247
68 0.109073 0.0764718 -0.0448933 0.0126719 0.253696 0.00370062 -0.0344818 0.144545 -0.0257892 0.0515617 0.178929 0.0882659 -0.120128 -0.202318 -0.0655164 0.214142 -0.171576 0.105282 0.0877791 -0.0350682 0.13564 -0.20993 0.0210113 -0.0643527
66 0.120417 0.126008 -0.10745 0.0361526 0.371595 -0.00584649 -0.0310568 0.209745 -0.0402642 0.0748981 0.232358 0.172523 -0.169372 -0.293779 -0.107524 0.306435 -0.251031 0.162243 0.124707 -0.0617914 0.194413 -0.331871 0.0578135 -0.131005
70 0.0708956 0.0854655 -0.0467601 0.0314322 0.226466 -0.000877696 -0.0154832 0.136547 -0.04614 0.0391402 0.146064 0.12138 -0.107039 -0.182809 -0.0755437 0.196715 -0.153747 0.0816942 0.0921292 -0.0212062 0.127165 -0.208755 0.0525349 -0.0694519
463 0.0423284 0.0564969 -0.0272139 -0.00652097 0.10446 -0.0069766 -0.0218631 0.0464703 -0.0352475 0.0312679 0.0907768 0.0608218 -0.0672787 -0.0846234 -0.0398979 0.0963059 -0.0901938 0.0553498 0.0486741 -0.0161743 0.0568534 -0.105601 0.00760718 -0.024439
531 0.0503733 0.0643112 -0.0525724 0.00774522 0.150352 -0.0148075 -0.0311435 0.109679 -0.0277519 0.0497945 0.135919 0.0951105 -0.0899846 -0.116605 -0.0368211 0.139165 -0.1005 0.0576272 0.0720108 -0.0405438 0.117212 -0.146817 0.018606 -0.0472262
407 0.155188 0.121444 -0.104464 0.0176538 0.366226 -0.0195873 -0.0120594 0.194027 -0.0629199 0.0812744 0.260141 0.17524 -0.150185 -0.314988 -0.143075 0.328017 -0.261287 0.146553 0.108762 -0.0557038 0.205032 -0.324961 0.0465771 -0.102356
196 0.0869128 0.0773168 -0.0406085 0.0149767 0.243432 0.000158374 -0.0358708 0.114734 -0.0314352 0.0420934 0.157428 0.0932749 -0.105316 -0.204134 -0.0569326 0.199813 -0.167884 0.074357 0.0955352 -0.0156282 0.132017 -0.206929 0.0195504 -0.0675086
94 0.0848531 0.0849766 -0.0800195 0.0346021 0.239224 -0.00723072 -0.0155944 0.156714 -0.0209974 0.0453241 0.167993 0.130228 -0.130955 -0.211831 -0.0920229 0.220092 -0.164935 0.113439 0.0744208 -0.0440993 0.147343 -0.218519 0.0517085 -0.0935223
91 0.0884865 0.0659653 -0.0744733 0.00554404 0.245629 -0.0158542 -0.0231365 0.165409 -0.0213016 0.0284494 0.201647 0.125616 -0.119394 -0.215326 -0.0732617 0.246869 -0.169235 0.11368 0.105711 -0.0152569 0.154137 -0.233209 0.0231694 -0.0981504
43 0.108889 0.0873078 -0.0582609 0.0216318 0.322449 -0.0394675 -0.0208741 0.196489 -0.0420106 0.0565805 0.201114 0.13655 -0.127816 -0.267346 -0.092602 0.29494 -0.214496 0.146266 0.101131 -0.0488111 0.169255 -0.273691 0.0574338 -0.0950069
123 0.0894109 0.0507065 -0.0760123 0.0415599 0.233761 -0.02193 -0.0285059 0.122529 -0.0578059 0.0609897 0.148882 0.10713 -0.120869 -0.206519 -0.0591746 0.203724 -0.172605 0.105337 0.0627503 -0.00990353 0.144662 -0.204052 0.0337037 -0.0771582
122 0.0645966 0.0593745 -0.0435249 0.0381221 0.213056 -0.0219725 -0.032867 0.111319 -0.0584001 0.0374349 0.164068 0.0792559 -0.107801 -0.179553 -0.0536711 0.189618 -0.157906 0.0945954 0.0597775 -0.0394209 0.129928 -0.191577 0.0353026 -0.0580119
420 0.0937871 0.0817038 -0.0559704 0.010834 0.277022 0.000762781 -0.00629235 0.152077 -0.0529068 0.0393878 0.203827 0.121611 -0.136911 -0.214961 -0.104059 0.278743 -0.198452 0.137469 0.100004 -0.0228367 0.176304 -0.253799 0.0584898 -0.086763
235 0.0956396 0.0987258 -0.092916 0.0420245 0.302988 0.00144148 -0.0395167 0.181325 -0.0466905 0.0583052 0.189047 0.115078 -0.152222 -0.239005 -0.0935734 0.253226 -0.215467 0.109409 0.118574 -0.0532942 0.158199 -0.272112 0.0244009 -0.116579
104 0.051923 0.0461507 -0.0477354 0.0165258 0.154166 -0.0215431 -0.0227044 0.114386 -0.0358689 0.0305539 0.104278 0.0991595 -0.0881313 -0.138833 -0.0582982 0.171546 -0.133423 0.0855283 0.0810187 -0.0206931 0.0892424 -0.150785 0.0192107 -0.0577467
432 0.0683356 0.0703455 -0.0609122 0.00600635 0.210378 -0.0250406 -0.0169821 0.146898 -0.0388884 0.0568498 0.177986 0.0833118 -0.10098 -0.196171 -0.0784908 0.223591 -0.181903 0.0721957 0.0842405 -0.0186762 0.125533 -0.222626 0.0228402 -0.064995
383 0.0647046 0.0503657 -0.038258 0.00662677 0.134662 0.010334 -0.0121483 0.100133 -0.0184728 0.0131626 0.0944051 0.0697841 -0.0860488 -0.104097 -0.0688427 0.124536 -0.115925 0.0452068 0.0359563 -0.0274862 0.0977475 -0.154193 0.00417118 -0.046772
49 0.169719 0.117575 -0.0914185 0.0479078 0.412017 -0.0378203 -0.037146 0.22084 -0.0503979 0.0723989 0.282117 0.174798 -0.172516 -0.342594 -0.149668 0.375561 -0.2915 0.175582 0.141465 -0.0453993 0.227443 -0.38427 0.0558375 -0.153458
133 0.084267 0.0655119 -0.0460591 0.0250587 0.230391 -0.0187237 -0.0264057 0.139348 -0.0528334 0.0450442 0.163009 0.106162 -0.0938524 -0.165226 -0.082191 0.207277 -0.153068 0.0977285 0.0656522 -0.0398321 0.131902 -0.206061 0.0345118 -0.0758177
258 0.0604506 0.0587073 -0.0391988 0.02057 0.128561 -0.0279238 -0.0159379 0.0737007 -0.00765875 0.021111 0.090052 0.0406152 -0.0547641 -0.12113 -0.0321257 0.0990946 -0.102882 0.0491372 0.0456358 -0.0234756 0.0827086 -0.130593 0.0302809 -0.0555564
134 0.0801795 0.0472669 -0.0605826 0.0147197 0.217963 -0.0353126 -0.0246089 0.13368 -0.0456471 0.0212283 0.156599 0.105905 -0.096724 -0.169656 -0.0470093 0.180537 -0.151987 0.0812689 0.0810768 -0.019962 0.11639 -0.173768 0.024393 -0.0660208
65 0.0969765 0.053422 -0.0443945 0.037841 0.233777 -0.00814257 -0.0108293 0.119783 -0.0131018 0.0389255 0.17431 0.114531 -0.1251 -0.177945 -0.0835342 0.19384 -0.146161 0.0974179 0.0732629 -0.0355872 0.128898 -0.22462 0.0136815 -0.0710056
64 0.10725 0.0584373 -0.0816418 0.0118634 0.250234 -0.00911883 -0.00345268 0.172081 -0.027512 0.0573618 0.175078 0.104235 -0.12076 -0.207663 -0.0689079 0.256971 -0.165343 0.104909 0.0800673 -0.0529772 0.150373 -0.256551 0.0355327 -0.104863
504 0.0941059 0.0781098 -0.0610464 0.0175681 0.247825 0.00442924 -0.0336255 0.148065 -0.0396374 0.0717133 0.163416 0.0987992 -0.114056 -0.201399 -0.0779966 0.256616 -0.172453 0.111048 0.0786082 -0.0419473 0.141647 -0.229275 0.0171421 -0.0838273
503 0.125428 0.078243 -0.0600861 0.00630009 0.305857 -0.0326985 -0.0265821 0.188256 -0.0472657 0.0598034 0.207271 0.140851 -0.152714 -0.268634 -0.0881915 0.296652 -0.207361 0.116173 0.105294 -0.0282793 0.194151 -0.296419 0.0493429 -0.103634
225 0.0904972 0.0885808 -0.0612561 0.011623 0.234926 -0.0344983 -0.0358437 0.138347 -0.0439075 0.030377 0.187734 0.110821 -0.136129 -0.190746 -0.0904724 0.237162 -0.179267 0.0895337 0.0802005 -0.0147791 0.164804 -0.245339 0.0421859 -0.0893344
266 0.0822141 0.0702237 -0.0626303 0.0293584 0.165523 -0.00510059 0.00259947 0.110913 -0.0228808 0.0213746 0.111644 0.0882217 -0.0765639 -0.164356 -0.0668118 0.172232 -0.123054 0.0734388 0.0545792 -0.0202798 0.107842 -0.147327 0.0144723 -0.0390193
329 0.0342592 0.010091 -0.0377181 0.0167885 0.0535211 -0.00313527 0.0151233 0.0425336 -0.0194309 0.0172358 0.0663144 0.0562394 -0.0348894 -0.0475078 -0.0362782 0.0643841 -0.0704508 0.050875 0.0262178 7.15138e-05 0.0318646 -0.0867535 0.0250875 -0.0435903
362 0.0220042 0.00203655 -0.0269374 -0.00831573 0.0426092 -0.0067209 -0.00459781 0.0338443 -0.00874633 -0.00491664 0.0525777 0.0141283 -0.0282296 -0.0616628 -0.0201212 0.055957 -0.0174615 0.0265284 0.0152207 -0.00105982 0.0252641 -0.0532706 0.0140939 -0.00119915
344 0.0415075 0.0379923 -0.0279809 0.0169066 0.0721408 0.00424236 -0.0161622 0.0606274 -0.012882 0.0323413 0.0537488 0.0579932 -0.0291894 -0.0731476 -0.0447822 0.0564745 -0.0424192 0.0309043 0.039566 -0.00161024 0.0553891 -0.0755549 0.00821267 -0.0418153
484 0.0537059 0.0141504 -0.0297154 0.0163244 0.0996559 0.00570217 -0.0194901 0.0528947 -0.0130034 0.0146963 0.0912039 0.0507186 -0.0505576 -0.0886027 -0.0129908 0.0947209 -0.0891229 0.029734 0.0397393 -0.0334272 0.0661435 -0.0910448 0.030129 -0.0327568
323 0.186708 0.156778 -0.138821 0.0494858 0.503833 -0.0300238 -0.0285158 0.325741 -0.0826475 0.12117 0.366964 0.255122 -0.239626 -0.414739 -0.177364 0.495973 -0.364635 0.197579 0.158437 -0.0651868 0.298187 -0.49632 0.0695135 -0.18149
405 0.127852 0.106029 -0.10405 0.0363997 0.349199 -0.00757254 -0.0333647 0.206425 -0.0494851 0.0821018 0.226936 0.136707 -0.172656 -0.298489 -0.109435 0.317982 -0.246585 0.117512 0.113854 -0.0318562 0.203377 -0.300551 0.0486566 -0.12304
368 0.1176 0.0723702 -0.0652314 0.00907883 0.264509 -0.0205206 -0.0164826 0.155766 -0.0202989 0.0379302 0.18732 0.138754 -0.10545 -0.193017 -0.0692841 0.215332 -0.20533 0.0936196 0.0879295 -0.0163865 0.138482 -0.243013 0.0255404 -0.0788541
369 0.108511 0.0697589 -0.075459 0.00201024 0.275035 -0.00216556 -0.0141755 0.162569 -0.0511443 0.0587692 0.182459 0.125629 -0.106974 -0.211317 -0.0731768 0.225039 -0.188674 0.129186 0.0968403 -0.0389937 0.158688 -0.269003 0.0502201 -0.0823669
471 0.0651187 0.041914 -0.0508541 0.000810327 0.142337 -0.00162222 0.00748326 0.0834233 -0.0105133 0.035957 0.106072 0.0721918 -0.0740644 -0.131878 -0.0348874 0.112926 -0.108137 0.0542462 0.0374792 -0.0240751 0.0758814 -0.145054 0.0197363 -0.0634273
138 0.0348762 0.0494819 -0.0442664 -0.00677561 0.124584 0.000688334 0.00592681 0.0562059 -0.0114614 0.0457015 0.0767444 0.0600083 -0.0515157 -0.121709 -0.0511346 0.126234 -0.0744486 0.0362556 0.0310681 -0.0165849 0.065998 -0.110877 0.0283173 -0.054319
131 0.107483 0.0699973 -0.0832743 0.0164007 0.29099 -0.0353964 -0.0259897 0.1463 -0.0423108 0.0753385 0.199617 0.130788 -0.129085 -0.238618 -0.098212 0.257108 -0.191939 0.124668 0.117149 -0.0559737 0.184714 -0.247013 0.0512619 -0.11128
99 0.127684 0.0865601 -0.090652 0.0126744 0.267175 -0.0230903 -0.0111456 0.168611 -0.0307417 0.0423871 0.212841 0.142062 -0.122414 -0.225982 -0.110876 0.27869 -0.196964 0.129663 0.0900787 -0.0346761 0.17888 -0.280028 0.0398394 -0.0819623
153 0.0781199 0.0670041 -0.05334 0.0189048 0.216127 0.00590289 -0.000870585 0.133384 -0.0151868 0.0697744 0.154091 0.090571 -0.108098 -0.186287 -0.0527574 0.223397 -0.16398 0.114658 0.0899291 -0.0276468 0.142593 -0.225144 0.0521187 -0.0727248
152 0.0962141 0.0848584 -0.0446817 0.00657666 0.256766 -0.0109536 0.00200597 0.147284 -0.0585153 0.0732278 0.197085 0.118922 -0.131581 -0.220215 -0.0701129 0.228624 -0.168652 0.127003 0.0690578 -0.0488928 0.151998 -0.23845 0.0331425 -0.0993413
394 0.0905246 0.056772 -0.0491409 0.0146902 0.210814 -0.00206686 0.00131817 0.101351 -0.0161782 0.0346831 0.156087 0.0782384 -0.115284 -0.1683 -0.0663354 0.210242 -0.153857 0.101409 0.0823958 -0.0274607 0.12793 -0.207022 0.0433442 -0.0655862
82 0.108193 0.114945 -0.096461 0.0442186 0.312271 -0.0293431 -0.0108162 0.183248 -0.0398789 0.0649251 0.20786 0.1444 -0.156368 -0.265632 -0.108058 0.284902 -0.215209 0.132537 0.121497 -0.0565954 0.20126 -0.305838 0.0448026 -0.106567
83 0.0625657 0.0597865 -0.0237248 0.0132495 0.183522 -0.00122169 -0.0308859 0.0844326 -0.00688649 0.0189319 0.101272 0.0709805 -0.0781237 -0.154357 -0.0384188 0.169047 -0.101389 0.0606622 0.0595901 -0.0163665 0.102321 -0.162998 0.0297353 -0.0453523
395 0.0602101 0.0705773 -0.0488884 0.00294632 0.180223 -0.0125996 -0.0208519 0.121195 -0.0109171 0.0298066 0.124966 0.0669654 -0.10044 -0.127338 -0.0522999 0.182064 -0.109951 0.0787069 0.0554415 -0.00220288 0.0886323 -0.155002 0.0285564 -0.0663646
445 0.105476 0.0531898 -0.0405585 0.0057047 0.208038 -0.00132326 -0.0335109 0.117783 -0.0515857 0.0316548 0.148892 0.107031 -0.101251 -0.207372 -0.0587525 0.211288 -0.184487 0.0804054 0.0627853 -0.0313741 0.145461 -0.231091 0.0533224 -0.0826478
185 0.0895547 0.0716146 -0.0629118 0.0313544 0.232756 -0.033732 -0.0313105 0.155642 -0.0182189 0.0533695 0.16621 0.0860971 -0.117568 -0.190751 -0.0930445 0.233316 -0.145793 0.0817835 0.0764068 -0.0415488 0.158055 -0.207256 0.0233704 -0.0594047
287 0.0872402 0.0478499 -0.0734194 0.011424 0.198026 -0.0180425 -0.0192421 0.111634 -0.019784 0.0441293 0.141349 0.0867098 -0.103176 -0.166188 -0.0754741 0.205336 -0.129361 0.0972666 0.0807742 -0.0311338 0.102017 -0.188697 0.0213584 -0.0647366
17 0.0557581 0.0462496 -0.0164865 -0.00356296 0.126893 -0.0158812 0.00769039 0.0903035 -0.0310983 0.0410362 0.0919724 0.0388932 -0.0542106 -0.111121 -0.0235155 0.102755 -0.101285 0.0717859 0.0602309 -0.0201232 0.0656033 -0.118602 0.0130858 -0.0451076
46 0.0923503 0.0829649 -0.0421769 0.0182333 0.246314 -0.0280288 -0.0267652 0.163699 -0.0370319 0.0424011 0.178379 0.12481 -0.10256 -0.223951 -0.0729831 0.243522 -0.172325 0.111865 0.0897147 -0.0430424 0.148684 -0.242566 0.0354322 -0.102291
19 0.107388 0.0920818 -0.07896 0.0194541 0.248161 -0.0336015 -0.039129 0.161265 -0.0438284 0.0599772 0.186867 0.122742 -0.102187 -0.200626 -0.102266 0.234366 -0.183322 0.100095 0.0871076 -0.0163966 0.168723 -0.233445 0.0232736 -0.0818012
136 0.132578 0.100781 -0.0869992 0.03628 0.326259 -0.0371444 -0.00722746 0.215329 -0.0591307 0.0873836 0.232758 0.136307 -0.145388 -0.260187 -0.102691 0.331113 -0.23208 0.128639 0.124359 -0.0560904 0.213219 -0.306918 0.0475613 -0.127016
314 0.0705675 0.0371527 -0.0525788 0.000478773 0.204606 0.0100665 -0.0309735 0.101989 -0.00797461 0.0491681 0.12217 0.0648682 -0.0935767 -0.159801 -0.0603709 0.177479 -0.136452 0.0699107 0.0490155 -0.0334175 0.102017 -0.163744 0.0273482 -0.0706506
505 0.0915219 0.0722729 -0.0425227 0.0357996 0.186656 -0.0237149 -0.0296715 0.113286 -0.0216952 0.0491659 0.132266 0.0861604 -0.0885966 -0.166232 -0.0425001 0.175984 -0.140132 0.101713 0.0895269 -0.0185913 0.127604 -0.165846 0.0115718 -0.0593894
76 0.0806009 0.0445342 -0.0524096 -0.00448974 0.14363 -0.0149392 -0.00191982 0.0792803 -0.0110079 0.0321203 0.0971475 0.0664254 -0.0513959 -0.130593 -0.0423398 0.129828 -0.11488 0.0668392 0.0694724 -0.0190948 0.0893297 -0.160867 0.00172681 -0.035229
501 0.0997999 0.0545955 -0.0442605 0.00282106 0.214051 -0.0221353 -0.0298524 0.112823 -0.040558 0.0606819 0.168951 0.0946154 -0.0969891 -0.187103 -0.0656143 0.186656 -0.172432 0.0999652 0.0798685 -0.0449284 0.141671 -0.194471 0.0252015 -0.0902771
29 0.0315529 0.0247744 -0.0341285 0.0269084 0.117031 -0.0284176 -0.0263284 0.087201 -0.014971 0.0346743 0.113566 0.062513 -0.0627968 -0.101191 -0.0244761 0.114911 -0.0974716 0.045673 0.0353159 -0.0167191 0.0608009 -0.119042 0.0276663 -0.0386233
210 0.070493 0.0554499 -0.0550436 0.0197966 0.151841 -0.0162618 -0.0141819 0.0656433 -0.0314649 0.018556 0.117497 0.0628795 -0.0623909 -0.104472 -0.0493044 0.125801 -0.0954595 0.0674074 0.0337412 -0.0202713 0.0744525 -0.127044 0.0174516 -0.0389803
205 0.104238 0.0575554 -0.0790939 0.00217501 0.226254 -0.00813426 -0.0131601 0.128281 -0.0503581 0.0265472 0.173954 0.0984751 -0.127582 -0.181952 -0.0713336 0.19806 -0.155232 0.102992 0.0937181 -0.0202109 0.120577 -0.217802 0.0373727 -0.0701418
206 0.118925 0.0882499 -0.0597548 0.0224273 0.262531 -0.0339602 -0.0321597 0.149649 -0.0467497 0.0504244 0.158343 0.118466 -0.132838 -0.210189 -0.0818577 0.242691 -0.16118 0.105272 0.100058 -0.0420819 0.160996 -0.247094 0.0381914 -0.0650503
267 0.0300952 0.045578 -0.0295833 0.00658212 0.0752185 -0.0117266 0.00827593 0.0375829 0.00127017 0.0367968 0.0599873 0.0534299 -0.0442797 -0.0886662 -0.0237985 0.0556797 -0.0587415 0.0369961 0.0210413 0.00898321 0.0566024 -0.0905327 0.0194627 -0.037908
204 0.0784377 0.0657028 -0.0643069 -0.00109388 0.177248 -0.0257792 -0.0317699 0.110145 -0.025277 0.0500432 0.131081 0.0619624 -0.0740602 -0.139175 -0.0398188 0.155089 -0.120088 0.0754331 0.0567096 -0.0116918 0.0972344 -0.161688 0.0284409 -0.0718612
41 0.0673956 0.0598922 -0.0417516 0.0374574 0.192875 -0.0310232 -0.0273222 0.105003 -0.0252494 0.0544757 0.128729 0.111557 -0.0821266 -0.19272 -0.0609686 0.211405 -0.163672 0.0823847 0.0786695 -0.0130298 0.118741 -0.180908 0.05106 -0.0679077
33 0.0991364 0.101665 -0.0583414 0.0304316 0.32376 -0.0334522 -0.0296478 0.178047 -0.0328439 0.0531316 0.213547 0.121494 -0.142194 -0.260782 -0.0825029 0.294415 -0.223559 0.13473 0.119262 -0.049115 0.166718 -0.26133 0.0401487 -0.113192
103 0.0997027 0.0864346 -0.0397971 0.0173569 0.210874 -0.00859309 0.00490705 0.118327 -0.0528459 0.0315803 0.160211 0.121455 -0.0822325 -0.203624 -0.0645291 0.187375 -0.157499 0.0837689 0.0718097 -0.0385104 0.116196 -0.215524 0.0141382 -0.0802402
302 0.078927 0.073926 -0.045964 0.0369578 0.197773 -0.00717038 -0.0217981 0.122259 -0.0325355 0.0279284 0.141788 0.102267 -0.107489 -0.166503 -0.059697 0.158028 -0.135052 0.101847 0.0600267 -0.0128539 0.130466 -0.165422 0.0349405 -0.0798057
521 0.0463229 0.0272827 -0.00132921 0.00779109 0.0989854 0.00759403 -0.0271244 0.0607971 -0.0207212 0.0115571 0.065421 0.0222775 -0.0417754 -0.0563234 -0.0237284 0.0849893 -0.0737741 0.0477087 0.0210281 -0.0149369 0.0632991 -0.096939 0.00145186 -0.016659
252 0.0700642 0.0435367 -0.0302235 -0.00240243 0.18108 -0.00438573 -0.0305021 0.129468 -0.0226501 0.0305037 0.146215 0.0773983 -0.104839 -0.171104 -0.0532525 0.161954 -0.146319 0.072733 0.0515827 -0.0304007 0.121882 -0.177007 0.0128167 -0.0737104
250 0.130882 0.0961535 -0.0875798 0.0102558 0.346725 -0.00310221 -0.00497521 0.195603 -0.0543405 0.0684889 0.232642 0.142123 -0.167905 -0.297942 -0.116065 0.325334 -0.247994 0.151436 0.13525 -0.0459599 0.176076 -0.29891 0.0607358 -0.0978964
440 0.125973 0.0751977 -0.0629849 0.00495267 0.273126 -0.0312115 -0.021042 0.165692 -0.0362713 0.0346966 0.190147 0.109547 -0.136363 -0.224514 -0.0761397 0.255259 -0.195859 0.116145 0.100941 -0.0228957 0.171496 -0.248963 0.0343368 -0.0902453
162 0.0600326 0.0734087 -0.0575848 0.0174498 0.195062 -0.0178888 -0.0232744 0.0984078 -0.039367 0.05211 0.109376 0.0942542 -0.0755337 -0.148435 -0.0529788 0.161714 -0.139945 0.0843609 0.0596917 -0.0103389 0.0949706 -0.169837 0.0446761 -0.0648332
263 0.104497 0.0815831 -0.0817776 0.0318489 0.279362 -0.0153337 -0.0399042 0.16738 -0.0359812 0.0630838 0.211543 0.125164 -0.123537 -0.233795 -0.109145 0.279373 -0.221565 0.137317 0.122695 -0.0188611 0.189688 -0.283864 0.0273698 -0.0813525
264 0.0750238 0.0831785 -0.0367054 0.0298186 0.202478 0.00481652 -0.0192673 0.125441 -0.0381588 0.0325371 0.163865 0.0933667 -0.101406 -0.186676 -0.0800508 0.197122 -0.142323 0.0970824 0.0578039 -0.0402977 0.125725 -0.192843 0.047496 -0.0486187
118 0.104264 0.108566 -0.0824749 0.0441596 0.307938 -0.00821116 -0.0302953 0.178129 -0.0285495 0.0481635 0.228021 0.139054 -0.14515 -0.263837 -0.095917 0.2907 -0.193801 0.127097 0.11453 -0.0237353 0.176314 -0.291955 0.0668202 -0.105237
475 0.0946382 0.0863175 -0.0339031 0.0372616 0.214703 -0.0361843 -0.0346563 0.132831 -0.0357234 0.0549085 0.132575 0.117901 -0.0837868 -0.186815 -0.0561555 0.22192 -0.136675 0.106589 0.096432 -0.0213014 0.132004 -0.185331 0.0431548 -0.0615409
476 0.0579523 0.0445731 -0.0418297 0.0315481 0.204352 -0.00130865 -0.00673194 0.125916 -0.0483915 0.020161 0.120149 0.0730735 -0.0863209 -0.17717 -0.053276 0.167565 -0.123706 0.0771927 0.0478403 -0.00784853 0.126597 -0.161298 0.0103731 -0.0845463
74 0.0719118 0.043226 -0.0668853 0.0107212 0.195187 -0.0123043 0.00273441 0.103325 -0.0400908 0.0413784 0.143199 0.102514 -0.0937555 -0.127295 -0.0697653 0.150933 -0.13243 0.0591435 0.0612979 -0.0317874 0.0930116 -0.172507 0.0220922 -0.0474981
77 0.173181 0.141183 -0.0919763 0.0184645 0.422199 -0.00880921 -0.0242182 0.267084 -0.0681448 0.0758069 0.294271 0.196435 -0.214687 -0.363274 -0.143971 0.419221 -0.317598 0.172083 0.164364 -0.0468355 0.280016 -0.416299 0.0457397 -0.146874
319 0.0549774 0.0584 -0.0328534 0.0148784 0.11738 -0.00192978 -0.00849137 0.0882852 -0.0367071 0.0396217 0.0799784 0.0609639 -0.0475588 -0.109067 -0.0574979 0.122562 -0.0883611 0.0544189 0.0472074 -0.0112342 0.0631898 -0.128761 0.0159398 -0.0523131
143 0.0552618 0.0178486 -0.0264482 -0.0113611 0.109632 0.00825813 0.00213824 0.0391763 -0.00478779 0.013802 0.0450336 0.0325764 -0.0512935 -0.0894913 -0.0131644 0.0997461 -0.0469981 0.0473783 0.0486339 0.00284815 0.0745555 -0.0800365 0.026509 -0.016927
417 0.100227 0.0787257 -0.0766356 -0.000533677 0.235398 -0.00479036 -0.0246596 0.146977 -0.0520364 0.0352207 0.144912 0.114996 -0.100738 -0.205232 -0.0569475 0.204157 -0.164051 0.0872052 0.0956725 -0.0278053 0.133302 -0.221957 0.0197458 -0.0869359
295 0.127203 0.104103 -0.0747904 0.0491345 0.338514 -0.0377853 -0.0224324 0.207306 -0.0468826 0.0626842 0.23038 0.151199 -0.16197 -0.265822 -0.086124 0.282573 -0.230455 0.149953 0.11534 -0.0450791 0.21504 -0.290675 0.0414556 -0.106439
330 0.0226236 -0.0011503 0.000423886 -0.0226899 0.0526723 0.00191996 0.0202788 0.027916 -0.0082809 -0.00722285 0.0469523 0.0125846 -0.0287064 -0.0339091 -0.0375044 0.0457118 -0.0263949 0.00292481 0.0175138 0.0167132 0.0429996 -0.0436222 -0.00245397 -0.0128725
213 0.109432 0.0878898 -0.0584149 0.0251161 0.21972 -0.00614118 -0.0176291 0.1287 -0.0506 0.0311517 0.175966 0.0898078 -0.122309 -0.180548 -0.0896432 0.217745 -0.16562 0.0965676 0.0885551 -0.0307271 0.149904 -0.235138 0.0228166 -0.0700546
317 0.0819956 0.0554602 -0.0819638 0.0330472 0.231661 -0.0328767 0.000579962 0.122718 -0.0571545 0.0424052 0.188122 0.118414 -0.127377 -0.182754 -0.100028 0.234049 -0.177603 0.10855 0.098121 -0.0489166 0.157326 -0.21913 0.0337532 -0.0840562
318 0.0605677 0.0371722 -0.0325115 0.0274789 0.118461 0.00830546 -0.0180265 0.068522 -0.0345014 0.0329761 0.0807759 0.0611613 -0.0467988 -0.105569 -0.037625 0.126999 -0.11746 0.0665621 0.0444642 -0.0348429 0.0918185 -0.146711 0.00476027 -0.0658798
380 0.0694552 0.0308915 -0.055467 0.0155157 0.141645 -0.00190646 -0.0110568 0.100554 -0.0180438 0.018805 0.127223 0.0822321 -0.0645881 -0.111857 -0.0640136 0.13191 -0.118702 0.0650653 0.0555162 -0.0282543 0.0898873 -0.125854 0.00377783 -0.0503987
39 0.0831266 0.0750061 -0.0528686 0.0177979 0.246841 -5.41237e-05 -0.027304 0.147393 -0.0469723 0.050193 0.168072 0.101949 -0.0967887 -0.186635 -0.0653221 0.228283 -0.189913 0.114373 0.066721 -0.0144326 0.129959 -0.202732 0.0264104 -0.0611391
40 0.070626 0.0459217 -0.0512608 0.0170044 0.219232 -0.000812143 -0.0276071 0.118509 -0.0182326 0.0310505 0.15063 0.112931 -0.105942 -0.181154 -0.0693704 0.209037 -0.165735 0.101954 0.0590975 -0.0289796 0.138791 -0.211004 0.0123141 -0.0624037
30 0.145213 0.100689 -0.101492 0.0241588 0.401289 -0.0340788 -0.0410576 0.225538 -0.0482278 0.0722432 0.281179 0.169578 -0.180541 -0.352568 -0.126008 0.36842 -0.302057 0.159564 0.130657 -0.0419691 0.229727 -0.384217 0.0745386 -0.156127
404 0.0678913 0.0538955 -0.0245377 -0.00149985 0.137524 -0.000360062 -0.0263926 0.106152 -0.0185701 0.012521 0.100581 0.0900163 -0.0490167 -0.108504 -0.0323275 0.143693 -0.0905337 0.0769521 0.0339626 -0.0159839 0.0915763 -0.118684 0.0328402 -0.0405325
229 0.165543 0.16209 -0.0998647 0.0546939 0.468353 -0.0447311 -0.0168396 0.264864 -0.0798258 0.109703 0.354188 0.197636 -0.22185 -0.393963 -0.15253 0.435904 -0.360162 0.206398 0.146857 -0.0707805 0.26261 -0.459381 0.0890129 -0.164175
211 0.0737439 0.0590525 -0.0606343 0.0332567 0.199532 -0.0083073 -0.0146937 0.116477 -0.0213378 0.0324025 0.141238 0.064146 -0.0779326 -0.17344 -0.0647784 0.15998 -0.130081 0.0617849 0.0601385 -0.0411742 0.10523 -0.19291 0.0134134 -0.0466612
28 0.107619 0.0680485 -0.0405163 0.00158129 0.255758 -0.0347971 -0.00495927 0.154579 -0.0264772 0.0471099 0.164094 0.111469 -0.11641 -0.220754 -0.0845559 0.241589 -0.181758 0.12058 0.0965302 -0.0158715 0.152996 -0.220518 0.0506799 -0.0812616
356 0.0312159 0.0446142 -0.00584204 0.0218485 0.0767836 -0.0162269 0.00316956 0.035032 -0.0199696 0.0149635 0.0480263 0.028382 -0.0247751 -0.0617655 -0.0241983 0.0637665 -0.0696297 0.0297521 0.0210462 0.00967431 0.0566778 -0.0571832 -0.00270102 -0.0223853
304 0.0743903 0.051369 -0.0338106 0.0246057 0.153983 0.0055701 -0.0125101 0.0935795 -0.0308103 0.015799 0.0853266 0.0607602 -0.0722765 -0.129835 -0.0503644 0.139248 -0.108717 0.0415237 0.0436892 -0.0355268 0.0986746 -0.124509 0.0247655 -0.0309379
265 0.0839283 0.0544761 -0.0595631 0.0156054 0.165275 -0.0260166 -0.0223018 0.101202 -0.0389855 0.0190315 0.108517 0.0739435 -0.0954142 -0.125022 -0.0502899 0.14522 -0.103422 0.0854029 0.0674831 -0.0284825 0.103738 -0.161531 0.0278093 -0.0646473
525 0.116122 0.0574793 -0.0766032 0.00707373 0.231653 0.00281898 -0.0177837 0.15661 -0.0327478 0.0418899 0.189312 0.0917266 -0.132783 -0.220821 -0.103773 0.205885 -0.157824 0.100088 0.0740247 -0.0382358 0.145663 -0.234035 0.0411958 -0.101575
526 0.089588 0.0436024 -0.0648291 0.00148396 0.187069 0.00913279 -0.0273528 0.0874758 -0.0170375 0.0546454 0.129761 0.0678919 -0.106601 -0.136775 -0.0552503 0.17842 -0.127024 0.0584065 0.0758343 -0.0178258 0.113483 -0.175851 0.0154452 -0.0613547
312 0.0797068 0.0777818 -0.0339651 -0.00276745 0.179214 -0.00456004 -0.0164692 0.118467 -0.0386889 0.0363286 0.13015 0.0803617 -0.104761 -0.164682 -0.042713 0.175415 -0.108446 0.0616907 0.0439144 -0.0158145 0.111493 -0.148422 0.0224951 -0.0547379
313 0.125329 0.115926 -0.10192 0.0126694 0.365141 -0.0276579 -0.00325665 0.194963 -0.0410046 0.0512407 0.244432 0.179896 -0.178305 -0.318603 -0.118337 0.329008 -0.240795 0.14622 0.108651 -0.032146 0.210016 -0.339123 0.0384505 -0.126804
55 0.0821936 0.046802 -0.0628103 0.027506 0.174631 -0.0244198 0.00601361 0.121562 -0.0311019 0.0399363 0.141571 0.0689431 -0.0956782 -0.129724 -0.0486874 0.167423 -0.134635 0.0737931 0.0606379 -0.0228302 0.119194 -0.15478 0.0328944 -0.0736717
146 0.0969385 0.0777411 -0.0469969 0.0180247 0.252543 -0.0175623 -0.018072 0.121392 -0.0528765 0.0479268 0.17589 0.0982519 -0.122631 -0.204087 -0.0869108 0.205361 -0.183426 0.101917 0.0821518 -0.0465824 0.154743 -0.213884 0.0359516 -0.102011
159 0.0870893 0.039567 -0.0428115 0.0335588 0.172068 -0.00971219 -0.00998332 0.1075 -0.0235669 0.0389981 0.121567 0.0761696 -0.0984236 -0.14039 -0.0401576 0.155639 -0.119823 0.0509119 0.0428591 -0.0218781 0.0823798 -0.177602 0.0421383 -0.0732219
424 0.0783692 0.0337071 -0.0302763 0.0190855 0.165417 -0.0168657 0.00458917 0.100865 -0.0350771 0.0328247 0.119153 0.0899373 -0.0649471 -0.128733 -0.0628892 0.146328 -0.0996712 0.0782143 0.0631291 -0.0359142 0.0833914 -0.132664 0.025055 -0.072632
423 0.111837 0.052333 -0.0618134 0.013822 0.215389 -0.0063125 -0.0108123 0.154173 -0.0580884 0.0619091 0.179372 0.0926538 -0.112354 -0.192704 -0.0770867 0.203416 -0.160079 0.106815 0.0703206 -0.049304 0.13542 -0.233859 0.0164062 -0.0719986
201 0.0879158 0.0507895 -0.0589885 0.00225274 0.202977 0.00582592 -0.00227975 0.0934122 -0.0206607 0.0170239 0.147028 0.0857146 -0.0731333 -0.171157 -0.0591862 0.158526 -0.146647 0.0979655 0.0626322 -0.0468186 0.120864 -0.198851 0.00665355 -0.0488442
443 0.106869 0.0902844 -0.0782355 -0.000982832 0.229794 0.00276318 -0.0200188 0.137453 -0.0288982 0.0391615 0.162206 0.10201 -0.110542 -0.166483 -0.0986072 0.226682 -0.142133 0.0762094 0.0864548 -0.0176191 0.112781 -0.190729 0.055903 -0.0977765
442 0.088712 0.0722629 -0.0539652 0.0284501 0.263974 -0.0285085 -0.0378061 0.151248 -0.0539449 0.0506925 0.174894 0.130185 -0.139751 -0.22455 -0.110574 0.273617 -0.173146 0.128686 0.0823958 -0.0186198 0.168819 -0.251724 0.0361175 -0.106041
109 0.119091 0.0580986 -0.0481318 0.0430278 0.246683 -0.017072 -0.0380153 0.129252 -0.0337214 0.050803 0.199634 0.133396 -0.13991 -0.228239 -0.0794262 0.229995 -0.195434 0.0885469 0.100792 -0.0405342 0.168919 -0.260856 0.0452106 -0.105601
198 0.0515571 0.0569352 -0.0231263 0.0190778 0.140144 -0.00506838 0.00957929 0.0632055 -0.0232407 0.0465593 0.0860689 0.0841927 -0.049935 -0.121792 -0.0510726 0.115148 -0.1143 0.052916 0.0416207 -0.0125113 0.0719775 -0.147089 0.00846813 -0.0593879
113 0.0647319 0.0414911 -0.0696379 0.00630615 0.18198 -0.00924259 0.00463171 0.110572 -0.0486276 0.042306 0.136523 0.0759584 -0.0895013 -0.161027 -0.0472444 0.180613 -0.121542 0.0620758 0.0748395 -0.0185698 0.122152 -0.195858 0.0268533 -0.0562216
112 0.130632 0.104638 -0.081874 0.022527 0.36421 -0.0398294 -0.0345308 0.238627 -0.0771035 0.076484 0.248974 0.190464 -0.190396 -0.30876 -0.114641 0.346119 -0.252189 0.136489 0.114758 -0.0655559 0.21002 -0.347241 0.0348054 -0.145855
366 0.0779154 0.0486036 -0.0494762 0.0235723 0.192296 -0.00356119 0.0027381 0.0986637 -0.0340084 0.0214618 0.125618 0.098015 -0.0834151 -0.140413 -0.0540002 0.177569 -0.149986 0.0658953 0.0468074 -0.00480318 0.113635 -0.171622 0.0408475 -0.0720659
367 0.103174 0.0806541 -0.03636 0.0157133 0.232083 -0.010034 -0.0268044 0.115258 -0.0268431 0.0396244 0.15355 0.103805 -0.10799 -0.160893 -0.050921 0.214061 -0.168196 0.103618 0.0769269 -0.0112001 0.128964 -0.191363 0.015756 -0.0542099
308 0.0392353 0.0425034 -0.0343265 0.0112026 0.1426 0.00418733 -0.00848062 0.0879804 -0.00816126 0.0202569 0.118218 0.0527652 -0.0715105 -0.135599 -0.0615284 0.150249 -0.101 0.081745 0.0401031 -0.0220757 0.101872 -0.145811 0.0173484 -0.0639751
397 0.116091 0.0806896 -0.0739328 0.0302611 0.276283 -0.00289295 -0.0199659 0.177699 -0.0286782 0.0523401 0.211454 0.146656 -0.148764 -0.227464 -0.0816207 0.269066 -0.197182 0.109548 0.111952 -0.0343898 0.16135 -0.244071 0.0347741 -0.0934451
167 0.115812 0.0699232 -0.0894223 0.0358554 0.260903 -0.0129772 -0.0361278 0.153348 -0.0431365 0.0537621 0.171438 0.119645 -0.139218 -0.237503 -0.0817632 0.245508 -0.213209 0.106062 0.11222 -0.0436792 0.161311 -0.262691 0.0344454 -0.093741
507 0.0473941 0.0311835 -0.0295002 0.0246671 0.0917451 0.0163619 -0.000877348 0.0413195 -0.0104073 -0.00302381 0.0643013 0.0418147 -0.0568859 -0.0961209 -0.036419 0.0813799 -0.087333 0.0192805 0.0204435 -0.0304339 0.0581239 -0.102524 0.00507082 -0.014756
448 0.0871416 0.0616406 -0.0517934 0.0166671 0.229594 -0.0263757 -0.0211691 0.108967 -0.046501 0.0411857 0.143806 0.114784 -0.0944438 -0.177597 -0.0779598 0.190627 -0.168095 0.0761876 0.0754669 -0.0107202 0.118287 -0.195488 0.0401229 -0.0843448
464 0.0874664 0.0533541 -0.0606987 0.00936843 0.172215 0.00455819 0.00340702 0.0997779 -0.0318711 0.0403064 0.128046 0.0778937 -0.0691951 -0.157156 -0.0472148 0.158889 -0.13671 0.0544216 0.0756717 -0.0323664 0.0886181 -0.156162 0.0162871 -0.0569952
62 0.110928 0.102698 -0.0563635 0.0275817 0.282568 -0.0385613 -0.0254995 0.158538 -0.0236953 0.0778663 0.211757 0.109672 -0.145481 -0.22964 -0.0695322 0.254283 -0.187838 0.132961 0.0855939 -0.0563479 0.149115 -0.255069 0.0303188 -0.0753306
449 0.110398 0.0805145 -0.047271 0.0222973 0.223543 0.0034302 -0.00117754 0.132193 -0.0283274 0.0347511 0.154502 0.11613 -0.11079 -0.172156 -0.0905053 0.1991 -0.160138 0.0923478 0.086583 -0.00850803 0.109353 -0.200564 0.0457146 -0.0544367
450 0.0920912 0.0647972 -0.0715506 0.0171998 0.227117 -0.0185989 -0.00132442 0.112215 -0.0413537 0.0312576 0.175497 0.103046 -0.10856 -0.173991 -0.0570056 0.193614 -0.184845 0.0806815 0.0745025 -0.0281003 0.130852 -0.19735 0.0369587 -0.0786839
238 0.0613468 0.0321829 -0.0377179 -0.00559357 0.14676 0.00920548 -0.0132226 0.0642858 -0.0186481 0.0280449 0.110671 0.0708647 -0.0651956 -0.107962 -0.0488183 0.120894 -0.105138 0.0622134 0.0313929 -0.0306784 0.0775381 -0.140604 0.00177931 -0.0578196
53 0.0941102 0.0650368 -0.0796288 0.0182165 0.226613 -0.0076218 -0.0355161 0.155485 -0.0355589 0.0575615 0.180508 0.10059 -0.131449 -0.194987 -0.0995621 0.218267 -0.184591 0.100508 0.0974975 -0.0430276 0.114133 -0.198404 0.0241282 -0.0589262
54 0.0734435 0.0827756 -0.0420575 0.0255099 0.23303 -0.0190466 -0.0319572 0.155294 -0.0524218 0.0309844 0.179252 0.112905 -0.121002 -0.210256 -0.103084 0.217434 -0.156313 0.112485 0.0929973 -0.0534025 0.158158 -0.245246 0.0399939 -0.0881116
246 0.0663311 0.0497942 -0.0579998 0.0338288 0.178337 -0.00781805 0.00279097 0.114159 -0.023122 0.0182933 0.155355 0.0914816 -0.101936 -0.149568 -0.069679 0.177706 -0.132706 0.100586 0.0742934 -0.0446294 0.130718 -0.190394 0.0516156 -0.0787371
245 0.108184 0.0966807 -0.0915722 0.047685 0.300517 -0.0307359 -0.0402831 0.182755 -0.0654681 0.0646321 0.224248 0.148944 -0.136376 -0.242331 -0.103713 0.300591 -0.23416 0.120241 0.115529 -0.0530753 0.178978 -0.299738 0.049493 -0.101771
161 0.10405 0.0880398 -0.0684974 0.036499 0.291803 -0.00222421 -0.0158212 0.180486 -0.0520684 0.0356234 0.211686 0.133892 -0.133229 -0.24779 -0.0926914 0.260261 -0.202195 0.0976804 0.0991055 -0.0593902 0.165322 -0.265524 0.056386 -0.0788289
121 0.0787608 0.0509726 -0.0610981 0.0420978 0.250802 0.00172376 -0.038131 0.121662 -0.0179694 0.0483132 0.141087 0.0951392 -0.10529 -0.183984 -0.0552177 0.212343 -0.169449 0.101474 0.0576856 -0.0523108 0.13054 -0.217199 0.0319521 -0.0640709
200 0.0723136 0.0496974 -0.0284149 0.0101027 0.172482 -0.0107618 -0.0222334 0.13228 -0.0416959 0.029043 0.147192 0.0972101 -0.0886559 -0.15822 -0.0700876 0.167995 -0.133932 0.0769202 0.0875049 -0.0202143 0.0969714 -0.17373 0.0441541 -0.0670413
169 0.0937057 0.0843951 -0.0549949 0.0379959 0.260208 -0.00179933 0.00227416 0.150666 -0.0478693 0.0395883 0.182671 0.0985588 -0.112798 -0.199228 -0.100179 0.244224 -0.174946 0.0948952 0.0816654 -0.0500911 0.135866 -0.240435 0.0212269 -0.060575
434 0.0719911 0.0257984 -0.0541648 0.0240013 0.144824 -0.0178423 -0.0228216 0.0637292 -0.0379018 0.00922603 0.112456 0.0882629 -0.077184 -0.11742 -0.0413606 0.139424 -0.0848315 0.070865 0.0470657 -0.00239253 0.0690404 -0.154772 0.0208213 -0.0619833
271 0.0606687 0.0383425 -0.0274488 0.00307588 0.156853 -0.0282824 -0.0142044 0.0959192 -0.0382647 0.0434706 0.106889 0.076153 -0.0721613 -0.165076 -0.0691153 0.172288 -0.14859 0.0522706 0.0456018 -0.0291928 0.126581 -0.150278 0.0370136 -0.0630568
182 0.0774735 0.0737837 -0.0445395 0.00153032 0.208823 -0.0224335 -0.00553128 0.0994758 -0.0139716 0.0203668 0.158954 0.0888186 -0.115381 -0.170685 -0.0553898 0.193273 -0.156613 0.0834714 0.0702892 -0.0274743 0.111943 -0.174879 0.0149701 -0.079378
251 0.0546471 0.0702304 -0.0404867 0.0294999 0.188022 -0.00740268 -0.00366513 0.0931279 -0.0283575 0.0267813 0.124685 0.0783238 -0.0788034 -0.125682 -0.0763162 0.176689 -0.120573 0.0693086 0.0516702 -0.00980696 0.108465 -0.147391 0.00605703 -0.0386963
382 0.0548191 0.0476546 -0.0178626 -0.0111875 0.122655 -0.0203852 -0.00348531 0.0720455 -0.00233356 0.0368816 0.0740823 0.0524977 -0.0695929 -0.0733863 -0.0496087 0.117324 -0.07092 0.0583616 0.0458626 -0.0163255 0.0685219 -0.0972636 0.0340519 -0.0258951
7 0.176707 0.133803 -0.104703 0.0315864 0.404019 -0.00741185 -0.0207444 0.23365 -0.070763 0.0653656 0.289426 0.201398 -0.204462 -0.340279 -0.117925 0.365265 -0.286743 0.170431 0.155316 -0.0298587 0.250261 -0.359583 0.0525329 -0.129198
512 0.0471462 0.0264157 -0.0398807 0.0166478 0.100919 0.0129465 -0.0152924 0.0484497 -0.0251236 0.0268494 0.0749854 0.0335583 -0.0345445 -0.0768543 -0.0510733 0.119824 -0.0821776 0.055926 0.0553056 -0.0300229 0.0605331 -0.117543 -0.001197 -0.0284331
208 0.0594933 0.0217805 -0.0297905 -0.00666365 0.134759 0.00508122 0.00968834 0.0940625 -0.0336197 0.00679176 0.0820843 0.0729165 -0.0780186 -0.114032 -0.0571619 0.144328 -0.0752653 0.0594213 0.0297367 -0.0362515 0.0690732 -0.107857 0.00695371 -0.0260466
332 0.0509561 0.0184725 -0.0255852 0.0200664 0.0796716 -0.0199317 -0.0175144 0.0597033 0.00509202 0.00627743 0.0660336 0.0360853 -0.0238622 -0.0532086 -0.0109181 0.0441625 -0.0592253 0.0450831 0.0432041 1.43706e-05 0.0328256 -0.0564387 0.0126405 -0.0184854
336 0.027962 0.00545572 -0.0177625 -0.0175243 0.0588467 0.00483378 -0.00345202 0.0291403 -0.00669193 0.0264543 0.0395414 0.0364303 -0.0365727 -0.0515099 -0.0162792 0.0387789 -0.0212639 0.0113253 0.00768512 -0.00752513 0.046016 -0.0591376 0.01122 -0.00382255
328 0.034265 -0.00373595 -0.0262326 0.00240203 0.0503979 -0.0273633 0.0151679 0.00802523 0.00565995 -0.00277425 0.0434545 0.0382126 -0.038984 -0.024747 -0.0111964 0.0324686 -0.00758756 0.0239461 0.0103437 -0.00450275 0.0437418 -0.0289188 0.0259583 -0.0193573
468 0.0531204 0.049248 -0.0358717 0.0239224 0.10159 -0.00706988 -0.0286261 0.0539346 -0.0250803 0.0145748 0.0656506 0.0359944 -0.0326842 -0.0911209 -0.0320246 0.0740019 -0.0812159 0.0571507 0.034561 0.00040509 0.0554179 -0.0823101 -0.00115558 -0.0364598
385 0.0789718 0.0447436 -0.0407377 0.0320867 0.172648 -0.00925308 -0.00767231 0.106301 -0.0459737 0.0450251 0.10798 0.0696909 -0.0759745 -0.118362 -0.0474051 0.132286 -0.106362 0.0764327 0.0655616 -0.0402568 0.0886605 -0.13279 0.041005 -0.0462516
384 0.104006 0.0761727 -0.0782707 0.0294818 0.253336 -0.00882096 -0.0393818 0.145685 -0.0560243 0.0293137 0.163074 0.124866 -0.138521 -0.204594 -0.0955743 0.218828 -0.164106 0.118243 0.0836788 -0.0261603 0.148408 -0.229627 0.0264281 -0.0851391
343 0.0199206 0.0227083 -0.0176859 0.017807 0.0386333 -0.0180833 -0.0174167 0.0135626 -0.0271103 0.0136494 0.0253882 0.0300368 -0.0112766 -0.0411053 -0.0244365 0.0433571 -0.0314661 0.0258609 0.0201419 0.0123895 0.0436023 -0.0608607 -0.0102556 -0.0271286
508 0.0506168 0.0362041 -0.0357087 0.00058077 0.146386 -0.0223915 -0.019111 0.0562146 -0.00702781 0.0302116 0.108579 0.0423937 -0.0799428 -0.119163 -0.0234976 0.102837 -0.0993091 0.0575273 0.0564985 -0.0264235 0.0686429 -0.123787 0.0340525 -0.0350471
97 0.0739207 0.0431756 -0.0333725 0.0252786 0.194183 -0.0314504 -0.0200537 0.119519 -0.0117949 0.0522059 0.148746 0.101661 -0.0718428 -0.155263 -0.0699023 0.183961 -0.122557 0.0880494 0.0856835 -0.0140048 0.104941 -0.18751 0.0367075 -0.0520802
514 0.0603341 0.0357653 -0.0388981 0.0206161 0.11824 0.00624192 -0.0179612 0.0567957 -0.0160836 0.0375446 0.0696975 0.0308684 -0.0572552 -0.0705173 -0.0545148 0.119517 -0.0815475 0.0471185 0.0452833 -0.0209097 0.0581013 -0.121245 -0.00206293 -0.0252074
108 0.0617792 0.0464131 -0.0477051 -0.000481032 0.172438 -0.020831 -0.00408982 0.124484 -0.0087089 0.0485702 0.156771 0.0821425 -0.103045 -0.163227 -0.0434427 0.171382 -0.145252 0.0935988 0.0858574 -0.0111592 0.121348 -0.162547 0.0450379 -0.0443171
306 0.0636227 0.0665117 -0.063212 0.0106955 0.189263 0.00770296 -0.0218522 0.136167 -0.0110066 0.0494237 0.148057 0.10297 -0.103245 -0.181098 -0.0500181 0.185659 -0.154827 0.0996926 0.0894962 -0.0303555 0.124155 -0.180243 0.0388346 -0.05837
305 0.136284 0.0779748 -0.0919292 0.036876 0.344021 -0.0239459 -0.00723928 0.204564 -0.0411128 0.0735162 0.243599 0.12509 -0.144023 -0.288775 -0.0903328 0.29819 -0.226152 0.142665 0.118444 -0.0561736 0.17611 -0.298911 0.0609633 -0.11611
173 0.107327 0.0800282 -0.0743849 0.0151781 0.243773 -0.0210734 0.000323094 0.126107 -0.0515903 0.0365055 0.185203 0.126642 -0.120802 -0.216938 -0.0711063 0.226126 -0.192353 0.0958643 0.0898109 -0.038314 0.163168 -0.240505 0.0184268 -0.0853324
44 0.107643 0.0815368 -0.0434518 0.0181999 0.236284 -0.00291295 -0.00710776 0.147126 -0.0155997 0.0344885 0.146805 0.0929406 -0.128665 -0.213915 -0.0740966 0.23493 -0.171748 0.100144 0.0893648 -0.0218979 0.154178 -0.209595 0.0228213 -0.0716897
297 0.140896 0.106197 -0.0741805 0.010482 0.292266 -0.0240949 0.000891689 0.184064 -0.0488474 0.0413773 0.219236 0.165081 -0.124217 -0.267258 -0.0965113 0.269475 -0.23882 0.126963 0.116947 -0.0316785 0.185614 -0.297132 0.0684614 -0.118998
6 0.0577905 0.0341209 -0.0233914 0.0235823 0.0906208 -0.0115886 -0.00889781 0.0662473 -0.0280774 0.0213348 0.0888113 0.051749 -0.0388168 -0.0700079 -0.0365325 0.0920474 -0.0557108 0.0438545 0.0374124 -0.0160489 0.0626361 -0.097604 -0.00482308 -0.0517
262 0.0328713 0.0175785 -0.0077717 0.00468423 0.0999883 0.00192487 -0.000572811 0.060544 0.00604625 0.00843127 0.0793559 0.0445738 -0.0565919 -0.087445 -0.0236579 0.0898101 -0.0785664 0.0484354 0.0474088 -0.0223239 0.039834 -0.0840912 0.00780919 -0.0363359
154 0.110844 0.0820521 -0.0750785 0.0409079 0.223267 -0.0108556 -0.00239029 0.140537 -0.0425105 0.0559598 0.163287 0.119268 -0.125088 -0.217037 -0.0908393 0.219801 -0.193869 0.0950559 0.0656787 -0.0433071 0.159774 -0.213569 0.0548155 -0.0825932
155 0.0913787 0.069801 -0.0399307 0.0197914 0.234485 -0.0185329 -0.00893681 0.138566 -0.057509 0.0520092 0.174414 0.104405 -0.119453 -0.207144 -0.0668548 0.228724 -0.16176 0.102612 0.0640215 -0.0470836 0.11683 -0.204163 0.0456298 -0.0798384
125 0.13971 0.086254 -0.0662276 0.0255007 0.323341 -0.0139134 -0.0161736 0.194631 -0.0529066 0.0680928 0.224408 0.121005 -0.15722 -0.247131 -0.0976108 0.288982 -0.241878 0.118429 0.132165 -0.0361948 0.187732 -0.302638 0.0411145 -0.0909888
124 0.0604712 0.0647494 -0.0228768 -0.00660824 0.160747 -0.0270908 -0.0144615 0.0953586 -0.0392325 0.00941995 0.0924621 0.0583708 -0.061889 -0.104939 -0.0596489 0.151405 -0.0925145 0.0800309 0.066124 -0.0375888 0.0853405 -0.149906 0.0111807 -0.0479883
355 0.0515303 0.00594665 -0.0110225 -0.0150169 0.0488596 0.00509614 -0.00933102 0.0497142 -0.0178976 0.0337215 0.0482641 0.0226168 -0.0386867 -0.0391102 -0.0222836 0.0505481 -0.0338674 0.0183814 0.0392678 0.002886 0.0413827 -0.0757233 -0.00149843 -0.0209849
511 0.0371677 0.0159064 -0.0325287 0.0011874 0.10272 -0.0253368 -0.00870506 0.060207 -0.0295899 0.0304381 0.0867932 0.0522997 -0.0533315 -0.0747305 -0.0446996 0.113449 -0.0822541 0.0341265 0.0253146 0.00501558 0.0752799 -0.0985999 -0.00268592 -0.0438148
1 0.0774879 0.082982 -0.0491902 0.0363383 0.245597 -0.00824212 -0.0354206 0.144405 -0.0426116 0.0258768 0.149238 0.123213 -0.121583 -0.175006 -0.0567376 0.225665 -0.184374 0.0829536 0.0841792 -0.0446748 0.159346 -0.236465 0.0178923 -0.0813891
2 0.11833 0.109299 -0.0653867 0.0408879 0.287112 -0.0307651 -0.0275605 0.155374 -0.0337867 0.0783504 0.222213 0.145464 -0.158005 -0.222511 -0.0794298 0.264976 -0.226426 0.108402 0.0872984 -0.0188107 0.189866 -0.290883 0.0635632 -0.078974
268 0.0682503 0.0480232 -0.0725191 0.0185667 0.229541 -0.000719212 -0.0300349 0.127814 -0.0539883 0.043148 0.170961 0.114554 -0.0986658 -0.194627 -0.0556573 0.206018 -0.155798 0.108961 0.0769672 -0.011596 0.112004 -0.200921 0.0202896 -0.0706632
398 0.0783774 0.0399566 -0.0487195 -0.00422198 0.162705 -0.0133333 -0.00275519 0.0997255 -0.00725685 0.0268894 0.0965451 0.0800578 -0.0749961 -0.115055 -0.0302667 0.154776 -0.111168 0.0724021 0.038525 -0.0401858 0.0818851 -0.137071 0.0148297 -0.0517911
375 0.0631 0.0565623 -0.0378427 0.0372608 0.167085 0.00348339 -0.0304462 0.118855 -0.0441303 0.0308345 0.112428 0.0862315 -0.0647704 -0.151454 -0.0656344 0.191312 -0.129338 0.0735106 0.0844751 -0.0368072 0.109007 -0.191437 0.0191855 -0.0663843
292 0.079472 0.0425362 -0.0564197 0.00574033 0.218438 -0.00018433 0.00149618 0.118088 -0.0483921 0.0466623 0.145026 0.0971708 -0.0902719 -0.157567 -0.0566878 0.176408 -0.167118 0.0675369 0.0851901 -0.00742324 0.126805 -0.194498 0.0144284 -0.0827881
300 0.043295 0.021368 -0.0261696 0.0158606 0.132935 -0.015892 0.000175687 0.0852789 -0.0352851 0.0280686 0.0903889 0.0729033 -0.0409887 -0.107656 -0.0562286 0.132867 -0.106599 0.0689002 0.0609014 -0.00817261 0.0569268 -0.123047 0.00688792 -0.0319973
227 0.090373 0.0743975 -0.0909858 0.0371428 0.265224 -0.0373443 -0.0285391 0.150009 -0.0560607 0.0681339 0.192481 0.143907 -0.151146 -0.250576 -0.107184 0.243441 -0.181402 0.105454 0.0750801 -0.0293019 0.183063 -0.264493 0.0569239 -0.113411
226 0.0656757 0.0426312 -0.0494352 0.002261 0.199036 -0.0328831 -0.0115434 0.106701 -0.0389838 0.0206249 0.1603 0.0732421 -0.10488 -0.150785 -0.0591526 0.180131 -0.140925 0.0978068 0.051971 -0.0135801 0.109205 -0.194905 0.0162146 -0.0881874
377 0.0590242 0.0296553 -0.0235226 0.0335111 0.17839 -0.0140801 -0.0303441 0.0852618 -0.0122226 0.0133823 0.139415 0.0620254 -0.0683969 -0.123481 -0.0408872 0.159052 -0.11097 0.064803 0.0746743 -0.029478 0.112799 -0.174629 0.031042 -0.0627965
376 0.0853062 0.0616716 -0.060354 0.0277795 0.257933 -0.0224336 0.000593969 0.155711 -0.0361958 0.0585684 0.191943 0.134649 -0.121952 -0.219304 -0.0987185 0.239062 -0.19285 0.116615 0.0974815 -0.0411297 0.132451 -0.254462 0.0384539 -0.0770241
273 0.104927 0.0765931 -0.0597286 0.0235525 0.237455 -0.00697243 -0.0232385 0.141242 -0.0356637 0.0519439 0.157104 0.107841 -0.129093 -0.186179 -0.066757 0.232622 -0.172524 0.111394 0.0916014 -0.0320222 0.128744 -0.231471 0.0324695 -0.0782346
274 0.0995922 0.0707094 -0.0650735 0.0278945 0.207434 -0.0296477 -0.017931 0.107682 -0.0111914 0.0631785 0.154404 0.113822 -0.0906287 -0.181688 -0.0728644 0.206758 -0.161532 0.104823 0.0781277 -0.0361196 0.125707 -0.191788 0.0507111 -0.0741228
441 0.0399865 0.0277571 -0.0314528 0.0277676 0.13384 -0.0213927 -0.0144885 0.0771473 -0.0158176 0.0253152 0.107056 0.0804328 -0.0651689 -0.128574 -0.0589017 0.153489 -0.107946 0.0812054 0.0341741 -0.00316628 0.0754469 -0.119927 0.0109396 -0.0558221
117 0.0622727 0.0550054 -0.0131271 -0.000921327 0.116974 -0.0230643 -0.0174903 0.0518376 -0.0369697 0.0138081 0.0705772 0.0615011 -0.0645518 -0.0767453 -0.0375763 0.111361 -0.0669396 0.0270619 0.0359712 -0.0260691 0.0666308 -0.0960931 0.0275623 -0.0198804
78 0.118381 0.0786359 -0.0737771 0.0283946 0.308074 -0.0363142 -0.0179466 0.181415 -0.0656169 0.0759048 0.241287 0.160169 -0.151373 -0.246204 -0.116814 0.300956 -0.214952 0.138965 0.0924512 -0.0274791 0.201802 -0.308393 0.0355065 -0.108002
174 0.0728429 0.0849993 -0.040346 0.0197355 0.241895 -0.00452257 -0.0127402 0.146191 -0.0434007 0.0572145 0.171304 0.0939888 -0.114355 -0.200371 -0.0556912 0.203119 -0.139654 0.0912137 0.0775565 -0.0203048 0.115752 -0.232113 0.0404324 -0.0828295
175 0.0755143 0.0773071 -0.0734684 0.00367146 0.239385 -0.00556518 -0.0188102 0.142107 -0.0360929 0.0267537 0.146094 0.0866266 -0.106628 -0.199607 -0.0698465 0.210149 -0.172427 0.0819343 0.0629432 -0.034691 0.13567 -0.192433 0.0485555 -0.0871926
347 0.0368663 0.0324178 -0.00148364 -0.0195842 0.0593582 0.00847423 0.0130768 0.0312261 0.00663715 0.018846 0.0431545 0.0297483 -0.0347303 -0.065676 -0.0315658 0.070555 -0.0345252 0.0100502 0.00894633 -0.022983 0.0556774 -0.0427709 0.0221331 -0.0289774
35 0.111306 0.0855041 -0.0929758 0.0343001 0.283211 -0.0397547 -0.0327033 0.171681 -0.0289484 0.0726068 0.22314 0.145748 -0.153022 -0.251572 -0.0925908 0.282176 -0.222752 0.112071 0.0956062 -0.0466539 0.191579 -0.252226 0.0410006 -0.112082
303 0.0836356 0.0650355 -0.0569215 0.00563906 0.213954 0.00378929 -0.0112334 0.113022 -0.0554665 0.0235573 0.170268 0.092281 -0.110585 -0.203496 -0.086038 0.19546 -0.158955 0.0748006 0.0752705 -0.0171907 0.114575 -0.220088 0.040015 -0.0966732
529 0.0885424 0.0774913 -0.0546246 0.030781 0.175295 0.0061926 0.00369155 0.103993 -0.0125074 0.0415676 0.131345 0.0726715 -0.102735 -0.166791 -0.047861 0.179929 -0.134644 0.0700228 0.0560851 -0.0288286 0.10107 -0.187001 0.0307343 -0.0729121
489 0.106504 0.0733638 -0.0797236 0.0408994 0.249223 -0.0121453 -0.0131166 0.130574 -0.04972 0.0284302 0.183003 0.127273 -0.12672 -0.214495 -0.0862516 0.225382 -0.197134 0.0978841 0.0833291 -0.0434568 0.155476 -0.261332 0.0206406 -0.101132
285 0.0397128 0.0426983 -0.0317955 -0.000150912 0.134267 -0.0298956 -0.00375779 0.0653897 -0.017092 0.0408249 0.0894358 0.062402 -0.0703153 -0.10085 -0.054174 0.148521 -0.120463 0.065333 0.0606163 -0.0370045 0.0650415 -0.152796 0.0191477 -0.0360648
32 0.0535173 0.0762034 -0.0703441 0.00443508 0.203705 0.00331741 -0.0198898 0.123742 -0.0471302 0.0500971 0.153598 0.0787437 -0.107649 -0.183182 -0.0623489 0.177141 -0.126295 0.0632691 0.0479244 -0.0412992 0.100678 -0.196535 0.0395767 -0.0770229
101 0.128574 0.100315 -0.0631676 0.0330943 0.332737 -0.0230019 -0.0366999 0.194121 -0.0323824 0.0470917 0.244245 0.138616 -0.146912 -0.249811 -0.101969 0.305462 -0.205953 0.139376 0.12138 -0.0498614 0.194025 -0.281061 0.0343633 -0.0912279
100 0.0734757 0.0495794 -0.0669567 0.0235936 0.194174 -0.0058579 -0.00267382 0.105275 -0.0205496 0.0504046 0.163814 0.104222 -0.0882675 -0.158263 -0.0711343 0.178474 -0.154938 0.102244 0.0785078 -0.04633 0.143103 -0.175268 0.0204281 -0.0798445
50 0.0614346 0.0444834 -0.0631101 0.00950659 0.174859 -0.0343322 -0.018621 0.0997793 -0.0330981 0.033381 0.123855 0.0722569 -0.0976179 -0.169562 -0.0816621 0.177674 -0.146525 0.0576977 0.0820547 -0.0025247 0.128727 -0.169161 0.0293751 -0.0704543
18 0.120129 0.0682143 -0.0578687 0.000574617 0.26242 -0.0126146 -0.0180029 0.160384 -0.0329197 0.0533944 0.1952 0.128783 -0.133604 -0.216719 -0.0886314 0.251414 -0.168932 0.110484 0.10417 -0.0142501 0.165977 -0.235493 0.0469202 -0.0989504
431 0.0630141 0.0423063 -0.0587609 -0.00423689 0.137996 -0.018741 -0.0169875 0.114892 -0.0215341 0.0212079 0.121832 0.0692031 -0.0524121 -0.133188 -0.0519532 0.134897 -0.0990981 0.0610025 0.0646625 -0.025764 0.104819 -0.15955 0.0319376 -0.046116
520 0.0356904 0.0384416 -0.0271892 0.0128769 0.133138 -0.0184898 -0.0265623 0.0572444 -0.0381135 0.0336676 0.103715 0.0713687 -0.0667025 -0.113221 -0.033426 0.130572 -0.108127 0.0511769 0.0363405 -0.026944 0.0733606 -0.1291 0.0248727 -0.0631936
269 0.104688 0.0583598 -0.0412922 0.0187584 0.221502 0.00541444 -0.00105832 0.112108 -0.0526515 0.0368995 0.171866 0.0939233 -0.0837175 -0.174192 -0.0750262 0.212485 -0.151502 0.0994251 0.0894423 -0.0215595 0.114638 -0.194562 0.0218592 -0.0782038
378 0.0573674 0.0519893 -0.0218835 0.0195426 0.124776 -0.00652337 0.00603458 0.0685276 -0.0126393 0.0147982 0.105885 0.0558662 -0.0646985 -0.13292 -0.0453632 0.1508 -0.0891984 0.0563342 0.0645782 -0.0388573 0.0973256 -0.127329 0.0149007 -0.0558906
184 0.0972345 0.0542831 -0.0417318 0.0153357 0.239854 -0.00611046 0.00191083 0.128918 -0.021281 0.0393028 0.184423 0.104457 -0.11751 -0.209593 -0.0682119 0.213411 -0.162094 0.0802829 0.0813419 -0.0504252 0.143195 -0.201993 0.0412426 -0.0857465
183 0.107311 0.0623059 -0.0476415 0.03199 0.261076 -0.00637368 -0.0381589 0.144412 -0.0244526 0.0689126 0.203707 0.111073 -0.119866 -0.207362 -0.0941457 0.250305 -0.173131 0.128645 0.0881258 -0.0462375 0.176072 -0.262897 0.0412997 -0.0791705
73 0.129464 0.0984988 -0.0816709 0.016091 0.299529 0.00325006 0.000478645 0.182478 -0.055951 0.0633553 0.210245 0.142266 -0.136595 -0.217632 -0.085503 0.283347 -0.196206 0.109528 0.112805 -0.0332359 0.148936 -0.267249 0.0369632 -0.0901287
333 0.0359477 0.0427344 -0.030133 -0.0141245 0.0879315 -0.018999 0.0100526 0.0493413 -0.029009 0.0244256 0.0884444 0.0642082 -0.0350483 -0.0674565 -0.0394927 0.0684845 -0.0610318 0.039332 0.0429286 -0.0097879 0.0391853 -0.105715 0.0205713 -0.0413527
353 0.0407046 0.00683062 -0.0113575 0.0185689 0.0732751 -0.0248324 0.0160123 0.0481523 -0.0254546 0.035162 0.0288382 0.0298279 -0.0236264 -0.0417251 -0.0222886 0.0712018 -0.0374896 0.00640193 0.0183623 0.00960671 0.034482 -0.0554359 0.0257852 -0.00837328
283 0.064703 0.0503666 -0.0311021 0.00457007 0.213979 -0.0304444 -6.87585e-05 0.108876 -0.0407644 0.0488073 0.155323 0.0836254 -0.0751984 -0.18216 -0.0836018 0.181398 -0.149299 0.0800368 0.0804987 -0.00502466 0.110903 -0.190651 0.0356045 -0.0606295
231 0.120112 0.0569274 -0.059751 0.0342735 0.231349 0.0045972 -0.0120642 0.141024 -0.0370056 0.030342 0.180676 0.133334 -0.138665 -0.214733 -0.0660838 0.240792 -0.179003 0.0979601 0.0714421 -0.0500908 0.162349 -0.231214 0.0179118 -0.0723757
209 0.0826596 0.0803807 -0.0435391 0.0249081 0.210638 -0.0112605 -0.0179804 0.109346 -0.0208504 0.026619 0.135953 0.122678 -0.0856333 -0.173598 -0.0736022 0.206877 -0.158621 0.0794088 0.0741138 -0.0090223 0.149602 -0.212324 0.020204 -0.0651367
351 0.0369212 0.0328856 -0.0201448 -0.0104561 0.0701373 -0.0108588 -0.00673935 0.0492627 -0.0302431 0.00856092 0.0380745 0.0202031 -0.0191839 -0.0769512 -0.0450461 0.0826668 -0.0413385 0.0427006 0.0185048 -0.0224044 0.0362787 -0.0813962 0.0068938 -0.00421553
311 0.0485096 0.0284144 -0.0394342 0.025168 0.155422 -0.00141106 -0.00130899 0.0804806 -0.0346538 0.0456035 0.0863239 0.061333 -0.0518707 -0.134572 -0.0701398 0.136727 -0.120911 0.0451402 0.049833 -0.0398124 0.0745628 -0.157242 0.00328389 -0.0721168
337 0.0257903 0.037947 -0.036409 -0.0148025 0.0518052 -0.0055034 -0.000701522 0.0262571 0.010102 0.0165491 0.0292806 0.0272091 -0.0143515 -0.0575348 -0.0154297 0.0588293 -0.0169399 0.0440182 0.0143782 0.00194018 0.0495578 -0.0562926 0.0302513 -0.0185011
482 0.0189259 0.0406071 -0.0205773 0.0206221 0.0811589 -0.024638 -0.0243974 0.0532763 0.00317452 0.027219 0.0483014 0.0224411 -0.0474828 -0.076161 -0.0184938 0.0687489 -0.0510619 0.0281357 0.0421954 -0.0252688 0.0603078 -0.0775651 0.0244331 -0.0108391
181 0.0413562 0.0458221 -0.0364573 -0.00303398 0.086179 -0.0263266 0.00903662 0.0367134 -0.033584 0.0251136 0.0605027 0.034085 -0.0243196 -0.0848775 -0.0350107 0.0930943 -0.0490252 0.0287424 0.033832 -0.00280964 0.0680607 -0.0882722 0.0315872 -0.0522766
51 0.139346 0.100763 -0.105913 0.0282438 0.310501 -0.00785558 -0.0392762 0.177935 -0.0431463 0.0666349 0.218225 0.138979 -0.140958 -0.252667 -0.117935 0.304009 -0.231724 0.152336 0.109416 -0.0346486 0.190668 -0.316347 0.039968 -0.125824
170 0.142633 0.0828925 -0.0667746 0.0366068 0.312125 -0.00692297 -0.00575719 0.175834 -0.0479641 0.0853952 0.231558 0.145112 -0.149615 -0.271176 -0.103706 0.311285 -0.242023 0.142822 0.118873 -0.035923 0.20496 -0.310218 0.0543506 -0.0914243
165 0.0520006 0.0514109 -0.0557258 0.00661522 0.136138 0.00293599 -0.0200847 0.0696065 -0.00686576 0.0127597 0.0851784 0.063271 -0.070429 -0.126816 -0.0415261 0.126144 -0.0884248 0.0691618 0.0400187 -0.0318443 0.0734995 -0.119842 0.0315477 -0.038025
257 0.0528722 0.0637036 -0.0497867 0.00339565 0.171995 -0.0268654 0.00258282 0.0870415 -0.0249355 0.0449678 0.134318 0.0989718 -0.0843409 -0.130712 -0.0513411 0.149932 -0.123921 0.0679022 0.0747326 -0.00985788 0.115975 -0.172452 0.0282232 -0.0665084
261 0.0470927 0.0553274 -0.0301069 0.0163503 0.14 -0.0145188 -0.0270072 0.102487 -0.0310528 0.00666648 0.0923309 0.0864144 -0.0544896 -0.129268 -0.0514095 0.122605 -0.0943588 0.0456193 0.0705319 -0.0201649 0.0789619 -0.150871 0.0345691 -0.0638201
232 0.120587 0.0581755 -0.0792251 0.00152872 0.270405 -0.0372566 -0.021775 0.173933 -0.0584071 0.0731309 0.182685 0.09709 -0.135491 -0.234662 -0.0942702 0.249018 -0.190215 0.120905 0.0777562 -0.031272 0.168038 -0.239081 0.0472046 -0.0678896
79 0.0908059 0.0719084 -0.0393826 0.0157755 0.201952 -0.0309876 -0.0244175 0.103991 -0.0370942 0.0256884 0.135921 0.114337 -0.122596 -0.168279 -0.0598607 0.208512 -0.156876 0.0893852 0.0758382 -0.021249 0.126667 -0.215762 0.0159426 -0.0842672
81 0.0826451 0.0701433 -0.0410187 0.0372053 0.204976 -0.0157791 -0.0246872 0.103058 -0.0214781 0.0620005 0.148404 0.0977998 -0.0868915 -0.192327 -0.0684334 0.208471 -0.161149 0.0702044 0.0645389 -0.0383426 0.120676 -0.186924 0.0300305 -0.0532342
