4431 24
854 -0.00523003 0.00311732 -0.00507126 -0.0130008 -0.0147229 0.000777531 0.0195468 -0.0067035 -0.00792261 -0.00614144 -0.000438493 -0.00406004 0.0109837 -0.0146028 -0.00989687 0.00342969 0.0105391 -0.0160635 0.0181238 0.020303 -0.018946 0.0123546 0.00836755 0.00669446
966 0.0150778 0.0105085 -0.0151548 0.00330931 -0.0137526 -0.0196442 -0.00582386 -0.00169743 -0.00184669 0.0114302 -0.00404482 0.014608 -0.00109233 0.00494359 -0.0100785 -0.011903 -0.00690095 0.0114464 0.00938471 -0.0191117 -0.0207544 -0.00597565 0.00422459 0.0180215
826 0.0143068 -0.000819905 0.00501137 0.00205361 -0.00220879 -0.00615861 0.00263696 0.00359955 -0.016113 0.00845005 -0.0127446 0.00979499 0.000890884 -0.00631324 0.00886751 0.00261749 -0.00794547 -0.0173583 0.000289753 0.0178452 -0.0149081 0.0188337 0.00749057 -0.0193227
719 0.0167913 -0.0133994 -0.00534429 0.0211309 -0.0211794 -0.00997349 -0.00316276 -0.0206532 0.00788945 0.00608127 0.00474724 0.00742341 0.00970325 0.000735036 -0.0155873 -0.0111493 0.0137189 -0.00208757 -0.00385662 -0.0119963 -0.0194575 -0.0172052 -0.00242377 0.00205196
984 -0.0184607 0.0118906 -0.0166774 -0.000383198 -0.0189368 -0.00381003 -0.00863283 0.00231512 0.000610899 0.00731394 0.0205252 0.0150668 -0.0197166 -0.0113384 0.0115121 -0.0125653 0.00764231 -0.0151318 0.0167556 0.0180094 -0.0074531 -0.0123394 -0.00307593 -0.0184556
1104 -0.00343353 -0.0093123 -0.000281212 0.00522115 -0.000524797 -0.000127664 0.0201283 -0.0051828 0.0125075 -0.0148789 0.00986662 0.0129165 -0.0203232 -0.0095613 -0.00491321 -0.0183789 0.00212129 -0.0170895 0.0148799 0.0183823 -0.013932 -0.00903444 0.0170713 -0.00121026
603 0.000253006 -0.0186773 -0.00774395 0.00476016 -0.0170272 -0.0165828 0.0172915 -0.0119064 0.0148877 -0.0205103 0.0148394 0.00462835 0.00495093 0.0119035 -0.000486925 -0.00705226 -0.00267723 0.0124209 -0.010544 -0.0164026 -0.0180084 0.00584404 0.00820262 -0.00185728
190 -0.00719317 -0.000749072 -0.0164515 -0.00364626 -0.012414 -0.0153708 -0.0181626 -0.00360865 0.0132136 0.0178086 -0.0102928 -0.0100769 0.00222964 -0.0121275 -0.0171435 0.00144273 -0.0120214 0.00531327 -0.0113561 -0.0185713 -0.00823385 0.00872386 0.00841005 0.0146935
488 -0.0166981 0.00698283 0.00788393 0.0206168 0.000625065 0.00764767 -0.00614042 0.0190189 -0.00249024 -0.0187416 -0.0110629 0.0111601 -0.0176263 0.00532316 0.00152623 0.00851385 -0.0114459 -0.00919751 0.0112961 -0.0159147 -0.000803031 -0.0101186 0.010015 0.00290973
1043 0.0116782 0.00204173 -0.00723893 -0.00348232 -0.0059308 -0.00286265 -0.0100938 0.0127536 0.0201646 0.0155521 0.0213645 -0.0143543 -0.0115161 0.0144805 0.000594002 0.00543263 -0.0107477 0.00660465 0.0207557 -0.00166491 0.0125109 -0.00810254 -0.0150135 0.00954409
1159 0.00337222 -0.0195885 -0.0141595 -0.000451905 0.00769684 0.0171496 -0.00153697 0.0043415 -0.0165801 -0.00406129 0.0118192 -0.00587366 -0.0190295 -0.0196376 -0.0133132 0.0174615 -0.00996464 -0.0189969 0.0118503 0.00153664 -0.0194112 0.0117048 0.0176427 -0.019796
145 -0.0132131 0.0126994 0.000881525 0.00301318 0.00398748 -0.0105583 -0.00530933 -0.0130547 0.0152853 0.00523102 0.00671647 0.0136887 0.005221 0.00417144 -0.00606204 0.0156569 -0.00281991 -0.0131639 0.0153706 -0.0171246 0.0067469 -0.0169551 0.000952299 0.00397615
97 0.0162622 0.0068043 -0.00204129 -0.00347743 -0.0141188 0.00179408 -0.0156 -0.000435727 0.0155676 -0.0188019 0.0136323 -0.00982236 -0.0137644 -0.019428 -0.00646723 0.00242111 0.00523165 -0.0129409 0.0100012 0.0116137 0.00527275 -0.00857941 0.000221518 0.00404755
377 -0.00488238 0.00541052 0.00493472 -0.0100808 0.00235951 -0.0134104 -0.00583036 -0.00690851 -0.00228505 0.0106685 0.020068 -0.0157292 0.0129375 0.00380323 -0.0131731 -0.0113985 0.00895281 0.0181245 -0.0190042 0.0136113 -0.0058954 0.0156024 0.00989267 0.0138106
840 0.0175811 0.00307414 -0.0189862 0.003108 -0.00600938 0.00718825 -0.00985495 0.00836914 -0.0203711 -0.00735422 -0.0191464 -0.0186297 0.00233607 -0.0161892 -0.00214298 0.0057473 -0.00817613 -0.00804502 -0.00969826 -0.0166446 0.0105082 0.0125302 0.013517 -0.0082187
880 -0.0162339 -0.00466297 -0.000816943 0.0193631 -0.00469337 0.00369725 -0.00536939 -0.011543 0.00764018 0.0104677 -0.0140533 -0.0159257 0.0169624 -0.019826 0.0136828 0.00958143 -0.0104272 -0.0196168 -0.0122893 -0.00727343 0.0163934 -0.0128991 0.00699207 0.0170997
876 0.00969194 0.00489036 0.011312 -0.00950246 0.00285973 -0.0129508 -0.0196407 -0.00247396 0.0142517 0.00417801 -0.011283 -0.00121869 -0.000381682 0.00421563 0.0177037 0.00773695 -0.00211555 0.00419016 -0.0165634 -0.0095322 0.00270406 -0.00532784 -0.00576056 -0.0149825
2024 -0.0134071 -0.00696281 0.000479189 0.00130914 0.0177583 0.00610641 -0.0104102 0.0074743 -0.00780901 0.00834251 -0.00158148 -0.0167351 -0.0157937 0.0118229 0.0164909 0.000720238 0.0128618 -0.00754096 0.00548182 0.00317482 0.00688045 0.00200104 -0.00402444 0.00678115
2025 -0.0215487 -0.00934911 -0.00352047 0.017549 -0.00740617 -0.00066274 -0.0114465 0.0194147 -0.00032441 -0.0157243 -0.00412369 -0.0100457 -0.00615743 0.00200542 0.00335791 -0.0189419 -0.00508283 0.00590407 0.00143591 -0.0134852 0.0131844 0.019797 -0.0206545 -0.00342267
3380 0.0172278 -0.0196493 -0.0131624 -0.00475024 -0.0204922 -0.0155963 -0.0191447 -0.0181815 0.0133859 0.00515228 -0.00284923 0.018323 0.0137274 0.00947101 -0.0205951 0.0105555 -0.0178188 -0.0120264 -0.0147964 -0.0211682 0.0156103 0.0126425 0.00185111 0.0145513
3379 0.0123325 -0.00816326 -0.00744843 -0.0076587 0.00863706 -0.00967267 0.00981079 -0.0201625 -0.016755 0.00785658 -0.0104594 0.0126433 0.0104892 -0.0096108 0.00498078 -0.0030265 0.0184649 -0.018797 -0.0149329 -0.00428092 0.000858701 -0.00989631 -0.00381442 -0.0123928
295 -0.0102462 0.00710875 0.00749858 -0.0126619 -0.0194203 0.00834376 0.010075 -0.00963607 -0.0189004 0.0155554 0.00333504 0.0198051 -0.0141311 0.00863548 -0.00438383 0.0192378 -0.0148588 -0.00328796 0.017065 -0.0191072 -0.0188834 -0.00496684 -0.000841271 0.00954556
456 0.00464544 0.00923953 -0.00152807 0.0105122 0.0115473 -0.0185018 -0.0179429 0.018726 0.00148941 -0.000319027 0.0167805 -0.00317015 -0.000697134 0.00250124 -0.0121171 -0.0022003 0.00511034 0.0105953 -0.00398416 -0.00636057 0.0111344 -0.00784868 -0.0147726 0.00476089
302 -0.00858777 -0.00131213 -0.020075 0.00468988 0.00188597 0.00281856 0.0127587 0.00800183 0.0165443 0.0162473 -0.0160446 0.0210902 -0.0115997 -0.017468 -0.0164964 0.00641257 -0.00317494 -0.00784277 0.0039294 0.00938153 0.0106949 -0.00390395 0.0058221 0.00505989
4382 -0.010411 0.00366824 -0.0203056 -0.0185158 -0.00615876 -0.0152835 -0.0115731 -0.00522231 -8.58876e-05 -0.00110556 -0.0159745 0.00145633 0.00714976 0.0127952 0.0164142 -0.0126063 0.00927052 0.00269442 0.00168804 -0.00399063 -0.00089096 0.011832 0.00330011 0.0189568
4381 -0.00352182 -0.0158478 0.0126012 -0.0146737 0.0100134 -0.0133405 0.0197257 0.0073779 0.00200766 -0.00205031 0.0164056 0.0153619 0.00848191 0.0212872 -0.00219733 0.0055812 0.0110398 0.017212 0.00773807 -0.0203535 0.00551561 0.0095943 -0.014933 -0.00749496
4057 0.00119838 -0.00195441 0.0091339 0.00665129 -0.0102535 0.00151474 -0.0151746 -0.0138831 -0.0167881 -0.00129711 -0.0200219 -0.00686887 0.0132046 0.00623427 -0.0189606 -0.00242668 0.00449679 0.0166248 -0.0213069 -0.0182235 0.00346367 -4.55375e-05 -0.0134746 -0.00718289
4056 -0.00315118 0.013812 0.00751217 0.0125386 -0.00183608 -0.0128513 0.0181427 -0.0106021 0.018097 -0.00201934 0.00465906 -0.000759975 -0.00695345 0.0189623 0.0179218 -0.000413899 -0.00741876 0.0152986 0.0159069 -0.0217245 -0.0155801 -0.00116332 0.00549535 0.0100899
2758 -0.0211318 0.0213664 -0.0214285 -0.00890312 -0.00509045 0.0184726 -0.0220349 -0.0093739 0.00310961 0.0161259 -0.00321668 0.00130493 0.0172565 0.00101085 0.00757013 0.00428144 -0.00975977 0.00555336 -0.0216568 0.0062382 -0.00873673 0.00638688 -0.0128412 0.0106677
2759 -0.00359535 0.0112459 -0.0126093 -0.018819 -0.0160781 -0.0146074 -0.0224672 -0.0219628 0.00137425 -0.0126379 0.0127841 -0.00943937 0.0124321 -0.00447866 -0.0176092 -0.0153572 -0.0147303 0.0178892 -0.00685581 -0.00776054 0.0030702 0.014136 0.0206378 0.019887
3844 -0.0139832 0.00959169 0.000129042 -0.013885 0.00252506 0.0129708 -0.00934663 -0.00759522 -0.0133434 0.0176914 -0.0203124 0.00607477 0.0106655 0.00946631 -0.00780317 0.000550496 -0.0200806 -0.00948095 -0.0177353 0.00651347 -0.00256924 0.00546772 0.00874465 0.00217099
3843 0.0177834 0.0202896 -0.0040666 -0.00555164 -0.0209918 0.000501232 0.00988454 -0.00674723 -0.00562024 0.0216298 -0.00444857 0.0102103 -0.0156901 -0.00963802 0.00434182 0.00858148 0.0124808 0.0144067 0.000920272 0.007766 -0.0215747 -5.58812e-05 -0.0044332 0.0012626
724 0.00930101 -0.00395357 -0.0186407 0.016839 -0.00565633 0.0114287 0.00198796 -0.0177859 0.0158323 -0.00374027 -0.00784791 0.0193485 -0.0192307 -0.0145507 0.0111857 0.00111943 -0.00498994 0.00886389 -0.0175814 -0.0113756 0.0172889 -0.0157158 0.00539756 -0.0137466
1103 0.0195469 -0.00729479 -0.00290782 -0.0017526 -0.0171762 0.00866629 -0.017146 -0.00360959 -0.0196714 0.00224027 0.00253703 -0.0120667 0.0120938 -0.00193823 0.0136061 -0.00974788 0.0167089 -0.00175951 -0.0132787 -0.0172591 0.00520414 -0.0152336 -0.0162633 -0.0166729
1055 -0.00981847 -0.0115824 0.0188579 0.00389172 -0.00704717 0.0134498 -0.00825278 0.00306422 -0.020797 -0.0150064 0.00517355 -0.0199343 -0.0158144 -0.00541092 -0.00406964 -0.0149592 0.00257366 0.0195145 0.0200583 0.00476789 -0.0151321 -0.00820481 0.00722415 -0.000960258
769 0.00962671 0.00563616 0.0066326 -0.0070613 -0.0139361 -0.0164504 0.0126586 0.0191237 -0.0154519 -0.020146 -0.00170681 -0.0055672 -0.0126709 0.00309761 0.0176536 0.0189879 0.00720622 -0.0027833 -0.00712704 -0.00283562 0.00784112 -0.00997999 -0.0141698 0.00147046
1004 0.0192467 0.0167438 -0.0126748 0.00835859 -0.0199914 -0.00889407 -0.0090707 3.08592e-05 0.0113626 0.00864433 0.014989 0.0168662 -0.00664778 -0.0011733 -0.014181 -0.0151358 -0.00121668 -0.0144381 -0.0165931 -0.0158342 0.00383996 -0.0131691 0.00374115 -0.00825357
3681 -0.00567861 0.011287 0.0149389 -0.0138069 0.0020169 0.00217859 -0.0159089 -0.000769223 -0.00178106 -0.0128348 0.0209812 0.00248833 0.0136614 0.0108059 0.0055028 -0.00292909 0.0129769 -0.000433228 0.0163989 -0.0190768 0.0140544 -0.0144031 -0.0182478 -0.00286141
3680 0.0150185 0.0144117 0.00657258 -0.00292853 0.0193029 -0.0136691 0.0208429 -0.00960662 0.00461444 0.00573176 0.00856345 -0.0178011 0.0223257 0.00893765 0.00783001 -0.00961902 0.01313 0.000189083 0.0192779 0.0179809 -0.0155231 0.0141753 -0.0178328 -0.00957669
3726 -0.00375053 0.00867382 0.0169834 -0.0133771 0.00471787 -0.0130269 -0.00788267 0.00406633 -0.0155898 -0.00446039 -0.00768725 -3.69003e-05 -0.00389626 -0.0190516 -0.0103065 -0.0189707 -0.00356306 -0.00659658 0.00626428 -0.0143862 0.00599668 0.0057907 0.0120825 0.0163547
3727 -0.0209274 0.0123495 0.0165224 -0.00090044 -0.0191076 -0.0110473 -0.0211875 -0.0194485 0.0189557 0.01472 0.00508749 -0.00490705 -0.00510352 0.00200654 0.00633298 0.0197225 -0.0140246 -0.00767762 0.0202455 -0.015837 -0.00385436 0.0133497 0.0145045 0.00801705
2599 -0.0116576 -0.0156481 -0.0072758 0.0228405 0.0191104 0.00508732 -0.0117885 -0.0188795 -0.0206939 0.00253367 -0.011932 0.00288465 -0.000661011 -0.014421 0.00511794 -0.0182181 -0.00893066 -0.00415335 -0.0101234 0.0102789 -0.0014367 0.0053613 0.0130855 -0.0102361
2600 0.017951 0.000297865 0.0103866 0.0171386 0.000555427 -0.0124841 0.0147643 -0.0183532 -0.0169802 -0.00125161 -0.00276072 0.00434548 -0.0182735 0.0114057 0.0117901 -0.011716 0.0195654 -0.0169098 0.0110217 0.00838055 0.0142598 0.0042427 -0.0131178 0.000876551
3907 -0.00384336 -0.0175725 -0.00136841 0.00143507 0.0160768 -0.0197002 -0.00405774 0.014286 -0.0210896 -0.0191189 -0.0205183 -0.0199459 -0.0196911 0.0194493 -0.0206578 0.0161931 0.00820791 0.0182428 -0.00255005 0.0221063 -0.0110179 -0.0210744 0.0146541 0.00749442
3908 -0.0177969 -0.0154488 0.00203958 0.00203665 -0.0178218 -0.0210324 0.0123547 -0.0174388 -0.0212957 0.0127178 -0.0135542 -0.00137145 0.000587547 -0.00593841 -0.00600118 0.0130609 0.0210311 0.00746904 0.00690762 0.00524947 -0.0140527 -0.0206923 0.00328159 -0.00219684
1311 -0.0137038 0.0146299 0.0138236 -0.0179129 0.0134355 -0.0106774 0.015471 0.0105246 -0.0105445 -0.00980842 0.00441455 -0.0177154 -0.00920105 -0.00465017 -0.00500867 0.000442184 -0.0143382 -0.00576972 0.00399275 -0.0134243 0.0190914 0.00675989 0.0135908 0.00477377
1312 -0.00635008 0.0203654 0.013748 0.0200621 -0.00853197 0.0128902 0.0130688 -0.0114516 0.0107681 0.00287283 -0.00728028 -0.00688965 0.00880628 0.0114147 0.0181989 -0.00641178 0.00978711 0.000253318 -0.0154493 -0.0100015 0.00721052 -0.0168018 0.00559141 0.00530088
1820 0.00690574 -0.0148104 0.0124265 0.00238937 -0.0204317 -0.00282314 3.67921e-05 0.00412958 0.00627892 0.0125072 0.018576 0.008995 -0.00167651 0.0227671 -0.0130106 0.0180991 0.00299669 -0.01817 -0.0184145 -0.0100273 0.0173914 0.0184825 -0.00782373 0.011439
1819 0.00597798 0.0183819 -0.00361228 0.0120203 0.00669658 0.0075968 -0.00208286 -0.00778679 0.0204698 -0.0141177 -0.0136725 0.0113447 -0.00100425 0.0219506 0.0123276 -0.0202752 0.00837685 0.0140447 0.0145974 -0.0171197 0.0180299 0.0165171 0.00546984 0.00987144
675 0.0178058 -0.00406468 -0.0166634 -0.00247742 0.0185791 0.0208316 -0.00858124 0.00527065 0.0133869 -0.0175045 0.0172759 -0.0010343 -0.0162079 0.0107182 0.0172609 0.00181453 0.00279458 0.00696686 0.00103396 0.0188156 -0.0199706 -0.0083157 0.00680732 0.012226
923 -0.0102197 -0.0103549 -0.0124658 -0.0127501 0.0195309 0.0136207 -0.00861239 -0.0069995 -0.0070043 -0.0187286 0.00390433 0.00947001 -0.00257197 0.00353982 0.0141587 0.00484949 0.0125358 -0.00469041 -0.00572876 -0.0068448 -0.014027 0.0116187 0.0028446 0.0107437
2379 0.016842 0.00369815 0.00707939 0.00139423 -0.020887 0.00182507 -0.00137371 0.0166288 -0.00739616 0.0184697 0.00728897 -0.0171144 0.0116844 0.00612459 0.0227488 -0.0168025 0.00313691 0.0157336 0.00911882 -0.0131057 0.0197644 -0.000756475 -0.00132481 -0.0180664
2380 -0.0160063 0.00169019 0.0141333 0.00470139 -0.0176908 -0.0118977 -0.0211954 -0.00324612 0.00427069 0.0104202 -0.0200469 0.0182831 0.0162557 -0.0180373 0.0179522 0.0150444 -0.0165402 0.00285558 0.00213091 0.00512284 -0.00378515 -0.0136259 0.019187 0.018213
2990 0.000750961 0.0144782 0.00117532 0.0138354 -0.00131995 -0.00460024 -0.0187721 -0.00725397 0.020522 -0.0152754 -0.00178552 0.00622882 -0.014944 -0.00289933 0.00354363 -0.0161296 -0.00532383 0.0115562 -0.0140497 0.0137455 -0.0107729 -0.00197209 -0.00495284 -0.0130866
1193 -0.00985087 -0.0118615 -0.0105734 -0.0189911 0.00112055 -0.0185327 0.0113514 0.0170748 -0.0116051 -0.00105469 -0.00346902 -0.0110986 0.00140821 0.00813821 0.00864115 -0.018211 0.0190294 -0.0108669 0.00730359 0.00141298 0.0204071 0.000203255 0.00982995 -0.0051109
1072 -0.0215529 0.0143247 -0.0149009 -0.0136952 -0.0143663 0.0163204 0.000154595 -0.00459158 0.00816306 -0.0179998 -0.00878897 -0.0159303 0.00355261 -0.00692363 0.0093863 -0.00268127 -0.0198779 0.0216304 0.000344982 -0.00352827 0.0160394 0.0127147 -0.00779066 0.0183816
4219 -0.0155052 -0.0196928 0.00807258 -0.0214312 -0.0104271 -0.00027365 -0.0145034 -0.00286886 0.00522086 -0.00580059 0.00577496 0.0220453 -0.013998 0.00107767 -0.0167762 -0.0152996 0.020753 -0.00183709 0.0124311 0.0218212 -0.0120104 0.0165629 0.00124236 -0.0151978
4220 -0.0017284 -0.00626151 0.0141566 -0.0028397 -0.0165713 0.00146158 0.0059893 -0.0214871 0.0101928 0.0143253 0.00526598 -0.00463473 -0.0159073 -0.0127276 -0.00794996 -0.0185437 0.00123472 -0.0151195 -0.017099 0.00667718 0.0157087 0.00593899 0.0163129 0.0155284
3994 0.00556766 -0.00440341 -0.0204089 0.00652844 -0.00264917 0.00350076 0.000615998 -0.0144436 -0.00571233 0.0132825 -0.0215117 -0.0174406 -0.00851914 0.0197739 0.0215241 -0.00349109 -0.0171016 -0.0129246 -0.0188418 -0.0139659 0.00581124 -0.00479685 -0.0180889 -0.0051578
3995 -0.00651241 0.0170597 0.0063618 -0.00791064 0.000567146 -0.0211345 0.01531 -0.0213588 0.00725357 -0.0182207 -0.00169733 0.00892893 0.0188334 -0.0136104 0.0215381 -6.34215e-05 0.0119825 -0.0183954 -0.00838681 0.0133673 0.000872886 -0.0186429 0.0139587 0.0122338
1697 0.00826017 0.012448 -0.00189887 -0.00172973 0.0155618 0.0187042 -0.0199943 0.012463 -0.0223989 0.0219985 0.0184962 0.0056315 0.00676012 0.00284149 -0.0187768 0.0166732 0.0204489 0.00941878 -0.00833745 0.0173786 -0.0123839 -0.00686915 0.007978 -0.0118523
1698 0.0147079 0.00934304 -0.0118097 -0.00633325 -0.00773048 -0.0166536 0.01084 -0.00538564 -0.0137108 0.0174771 0.0216376 0.00650185 0.0210908 0.00175986 0.00372105 -0.0154346 0.0162508 -0.0157414 0.00366271 -0.010222 -0.010703 0.0148293 -0.00993375 -0.020049
3242 -0.000902706 -0.00406046 -0.00702726 0.00572535 0.0136259 0.0209256 7.26026e-05 -0.00479919 0.0132262 0.0185668 -0.0217003 -0.00696865 0.00478394 0.0177546 -0.010724 -0.00430021 -0.0163939 -0.0208203 0.00632218 -0.00848569 -0.0148526 -0.00931679 0.0188925 -0.00791764
3243 0.01336 -0.00815793 -0.00862976 -0.00472804 -0.0142407 0.0107288 -0.0135152 0.0116741 -0.00892216 0.012817 -0.0103295 -0.0103843 0.0161052 -0.0134226 -0.0171023 -0.0140339 0.0156423 -0.0156723 -0.0135022 -0.0113369 0.00376103 0.012369 0.0103497 0.00255809
4051 -0.0216485 0.00893773 0.00433412 0.0107879 -0.0121407 0.00442539 -0.0118218 -0.0112051 -0.00702165 -0.00232792 -0.0188768 -0.0186059 -0.0080259 -0.0111163 0.0139048 -0.00411944 0.00297762 -0.0199928 0.0202824 0.00986735 -0.00845567 -0.00319774 -0.0208204 -0.00957291
4052 0.0129306 0.0222796 -0.00628492 0.00189426 0.000639359 0.00853641 -0.00807162 -0.016334 0.00238889 -0.0200445 -0.00986763 0.0203697 0.00785193 -0.0105189 -0.0163945 0.00330764 0.00724437 -0.00656887 -0.00405116 -0.0135235 -0.0126075 -0.0200441 0.00607225 0.00556935
1742 -0.0108415 0.00229622 0.00247805 -0.0164938 -0.0124971 0.00226585 -0.00251168 -0.0183432 -0.0197124 -0.0148673 -0.0140488 0.0120956 0.0201579 -0.0173217 -0.00305608 0.00386224 -0.00963254 -0.00468273 -0.0105077 0.000668746 0.000710573 -0.0164217 -0.0205401 -0.0191236
1741 0.00595316 -0.00578389 -0.00893928 0.0047303 -0.0102115 0.0167372 -0.0144287 0.0106115 0.015309 0.0199394 0.00876917 0.00085021 -0.00447309 -0.0213478 -0.00760855 0.0128793 -0.0130902 0.00822439 -0.0133888 0.00574296 0.00296206 0.0156739 -0.0110782 0.0172092
213 0.00824658 -0.00444171 -0.00446427 -0.0104431 0.00577937 -0.00865817 0.00140287 -0.0140299 0.0176768 0.0145676 0.00955774 -0.0121851 -0.00328429 0.00335599 -0.00466362 -0.0140311 -0.00187132 -0.0111421 0.0199238 0.00198116 -0.00861286 0.0121054 0.0076552 0.0200376
312 0.00399585 -0.0113481 0.0139629 -0.0119207 -0.0108652 -0.0202571 -0.0192024 -0.00949563 0.00383453 -0.0153893 -0.0208181 -0.0111741 0.0195289 -0.0134433 0.00265893 0.0146196 -0.00365704 -0.0199261 0.016329 -0.00960866 -0.00419288 0.00979908 -0.0148087 -0.0149927
385 -0.0164459 0.0186169 -0.00305292 0.00518239 0.0172077 0.00749063 -0.00423356 -0.0140879 0.0114962 -0.0051699 -0.000607906 -0.0113621 0.0150138 0.00210849 0.0101222 0.00820781 -0.0156483 0.0073011 0.00802423 -0.00236871 -0.0025429 0.0157315 0.0165309 -0.00980746
2100 0.00719408 0.0036634 0.0117375 -0.018368 0.00881672 0.0146724 -0.00494735 0.000861429 0.000423363 -0.0024993 0.0112005 0.00241842 0.0110547 -0.0191347 0.0150689 0.0125879 -0.0216469 -0.00316098 0.00464926 -0.0158095 -0.00374342 -0.0154822 -0.0215373 0.00512904
2099 -0.0195047 -0.011378 -0.00354848 0.00553048 0.00298927 -0.0211432 -0.015491 0.00514523 0.00921742 0.014944 -0.0103798 0.0167428 -0.00927259 -0.0123985 -0.00415718 0.00557266 0.00334965 -0.0116985 -0.0154618 -0.010096 0.00710437 -0.00855861 -0.00916496 0.0139915
2639 -0.0124679 -0.0117289 0.0177943 0.0196837 0.0140185 0.000944754 0.00482761 -0.0184031 0.00739376 -0.00787032 0.0163886 0.00485625 0.0151692 0.0193782 0.0167232 0.0151465 -0.00964202 -0.0109404 0.0101809 0.0142575 0.0106393 -0.00521312 0.0198163 -0.00514261
2640 0.0125074 0.0163031 0.0137144 0.0179182 0.0146908 -0.012078 -0.00706032 -0.00767621 0.00308212 -0.00225746 0.0107409 0.00900886 -0.00585526 -0.0098206 -0.000171649 0.0141811 0.0163764 0.0159643 0.00401768 -0.0102277 0.00956258 0.0108104 0.0101477 -0.00621734
1930 0.0117903 -0.00926775 -0.0125115 3.56045e-05 -0.0142154 0.0198151 0.00607937 -0.00956535 -0.00858629 0.000954005 0.0170432 -0.00773487 0.0169152 0.00848341 0.000744182 0.0208153 -0.0080833 0.0175168 -0.000869266 -0.000121237 -0.0162699 0.0150172 0.0202642 -0.00990056
1931 0.00490589 0.00560864 0.0110255 -0.0150171 -0.0106884 -0.00120923 0.0204609 -0.0156876 -0.0113008 0.00112184 -0.0206511 -0.016272 0.00115041 0.0174837 0.01633 -0.00177834 -0.018274 -0.0139783 -0.00116559 -0.0184525 -0.00566164 0.0113421 0.0176403 0.0148878
154 -0.0212207 -0.0128985 -0.00515157 -0.0040867 -0.00753057 0.00902043 0.00461782 0.00780524 -0.00527149 -0.0200604 -0.0092063 -0.013597 -0.00462893 -0.00647379 -0.0125521 0.000126469 0.0192915 -0.0140868 -0.0181985 -0.00909773 0.00796271 -0.00303304 0.0127941 0.0111223
505 0.0101179 0.00438409 0.0196165 -0.00658511 0.00415128 0.0084506 -0.0197358 -0.00446638 0.0202717 -0.0013284 -0.00749867 -0.00554874 -0.00357443 -0.00743571 -0.0101315 -0.0184208 -0.0145417 0.00903752 -0.00259737 0.0147038 0.00714905 -0.015287 -0.000314138 -0.00132094
11 -0.00353956 0.00152938 -0.0102693 0.00851273 -0.0115821 -0.0113707 -0.0203536 0.0100244 0.0145136 -0.0188964 -0.0185393 -0.0204862 0.00548704 0.00140919 0.00238256 0.00493288 -0.0190064 -0.000634763 -0.0104456 -0.00585262 -0.00640076 0.0200423 -0.0175573 0.0162039
4270 0.015244 0.00712707 -0.00250173 0.0196704 0.0193912 -0.0159464 0.00555746 0.019607 0.020542 0.00330236 -0.0126833 0.01271 -0.00161858 0.00470292 0.0169507 -0.0113427 0.0181955 0.0151817 -0.00237442 -0.00993656 0.00477916 0.0208059 -0.00479762 0.0192736
4269 -0.014635 -0.0191584 0.00765274 0.0179438 0.00639397 0.0168785 0.0043792 0.0177371 -0.0145609 0.0049488 -0.0174928 0.00480818 0.00522863 -0.0134225 0.0222375 -0.00667684 0.0157757 0.00717299 -0.0126303 -0.0122338 -0.00740126 -0.0191656 0.000302552 0.017575
2106 0.00627128 0.0134245 0.0170672 -0.0134865 -0.0171721 0.00346699 0.000939901 -0.00943808 -0.0212159 -0.00721096 0.00770971 -0.00748979 0.017189 8.44012e-05 0.00764468 0.000107718 0.0155871 -0.0196873 -0.00470095 0.0198189 -0.00364068 -0.0177932 0.00448017 0.0057025
2105 0.00781675 0.0168467 -0.0187468 0.0108722 -0.0149582 0.0172557 0.0203496 -0.0138055 -0.0218757 0.0178064 -0.017185 -0.00723945 0.0114049 -0.00598071 0.0125327 0.014707 0.00220643 -0.0164775 0.0108908 -0.0188753 -0.00726517 -0.0208965 -0.00379191 -0.0175895
837 -0.0073946 -0.00222268 0.016634 -0.0124436 -0.015917 0.00100745 0.0104166 -0.0153996 -0.00889505 0.0207618 -0.0172981 0.0191602 -0.0178818 0.00357272 -0.00266647 0.000567518 0.00146788 0.00208208 -0.014703 0.00537878 -0.0155054 -0.0145993 0.0121927 0.00814994
1139 -0.00711497 0.000893001 -0.00863067 -0.0108899 -0.0119911 -0.013747 0.000186494 -0.00989054 0.0198242 0.00141926 -0.0206201 -0.0177531 -0.0167251 0.0187797 -0.0173712 0.0206068 -0.0189415 -0.00490718 0.00484724 0.00198797 -0.00271884 0.00721157 -0.00214156 -0.018128
1010 -0.00530116 0.00923799 -0.0120448 -0.010022 -0.00480434 0.00869746 -0.012381 0.0174466 0.00599262 -0.00229555 -0.0155729 0.0198088 0.00977638 0.0127914 0.0146717 0.00496451 0.0133529 -0.00849774 -0.0169191 0.00577848 0.0187355 -0.015531 0.0107527 0.0190288
1665 0.017412 0.0179603 0.000989355 -0.0130184 0.00468063 0.0197662 0.00132576 0.0115403 -0.00262596 -0.0038753 0.00924961 0.0141279 0.0203664 0.0196016 0.00525359 0.00843225 -0.0120098 0.00562427 -0.00814552 0.00464958 -0.00256792 0.0160867 -0.0149978 0.0134209
1666 0.0123093 -0.0145467 -0.00897875 -0.013985 -0.000513155 0.0198105 0.0204965 -0.00890706 -0.000682177 0.00682409 0.00320218 0.0063394 -0.0111728 0.00863398 0.012402 0.00710031 0.0197358 -0.0102766 -0.0138301 -0.00829606 -0.0160526 0.0220027 0.021176 -0.00170256
2907 0.00380756 0.0145965 -0.00764654 -0.00432821 0.0147562 0.0154717 -0.0152343 -0.011883 0.00519364 0.005149 0.0159961 0.015021 0.0130716 -0.0110994 -0.0137895 0.00339569 -0.00149335 -0.00432864 -0.00281454 -0.0101999 0.015058 -0.0149644 -0.00604076 0.0129571
2908 -0.0170239 -0.0178308 -0.0117225 0.000216981 0.0198776 -0.0197219 0.0131744 -0.0225991 0.0191964 -0.00878036 -0.0163685 0.000927108 0.00209487 -0.0185604 -0.0111688 0.0192099 -0.00361847 -0.0151441 0.0176254 -0.00667976 0.00474693 0.0133497 -0.00671011 -0.0163368
2398 -0.0129077 -0.0112912 -0.00167912 0.00418644 0.00239323 0.00103737 -0.0130697 0.00429992 -0.00423086 -0.0207431 0.0178846 0.0203354 0.0103447 0.00283983 0.0109684 -0.00748765 -0.00717422 0.00804734 0.00269702 0.0212725 0.0164793 0.0158794 -0.0195609 0.0193681
2399 0.00761342 -0.0209395 -0.00760208 0.0110058 0.00355271 -0.00554004 0.013973 0.00450164 -0.0170131 0.00490861 -0.0194805 0.01005 -0.00963724 0.0161869 0.0158189 0.0111159 -0.0137754 0.00402197 -0.00054811 -0.00390506 0.0119401 -0.0187881 -0.010723 -0.00673151
1705 0.000422232 0.0118942 -0.0186128 -0.0131137 -0.00697928 0.0205033 -0.00112116 0.0204744 -0.00194284 0.0106204 0.0178133 0.0201516 0.00777685 0.0203495 0.0160156 0.00879797 -0.0193089 0.00581754 0.0190276 0.0174229 -0.00144451 0.0115183 0.0206313 0.0206786
1706 -0.0143148 -0.00624932 -0.0215902 0.0203244 0.0181444 0.0191742 0.00508869 0.011746 -0.0115962 0.000186561 -0.0037743 -0.0186792 0.00763346 0.00593883 0.0131394 -0.0142197 -0.0162639 0.00867553 0.000862894 -0.0164753 0.00138275 -0.00419813 -0.0137609 0.00655196
4389 -0.0214878 0.0114161 0.0128981 -0.00420036 0.00625812 0.0208934 0.000117518 -0.00657434 -0.00323022 -0.016202 -0.00282224 -0.000450045 0.0111709 -0.00366585 -0.0147221 0.0168598 -0.00653226 -0.0153078 0.00460215 -0.0129472 -0.0101641 0.0178755 0.0180476 0.0100401
4388 0.0118544 -0.00785303 -0.00892479 0.0142461 0.00282481 -0.0111446 0.0074892 0.0201687 0.0168846 0.00884249 -0.0187823 -0.0117018 0.00415966 0.0165057 -0.00573778 0.00329142 -0.00883341 0.014826 0.0135768 0.0103816 -0.0156098 0.00678232 0.0069942 -0.0124071
523 -0.00242508 -0.0177935 0.00165025 -0.0121685 0.0135345 0.00801593 -0.00767255 -0.0116474 0.0152234 -0.0166311 0.0146676 -0.00848446 -0.00239393 0.0201471 -0.000882609 0.0192741 -0.00880907 0.00661399 -0.0113045 -0.00245327 -0.0150062 -0.014598 0.0197992 0.0201643
372 -0.0127743 -0.0159029 0.00872476 0.000711687 -0.0171256 -0.0167806 -0.0136423 -0.00486212 -0.0157578 0.00826894 0.0013987 0.0110207 0.00477923 0.00213349 -0.0118691 -0.00714007 0.0174765 0.0199811 -0.00556934 -0.0155207 0.00363336 0.0191802 0.0150541 -0.00785285
593 -0.0104856 0.0109433 -0.0211193 0.00260718 0.0120609 0.000898027 -0.0211642 -0.00923499 -0.00726222 -0.0130324 -0.0045487 0.000730413 -0.0205003 -0.012009 0.00267174 -0.00899024 0.0161362 -0.00435374 0.0169367 0.0167828 0.00972132 -0.0200562 -0.00315042 0.00918065
831 0.00169459 0.00453497 -0.00950895 -0.00161558 -0.00754763 0.0147657 0.000788256 -0.00242977 -0.0207452 0.000955537 0.0153371 -0.0056174 -0.0181208 0.00884931 -0.00847066 0.00377645 0.00750981 -0.0120397 -0.00845822 0.00501931 -0.0171139 0.00651278 -0.00879819 -0.00706854
1038 0.0145418 -0.00663972 -0.00370357 0.0183117 0.000253516 0.0168632 -0.00949951 -0.00993363 0.0171499 0.00156904 0.00595019 0.0112793 0.00728582 0.00656824 0.0178497 0.0194499 -0.0202414 -0.0120924 -0.00500837 -0.0193173 0.00371482 0.00721367 -0.0144197 -0.00594002
858 -0.00770747 -0.00555112 -0.00704733 -0.0163573 -0.0125336 0.00459805 -0.00743491 0.00495935 -0.0191022 -0.00770613 0.0108654 -0.00311136 0.00406977 -0.000327658 0.000766772 0.010615 0.020347 -0.0133283 0.012886 0.0036862 0.0194482 0.0156876 -0.0148805 -0.00752772
920 0.00862243 0.0134324 0.00125331 0.0141025 -0.00636249 -0.00631432 -0.00652154 -0.0141887 -0.0212115 0.0051288 -0.0190713 -0.0170169 -0.0144203 0.0115821 0.0064319 0.000963948 0.0020641 0.0180828 0.000618012 -0.00480876 -0.00657817 -0.00106713 -0.00679989 0.00391636
2346 -0.00718057 0.00857145 -0.0116249 -0.0217874 0.0114888 0.00926696 -0.00619618 -0.00720886 0.00129144 0.0166233 -0.00595793 0.0146669 -0.0184128 0.0120399 0.0192532 -0.0138532 0.0190032 -0.00427286 0.0190722 0.019981 -0.0119676 0.0171834 -0.00957136 0.000511878
2345 -0.0190816 -0.0171401 0.00882581 -0.00759724 -0.0132981 -0.00476564 0.00959446 -0.00653669 -0.00174996 0.000943016 0.0173327 0.0203309 0.0134144 -0.00890623 -0.0127749 -0.0102323 0.00760692 0.0180469 0.0198067 0.0200221 0.00310753 0.02175 0.00219037 -0.0015248
3694 -0.0201827 -0.0132532 -0.00498918 -0.00808412 0.00074827 0.00661849 -0.0120409 -0.0129172 -0.0140103 0.00833226 0.0076432 0.0115393 -0.0046795 -0.00187681 -0.00723206 -0.0192189 0.0047607 0.00953893 -0.00510038 0.0075823 -0.0193381 -0.0081597 0.00823738 0.00753915
3695 0.0203777 -0.00560255 0.0115998 -0.0143133 -0.0026456 -0.00324384 0.000219065 0.0119667 -0.0139672 -0.00419212 -0.0121082 0.00252998 0.0168267 0.0104167 0.014219 -0.00907786 -0.0026505 0.00359279 0.0106376 0.00912612 0.00530622 0.0117381 0.0155635 0.018016
378 -0.00794375 0.00129353 -0.012248 0.00856669 -0.0155744 0.0145076 -0.00645556 0.00304605 0.00377157 0.0076956 0.0118413 0.00365325 0.00793067 -0.0193387 0.00406008 0.00301728 0.018255 -0.0117145 -0.0118505 0.018866 0.0142219 -0.0085724 0.00476157 -0.00671874
442 0.0166387 -0.00508222 -0.00653253 -0.00421405 0.00234016 0.0201754 0.0103346 0.00079154 0.00576552 0.00527836 -0.000712254 -0.0140125 -0.00207355 -0.0145599 0.0163601 -0.00648586 0.0107457 0.0135026 -0.00963143 -0.0154212 -0.0176613 0.00656792 0.0145606 -0.00637933
32 -0.0200902 0.0109272 0.00993675 -0.0185677 0.0100818 -0.018418 -0.00596033 -0.00393206 -0.00455705 -0.0159474 0.00665531 -0.0133451 0.0188145 -0.0178206 -0.000701534 0.00759779 0.0156001 -0.00667196 -0.00822582 0.0179002 0.0139312 -0.00788795 0.00250612 0.00874438
3809 -0.0189016 -0.00212304 -0.00587044 0.0080147 -0.010409 0.0192014 -0.0090696 -0.0124085 0.0141254 0.0156422 0.000724229 -0.0205886 -0.00953582 -0.00306235 0.00211158 -0.015251 -0.0125058 -0.0148722 -0.0123234 -0.0118367 0.0125154 0.00930284 0.0209315 -0.0111661
3808 0.0122798 0.0110654 -0.0152766 0.0174984 0.011729 -0.00026899 0.00482258 -0.0204482 0.00206236 0.00514945 0.00481591 0.00591939 -0.0122467 0.0142151 0.0214122 -0.00645252 -0.0191525 -0.00529435 0.0109771 0.000353563 0.0126181 -0.00155648 -0.0185446 0.0151564
1367 -0.0146018 0.0138263 -0.0188106 -0.00192824 -0.0175303 -0.00974734 0.000267995 -0.0025517 0.0187171 0.0159154 -0.00720979 0.0221072 0.0109386 -0.0204637 -0.00450612 -0.0200528 -0.0161522 0.00985209 -0.00813043 0.0100482 -0.00310438 -0.00258678 -0.0100454 -0.017884
1368 0.00937471 -0.0165363 -0.0218707 0.0132291 0.00504871 0.00799583 -0.00285189 0.0173005 0.00410541 0.0151033 -0.00520869 -0.000924324 0.0184165 0.0198172 0.00475286 0.00970295 0.0197287 -0.00751937 -0.00614296 0.0212576 -0.00913519 -0.000991655 -0.00391728 0.0161372
139 0.00418956 -0.00619195 0.0137397 0.0100019 0.00166294 0.00567703 -0.00133235 0.00107432 0.017033 0.00148978 0.00130516 -0.020485 0.0154532 0.016387 -0.00063187 0.007624 0.011662 -0.000602989 0.000826267 -0.0172938 -0.016829 0.00803572 0.0118984 0.00500868
299 -0.0015761 -0.000551967 0.0056309 1.77726e-06 -0.0175956 0.00811517 -0.00886458 0.00706733 0.0104516 0.00930262 -0.0203141 0.0196997 0.0197832 0.0165831 0.0151981 -0.0107747 -0.0171103 0.0167038 0.0135677 0.00452771 0.00642864 -0.000164851 0.00915515 -0.0190175
75 0.0135867 0.016838 -0.0144437 0.0201044 -0.00116166 -0.00381409 -0.0188864 -0.00647411 0.0109353 -0.00574616 0.0159981 0.00252102 -0.00757984 0.0128013 -0.0172335 0.00159545 -0.00374979 0.0046888 -0.000857734 -0.00224841 0.00689452 -0.015543 0.0029696 0.0150105
1070 -0.0140983 -0.0114573 0.0202564 -0.0205633 0.0015482 -0.0184403 -0.00823126 -0.00177221 0.00445456 -0.0123677 -0.0189244 -0.0147634 0.0147295 0.00178723 -0.0109577 0.0106509 -0.00226707 0.00610431 0.0141917 -0.0190008 0.0197371 0.00515514 -0.016623 0.0113121
846 -0.0178486 -0.011288 0.0108896 0.0138031 -0.009665 0.00210912 -0.020546 0.00674411 -0.0141477 -0.00862057 0.0176326 -0.0182749 -0.00168738 -0.00299934 -0.00545636 -0.0101496 0.00570174 0.018048 -0.000647031 -0.0179395 -0.00518798 0.0122791 0.0154351 -0.0190855
902 -0.0202679 0.00466125 0.0154244 0.0144592 0.00829109 -0.0201554 -0.00389733 0.000405551 0.0117131 0.00645546 -0.00638165 -0.00361776 -0.00431558 -0.00908143 0.00438139 -0.0191051 0.0165862 -0.0137168 -0.0190929 -0.015586 0.0139333 -0.00170939 0.00824723 -0.00092074
257 0.00162415 -0.00582422 -0.000814585 0.000982228 -0.0195117 -0.0180179 0.000772101 0.0194417 0.00940386 -0.0160004 0.0114618 -0.0128313 0.00512723 -0.005613 -0.00836643 0.0155375 0.0202143 0.00784217 -0.0139503 0.00852073 0.0103075 0.0139401 0.0145676 0.00703319
459 -0.000516278 -0.0105033 -0.00465533 0.0010246 0.0141421 0.017284 -0.0060868 -0.00640583 0.00235937 -0.0143379 0.0112462 0.0190223 0.0132054 -0.00328118 0.0123003 0.00322152 -0.00465556 -0.0125624 0.00298316 -0.0141107 0.00661675 0.0147802 0.0156947 0.00542009
327 0.0110074 0.00827408 -0.0113838 0.00370282 -0.00743802 0.00484462 0.00286244 0.00459676 -0.00581685 -0.01159 -0.00299219 -0.00802613 -0.00142643 0.0196333 -0.0178427 -0.0134789 0.00354993 0.0217676 0.00810824 -0.0128501 -0.00443244 0.0168628 0.00606488 -0.0088492
715 -8.53998e-05 0.0170702 0.0128649 -0.0119479 -0.00276837 -0.0099408 0.0101093 -0.000631492 0.00686478 0.0195385 -0.0182927 -0.00518941 -0.00957244 -0.0150245 0.0202679 -0.0124874 0.00858024 0.00241756 -0.0192023 -0.00993779 -0.00786814 -0.00839793 0.00394258 0.0186947
1084 0.0183812 0.00890968 0.0104658 -0.0158001 -0.0139622 0.00603304 -0.00107747 -0.013516 0.0118774 0.00706276 -0.00758331 -0.00934222 -0.00778801 -0.018281 0.0131965 -0.000724311 -0.0153467 -0.0138695 0.0206414 0.00549316 -0.00885431 -0.0161486 0.0195037 -0.00749396
813 -0.0126236 -0.0166205 -0.0142332 0.00289376 0.00180159 0.0129247 0.0110891 -0.0129861 0.0052288 -0.00674637 -0.0121724 -0.00280109 -0.0101342 -0.0178467 0.0186449 0.00430701 -0.015932 0.0183071 -0.00786534 -0.00416527 -0.0184963 0.00585435 -0.0159514 0.00185281
1616 0.0173427 -0.0145223 0.0105145 0.00442094 0.0119844 0.00763067 -0.00862976 -0.0153244 0.00809388 0.0199633 -0.0101985 0.00791711 -0.02136 0.0179934 0.0146823 0.0100445 -0.0199829 0.00345697 -0.0126783 0.0130584 0.00560028 -0.00994032 -0.0149251 -0.00895818
1617 0.0101908 0.0196994 0.00630153 0.0171885 0.000608413 -0.00720371 -0.019329 -0.00565608 0.0144839 -0.016476 0.00410679 0.00478988 0.00270703 0.00174719 -0.00537385 -0.0107721 0.0135036 0.00365368 -0.0174758 -0.00507582 -0.00130665 -0.0160589 -0.0145695 -0.00477237
3664 0.0141065 0.0197293 -0.015865 -0.00285819 0.00253968 0.016026 -0.0133469 -0.0131236 0.0193211 0.014386 0.00230522 0.00301112 -0.00281244 -0.0195286 0.017296 0.0168047 0.0210916 0.0151789 0.00466941 -0.0113958 -0.00401645 -2.04308e-05 -0.00507145 0.00924505
3663 0.00729401 0.0196453 -0.00263364 -0.0104722 -0.0150181 -0.0151341 -0.00154063 -0.020094 -0.0068835 0.0158272 0.0109239 -0.0191276 -0.0170365 0.012444 0.00588046 0.00240246 0.0105178 0.0225665 0.0114682 0.00500877 0.0196351 0.0172868 -0.0120613 0.00980742
3111 -0.00332997 -0.0209484 0.0127058 0.0187524 -0.0216527 -0.00716666 -0.0102057 0.00902576 0.00347261 -0.00526865 0.00318726 -0.0107252 -0.0140168 0.0209838 0.0121247 -0.0164104 -0.0195158 -0.00575775 -0.000194071 -0.0131582 0.00559401 0.00859007 0.0221193 -0.0174623
3110 -0.00998474 -0.0092684 -0.021743 0.00973012 0.00301741 0.000954892 -0.00579952 0.00392347 -0.00284047 -0.00427177 -0.0118859 -0.0171247 -0.0160094 -0.00404677 -0.0144703 0.0184682 -0.000894252 0.00903641 -0.0192324 -0.000136778 0.0104683 -0.00959613 0.0127848 0.0184162
892 -0.0104673 0.0184551 0.00670134 0.0167301 0.00750118 -0.00937888 -0.0129157 -0.0124452 -0.0114168 -0.0105953 -0.0167035 0.00336087 -0.0169997 0.00309093 0.0214473 0.0209126 0.00104334 0.0162718 -0.0173418 -0.0098772 0.00250697 0.0141573 -0.00752456 0.00314103
905 0.0109723 -0.00773839 -0.0155664 0.0161811 -0.00837031 -0.00521113 0.0121221 9.0185e-05 -0.000301706 -0.00569667 0.0179667 -0.0079476 0.00617438 0.00874391 0.00879859 -0.0173672 0.00610786 -0.00369623 -0.0183942 -0.00497393 0.00378163 0.0152065 -0.00750962 0.0193063
784 0.0134703 -0.000846257 -0.00338075 -0.015151 -0.00433825 0.00367907 -0.00142104 0.00995109 -0.00916796 0.00909762 0.0147101 0.00513026 0.00416967 -0.0212038 -0.00104987 -0.015013 -0.00304316 0.00431223 0.0174305 -0.00347155 -0.00767864 -0.000144512 0.0109594 -0.00159226
3332 0.0159952 -0.00974065 0.000721025 -0.0179337 -0.0219658 -0.00588536 0.0115362 0.00769125 0.0149301 -0.00418291 0.00181677 -0.000785784 0.0134231 -0.0100348 0.00234926 -0.0172259 -0.0101277 0.0224291 0.0012586 0.00600587 0.00272515 -0.00366052 0.0142176 0.0174554
3333 -0.00538794 -0.0161414 -0.0179207 0.00209144 -0.0120025 -0.000648641 -0.00484768 -0.00635693 0.00472502 0.00866057 -0.001516 0.00168865 -0.00790735 0.0186176 -0.0055631 0.0027666 0.0199801 0.0133091 0.0206132 0.021413 0.0163817 0.00027961 -0.0153432 -0.0170044
4225 -0.00555928 0.0172534 0.00958548 -0.00851034 -0.00665612 -0.00306773 0.018394 0.0142447 0.0195404 -0.0160644 0.0122721 0.0126825 0.01786 -0.00567551 -0.0079133 -0.00932805 -0.0163502 0.0175984 0.00236493 -0.010281 -0.00571535 -0.0142046 -0.0112511 0.0119529
4226 -0.0228344 0.0219976 -0.010201 0.0157568 0.0099213 0.00869785 -0.0103334 -0.0109147 0.015045 -0.0127961 0.0183595 0.00681771 0.0192678 0.00753418 -0.0170426 0.0179904 0.00895535 -0.0164977 0.00165258 -0.0144962 -0.00338481 0.00194267 0.0151489 0.00730535
949 -0.00324338 -0.0121308 -0.00338196 0.000348401 0.000113459 -0.00861188 -0.0119878 -0.0207487 -0.0187771 0.0162234 0.0171361 0.0195104 -0.0158552 -0.0154789 -0.0113886 -0.00759983 0.00506227 0.00574758 0.00112001 0.0135613 -0.017408 -0.017621 0.0172322 0.0201746
828 0.00477927 -0.0162986 0.00646018 0.0112067 -0.0091816 -0.0138108 -0.00769016 0.00393049 -0.0204275 0.0170052 -0.0168793 -0.00707343 0.00737035 0.0136677 0.00336292 -0.0180578 -0.0160938 -0.0156384 -0.0103713 -0.0174764 0.00427448 -0.0107814 0.00943296 -0.0135653
1143 -0.0181172 0.0146674 0.00457433 0.0193177 0.0118688 0.000854894 -0.00477895 0.0054093 -0.0137748 0.00830764 -0.00919931 -0.00947112 -0.0149582 0.0160272 0.000748951 0.00427054 0.0080004 -0.0183245 -0.000614487 -0.00984573 0.00290155 0.000657243 0.0104161 -0.0111813
290 -0.0111405 0.016599 0.00382436 0.0134855 -0.0109223 0.00956429 0.0173381 -0.0155941 -0.0176608 0.00574642 -0.0160785 0.0113166 0.0206024 -0.0129321 -0.00939784 0.0118252 -0.00562253 -0.0185762 0.00874127 0.0195176 -0.00128477 0.00256306 0.0110398 -0.0169409
301 -0.0053446 -0.0150316 -0.00948116 0.00416642 0.00602318 0.00447593 0.00963604 -0.0165814 -0.0201548 -0.00842236 0.0179317 0.00189956 0.0116039 0.00829966 0.0121305 0.00181641 -0.0107456 0.012958 -0.00150646 -0.00184216 -0.0143348 0.017544 0.0105728 -0.0146888
176 0.00260777 0.0193349 -0.00807389 -0.0142583 0.0129083 0.0179334 0.00137288 -0.00319381 -0.00115448 -0.012243 0.0108226 -0.0066622 -0.0132612 0.0112537 -0.00195271 0.00513962 0.00331784 0.0193031 0.0169331 0.0137795 -0.00886364 -0.0169872 -0.0122454 -0.00190993
4195 0.0134389 -0.00116367 -0.00301735 -0.00856603 0.016808 -0.00098759 0.0201116 0.0148177 -0.00161677 0.015995 -0.0133987 -0.00480233 0.000829991 -0.000682669 -0.0141162 0.00212057 -0.00485978 0.00129826 0.0166216 -0.00221343 -0.0178727 0.0186528 0.0113949 0.00971093
4196 -0.00369455 -0.00422107 -0.0146411 0.0198665 0.0107608 -0.00491525 -0.011902 0.000964718 0.00861653 0.000713877 0.0058918 0.000295757 -0.0206611 -0.0165948 -0.00720556 0.0143985 0.00758398 0.00823986 0.0120995 -0.00139761 0.000899769 0.00373192 0.014656 0.0133144
3174 -0.0174799 -0.00392018 0.0181856 -0.00364998 -0.00333822 -0.00257412 -0.00332695 0.0123411 0.00552762 -5.67088e-06 -0.0132843 0.00421714 -0.0121105 0.0183459 0.016085 0.0209141 0.0200093 0.0182591 0.0163601 -0.00618685 -0.00736324 0.00581892 -0.00881893 -0.0198757
3173 -0.0220888 -0.00862224 -0.00833198 0.0182121 0.0133302 0.0056384 -0.0113891 0.015457 -0.00114158 0.00576263 -0.0224865 0.00813704 -0.00958376 -0.00670168 0.0131949 -0.0176701 -0.00947068 -0.00410118 0.0202956 0.00660739 -0.00274323 0.0149709 0.0128073 -0.0028771
3099 -0.0036711 0.0110925 -0.00528205 -0.0190912 -0.00962094 -0.00462081 -0.0169831 -0.00549842 0.0108358 -0.0173503 -0.0117219 -0.000275687 -3.88011e-05 0.0134392 -0.0030447 -0.00870618 -0.0148126 -0.000149056 0.0073974 -0.0108619 -0.00364613 0.00769942 -0.000277447 -0.0124538
3098 -0.0222077 0.0176215 0.0135029 0.0185202 -0.00714005 0.0132801 -0.0177583 0.0151241 -0.0208919 -0.00639638 -0.00960612 0.0185638 0.00298813 -0.00422226 -0.0206199 -0.0196408 -0.0119407 0.0172589 0.0181588 0.00372544 0.0139472 0.014979 -0.00373725 -0.00978787
2876 0.00121434 -0.00506361 0.0148277 0.0162619 0.00278667 0.0207757 0.00685942 0.0136342 0.00299834 0.00209784 -0.0210679 -0.0187762 -0.00554871 -0.0136144 -0.0127712 -0.0020494 -0.00971632 -0.0207927 0.00633366 -0.00093568 -0.00216478 -0.00398013 -0.00158501 0.00244956
2875 -0.0132235 0.0114422 0.00565441 -0.0213573 -0.00270963 0.0123776 0.00540973 -0.00985982 -0.0189951 0.00423876 -0.00141279 -0.0195691 -0.0158788 -0.00892793 -0.0200096 -0.0202807 -0.000562012 -0.0201006 0.000789039 0.00744611 -0.00269858 0.00654986 -0.0127108 0.013464
1889 0.0140188 0.0138476 0.00277027 -0.00389591 -0.0209354 0.0213768 0.00664378 -0.0136349 0.0145059 0.0215513 -0.00327257 -0.000450318 0.0156894 -0.00779386 0.00277528 0.000107518 -0.0147957 0.00386262 0.00154877 -0.0130752 0.0129295 0.0164619 0.0121927 0.000146022
1890 -0.014515 -0.0109544 0.016653 -0.0112454 -0.00704697 0.0111239 0.0184137 0.0103314 0.00929452 0.0190583 0.000536668 -0.0185785 -0.00950611 -0.00540413 0.00444324 0.000305381 -0.0199273 -0.00294206 0.00193313 -0.0102529 0.00794779 0.0157642 0.0179044 -0.00859378
1658 0.0155461 -0.0018338 0.0181486 -0.00103004 0.00446877 -0.0121523 -0.0101761 0.0188909 0.00657486 -0.0198665 0.0070859 -0.0113231 -0.00226388 0.0187313 0.0168521 0.00295387 -0.019279 -0.00740113 -0.016858 0.0103736 -0.0151153 -0.00670964 -0.00733323 -0.00591371
1659 -0.00404858 0.00531023 -0.00762006 -0.00366365 -0.00566048 0.00591567 -0.0111665 -0.0158365 -0.0207806 -0.00407295 -0.0193362 0.0195091 0.015245 -0.00993877 0.0163161 -0.00129408 -0.0172872 0.0107072 0.0175561 -0.016436 -0.0153585 0.0218744 0.018377 0.0202606
2485 -0.00129335 -0.00308027 -0.0130443 -0.00933216 0.0102474 -0.0118445 -5.29347e-05 -0.0135734 -0.0213182 -0.00038986 -0.0126048 -0.0209887 -0.00924629 0.00733704 -0.00803677 0.00396376 -0.0118053 0.017279 -0.00520041 -0.0150284 0.0163581 -0.0187778 -0.00268667 -0.0150938
2486 -0.00453458 0.0201404 0.00447993 0.0112408 0.0122488 0.0198409 -0.00324331 0.00708676 0.0146673 0.0196158 0.00722686 -0.0194914 0.00507518 0.00985519 0.00718242 0.000621695 0.0069324 -0.0195639 -0.00136867 0.00189249 0.0077046 -0.020602 0.00421533 0.0030663
1123 0.0175183 -0.0168574 0.00444398 0.00228182 -2.72244e-05 0.00347226 -0.0160326 0.0179116 -0.0107806 -0.0200264 -0.0177437 -0.00397979 0.00520532 0.0141182 0.00395304 -0.0190434 -0.0156483 -0.00545471 -0.0127871 0.0073728 0.0179917 0.00138416 0.00167745 -0.0104777
800 0.0113531 -0.0123556 -0.0151672 -0.00652971 -0.00606427 -0.0116402 -0.0151201 -0.00205507 -0.0164451 0.00949704 0.0182756 -0.0050889 -0.0100027 0.0134271 -0.00874467 -0.00544864 -0.0186057 0.00909663 0.0119596 0.0161506 -0.00109537 -0.0158444 -0.00325554 -0.00213839
1091 0.0158905 0.00723999 -0.0203314 -0.00599659 0.00150284 0.0133779 -0.00415423 -0.0144862 -0.00547396 0.0129015 0.00687285 0.00489746 -0.0118577 -0.0165869 0.00590676 0.00297571 0.00462137 -0.0197567 0.0123459 0.00202929 -0.00797638 -0.0192459 0.00486038 0.00958251
554 -0.014671 0.00157812 -0.00359579 -0.00366945 -0.00616342 0.0108754 0.0141859 -0.0183709 0.000883874 0.0107527 -0.0169421 -0.0130565 0.00689225 -0.00782222 0.00355758 -0.00110771 0.00672168 -0.0160169 -0.00520438 0.0195533 0.00891678 -0.015964 0.00284049 -0.00370965
345 -0.0214901 -0.00649753 -0.0211397 0.00196943 0.000326462 -0.017607 -0.00299249 0.00370253 0.0146953 0.00487391 0.00562802 -0.0174194 -0.0195879 -0.00101151 0.000313884 0.00961794 -0.00491371 0.0157462 0.0149016 -0.00415308 -0.0157616 -0.00156159 0.00518734 0.00243448
174 -0.00942904 0.00774239 -0.0145894 -0.00459003 -0.0214879 -0.0102948 0.00580867 0.00492128 -0.00621431 -0.0164905 0.00681863 0.0191248 -0.00289449 0.00773625 -0.01329 -0.0181743 -0.00867159 0.00988015 -0.0199126 -0.0202204 -0.0162399 0.00379869 0.0147464 0.00870769
3958 0.00842476 0.0160666 -0.00252834 -0.0119631 -0.015541 0.00353293 0.0194964 -0.0173617 0.0141185 -0.00170843 -0.00203929 -0.0202948 -0.0106212 -0.00132604 -0.00160092 0.00424857 -0.0103842 -0.0110964 -0.021394 -0.0109576 0.0184678 -0.0117628 -0.0175306 -0.0145468
3957 -0.00386744 0.0210952 0.0120188 -0.00736602 -0.00704903 0.00395397 -0.0110517 0.0103578 -0.0111702 0.01505 0.0105576 0.0179348 -0.0127822 -0.00215266 0.0098051 0.0177803 0.00271456 -0.0154795 -0.0206553 0.00848354 -0.0151983 -0.0152281 -0.0100085 0.0121832
285 0.0139963 -0.0118005 0.00132694 0.0176483 -0.000674903 -0.0117153 0.017813 -0.00185507 -0.0109962 0.0106167 0.0161945 -0.00627634 0.00589257 -0.0140002 0.00661976 -0.0158147 -8.05597e-05 0.00519463 0.0165255 0.00507446 0.0102436 0.00436525 0.0178036 -0.0165196
635 -0.00618821 -0.015504 -0.00990405 -0.0206767 0.013635 -0.018788 -0.00350571 0.0062779 0.0190138 -0.0122917 -0.0121746 -0.00979985 0.0141279 -0.000345811 0.0128446 0.00287586 -0.00882697 -0.00965434 -0.019925 -0.00735351 0.00351419 0.00576396 0.0117449 -0.0139191
545 0.00336202 -0.00991703 -0.0120318 -0.00139283 -0.000816227 0.00967344 -0.00613769 0.0117125 -0.00231884 -0.00414042 0.0186748 0.00376932 -0.0119207 0.00487415 -0.000278659 0.00773281 0.0171221 -0.00257004 0.00828966 -0.00678803 0.0177392 0.0168196 -0.00389929 -0.0151039
3061 -0.0185949 -0.00159882 -0.00713223 0.00309771 -0.0120031 0.0142328 -0.00736704 -0.00865765 -0.0148979 -0.00384439 -0.0136589 -0.013203 -0.0121714 -0.00864368 -0.0103808 0.00515748 0.00207547 0.0028668 -0.0130711 -0.0154018 -0.00322877 0.021937 0.0113792 -0.0138336
3060 -0.00581804 -0.00798053 -0.00599551 -0.000398784 0.00545944 -0.0140489 -1.46623e-05 0.0184229 -0.00749872 -0.0197337 -0.021783 0.00997908 0.00701513 -0.0131119 0.00790022 0.0158855 -0.0160506 -0.0128642 -0.000269558 0.0036334 0.0191242 -0.00489944 0.0156196 -0.0190637
1750 0.000349666 0.00557097 -0.0188215 0.00755964 0.000980423 -0.00730304 0.0186243 -0.0025054 0.000510903 0.00735035 -0.016199 0.0176204 -0.0148284 0.0128426 -0.00764143 -0.00623271 0.0152716 -0.0114657 -0.0141556 0.00398878 0.00885319 -0.0183814 -0.018634 -0.0128137
1749 -0.00157978 0.0177152 -0.0194691 0.0104911 -0.0188724 0.0169152 0.0156759 0.0142859 0.013208 0.0146427 0.00887416 -0.00393645 -0.0164139 0.0116139 0.0120426 -0.0191621 0.016218 0.00974422 0.0125399 -0.00829608 -0.0110085 -0.0131664 -0.0205471 0.0123838
3003 -0.00315474 -0.0194998 -0.00690914 0.0101329 -0.0139606 0.00850784 0.00326642 0.0145232 0.00333406 0.00189784 0.00737922 0.011351 -0.00553042 0.00597004 -0.0214769 0.0133028 0.0122955 0.0111362 -0.000910665 0.00930805 -0.019107 -0.0013311 -0.000408549 0.0155479
3002 -0.0106555 -0.00669513 0.00607091 0.0143822 0.00231074 0.00596486 0.00797522 -0.00286881 0.00236762 -0.00911713 0.0173946 -0.0041833 0.0137434 0.0124032 -0.007008 -0.00105307 -0.0115801 -0.0189281 -0.00894257 0.019518 0.0200976 -0.00967296 0.00281052 0.0200317
3708 -0.00702641 0.0057584 0.00883625 -0.0100602 -0.00405201 -0.00852123 0.0140198 -0.00709401 0.0158063 0.00291876 -0.0166003 0.00557415 0.00817706 -0.0158169 -0.0198421 0.0224902 -0.0178129 0.0214076 -0.00485764 -0.0182577 -0.0110565 -0.0035205 -0.00518 0.00453081
3707 0.00342169 -0.00504564 -0.0118046 -0.0103401 0.0195096 0.000314137 -0.00418124 -0.00236072 -0.0108164 -0.00100108 -0.00420462 -0.000219408 -0.00976992 0.0156806 0.00731352 0.0218151 -0.0147789 -0.0104974 -0.0103585 0.0198508 0.0126814 -0.0156085 0.0196234 0.0144554
827 -0.0169579 -0.00689794 -0.00988721 0.00881964 -0.0213556 -0.019197 0.00507007 -0.0184817 0.00357067 -0.012029 0.0168251 0.00866296 -0.00943897 0.00129212 -0.00434767 -0.00699681 0.00124053 0.0156958 -0.00415957 -0.0160481 -0.00311061 -0.0187693 -0.00997512 0.00693062
994 -0.0090407 0.0131165 -0.0112475 -0.00613303 0.0122432 0.00261017 0.0108243 -0.0126771 0.020106 -0.0087389 -0.0135954 0.0155216 0.00513363 0.00216509 0.00488085 -0.00498836 0.00400981 0.00325791 0.00714355 -0.00925073 0.00481565 -0.0198524 -0.016321 0.016774
1179 -0.0205034 0.0156491 0.0106347 0.00465862 0.0102905 0.00119006 0.0171783 -0.0146475 -0.0160661 0.0117768 0.0104461 -0.0123542 -0.00611356 -0.0164408 -0.0138343 0.00860253 0.00845345 0.00862867 0.0199055 -0.00981245 0.0065923 0.0138151 0.0104517 0.00731785
1740 0.00963815 -0.0124531 0.00186772 0.0209854 -0.000401687 -0.00938538 -5.96253e-05 0.0156296 -0.0102629 -0.0163691 -0.00198283 0.00454501 0.0207391 0.00087831 0.00648076 0.0179161 -0.00210752 -0.00865468 0.0111781 -0.000567448 0.00327785 0.0179775 -0.00722776 0.00265351
1739 -0.00718064 -0.00592224 -0.00400502 0.00273326 0.0143215 -0.0168993 -0.0010467 -0.017066 -0.0112394 -0.000400196 0.018318 -0.00523264 -0.00710384 0.0134466 -0.00490988 -0.0113449 -0.00117059 -0.00642652 -0.0115686 -0.0178 -0.0164098 0.00140967 0.000323276 -0.00158987
1194 0.0176468 -0.0019806 -0.0148415 0.0173247 0.0180796 -0.0169851 0.0030846 0.00438667 -0.00665574 0.0174189 -3.04239e-07 0.0185419 -0.0121847 -0.0156228 -0.00176711 -0.00653844 0.00417644 -0.00503044 0.0112815 0.0188569 -0.00917709 0.0102839 -0.00651826 0.0198492
926 0.0161147 -0.0195381 -0.020864 0.00270907 -0.0182023 0.0207692 -0.0033406 0.018963 -0.0171375 0.0202575 0.0114661 0.00588936 -0.0182984 -0.0130455 0.0114584 0.00515286 0.0191984 0.0116374 0.0133558 -0.0195632 -0.00561738 0.00259769 0.00530511 -0.0198105
761 0.0129997 -0.018097 0.0175828 -0.0154128 -0.0119582 0.00796628 0.0119326 0.0162433 0.004311 0.0053302 -0.0192657 0.0130209 -0.0161838 -0.0141999 0.00284932 0.0072162 -0.0180197 0.0140942 -0.0195989 0.0116362 0.0137224 0.00192251 -0.0163472 0.00486834
2717 -0.0104283 -0.0171517 0.00731304 -0.0110217 -0.00825779 -0.0179016 -0.0130318 -0.00852482 -0.00728667 -0.0181045 0.0164084 0.0149277 0.0142884 0.005152 -0.00273111 0.0113632 -0.0162111 0.0106076 -0.0183798 0.0189754 -0.0153787 0.00167729 0.00714233 -0.0178499
2716 -0.0182032 -0.0195251 0.000973298 -0.011952 0.00926519 -0.00948867 -0.0110606 -0.0117838 0.0068085 0.0131907 0.0173165 0.00758417 0.0132268 0.00728912 -0.00150012 -0.00415699 -0.00395432 0.00485469 0.00732206 0.0118107 0.000117524 -0.0201376 0.0126732 0.0157444
2319 -0.0076479 0.0179937 0.012361 0.00976166 0.00989766 0.0169779 0.00773328 -0.019477 -0.018804 0.00695128 -0.00491622 -0.0164399 0.000452991 -0.00100986 0.0113625 -0.0108176 0.00611168 -0.0159924 0.0172617 0.00558184 0.00464108 0.00447824 -0.00856904 0.000193554
2318 0.0157083 0.00519651 0.00841774 0.00315582 0.0206159 0.0164417 -0.00291247 0.00749688 0.00496929 0.0167654 -0.0132628 0.0102377 0.0152134 -0.0193234 -0.0189361 -0.0196801 0.0064956 0.0103608 -0.0138553 0.0164015 0.00235651 -0.0127626 -0.0167761 -0.0219514
3251 -0.0147363 -0.0189847 -0.0170075 -0.00414566 -0.0124584 -0.0134208 9.82552e-05 0.0147018 0.0106524 -0.00697413 0.00968366 0.0115289 0.00398647 -0.0172582 -0.0190721 -0.0121792 -0.0207848 0.0012113 -0.000440534 -0.0135323 0.0188151 -0.00970004 0.0163943 0.0030686
376 -0.0216605 0.0164951 -0.00802448 -0.0151441 -0.0214169 -0.00636198 0.0157437 1.39148e-05 0.00584008 -0.00655591 -0.00386539 -0.0150621 -0.00666896 0.00107596 -0.00250592 0.0143029 -0.00960353 0.019338 0.0198024 0.017876 -0.0168595 -0.00179864 -0.0187715 -0.00613129
258 0.0157143 0.00458096 0.00748179 0.0124765 -0.0202417 -0.0101374 0.00824869 -0.0216866 -0.00158235 0.0132491 -0.0193928 -0.00234336 0.0114676 0.0017251 -0.0171778 -0.00998303 0.0147236 -0.00884222 -0.0172341 0.0026926 -0.0110459 0.0120624 -0.00119217 -0.0132919
4217 0.019964 0.0138929 -0.00986457 -0.000458025 0.0140093 -0.012581 0.0164645 0.00696924 -0.00490979 0.0156426 0.00649577 0.0207054 0.0195323 -0.0159482 0.013903 -0.020626 -0.0215675 0.00223349 -0.0123318 -0.00908769 -0.00505502 -0.00283112 -0.0144231 -0.0214197
4218 -0.00542924 0.00323721 -0.00947668 0.00307954 0.000204246 -0.00077565 0.012001 -0.00599976 -0.0144807 0.020308 -0.0087012 0.00125834 -0.00916049 -0.0176405 0.000861019 -0.00104397 0.00877076 0.00631215 0.0172183 0.0204835 0.0205722 0.0126456 0.00759252 -0.0133312
1858 -0.0017644 0.00881934 0.0140241 -0.0132531 0.0123252 0.00521793 0.00500882 0.0136607 0.00970748 0.00402315 0.0168593 0.0190813 -0.000338009 0.012893 0.0025173 -0.0145416 0.0103888 -0.0014438 -0.00114183 -0.00484607 -0.0094784 0.00408388 -0.00832678 -0.000964677
1859 -0.0180508 -0.00691411 0.00954066 -0.00948723 0.0205052 -0.0204318 0.00938685 -0.00532477 0.00432076 -0.0124579 -0.0068745 -0.0111414 0.00103043 -0.0187037 -0.0120846 0.014149 -0.00236484 0.00140755 -0.0171072 0.00771221 -0.0203912 -0.0166417 0.0182358 -0.0196533
3852 0.00556344 -0.0190085 0.0106222 -0.000642307 0.0194843 0.0106209 -0.00351644 0.017648 -0.00357871 0.00590638 -0.000226358 -0.0110604 -0.00923885 -0.0130698 -0.0107061 0.00966341 -0.0228296 0.0176057 0.017087 0.0164998 0.00748568 -0.00254593 -0.00219552 0.00544252
3851 0.0205203 0.00349166 0.00717839 -0.0198347 -0.00299452 -0.00709748 -0.0114927 -0.0183303 0.014884 -0.0130251 -0.0109327 0.0168533 0.0191112 0.00158571 -0.0208173 0.00779745 -0.017067 0.00140173 0.0174007 -0.00179037 0.0156713 -0.0136955 0.0149012 -0.0206023
3516 -0.0203719 0.017789 -0.00872262 -0.00111124 0.0211518 -0.0167901 0.0181577 -0.00795667 0.0128662 0.00312345 -0.0144798 -0.0130298 0.00193396 -0.0148328 -0.0187796 0.013308 -0.00846915 0.0169105 -0.00801001 0.0112359 -0.00261403 -0.0141994 0.0201917 0.0130932
3515 -0.000167047 0.00953805 0.00946579 -0.00679179 0.0195811 0.00855056 -0.0180676 -0.0139124 -0.0147715 -6.93245e-05 0.00608098 -0.00838341 -0.0128168 -0.0184332 -0.0217242 0.00542379 0.00753785 -0.0182957 -0.0172369 -0.00199489 0.0147616 -0.0122772 -0.00348359 0.00524878
4134 -0.0111889 -0.00714386 0.00321646 0.0141916 -0.0129514 0.00860156 -0.00181468 0.00766719 -0.0109435 -0.00952156 -0.00338743 -0.00889633 0.00478742 -0.0161943 0.0216632 0.0124842 0.0194715 -0.00490994 -0.00763491 0.00936415 -0.0138382 0.0199542 -0.0027014 0.0203788
4133 -0.00908775 0.0220782 0.00775916 0.00234896 -0.0224869 0.00856174 2.75192e-05 0.00147054 -0.0159507 0.0201475 0.00764642 -0.0065759 -0.00110463 0.0183712 0.00152781 -0.0204394 -0.00631246 0.0112242 0.0123011 0.0179367 -0.0132093 -0.0128684 0.0167216 0.0150824
3038 -0.0227226 0.0154844 -0.00437004 0.00629034 0.0162098 0.00698279 -0.0135175 0.0178656 -0.0205828 -0.013855 -0.00389417 0.0129834 -0.0101764 0.0197463 0.00348569 -0.0152547 -0.00799327 -0.017117 -0.00358801 -0.00367143 0.016943 -0.0160275 -0.0196762 -0.000971705
3039 -0.0179707 0.0180759 0.00169946 -0.00438859 9.38258e-05 -0.0159454 0.0179031 0.0118302 0.0104446 -0.00132584 -0.0100743 -0.00309344 0.0170056 0.00940304 0.0133983 0.00313211 0.0170262 0.00118458 0.00508587 0.000328591 -0.00659464 0.00689631 0.0184318 0.0191695
3161 0.0203097 -0.0199405 -0.00347319 -0.00293066 -0.00743585 0.00244937 0.00735032 0.0150852 -0.00792005 0.0148208 -0.00483644 -0.00611064 -0.00383023 0.0203585 0.0101265 0.0135924 0.00801133 -0.0198997 0.0169752 0.0152502 0.0131782 -0.00325064 -0.0176018 0.0183815
3160 -0.00821544 0.00976942 -0.0113059 0.0155891 -0.0131257 0.00849656 0.00121739 0.0114377 0.00990679 0.00903685 0.0213407 -0.00399813 0.00994016 0.00773739 -0.00434509 -0.00484488 0.00374641 0.0172597 0.0192592 0.019052 -0.0138318 -0.000497485 -0.00320097 -0.0211666
2902 0.011924 0.0218322 -0.0204953 -0.0121901 -0.0142555 -0.00188149 0.00101208 0.0190761 0.009536 0.0173808 0.00783186 0.00213338 0.0192522 0.0213848 -0.00995034 0.0215708 0.0202517 0.0148741 -0.00784219 0.0173002 0.0204532 0.00463485 -0.021124 0.0159519
2903 -0.00828449 -0.00769531 -0.0115045 -0.0163849 0.0177034 -0.0202074 0.00159821 -0.00433444 -0.0102211 -0.00161593 0.00281495 -0.00357095 -0.0147437 0.021052 -0.0184984 0.0111171 -0.0114391 -0.00603471 0.00633646 -0.014027 0.00769036 -0.0107795 -0.0104854 -0.0207949
4247 0.00523371 0.0146414 -0.000755024 0.00947972 -0.00985927 0.00830576 0.0206082 -0.00746407 0.0173736 -0.00682316 0.0210097 0.0170322 -0.000451753 -0.0163575 0.0141747 -0.00589157 0.00521015 0.0137648 0.00375482 0.00764539 -0.0196288 -0.0165187 -0.0186069 -0.0138392
4246 0.00138846 0.0182032 -0.0128887 -0.00137468 -0.00469589 -0.0183868 -0.0162012 0.0147353 -0.00990877 0.00917075 0.01638 0.0063704 0.0124662 0.00466721 -0.00391038 -0.0135368 0.0061432 -0.0139014 -0.00288933 -0.013298 -0.01689 -0.00597185 0.0140804 -0.00820539
3864 -0.0208607 0.00791056 0.000399847 0.0225915 -0.0112114 0.00908056 0.00499388 -0.00744236 -0.00210321 0.0174361 -0.0193117 -0.0194435 4.36181e-05 0.0129582 0.0224884 0.0132523 0.0177638 -0.00953504 -0.0115112 0.00975642 0.0184825 -0.0126052 0.0117453 0.0166213
3863 -0.00513559 -0.0169824 -0.0103203 0.0212338 -0.0091046 -0.0151654 0.0021857 -0.00863093 -0.00348753 0.0182806 0.00826557 0.0147132 -0.0195387 -0.00595622 0.0153059 -0.00954956 0.0205517 -0.0170778 0.0153646 0.0158698 0.010977 0.00851845 0.0090526 -0.00286438
3218 -0.0139471 0.0179162 -0.016604 0.0172703 -0.0134541 -0.0175678 0.0165951 -0.0215147 0.0169529 7.32657e-05 0.00830751 -0.018854 0.00903675 0.0159339 0.0059082 -0.000222137 0.00758964 -0.00159253 -0.00942465 0.0123523 -0.0222893 0.00550426 0.00608598 0.0191116
3217 -0.00516176 -0.000215335 0.013561 0.00462484 -0.0203212 0.00821488 -0.0179395 0.0106788 0.0116839 -0.00913688 -0.0158787 0.0127412 -0.00670243 0.0107605 0.00552562 -0.0121915 -0.0151333 0.0166176 0.0111248 0.0169288 -0.0166813 -0.00788667 0.00462663 -0.00662056
3901 5.00932e-05 0.0173538 0.0130356 -0.0138299 0.00533131 -0.00621715 0.00653041 -0.00102817 -0.0164816 -0.0193906 0.0184636 0.0117809 -0.021375 0.0100706 -0.00324346 -0.00412916 0.00144803 -0.00640775 0.0125319 -0.00816847 0.00575452 -0.0190178 -0.0115606 0.0203833
3902 0.0159493 0.019356 -0.0180242 -0.00262241 -0.0214705 -0.00397799 -0.0155262 0.00502353 -0.0181833 0.00751549 -0.00999905 -0.00661915 0.0177641 -0.0119593 -0.00990105 -0.0100554 0.0209431 -0.00409062 0.00699222 -0.0177869 -0.0140738 0.0197508 0.00161113 0.012351
884 0.00706013 0.0115075 -0.000457403 0.0113441 0.0116148 0.019735 0.0174106 -0.017004 -0.00963763 0.0143697 -0.0165001 -0.00132417 0.00422759 -0.0120597 -4.29154e-05 -0.0119968 0.00540532 0.00772513 0.01747 0.0199106 0.0139611 -0.00149599 -0.0131283 0.0146914
906 0.0113284 0.0202185 0.00881705 -0.0125715 -0.0199938 0.0108832 0.0102652 0.00203536 0.014969 -0.00198778 0.0119456 -0.019506 -0.0144491 -0.0156622 -0.000466062 0.0106501 -0.00921466 0.0103925 -0.0180026 0.0039362 -0.0190494 -0.0108531 -0.0188404 0.00447964
958 0.00537841 0.00954893 0.0180359 0.0103479 0.0168791 -0.00782992 -0.00814626 0.00590452 -0.00780694 0.00547934 0.014916 0.0199944 0.0158665 0.0107577 0.000675498 0.00149145 -0.004054 0.00256072 0.019676 -0.016377 0.00154765 0.0140464 0.0100815 0.0116382
885 0.013838 -0.0106554 -0.011465 0.012778 0.002162 0.0186048 -0.0195258 0.0197963 -3.95291e-05 0.0103893 -0.00782565 -0.019554 0.0200938 0.0185256 -0.00271172 -0.0200969 0.0201977 0.00507806 0.0067493 -0.0137773 -0.0063476 0.0171899 -0.0188756 0.00487852
979 -0.000266013 -0.00221658 -0.00859824 0.0165147 -0.00579742 -0.00667354 0.000977238 -0.011334 0.00928536 -0.0144713 -0.00347787 -0.00619362 -0.0119186 -0.0168694 -0.012576 0.00592339 -0.00963043 0.00267145 -0.00226613 0.000938603 -0.00631476 0.007285 0.0209137 -0.010402
3410 -0.00192166 0.0154636 0.0205645 0.00665878 -0.00735979 0.00527726 -0.0109005 0.00118497 0.00287615 -0.0015764 0.000394009 -0.0140881 0.0124298 -0.0148239 -0.0097536 -0.0199949 0.0213428 0.0107388 -0.0182888 0.0149997 -0.00039347 0.0104073 0.0186684 0.00415643
3411 0.00411403 -0.00420693 -0.0137483 0.0214735 0.0150195 -0.00576126 -0.0191857 0.00487993 -0.00610122 0.00731457 -0.0202071 0.0186246 0.0222439 -0.00915632 0.00110673 -0.018199 0.0194529 -0.0051773 -0.003559 0.00676737 0.0137396 -0.00856645 -0.000614955 0.00398915
1308 0.0025987 -0.000358108 0.0159704 -0.00621088 0.00865866 0.00637442 0.00947962 0.0194287 0.00311368 0.0133882 -0.0164674 -0.0222744 -0.00785301 -0.00397978 0.0159843 0.00509681 0.0131466 0.00411343 0.0081361 0.00520197 0.0165273 -0.00130047 0.0171804 -0.00996002
1307 -0.0128803 -0.00792452 -0.00467644 0.00217131 -0.00602766 0.0175275 0.0105862 -0.00904556 -0.00264486 -0.00415463 0.00992931 -0.0178371 0.00447198 -0.00886072 -0.000747557 0.000551317 -0.00562266 -0.00170258 -0.0162374 0.0151845 -0.0113871 -0.0156463 0.0181187 -0.00888434
2329 -0.0063918 0.000320617 0.000780923 -0.0114869 -0.00591397 0.00189761 -0.00226768 -0.0213253 -0.0145099 -0.000638727 0.00597636 0.012933 0.0150518 0.0152111 0.0100388 -0.0161532 -0.0081925 -0.00864463 0.0109014 0.0132417 0.0171268 -0.00120566 -0.012406 -0.0113673
2328 0.00476288 -0.00176719 -0.0154838 -0.0204828 -0.0036525 -0.00364886 -0.00923346 0.0106454 -0.00982867 0.0141039 0.00657432 -0.00027635 0.00617516 0.00443433 0.00110915 -0.00308829 0.00703274 0.00517081 0.0217228 -0.00133255 -0.000548271 0.00637909 -0.018331 0.009348
3980 0.00133764 0.00939031 0.00913246 -0.0109782 0.0178729 0.0209008 -0.0179605 0.0175078 -0.0200853 0.01992 0.0146427 -0.0129355 -0.0167005 -0.0184871 0.00149559 0.00206832 0.000259145 0.00866751 0.00329546 -0.0043457 0.0199271 -0.00312549 -0.0149553 0.0105509
3981 -0.00576293 0.0133103 -0.0185041 -0.00960461 -0.000126423 -0.0139653 -0.010079 0.0182492 -0.00382526 -0.0133597 -0.00226966 0.0189811 0.0121451 -0.0149309 0.0138871 0.00650428 0.000263408 -0.0132491 -0.00136946 -0.0208428 0.0128885 0.0141526 -0.0131527 -0.0195643
2722 -0.0178456 -0.0142595 -0.0205304 0.00409958 -0.0100773 0.00223122 -0.0124719 -0.0211476 0.0012916 -0.00683545 0.0228037 0.0098552 -0.0164182 0.0158133 -0.00725432 -0.0137371 -0.00959325 -0.00792989 -0.0206645 0.012922 -0.00853458 -0.00682884 -0.00741242 0.0112684
2723 -0.0203595 -0.0197175 0.0120461 -0.0122795 -0.015641 -0.00513118 0.00740654 -0.00728595 -0.00470776 -0.00305339 0.00949712 0.0217476 -0.00742029 0.0139368 -0.00962912 -0.0211784 0.00748435 -0.01815 -0.0186934 -0.0135055 0.00214937 0.00903056 -0.0100973 0.0193677
2812 0.014637 0.0208245 -0.0142186 -0.00306097 0.00750716 0.0127228 -0.00506926 0.00996114 0.00299319 0.0158198 -0.00991156 -0.0125726 -0.00533019 0.020361 -0.0181074 -0.00579771 -0.0181259 0.0213711 -0.00484482 0.00548856 0.0213064 0.0167454 -0.00136381 0.00335355
2813 0.00458312 0.0047859 0.00232031 0.0167877 -0.00490144 -0.00437459 0.0112043 -0.021045 -0.0174215 0.00670315 -0.0181451 0.0203368 -0.00554304 0.0205123 -0.0162755 0.000228538 0.00224858 0.0150728 -0.00773711 0.00112115 -0.0140295 0.0116169 -0.0073173 -0.0180798
3139 0.0205282 -0.0192164 0.0142932 0.00487175 -0.00754495 -0.0109039 0.0104136 -0.00062649 -0.0220025 -0.0125437 0.00623681 -0.00515127 0.0145816 -0.00345936 -0.0121629 0.0107868 0.0133857 -0.0111147 -0.0011729 -0.000530487 0.00124119 0.0167679 0.00287325 0.00972005
3138 0.00728086 -0.0214015 -0.0131012 0.0180729 -0.01453 -0.00184377 -0.00318925 0.00812964 -0.0100608 0.00948854 -0.00461486 -0.00117717 0.0163813 -0.0101423 0.00774663 0.00314451 0.0098671 -0.00184877 0.0135015 -0.00268194 -0.0184591 -0.00880194 -0.019223 0.0151653
485 -0.0114627 0.0216245 0.0162625 0.000230282 -0.0185146 0.0162003 -0.00627796 -0.0204037 0.0123726 -0.00950427 -0.0168985 0.016959 -0.00635644 -0.00325829 0.0147036 0.00526404 -0.00683521 -0.0163116 -0.0179305 0.0195504 0.0032478 0.0180276 -0.018097 -0.00938824
625 0.00424134 0.00180363 0.0125508 0.00220204 -0.0114307 0.00706404 0.00778775 -0.00581245 -0.0139956 -0.0206709 -0.0172461 -0.0163145 0.0193313 -0.00548705 0.00323217 -0.00597262 -0.00108083 0.0153007 0.00822839 -0.00994395 -0.0183546 0.010763 -0.0122605 0.00185636
80 -0.0184657 0.0214111 0.00307371 0.0186133 -0.014059 0.018364 -0.0130911 0.00777211 0.00902632 -0.018656 -0.00408609 -0.0126153 0.00328757 0.0195735 0.00420744 0.00302065 -0.00603137 0.00212595 -0.0198577 -0.00222401 -0.0122435 -0.017268 0.0185025 -0.0126581
2532 0.0198266 -0.00586415 -0.0180607 0.013852 0.0198185 -0.00230086 -0.00934888 -0.0116137 0.0108688 -0.00221328 -0.0189241 -0.0090543 -0.0204043 -0.0106514 -0.0125672 -0.0126031 -0.0202114 -0.00182706 -0.0191746 -0.0161935 -0.00845218 0.00514715 -0.0152771 0.0137769
609 -0.00789278 -0.0163818 -0.0205759 0.0141035 0.010084 0.00313822 -0.00809623 0.00175476 0.00637694 0.00520265 -0.00687595 -0.00807214 -0.018344 -0.00373735 -0.00950928 0.00263719 0.00861 0.000954083 -0.0122837 0.00135818 0.00703817 0.019642 0.0133955 -0.000636435
497 0.00685053 0.0151632 -0.0117091 0.00478576 0.0187782 -0.0138091 -0.000237463 -0.00809277 0.0177895 0.00270562 0.016483 0.00529531 -0.00460082 -0.0200264 0.0100239 0.00206248 0.00204593 0.0149764 0.00469932 -0.00697607 -0.00887113 -0.0120331 -0.018961 -0.0194838
1541 -0.0145693 0.0233161 0.0138841 0.0201283 0.0173825 -0.00599475 -0.0158194 0.0121346 0.00836668 0.0091938 0.0194243 -0.00693363 -0.0115869 0.0100109 0.00921061 -0.00661507 -0.0154542 0.0215218 0.00443369 0.0144355 0.0198647 -0.0106803 -0.00849183 0.00279761
1542 -0.0205701 0.00995398 0.0204597 -0.0185915 -0.0196127 -0.0120183 -0.0173544 -0.0157112 0.0120955 0.00264752 -0.0108379 -0.00853009 -0.0187304 0.022368 -0.00043694 -0.0161975 0.0090835 0.0171054 -0.0114083 -0.00479566 0.00858678 0.00517986 -0.0182417 -0.00988448
3219 0.0168138 -0.00953849 -0.00800394 -0.0159504 -0.00792267 0.0104754 -0.00665338 0.00425473 -0.00643804 -0.0129427 0.0174203 0.0105051 0.0175284 -0.0210953 0.00534021 -0.00796609 0.0185917 0.0068062 -0.000387982 0.0215015 -0.0120313 -0.0198412 -0.00558161 -0.0061201
3220 -0.021152 0.0104606 -0.0176372 0.000522911 -0.00430823 -0.0163987 -0.0081658 -0.0217 -0.0139394 0.0159854 0.0115627 -0.0073028 -0.0163308 -0.0067306 -0.0127112 -0.0180421 0.0133777 -0.00134423 0.0155336 0.0107587 -0.00860867 -0.0133194 -0.0181182 0.00876454
3327 0.0119045 0.0141265 -0.0204041 -0.00195816 0.00542781 0.00453359 0.0175262 0.0175079 -0.0142519 0.00540787 -0.00731638 -0.0166451 -0.0123554 0.0053654 0.0178537 0.00675101 0.00666082 -0.00768609 -0.010912 -0.00852101 0.00497109 -0.0167244 0.0046308 -0.0169688
3328 0.0197505 0.00797053 0.0141399 -0.00874285 -0.00916299 0.0212409 0.0151955 -0.00678128 -0.00266786 0.0185334 -0.0124311 -0.020236 -0.000102623 -0.00637562 0.00235746 -0.00211119 -0.0149598 0.0027211 0.00303645 -0.00526581 0.00866793 -0.00513438 0.0205675 0.0100821
1515 -0.00154189 -0.00475965 -0.0203945 0.0136331 -0.018768 -0.0139993 0.0054965 -0.0039873 -0.00725656 0.0191849 -0.00769074 0.02141 0.0172717 -0.000944437 -0.00138979 0.0141963 -0.00332016 -0.00764823 0.021823 0.0077214 -0.00247988 -0.0149492 0.0191839 -0.0149613
1516 -0.000846322 -0.0016006 0.0123414 0.0191543 -0.0116122 -0.00535756 0.0100756 0.018906 0.00238984 -0.00763936 0.0118643 0.0176547 -0.0114957 -0.0224981 0.0174447 -0.00208661 0.0122985 -0.000855899 -0.00262427 0.0174576 0.00888353 0.0196415 0.0131207 0.0148547
1011 0.0192603 -0.0148983 -0.0132286 0.0141776 0.00674665 -0.0207861 -0.0213854 -0.00386557 -0.0138769 0.0196839 -0.0119296 0.00734576 0.0198984 0.009178 0.00474797 -0.00136949 -0.0144752 -0.00337655 -0.0113405 0.00634033 0.00315304 -0.0136177 -0.00922323 0.00205333
1058 0.0145998 0.0186072 0.0128106 -0.00237676 0.0110713 0.00460424 0.0160985 0.00191047 -0.00491938 -0.0155384 0.00825117 -0.00166472 0.0163021 -0.0213633 0.000852583 -0.0105759 -0.0174504 0.00144561 -0.0165323 0.00812927 0.00625761 0.018413 0.0169276 -0.00621889
1025 -0.00758719 -0.0161262 0.0187516 -0.0119098 0.013586 0.0164083 -0.00705685 0.0189182 0.00548102 -0.00745853 0.00424485 0.00855677 0.00627268 -0.0160227 0.0103566 0.00428574 -0.0108948 0.013266 -0.00747662 0.00592848 -0.00954969 -0.0147755 -0.00672821 0.00893423
1803 -0.0153262 0.00715056 0.0101233 0.0136941 0.0109687 0.0084978 -0.00288414 0.00101696 -0.00596708 0.0205103 0.012683 -0.00226252 0.0128218 0.0156713 0.00804142 0.00162197 0.0171261 -0.00329911 0.0194661 -0.00716108 0.00776403 -0.0197793 0.00464353 -0.003355
1804 0.01535 -0.0141577 0.00382151 -0.012155 -0.0135629 -0.0167673 -0.00108425 0.00233856 -0.0142153 -0.0191138 -0.0103085 0.00795387 0.0208553 -0.00636063 0.0200656 -0.0198799 0.0189656 -0.0110952 0.000507706 -0.0177563 0.00583894 -0.0148035 0.00505806 -0.00645492
1459 0.0100455 -0.0041094 -0.00901586 -0.00489671 -0.0197692 0.0132411 -0.0104028 -0.0188164 0.0159349 -0.0156545 0.00273106 0.00994533 0.00675876 0.0166692 0.00433582 -0.0141492 -0.00125027 -0.000921312 0.0123832 0.0100246 0.00395159 0.0151698 0.0153955 -0.00781341
1458 -0.00778592 0.00201236 0.0204325 -0.00792825 -0.000747231 0.0162001 -0.00642695 0.0190182 0.0205866 -0.0171844 -0.0142442 0.000558543 0.0181455 -0.00814775 -0.00975461 -0.0197908 -0.0208927 0.0145312 0.0108119 0.00764033 0.0137597 0.01602 2.30465e-05 -0.0109079
1391 -0.017681 0.00138713 0.00274236 -0.00423348 -0.0209799 0.00847161 0.0123863 0.0019426 0.00428901 -0.0131183 0.00946763 -0.00621854 -0.00596049 0.00290476 0.0202559 0.0135644 -0.0165974 0.00130643 0.0117166 -0.00742065 -0.00147325 -0.00281912 -0.00890147 -0.004424
1390 -0.0164432 0.00685138 0.00246914 0.00080692 -0.0139452 -0.0141231 0.00526523 -0.000719341 -0.00613321 0.0155305 0.0171636 0.0151003 -0.0188794 -0.00223839 0.00174597 -0.0144285 -0.0138555 0.0161711 0.00970824 0.0181311 0.00457989 -0.013885 0.00537159 0.0199606
4365 -0.0205726 -0.00777199 -0.00537292 0.00776654 -0.00321033 0.0185051 0.0191308 -0.000668672 0.0215974 -0.0124935 0.00726256 -0.00380583 -0.0131243 -0.0111675 0.0134322 0.00754739 0.008873 -0.0174653 0.0161271 -0.0116751 -0.00487093 0.0104975 -0.00100321 0.00523479
4364 0.00603161 -0.0198163 -0.0169174 -0.0167229 0.0100331 -0.0205854 -0.00114677 -0.0138635 0.00434114 -0.0126356 0.0168662 0.00839113 -0.0150613 -0.00821807 0.00669757 -0.016617 0.00824472 -0.0192215 -0.0161827 0.0221261 0.0111268 -0.0215061 -0.00257318 0.0178948
4 -0.0160512 -0.0119721 -0.0110641 -0.00407375 0.0129975 -0.0143288 0.0136308 0.00951742 0.00218753 -0.0184027 0.00264762 -0.0182259 -0.0158523 -0.00182595 0.0123756 -0.0082294 -0.0183878 -0.00190347 0.00593702 -0.00668948 -0.0094225 0.0207757 -0.00640677 -0.00450699
163 -0.0209325 0.00406086 -0.00809545 -0.0036594 -0.0164045 -0.00466802 -0.0043594 -0.00187933 0.00711787 0.000861151 -0.0151251 -0.0058557 0.0046277 0.0125044 -0.0026957 -0.00354016 0.0028961 -0.012724 -0.0174247 -0.00497301 -0.00659958 0.0046708 -0.00387236 -0.0130644
151 -0.00693166 -0.00496265 -0.00885883 0.00258826 0.00833885 0.0163549 -0.0215895 -0.000188351 0.00359378 0.00556942 0.0140305 -0.0044654 -0.0180419 -0.000386076 0.00119288 0.0179356 0.0102361 -0.00386799 -0.0125173 -0.0163025 0.0129722 -0.0180975 0.0181613 -0.00781425
942 -0.0123011 -0.0142745 -0.0141918 0.00622738 -0.00163198 -0.0102438 0.00181353 -0.00184813 -0.00909582 0.00262819 0.0069936 0.0155318 -0.0206101 0.00707891 -0.00686718 0.00151257 0.00205744 -0.00929695 -0.00906604 0.0139814 -0.016769 -0.00954083 0.0200311 0.018311
679 0.0114501 -0.0133545 -0.0125074 -0.0121747 0.00139267 0.00712832 -0.0104628 -0.0186917 -0.0194432 -0.00186588 0.00982787 -0.0153986 -0.0109057 0.0105221 0.00816699 0.00984724 -0.002383 0.0122046 -0.00939503 0.0153133 -0.00967598 -0.0169821 0.00526761 0.016235
791 0.00265541 -0.0040413 -0.00834 -0.0173384 -0.00859775 -0.0151636 0.00890714 -0.0209799 -0.00691348 -0.00176855 -0.0127676 0.0113526 -0.0165191 -0.00405464 0.000713636 -0.0151878 0.0100424 -0.0042996 0.00332988 -0.0110237 0.00808714 0.0171426 0.0019375 0.0110482
2433 -0.0199188 0.00418487 -0.0174715 0.00616967 -0.00986059 0.00668933 -0.0132434 -0.0201274 0.0188524 -0.0071234 0.00193937 -0.0181293 -0.013938 -0.018345 -0.00410817 -0.00540383 -0.00288301 -0.011749 -0.0152134 0.00167086 -0.00887705 0.0154111 -0.00671168 0.0104298
2434 0.00336609 -0.0149701 -0.0178831 0.0117759 -0.0076986 -0.0169941 -0.0207243 -0.00349781 0.0117637 0.0129484 -0.0139955 -0.00993784 0.00621697 -0.00499192 -0.00303852 -0.00438249 -0.0049457 -0.0152169 -0.00210556 -0.0200045 0.00717543 0.0211006 0.0200345 0.0144366
4286 0.00656042 -0.0101384 0.0173364 -0.00983891 -0.019149 -0.00100739 -0.00668727 -0.00171502 -0.0176256 0.00925536 0.0191512 -0.0193488 -0.0127217 -0.00953392 0.0093056 -0.00713903 0.00750524 -0.0173891 -0.0109636 -0.000380331 -0.00317687 0.0197637 -0.00237294 0.0165272
4285 0.0128988 -0.00954674 -0.00254044 -0.00497634 0.00757603 -0.0156763 -0.000462811 -0.0108187 -0.0122459 0.00184182 -0.00525298 -0.0136086 0.018744 0.0160101 0.0103235 0.0109464 0.0129544 0.00632838 0.0155536 0.0217523 -0.0147858 -0.0124666 0.000298732 0.013395
3767 0.0201981 -0.00473027 0.00478784 -0.00545987 -0.0208258 -0.00667311 0.0120373 0.00387061 0.0159562 0.00669986 -0.0157682 0.0192993 -0.0109178 0.0204339 0.0192407 -0.0169957 -0.00641072 -0.00440582 0.00295743 0.0134001 0.0169499 -0.00411104 0.0119298 0.0139528
3766 -7.24929e-05 0.00569036 0.011277 0.00261893 0.0133329 0.00658649 0.00554753 0.00181055 -0.0180526 -0.00967046 -0.010126 0.0123945 -0.00545974 0.011394 0.0170605 0.00328912 -0.000715426 0.0117231 0.0010724 0.00173216 -0.010986 0.0196199 -0.0089865 -0.0189704
749 0.00440159 0.0111587 -0.00292606 0.0183923 0.00259512 0.000498665 -0.0120879 -0.00519334 -0.014645 -0.0159415 -0.0109308 -0.0160072 -0.0208512 0.00468027 0.000467103 0.0182062 -0.012077 -0.016734 0.010841 -0.00749562 -0.0203212 -0.0106454 0.0103173 0.000859276
839 0.00688937 -0.00335082 -0.00368748 -0.00845131 0.0190592 0.00720577 0.014479 0.00324211 0.0202651 -0.00574471 -0.0104281 0.00941165 -0.00160905 0.0103457 0.0114671 -0.0149353 -0.0144688 -0.00554399 -0.017364 -0.017967 0.00267075 0.000418502 -0.000894412 -0.015212
773 -0.00136858 -0.0010935 -0.0141702 0.0116673 -0.0163589 -0.0168927 -0.0102221 0.0184458 -0.00167174 -0.0193291 0.00800252 0.0106964 -0.00277992 0.00941387 0.0183209 0.00635504 -0.0128451 -0.0148945 -0.00397524 0.013471 -0.0192991 0.0181599 0.0166346 -0.0171102
1861 0.00357823 0.00202785 -0.0124441 0.010582 -0.0110754 0.0138989 -0.0139137 -0.0146605 -0.0209323 -0.0155614 -0.00242993 -0.0200199 0.00805342 -0.00641208 -0.000764167 0.00801599 -0.0201798 0.0170484 -0.00970871 -0.0055821 -0.00547872 0.00430276 -0.0198697 -0.01123
1860 0.000794385 0.0106726 0.0182095 0.010604 -0.0201716 0.002555 0.0105169 0.00647744 -0.0129447 -0.00672995 0.00595338 -0.016306 -0.00207011 -0.00475869 -0.0100315 0.0198023 0.013514 -0.00224613 -0.0139121 -0.0103462 0.020034 -0.0205343 -0.0046599 0.00221497
3365 0.00660448 0.00347516 0.00368807 0.0117678 -0.0144999 -0.0171535 -0.0104202 0.00835996 -0.0195222 0.0175924 0.000179864 -0.0113085 -0.00235451 -0.00629254 0.010027 -0.0169049 0.0161044 0.000716407 -0.00915614 -0.0182351 0.00431637 -0.00340892 -0.00544827 0.0165254
3366 0.0177223 -0.0111282 -0.0173414 -0.003651 0.0153868 -0.0217589 0.00666877 0.015332 -0.0101707 0.0099795 -0.0205198 0.00699684 -0.0218866 -0.00910915 -0.015098 -0.00858488 -0.00998373 0.0103494 0.00493167 -0.0176836 0.000175795 -0.0197516 -0.00629009 -0.010029
2212 -0.0186541 0.00410963 -0.00558378 0.00680166 -0.0204649 -0.00701523 0.00797712 0.00822515 -0.00895096 -0.00323806 0.0151006 -0.0171026 -0.0100014 -0.0163015 0.0138278 -0.00473034 -0.0121469 -0.00130655 -0.00324648 0.0116611 -7.19809e-05 0.0143348 0.0166789 -0.0105251
2213 -0.0054928 0.00301191 -0.00108154 -0.0143916 0.0103035 0.00295956 -0.0022333 -0.0138747 -0.0133677 -0.0014901 -0.0108449 0.0119457 0.0162359 0.0188879 0.00138105 -0.00828356 0.0139914 0.0156198 0.0147539 -0.0102412 0.00327402 -0.00805256 0.0174832 -0.0207939
702 0.00320177 0.0123429 -0.0147876 -0.0151681 0.0158503 0.0203927 0.0160394 -0.0165167 -0.00383719 -0.000513599 0.0195215 -0.00829677 0.00372139 0.016879 -0.0190281 0.00478378 0.00308113 9.44045e-06 0.00911976 0.000425545 0.0145588 -0.0120964 -0.011074 -0.00121586
1081 0.0192145 0.0151821 0.0187932 0.000555188 -0.0140894 0.00571676 0.00929822 0.00546423 0.00359944 -0.00655812 -0.00544585 0.00192677 -0.00752423 -0.015406 -0.0129756 -0.0123125 0.00676559 0.000207605 0.00227329 0.00363718 0.0174945 0.0139304 0.00717253 -0.0199688
935 -0.00862277 -0.0166744 0.000585837 0.00156365 -0.0212064 -0.0116354 0.00596633 0.00678258 -0.0186915 0.0135725 -0.00767277 0.000473451 0.00591334 0.00362719 -0.0133481 -0.0187281 -0.0190656 0.00342597 0.00770372 0.0176519 -0.0128752 -0.0152045 -0.00986437 -0.0202704
2015 0.00571065 0.00424331 0.00789627 -0.017782 0.0125545 -0.00452592 0.0150886 -0.0149992 0.00348625 0.011451 0.0208617 0.00390208 0.0147637 0.00288285 0.0190196 0.00411729 0.00287454 -0.00638148 -0.0121533 -0.00069487 -0.0071276 0.00178785 -0.00328258 -0.00480647
2016 0.00068614 0.0110445 0.0213974 -0.0116496 0.0111562 -0.019561 0.0157637 -0.0204275 -0.0204625 -0.0186081 -0.0195532 0.0156832 -0.00329663 0.00830103 0.0220644 -0.014863 -0.00211688 0.0186516 -0.0176718 0.0193748 0.000374764 -0.0114251 0.000238506 -0.0104282
1097 -0.00267359 0.00274448 -0.0155679 -0.0183069 0.0121808 -0.0123931 0.00125331 0.0132799 -0.0108699 -0.019922 0.0188379 -0.0140756 0.000470945 0.00539979 0.00405959 0.00483078 -0.0160665 -0.0182551 -0.00083646 0.0182595 -0.013421 -0.0180873 0.00266261 -0.00937572
759 -0.0174212 -0.0142602 -0.0203891 0.00950369 -0.011198 -0.00319163 -0.00408599 -0.0134053 -0.0205013 -0.0168193 -0.00415157 0.013862 0.0191313 0.0165805 -0.0191368 -0.00509279 0.0199562 -0.000612983 -0.0196121 0.0208621 -0.0187329 0.00751201 -0.00106233 0.0190175
1093 0.0147446 0.00149191 -0.0115645 -0.013553 0.0187838 0.0171065 0.0150765 -0.000182784 -0.00724412 -0.00256289 -0.0145724 0.00262008 0.00972647 0.0054855 -0.0197864 -0.0200571 0.00618016 0.00194223 -0.00608274 -0.00915983 0.0184536 -0.00920402 0.00579456 0.000637779
875 -0.0157354 0.0213505 0.00792509 -0.00297163 -0.0125691 -0.00707624 0.00322859 -0.0158648 0.00195865 0.00554606 0.0169498 -0.0184822 0.00233473 -0.0119142 0.0164108 0.0161804 -0.00700225 -0.0166847 -0.0139049 0.0215692 0.00845553 -0.0157399 0.0164594 -0.0182409
1030 -0.00735176 0.000709557 0.00438203 -0.002363 0.00413339 0.00538289 0.0131862 0.0200409 -0.0126929 -0.0204559 0.0204615 0.0030271 -0.00729125 0.00226774 0.0113305 -0.0102662 0.00993813 0.0104195 -0.00474513 0.0208867 0.0202313 0.0063559 -0.00207521 0.00207126
807 -0.0143834 0.00447245 -0.0192047 -0.0127265 -0.00358281 -0.00497806 -0.0105641 0.00943558 0.0142051 0.016352 0.00512633 -0.00112193 -0.0117279 0.00790151 -0.00404957 0.00720207 -0.014632 -0.00328344 -0.0025192 -0.00845554 0.000893726 -0.0088462 0.000167301 0.00378767
1432 0.00375146 0.0167367 0.0146274 -0.0153469 0.0104421 0.0089801 -0.00584583 0.00664921 -0.00982877 -0.014446 -0.00974522 -0.0112163 0.0104174 0.0166218 0.0166804 -0.0207449 0.0204757 0.012898 -0.00620416 0.000358187 -0.0185901 -0.00073874 -0.0155565 -0.0107526
1431 -0.0016196 0.0160952 -0.00107645 0.01061 -0.00667267 0.0142379 0.0127003 0.0114479 -0.00781993 -0.0214446 0.00803894 -0.00104936 -0.0123596 -0.00919816 0.0176512 -0.00398257 0.017636 -0.00156867 -0.00962445 0.0214189 -0.0171747 -0.0119503 0.0183014 -0.0144301
1546 -0.0182194 -0.00219764 -0.0189094 -0.0206658 -0.0210178 0.0114071 -0.0198884 -0.00907041 0.0183004 0.00200056 -0.00277737 0.0126133 0.0178295 -0.00995082 -0.00201685 -0.0160943 -0.0151704 -0.00564952 -0.0113858 -0.00472051 0.0145998 0.0194525 0.00822407 0.016334
1545 -0.0106074 0.0143452 -0.0228057 -0.00834427 -0.00610406 -0.0033592 -0.00768738 0.0184088 0.0080877 0.00254093 -0.0217454 -0.010749 0.00361213 -0.0167132 0.00721306 -0.000242981 -0.0185268 0.0154313 0.00369955 -0.0184863 0.0199005 -0.0065267 -0.00890251 -0.000373882
2192 -0.00930547 0.00994781 -0.0111806 -0.00532214 0.00411942 -0.00656338 0.0205649 -0.0030625 -0.00783933 -0.0186 0.000422592 -0.0116536 -0.0199181 0.00199443 0.0209109 0.010318 -0.0154575 -0.0015746 0.0131441 -0.0201816 0.0189799 0.0163481 -0.013319 -0.0215136
2193 0.00865284 -0.0150412 -0.0126668 -0.0115774 -0.00256072 0.0103331 0.0206202 -0.0190486 0.0185068 0.0163214 -0.00207607 -0.0145126 -0.0047069 0.00617317 -0.0208276 0.00128101 0.00554107 -0.0094777 -0.0121176 0.0193226 0.00779286 -0.0203961 -0.00233172 -0.00508488
1716 -0.00202899 -0.00670792 0.020676 0.00927688 -0.0216334 -0.00241925 0.0051478 -0.00804009 0.0157113 0.0105476 0.000713614 -0.010528 0.00752216 -0.017038 -0.0161786 -0.0188813 0.0157322 -0.0151292 0.018233 -0.013102 -0.016972 -0.021182 -0.0166802 0.0187933
1715 -0.0114749 0.0170194 -0.0066895 -0.00020474 -0.0169984 -0.00486191 0.0125554 0.00869886 0.0204658 0.0116146 0.0184385 -0.00683477 0.00504068 -0.0217922 -0.0111022 -0.0178976 0.00295014 0.00834059 0.0129286 -0.00375336 -0.0138077 0.00111574 -0.011767 -0.0029452
2002 -0.00168515 0.00248783 0.00117979 -0.014522 0.00615807 -0.0124475 -0.0208281 0.00696048 0.00723764 -0.00741099 -0.00226585 0.0212095 -0.0161905 -0.0036554 0.0204848 0.00554581 -0.00221468 0.0141531 -0.00300334 0.00729877 0.00118039 -0.00881262 -0.0107045 0.0212511
2001 0.00462421 0.00940059 -0.0111996 -0.0145499 0.00229883 0.00565249 -0.00119603 -0.0102012 -0.0145183 -0.0200016 0.0187485 -0.00951989 -0.01675 0.0181357 -0.0153781 -0.0190309 0.0026519 0.00540175 -0.00991985 -0.0197849 -0.01046 -0.0114483 0.00363873 -0.0142768
3392 0.014755 -0.00431895 -0.0190605 0.00621652 0.020097 0.0143431 -0.0100225 0.00560551 0.00332646 0.0064023 0.000664103 -0.0137288 0.00167424 0.00573866 0.0108105 0.0146488 0.0120941 -0.006524 0.0158746 -0.0113265 0.013451 0.0096759 -0.0150458 0.00264566
3391 0.00610412 0.0204468 -0.0126453 0.00895735 -0.00586658 -0.0031698 -0.00848902 0.000555886 0.0136826 -0.00190184 -0.0131409 -0.0020792 0.0093344 0.0132225 -0.00179118 0.00782353 0.01176 0.0187403 0.00876409 0.000312394 0.0151951 -0.0170928 0.00182876 0.000596681
55 -0.0127713 0.0169281 0.0102435 0.012835 -0.00935045 0.017656 0.00265406 -0.0099228 -0.00260722 -0.0121268 0.0117578 -0.00804706 0.00145524 -0.00116978 -0.00378065 0.00880048 -0.00908184 0.0121485 0.00692496 -0.0198684 0.0153773 -0.00612413 0.0191212 0.00372967
274 0.0150372 0.0120332 -0.00527697 -0.00637476 -0.00825921 0.0173213 -0.0076792 0.000926685 0.0190424 0.0180782 0.00373492 0.00787979 -0.00289461 0.0131227 -0.00415371 0.00947524 -0.0179436 0.0164607 -0.01621 -0.0161939 0.0114742 -0.00786068 -0.0151768 -0.0063176
286 0.0191974 -0.00222374 -0.00442231 -0.00644299 0.0185917 -0.00150368 0.0204703 -0.0207019 -0.00992822 -0.00137831 0.0206965 -0.00984879 0.0188709 0.0183239 -0.00933807 0.0138826 0.00237473 -0.0116403 -0.0116803 0.0202095 0.0192835 0.0197517 0.016764 0.00643638
3322 -0.00329431 -0.00245816 -0.0188854 -0.0136706 -0.0143176 0.00888729 0.00752112 -0.0102645 0.00262365 0.00193002 -0.0119358 0.00851634 0.00971145 -0.0183851 -0.0012808 -0.00504151 0.00321483 0.0104006 -0.00986282 0.0108716 0.0145045 0.0115767 -0.00494889 -0.0188062
3321 -0.0145185 0.011686 0.00577897 0.0142177 -0.0163409 0.00859264 0.00946707 -0.0125355 -0.00587865 0.0175629 -0.0206804 0.00736169 -0.0163141 0.00467289 0.00850118 0.0192443 0.0183387 0.0152082 0.0085786 0.00912197 -0.0168552 0.022328 -0.00769466 0.0179783
125 -0.0215778 0.00118511 -0.00494659 0.0199784 0.000916497 -0.00323164 -0.0174282 0.0186749 0.00898185 0.00858748 -0.0119434 -0.00930262 0.00470553 -0.00938369 0.012048 0.0152916 -0.00517797 0.0195629 0.0134441 0.0198257 -0.0129908 0.0158263 -0.00650019 -0.0118418
349 0.000406202 0.0135647 0.00194893 -0.00368574 -0.00465123 0.0205664 0.00287266 -0.0194229 -0.0122691 -0.0172453 0.0109362 0.00908018 0.0134605 -0.020612 0.0203165 0.0194929 0.0133061 0.0131652 0.0182568 0.0162978 0.0175692 -0.0165144 -0.00150722 -0.0174752
143 0.00786953 -0.00246109 0.0102145 -0.0174741 -0.0208226 0.0176745 -0.0116953 -0.0161874 -0.00165785 -0.00523068 -0.0193252 0.000293902 -0.00590268 0.012056 0.00907483 -0.00359324 -0.000964065 -0.0158506 -0.0134941 0.017035 -0.01124 0.00100922 -0.00618628 -0.0134638
2312 0.00438558 -0.0191373 -0.0161713 -0.00572367 0.0123031 -0.0174798 0.019685 0.012034 0.0063103 -0.00954593 -0.0133027 -0.0119113 -0.00112511 0.0105145 0.000669037 0.0180759 -0.00513069 0.022251 0.0160322 -0.0143627 0.000874749 -0.0205184 0.0207949 -0.00626901
2311 -0.000243062 0.00130623 -0.00202126 -0.00735933 0.0129842 -0.0142197 0.00660798 0.0121802 -0.0206395 0.00344906 0.00347249 -0.00497827 -0.00496862 0.00827698 0.0197772 -0.0115723 -0.00733886 0.00909773 -0.00971388 0.00576697 -0.0013713 -0.00282488 -0.00851559 -0.00884694
234 -0.00502109 -0.000855835 0.0109438 -0.00570916 -0.0174397 0.0146329 0.0196128 -0.00648856 -0.000192003 0.00959543 -0.00438262 0.0101239 -0.0189314 0.00560728 0.0163729 0.00604285 -0.0121953 -0.0172955 -0.0170375 -0.0195276 0.001302 -0.00113099 -0.0147585 0.0201337
54 0.00442899 0.0111541 -0.00575267 -0.00111828 -0.0157598 0.0103155 -0.0174804 0.0095505 0.0105729 -0.0160337 -0.00778904 0.00320667 0.016695 -0.0127235 0.014026 0.00926002 0.0193583 -3.33549e-05 0.0207021 0.0014686 0.00491514 0.0114652 -0.0107195 0.0156502
567 0.018911 -0.00753033 -0.00865985 0.0128533 0.00439342 0.00672051 0.000197493 0.00769803 0.00726599 -0.00142675 -0.0104259 0.00724563 0.00391727 -0.00792571 -0.0110142 -0.00175884 0.0179063 -0.00842528 -0.0108559 0.00459301 -0.00272508 0.0166751 -0.0186851 -0.00181318
606 -0.0153695 0.00784581 -0.0148422 0.00434743 -0.0119296 0.018232 0.0118117 0.00629136 0.0185731 0.00534928 -0.020669 0.0112639 -0.000691221 0.00485374 -0.00150125 0.0101784 0.0131283 0.00917083 -0.00997446 -0.00570971 0.0126617 -0.00772798 -0.00919725 0.00211078
526 -0.0101715 0.0130437 -0.0164233 0.00447154 0.000307375 0.00763263 -0.00139638 -0.00260841 -0.0043235 0.00440857 -0.000698193 0.0160257 -0.0151982 -0.0097611 0.00755945 -0.00675831 -0.0181835 0.00706906 0.0176345 -0.00404402 -0.0067654 -0.00443486 0.00973581 0.00208796
356 -0.0114226 0.0103353 0.00108431 0.0166799 -0.000540339 -0.0102125 0.0045102 0.00102202 -0.0178892 -0.0125059 -0.0133018 0.00935622 0.0100065 -0.0183594 0.00745333 0.013509 0.0102037 -0.00592149 -0.016463 -0.0112987 0.00606943 0.00684433 -0.018034 0.00281474
2153 -0.0117276 0.00414348 -0.00170058 -0.000824031 -0.00603924 -0.00257823 -0.0067471 0.000288109 0.0127792 0.0192891 -0.00438929 -0.00707465 0.0131875 -0.000636661 0.0160584 0.016826 0.00755168 0.00889427 0.0123973 -0.0180656 -0.0112267 0.0187563 -0.0078866 0.00297117
2152 -0.00010011 0.00989253 0.0150274 0.00897247 0.0125903 0.00517845 -0.017057 -0.000478325 -0.00698983 0.0208008 -0.00703139 0.00927726 0.0188466 0.0108857 0.0179002 0.0174941 0.00367523 0.0181996 0.0115093 -0.0119782 -0.0111311 0.0111218 -0.00893786 0.0169839
4261 0.0158327 -0.00788693 -0.0193236 0.0115769 -0.0185716 0.00847409 -0.00853351 0.0211979 -0.0199445 -0.0185194 -0.00843867 -0.0144884 -0.00262706 -0.0147894 0.0121212 -0.0139022 -0.0198451 -0.00297267 -0.0153078 -0.000751745 -0.021397 0.00134836 -0.018072 -0.0124563
4260 0.0173087 0.00854393 0.00214105 -0.0177033 0.00832816 0.0199015 -0.0204657 0.0153051 -0.00837713 -0.00175337 0.00812614 0.0191313 0.0165896 -0.0101007 0.0231768 -0.00951307 -0.00638708 0.0196174 -0.0159019 -0.00497944 1.75191e-05 0.00322983 0.0118333 -0.0114994
2026 0.015907 -0.00773864 0.0194463 -0.00817551 -0.0211986 0.0200472 0.00905609 -0.00516516 0.0138027 0.0124029 0.00914989 -0.0209964 -0.00504724 0.0156957 0.00323069 0.0196161 0.00657055 -0.0135616 -0.0128754 -0.0192611 -0.0180964 0.012755 0.00958199 -0.00241922
2027 0.00892952 -0.00209854 0.0163044 -0.00725149 0.0107351 -0.0104608 0.0157748 -0.00285861 0.0214466 0.0103491 -0.0113776 -0.0060744 -0.0198951 -0.00764518 0.0205558 -0.0168628 0.0173776 -0.0188415 -0.00125477 0.00256685 -0.00399081 -0.00768127 0.0189985 0.000331246
178 0.0081147 -0.00757017 -0.0183496 -0.00603176 0.0165774 -0.00368514 -0.0143328 0.00591618 0.0130985 0.00610863 -0.0155676 -0.00533807 0.0187256 -0.0134154 0.00151008 0.00985456 -0.0129721 0.0195243 0.00923749 -0.012883 0.0113514 -0.0114332 0.00491063 -0.0107126
435 0.018924 0.000918698 -0.0200715 -0.00692502 -0.0178388 -0.0147508 0.00345113 -0.0142572 0.00995189 0.0153983 0.00377859 0.00405155 0.0129833 -0.00132811 0.0205097 0.00572034 -0.0108749 -0.0164347 0.0166794 0.0209454 -0.00172111 -0.0158476 -0.0133291 -0.0168365
150 -0.0155135 0.010307 0.0103822 0.0191845 -0.00975735 -0.0103497 -0.00788833 0.0158678 0.000418023 -0.00519696 -0.00125806 -0.0136303 0.0158767 -0.00954675 0.000639057 -0.00508313 -0.0163608 -0.0186253 0.00443518 0.000700763 -6.4097e-05 0.0141148 -0.00763001 -0.0147885
2975 0.0123561 -0.00724939 -0.0109715 -0.000193591 0.0119159 -0.00926685 -0.0162328 -0.0080123 0.019009 0.0172808 0.009674 0.00976276 0.0107327 0.0216509 -0.00586544 0.0172489 0.0150723 0.0155268 -0.00262661 0.00151033 0.00886052 -0.00717398 0.0166257 -0.00882726
2974 0.010457 -0.0158549 0.00347726 0.00556818 0.0204506 -0.0114719 -0.00880809 0.0161306 0.014778 0.02067 -0.0147385 0.0147118 -0.0143327 0.0131841 0.0163126 -0.007316 0.0191344 -0.00158627 0.00624742 -0.0119731 -0.00107985 -0.0024753 -0.0153691 0.0147974
427 -0.00917642 -0.0016433 -0.0170543 0.00501162 -0.0164132 0.00220094 0.0106337 -0.000241908 -0.019397 -0.013091 0.0134561 0.00656372 0.000223766 -0.00954935 0.00238396 0.0153176 -0.0103789 0.0130627 -0.00567408 0.0146609 -0.00654968 0.0171849 0.0084963 0.0203833
104 0.00265056 -0.0101884 0.0127029 -0.00422979 -0.0141131 0.00351409 -0.0015695 0.0176299 -0.0175716 0.0120588 0.0139185 -0.0173288 0.0114942 0.0105236 0.0123643 0.00989727 0.00220412 0.0020257 0.00898478 -0.00454874 -0.00223152 -0.0178521 -0.00392214 0.016421
204 -0.00665369 -0.011944 0.014469 -0.0154022 0.0136418 -0.00346605 -0.00672013 -0.0163405 -0.0035273 0.0103994 -0.0145032 0.0123113 -0.0154222 -0.0136557 -0.0087811 -0.011354 0.00149404 -0.00210662 0.00132436 -0.00367364 0.0182818 -0.0163558 0.0196016 0.000993062
1953 0.0161289 0.00536949 0.00624298 0.0156078 0.00641114 0.0135828 0.0138644 -0.00574931 0.0178902 -0.00176142 0.00918497 0.0206364 -0.00133513 0.00518756 0.0200648 0.0206362 -0.0200745 0.00400924 0.0017101 -0.00119997 -0.00501467 0.00633315 -0.00692494 -0.0127694
1954 0.0172698 0.0114182 0.0133949 0.011564 -0.0121331 -0.0101028 0.0110539 -0.0141565 -0.000851163 -0.0208079 0.0218693 -0.0047448 -0.00681488 -0.00418672 0.0179553 0.00719153 -0.00714813 0.000718575 0.00505336 0.000303365 -0.00212878 -0.00754756 -0.0186238 -0.00827332
3292 0.000105883 -0.00899485 0.0169236 0.00039245 -0.0168276 0.0080441 0.017255 -0.0102937 0.015277 -0.0196297 -0.0158568 -0.0136717 -0.00585469 0.00609569 0.000454231 0.0117441 -0.000209933 -0.0151206 -0.00469875 0.0210216 0.0154098 0.00459532 -0.00443545 0.0199932
3291 0.00818857 0.0151347 -0.00811653 -0.0213209 0.01711 0.000646287 -0.0162851 -0.0155947 -0.00140051 -0.0181987 -0.0131627 -0.0121907 0.0211782 0.0162189 0.00674094 -0.0135861 0.018703 -0.0115488 0.00991067 -0.00947326 -0.00337245 0.00784111 0.00726254 0.00588324
3117 -0.0198333 0.018251 0.0106602 0.00260514 -0.0166656 0.000729002 -0.0136493 0.00785738 0.0159443 0.00195941 -0.0037666 0.0210492 -0.013207 0.00527159 0.00828323 -0.0165535 -0.00435899 0.00828919 0.00776484 0.00765637 -0.00245702 0.00522192 0.00410509 -0.0157061
3116 0.0159013 0.0192565 -0.0113788 0.0176716 -0.00418822 -0.0100325 0.00297384 0.000675066 -0.0138118 -0.00167576 0.00714353 -0.00570888 0.0180284 -0.0122838 0.011667 0.00295837 -0.00914954 0.00442845 0.00414072 -0.0178578 0.0217616 0.0192496 -0.020005 -0.0117057
1927 0.00458037 -0.0154663 0.00491327 0.0049923 0.0120216 -0.00256074 0.0144044 -0.01642 0.00519126 -0.0116999 0.00493263 0.000925521 -0.0125914 0.00924148 -0.0147551 -0.00252691 -0.0023067 -0.0140611 0.00327291 -0.00578699 0.0160208 -0.0179869 -0.000486237 0.0181276
1926 0.00756179 -0.0176168 -0.000869289 0.0127172 0.0151129 -0.00404029 0.00202012 -0.0036279 0.00861846 -0.0102788 -0.020092 0.0105793 -0.00512182 0.00338973 -0.0182971 0.00357829 -0.0153066 0.0094521 -0.0161801 0.0139371 -0.0158839 0.0131681 -0.01506 -0.0174891
264 0.0145021 -0.00310842 0.0168694 -0.000646703 0.00704908 0.019407 0.0141535 -0.00568564 0.00796943 -0.0187094 0.0201517 0.0132865 -0.00287638 -0.0100169 0.0206848 -0.0177829 0.0198602 -0.000850982 0.00112714 0.019344 0.0184645 0.00350196 0.00732058 -0.00597424
365 -0.0110668 -0.000305147 -0.0131223 -0.00337956 -0.00358577 -0.0133726 -0.0160679 -0.0144749 -0.0155027 -0.011409 0.0133414 3.90927e-05 -0.0122766 0.010383 0.0161527 0.000460495 0.0171762 -0.000657562 -0.0195062 0.0212435 0.000345254 0.00192199 -0.0171883 0.00975717
2 -0.00199134 -0.0127138 -0.00245437 0.0103847 -0.0092828 0.0128394 0.0201662 0.0151738 0.00438061 -0.00574986 0.0085225 0.0158892 -0.0102102 -0.0163786 -0.0178935 0.000787959 -0.0020198 0.00334106 0.0159512 -0.00807337 0.00131759 0.0192522 -0.00085988 -0.0074563
42 -0.00978089 0.00498783 0.0125056 0.00827844 0.0198398 -0.0089136 0.0109787 0.0046425 0.0078804 0.011755 -0.0023014 0.0112894 -0.0169245 0.0099949 -0.0139229 0.0183386 -0.015591 -0.018399 -0.00769239 0.00423641 -0.00601461 -0.00194953 0.0138063 -0.0027421
3 -0.014317 0.0130323 0.00349085 0.00542149 -0.003958 0.0195685 0.000939158 0.00272399 0.000366168 0.00205468 0.017236 0.0112048 0.0168691 -0.000820921 -0.0118934 0.00803021 -0.000416564 -0.0012676 0.00214553 0.00553282 0.00342266 -0.0135561 -0.0154789 0.0188444
402 0.0187015 0.0193811 -0.00510912 -0.00528951 -0.0115175 0.00714008 -0.00908542 -0.00749182 -0.000271345 -0.00203989 -0.0153461 0.0122072 -0.00474347 -0.00397719 0.0131242 -0.0187351 -0.0173652 -0.0147699 -0.0196931 0.00144568 -0.00640283 0.0163429 3.09086e-05 0.0107103
3512 -0.000261658 -0.00679043 -0.0147563 -0.015777 -0.01998 0.021608 -0.00914036 0.00897404 0.0217169 -0.0146238 0.00626328 0.0162613 -0.0201434 0.0116165 -0.00901209 0.00911535 0.00991569 0.0122979 -0.00248135 0.000742349 -0.0179803 -0.00807068 0.00109412 -0.00138932
3511 -0.0137194 -0.0144842 -0.00162516 0.00411594 -0.0112657 -0.00206903 -0.0086389 0.00639521 0.00806681 0.000140617 0.010798 0.0196905 -0.00308697 0.000378295 -0.00215974 0.00427233 0.0194798 0.00893392 0.0130539 0.000742518 0.0133947 0.00207126 -0.0207463 0.0177431
2540 0.00460822 -0.00150342 0.00899038 0.0192934 -0.00224991 0.00174941 0.0171278 -0.0118155 0.0184717 0.00408682 -0.00450089 0.00450362 -0.00781418 0.0190854 -0.00410331 0.0210294 0.00216099 -3.60238e-05 -0.0204296 0.00281276 -0.0205988 -0.0133458 -0.0104759 0.0117372
2539 -0.00424715 -0.0154299 0.0146723 0.007476 -0.013527 -0.00135546 -0.00353312 0.000919666 -0.020377 -0.00919139 0.0185596 0.00669468 -0.00243178 -0.014015 -0.00373124 0.0153987 -0.0185531 0.0160217 0.00314803 -0.00641411 0.0178051 0.0180309 0.00170799 -0.00256819
3079 -0.012418 -0.00544714 0.0198014 0.0215043 0.018402 0.000302303 -0.0206743 -0.0178183 0.0209244 -0.0182154 -0.00467001 -0.0173001 0.00361188 0.0169651 0.0210183 -0.0200885 -0.00745877 -0.0120911 -0.00275609 0.0215598 -0.00619882 -0.0135791 -0.0171039 0.00943006
3080 0.00840891 -0.00188055 0.0024049 0.0136111 -0.00945744 -0.012207 0.000397511 0.0116082 0.00923429 -0.00876064 0.00276771 -0.00872469 0.00900337 0.010223 0.000470547 0.00475035 0.0168095 -0.0154624 0.012741 -0.0144098 -0.0137038 0.00589766 0.01418 -0.00264388
2579 0.0193856 -0.0134052 0.00137662 0.00709693 0.0190786 0.0018167 -0.0138787 0.0119028 -0.0128029 -0.00132567 -0.0195136 -0.0132651 0.00825922 0.0173629 -0.00624913 0.00841889 -0.00673426 0.00291246 0.00215838 -0.0114741 -0.00111992 0.0150687 0.0114209 0.0122674
2578 0.000774368 0.0130178 -0.0161237 -0.0160109 0.0101291 -0.00166234 -0.0136247 0.00938717 0.0183619 -0.00697734 -0.00231787 -0.0208043 0.0132998 -0.0193877 0.00853913 0.0057937 -0.00898919 -0.00781873 0.0160099 -0.0145498 -0.00236159 0.00172684 -0.00772761 0.021721
3294 -0.0155893 0.00572361 -0.0124456 0.0159966 0.0194326 -0.000661531 0.00836288 -0.0216579 0.0139297 -0.0135368 0.00853833 -0.0190904 0.0200176 0.00933295 0.0155964 -0.0172313 -0.000801237 -0.0207469 0.00318699 0.0198066 0.00940842 -0.0109876 0.00711754 -0.00996581
3293 -0.0198768 -0.0157511 -0.0149258 -0.0032829 0.00117672 0.00312017 0.00206492 0.0116576 -0.0150152 -0.00830817 -0.010134 -0.0064662 0.000848169 -0.000598225 -0.0191353 -0.0184683 0.0116384 0.011676 -0.00474378 -0.00391994 -0.00265132 0.00431122 -0.0172355 0.01102
2424 -0.0117142 0.000484483 0.0114054 -0.0121544 -0.00953463 0.0178248 0.00540164 -0.018059 0.00317413 0.0195779 -0.0129252 0.00975148 -0.0218176 0.00657275 -0.013096 0.0160284 -0.00908059 0.000750261 -0.0163138 0.00773009 0.0209455 -0.0170444 -0.00804347 -0.0114121
2423 0.00352321 -0.0147978 -0.0116041 0.0195703 -0.0104702 0.0132178 0.0175655 -0.00981916 0.0127575 -0.0115741 -0.0084137 0.00944199 -0.0161738 0.0091547 -0.00568794 -0.0160186 -0.00627365 -0.0147091 0.00371093 -0.0176586 0.0137566 0.0111946 -0.00217621 0.0119942
599 -0.00822884 -0.0181894 -0.0133063 0.00273435 0.0166525 0.0130877 -0.0182426 -0.0108308 0.017775 -0.00022369 -0.021043 0.00979642 -0.0150172 -0.0190675 -0.0137056 0.00783754 0.0041297 -0.0104004 0.0113942 0.0019656 0.0187201 -0.0177679 0.00250563 0.0104979
340 -0.0198581 0.0167462 -0.0109539 -0.0197287 0.00965099 -0.0191231 -0.0152496 0.0132389 0.00463421 -0.0194833 0.00946523 0.0053043 -0.0173702 -0.0178618 -0.0134632 0.0136085 0.00601653 0.00459649 -0.00812487 0.0125829 -0.010549 -0.00432144 -0.0103242 0.0161315
481 -0.0193506 0.0145735 0.00569645 -0.000845608 -0.00883902 -0.0140813 -0.0128299 0.0138792 -0.00209127 -0.000218588 0.0188115 -0.0173308 -0.000530199 0.0144727 -0.00421117 -0.0124803 -0.00425842 0.0168275 0.00890657 0.0188798 -0.0120419 -0.0153938 -0.00927594 0.0037469
120 0.00498927 -0.0100137 -0.00102141 0.00385669 -0.00258827 -0.00329742 -0.0217355 0.00716927 0.0100436 -0.012084 0.00402146 -0.00965626 -0.00708083 -0.00655437 -0.0163801 0.00295188 0.0110171 -0.00752757 0.0136108 0.0115089 -0.0167402 -0.000273643 0.0120523 0.0121105
276 -0.0112475 0.0128929 -0.0112529 -0.00266916 0.0127617 -0.00928239 0.0177812 -0.0215974 0.00813915 0.0060642 0.0107409 0.010323 -0.0140309 -0.00579254 -0.00314493 0.0139879 0.0141406 -0.00595141 -0.01261 -0.00409038 -0.0196569 0.0166391 0.0136876 0.0154736
452 0.00504147 -0.0120417 -0.020181 0.00444345 -0.00886305 0.0195349 0.0150448 0.0149052 0.00649136 0.00624182 -0.00719307 0.000232128 -0.0128319 0.0190504 -0.00293268 -0.00121652 -0.00491917 0.0137275 -0.0162591 -0.00821115 0.0172537 0.0210349 -0.00740775 -0.0106637
53 0.0194675 -0.00714123 0.0128511 -0.00487764 -0.0134768 -0.0129076 -0.0141339 0.0139023 0.0170714 -0.0195827 0.000453891 0.00808426 -0.00473847 -0.0100056 -0.00711014 -0.00289971 0.012056 -0.0192399 -0.0110226 0.000548758 5.06971e-05 0.00351449 0.0119416 -0.0139194
2044 0.0188894 -0.0121216 0.0162334 0.00174187 -0.0111685 0.00942589 0.00932981 0.00707122 -0.00937561 -0.0200645 -0.00464519 -0.00152245 -0.00100135 -0.00981037 0.00242138 0.0192845 -0.018098 -0.0189952 0.00948008 0.0152238 -0.0145834 -0.000539919 0.00355728 -0.00533122
2045 0.0134663 0.0186424 0.00914246 -0.00728412 -0.00153565 0.0140904 -0.00442317 -7.44941e-06 0.00226001 0.0140232 -0.0193914 3.33321e-05 0.0187911 -0.0130376 0.0112245 0.00424562 -0.00188539 0.0142092 -0.0199759 -0.00811638 -0.0205344 0.00980316 0.005382 0.013273
3579 0.00179649 0.0211633 -0.00508445 -0.0200056 0.00722201 -0.0175215 -0.00296348 -0.00860151 0.0135383 0.0154222 -0.00742952 -0.0119542 0.014353 -0.0149066 0.0169705 0.017449 -0.00388422 -0.0127914 0.0105484 0.0162586 -0.011601 0.0206663 -0.020679 0.00908682
3578 -0.019983 -0.00301665 -0.0181659 0.00366194 0.00709786 0.00678708 -0.0200224 -0.0114352 -0.00109405 -0.0122401 0.0174669 -0.00889218 -0.0170514 0.0141941 -0.0155712 -0.0172921 0.0162961 0.0195642 -0.0114316 0.0137826 0.00386484 -0.0204097 0.0162167 -0.0180537
2965 -0.0137346 -0.0202261 0.00440027 -0.000752939 -0.0040951 -0.01406 -0.00538264 0.0186652 0.0199112 0.0127415 0.0123463 -0.0182291 -0.00432572 0.00180374 0.010043 0.0169947 -0.00573333 -0.00676896 -0.0147977 -0.016753 0.000847307 0.00496938 0.00264577 0.0199869
