1982 128
1685 0.0242344 0.084583 0.0724375 0.131261 0.0705063 -0.0402227 -0.00416211 -0.0292955 -0.0263642 0.0315998 0.0465642 -0.000275591 0.0445189 -0.0765949 -0.032358 0.0123246 0.0633743 -0.0409341 0.0211569 -0.0556842 0.114943 0.0148241 -0.0373915 -0.0619839 -0.0435029 0.0175523 -0.0322361 -0.0740497 0.097941 0.0079322 0.007326 -0.0781597 0.0354153 0.00228991 0.0546623 0.000237153 -0.000318045 0.0234713 -0.00269252 -0.0685806 0.0589974 -0.0141473 -0.0899839 0.0324147 0.0278812 0.0708798 -0.00857018 0.0171472 0.0563175 -0.0214864 -0.0326907 -0.0088218 -0.0552862 0.00155976 0.0069638 0.0429216 -0.0151894 -0.0034832 -0.0387361 -0.0362292 -0.0572556 0.0802175 0.00276287 0.0578082 -0.0690284 0.0667748 0.00805976 0.013854 -0.0473186 0.0941172 -0.0634586 0.0405421 0.0613726 -0.0801159 -0.0322913 -0.0130781 0.0432536 -0.00545947 -0.0703303 -0.0645966 -0.0120811 -0.0021232 0.00682454 -0.0675367 0.0171056 -0.036143 0.0736589 0.0372179 -0.0183609 -0.0844616 0.0444469 -0.00244617 -0.00111537 0.0334623 0.0741097 0.0615277 -0.0827256 0.01966 -0.0996176 -0.0197366 -0.041201 -0.129318 0.024798 0.033457 0.124772 0.0203638 0.0224695 -0.00623247 -0.0320654 -0.0583382 0.107919 0.0220667 -0.0579838 0.0537449 0.000603021 0.0264157 0.0554181 -0.0360653 -0.014789 -0.0354016 0.0722479 -0.0011842 -0.112105 -0.063703 0.0952897 0.0801228 0.0783297 -0.0542445
1686 0.0249236 0.0920432 0.0753974 0.144071 0.0804118 -0.0507533 -0.00776478 -0.0381341 -0.0232424 0.0409424 0.0512569 0.00470015 0.0421317 -0.0801842 -0.0417882 0.012949 0.0718918 -0.0490126 0.0171008 -0.0592408 0.125024 0.0193751 -0.0451486 -0.0642405 -0.0486014 0.0130712 -0.0282484 -0.0822145 0.109597 0.0123352 0.00497545 -0.0914292 0.0359478 0.00716163 0.0596611 0.00559334 0.000734674 0.0236322 -0.00897097 -0.070194 0.0574561 -0.0140583 -0.0960485 0.0349826 0.0351419 0.0802626 -0.0106505 0.0203168 0.0599988 -0.022157 -0.0338036 -0.0168197 -0.0539638 -0.00168812 0.00697219 0.0429088 -0.0118261 -0.00981779 -0.041109 -0.0344759 -0.0653507 0.0861853 0.00925064 0.0624736 -0.0721906 0.0693621 0.0103817 0.0149618 -0.0516485 0.102855 -0.0647137 0.0451622 0.0665224 -0.0844085 -0.0369264 -0.018998 0.046477 -0.00416196 -0.0795359 -0.0711797 -0.0165731 -0.000691179 0.00291394 -0.0734299 0.018919 -0.0386364 0.0741262 0.0360735 -0.0201136 -0.0898629 0.0531338 -0.000977518 0.00240317 0.0361439 0.075957 0.0658718 -0.0873925 0.0254225 -0.11051 -0.0212303 -0.0491209 -0.141191 0.0297488 0.0312398 0.136124 0.0183218 0.0268574 -0.0124264 -0.0345615 -0.0630487 0.116125 0.0301308 -0.0645745 0.0533157 0.00245276 0.0304179 0.0602047 -0.0399573 -0.0128337 -0.0379359 0.0796752 -0.00229181 -0.114856 -0.0757106 0.103534 0.0876763 0.0896935 -0.0608629
1913 0.0126513 0.0343107 0.0296595 0.045913 0.0293155 -0.0159635 0.000965087 -0.00811667 -0.0103711 0.0115397 0.0177609 -0.00253871 0.0179233 -0.0272509 -0.0144529 0.00222691 0.0273237 -0.0185239 0.00662379 -0.0207672 0.0408449 0.00184427 -0.0163477 -0.0211002 -0.0158167 0.0019061 -0.00776513 -0.0279181 0.0382571 0.000410038 0.000320056 -0.0304248 0.0141733 0.000705859 0.0224108 0.00436354 -0.00202519 0.00815106 -0.00365519 -0.0234065 0.0211521 -0.00757091 -0.0318018 0.0147984 0.00728659 0.0237147 -0.00323287 0.0107805 0.0191797 -0.00726025 -0.0100738 -0.00237066 -0.0147203 -0.00350575 0.00188512 0.0159043 -0.00144368 -0.00609609 -0.0160198 -0.0146355 -0.017917 0.0291539 0.00552437 0.0214809 -0.0221227 0.0212694 0.000849802 0.00755432 -0.0150791 0.03491 -0.0204234 0.0151914 0.0230318 -0.0265614 -0.0127352 -0.00183008 0.0149688 0.00100424 -0.0293395 -0.0195026 -0.00619834 -0.00068366 0.00343584 -0.0229902 0.00801354 -0.0145951 0.024861 0.0150889 -0.00553436 -0.0316385 0.0140811 -0.00211404 0.00247673 0.00978205 0.0270193 0.0211736 -0.0258559 0.00785459 -0.0380972 -0.00958991 -0.0129318 -0.0458024 0.0113471 0.0106719 0.0482382 0.0108601 0.00812623 -0.00318624 -0.0073132 -0.0179928 0.0388985 0.00687177 -0.0203011 0.0207952 -0.00177256 0.0137004 0.0196065 -0.0163409 -0.0028547 -0.0144784 0.0232224 -0.00295884 -0.037487 -0.0249351 0.0307394 0.0335072 0.0310853 -0.0194406
417 0.109643 0.373657 0.322844 0.592603 0.31201 -0.195806 -0.03081 -0.139632 -0.107021 0.158534 0.207381 0.010286 0.186668 -0.334524 -0.161703 0.0531569 0.293526 -0.196475 0.0792976 -0.234632 0.493633 0.0748142 -0.162317 -0.254795 -0.204622 0.0677007 -0.126045 -0.319072 0.429856 0.0345572 0.0346288 -0.353474 0.150015 0.0219514 0.231543 0.0118914 -0.000995629 0.0830191 -0.0170056 -0.300471 0.244143 -0.0775718 -0.388122 0.131089 0.129723 0.325549 -0.0336463 0.0860315 0.228848 -0.0790131 -0.149712 -0.0529688 -0.221365 0.00280364 0.043287 0.18105 -0.052912 -0.0316083 -0.1705 -0.150179 -0.255505 0.353161 0.016038 0.239856 -0.296728 0.297644 0.0409539 0.0588389 -0.21362 0.408894 -0.272593 0.1845 0.267713 -0.336553 -0.130492 -0.0649602 0.182438 -0.0311241 -0.317532 -0.276557 -0.0590369 0.0111037 0.0302459 -0.284561 0.0733294 -0.156554 0.308457 0.153907 -0.0841636 -0.352949 0.207421 -0.0063772 -0.00647208 0.152842 0.307583 0.25113 -0.34719 0.106697 -0.431367 -0.0775696 -0.190995 -0.575894 0.124995 0.139198 0.562998 0.0923445 0.106905 -0.0382229 -0.129724 -0.238219 0.46175 0.104632 -0.269547 0.218637 0.00236055 0.131391 0.232584 -0.151434 -0.0695474 -0.17051 0.326783 -0.0095678 -0.476058 -0.291342 0.404445 0.372448 0.349282 -0.254934
1910 0.0132687 0.0591202 0.0499906 0.0851887 0.0434255 -0.0268987 -0.00801137 -0.0223094 -0.018465 0.0194947 0.0273477 0.000170441 0.0303852 -0.0469621 -0.0242105 0.010337 0.0394063 -0.0298526 0.0101109 -0.0337886 0.0764562 0.00667985 -0.0279814 -0.0408191 -0.0309713 0.0110093 -0.0166795 -0.0497687 0.0673965 0.007238 0.0026354 -0.0536719 0.0216814 0.00125406 0.0342107 0.000898654 0.00195613 0.0151179 -0.00489113 -0.0479756 0.0333367 -0.00807238 -0.0614823 0.0167 0.0202842 0.0512591 -0.00147318 0.0143146 0.0364898 -0.0154413 -0.0207644 -0.0113436 -0.0366348 0.00306303 0.00475974 0.02401 -0.00447009 -0.00171329 -0.0250089 -0.023704 -0.0391728 0.0535005 -0.000694691 0.0341672 -0.0401859 0.0455637 0.0064264 0.00577451 -0.0342391 0.0631619 -0.0416612 0.0242765 0.0399755 -0.04991 -0.0209745 -0.013613 0.027594 -0.00118195 -0.0495014 -0.0410708 -0.0110715 0.00165812 0.00314256 -0.0446295 0.00991134 -0.0238411 0.0444553 0.0218716 -0.0129771 -0.0490315 0.0292615 -0.00332844 -0.000383566 0.0222595 0.0426989 0.0356981 -0.0527018 0.016784 -0.0669571 -0.0140604 -0.0310357 -0.0857267 0.0195864 0.0233615 0.0815051 0.0129503 0.0177947 -0.00365846 -0.0181835 -0.0336472 0.0667034 0.0129341 -0.0427588 0.0321407 -0.00306529 0.0210648 0.0378087 -0.0214802 -0.0121652 -0.0227619 0.0485974 -0.00160191 -0.0702876 -0.0399932 0.0585959 0.0531665 0.0546408 -0.0339528
1280 0.0275479 0.0968924 0.0784238 0.147781 0.0809279 -0.0495567 -0.0101527 -0.03778 -0.0275134 0.0388652 0.0532177 0.0022495 0.043027 -0.0806896 -0.0359091 0.0095017 0.0764385 -0.0455774 0.0235808 -0.0602488 0.122792 0.0198048 -0.0451562 -0.0687814 -0.0546195 0.0151589 -0.0282536 -0.0793316 0.106493 0.0122348 0.0127133 -0.0875774 0.0387692 0.00541596 0.0546515 0.00501969 0.000620744 0.0185041 -0.00602264 -0.0717381 0.0641369 -0.0171669 -0.0956742 0.0349737 0.0353806 0.0833181 -0.0104913 0.0180136 0.0573948 -0.0169499 -0.0407089 -0.0138998 -0.0562426 0.00418026 0.0136631 0.0497723 -0.0149434 -0.00941641 -0.0379084 -0.0366589 -0.0656333 0.0896771 0.00854807 0.0619579 -0.074111 0.0751703 0.00697907 0.01235 -0.0503339 0.100854 -0.0676749 0.0505444 0.0675476 -0.0850404 -0.0305519 -0.0135105 0.0428986 -0.00643415 -0.0796834 -0.07251 -0.0133427 -0.00158907 0.00775665 -0.0682699 0.0192458 -0.0394242 0.0815032 0.0366113 -0.0181497 -0.0869875 0.0471769 -0.00138451 -0.00140826 0.0382861 0.07985 0.0668936 -0.0860758 0.027301 -0.106014 -0.0188851 -0.0457208 -0.146909 0.0340685 0.0311235 0.142531 0.0194765 0.0278901 -0.00833907 -0.0351947 -0.0576995 0.114362 0.0269246 -0.0671868 0.0517474 -0.00131623 0.0348745 0.0578705 -0.0351205 -0.0170207 -0.0444515 0.085217 -0.00383003 -0.120833 -0.0746033 0.104754 0.0902513 0.0855066 -0.0599779
1940 0.0312433 0.105041 0.0907314 0.164492 0.0900961 -0.0548498 -0.00831904 -0.0362794 -0.0286126 0.0446796 0.0550181 0.00532879 0.0537732 -0.0990864 -0.0469987 0.0182782 0.07844 -0.0584426 0.0223342 -0.0661844 0.14235 0.0181667 -0.0494117 -0.0733975 -0.0552319 0.01586 -0.0312733 -0.0909342 0.126291 0.00903883 0.00924891 -0.104392 0.0433301 0.0059265 0.0652758 0.00411356 -0.00542099 0.0227791 -0.00375673 -0.0801345 0.0689242 -0.0244467 -0.112042 0.0380597 0.0403587 0.0920774 -0.0136662 0.0258749 0.0625126 -0.0240332 -0.039349 -0.0185689 -0.0654191 0.00245742 0.0139619 0.0482662 -0.0148902 -0.00743247 -0.0488648 -0.0449051 -0.0706028 0.0959984 0.00915294 0.0660482 -0.0825179 0.0815422 0.0157968 0.0139735 -0.0581721 0.111297 -0.075481 0.0514759 0.0726831 -0.0906975 -0.0396182 -0.022705 0.0515595 -0.0117305 -0.0894002 -0.0775275 -0.0172611 0.00455641 0.00436355 -0.0769912 0.0237631 -0.0441597 0.0852577 0.0461025 -0.0202421 -0.102529 0.0596396 -0.0027933 -0.00425184 0.0463167 0.0824172 0.0747629 -0.0976942 0.0256273 -0.124556 -0.0188214 -0.0590116 -0.159704 0.038535 0.0349597 0.159982 0.0225663 0.0298713 -0.015562 -0.0346043 -0.0665464 0.126215 0.0259488 -0.0762381 0.0613739 0.000674862 0.0383205 0.0676459 -0.0427528 -0.0185217 -0.0491524 0.0891619 0.00136702 -0.134174 -0.0847602 0.115166 0.103152 0.102068 -0.0678998
59 0.0345326 0.119419 0.0968194 0.187883 0.0965105 -0.0633628 -0.0146871 -0.045205 -0.0289497 0.0461081 0.0621423 0.00466618 0.0594787 -0.105855 -0.0482328 0.0147052 0.0870207 -0.0613108 0.0286788 -0.0709537 0.153201 0.0190555 -0.0520707 -0.0804216 -0.062691 0.0237479 -0.0388416 -0.102082 0.136287 0.0149737 0.0108756 -0.110274 0.0487271 0.00626583 0.0723235 -3.80812e-05 -0.00114665 0.0223414 -0.0105084 -0.0931998 0.0776794 -0.021319 -0.12402 0.040556 0.0440764 0.100994 -0.0133905 0.02402 0.0728423 -0.0285885 -0.0495266 -0.0190503 -0.0695513 0.00284363 0.0155951 0.0595653 -0.0191318 -0.0126293 -0.0511761 -0.0498903 -0.0785969 0.112134 0.00519132 0.074938 -0.0897724 0.0942246 0.0131107 0.0126433 -0.0636027 0.125535 -0.0841272 0.0612814 0.0828937 -0.10742 -0.0431687 -0.0187104 0.0603225 -0.0100721 -0.0995534 -0.0853045 -0.0201834 -0.00063064 0.0119657 -0.0885864 0.0199207 -0.0460081 0.0931283 0.0439123 -0.02925 -0.106229 0.0636908 -0.00297295 -0.000915043 0.0485456 0.0925427 0.0786079 -0.108472 0.0314161 -0.135493 -0.0277766 -0.0628562 -0.176584 0.0355948 0.0419525 0.173275 0.028122 0.0353623 -0.0137445 -0.0385376 -0.0784382 0.144155 0.0297147 -0.0807006 0.06887 -0.00293038 0.0410297 0.0737246 -0.0449564 -0.0196885 -0.0556042 0.102305 -0.00325771 -0.148297 -0.0934863 0.126513 0.118016 0.106814 -0.0767328
1017 0.029517 0.108758 0.0948724 0.174817 0.0914057 -0.059216 -0.00696349 -0.0404254 -0.0282483 0.0468181 0.0609077 0.00204484 0.0529035 -0.0978789 -0.0495722 0.0165834 0.0839394 -0.0530998 0.0257094 -0.0659267 0.146163 0.023587 -0.0490556 -0.0719203 -0.0580237 0.0161614 -0.0354578 -0.0911457 0.126714 0.0141235 0.013715 -0.101684 0.040408 0.00864967 0.068526 0.00240224 0.00200591 0.0218109 -0.00865344 -0.0871584 0.0675733 -0.0243617 -0.111069 0.0390793 0.0337707 0.0899643 -0.0115271 0.0262666 0.0670817 -0.0206452 -0.0434359 -0.0152133 -0.0624273 0.000115031 0.00887653 0.0568817 -0.013355 -0.0078448 -0.0500622 -0.0444938 -0.070605 0.102321 0.00310661 0.0666406 -0.0840594 0.0836593 0.00864415 0.0190825 -0.0641699 0.120532 -0.0753266 0.0519968 0.075486 -0.0965084 -0.0388533 -0.0156431 0.0572282 -0.00672302 -0.0904354 -0.0785061 -0.0151936 0.00174839 0.0117668 -0.0821272 0.0231584 -0.0493579 0.0881253 0.0470337 -0.024345 -0.100788 0.0560849 -0.000428522 0.00079513 0.044354 0.0863419 0.0765832 -0.100245 0.0307244 -0.128812 -0.0191577 -0.0586671 -0.164513 0.0383298 0.0385357 0.165154 0.0218411 0.0319897 -0.0115341 -0.037197 -0.0706507 0.134862 0.0273429 -0.0765768 0.0669142 0.00228211 0.0423965 0.070306 -0.0429095 -0.0213384 -0.0526106 0.0948964 -0.00165049 -0.14019 -0.0810321 0.118517 0.106893 0.103742 -0.0697656
1936 0.0105531 0.0489012 0.0353053 0.0745509 0.0352586 -0.0249618 -0.00733393 -0.0137381 -0.0145793 0.016944 0.021743 0.00307366 0.0221642 -0.03669 -0.0219228 0.00241846 0.0341624 -0.0248281 0.0079746 -0.0296492 0.0601568 0.0109274 -0.0197877 -0.0340485 -0.0262859 0.00722548 -0.0180097 -0.0381063 0.0484054 0.00397423 0.0069896 -0.0435168 0.0208511 0.00114703 0.0305871 -0.00109753 -0.00338391 0.0140494 -0.00277346 -0.0355321 0.0305373 -0.00845881 -0.0502724 0.0165743 0.0184931 0.0359902 -0.00662069 0.00721887 0.0308813 -0.00621988 -0.0191299 -0.00555723 -0.0245513 0.0019969 0.00136434 0.0196002 -0.00897892 -0.00721021 -0.0155091 -0.0210998 -0.031883 0.0440971 0.00273158 0.0289472 -0.0387443 0.0363113 0.00382013 0.00306079 -0.0241682 0.0513134 -0.0301355 0.0223283 0.0358145 -0.0369235 -0.017523 -0.00961723 0.0201572 -0.00143648 -0.0344642 -0.030196 -0.00771202 -0.00311386 0.00595409 -0.032078 0.00552575 -0.0174342 0.0385619 0.0186278 -0.00860349 -0.0389376 0.0210982 -0.00245091 0.00179469 0.0195434 0.0381446 0.0342049 -0.0379345 0.0147549 -0.053092 -0.00627884 -0.0216799 -0.0688952 0.0131123 0.0130752 0.0684712 0.0127102 0.00920383 -0.00128716 -0.014028 -0.0277891 0.0518692 0.0137019 -0.0317759 0.0247088 0.000686305 0.0177585 0.0259907 -0.0220607 -0.00934186 -0.0226979 0.0407496 -0.00255562 -0.0544135 -0.037138 0.0474925 0.0431958 0.0441866 -0.0307402
724 0.095676 0.337385 0.284032 0.531264 0.272657 -0.175436 -0.0329165 -0.122138 -0.0968368 0.1383 0.178941 0.00690128 0.160883 -0.301714 -0.144988 0.0440685 0.258884 -0.169998 0.0678187 -0.206234 0.440209 0.0627903 -0.149592 -0.231465 -0.185186 0.0526741 -0.110428 -0.288007 0.385156 0.0372245 0.0322106 -0.321806 0.128334 0.0237199 0.208936 0.0143923 -0.00671414 0.0735399 -0.0222414 -0.267239 0.216751 -0.068351 -0.347269 0.115326 0.112795 0.290639 -0.0347016 0.0778033 0.207239 -0.0758586 -0.135235 -0.051315 -0.205211 0.00834399 0.0367353 0.161866 -0.0442181 -0.0339848 -0.148816 -0.136 -0.226389 0.315716 0.0197834 0.211784 -0.263295 0.267204 0.0331679 0.0510177 -0.184481 0.359697 -0.239837 0.166542 0.24278 -0.302331 -0.12209 -0.0560176 0.163229 -0.0222019 -0.282504 -0.25412 -0.0518494 0.00223046 0.0217015 -0.248696 0.0703885 -0.144024 0.273076 0.134597 -0.0784709 -0.314782 0.186537 -0.00239969 -0.00631217 0.131256 0.271217 0.228373 -0.314427 0.0964842 -0.392175 -0.0715837 -0.177887 -0.511907 0.116519 0.123896 0.496909 0.08123 0.0963177 -0.0326348 -0.114018 -0.2093 0.405173 0.0935766 -0.240156 0.197657 0.00251609 0.118793 0.210001 -0.140062 -0.0610922 -0.151642 0.285683 -0.00577928 -0.430595 -0.261158 0.36229 0.328598 0.313137 -0.22081
42 0.027676 0.114141 0.0925072 0.174357 0.0882352 -0.0598733 -0.0121259 -0.0432548 -0.032852 0.0467279 0.0595877 0.00208735 0.0527482 -0.0963333 -0.0464849 0.017416 0.0845298 -0.0527587 0.0198084 -0.0673156 0.144712 0.0224202 -0.0516048 -0.0751008 -0.0597078 0.0206535 -0.0377441 -0.0941861 0.124561 0.0109048 0.00736895 -0.103843 0.0403064 0.004313 0.0664952 0.00127522 0.00175517 0.0235255 -0.00429109 -0.0887725 0.0682597 -0.0216676 -0.109195 0.0394984 0.0378218 0.0946835 -0.00936702 0.0266624 0.0680032 -0.0221511 -0.0408171 -0.0179866 -0.0665144 0.00524834 0.0145607 0.0516774 -0.0111828 -0.013591 -0.0510465 -0.047309 -0.0741778 0.104394 0.00372833 0.0740455 -0.0877813 0.0857877 0.013441 0.0151466 -0.0633298 0.118245 -0.0823979 0.0541024 0.0784364 -0.0993441 -0.0412512 -0.02134 0.0558908 -0.0100942 -0.0966199 -0.0841107 -0.0176827 -0.000716128 0.0101156 -0.0824129 0.0254593 -0.0452188 0.0914258 0.0461612 -0.0250802 -0.0983048 0.0626399 -0.000431182 -0.000885253 0.0408974 0.0874371 0.0713385 -0.0983502 0.0268481 -0.129941 -0.0222364 -0.0594084 -0.16425 0.033211 0.0365958 0.165717 0.0234156 0.0331542 -0.00841245 -0.0357183 -0.0689027 0.135051 0.0347922 -0.0771142 0.0638494 0.000847374 0.0397455 0.0705432 -0.046452 -0.0176863 -0.0524169 0.0928105 -0.0048802 -0.143055 -0.0853683 0.117439 0.109302 0.0990757 -0.0712136
1006 0.0244732 0.0754386 0.0618517 0.1093 0.0565593 -0.0344497 -0.00501843 -0.0293324 -0.0163738 0.0280998 0.0398775 -0.000945651 0.0317496 -0.060559 -0.0288591 0.00722582 0.0542108 -0.0374058 0.0155574 -0.0411107 0.0915169 0.0161273 -0.0312535 -0.0496984 -0.0359513 0.0113916 -0.0241506 -0.0613852 0.0805171 0.00526235 0.00346705 -0.063673 0.0267748 0.00367315 0.044899 0.000348662 0.00159677 0.0130584 -0.00756971 -0.0574357 0.044495 -0.0114751 -0.0712068 0.0227383 0.0256885 0.0582984 -0.0100577 0.01521 0.0411182 -0.0180416 -0.0267021 -0.00867701 -0.0396091 -0.0020533 0.00853409 0.0316556 -0.010508 -0.00400016 -0.0304755 -0.0319882 -0.0514707 0.066446 0.00303886 0.0458639 -0.0574267 0.0577138 0.009106 0.0133111 -0.0432904 0.0806232 -0.0509117 0.0362634 0.0547325 -0.0630986 -0.0243586 -0.0113785 0.0349114 -0.00644131 -0.0590809 -0.0567781 -0.00785816 0.00181694 0.00501605 -0.05179 0.0127214 -0.0338541 0.0554908 0.0325684 -0.0129646 -0.0657598 0.0417929 -0.00259772 -0.00148044 0.024488 0.0546736 0.0485802 -0.0696797 0.0174805 -0.0819209 -0.0133985 -0.0346702 -0.109748 0.0265537 0.0265107 0.106355 0.0160246 0.0221352 -0.00834365 -0.0219121 -0.0418442 0.0890653 0.0165511 -0.0508765 0.0395776 -0.00317061 0.028585 0.0465771 -0.0296143 -0.0139087 -0.0293747 0.065325 0.00191924 -0.0911487 -0.0587749 0.0781111 0.0736957 0.0638575 -0.0477772
865 0.0350172 0.109206 0.0919325 0.179925 0.0880282 -0.0554297 -0.00654738 -0.0388284 -0.034013 0.0480435 0.0630888 0.00222703 0.0544104 -0.10016 -0.0482313 0.0179744 0.0897172 -0.0568915 0.0232156 -0.0648067 0.145163 0.0244443 -0.0509463 -0.0750222 -0.0612013 0.0178662 -0.0340198 -0.0939778 0.131561 0.0147279 0.011477 -0.104095 0.0434641 0.00317835 0.066179 0.00584353 0.00181155 0.0225803 -0.00815054 -0.0850224 0.0733419 -0.0184822 -0.116523 0.0407967 0.0376376 0.0946593 -0.010547 0.0277671 0.0688014 -0.0213882 -0.0414881 -0.014562 -0.0690107 -0.000983159 0.0112352 0.0581989 -0.0176624 -0.00772795 -0.046051 -0.0488336 -0.0771064 0.103315 0.00774216 0.0708434 -0.0839978 0.08318 0.0148276 0.0156466 -0.0636918 0.124231 -0.0815652 0.0590004 0.0827764 -0.0997018 -0.0362525 -0.0201231 0.0560637 -0.00872745 -0.093738 -0.0813344 -0.0146699 0.0036245 0.00688321 -0.0847083 0.0227149 -0.0464496 0.0889665 0.0484573 -0.0288704 -0.102337 0.0591638 -0.0026272 -0.00206999 0.046684 0.0935388 0.0746049 -0.0993604 0.0277779 -0.125566 -0.0245289 -0.0570062 -0.170017 0.03521 0.0416268 0.168987 0.0285485 0.0343013 -0.0122807 -0.0405314 -0.0703456 0.137704 0.0321126 -0.0822621 0.0632851 0.000605781 0.0407949 0.0672587 -0.0489068 -0.020916 -0.0488273 0.0956331 -0.000135788 -0.139945 -0.0842395 0.122511 0.107171 0.105081 -0.0771448
1605 0.0187372 0.078785 0.0664344 0.123159 0.0654892 -0.0406707 -0.00575646 -0.0262728 -0.0195197 0.033234 0.0436245 0.00410367 0.0383156 -0.0705802 -0.0305422 0.00693086 0.056501 -0.0428214 0.0185893 -0.0463772 0.10267 0.0176652 -0.032331 -0.0521007 -0.0423568 0.0122163 -0.0263301 -0.0666149 0.0850195 0.0107346 0.0105763 -0.071315 0.0301794 0.00517251 0.0486379 0.000451838 0.00264176 0.0189968 -0.00532925 -0.0624499 0.0495012 -0.0181588 -0.0777135 0.026821 0.0236334 0.0683333 -0.00622547 0.0201784 0.0474167 -0.0141557 -0.0301386 -0.0103259 -0.0444037 0.00123811 0.00851431 0.0343783 -0.0120497 -0.00575947 -0.0315281 -0.031611 -0.0548821 0.0687878 0.00697261 0.0456049 -0.0638956 0.0596933 0.00840299 0.00728726 -0.0427463 0.082409 -0.0564565 0.0358768 0.0552155 -0.0682275 -0.028043 -0.0145392 0.0379638 -0.00827586 -0.0686147 -0.0563628 -0.0121777 0.000457049 0.00331686 -0.0563136 0.0116324 -0.0345971 0.0670359 0.028243 -0.0142065 -0.072963 0.0400145 0.00260826 0.00183763 0.0311815 0.0583207 0.0489177 -0.0729407 0.0212252 -0.0885517 -0.0151833 -0.0428369 -0.113716 0.0233935 0.0245688 0.111642 0.0215867 0.0200757 -0.0117836 -0.0255403 -0.0451069 0.0951585 0.0200537 -0.0539591 0.044352 -0.00153669 0.029289 0.0500731 -0.0316188 -0.0107228 -0.0338604 0.0646115 0.00177314 -0.0986319 -0.057488 0.0821395 0.0773367 0.0735677 -0.0546769
1589 0.051957 0.195916 0.161233 0.301807 0.15586 -0.0959261 -0.0202317 -0.0690572 -0.0536402 0.0779117 0.109203 0.00478373 0.0945973 -0.173682 -0.0774741 0.0263102 0.149765 -0.104666 0.0404758 -0.121483 0.255558 0.0383621 -0.082439 -0.136246 -0.100955 0.0342319 -0.0604204 -0.162509 0.224675 0.0224775 0.0149329 -0.182626 0.0781012 0.0109897 0.118134 0.0108718 -0.00551838 0.0434632 -0.00925795 -0.155155 0.123617 -0.0371826 -0.198024 0.0654754 0.0661511 0.170004 -0.0224966 0.0401814 0.114802 -0.0377591 -0.0774982 -0.0263883 -0.116321 0.00306261 0.0243767 0.0971135 -0.0227181 -0.0185886 -0.0826013 -0.0825221 -0.131793 0.178476 0.0106394 0.123959 -0.15158 0.153925 0.0244865 0.0286455 -0.108718 0.206797 -0.139123 0.0994995 0.135652 -0.172664 -0.064775 -0.0331885 0.0982946 -0.0184595 -0.166933 -0.142897 -0.0284612 0.00591535 0.0179249 -0.144463 0.0362525 -0.0831813 0.161371 0.0797569 -0.0457006 -0.176517 0.104433 0.00225402 -0.000400074 0.0792602 0.15605 0.135419 -0.178767 0.0520111 -0.219723 -0.0388514 -0.0973673 -0.293812 0.0671275 0.0668855 0.292358 0.0470012 0.0512851 -0.018489 -0.0640354 -0.121136 0.237326 0.0550775 -0.137669 0.112102 0.00502684 0.0692917 0.118492 -0.0747821 -0.0378493 -0.0835904 0.168656 -0.0029071 -0.243985 -0.148144 0.20811 0.187207 0.180324 -0.129479
1608 0.0153323 0.0635611 0.0545094 0.104922 0.0535848 -0.0309634 -0.00478901 -0.0214804 -0.0202143 0.0272488 0.0337467 -0.0013373 0.0346721 -0.0585381 -0.0275072 0.00804388 0.0476953 -0.0370282 0.0107409 -0.038512 0.0868154 0.0158664 -0.0317562 -0.0431981 -0.0325512 0.0109142 -0.018733 -0.0570296 0.0763221 0.00429705 0.00499122 -0.0599541 0.0288612 0.00467372 0.039503 0.00485907 0.00207106 0.0107439 -0.00545991 -0.0537549 0.0391569 -0.0119884 -0.0686958 0.0230426 0.0191559 0.0522462 -0.00606912 0.0129189 0.0383535 -0.0104892 -0.0271391 -0.00528701 -0.0379526 0.000541515 0.00449551 0.0352748 -0.0108394 -0.00472779 -0.0274222 -0.0262128 -0.0442446 0.0567888 0.0068029 0.0427022 -0.0501601 0.0524164 0.00518723 0.0113609 -0.0368165 0.0679815 -0.0464548 0.028744 0.0447751 -0.0576243 -0.0239734 -0.00837334 0.0337852 -0.0074207 -0.0535716 -0.0442544 -0.00963749 -0.0021338 0.00522066 -0.0513718 0.0113662 -0.0304524 0.052252 0.0252749 -0.0173798 -0.0633771 0.0346254 -0.00106992 -0.00325105 0.0286363 0.0550016 0.0416933 -0.05883 0.0208727 -0.0724821 -0.0170214 -0.0345519 -0.10052 0.0250126 0.0226093 0.0991502 0.0143881 0.0175082 -0.00778088 -0.0179781 -0.0409611 0.0820808 0.0187739 -0.0454759 0.037797 -0.00308581 0.0250801 0.042442 -0.0228659 -0.00974421 -0.0261548 0.0561363 0.00139267 -0.0856364 -0.0481934 0.0723167 0.0654558 0.0641663 -0.0400499
174 0.0381584 0.146171 0.121607 0.226804 0.1214 -0.0748206 -0.0108758 -0.0556024 -0.0371734 0.0605084 0.074199 0.00550988 0.0680724 -0.125128 -0.0578828 0.0226014 0.110269 -0.0736622 0.0279295 -0.0844918 0.186702 0.0278704 -0.0622912 -0.101925 -0.0755666 0.02527 -0.0462236 -0.122365 0.163858 0.0152398 0.0169658 -0.132195 0.0566639 0.0054618 0.0896157 0.00532284 -0.00267474 0.0348758 -0.00843525 -0.114748 0.0933822 -0.0248698 -0.14777 0.0499598 0.0474569 0.125481 -0.0120952 0.0336313 0.0899103 -0.0345711 -0.0614208 -0.0217593 -0.0876687 -0.00198716 0.0141267 0.0736811 -0.0176229 -0.0113486 -0.0635702 -0.0576224 -0.0953194 0.1386 0.00691981 0.0898151 -0.110854 0.115321 0.0123584 0.0228203 -0.07964 0.157391 -0.102056 0.0685864 0.099559 -0.128511 -0.0525474 -0.0273168 0.0707752 -0.00873778 -0.124951 -0.108331 -0.0217841 -0.00109164 0.00833473 -0.103635 0.0274539 -0.0634042 0.12111 0.054796 -0.0366779 -0.131866 0.0784374 -0.00413182 0.00121652 0.0565343 0.114399 0.0969029 -0.132762 0.0433712 -0.162837 -0.0314736 -0.0764259 -0.219208 0.0497233 0.0487002 0.210425 0.0298284 0.0426165 -0.0127396 -0.0502198 -0.0949084 0.177683 0.0397398 -0.105365 0.0858482 0.00347368 0.0492878 0.0863232 -0.0618217 -0.025515 -0.0659992 0.121746 -0.00503973 -0.186364 -0.110335 0.15192 0.144375 0.130679 -0.0927883
528 0.0389812 0.147544 0.118943 0.222408 0.114606 -0.0724824 -0.0140796 -0.0518997 -0.0368097 0.0589651 0.0776373 0.00707564 0.0705882 -0.124185 -0.0629983 0.0206984 0.107647 -0.0712018 0.0301448 -0.0904807 0.185903 0.0292946 -0.0625412 -0.0978388 -0.0782731 0.0266456 -0.0485349 -0.122839 0.165881 0.0114011 0.0166247 -0.137253 0.0529093 0.00638444 0.0910746 0.00852943 0.000341035 0.0301015 -0.0101217 -0.109866 0.0960674 -0.0271326 -0.149193 0.0539698 0.050825 0.123776 -0.0177191 0.0348666 0.0835253 -0.0300295 -0.0562943 -0.0220005 -0.0824832 0.00450056 0.0139166 0.0704374 -0.0181844 -0.0125934 -0.0589375 -0.060056 -0.0929748 0.137623 0.00922498 0.0877904 -0.115467 0.110594 0.0171388 0.0218207 -0.0780058 0.157448 -0.104562 0.0736913 0.103388 -0.124696 -0.0527711 -0.0241252 0.0683605 -0.0103637 -0.119575 -0.105991 -0.0239343 0.000930664 0.00967706 -0.108594 0.0327112 -0.0637408 0.120742 0.0567 -0.030086 -0.130308 0.0804318 -0.00244414 -0.00111754 0.0582778 0.114001 0.0946368 -0.129598 0.0397782 -0.167086 -0.0259825 -0.0717916 -0.219465 0.0451061 0.050183 0.211015 0.0304507 0.0432613 -0.0133864 -0.0512943 -0.0890492 0.17445 0.0401824 -0.0992383 0.083916 0.00469391 0.0515632 0.086002 -0.0599139 -0.0256905 -0.063182 0.123943 -0.0072095 -0.180502 -0.109824 0.14977 0.138593 0.133589 -0.0978985
538 0.0212655 0.0712361 0.0557763 0.106852 0.0609644 -0.0366454 -0.00757911 -0.0222688 -0.0222635 0.0313601 0.0387997 0.00345184 0.0318721 -0.0620984 -0.031847 0.00627272 0.0523677 -0.0339247 0.013845 -0.0395986 0.0885625 0.0163225 -0.0268328 -0.0494712 -0.03587 0.00940418 -0.0201189 -0.0597161 0.0815671 0.00952771 0.00478181 -0.0668054 0.0286368 0.00573184 0.0396711 0.00228934 0.00120036 0.0142074 -0.00527684 -0.056206 0.0444465 -0.0132346 -0.0738395 0.0206984 0.0224751 0.0627415 -0.00380266 0.0168107 0.0416886 -0.012736 -0.0302089 -0.00729243 -0.044366 -0.00172783 0.00878052 0.0323049 -0.00629768 -0.00434467 -0.0320919 -0.029198 -0.046972 0.0629329 0.00784489 0.0486396 -0.0507867 0.0574624 0.00350388 0.00881976 -0.0415583 0.0714948 -0.0537086 0.0356328 0.0503306 -0.063235 -0.0229256 -0.013959 0.037258 -0.00354201 -0.0623242 -0.0487982 -0.0108036 0.000631316 0.00567308 -0.0533595 0.0175565 -0.0330837 0.0589808 0.0259244 -0.0159953 -0.0668868 0.0371453 0.000402395 -0.00184956 0.026335 0.0543919 0.050724 -0.0666381 0.0208292 -0.0809352 -0.0120889 -0.0349677 -0.108268 0.0215606 0.0252022 0.105737 0.0183602 0.019633 -0.00863657 -0.0272639 -0.0444026 0.0837002 0.0211388 -0.0536073 0.0385886 0.00246044 0.0264255 0.0442397 -0.0287189 -0.0147933 -0.0309075 0.0576396 0.00162866 -0.0917403 -0.050622 0.0735948 0.0676123 0.0631258 -0.0448683
620 0.00974503 0.0433517 0.0390784 0.0727126 0.0359171 -0.0228456 -0.00518292 -0.0190571 -0.0116679 0.0183597 0.0282484 -0.00218056 0.0225811 -0.0431661 -0.01814 0.00556436 0.0395635 -0.026323 0.00719015 -0.0314712 0.0633158 0.00655172 -0.0208225 -0.0293132 -0.0235258 0.00494919 -0.0167714 -0.0414271 0.0499395 0.00460388 0.00477297 -0.0427351 0.0194578 0.000192007 0.0308692 -0.0018995 0.00177235 0.0079096 -0.00425057 -0.0330422 0.0303575 -0.00954883 -0.0499387 0.0164138 0.0136774 0.0375933 -0.00475273 0.0138928 0.028255 -0.00957621 -0.0193608 -0.00490254 -0.0247127 -0.00121327 0.00749931 0.0205627 -0.00872244 -0.000530597 -0.0193336 -0.0210934 -0.0337226 0.0465383 0.000701531 0.0271729 -0.0381664 0.037484 0.00876808 0.00721235 -0.0251218 0.0492082 -0.0356128 0.0199069 0.0344401 -0.0402791 -0.0130633 -0.00755647 0.0234257 -0.000377763 -0.0395971 -0.0384806 -0.0102781 -0.00070165 0.00634475 -0.0343019 0.00739764 -0.0185122 0.0380385 0.0212345 -0.0114102 -0.0429799 0.026661 0.00301251 0.00108409 0.0218356 0.035957 0.0298805 -0.0403406 0.0130634 -0.0553803 -0.0117535 -0.0243086 -0.0686189 0.0142924 0.0152096 0.0718165 0.0072088 0.0161868 -0.000438155 -0.0189565 -0.0280904 0.0569994 0.0136639 -0.0354738 0.0283936 -0.00311071 0.0150596 0.0282263 -0.0155053 -0.00719438 -0.0174334 0.0364259 -0.00105996 -0.0567198 -0.0330354 0.0464751 0.043126 0.0458139 -0.0339575
542 0.104276 0.38308 0.323762 0.600911 0.314295 -0.194072 -0.0370887 -0.14282 -0.108167 0.153128 0.207704 0.00787558 0.186083 -0.345544 -0.161472 0.0528694 0.298163 -0.196898 0.079269 -0.236186 0.499587 0.072024 -0.171218 -0.261072 -0.207 0.0623231 -0.126848 -0.31997 0.4382 0.0347841 0.0390688 -0.358219 0.150595 0.0225741 0.236409 0.00905489 -0.00545048 0.0890269 -0.0191987 -0.305019 0.248643 -0.0779832 -0.394582 0.136808 0.129776 0.324275 -0.0391413 0.0901853 0.230732 -0.0791562 -0.149824 -0.0565217 -0.2302 0.00469792 0.0409393 0.188993 -0.0483379 -0.0392103 -0.171971 -0.15249 -0.25351 0.357544 0.0235394 0.242415 -0.299826 0.298054 0.0434762 0.0563899 -0.217662 0.412402 -0.272704 0.18406 0.276267 -0.338582 -0.1371 -0.0637386 0.19261 -0.0278757 -0.322786 -0.282965 -0.0603717 0.000986773 0.0330285 -0.281618 0.0719882 -0.158685 0.311999 0.154833 -0.0863492 -0.3508 0.209777 0.000963013 -0.00963968 0.153396 0.312014 0.260377 -0.354992 0.107965 -0.44023 -0.078708 -0.200089 -0.582027 0.123315 0.140382 0.567643 0.0916724 0.106512 -0.0416121 -0.129686 -0.24082 0.464218 0.108008 -0.274579 0.218703 0.00158752 0.138279 0.237868 -0.158918 -0.0678971 -0.171159 0.329764 -0.0085316 -0.483986 -0.296651 0.411124 0.370392 0.352959 -0.248946
641 0.00847276 0.0405306 0.0371591 0.0623102 0.029846 -0.0207089 -0.0051933 -0.0169707 -0.0145856 0.0192138 0.0216586 0.00325707 0.0230532 -0.037367 -0.0145528 0.00945544 0.0290983 -0.0227203 0.00637149 -0.0249472 0.0574443 0.0100457 -0.0203581 -0.0272745 -0.0251607 0.00807645 -0.0120254 -0.0358042 0.0467851 0.00228039 0.00262352 -0.0423836 0.0152074 -9.73739e-05 0.0255526 -0.00103374 0.000204244 0.0122467 -0.00495713 -0.0289776 0.0240305 -0.00609714 -0.0443825 0.0158255 0.0149549 0.0376767 -0.0058733 0.0122619 0.0261647 -0.00703994 -0.0196516 -0.00634228 -0.0261577 0.00401798 0.00357257 0.0177946 -0.00234895 -0.00129213 -0.0212512 -0.0161103 -0.0240037 0.0429125 0.00015738 0.0239034 -0.0344872 0.0357524 0.0031452 0.00591825 -0.0258639 0.0433151 -0.0269533 0.0241418 0.0300488 -0.0365785 -0.0182055 -0.00982686 0.0172025 -0.00365522 -0.0374103 -0.0274679 -0.00454412 0.000718569 0.00560945 -0.0337646 0.00928579 -0.0143796 0.0363521 0.0164127 -0.0064012 -0.0416367 0.0221735 -0.00289446 -0.00076323 0.0120899 0.0298975 0.0298124 -0.0366493 0.0123117 -0.0492958 -0.00596267 -0.0184504 -0.0598824 0.01491 0.0187585 0.0635171 0.00567682 0.0135717 -0.0012237 -0.0102052 -0.0288909 0.0511095 0.0146984 -0.0289448 0.0238674 0.00429503 0.0124756 0.0280292 -0.0133069 -0.00783718 -0.0171439 0.0379604 0.000792216 -0.0538708 -0.0306624 0.0468564 0.0442349 0.0372616 -0.025093
732 0.024236 0.0770589 0.0629626 0.12676 0.0648284 -0.0365158 -0.0066892 -0.02922 -0.0201881 0.0344055 0.0463752 0.00359749 0.0401753 -0.0724645 -0.0339017 0.0108464 0.0603475 -0.0399614 0.0139075 -0.0517461 0.103689 0.0121036 -0.0354762 -0.0541999 -0.0458354 0.0119233 -0.0283796 -0.0677103 0.0887254 0.00913766 0.0101434 -0.0734847 0.0318066 0.00783383 0.052094 0.00569028 -0.00258764 0.0152354 -0.00585562 -0.0620235 0.0548516 -0.0137894 -0.0816253 0.0301767 0.0248567 0.0704047 -0.00875721 0.0178901 0.0480424 -0.0136722 -0.0339248 -0.00886624 -0.0437828 -0.000693797 0.00752673 0.0359603 -0.00860393 -0.00591112 -0.0375647 -0.0334635 -0.0497431 0.0700477 0.000822883 0.0503861 -0.0616041 0.0649774 0.0081346 0.0119969 -0.0454664 0.0810838 -0.0597868 0.0362433 0.0550656 -0.0673743 -0.0279798 -0.0130112 0.039579 -0.00347446 -0.0639915 -0.062559 -0.0112205 0.0028816 0.00191194 -0.0623183 0.0139948 -0.0369122 0.0629433 0.0343665 -0.0178802 -0.0724173 0.0450209 -0.00196796 0.000883884 0.0294026 0.0603374 0.0519206 -0.0741988 0.0195415 -0.0904581 -0.0150006 -0.0405912 -0.121553 0.0236146 0.0256667 0.116104 0.0158249 0.0200677 -0.00705835 -0.0291732 -0.0517501 0.0967001 0.0260576 -0.0562724 0.0487885 0.00246703 0.0254535 0.052184 -0.0293621 -0.0107276 -0.0348851 0.0689057 -0.00294181 -0.0972206 -0.0598591 0.0840701 0.0738449 0.0743472 -0.0504005
39 0.0474945 0.178229 0.147334 0.276597 0.141829 -0.0884481 -0.0180358 -0.062214 -0.0503048 0.0723095 0.0996182 0.00766331 0.0865621 -0.159176 -0.0733085 0.0236778 0.134918 -0.0950456 0.03676 -0.108359 0.232933 0.0358468 -0.0759678 -0.123168 -0.0918321 0.0275482 -0.0600399 -0.152756 0.199667 0.0213868 0.0136726 -0.165598 0.0722516 0.0148347 0.111628 0.00292324 -0.000101648 0.0442665 -0.00966218 -0.140959 0.11297 -0.0299363 -0.18002 0.0584283 0.0576628 0.149159 -0.0135423 0.0374842 0.109188 -0.036665 -0.0707518 -0.0263582 -0.108481 0.00219392 0.0178256 0.0857788 -0.0231133 -0.0187568 -0.0785656 -0.0718342 -0.121087 0.163413 0.0110032 0.111394 -0.136251 0.136131 0.0206524 0.0217557 -0.0999061 0.192558 -0.131524 0.0899829 0.127044 -0.156682 -0.0618023 -0.0332235 0.0912404 -0.0157851 -0.152229 -0.133674 -0.0310179 0.00586317 0.0158348 -0.132827 0.0328328 -0.0722425 0.143806 0.0703139 -0.0393819 -0.162642 0.0915919 0.000217199 -0.0032917 0.071403 0.140383 0.120831 -0.1607 0.0535409 -0.208369 -0.0345016 -0.0884823 -0.270699 0.0582306 0.0677124 0.261771 0.0399775 0.0507319 -0.0158256 -0.0582516 -0.116629 0.211865 0.0494068 -0.128624 0.102037 0.00321513 0.0637726 0.110293 -0.0677285 -0.0318941 -0.0811119 0.156325 -0.00817921 -0.221804 -0.136161 0.186871 0.170747 0.166078 -0.114505
726 0.0297924 0.10974 0.0889777 0.172985 0.0858183 -0.053576 -0.00688495 -0.0384305 -0.0331399 0.0487914 0.0599381 0.00331015 0.0524246 -0.100818 -0.0488236 0.0179154 0.0831725 -0.0568758 0.0211264 -0.069055 0.144259 0.0214296 -0.0455415 -0.0714552 -0.0627207 0.015639 -0.0353633 -0.0948243 0.127328 0.0119498 0.00763571 -0.1038 0.0416346 0.00744268 0.0668381 0.00723352 -0.0020366 0.023123 -0.00309939 -0.0844011 0.0683809 -0.0184122 -0.111972 0.0370064 0.0352754 0.0967275 -0.0121137 0.0249291 0.0627076 -0.0265934 -0.0456613 -0.0175595 -0.0689337 0.00225466 0.00857521 0.0530429 -0.0141668 -0.00887592 -0.0442274 -0.0431105 -0.0698604 0.1044 0.00887365 0.0682383 -0.0876183 0.0854878 0.0152366 0.0156024 -0.0613022 0.117919 -0.0782701 0.0556059 0.0781301 -0.0970511 -0.0409859 -0.0180657 0.0521007 -0.00528586 -0.0887348 -0.0840246 -0.0200574 0.00542697 0.00652418 -0.0790116 0.0244693 -0.0470502 0.087623 0.0442056 -0.0228553 -0.103535 0.062387 0.00105948 0.00220622 0.0437243 0.0855748 0.0729086 -0.0981006 0.0329778 -0.130437 -0.0238505 -0.0588271 -0.169546 0.0338407 0.0390184 0.162047 0.0234653 0.0282437 -0.0128633 -0.0411305 -0.0658214 0.131999 0.0318938 -0.0808498 0.0638667 0.000758983 0.0382188 0.0671578 -0.0453472 -0.0222786 -0.0528539 0.0919677 -0.00665616 -0.140916 -0.0873564 0.11513 0.108114 0.102203 -0.0709941
388 0.0599078 0.211312 0.178864 0.331519 0.172657 -0.106077 -0.0183682 -0.0765547 -0.0615056 0.0869776 0.117717 0.00632309 0.10606 -0.192373 -0.08926 0.026925 0.16425 -0.113379 0.0446581 -0.126948 0.28284 0.0370739 -0.0940916 -0.143468 -0.111217 0.032404 -0.071553 -0.183 0.244782 0.0227225 0.0173716 -0.20229 0.0846739 0.0163025 0.130625 0.00902524 -0.0046372 0.048905 -0.0121067 -0.16365 0.135955 -0.0403798 -0.222373 0.0772751 0.0725012 0.182524 -0.0210285 0.0481283 0.127492 -0.0444286 -0.0837361 -0.0327174 -0.126492 0.00175568 0.0208622 0.110242 -0.0334697 -0.0202245 -0.090295 -0.0882889 -0.145263 0.199186 0.0134716 0.140558 -0.165086 0.165561 0.0261455 0.0275136 -0.115739 0.228418 -0.155698 0.108176 0.155981 -0.188943 -0.0760465 -0.0376384 0.105943 -0.0171477 -0.182588 -0.159892 -0.036217 0.00102694 0.0178002 -0.158566 0.043844 -0.0941496 0.17848 0.090146 -0.0531048 -0.201468 0.115344 -0.006091 -0.00142758 0.0808437 0.175623 0.148207 -0.194111 0.0584762 -0.249883 -0.0427949 -0.11392 -0.327887 0.0692064 0.0778486 0.321482 0.0502465 0.0648153 -0.0233188 -0.0722119 -0.134366 0.256388 0.0622607 -0.156921 0.123921 0.00295633 0.0778945 0.13487 -0.0904384 -0.036942 -0.0922755 0.185931 -0.0075814 -0.274542 -0.16247 0.229567 0.207845 0.201461 -0.144467
405 0.0147715 0.0511375 0.0485797 0.0803468 0.0401538 -0.0251096 -0.00754025 -0.0221882 -0.0159608 0.0251989 0.0249702 -0.000659864 0.0241652 -0.0433311 -0.0185994 0.0037968 0.0448449 -0.0299559 0.00909954 -0.0306741 0.0701208 0.010261 -0.0243961 -0.0359155 -0.0272184 0.0073148 -0.0153078 -0.0482725 0.0642942 0.00317509 0.00296802 -0.0461017 0.0230261 0.00260436 0.0355356 -0.000899632 0.00195533 0.00934694 -0.00710597 -0.0388149 0.0337934 -0.00927237 -0.0551332 0.0194628 0.0212376 0.0429761 -0.00241933 0.013087 0.0297479 -0.00777498 -0.0221584 -0.00398642 -0.0327738 -0.00205417 0.00906648 0.0261591 -0.00703857 -0.00392394 -0.0252709 -0.0193061 -0.0369038 0.0462034 0.00156547 0.0364317 -0.0430215 0.0380527 0.0083332 0.00584464 -0.0310014 0.054956 -0.0352713 0.0240028 0.0399075 -0.0468774 -0.019618 -0.00927236 0.0220479 -0.00564553 -0.0452704 -0.0418992 -0.00662492 0.00359403 0.00470709 -0.0388848 0.0143592 -0.0210393 0.0448574 0.0201177 -0.0130739 -0.0459549 0.0272037 -0.00372547 -0.0044743 0.0222677 0.0421782 0.0351002 -0.0485984 0.0178041 -0.0648805 -0.0124457 -0.0273672 -0.0769771 0.0153246 0.0217069 0.0798365 0.00884115 0.0161545 -0.00291568 -0.0178036 -0.0367061 0.0651935 0.0167018 -0.039178 0.0300379 0.00280977 0.0158501 0.0288363 -0.0243965 -0.00886063 -0.0230979 0.0492208 -0.00126114 -0.0677877 -0.043025 0.0550945 0.0495732 0.0481941 -0.0316721
938 0.0553453 0.179722 0.155589 0.286077 0.144148 -0.0895371 -0.0122247 -0.0646594 -0.0533195 0.0773585 0.101036 0.00411567 0.0883403 -0.164902 -0.0721849 0.0297846 0.142742 -0.0908267 0.0391566 -0.10915 0.238334 0.0336193 -0.0769601 -0.120714 -0.0988549 0.0300827 -0.0551121 -0.155945 0.205662 0.0220844 0.016085 -0.167501 0.0707945 0.0131218 0.107704 0.0098319 -0.00586161 0.0386677 -0.00612875 -0.143623 0.120651 -0.0345833 -0.183878 0.0625039 0.0590064 0.152215 -0.0138969 0.0387618 0.113742 -0.0361589 -0.0735456 -0.0294154 -0.106272 -0.00067195 0.0203892 0.089913 -0.0223065 -0.0170715 -0.0824598 -0.0724809 -0.118646 0.171064 0.0115008 0.114156 -0.137546 0.137155 0.0222634 0.0268911 -0.100788 0.193513 -0.127003 0.0923452 0.130458 -0.159326 -0.0624272 -0.0313845 0.092045 -0.0116486 -0.153567 -0.138894 -0.0246782 0.00267221 0.0104113 -0.13675 0.0326164 -0.0794273 0.149391 0.0727732 -0.0433014 -0.168289 0.0950286 0.000524757 -0.00456646 0.0718578 0.14544 0.124375 -0.165826 0.0508027 -0.209657 -0.0355766 -0.0966551 -0.272531 0.0611794 0.0658202 0.267459 0.0436346 0.0488178 -0.0162445 -0.063188 -0.116149 0.217819 0.0528246 -0.13187 0.104691 0.00495579 0.0625541 0.11493 -0.0724696 -0.0309358 -0.077503 0.154186 -0.00195929 -0.232011 -0.142767 0.19107 0.180685 0.171821 -0.122748
1431 0.0244017 0.0991523 0.0812193 0.152678 0.0828261 -0.0504082 -0.00745434 -0.0332055 -0.0235772 0.0416926 0.0553773 0.00548478 0.0467673 -0.082789 -0.0406872 0.0126334 0.0772874 -0.0514295 0.0222967 -0.0555653 0.12784 0.0166498 -0.0444741 -0.063793 -0.0547317 0.0170721 -0.032829 -0.0849915 0.109205 0.00709598 0.010119 -0.0871732 0.0381834 0.00838476 0.0603086 0.00406135 -0.00294832 0.0198344 -0.00237042 -0.0764339 0.0623387 -0.0175331 -0.100205 0.0339702 0.0315467 0.0825564 -0.0123357 0.0249599 0.058371 -0.0174569 -0.0395433 -0.0111127 -0.0556573 -0.00268939 0.0105401 0.0455899 -0.0168553 -0.0102233 -0.0417951 -0.0416742 -0.0635634 0.0906379 0.00736011 0.0613692 -0.0733466 0.0737133 0.0138275 0.0175187 -0.0524034 0.102738 -0.0719553 0.0476747 0.0694576 -0.0886808 -0.0307054 -0.0141061 0.049404 -0.00792781 -0.0843646 -0.0757485 -0.014619 -0.000495828 0.00946396 -0.0756747 0.0231852 -0.0423296 0.0768748 0.0411946 -0.0243781 -0.0899313 0.0483552 0.00158826 0.002063 0.0353162 0.0804452 0.0662264 -0.0863733 0.028605 -0.11348 -0.0185452 -0.0482983 -0.149964 0.0290228 0.0324181 0.14627 0.0215333 0.027183 -0.00729335 -0.0325478 -0.0627167 0.118896 0.0298466 -0.070033 0.0569122 -0.00223225 0.0329892 0.0563203 -0.0366694 -0.0158595 -0.0408363 0.0869741 0.00070697 -0.125961 -0.07214 0.106793 0.0970889 0.0941766 -0.0607844
943 0.01927 0.0613478 0.0525771 0.0957303 0.0456708 -0.0286599 -0.0091452 -0.0192451 -0.0195035 0.0230052 0.033016 -0.00115976 0.0299401 -0.0563729 -0.02853 0.00769795 0.0454707 -0.0339476 0.00964801 -0.0383131 0.0758248 0.010246 -0.0275681 -0.0451161 -0.0343897 0.0127651 -0.0222255 -0.0492552 0.0719198 0.00385595 0.00356023 -0.0548313 0.023618 0.00207189 0.0364501 0.000223293 -0.00301337 0.0159153 -0.00360955 -0.0492842 0.0364535 -0.0104385 -0.0637811 0.0229411 0.0174422 0.0503184 -0.00524451 0.0146673 0.0381275 -0.0152882 -0.0249536 -0.00984539 -0.0354484 0.00133871 0.00626208 0.0325807 -0.00918618 -0.00412752 -0.0259806 -0.0281926 -0.0367921 0.0606976 0.00081871 0.0352647 -0.0463393 0.0438105 0.00906438 0.00984618 -0.0348244 0.0616431 -0.0475352 0.0319591 0.0417769 -0.0531058 -0.0176119 -0.00885663 0.0260257 -0.00591539 -0.051273 -0.0483345 -0.012569 0.000178907 0.00251213 -0.0434625 0.0126186 -0.0218832 0.0494859 0.0228524 -0.0104993 -0.0565404 0.0327497 -0.001614 -0.00037081 0.0234986 0.0527428 0.0441451 -0.053433 0.0184057 -0.067109 -0.0125545 -0.0287184 -0.0911281 0.0209612 0.0191167 0.0878142 0.0122023 0.0167061 -0.00688084 -0.024316 -0.0389403 0.0703439 0.0188428 -0.0433521 0.0329533 0.00294125 0.0212734 0.0340553 -0.022836 -0.00920267 -0.0240769 0.0517846 0.00216293 -0.0783652 -0.0483196 0.0654967 0.0592812 0.0560842 -0.0402589
916 0.0700917 0.235278 0.200195 0.364141 0.192917 -0.117233 -0.0242121 -0.0895172 -0.064367 0.0928291 0.123541 0.00355152 0.11546 -0.211607 -0.10095 0.0358134 0.182535 -0.125056 0.0472745 -0.144319 0.307774 0.0417618 -0.0986348 -0.156337 -0.124761 0.0431783 -0.0784205 -0.194764 0.26841 0.0283575 0.0203739 -0.222737 0.0970732 0.0160359 0.139628 0.00374144 -0.00631943 0.0544259 -0.0156782 -0.179613 0.153216 -0.0485701 -0.244689 0.0791013 0.0820089 0.20152 -0.0192726 0.0534879 0.142264 -0.0503181 -0.0944043 -0.0335794 -0.136793 0.00569511 0.027867 0.11902 -0.0310539 -0.0202737 -0.102844 -0.0910599 -0.158176 0.219926 0.0147791 0.14621 -0.179315 0.179885 0.0276205 0.0350317 -0.131676 0.250187 -0.166592 0.112596 0.165389 -0.205004 -0.0838264 -0.0433145 0.110901 -0.019539 -0.195741 -0.17852 -0.03876 -7.77826e-05 0.0189494 -0.175699 0.0438391 -0.0970587 0.189807 0.0928353 -0.0525152 -0.214476 0.126883 -0.00428087 -0.00505827 0.0965431 0.185382 0.159577 -0.212005 0.0659749 -0.271965 -0.0472344 -0.122914 -0.354631 0.0763167 0.0849716 0.345027 0.0542186 0.0639489 -0.0206731 -0.07757 -0.150017 0.283764 0.0692601 -0.170196 0.13584 0.0024564 0.0859393 0.148089 -0.0964551 -0.0443185 -0.101671 0.205421 -0.0062133 -0.29972 -0.180162 0.246402 0.226826 0.221773 -0.151388
951 0.0244978 0.0779992 0.066655 0.130156 0.0682289 -0.0425221 -0.00570529 -0.032008 -0.025213 0.0301815 0.0406331 0.00517694 0.0387762 -0.074801 -0.0326452 0.0116118 0.0616264 -0.0463261 0.0167086 -0.052632 0.106904 0.0186797 -0.0388998 -0.0557022 -0.0461253 0.0153271 -0.0275439 -0.0679215 0.0926822 0.00542032 0.00462841 -0.0747573 0.0328843 0.00135976 0.0507945 0.00290813 -0.00461905 0.0202718 -0.00395245 -0.0608101 0.0503703 -0.014001 -0.0843572 0.0289675 0.0274268 0.0701272 -0.00778755 0.0154631 0.0470512 -0.0154472 -0.029698 -0.0112281 -0.0510399 0.00256519 0.0111514 0.036699 -0.0120196 -0.00716067 -0.0362036 -0.0352411 -0.0566384 0.0780172 0.00330959 0.0520678 -0.0651691 0.0631884 0.00982244 0.0108957 -0.047245 0.0858801 -0.0625482 0.0394775 0.0572247 -0.074323 -0.0249132 -0.0137431 0.0404466 -0.00797907 -0.0664282 -0.0610044 -0.0154677 -0.00201991 0.00998796 -0.0574591 0.0202003 -0.033073 0.0655908 0.0340708 -0.021984 -0.0770547 0.04168 -0.00444307 0.00243103 0.0298865 0.0636736 0.0589065 -0.077455 0.0196354 -0.0955286 -0.0173107 -0.04084 -0.120608 0.0312706 0.0262204 0.120828 0.0217657 0.0211949 -0.00858289 -0.0280323 -0.0485814 0.0973477 0.0260726 -0.0610217 0.0459997 0.00452123 0.0275878 0.0525988 -0.0356126 -0.0143196 -0.0349667 0.073803 -0.00373165 -0.107966 -0.0622434 0.0843059 0.0827663 0.0779307 -0.0563762
1471 0.0159175 0.0637305 0.0539105 0.101993 0.0530334 -0.0322699 -0.00376789 -0.0235324 -0.0206162 0.0259011 0.0372409 0.000333644 0.0305361 -0.0613869 -0.0252775 0.0105918 0.0544885 -0.0381621 0.011366 -0.0422411 0.0895733 0.00966433 -0.0270073 -0.0476062 -0.0396935 0.0137698 -0.0246427 -0.0597039 0.0808788 0.00580296 0.00353928 -0.0627325 0.0277762 0.00377479 0.0409875 0.00314389 -0.00341657 0.0130673 -0.00285866 -0.0503793 0.043022 -0.00959727 -0.0721907 0.0255135 0.0218549 0.0549454 -0.00946577 0.0141315 0.0411126 -0.0134298 -0.030295 -0.0117078 -0.0385348 0.00349889 0.00615146 0.031057 -0.00943657 -0.00220649 -0.0325389 -0.0244355 -0.0438049 0.0653314 0.00188617 0.0399417 -0.0487396 0.0494534 0.00875295 0.0110715 -0.0389578 0.0717566 -0.0462276 0.0361988 0.046877 -0.0618472 -0.0238182 -0.0140661 0.0348139 -0.00569755 -0.0604163 -0.0540872 -0.00775765 -0.000644328 0.00295774 -0.0508333 0.0115458 -0.0310454 0.0555188 0.0236316 -0.0190292 -0.0652941 0.0378193 0.000127106 0.00170008 0.0285493 0.0540489 0.0476747 -0.0589847 0.0224625 -0.0744853 -0.0161025 -0.0352623 -0.0993869 0.0187212 0.0257627 0.103056 0.0129522 0.0214186 -0.00897029 -0.0226987 -0.0413355 0.0779317 0.0164237 -0.0470839 0.0381372 -0.00209889 0.0260871 0.0402816 -0.0274614 -0.0092363 -0.0332372 0.058963 -0.00169222 -0.084401 -0.0517949 0.0703617 0.0648169 0.0657085 -0.0431758
6 0.0413732 0.156028 0.129973 0.2407 0.12201 -0.0756614 -0.00968065 -0.0596862 -0.0433953 0.0587309 0.0860132 0.0044755 0.0767536 -0.139338 -0.0635758 0.0181545 0.118669 -0.0771047 0.0297198 -0.0965197 0.199381 0.0310471 -0.0647701 -0.108487 -0.0786288 0.0232427 -0.0538672 -0.127528 0.172673 0.01421 0.0151429 -0.141523 0.0637483 0.00881291 0.0972408 0.00733741 0.000707257 0.0367186 -0.00714289 -0.117244 0.103005 -0.0269685 -0.159984 0.0563275 0.0544177 0.127772 -0.0130989 0.0360081 0.0913767 -0.0294655 -0.0637422 -0.0217777 -0.0952264 0.00135427 0.0192756 0.0791053 -0.0212647 -0.0163891 -0.0674199 -0.0656032 -0.0991664 0.146066 0.00521206 0.0971387 -0.121323 0.114677 0.0140558 0.0246994 -0.0887986 0.161218 -0.109269 0.0732455 0.110148 -0.138744 -0.0524831 -0.0310904 0.0753973 -0.00765277 -0.132671 -0.110493 -0.0235642 0.00151212 0.00825392 -0.114545 0.0336653 -0.0640859 0.127557 0.0587599 -0.0319034 -0.141574 0.0852966 -0.00245467 -0.00477336 0.0592956 0.126352 0.102945 -0.14078 0.0398564 -0.17563 -0.0302202 -0.0772963 -0.232319 0.049653 0.0534783 0.222993 0.032469 0.0397876 -0.0165053 -0.0479569 -0.0966042 0.189197 0.0467119 -0.108287 0.0878619 0.00438398 0.0508807 0.0944769 -0.0618706 -0.0264575 -0.0692226 0.132973 -0.00614921 -0.195182 -0.115622 0.159172 0.153018 0.141785 -0.105242
1473 0.0244132 0.0792209 0.0671022 0.121405 0.0641586 -0.0426127 -0.00672711 -0.027131 -0.0175382 0.0279129 0.0424314 0.00398094 0.0352538 -0.0649133 -0.0287931 0.0118896 0.0559349 -0.0357122 0.0121545 -0.0469867 0.0963811 0.0155633 -0.0293983 -0.0541062 -0.0393558 0.0151528 -0.0263131 -0.0611242 0.0903634 0.00460773 0.00802161 -0.0722578 0.028107 0.00670907 0.0446595 0.00444268 -0.00418864 0.0162703 -0.00785306 -0.0604769 0.051476 -0.015725 -0.0758954 0.0234668 0.0238619 0.0640612 -0.00343152 0.0171361 0.0447375 -0.0128384 -0.0341129 -0.00749211 -0.0420874 0.0043359 0.00757517 0.0378412 -0.00815339 -0.00964868 -0.0338266 -0.027351 -0.0501461 0.0706497 0.000913645 0.0457449 -0.0584519 0.0611779 0.0111529 0.0143407 -0.0462876 0.0776772 -0.0542831 0.0411832 0.0538813 -0.0709983 -0.0255989 -0.0165959 0.0372124 -0.00878565 -0.0612148 -0.0598448 -0.0139616 0.00105879 0.00668186 -0.053906 0.0168844 -0.0316528 0.0626685 0.0283955 -0.014627 -0.0698007 0.0388611 0.000716133 0.00134881 0.0310107 0.0626876 0.0516267 -0.0730622 0.0208903 -0.086252 -0.0125084 -0.0422458 -0.11545 0.0221974 0.0247444 0.11445 0.0209752 0.0228807 -0.00430187 -0.0227493 -0.0514672 0.0889933 0.0188347 -0.0538467 0.0409416 0.00200517 0.0295636 0.0507337 -0.0296692 -0.0119971 -0.0343587 0.0639661 -0.00470688 -0.0974533 -0.0556633 0.0806536 0.0721466 0.0695657 -0.0522148
664 0.0242103 0.0994826 0.0839136 0.148841 0.0782778 -0.0491761 -0.00519588 -0.0400316 -0.0272627 0.0383075 0.0534973 0.00297019 0.0498059 -0.0837473 -0.038573 0.0159313 0.0732095 -0.0500271 0.0191332 -0.057555 0.129046 0.0181787 -0.0431184 -0.0637011 -0.0531033 0.0172643 -0.032074 -0.0794598 0.113809 0.0110523 0.00857794 -0.094095 0.0405782 0.00573451 0.05945 0.00338723 -0.000132013 0.0234675 -0.00724505 -0.0726539 0.0623214 -0.0154076 -0.104155 0.0345291 0.035207 0.0801603 -0.00686411 0.02397 0.0562591 -0.0172808 -0.0373439 -0.0123178 -0.0598636 0.00447384 0.00929875 0.0487218 -0.0127041 -0.0120184 -0.0434388 -0.0432489 -0.0609753 0.0945808 0.00441644 0.0656303 -0.0728741 0.0728813 0.0101295 0.0124718 -0.0574827 0.103274 -0.0723344 0.0443909 0.0723523 -0.081995 -0.0346744 -0.0149464 0.0512987 -0.00601677 -0.082424 -0.0692899 -0.0155977 0.000447593 0.00551567 -0.0750094 0.0203408 -0.0447715 0.0815168 0.0425308 -0.0251609 -0.0901955 0.0528097 -0.00477448 -0.00548733 0.0389118 0.0758136 0.0642139 -0.0878889 0.03038 -0.108473 -0.022629 -0.0530075 -0.148654 0.030445 0.0358654 0.143863 0.0226497 0.028368 -0.0115234 -0.0324192 -0.0649129 0.117808 0.0301753 -0.0657667 0.053459 0.0022433 0.0374885 0.059627 -0.037038 -0.0214455 -0.0409418 0.0855162 -0.0044184 -0.126763 -0.0776619 0.106124 0.0945565 0.0922632 -0.0631149
1396 0.0354456 0.111535 0.0931506 0.176533 0.094903 -0.0617366 -0.0127702 -0.0396143 -0.0305664 0.0453788 0.0593036 0.00241276 0.0586346 -0.098423 -0.0460282 0.0150478 0.0853395 -0.057357 0.0263815 -0.0658186 0.143415 0.0216659 -0.0506203 -0.0768017 -0.05862 0.015386 -0.0407014 -0.0945244 0.130068 0.0132592 0.00987284 -0.106653 0.0432124 0.0104761 0.0660963 0.00107791 0.00283107 0.0236534 -0.00950453 -0.0858335 0.0731982 -0.0262247 -0.11435 0.0394424 0.0375835 0.0991601 -0.0104862 0.0222651 0.0701056 -0.0233146 -0.0445727 -0.0188069 -0.068333 0.00484894 0.013445 0.0561516 -0.0136208 -0.0100583 -0.0468965 -0.0423367 -0.0736818 0.106393 0.00519956 0.0699599 -0.0859023 0.0874371 0.0115644 0.0130815 -0.0639065 0.123321 -0.0773705 0.053951 0.0839963 -0.102231 -0.0432738 -0.0163099 0.0540779 -0.00462753 -0.0916282 -0.0799966 -0.0181498 0.00376723 0.00449649 -0.0815269 0.0262692 -0.0488534 0.0949482 0.0458441 -0.0265757 -0.100897 0.0628079 0.00256431 0.00214659 0.0417644 0.093277 0.0784749 -0.103327 0.0299576 -0.128102 -0.0274856 -0.0552121 -0.169532 0.0349014 0.0375896 0.166689 0.0274027 0.0314738 -0.0114912 -0.039218 -0.0722668 0.136374 0.0357949 -0.0771506 0.0626482 -0.00198352 0.0403508 0.067912 -0.0474585 -0.0208738 -0.0497296 0.099299 -0.00436344 -0.144196 -0.0887857 0.119316 0.112708 0.106147 -0.0730157
1925 0.0204357 0.0815792 0.0642832 0.126948 0.0653428 -0.0428231 -0.00782731 -0.0313109 -0.021974 0.0365047 0.0451642 0.00617651 0.0417732 -0.0717066 -0.03092 0.00932412 0.0625293 -0.0452303 0.0139639 -0.0465455 0.104406 0.0181834 -0.036544 -0.0514992 -0.042971 0.0101291 -0.0243543 -0.0710756 0.0942085 0.0109623 0.00431404 -0.078366 0.0295452 0.00431569 0.0521309 0.00238598 0.000230917 0.018425 -0.00721108 -0.0644448 0.0542947 -0.0144934 -0.0801687 0.0258628 0.0275439 0.071205 -0.00426645 0.0209704 0.0503197 -0.0174203 -0.0356275 -0.0131528 -0.0516137 0.00222888 0.00856708 0.0393599 -0.00844501 -0.00400677 -0.033259 -0.0367241 -0.0537166 0.0732663 0.0048473 0.0512807 -0.0639954 0.0660695 0.0113465 0.00878206 -0.0469806 0.084421 -0.0582331 0.041294 0.0603557 -0.0718472 -0.0267133 -0.01145 0.0358366 -0.00252505 -0.0681494 -0.0619609 -0.0100052 -0.000497824 0.00843893 -0.0614901 0.0163406 -0.0350974 0.0666857 0.0306425 -0.0199832 -0.0767371 0.044911 0.00203869 -0.00411165 0.0356211 0.0617924 0.0515122 -0.0764793 0.0190576 -0.0916691 -0.0196622 -0.0442289 -0.124723 0.0273098 0.0301658 0.117029 0.0156046 0.0216461 -0.00478427 -0.0283682 -0.0537302 0.0982458 0.021867 -0.0608621 0.0431075 -0.00116931 0.0266012 0.0525026 -0.0315846 -0.0167734 -0.0365558 0.0656679 9.76278e-06 -0.0987663 -0.0624873 0.0873511 0.0799615 0.0748117 -0.0537535
802 0.0279168 0.111201 0.0879325 0.169913 0.087172 -0.0528236 -0.0131875 -0.0360065 -0.0313404 0.0423 0.0595308 0.0072169 0.0522914 -0.0960067 -0.0459107 0.0149486 0.0830065 -0.0536234 0.0248182 -0.0625436 0.138524 0.0162197 -0.051546 -0.072448 -0.0580853 0.0221083 -0.0346894 -0.0933205 0.12033 0.0120757 0.00662497 -0.102101 0.0405935 0.00330227 0.0672657 0.00546233 -0.00156244 0.0270388 -0.00684364 -0.0885481 0.0719452 -0.0200184 -0.111352 0.0364576 0.0378288 0.0938831 -0.0117865 0.0213314 0.0686616 -0.027101 -0.0446965 -0.0158562 -0.0626087 -0.00209918 0.01096 0.0515341 -0.0155892 -0.00977424 -0.0481574 -0.0465849 -0.0684412 0.100729 0.00837736 0.0721984 -0.0879473 0.0836409 0.0121743 0.017391 -0.0593306 0.115979 -0.0779032 0.0554064 0.0780158 -0.0959948 -0.0413027 -0.0173146 0.0570133 -0.00734906 -0.0901134 -0.0785411 -0.0161476 0.00167662 0.0106765 -0.0807034 0.0218071 -0.0442165 0.0844164 0.0457444 -0.0274849 -0.101658 0.0602887 -0.00386253 0.000766859 0.0390432 0.0833253 0.0760689 -0.101072 0.0285984 -0.126186 -0.0224052 -0.0529494 -0.167206 0.0344821 0.0418858 0.159591 0.0289082 0.0294949 -0.00759451 -0.0344771 -0.0653748 0.130275 0.0274135 -0.0767666 0.0624796 0.00276237 0.0359504 0.0680787 -0.0421834 -0.0169702 -0.0527918 0.0950892 -0.00412342 -0.133797 -0.0858186 0.114107 0.108033 0.101601 -0.069889
1251 0.0306535 0.0972496 0.081829 0.144623 0.0772398 -0.0471264 -0.00969016 -0.0352475 -0.0255539 0.0351957 0.0513828 0.00414925 0.0443808 -0.0867329 -0.0357765 0.0124726 0.0698985 -0.0478023 0.0178426 -0.0564143 0.120474 0.0195396 -0.0434402 -0.0668354 -0.0525494 0.0181364 -0.0284126 -0.0801631 0.110497 0.00704738 0.00782317 -0.086877 0.038128 0.00421296 0.0586058 0.00151247 -0.00256716 0.0238949 -0.00334333 -0.0745993 0.0607775 -0.0185295 -0.0951545 0.0356522 0.0333862 0.0816625 -0.00942563 0.0228076 0.0569239 -0.0224925 -0.036784 -0.0130297 -0.0574895 0.00100394 0.00710276 0.0487983 -0.0116209 -0.00701906 -0.0425514 -0.0380194 -0.0605451 0.0843671 0.0037573 0.060202 -0.0746867 0.0713616 0.010721 0.0151407 -0.0515547 0.10296 -0.0643177 0.0454284 0.0651623 -0.0837789 -0.0368618 -0.0164845 0.0442981 -0.00300678 -0.0783547 -0.0701318 -0.014358 0.00202484 0.00945353 -0.0687053 0.0194521 -0.036411 0.0766199 0.0405588 -0.0217525 -0.0858078 0.0467864 -0.00256342 0.00233792 0.0390185 0.0774331 0.0607732 -0.0843547 0.0271523 -0.110553 -0.023357 -0.0473537 -0.143987 0.0341223 0.036596 0.138375 0.024003 0.0279946 -0.010813 -0.029514 -0.0617497 0.114276 0.024828 -0.0673591 0.0568295 0.00180183 0.0310448 0.0560256 -0.0394037 -0.0165155 -0.0451434 0.0775332 0.000359201 -0.114409 -0.0753179 0.096959 0.0909892 0.0860462 -0.0611819
1699 0.0392047 0.131133 0.11179 0.19971 0.107102 -0.0687852 -0.0121703 -0.0452756 -0.03897 0.0523295 0.0684631 0.00738224 0.0643222 -0.117476 -0.0508728 0.0206136 0.0992302 -0.0649564 0.0287123 -0.0765683 0.1677 0.0217374 -0.0547783 -0.0875653 -0.0705308 0.0188215 -0.0450196 -0.110898 0.147402 0.0140651 0.00791434 -0.123736 0.0536071 0.00582968 0.0769037 0.00616654 0.00178584 0.028889 -0.0107204 -0.0969448 0.0814123 -0.0242924 -0.135149 0.0461965 0.0465115 0.113156 -0.0116772 0.0276831 0.0729146 -0.027058 -0.0472454 -0.0149253 -0.0799 0.00311904 0.0167349 0.0602453 -0.0133562 -0.0121386 -0.0532065 -0.0496095 -0.082464 0.119625 0.00700884 0.0810729 -0.102516 0.0978604 0.0180596 0.0177021 -0.071116 0.136373 -0.0926285 0.0605312 0.092596 -0.114166 -0.0458026 -0.0227133 0.060462 -0.0137267 -0.11008 -0.0915305 -0.0177943 -0.0015013 0.0118362 -0.0913468 0.0227898 -0.0546624 0.107079 0.0504937 -0.0281235 -0.121279 0.0710593 0.00114275 -0.00102945 0.047242 0.101601 0.08387 -0.120828 0.0346088 -0.149801 -0.0248875 -0.0687189 -0.190215 0.0414338 0.049815 0.189783 0.0333165 0.0365692 -0.0107357 -0.0454722 -0.0789185 0.157601 0.038767 -0.0903051 0.0745255 0.000149573 0.0434172 0.0760852 -0.0492923 -0.0208196 -0.0549996 0.109891 -0.00333551 -0.165034 -0.100465 0.136854 0.126204 0.121724 -0.0830543
1350 0.0259363 0.101444 0.0824169 0.157552 0.081534 -0.0523602 -0.00787054 -0.0335285 -0.0272791 0.0433325 0.0535381 0.00334519 0.0450705 -0.0872253 -0.040587 0.012956 0.0787838 -0.049813 0.019336 -0.059799 0.130306 0.0178788 -0.0452692 -0.0693188 -0.0516197 0.0156909 -0.0310408 -0.0887884 0.113402 0.0134927 0.0085415 -0.0954631 0.0399313 0.00722523 0.0641703 0.00604602 0.00148717 0.020477 -0.00679124 -0.0818101 0.061868 -0.0218149 -0.101781 0.0369866 0.0323121 0.0848282 -0.0114248 0.0201975 0.0573801 -0.0204616 -0.0378308 -0.0150116 -0.0635791 0.000703006 0.0127212 0.0489572 -0.0116489 -0.00839313 -0.0414321 -0.0425292 -0.0676944 0.0926324 0.00464262 0.0659309 -0.0760537 0.0742089 0.00827513 0.0126919 -0.0560163 0.104938 -0.0701776 0.049147 0.0725361 -0.0847779 -0.0351379 -0.0140132 0.0471883 -0.00629916 -0.0880305 -0.076189 -0.0130975 -0.00190724 0.00802616 -0.0772256 0.0176577 -0.0388408 0.0821964 0.0418447 -0.0235208 -0.0926472 0.0523269 -0.00277466 0.00231706 0.0378883 0.0805651 0.065559 -0.0940887 0.0279607 -0.116596 -0.0234751 -0.0485912 -0.149757 0.0355324 0.0352598 0.148273 0.0258724 0.0295791 -0.0140262 -0.0378609 -0.0613539 0.120055 0.0292829 -0.0678001 0.0590889 0.00200835 0.03442 0.0646357 -0.0378128 -0.0180046 -0.0412318 0.0898169 -0.00357164 -0.1298 -0.0754503 0.110703 0.101622 0.0973328 -0.0646782
1437 0.0284273 0.0893632 0.0754674 0.140027 0.0750696 -0.0479853 -0.00428041 -0.0376961 -0.0264958 0.0398274 0.0526171 0.00598316 0.041041 -0.0799782 -0.0368049 0.0102899 0.0683917 -0.0445831 0.0180565 -0.0571739 0.117988 0.0153248 -0.0368874 -0.0634381 -0.0512628 0.0140726 -0.0289701 -0.0781299 0.103732 0.00752512 0.00975206 -0.0850741 0.0370586 0.00380578 0.0593783 0.000475368 0.00147377 0.0218031 -0.00321941 -0.0710908 0.0581464 -0.0189503 -0.0930748 0.0308311 0.0332739 0.0778539 -0.00900722 0.0193285 0.0572855 -0.017417 -0.033743 -0.0110837 -0.0507779 0.00491319 0.00978715 0.046338 -0.0101777 -0.00432639 -0.0365038 -0.0389197 -0.0632291 0.0876492 0.00301001 0.0599783 -0.0694056 0.0700309 0.00891318 0.015763 -0.0471168 0.100741 -0.0621601 0.0419196 0.0666175 -0.0775162 -0.0327275 -0.0159861 0.0468199 -0.00921117 -0.0782781 -0.07121 -0.0142523 0.000852097 0.00941019 -0.0679711 0.0151391 -0.0403186 0.0714622 0.0358804 -0.0179014 -0.084531 0.0517356 -0.00474611 -0.00156344 0.0373794 0.0755555 0.0656709 -0.084667 0.028103 -0.108849 -0.0163346 -0.0476924 -0.13598 0.0293854 0.0365119 0.134369 0.0218414 0.0239328 -0.0131638 -0.0291924 -0.0549832 0.110141 0.0240269 -0.0633215 0.0518081 0.00451812 0.0286027 0.0543658 -0.0400382 -0.0189267 -0.037979 0.0802982 -0.000945513 -0.116062 -0.0701459 0.0968674 0.0861813 0.0814384 -0.0590898
1432 0.0346008 0.110603 0.0894687 0.167606 0.0875933 -0.0554334 -0.00745772 -0.0427147 -0.0333766 0.04176 0.0585345 0.00193713 0.0503919 -0.0930534 -0.0480213 0.0149931 0.0864623 -0.0596136 0.0219587 -0.0620585 0.144315 0.0168544 -0.0464736 -0.0716064 -0.054753 0.0194843 -0.0382967 -0.0907564 0.119871 0.011216 0.00871698 -0.100874 0.0404473 0.00277379 0.0680978 0.00132942 -0.000320187 0.0240567 -0.00770964 -0.085614 0.0726158 -0.0190042 -0.115202 0.0372135 0.0406533 0.0931617 -0.00948531 0.0261218 0.0689104 -0.0259368 -0.0420173 -0.0185188 -0.061503 0.00421749 0.0103775 0.0549402 -0.0167897 -0.00916865 -0.0493689 -0.0430565 -0.0737061 0.0978426 0.00270265 0.0697802 -0.0845256 0.0826942 0.0125858 0.0138456 -0.0605352 0.114739 -0.0817856 0.055409 0.0808788 -0.095932 -0.0370417 -0.0209251 0.0500123 -0.00752592 -0.089412 -0.081765 -0.0154379 -0.00226337 0.0108288 -0.078153 0.0202419 -0.042751 0.0896407 0.0436567 -0.0211756 -0.102469 0.0546718 -0.0011795 -0.00291844 0.0407519 0.084818 0.0763042 -0.102157 0.0274443 -0.127978 -0.0247582 -0.055779 -0.165951 0.0388283 0.0423421 0.160444 0.026134 0.032353 -0.0124465 -0.0369517 -0.065833 0.132916 0.0278854 -0.0770059 0.0624883 0.00399889 0.041243 0.0662465 -0.0410214 -0.0195178 -0.0480613 0.0966225 -0.000700781 -0.135848 -0.0800437 0.11414 0.102493 0.104218 -0.0709289
1141 0.0306495 0.0957127 0.0824925 0.146881 0.0811789 -0.0497279 -0.00736078 -0.0319744 -0.0281475 0.0374895 0.0544509 -3.69489e-05 0.0434453 -0.0833192 -0.0367202 0.00973711 0.0712643 -0.0527292 0.0163173 -0.0619592 0.125268 0.017889 -0.0435704 -0.0667575 -0.052972 0.0127995 -0.0348661 -0.078048 0.109047 0.0130113 0.0117049 -0.0890097 0.0378145 0.00466174 0.0606116 0.00158147 -0.00310865 0.0186154 -0.00821643 -0.0768262 0.0648549 -0.0191491 -0.101095 0.0349107 0.0320491 0.0853455 -0.00653044 0.0252918 0.0575212 -0.0200235 -0.0349013 -0.0123872 -0.0579487 8.40155e-06 0.0115523 0.0435751 -0.0121208 -0.00690838 -0.0411994 -0.0386099 -0.0672551 0.0865702 0.00449127 0.0648933 -0.0762277 0.0723894 0.0138937 0.0144712 -0.0531418 0.0983675 -0.0717237 0.0489011 0.0657328 -0.0842352 -0.0340657 -0.0191777 0.0433715 -0.0072648 -0.0839845 -0.0698861 -0.011283 0.00373498 0.00442191 -0.074953 0.0219604 -0.036819 0.0753933 0.0398206 -0.0256698 -0.0890567 0.0530497 -0.00146051 -0.00392964 0.0413305 0.0791849 0.0612945 -0.0869918 0.0240084 -0.106371 -0.0211634 -0.0521288 -0.142392 0.0335002 0.0357925 0.142423 0.0209259 0.0266784 -0.00745973 -0.0341412 -0.0635371 0.113546 0.0282549 -0.0641478 0.0585734 -0.00276822 0.0366163 0.059824 -0.0420478 -0.0194776 -0.0424087 0.081231 -0.00132593 -0.120531 -0.0716587 0.103927 0.0948465 0.085696 -0.0671021
722 0.0671113 0.238427 0.200851 0.372013 0.193684 -0.12456 -0.0206109 -0.0885529 -0.062478 0.101087 0.132662 0.00973312 0.111802 -0.210329 -0.0984005 0.0310048 0.185677 -0.12023 0.048607 -0.145938 0.305537 0.0466968 -0.101703 -0.162877 -0.125562 0.0426129 -0.0758092 -0.19827 0.272488 0.0217529 0.0255212 -0.226805 0.0960923 0.0181358 0.141197 0.00796487 -0.0066173 0.0499179 -0.0138991 -0.188484 0.150671 -0.0444007 -0.248905 0.0864655 0.0856533 0.203893 -0.0243772 0.0512408 0.142838 -0.047009 -0.0920175 -0.0299536 -0.143903 0.00391762 0.0249734 0.120285 -0.0354397 -0.0193295 -0.101037 -0.095592 -0.159709 0.220203 0.0150006 0.152836 -0.18138 0.181643 0.024601 0.0365678 -0.130736 0.251287 -0.174714 0.119927 0.169394 -0.208541 -0.0871725 -0.0456653 0.117472 -0.0193098 -0.203226 -0.177364 -0.0397962 0.00612226 0.0167605 -0.1751 0.0469677 -0.103736 0.191036 0.0920471 -0.0578636 -0.217602 0.128467 -0.00483405 -0.00242716 0.0908537 0.191918 0.161134 -0.217018 0.0685429 -0.276949 -0.0469676 -0.125971 -0.362184 0.0764964 0.0828463 0.354055 0.0583886 0.0712065 -0.0291759 -0.084211 -0.1536 0.286454 0.0685702 -0.172467 0.140725 0.000601658 0.0864987 0.14802 -0.0957428 -0.0404756 -0.108749 0.20501 -0.00771036 -0.302734 -0.18344 0.249232 0.233711 0.223104 -0.159682
1183 0.011986 0.0568485 0.0504837 0.0843619 0.0486333 -0.031958 -0.00821027 -0.023619 -0.0142446 0.0227492 0.0285078 0.000292888 0.0305335 -0.049905 -0.0199112 0.0107521 0.0447906 -0.0252187 0.0128717 -0.0324446 0.07235 0.0101032 -0.0246426 -0.04045 -0.0279395 0.0127958 -0.0159536 -0.0479519 0.0643251 0.00701777 0.00230656 -0.0546355 0.0224712 0.00577793 0.0318803 -0.00127903 -0.00291262 0.0163917 -0.0066976 -0.0416037 0.0351456 -0.00834002 -0.0579087 0.0220218 0.0202276 0.0500405 -0.00802701 0.0162302 0.0340377 -0.0120478 -0.0190563 -0.00719619 -0.035991 -0.00188819 0.00947371 0.02528 -0.00738504 -0.00590038 -0.0243068 -0.0223212 -0.0383407 0.0507256 -0.000551704 0.0348628 -0.0457641 0.04165 0.0084202 0.00532091 -0.0309804 0.0568984 -0.0425521 0.0313571 0.042706 -0.0512799 -0.0170862 -0.0108508 0.0294434 -0.00178407 -0.0499173 -0.0432949 -0.00917617 0.000866465 0.00404122 -0.0427813 0.00917826 -0.027194 0.0441924 0.0257024 -0.0102125 -0.0514628 0.0322561 -0.00445608 0.000789128 0.0182143 0.0439643 0.0408318 -0.0537021 0.0176393 -0.0635782 -0.0142679 -0.0266746 -0.0883827 0.0190363 0.0168024 0.0855102 0.0164367 0.0164201 -0.00866121 -0.0190612 -0.0341196 0.0673707 0.0155541 -0.0383157 0.0304445 0.00153974 0.0171031 0.0367585 -0.021936 -0.0081399 -0.0271084 0.044968 -0.00301722 -0.066814 -0.0393748 0.0600857 0.0574019 0.0500318 -0.0362401
386 0.0236454 0.0859492 0.0690375 0.128686 0.0710064 -0.0428651 -0.00564813 -0.0347946 -0.02469 0.0308731 0.0467905 0.000475346 0.0425678 -0.0724819 -0.0358367 0.0132312 0.0650512 -0.0470515 0.017489 -0.0514663 0.11153 0.0162448 -0.0401882 -0.0551425 -0.0421003 0.0139681 -0.0273843 -0.0707402 0.099509 0.00478142 0.00920103 -0.0753289 0.0328395 0.00244781 0.0547543 0.0011947 -0.00356989 0.016256 -0.00482902 -0.067937 0.0529734 -0.0192301 -0.0841443 0.027059 0.0321857 0.0699286 -0.00910896 0.0148188 0.0509411 -0.0160824 -0.0340891 -0.0110767 -0.0485141 -0.00148739 0.0120076 0.0442375 -0.00921199 -0.00849367 -0.0400929 -0.0336705 -0.0544227 0.081839 0.00836308 0.0558472 -0.0608415 0.0649884 0.0101693 0.0109076 -0.0436378 0.0928516 -0.0587309 0.039313 0.0589746 -0.072652 -0.0259683 -0.0180572 0.0395402 -0.0047691 -0.0669573 -0.0590897 -0.00944284 0.00536345 0.00479745 -0.0652538 0.0135052 -0.0378417 0.0717309 0.032595 -0.0167473 -0.0812397 0.0430009 -0.00400187 -0.00285976 0.0359989 0.0665436 0.0600929 -0.0790335 0.0251357 -0.0996872 -0.017301 -0.0458401 -0.124106 0.0295976 0.0326861 0.120444 0.0158571 0.0277726 -0.00652891 -0.0252442 -0.0499769 0.0983601 0.0234911 -0.0608593 0.0512639 0.00119066 0.030597 0.0525088 -0.0371856 -0.0121321 -0.0390837 0.0706898 -9.71122e-05 -0.108047 -0.0683465 0.0869005 0.0811067 0.0746701 -0.0525664
1370 0.0264754 0.0933729 0.0764374 0.143798 0.0740214 -0.0473126 -0.0047799 -0.0341138 -0.0226316 0.0386038 0.0476763 -0.00119241 0.0415527 -0.0834895 -0.0352193 0.0112581 0.0685487 -0.0495501 0.0160114 -0.0578918 0.118857 0.0180546 -0.0411466 -0.0580711 -0.0496754 0.0176984 -0.0319399 -0.0725224 0.102316 0.00673822 0.00724976 -0.0878251 0.0378932 0.00427492 0.0519774 0.00234597 -0.000881336 0.0171971 -0.00209197 -0.0691394 0.0599991 -0.018609 -0.0903123 0.0274328 0.0291309 0.0776854 -0.00521503 0.0172127 0.0534659 -0.0202282 -0.0346804 -0.00944525 -0.0523418 0.000126884 0.00746311 0.0422531 -0.00928867 -0.011091 -0.0401516 -0.0374649 -0.0583691 0.0823765 0.00739629 0.0587529 -0.0684397 0.0680124 0.0117547 0.0111341 -0.050717 0.0992095 -0.0639523 0.0410595 0.0668377 -0.0817813 -0.0327611 -0.0138817 0.0417657 -0.00875011 -0.0730574 -0.0676737 -0.0130875 0.00141743 0.0035617 -0.0700342 0.0193989 -0.0356716 0.0733678 0.0375113 -0.0233588 -0.0853977 0.0495938 -0.00448384 0.000560089 0.0318582 0.069209 0.0638273 -0.0844655 0.0224121 -0.107521 -0.0228854 -0.049195 -0.133574 0.0296884 0.0324035 0.136712 0.0208876 0.0261945 -0.00824521 -0.0295582 -0.056647 0.110076 0.0263046 -0.0605863 0.0533842 0.00318961 0.0352987 0.057295 -0.0363735 -0.0191496 -0.0426318 0.0769008 0.000327365 -0.111169 -0.072673 0.0970448 0.0870631 0.0801707 -0.0570014
509 0.0325045 0.10367 0.0829412 0.161954 0.0837216 -0.0492429 -0.00821823 -0.0367297 -0.0248324 0.0398504 0.0564995 -0.00045465 0.0520905 -0.093791 -0.0407047 0.0128981 0.0771084 -0.0520481 0.0212372 -0.0662265 0.131624 0.0211391 -0.0413557 -0.0725998 -0.0513845 0.0165952 -0.0350749 -0.0842253 0.120245 0.0130591 0.00946179 -0.0942527 0.0385498 0.00600419 0.0613471 0.00553266 -0.000437626 0.0194907 -0.00340682 -0.0799461 0.0681925 -0.0234224 -0.107975 0.0343129 0.0354242 0.0906242 -0.0131378 0.0232265 0.060221 -0.0209631 -0.0442329 -0.0172066 -0.0620395 -0.0021143 0.0114224 0.0516059 -0.0170384 -0.0098515 -0.0481683 -0.0383757 -0.0655624 0.0919215 0.0058193 0.0659002 -0.0792763 0.0763008 0.0128925 0.018165 -0.058559 0.107721 -0.0739425 0.049401 0.0688794 -0.093332 -0.0378493 -0.0216451 0.0525335 -0.011128 -0.0864336 -0.0729051 -0.019476 0.00236416 0.00659955 -0.0741349 0.0207572 -0.045012 0.0816974 0.037304 -0.0249287 -0.09163 0.0585812 0.00236478 0.00172218 0.0417934 0.0800245 0.0671277 -0.0926507 0.03012 -0.116857 -0.0185924 -0.0536371 -0.157351 0.0362294 0.0348051 0.150291 0.02443 0.0274311 -0.0125738 -0.0322109 -0.0616688 0.12374 0.0321583 -0.0729151 0.0609234 -0.00155281 0.0368138 0.063698 -0.0433646 -0.0150788 -0.0479516 0.0902769 -0.00437403 -0.126779 -0.0755364 0.106584 0.102128 0.0976079 -0.0703684
119 0.0298362 0.110359 0.0960593 0.176642 0.0897877 -0.0565231 -0.0135489 -0.039904 -0.0324372 0.0470922 0.0595624 0.00537802 0.0526881 -0.0998923 -0.0470241 0.0149656 0.0824257 -0.0550236 0.0197415 -0.0694295 0.148527 0.0197432 -0.0483667 -0.0783704 -0.0609791 0.0178687 -0.0338222 -0.0965069 0.126194 0.00902843 0.00685896 -0.102286 0.0433949 0.00849282 0.0672657 0.00063642 0.000368435 0.0277328 -0.0032917 -0.0845508 0.0715815 -0.0202877 -0.118644 0.0417002 0.0384257 0.0922521 -0.00640862 0.0215419 0.063652 -0.0208105 -0.0419284 -0.01236 -0.0691724 -0.00142733 0.0151074 0.0551294 -0.0114904 -0.00870888 -0.0516069 -0.0433281 -0.0746507 0.105245 0.00516149 0.0703431 -0.0854174 0.0881313 0.0119384 0.0140592 -0.0652149 0.117624 -0.0791756 0.0537163 0.0830356 -0.0978541 -0.0422928 -0.0159608 0.0559977 -0.0105232 -0.0933955 -0.0806601 -0.0133372 0.00107975 0.00535447 -0.0856897 0.0207645 -0.0488384 0.0874423 0.0482759 -0.0291394 -0.103321 0.0577074 0.00162042 -0.00566445 0.0445222 0.0901828 0.0770637 -0.102146 0.0312707 -0.127941 -0.0222918 -0.0575815 -0.167931 0.0338855 0.0402348 0.168581 0.023582 0.0335574 -0.0107472 -0.0387771 -0.0714716 0.138745 0.0313563 -0.0824157 0.0685972 -0.000891093 0.0404228 0.0716074 -0.0432819 -0.0213432 -0.0503691 0.0979418 -0.00444891 -0.142437 -0.0894124 0.116873 0.106497 0.100639 -0.0767634
94 0.0550549 0.185324 0.153603 0.285855 0.15417 -0.0912483 -0.0199482 -0.0688454 -0.0532373 0.0752124 0.102178 0.00353427 0.0926263 -0.166617 -0.0778257 0.0243856 0.141218 -0.0958121 0.0391607 -0.113346 0.239231 0.0299396 -0.0807796 -0.129649 -0.100573 0.0323143 -0.0598619 -0.153742 0.212096 0.021589 0.0203268 -0.175583 0.0717512 0.0133513 0.112667 0.01023 -0.00174069 0.0415822 -0.0109929 -0.141096 0.120392 -0.0358338 -0.186495 0.0654824 0.0659704 0.159648 -0.0175244 0.0430166 0.109643 -0.0379704 -0.0776858 -0.0240824 -0.109224 -0.00160097 0.0195282 0.0931875 -0.0256823 -0.0201629 -0.0784102 -0.07732 -0.126078 0.170255 0.0126594 0.114103 -0.14226 0.140119 0.020897 0.0234259 -0.105676 0.195583 -0.136252 0.0892192 0.129081 -0.15941 -0.0657741 -0.0308224 0.0879309 -0.0127781 -0.157363 -0.138557 -0.0283783 0.00451244 0.0120054 -0.140269 0.0405889 -0.0793488 0.154266 0.0734255 -0.0450667 -0.174151 0.0971683 0.00219594 -0.00617844 0.0729208 0.147509 0.123524 -0.170666 0.0535268 -0.208202 -0.0385033 -0.0955444 -0.28371 0.0586533 0.0636412 0.276355 0.0414151 0.0510807 -0.0184408 -0.0594906 -0.119303 0.225591 0.0558479 -0.133952 0.107466 0.00418349 0.0647738 0.1173 -0.0785658 -0.0308364 -0.0851761 0.159978 -0.00578154 -0.232741 -0.138877 0.198979 0.179265 0.171732 -0.121164
136 0.0329249 0.118743 0.0964552 0.182944 0.0949205 -0.0592863 -0.00970081 -0.0410274 -0.0297552 0.0477641 0.0631495 0.0023608 0.0540463 -0.106951 -0.0446371 0.0132767 0.0860765 -0.063335 0.025215 -0.0732527 0.154436 0.0231304 -0.0544054 -0.0777375 -0.0653984 0.0162756 -0.0401804 -0.0953774 0.131673 0.0130163 0.0136715 -0.104941 0.0494082 0.0103051 0.0724883 0.00776042 -0.00511532 0.023599 -0.00570516 -0.0867268 0.0732176 -0.0209671 -0.123065 0.0425166 0.0396152 0.100817 -0.0132449 0.0254102 0.0696724 -0.0277433 -0.0492364 -0.0158622 -0.0713747 -0.00127923 0.0126282 0.0543336 -0.0131803 -0.0141513 -0.0541269 -0.0451356 -0.0789426 0.105141 0.00460544 0.0763296 -0.090984 0.0885006 0.0109024 0.0149577 -0.0643341 0.122174 -0.0826528 0.0533297 0.0824942 -0.10374 -0.0434953 -0.020413 0.057761 -0.00997309 -0.0998764 -0.0839551 -0.0181272 0.00301051 0.00866688 -0.088059 0.0195897 -0.0452676 0.0977176 0.0457227 -0.0231286 -0.108723 0.0597338 -0.00205075 -0.00486817 0.0479028 0.09443 0.0759017 -0.105107 0.0333279 -0.130116 -0.0210858 -0.0594484 -0.173374 0.0415898 0.0439091 0.17156 0.026036 0.0351708 -0.0112969 -0.0403095 -0.0736603 0.13688 0.0289519 -0.0819725 0.0681182 0.00304441 0.0388534 0.0742499 -0.0435509 -0.0246625 -0.0521391 0.0959791 -0.00330866 -0.148622 -0.0882675 0.121443 0.10952 0.110487 -0.0755263
189 0.0234519 0.08521 0.0729808 0.135337 0.0694392 -0.0430762 -0.0116097 -0.0310913 -0.0217787 0.03797 0.0508731 0.00544722 0.0462598 -0.0812306 -0.0384232 0.0120252 0.0646716 -0.041463 0.0147175 -0.0503514 0.116523 0.0179164 -0.0375974 -0.0610049 -0.0484141 0.0140537 -0.0298727 -0.0762366 0.101153 0.0108072 0.00954599 -0.080819 0.0339255 0.0032306 0.0526511 0.00263104 -0.00128689 0.0179046 -0.00307481 -0.0697848 0.0572159 -0.0158821 -0.0901244 0.0319401 0.0332408 0.0763981 -0.00657074 0.0231464 0.0505724 -0.0160821 -0.0359535 -0.0152693 -0.054759 -0.000121492 0.0058041 0.0431252 -0.0132139 -0.0071121 -0.0359639 -0.0375269 -0.0594245 0.0790306 0.00778802 0.0586287 -0.0697454 0.0690151 0.0119772 0.016555 -0.0487318 0.0940612 -0.0629052 0.0414557 0.0646907 -0.0734358 -0.0329799 -0.0181228 0.0419019 -0.00861754 -0.0713162 -0.0621653 -0.0127241 -0.00204321 0.00499063 -0.068476 0.0162619 -0.0404364 0.0741364 0.0388324 -0.0223288 -0.0827208 0.0505348 -0.000674135 0.0019918 0.0335158 0.066558 0.0618801 -0.0819222 0.0250022 -0.10143 -0.0212558 -0.0444585 -0.13342 0.0301704 0.0327733 0.128908 0.0198905 0.0253109 -0.00765041 -0.0300889 -0.0544521 0.104322 0.0273629 -0.0612925 0.0524505 0.00344385 0.0295216 0.0573038 -0.0374932 -0.0174377 -0.0368307 0.076053 -0.00200782 -0.110059 -0.0683221 0.0935884 0.084866 0.0802016 -0.0587637
532 0.0246757 0.0826028 0.0671553 0.12807 0.0639747 -0.0405082 -0.00873477 -0.0320923 -0.0254945 0.0327711 0.0416721 0.00495748 0.0353961 -0.0757832 -0.032303 0.0131509 0.0647651 -0.0380755 0.0151482 -0.0460839 0.102026 0.013375 -0.0340511 -0.0578978 -0.0407903 0.0165382 -0.0278026 -0.0663858 0.0949223 0.00811675 0.00772843 -0.0763664 0.0306434 0.00172404 0.0469661 0.00485708 -0.00343896 0.0172681 -0.00397694 -0.0636888 0.0561768 -0.0179039 -0.0853688 0.0277507 0.0255771 0.0719357 -0.00821856 0.0187726 0.0485189 -0.0148001 -0.0317503 -0.00788251 -0.0474517 0.00216703 0.0119893 0.0418895 -0.0123656 -0.00389395 -0.0390314 -0.0361274 -0.0530162 0.0726836 0.00103142 0.0514424 -0.0660447 0.0666162 0.00640499 0.00835386 -0.0416645 0.0895873 -0.055942 0.0367443 0.0566221 -0.0689513 -0.0261052 -0.0165445 0.0431951 -0.00638583 -0.0689555 -0.0625663 -0.0104044 0.0013084 0.00212661 -0.0584879 0.0188717 -0.0309256 0.065267 0.028975 -0.0205211 -0.0742792 0.0435882 -0.00312167 -0.00330211 0.0292696 0.066186 0.0565792 -0.075682 0.0213999 -0.0904569 -0.0146189 -0.0394729 -0.122727 0.0234336 0.030524 0.121886 0.020974 0.021119 -0.00837851 -0.0238672 -0.049603 0.0968441 0.0194174 -0.0605499 0.0483866 0.00419764 0.0248373 0.0498627 -0.0292245 -0.0134932 -0.0359035 0.0736565 -0.00337468 -0.100197 -0.066244 0.0862789 0.079441 0.0738321 -0.0529605
541 0.0133611 0.0389207 0.0348465 0.064256 0.036066 -0.0182256 -0.000110505 -0.013886 -0.0106282 0.0147904 0.0237075 0.00280567 0.0230355 -0.0373625 -0.0173643 0.00358934 0.0295824 -0.0223733 0.0115821 -0.025172 0.0526698 0.00439142 -0.0148589 -0.0287384 -0.0208103 0.00485281 -0.0109553 -0.0316182 0.0429882 0.0050101 0.00419087 -0.0383511 0.0137682 0.00607827 0.027583 -0.00241869 3.32156e-05 0.00632933 -0.00247583 -0.0298679 0.0283663 -0.00498642 -0.0463873 0.0183289 0.0115168 0.0388895 -0.00401327 0.0105973 0.026079 -0.00756441 -0.0158049 -0.00278689 -0.0254351 0.002555 0.00242668 0.0173881 -0.00246467 -0.00597818 -0.017442 -0.0188561 -0.023956 0.0391755 0.0035174 0.0230027 -0.0296329 0.0356991 0.00804855 0.00778438 -0.0196485 0.0403711 -0.0333978 0.0184375 0.0268406 -0.038421 -0.0160281 -0.00861914 0.0170225 0.000431692 -0.0318824 -0.029221 -0.00698947 0.000604055 0.00154768 -0.0266108 0.0075562 -0.0182425 0.0348622 0.0157818 -0.0108118 -0.0415632 0.0250145 -0.00354561 -0.00256324 0.0195104 0.0315106 0.0245953 -0.0403629 0.00830051 -0.0502374 -0.00901917 -0.0232534 -0.0613152 0.0143811 0.0177662 0.0630724 0.0130697 0.00923219 -0.00549838 -0.0142095 -0.0294948 0.0458965 0.01087 -0.0276911 0.0222089 0.00366567 0.0121 0.0242482 -0.0168774 -0.00536687 -0.0223246 0.034223 -0.00109954 -0.0482119 -0.030368 0.0473316 0.0381473 0.0362534 -0.0252125
56 0.0294154 0.110186 0.093996 0.167507 0.0900077 -0.0540694 -0.0103183 -0.0389796 -0.0312548 0.0400781 0.05558 0.00245997 0.0509149 -0.0970989 -0.0432218 0.0143288 0.0788229 -0.056825 0.0221523 -0.0675973 0.135427 0.0183603 -0.0474292 -0.0711183 -0.0566647 0.0204146 -0.0349679 -0.0881403 0.120121 0.0124389 0.012235 -0.103421 0.0404351 0.0079987 0.0660088 0.000769213 0.000321186 0.0261286 -0.00263939 -0.0837437 0.0710689 -0.0180804 -0.113042 0.036301 0.0342396 0.0935193 -0.00868703 0.0206037 0.0643363 -0.0265538 -0.0456131 -0.0118976 -0.0664809 -0.0019194 0.0141243 0.0560679 -0.0142743 -0.00987056 -0.0461539 -0.0435843 -0.0703521 0.096969 0.00561893 0.0676985 -0.0827094 0.0813661 0.0142973 0.0135325 -0.05798 0.110929 -0.0744806 0.0553741 0.0744741 -0.098082 -0.0339141 -0.0196162 0.0554343 -0.0107858 -0.090603 -0.0817644 -0.0136965 0.0052886 0.00701307 -0.0768626 0.0220289 -0.0428333 0.0902059 0.0410279 -0.026718 -0.0994455 0.0591302 0.000417413 0.00159692 0.0444903 0.0822437 0.0686516 -0.0970087 0.028761 -0.119325 -0.0224163 -0.0568823 -0.159831 0.0373813 0.0354067 0.157636 0.024346 0.0284247 -0.0139474 -0.0338365 -0.0639379 0.128877 0.0307796 -0.0768961 0.0601437 0.000752851 0.0379016 0.0668709 -0.0443653 -0.0215956 -0.0519212 0.0943059 -0.00277989 -0.137743 -0.0809145 0.111426 0.101004 0.100423 -0.0697212
291 0.0389461 0.125878 0.106999 0.193864 0.106593 -0.0654598 -0.00916068 -0.0479361 -0.0309187 0.0548352 0.0645737 0.000861634 0.0620153 -0.116131 -0.0507777 0.0200293 0.0985524 -0.0618314 0.0298397 -0.079559 0.164884 0.0237567 -0.0553332 -0.0898392 -0.0709267 0.0233636 -0.0393066 -0.108059 0.146891 0.0120713 0.0134221 -0.12062 0.0503228 0.00801441 0.0780529 0.00727804 -0.00333225 0.0310182 -0.010074 -0.102947 0.0848789 -0.0224226 -0.129464 0.0457939 0.0410438 0.111787 -0.0132126 0.0249189 0.0736101 -0.0280569 -0.0538873 -0.0179165 -0.0728418 0.000577489 0.0149227 0.0634253 -0.0161443 -0.012733 -0.0511647 -0.0507892 -0.0831983 0.118163 0.00612125 0.0831135 -0.0969411 0.0972421 0.0126408 0.0154523 -0.0687835 0.138142 -0.087358 0.061888 0.0865479 -0.113642 -0.0484214 -0.0239059 0.0616641 -0.0106468 -0.10889 -0.0970979 -0.0197067 9.44771e-05 0.00762078 -0.0913053 0.0234214 -0.0561287 0.104059 0.0479029 -0.0288677 -0.114979 0.0714949 -0.00217643 -0.00578283 0.0463342 0.100157 0.0851718 -0.111998 0.0318586 -0.148937 -0.0299843 -0.0627048 -0.188918 0.0429141 0.0464131 0.185281 0.0285907 0.0343586 -0.0129552 -0.0442839 -0.0783184 0.154936 0.0336776 -0.0926371 0.0744625 -0.00244795 0.0439709 0.0809662 -0.0507432 -0.0248567 -0.0555365 0.111026 -0.00337611 -0.159375 -0.0972599 0.135418 0.121316 0.120481 -0.0862044
143 0.037464 0.135556 0.113572 0.205431 0.106016 -0.0648498 -0.0135517 -0.0523083 -0.0393835 0.055703 0.0731607 0.00221782 0.0604903 -0.116318 -0.0552901 0.0209422 0.104885 -0.0691679 0.0315592 -0.0814774 0.168723 0.0278692 -0.0594727 -0.088667 -0.0737213 0.0191556 -0.0414229 -0.111121 0.148333 0.0141856 0.0113797 -0.127421 0.053548 0.00797515 0.0826771 0.00329987 -0.00460294 0.0294908 -0.00814303 -0.104153 0.0878014 -0.026609 -0.138231 0.0452514 0.0481985 0.112499 -0.00991601 0.0253227 0.0825302 -0.0266675 -0.0499215 -0.0161737 -0.0790158 0.00332412 0.0126634 0.068895 -0.0142119 -0.00972558 -0.0552278 -0.0532708 -0.0853444 0.121298 0.00996344 0.0830798 -0.104153 0.105049 0.012315 0.0196171 -0.0715221 0.137022 -0.0930715 0.0612905 0.0918067 -0.116722 -0.0446971 -0.0234613 0.0608254 -0.00702545 -0.108626 -0.0981804 -0.0232302 0.00238582 0.00927585 -0.102015 0.0224618 -0.0523824 0.104583 0.054786 -0.0288908 -0.124139 0.0693615 0.000729652 -0.000262729 0.0536577 0.108425 0.0866971 -0.120655 0.0343583 -0.152583 -0.0300537 -0.0703299 -0.198953 0.0468237 0.0437849 0.198148 0.0305074 0.040358 -0.010334 -0.0474883 -0.0798176 0.162446 0.0354078 -0.0910622 0.0741544 0.00264041 0.0445614 0.0832379 -0.050179 -0.0228503 -0.061348 0.115341 -0.00288206 -0.169876 -0.10211 0.13713 0.130546 0.120999 -0.0898579
148 0.0224093 0.0750551 0.0575577 0.114006 0.0617819 -0.040662 -0.00717394 -0.0254684 -0.0223034 0.0279466 0.0427522 0.003139 0.0355995 -0.0628646 -0.0267932 0.0071797 0.0536112 -0.033914 0.0140479 -0.0404967 0.0934356 0.0106508 -0.0326615 -0.0529052 -0.0422495 0.0108847 -0.0233691 -0.0601856 0.0833416 0.00974302 0.00740474 -0.0673892 0.0246054 0.00282095 0.0402524 0.00607133 0.000120088 0.0196183 -0.00383474 -0.0600792 0.0476772 -0.0132995 -0.0737699 0.0285397 0.0241831 0.0640142 -0.00474944 0.0128898 0.0400629 -0.0150393 -0.0323798 -0.0134213 -0.0390773 0.000692247 0.0086855 0.0385426 -0.00601975 -0.00914601 -0.0287117 -0.027357 -0.0458322 0.0646639 0.00417255 0.0487888 -0.056067 0.0548377 0.00635387 0.01336 -0.0366915 0.0760921 -0.0512443 0.0342677 0.0528972 -0.0653011 -0.0273075 -0.0130727 0.037938 -0.00208751 -0.0618816 -0.0524488 -0.0126396 0.00193907 0.00686071 -0.0529745 0.0171027 -0.0263659 0.0557129 0.0327338 -0.0184383 -0.0660166 0.0395096 4.91944e-05 0.00223589 0.0272521 0.0618283 0.0484609 -0.0689326 0.0179242 -0.0826499 -0.0155827 -0.0363258 -0.112373 0.0281619 0.0247505 0.109648 0.0147646 0.0234126 -0.00468846 -0.0212855 -0.048868 0.0878088 0.0190842 -0.0479874 0.0398369 -0.000236593 0.0244467 0.0469739 -0.0316562 -0.0162763 -0.0320446 0.0605199 -0.00202472 -0.0924661 -0.0566624 0.0742081 0.0737956 0.0684174 -0.0498267
144 0.0193085 0.0831041 0.0671484 0.126435 0.0634496 -0.0430276 -0.0107025 -0.0268411 -0.024989 0.0326982 0.0442509 0.00425838 0.0407738 -0.0681756 -0.0320616 0.00726987 0.0582348 -0.0446185 0.0137775 -0.0454729 0.10138 0.0151958 -0.0334313 -0.0539461 -0.0416628 0.0157976 -0.0287117 -0.0710404 0.0889623 0.0122734 0.00643165 -0.0752877 0.0321929 0.00863624 0.0448521 0.00450795 -0.00334048 0.0178098 -0.00697141 -0.0628643 0.0519899 -0.0173174 -0.0797659 0.0279138 0.029603 0.0685985 -0.00436079 0.0188932 0.0466979 -0.0155459 -0.0306004 -0.00989366 -0.0447104 0.00444611 0.00828823 0.038396 -0.00916785 -0.00304058 -0.034416 -0.0347549 -0.0527765 0.0730383 0.00174087 0.0505374 -0.0621 0.0578934 0.00631043 0.0108534 -0.0406986 0.0807292 -0.0533199 0.0423068 0.0561172 -0.0667562 -0.0273495 -0.0175064 0.0369966 -0.00318316 -0.0696304 -0.0616562 -0.00920538 -0.00251833 0.00591716 -0.0617354 0.0140553 -0.0304069 0.0606377 0.0307216 -0.0171995 -0.0734318 0.0413555 0.000137296 0.00211204 0.030364 0.0640983 0.0510746 -0.0690705 0.0243542 -0.0904414 -0.0170221 -0.0434384 -0.116462 0.025998 0.0279084 0.114452 0.0208325 0.0211658 -0.0114815 -0.0251009 -0.0536796 0.0921609 0.0197662 -0.0542892 0.0421938 0.000437205 0.0278554 0.0475649 -0.030073 -0.0134707 -0.0329168 0.0694613 -0.00221215 -0.103266 -0.0645033 0.0846525 0.0744612 0.0704012 -0.0553589
1832 0.0101768 0.0431966 0.0370573 0.0724965 0.0366488 -0.0257275 -0.00355584 -0.0189313 -0.0172436 0.0170985 0.0210651 0.00282434 0.023029 -0.0405096 -0.0166389 0.00596606 0.0321592 -0.022165 0.00590518 -0.0265165 0.0597991 0.00948178 -0.019842 -0.0289047 -0.0270952 0.00857293 -0.018006 -0.0379041 0.0492107 0.00755633 0.00580079 -0.0395127 0.0165462 -0.000249262 0.0241987 0.00308665 0.00199078 0.00906166 -0.00322111 -0.0363287 0.0319849 -0.0108293 -0.0460117 0.0153372 0.0177219 0.0378997 -0.00249297 0.00994915 0.0298227 -0.00669325 -0.0145826 -0.00774194 -0.0294274 -0.000978081 0.0055013 0.0245492 -0.00361298 -0.00719343 -0.0215406 -0.0211937 -0.0283319 0.0408849 0.00316963 0.0281639 -0.0376242 0.0319278 0.00166069 0.00687276 -0.0267435 0.0469748 -0.0359244 0.0254471 0.0332188 -0.0388206 -0.0136413 -0.0052655 0.0258327 -0.00366467 -0.0395925 -0.035767 -0.00820395 -0.00245916 0.00303229 -0.0300217 0.0122948 -0.0220722 0.0383083 0.0166813 -0.0111012 -0.0403641 0.0212743 -0.00213044 -0.00443982 0.0185028 0.0367499 0.0293013 -0.043307 0.00867073 -0.0528609 -0.00591532 -0.0237777 -0.0646141 0.0124973 0.016656 0.0670668 0.0109745 0.0147861 -0.0023575 -0.0163126 -0.0271715 0.0533177 0.0159984 -0.0359091 0.0227304 -0.00114833 0.0173781 0.0287095 -0.0218575 -0.0119192 -0.0166956 0.0347575 0.00166227 -0.0576779 -0.0337377 0.0467277 0.0479278 0.0445088 -0.0277676
223 0.161757 0.558796 0.476609 0.876529 0.459318 -0.28517 -0.045472 -0.208322 -0.155856 0.237809 0.307184 0.0181264 0.277741 -0.503738 -0.230242 0.0824475 0.434031 -0.294055 0.118625 -0.342851 0.72111 0.0991318 -0.240689 -0.375392 -0.294405 0.0988032 -0.179932 -0.478165 0.643997 0.0571345 0.0519271 -0.531887 0.217605 0.0373005 0.344073 0.0227171 -0.00193595 0.128642 -0.0272078 -0.441487 0.366363 -0.113452 -0.571831 0.201751 0.187147 0.481812 -0.0528453 0.132529 0.33634 -0.109138 -0.225574 -0.0771751 -0.328079 0.00800639 0.0672153 0.275881 -0.0746496 -0.0415008 -0.251607 -0.220714 -0.370943 0.523537 0.0204631 0.352574 -0.440468 0.438861 0.0664259 0.0771207 -0.306705 0.601984 -0.399216 0.2796 0.401988 -0.49005 -0.195385 -0.101896 0.278867 -0.0434261 -0.471311 -0.40791 -0.0781844 0.0128787 0.0407375 -0.419341 0.113961 -0.231196 0.459222 0.222523 -0.124339 -0.51522 0.302545 0.000390044 -0.0114466 0.223887 0.449751 0.380843 -0.514274 0.152329 -0.644291 -0.11667 -0.289805 -0.846517 0.185335 0.206704 0.832896 0.126823 0.155664 -0.0664623 -0.191896 -0.352042 0.677739 0.15791 -0.402329 0.322038 0.00266173 0.197427 0.346025 -0.232313 -0.10828 -0.239839 0.479284 -0.0161883 -0.712531 -0.42926 0.591253 0.548302 0.519958 -0.368624
1018 0.0497598 0.185058 0.157157 0.286792 0.152648 -0.091208 -0.0173801 -0.0709017 -0.0549854 0.0731649 0.0982487 0.00432533 0.0899151 -0.166175 -0.0790425 0.0224648 0.139426 -0.0984879 0.0343995 -0.114724 0.23625 0.0301911 -0.0801985 -0.124859 -0.0978392 0.0282518 -0.0607313 -0.156116 0.208322 0.0172045 0.0137747 -0.169334 0.0679519 0.0148394 0.112736 0.00313249 -0.000423929 0.036303 -0.0140645 -0.14466 0.116568 -0.035509 -0.189631 0.0617523 0.0605729 0.154954 -0.0216893 0.0453954 0.114134 -0.0386986 -0.0767821 -0.0225085 -0.11254 0.00675647 0.0211263 0.0892911 -0.0278846 -0.0117005 -0.0838449 -0.0752379 -0.122897 0.167857 0.00934026 0.118394 -0.141619 0.141593 0.0168791 0.0291798 -0.100268 0.196827 -0.132374 0.0865764 0.128242 -0.160617 -0.0666637 -0.0330137 0.0892377 -0.0127186 -0.151612 -0.137079 -0.0259816 0.00534914 0.0149222 -0.135656 0.0399208 -0.0750136 0.14519 0.0721009 -0.044233 -0.172712 0.102965 -0.00411055 -0.00682709 0.0732442 0.149012 0.120961 -0.165963 0.0508465 -0.212886 -0.0384264 -0.0957122 -0.271839 0.0622687 0.0645381 0.270447 0.0405024 0.0507476 -0.0182703 -0.0599201 -0.113348 0.222554 0.0545299 -0.126441 0.109006 -0.00285037 0.0670774 0.111456 -0.0743451 -0.0323612 -0.0810638 0.158539 -0.00812655 -0.233094 -0.142741 0.197237 0.177284 0.168978 -0.122468
1624 0.0425962 0.137229 0.112229 0.213134 0.114289 -0.0686862 -0.0083931 -0.0542226 -0.0396265 0.0546498 0.0701132 -0.000144343 0.0701832 -0.117852 -0.0569941 0.0228991 0.102594 -0.0712082 0.0286236 -0.0869487 0.175949 0.0273169 -0.0624042 -0.0938824 -0.0737933 0.0229163 -0.0463949 -0.114881 0.155734 0.012979 0.0100808 -0.127943 0.0518861 0.00987099 0.0821916 0.00539691 -0.00482907 0.0279111 -0.00671119 -0.105952 0.0896542 -0.0300007 -0.138989 0.0466851 0.0503897 0.11442 -0.0127011 0.0314695 0.0835443 -0.0336146 -0.0565052 -0.0222465 -0.081086 -0.00145326 0.0183761 0.0699311 -0.0203581 -0.0114708 -0.0576606 -0.0531339 -0.0923996 0.128771 0.00509305 0.0890788 -0.102864 0.105587 0.0168073 0.0196582 -0.0729644 0.146197 -0.0966254 0.0705852 0.101364 -0.122069 -0.0472812 -0.0213653 0.0647945 -0.00901204 -0.115094 -0.0988603 -0.0190792 0.000263818 0.00976892 -0.10571 0.0308874 -0.0593927 0.115293 0.0564657 -0.0279893 -0.127532 0.0765743 -0.00394172 -0.00250598 0.0503174 0.113408 0.0956333 -0.12729 0.036171 -0.156233 -0.0251879 -0.0665691 -0.203642 0.0486376 0.0485591 0.205439 0.0300799 0.0360542 -0.0158621 -0.0445539 -0.0853739 0.166807 0.0383325 -0.0933182 0.0768312 -0.00264733 0.0477549 0.0872875 -0.0546999 -0.0226642 -0.0587988 0.12101 -0.00595126 -0.176234 -0.10309 0.146087 0.131458 0.123437 -0.0919696
1623 0.0317514 0.112801 0.0916243 0.175631 0.0938199 -0.0537973 -0.0072713 -0.041245 -0.0335473 0.0442123 0.0571301 0.000460379 0.0560113 -0.0995943 -0.0487158 0.015243 0.0841763 -0.0610355 0.0237352 -0.0680223 0.149539 0.0198033 -0.0475699 -0.0752134 -0.0587785 0.0223563 -0.0334889 -0.0947379 0.131891 0.014579 0.00694374 -0.102349 0.044868 0.00403332 0.0706622 0.00609321 -0.000749784 0.0260405 -0.00834051 -0.0906982 0.0745307 -0.0209377 -0.118314 0.0374385 0.0349352 0.0954952 -0.0109676 0.0214515 0.0678497 -0.027621 -0.0419721 -0.0141325 -0.0707348 0.0012648 0.0162306 0.0524065 -0.0152558 -0.0112729 -0.0516923 -0.0465236 -0.0769609 0.10247 0.00670325 0.074568 -0.0908525 0.0863924 0.0136739 0.0138836 -0.0631192 0.119677 -0.0790137 0.0558259 0.0799538 -0.0984628 -0.0419331 -0.0174181 0.0570721 -0.0124063 -0.0961688 -0.081809 -0.0181931 -0.000922138 0.00958375 -0.0859494 0.0258451 -0.0443108 0.0901767 0.0449268 -0.027457 -0.104922 0.0570821 0.00111004 0.000996964 0.0407394 0.0923359 0.0797179 -0.106907 0.0283979 -0.125222 -0.021555 -0.0546928 -0.168358 0.0356562 0.0419599 0.167944 0.0285373 0.0278771 -0.0145057 -0.0408403 -0.0744329 0.135931 0.0322379 -0.0789379 0.0620904 -0.000853156 0.0377276 0.0701049 -0.0473132 -0.0185491 -0.0529652 0.0978009 -0.00537767 -0.144613 -0.0873682 0.122927 0.111383 0.106144 -0.0724434
1718 0.0162129 0.0430004 0.0329955 0.0696103 0.0316305 -0.0179869 -0.00170804 -0.0179703 -0.0135486 0.0212384 0.0198523 0.000342845 0.018646 -0.0391913 -0.0170412 0.00971635 0.030042 -0.021085 0.0130108 -0.029968 0.0543829 0.00775993 -0.0216795 -0.0290801 -0.0247148 0.00598431 -0.0142055 -0.0347631 0.0455861 0.00726536 0.000506726 -0.0421023 0.0209811 0.00473804 0.0262029 -0.00156299 0.00299484 0.010592 -0.00565062 -0.0336892 0.0254259 -0.0101033 -0.043246 0.0114387 0.0182343 0.0374567 -0.00333709 0.0103431 0.0294481 -0.00709724 -0.0173464 -0.00475178 -0.0278818 -0.00140624 0.00787509 0.0222682 -0.00737648 -0.000589602 -0.0168244 -0.0150792 -0.0268739 0.0374981 -0.000319256 0.0274911 -0.0361423 0.0297748 0.00128481 0.00459487 -0.0271028 0.0497231 -0.030178 0.0199483 0.0291413 -0.0416467 -0.0188387 -0.00922408 0.021438 -0.00348004 -0.0401401 -0.0294654 -0.00566563 -0.00145732 7.67873e-05 -0.0316318 0.00485012 -0.0210582 0.0367061 0.0206342 -0.00841081 -0.0372917 0.0217638 -0.000368852 -0.00254427 0.0203651 0.034856 0.0323842 -0.0388815 0.00841078 -0.0524088 -0.00664158 -0.0243791 -0.0617234 0.0138076 0.0170499 0.0659081 0.00678393 0.0148229 -0.00252973 -0.0165125 -0.0292537 0.0548304 0.0138888 -0.0285176 0.0269249 0.00294409 0.0135925 0.0233108 -0.0166025 -0.00885087 -0.0188575 0.0398576 0.00202321 -0.0519149 -0.0328051 0.0466367 0.0420255 0.0372425 -0.0266492
1368 0.0594017 0.198991 0.169861 0.305549 0.164973 -0.0983339 -0.0197512 -0.071329 -0.0526633 0.0803338 0.108034 0.00883616 0.0980443 -0.173929 -0.0829392 0.0265628 0.154258 -0.100223 0.0390519 -0.119437 0.258269 0.0387544 -0.0853868 -0.130809 -0.104628 0.0363925 -0.0629422 -0.166959 0.228499 0.0227527 0.0220526 -0.182258 0.0819428 0.0104499 0.120295 0.00903143 0.000516471 0.0420378 -0.0132706 -0.158412 0.124359 -0.0386878 -0.199993 0.0665959 0.0713855 0.165614 -0.0194181 0.0438024 0.117394 -0.0432324 -0.0825914 -0.0306446 -0.115966 0.002391 0.0240921 0.0961914 -0.0266501 -0.020681 -0.0846386 -0.0816138 -0.129207 0.188241 0.0114206 0.129651 -0.154383 0.154118 0.0245678 0.0295013 -0.107161 0.214022 -0.14237 0.0991783 0.144691 -0.17621 -0.0724529 -0.038 0.0982308 -0.015432 -0.169422 -0.149335 -0.0323066 0.00189771 0.0161259 -0.14961 0.0387239 -0.0844122 0.157945 0.0812193 -0.0440185 -0.181384 0.102721 0.000456835 -5.23522e-05 0.0805925 0.157463 0.131791 -0.179601 0.0501498 -0.23121 -0.0420664 -0.105397 -0.301969 0.0694123 0.0709338 0.295424 0.043888 0.056188 -0.0245114 -0.0669398 -0.127954 0.237922 0.057417 -0.138324 0.113024 0.00367887 0.0706702 0.124192 -0.0772572 -0.0340953 -0.0903439 0.170277 -0.00587568 -0.24957 -0.154145 0.211882 0.191148 0.187834 -0.13207
1720 0.0265901 0.106677 0.0882663 0.160347 0.0846591 -0.0518072 -0.00885219 -0.0419538 -0.0310926 0.0465979 0.0596968 0.00353491 0.0492502 -0.0912517 -0.0428213 0.0186711 0.0816572 -0.0582922 0.0217959 -0.0649864 0.132971 0.0204559 -0.0438906 -0.0704226 -0.0595377 0.0156132 -0.0308036 -0.0911577 0.122838 0.00991164 0.0100849 -0.0976516 0.0375385 0.00986953 0.0672974 0.00201171 -0.00154818 0.0196624 -0.00566216 -0.0804412 0.0699345 -0.0196184 -0.109161 0.0406798 0.0378639 0.0915156 -0.00670517 0.0254858 0.0654031 -0.0261672 -0.0412191 -0.017526 -0.0618872 0.00102121 0.00823324 0.0538725 -0.0169345 -0.00571576 -0.0438251 -0.0422893 -0.0730583 0.0951941 0.00507102 0.0673673 -0.082697 0.0789333 0.00757729 0.0150089 -0.0611205 0.115688 -0.0785056 0.0513012 0.0715939 -0.0887649 -0.0339063 -0.0201263 0.052249 -0.00424119 -0.091563 -0.0752122 -0.0176294 0.00428414 0.00616907 -0.0777278 0.0204939 -0.0481494 0.0849182 0.0461094 -0.0254731 -0.0978282 0.0567777 0.00166561 -0.00268536 0.0457499 0.0819523 0.0751312 -0.098788 0.0299342 -0.119106 -0.0206654 -0.0537177 -0.158864 0.0338134 0.0377236 0.154106 0.0237658 0.0260949 -0.0106132 -0.03268 -0.0673158 0.126292 0.029764 -0.0778508 0.0573405 0.00153448 0.0378608 0.0676517 -0.0384038 -0.0211914 -0.043446 0.086535 -0.00326109 -0.136549 -0.0774277 0.114872 0.100047 0.101249 -0.0724169
1309 0.0236373 0.079574 0.070869 0.130443 0.0623801 -0.0408741 -0.0107462 -0.0321058 -0.0245292 0.0354875 0.0445936 0.00298563 0.0358397 -0.0764828 -0.0338861 0.0148496 0.0634365 -0.0392521 0.0196303 -0.0504301 0.105413 0.0115241 -0.0318888 -0.0553772 -0.039956 0.00980833 -0.0231688 -0.0693675 0.0912956 0.00752843 0.00787044 -0.0738161 0.0336768 0.00750187 0.0458488 0.00551073 -0.00236978 0.015057 -0.00319912 -0.0653512 0.0537487 -0.0127916 -0.084545 0.0321589 0.0291655 0.0727427 -0.00760412 0.0171386 0.0497183 -0.019487 -0.033313 -0.0150659 -0.0473591 -0.00036757 0.0126354 0.0431075 -0.0108387 -0.0098384 -0.0356807 -0.0319174 -0.0573855 0.0739088 0.00375799 0.0552612 -0.0666786 0.0654597 0.00930933 0.010961 -0.0418433 0.0892361 -0.0598602 0.042818 0.0549974 -0.0677666 -0.0324371 -0.0123423 0.0435328 -0.00362109 -0.0648209 -0.0635594 -0.00889645 0.00343831 0.00290193 -0.0635459 0.0133504 -0.0363939 0.0703183 0.0349807 -0.0214164 -0.0762215 0.0474534 -0.00114438 0.00188444 0.0315472 0.0637942 0.0588034 -0.074919 0.023393 -0.0970998 -0.0175845 -0.0417923 -0.121876 0.0247682 0.0304468 0.118067 0.0225827 0.0245241 -0.00537661 -0.0251658 -0.0490414 0.0983668 0.0242976 -0.057809 0.0468737 0.000589838 0.0265268 0.0515456 -0.0366128 -0.0161934 -0.034797 0.0667461 0.00032152 -0.105862 -0.0623521 0.089197 0.0784511 0.0748444 -0.0509185
1102 0.0480808 0.177887 0.148973 0.280003 0.145859 -0.0926241 -0.0156706 -0.0694681 -0.0465441 0.0717736 0.100114 0.007789 0.0904549 -0.160168 -0.0743693 0.0265445 0.134715 -0.0909356 0.035824 -0.11211 0.233188 0.033686 -0.0794831 -0.118984 -0.096329 0.031795 -0.0558947 -0.148983 0.203076 0.0227538 0.0175305 -0.164716 0.0690269 0.00705164 0.106314 0.00282684 -0.00100802 0.043277 -0.0142592 -0.13871 0.119035 -0.0346328 -0.182139 0.0621366 0.0584141 0.151098 -0.0162774 0.0378298 0.111212 -0.0404913 -0.0742803 -0.0273025 -0.109795 -0.000464413 0.0195609 0.0857085 -0.0204452 -0.0133978 -0.0772827 -0.0705639 -0.121109 0.163426 0.0131764 0.113052 -0.139426 0.136297 0.0214451 0.0302123 -0.101788 0.194979 -0.126073 0.0870358 0.125347 -0.15387 -0.0646407 -0.0281246 0.0910214 -0.0140721 -0.148188 -0.136643 -0.0261077 0.00499244 0.0146848 -0.136942 0.038889 -0.0718764 0.14611 0.0735272 -0.0421442 -0.164925 0.0997645 -0.00255293 -0.00435463 0.0671511 0.146022 0.125185 -0.167053 0.0455192 -0.205187 -0.0409351 -0.0901229 -0.273197 0.0593108 0.0623537 0.263565 0.0413809 0.0467207 -0.0166703 -0.0600891 -0.116083 0.221166 0.0506542 -0.126017 0.104158 0.00489814 0.0600948 0.109939 -0.0716521 -0.0309532 -0.0835795 0.155823 -0.00630018 -0.231494 -0.140861 0.192019 0.170707 0.166026 -0.122407
1310 0.0337386 0.128162 0.105848 0.193948 0.100756 -0.067342 -0.00865653 -0.0483691 -0.0359132 0.0530679 0.065479 0.000487597 0.0615058 -0.109417 -0.0507944 0.0139639 0.0965653 -0.0625302 0.0285285 -0.0769913 0.165948 0.0263669 -0.0517538 -0.0884532 -0.0709621 0.0202507 -0.0422596 -0.109636 0.143606 0.0171561 0.00991953 -0.116643 0.0503587 0.0110178 0.0773534 0.0078839 -0.00236619 0.0286958 -0.00314209 -0.0953041 0.0846878 -0.0247588 -0.128987 0.0469001 0.0439234 0.107332 -0.0127234 0.0291688 0.0757439 -0.0274357 -0.0474937 -0.0182087 -0.0746574 0.00374112 0.0155606 0.0604532 -0.016652 -0.0147203 -0.0560031 -0.0527415 -0.0836302 0.117247 0.0072554 0.07842 -0.0944846 0.0988542 0.0108596 0.020808 -0.0688782 0.136262 -0.0906499 0.0595538 0.0869884 -0.10694 -0.042815 -0.0254713 0.060062 -0.0118717 -0.104876 -0.0914629 -0.0166088 -0.00101457 0.0122128 -0.0944701 0.0210885 -0.0508477 0.0986036 0.0490954 -0.030273 -0.115589 0.066421 -0.00458288 -0.00551452 0.0525119 0.0982687 0.0878164 -0.11714 0.0306705 -0.14266 -0.0281159 -0.0612 -0.18814 0.0438976 0.0420419 0.182443 0.0292701 0.0326816 -0.0136225 -0.0420586 -0.0797172 0.154638 0.0333632 -0.0924681 0.0737066 0.00199777 0.0477919 0.0782641 -0.0487429 -0.0247639 -0.0524856 0.105946 0.000459017 -0.158774 -0.0953382 0.135488 0.119551 0.116507 -0.0834441
1973 0.0269013 0.0965338 0.0805951 0.154104 0.078998 -0.0526841 -0.00886884 -0.0366642 -0.0310222 0.037423 0.0529252 0.00203234 0.0452003 -0.0877944 -0.0371872 0.0141269 0.0727579 -0.0483262 0.0250201 -0.0577875 0.131097 0.0207577 -0.0410655 -0.0653408 -0.0521391 0.0203827 -0.0315842 -0.0841045 0.11051 0.00861342 0.0114869 -0.0920513 0.0379213 0.00443367 0.057476 0.000182587 -0.00346666 0.0195062 -0.00664706 -0.0775678 0.0612301 -0.0151974 -0.0991716 0.0355676 0.0305098 0.0879058 -0.0124882 0.0248629 0.0576651 -0.0236964 -0.0371588 -0.0169674 -0.0598005 0.00457772 0.00764938 0.0468303 -0.0110965 -0.00635059 -0.0437735 -0.0409252 -0.0684999 0.0918099 0.00949634 0.0595247 -0.0764384 0.0735733 0.0144371 0.0158339 -0.0533213 0.110056 -0.0711579 0.0460821 0.0696749 -0.0897695 -0.0390717 -0.0156663 0.0462558 -0.00368149 -0.0803751 -0.0769238 -0.0125679 -0.000104176 0.00887224 -0.0707163 0.0220229 -0.0416506 0.081931 0.0403738 -0.0197135 -0.0902723 0.0570665 -0.00279528 -0.00570679 0.0402301 0.0795937 0.0716123 -0.0877728 0.0309309 -0.118926 -0.0247813 -0.0519926 -0.150325 0.0353122 0.0400066 0.145742 0.0242134 0.0291489 -0.00892544 -0.0311057 -0.0655131 0.12199 0.0248341 -0.068615 0.0614308 0.00233801 0.0332927 0.0625805 -0.0430717 -0.0136905 -0.041752 0.0887304 -0.00238034 -0.123998 -0.0727011 0.107916 0.0958733 0.0895174 -0.064749
755 0.0189796 0.0648701 0.0538413 0.0979523 0.0544467 -0.0308888 -0.00790017 -0.0237298 -0.0208709 0.0260018 0.0325779 0.00228408 0.0310593 -0.0579198 -0.0242986 0.0127542 0.0504333 -0.033003 0.0137578 -0.039207 0.078967 0.00979975 -0.025179 -0.0445622 -0.0344988 0.00935802 -0.0211678 -0.050192 0.0738565 0.00517893 0.0029763 -0.0564039 0.0243334 0.000524736 0.0380811 0.00518624 0.00258391 0.015346 -0.00667169 -0.049666 0.0443504 -0.00971717 -0.0614966 0.024371 0.0231916 0.0511887 -0.00819159 0.0177578 0.0353499 -0.0146622 -0.0279552 -0.0103472 -0.0348331 6.34063e-05 0.00514489 0.0293892 -0.0083252 -0.00310502 -0.0288074 -0.0261543 -0.0454121 0.0619576 0.00697429 0.0433076 -0.0452946 0.0496672 0.00863753 0.00638214 -0.0355631 0.0699947 -0.0457459 0.0302193 0.0421881 -0.0582617 -0.025122 -0.0101154 0.0338961 -0.00544051 -0.0536026 -0.0452141 -0.00727025 -0.00193939 0.00471986 -0.0460716 0.0114815 -0.0282232 0.0555568 0.0229934 -0.0183219 -0.0575528 0.0337364 0.00316641 -0.00194016 0.0225316 0.050911 0.0444243 -0.0595173 0.0177169 -0.0760155 -0.0122463 -0.0334026 -0.0955041 0.0242044 0.0252562 0.0970275 0.0161609 0.0202305 -0.0091759 -0.022124 -0.0420796 0.0797226 0.0160575 -0.045793 0.0333484 0.000704386 0.0205923 0.0352692 -0.0286536 -0.0121776 -0.0276492 0.056571 0.00135508 -0.0772274 -0.0520296 0.0710798 0.0605855 0.0558649 -0.0438946
